SVM-light Version V5.00
2 # kernel type
3 # kernel parameter -d 
0.1 # kernel parameter -g 
1 # kernel parameter -s 
1 # kernel parameter -r 
empty# kernel parameter -u 
2226 # highest feature index 
18907 # number of training documents 
359 # number of support vectors plus 1 
0.56351492 # threshold b, each following line is a SV (starting with alpha*y)
-0.0065279378889818188633209494753373 1:0.10576923 6:0.090909094 9:0.18181819 14:0.090909094 17:0.18181819 18:0.057142861 27:0.2857143 30:0.1 41:0.11111111 43:0.30000001 74:0.25 75:0.5 84:0.25 93:0.33333334 110:0.5 123:0.5 142:0.25 144:0.5 186:0.25 257:0.5 262:0.25 332:1 341:1 472:0.5 473:0.5 736:1 777:1 778:1 779:1 2116:0.5 2118:0.5 2120:0.5 2121:0.5 2122:0.5 2168:0.5 2186:0.5 2189:0.5 2217:0.5 
-1.3521857866267361636403165903175 1:0.01923077 18:0.085714288 349:0.33333334 2121:0.5 2126:0.5 2130:0.5 2136:0.5 2158:0.5 2160:0.5 2161:0.5 2168:0.5 
-0.0083076291743131042838443889309019 1:0.067307688 4:0.71428573 18:0.071428567 54:0.55555558 83:0.25 133:0.5 150:0.01333333 273:1 283:0.5 284:0.5 1311:1 1312:1 1313:1 1314:1 2122:0.5 2123:0.5 2128:0.5 2135:0.5 2143:0.5 2146:0.5 2148:0.5 2149:0.5 2150:0.5 2153:0.5 
-0.19195965392969369101017207412951 1:0.067307688 5:0.42857143 14:0.14285713 17:0.2857143 18:0.2 19:0.2 23:0.14285713 27:0.14285713 41:0.11111111 43:0.1 45:0.5 62:0.5 105:0.5 905:1 960:1 2121:0.5 2126:0.5 2130:0.5 2161:0.5 2171:0.5 2182:0.5 2185:0.5 2192:0.5 
-0.15268168973113926956131081169588 1:0.096153848 5:0.2 7:0.2 9:0.2 14:0.1 18:0.48571429 19:0.13333333 38:0.33333334 41:0.11111111 43:0.40000001 71:0.5 74:0.25 75:0.25 83:0.25 105:0.5 144:0.5 166:0.5 186:0.25 189:0.16666667 232:0.5 233:0.33333334 253:0.5 259:0.33333334 262:0.25 431:0.33333334 469:1 528:1 1287:1 1529:1 2140:0.5 2144:0.5 2147:0.5 2148:0.5 2150:0.5 2153:0.5 2154:0.5 2155:0.5 2156:0.5 2160:0.5 2166:0.5 2168:0.5 2171:0.5 
0.94465252169834412754312324977946 1:0.03846154 11:0.5 18:0.085714288 43:0.1 150:0.026666669 151:1 152:1 153:1 154:0.5 155:1 156:1 2121:0.5 2126:0.5 2128:0.5 2130:0.5 2132:0.5 2155:0.5 2158:0.5 2160:0.5 2168:0.5 
0.98359812392784307100157548120478 1:0.125 6:0.07692308 9:0.07692308 11:0.07692308 14:0.07692308 17:0.15384614 18:0.3142857 27:0.2857143 30:0.1 41:0.11111111 43:0.30000001 56:0.01639344 67:0.5 69:0.5 74:0.25 75:0.25 84:0.25 93:0.33333334 110:0.5 123:0.5 132:0.5 142:0.25 144:0.5 156:0.5 196:0.25 257:0.5 349:0.33333334 352:0.5 736:1 740:1 742:1 743:1 745:1 746:1 747:1 2148:0.5 2153:0.5 2158:0.5 2164:0.5 2168:0.5 2171:0.5 2179:0.5 2188:0.5 2189:0.5 2190:0.5 2191:0.5 2192:0.5 2193:0.5 2209:0.5 2211:0.5 
1.6407581834342914728352980091586 1:0.01923077 7:0.5 18:0.11428571 124:0.16666667 593:0.5 594:0.5 595:0.33333334 596:0.33333334 2142:0.5 2145:0.5 2160:0.5 2161:0.5 2179:0.5 2180:0.5 2181:0.5 2182:0.5 2192:0.5 
0.51282012761678186230085429997416 1:0.14423077 4:0.06666667 6:0.06666667 7:0.06666667 9:0.2 11:0.13333333 14:0.06666667 17:0.13333333 18:0.48571429 29:0.1 41:0.11111111 43:0.5 54:0.11111111 56:0.01639344 71:0.5 74:0.5 75:0.5 124:0.16666667 144:0.5 150:0.026666669 152:0.5 154:0.5 156:1 176:0.5 186:0.5 243:0.5 245:0.5 259:0.33333334 260:1 262:0.5 286:0.5 389:0.5 469:1 495:0.5 711:1 740:1 773:1 1037:1 1280:1 1287:1 1732:1 2159:0.5 2160:0.5 2186:0.5 2191:0.5 2192:0.5 2193:0.5 2202:0.5 
1.1147737556573160677686473718495 1:0.11538462 5:0.16666667 6:0.16666667 7:0.083333328 11:0.16666667 18:0.2857143 19:0.13333333 27:0.2857143 29:0.2 43:0.30000001 56:0.01639344 62:0.5 67:0.5 69:0.5 124:0.16666667 142:0.25 148:0.2 156:1 189:0.16666667 200:0.5 257:0.5 337:0.25 387:0.5 408:1 526:0.25 736:1 737:1 738:1 739:1 740:1 741:1 742:1 743:1 2143:0.5 2144:0.5 2147:0.5 2148:0.5 2149:0.5 2153:0.5 2164:0.5 2168:0.5 2187:0.5 2188:0.5 2189:0.5 2190:0.5 2207:0.5 2208:0.5 
-0.32427310574013834543194434445468 1:0.21153846 3:0.13636364 4:0.045454551 5:0.045454551 7:0.045454551 11:0.045454551 14:0.090909094 16:0.090909094 17:0.045454551 18:0.38571429 19:0.06666667 22:0.036585368 33:0.25 41:0.22222222 43:0.1 44:0.01538462 54:0.11111111 56:0.01639344 61:0.25 65:0.33333334 71:0.5 83:0.25 84:0.25 93:0.33333334 104:0.5 108:1 138:1 154:0.5 156:0.5 173:1 174:0.25 186:0.25 275:0.5 279:0.5 280:0.33333334 282:0.33333334 310:0.5 311:1 389:0.5 406:0.33333334 469:1 526:0.5 539:0.33333334 574:1 935:1 998:1 1185:1 1276:1 1287:1 1393:1 1644:1 1645:1 1646:0.33333334 1647:1 1648:1 1649:1 1650:1 1651:1 2155:0.5 2159:0.5 2160:0.5 2161:0.5 2175:0.5 2184:0.5 2186:0.5 2194:0.5 2202:0.5 2220:0.5 
-0.19344359169445862756120391168224 1:0.23076923 3:0.083333328 4:0.041666672 7:0.041666672 9:0.083333328 11:0.041666672 14:0.16666667 17:0.083333328 18:0.34285715 22:0.024390239 27:0.2857143 41:0.44444445 43:0.40000001 44:0.01538462 54:0.11111111 56:0.01639344 61:0.5 66:0.33333334 67:0.5 69:0.5 74:0.25 75:0.25 83:0.25 84:0.5 92:0.5 93:0.66666669 94:1 95:1 108:0.5 109:0.25 123:0.5 142:0.25 144:0.5 154:0.5 156:0.5 173:1 186:0.25 237:0.33333334 257:0.5 258:0.5 262:0.25 275:0.5 280:0.33333334 282:0.33333334 321:0.33333334 382:0.5 385:0.5 526:0.5 574:1 736:1 935:1 998:1 1185:1 1276:1 1644:1 1645:1 1646:0.33333334 1649:1 1650:1 2144:0.5 2147:0.5 2148:0.5 2151:0.5 2152:0.5 2153:0.5 2164:0.5 2180:0.5 2182:0.5 2183:0.5 2184:0.5 
-0.2113929333558558498751267507032 1:0.35576922 3:0.35135135 5:0.13513514 6:0.02702703 12:0.02702703 14:0.1891892 17:0.02702703 18:0.22857143 19:0.33333334 21:0.33333334 22:0.15853658 30:0.1 41:0.77777779 43:0.1 44:0.10769231 52:0.40000001 56:0.01639344 58:0.2 61:0.5 65:0.33333334 84:0.25 85:0.25 89:0.5 93:0.33333334 104:0.5 105:1 108:1 109:0.5 113:0.5 117:0.25 120:0.33333334 123:0.5 124:0.33333334 137:0.5 165:1 167:1 174:0.25 224:0.5 233:0.33333334 244:0.33333334 279:0.5 280:0.33333334 360:1 394:1 430:1 531:1 555:1 597:1 598:1 1330:1 1331:1 1526:1 1548:1 1668:1 2174:0.5 2176:0.5 2178:0.5 2179:0.5 2180:0.5 2181:0.5 2182:0.5 2183:0.5 
1.6407581834342914728352980091586 1:0.0096153803 18:0.25714287 2121:0.5 2126:0.5 2130:0.5 2133:0.5 2161:0.5 2171:0.5 2185:0.5 2192:0.5 
1.6407581834342914728352980091586 1:0.03846154 7:1 18:0.071428567 2123:0.5 2127:0.5 2148:0.5 2149:0.5 2150:0.5 2151:0.5 2171:0.5 2202:0.5 
1.6407581834342914728352980091586 1:0.02884615 4:0.33333334 7:0.33333334 18:0.085714288 43:0.1 54:0.11111111 83:0.25 209:0.2 253:0.5 797:1 2110:0.5 2121:0.5 2126:0.5 2128:0.5 2130:0.5 2132:0.5 2158:0.5 2160:0.5 
-0.046512696029341632497633440834761 1:0.03846154 6:0.25 7:0.25 9:0.25 11:0.25 18:0.12857144 29:0.1 43:0.1 71:0.5 74:0.25 75:0.25 156:0.5 337:0.25 529:1 1074:1 2121:0.5 2126:0.5 2129:0.5 2130:0.5 2158:0.5 2160:0.5 2161:0.5 2197:0.5 
-0.051897467314323778020401789490279 1:0.24038462 3:0.28 5:0.16 12:0.039999999 14:0.12 17:0.039999999 18:0.12857144 19:0.26666668 21:0.33333334 22:0.085365847 27:0.2857143 41:0.33333334 43:0.1 44:0.046153851 53:0.14285713 61:0.5 65:1 68:1 84:0.25 85:0.25 87:1 93:0.33333334 105:0.5 109:0.5 112:0.5 120:0.66666669 224:0.5 231:1 277:0.33333334 280:0.33333334 282:0.66666669 291:0.5 303:1 554:1 1169:1 1185:1 1565:1 2145:0.5 2157:0.5 2158:0.5 2160:0.5 2161:0.5 2182:0.5 
0.31587383328730156417663010870456 1:0.13461538 6:0.14285713 7:0.35714287 9:0.14285713 11:0.071428567 16:0.071428567 18:0.028571431 29:0.2 33:0.125 38:0.33333334 43:0.1 66:0.33333334 71:0.5 72:1 73:1 74:0.25 75:0.25 124:0.33333334 156:0.5 322:0.25 417:0.5 418:1 501:0.33333334 591:1 593:1 594:1 595:0.66666669 596:0.66666669 732:1 1369:1 1370:1 1371:1 1372:1 1373:1 1374:1 1375:1 1376:1 1377:1 1378:1 2110:0.5 2112:0.5 2113:0.5 2155:0.5 2162:0.5 
0.33528804044748300450251576876326 1:0.13461538 6:0.14285713 7:0.35714287 9:0.14285713 11:0.071428567 16:0.071428567 18:0.028571431 29:0.2 33:0.125 38:0.33333334 43:0.1 66:0.33333334 71:0.5 72:1 73:1 74:0.25 75:0.25 124:0.33333334 156:0.5 322:0.25 417:0.5 418:1 501:0.33333334 591:1 593:1 594:1 595:0.66666669 596:0.66666669 732:1 1369:1 1370:1 1371:1 1372:1 1373:1 1374:1 1375:1 1376:1 1377:1 1378:1 2110:0.5 2112:0.5 2155:0.5 2162:0.5 2163:0.5 
0.92076058660253001786344384527183 1:0.13461538 6:0.071428567 7:0.14285713 9:0.21428572 11:0.14285713 14:0.071428567 17:0.071428567 18:0.45714286 29:0.1 41:0.11111111 43:0.5 56:0.01639344 71:0.5 74:0.5 75:0.5 124:0.16666667 144:0.5 150:0.026666669 152:0.5 154:0.5 156:1 186:0.5 243:0.5 245:0.5 259:0.33333334 260:1 262:0.5 286:0.5 389:0.5 456:1 469:1 495:0.5 711:1 740:1 773:1 1037:1 1280:1 1287:1 1732:1 2147:0.5 2153:0.5 2154:0.5 2156:0.5 2183:0.5 2184:0.5 2189:0.5 2190:0.5 2209:0.5 
-1.6407581834342914728352980091586 1:0.10576923 3:0.18181819 7:0.090909094 11:0.18181819 14:0.18181819 17:0.090909094 18:0.21428572 22:0.024390239 41:0.22222222 61:0.25 109:0.5 124:0.33333334 156:1 593:0.5 594:0.5 595:0.66666669 596:0.66666669 825:1 1830:1 2141:0.5 2154:0.5 2177:0.5 2181:0.5 2182:0.5 2183:0.5 2184:0.5 
-1.1102013059168467368209576306981 1:0.086538456 3:0.22222222 7:0.11111111 11:0.11111111 14:0.22222222 17:0.11111111 18:0.30000001 22:0.024390239 41:0.22222222 44:0.01538462 56:0.01639344 84:0.25 93:0.33333334 109:0.25 156:0.5 186:0.25 237:0.33333334 275:0.5 280:0.33333334 282:0.33333334 321:0.33333334 479:1 804:1 1037:1 2143:0.5 2149:0.5 2150:0.5 2155:0.5 2156:0.5 2160:0.5 2163:0.5 2168:0.5 2171:0.5 2179:0.5 2180:0.5 2181:0.5 2182:0.5 2184:0.5 2186:0.5 2202:0.5 2214:0.5 2217:0.5 
0.17499715913401639455493352670601 1:0.067307688 7:0.42857143 11:0.2857143 18:0.071428567 38:0.33333334 43:0.1 124:0.33333334 150:0.026666669 152:1 154:0.5 156:1 322:0.25 483:1 1460:1 1607:1 2121:0.5 2126:0.5 2128:0.5 2130:0.5 2132:0.5 2158:0.5 2160:0.5 2168:0.5 
1.6407581834342914728352980091586 1:0.02884615 17:0.33333334 18:0.3142857 83:0.25 1441:1 2157:0.5 2168:0.5 2185:0.5 2191:0.5 2192:0.5 2194:0.5 
1.6407581834342914728352980091586 1:0.0096153803 17:1 18:0.085714288 2121:0.5 2126:0.5 2130:0.5 2133:0.5 2136:0.5 2160:0.5 2161:0.5 2192:0.5 
1.6407581834342914728352980091586 1:0.01923077 7:0.5 17:0.5 18:0.11428571 38:0.33333334 124:0.16666667 1460:1 2121:0.5 2126:0.5 2130:0.5 2133:0.5 2155:0.5 2158:0.5 2160:0.5 2177:0.5 2194:0.5 
-0.10379822115758614853309182990415 1:0.28846154 3:0.2 5:0.13333333 7:0.033333331 8:0.066666663 9:0.033333331 14:0.13333333 17:0.1 18:0.3142857 19:0.26666668 21:0.33333334 22:0.073170729 27:0.2857143 41:0.44444445 43:0.5 44:0.046153851 51:0.125 52:0.2 56:0.032786891 58:0.2 61:0.25 62:0.5 64:0.5 65:0.33333334 69:0.5 75:0.25 84:0.5 93:0.66666669 104:0.5 108:0.5 109:0.25 110:0.5 112:0.5 115:0.33333334 116:1 122:0.5 123:0.5 127:0.33333334 139:0.5 141:0.5 142:0.25 144:0.5 186:0.5 189:0.33333334 237:0.33333334 257:0.5 279:0.5 345:0.5 516:1 712:1 713:0.5 736:1 917:1 933:1 1146:1 1395:1 2157:0.5 2168:0.5 2171:0.5 2182:0.5 2183:0.5 2184:0.5 2185:0.5 2186:0.5 2196:0.5 2202:0.5 
-0.00589361960601961047678809535455 1:0.02884615 5:0.33333334 7:0.33333334 9:0.33333334 18:0.085714288 19:0.06666667 43:0.1 71:0.5 74:0.25 75:0.25 145:1 148:0.2 2121:0.5 2126:0.5 2130:0.5 2136:0.5 2158:0.5 2160:0.5 2161:0.5 2168:0.5 
-0.045715077284164844229064073033442 1:0.02884615 4:0.66666669 18:0.12857144 43:0.1 54:0.22222222 83:0.25 150:0.01333333 209:0.2 253:0.5 284:0.5 354:1 2121:0.5 2126:0.5 2130:0.5 2133:0.5 2160:0.5 2161:0.5 2185:0.5 2192:0.5 
1.6407581834342914728352980091586 1:0.067307688 7:0.2857143 11:0.14285713 14:0.2857143 18:0.32857144 27:0.14285713 41:0.22222222 45:0.5 65:0.33333334 95:1 140:1 150:0.01333333 156:0.5 322:0.25 594:0.5 1523:1 1670:1 1671:1 1830:0.5 2144:0.5 2147:0.5 2159:0.5 2171:0.5 2183:0.5 2208:0.5 
1.6407581834342914728352980091586 1:0.067307688 6:0.2857143 14:0.14285713 17:0.14285713 18:0.2857143 29:0.1 30:0.1 34:0.33333334 41:0.11111111 43:0.2 65:0.33333334 83:0.25 124:0.16666667 140:1 150:0.01333333 200:0.25 253:0.5 333:0.5 595:0.33333334 596:0.33333334 760:1 1442:1 1523:1 2140:0.5 2144:0.5 2147:0.5 2157:0.5 2182:0.5 2207:0.5 
0.79763309570455864783156130215502 1:0.13461538 4:0.14285713 7:0.5 11:0.14285713 18:0.15714286 38:1 43:0.1 54:0.22222222 56:0.01639344 83:0.25 150:0.01333333 154:0.5 156:1 158:0.5 173:1 284:0.5 322:1 333:0.5 526:0.25 741:1 789:0.66666669 790:1 1135:1 1155:1 1157:1 1516:0.5 2062:1 2063:1 2121:0.5 2126:0.5 2130:0.5 2133:0.5 2158:0.5 2160:0.5 2161:0.5 2177:0.5 2197:0.5 
-0.61372021267134513333729728401522 1:0.057692312 6:0.16666667 14:0.33333334 18:0.3142857 27:0.14285713 30:0.1 41:0.22222222 45:0.5 65:0.33333334 83:0.25 95:1 140:1 150:0.01333333 158:0.5 380:1 1523:1 2140:0.5 2144:0.5 2147:0.5 2157:0.5 2182:0.5 2190:0.5 2207:0.5 
-0.23381098492593690996166344575613 1:0.25 3:0.03846154 5:0.11538462 6:0.23076923 7:0.03846154 11:0.03846154 14:0.03846154 16:0.07692308 18:0.42857143 19:0.2 22:0.01219512 27:0.2857143 29:0.2 30:0.40000001 33:0.25 35:0.5 41:0.11111111 43:0.60000002 61:0.25 67:1 69:1 74:0.25 75:0.25 95:1 142:0.25 143:0.5 144:0.5 148:0.2 150:0.039999999 154:0.5 156:0.5 166:0.5 189:0.16666667 196:0.5 232:1 233:1 234:1 236:1 237:0.33333334 248:1 267:1 337:0.25 348:0.5 379:0.5 382:0.5 424:0.5 488:0.33333334 492:0.5 506:1 526:0.25 764:1 1227:1 1650:1 1995:1 1996:1 2144:0.5 2147:0.5 2150:0.5 2156:0.5 2157:0.5 2183:0.5 2184:0.5 
-0.1871663523636949988393496369099 1:0.15384614 3:0.125 5:0.125 7:0.1875 9:0.25 14:0.125 16:0.0625 18:0.38571429 19:0.13333333 22:0.024390239 33:0.125 38:0.33333334 41:0.22222222 43:0.60000002 51:0.125 56:0.01639344 58:0.2 74:0.25 75:0.25 108:0.5 123:0.5 150:0.01333333 188:0.5 189:0.16666667 222:0.33333334 224:0.5 232:0.5 233:0.33333334 248:1 259:1 322:0.25 379:0.5 456:1 457:1 481:0.5 495:0.5 497:0.5 506:1 764:1 794:1 806:1 1125:1 1158:1 1227:1 1364:1 1398:1 2094:1 2115:0.5 2140:0.5 2144:0.5 2147:0.5 2148:0.5 2153:0.5 2156:0.5 2164:0.5 2166:0.5 2168:0.5 2179:0.5 2183:0.5 
1.6407581834342914728352980091586 1:0.0096153803 18:0.27142856 1470:1 2121:0.5 2126:0.5 2130:0.5 2136:0.5 2160:0.5 2161:0.5 2168:0.5 2192:0.5 
1.6407581834342914728352980091586 1:0.0096153803 18:0.18571429 2111:0.5 2136:0.5 2146:0.5 2149:0.5 2160:0.5 2161:0.5 2168:0.5 2192:0.5 
-1.6407581834342914728352980091586 1:0.0096153803 18:0.15714286 96:0.33333334 2146:0.5 2148:0.5 2149:0.5 2160:0.5 2161:0.5 2168:0.5 2177:0.5 2192:0.5 
-1.6407581834342914728352980091586 1:0.0096153803 11:1 18:0.1 156:0.5 2157:0.5 2160:0.5 2161:0.5 2168:0.5 2185:0.5 2192:0.5 
-1.6407581834342914728352980091586 1:0.0096153803 18:0.085714288 383:0.5 2111:0.5 2136:0.5 2143:0.5 2146:0.5 2160:0.5 2161:0.5 2168:0.5 2192:0.5 
1.1015745996655608163194983717403 1:0.125 6:0.07692308 9:0.07692308 11:0.07692308 14:0.07692308 17:0.15384614 18:0.34285715 27:0.2857143 30:0.1 41:0.11111111 43:0.30000001 56:0.01639344 67:0.5 69:0.5 74:0.25 75:0.25 84:0.25 93:0.33333334 110:0.5 123:0.5 132:0.5 142:0.25 144:0.5 156:0.5 196:0.25 257:0.5 349:0.33333334 352:0.5 736:1 740:1 742:1 743:1 745:1 746:1 747:1 2154:0.5 2158:0.5 2168:0.5 2171:0.5 2175:0.5 2181:0.5 2185:0.5 2190:0.5 2191:0.5 2192:0.5 2193:0.5 2195:0.5 2196:0.5 2197:0.5 
1.6407581834342914728352980091586 1:0.07692308 6:0.25 7:0.625 18:0.12857144 30:0.2 56:0.032786891 124:0.16666667 150:0.01333333 181:0.16666667 322:0.5 357:0.25 426:0.66666669 922:0.5 1124:1 1473:0.16666667 1475:0.5 1477:1 1859:1 2000:1 2056:1 2088:0.5 2089:0.5 2090:0.5 2091:0.5 2121:0.5 2126:0.5 2160:0.5 2166:0.5 2185:0.5 2190:0.5 2192:0.5 2194:0.5 
1.6407581834342914728352980091586 1:0.10576923 6:0.18181819 7:0.18181819 9:0.18181819 11:0.090909094 18:0.057142861 30:0.2 43:0.40000001 142:0.25 143:0.5 150:0.01333333 152:0.5 154:0.5 156:0.5 196:0.25 232:0.5 233:0.33333334 259:0.33333334 282:0.33333334 322:0.25 347:1 349:0.33333334 352:0.5 357:0.125 483:1 528:1 665:1 913:0.5 1086:1 1088:0.5 2121:0.5 2123:0.5 2126:0.5 2127:0.5 2130:0.5 2150:0.5 2155:0.5 2156:0.5 2168:0.5 2171:0.5 
1.6407581834342914728352980091586 1:0.0096153803 18:0.1 1470:1 2111:0.5 2136:0.5 2146:0.5 2149:0.5 2160:0.5 2161:0.5 2168:0.5 2192:0.5 
-0.32911790965993958923974105346133 1:0.15384614 3:0.0625 4:0.25 7:0.25 16:0.125 18:0.2 22:0.01219512 33:0.25 47:0.2 54:0.44444445 124:1 159:1 181:0.66666669 182:0.25 192:1 461:0.5 526:0.5 544:0.5 630:0.5 631:0.5 632:0.66666669 735:1 871:1 889:1 952:1 985:1 1218:1 1349:1 1366:1 1382:1 1475:0.5 1761:1 1851:1 1852:1 1853:1 1854:1 2121:0.5 2126:0.5 2130:0.5 2133:0.5 2137:0.5 2140:0.5 2144:0.5 2147:0.5 
-0.25520978179291925469485136090952 1:0.38461539 3:0.5 4:0.1 16:0.15000001 18:0.14285713 22:0.24390244 27:0.71428573 33:0.75 42:0.11111111 43:0.2 44:0.18461537 46:0.25 47:0.2 48:0.16666667 51:0.25 53:0.5714286 54:0.44444445 55:0.5 61:0.25 124:0.33333334 133:0.16666667 190:1 233:0.66666669 283:0.5 413:0.5 414:0.5 424:0.5 524:0.5 526:0.5 536:1 539:0.66666669 638:1 639:1 640:1 641:1 950:0.5 952:0.25 1167:1 1861:1 1995:1 2072:1 2073:1 2074:1 2075:1 2076:1 2077:1 2078:1 2121:0.5 2126:0.5 2130:0.5 2133:0.5 2137:0.5 2140:0.5 2144:0.5 2147:0.5 
-0.26792324028324715490256835437322 1:0.1826923 3:0.36842105 5:0.052631579 7:0.15789475 18:0.24285714 19:0.06666667 22:0.085365847 27:0.14285713 44:0.07692308 55:0.16666667 61:0.25 113:0.5 124:0.83333331 181:0.5 244:0.33333334 282:0.33333334 418:0.25 553:0.5 871:1 910:0.66666669 1218:1 1657:1 1666:1 1888:1 2034:1 2081:1 2082:1 2083:1 2095:1 2096:1 2097:1 2098:1 2121:0.5 2126:0.5 2130:0.5 2133:0.5 2137:0.5 2140:0.5 2144:0.5 2147:0.5 
1.6407581834342914728352980091586 1:0.01923077 11:0.5 18:0.24285714 56:0.01639344 156:0.5 1037:1 2112:0.5 2143:0.5 2158:0.5 2160:0.5 2161:0.5 2168:0.5 2185:0.5 2216:0.5 
1.6407581834342914728352980091586 1:0.01923077 11:0.5 18:0.35714287 56:0.01639344 156:0.5 1037:1 2160:0.5 2161:0.5 2168:0.5 2185:0.5 2192:0.5 2203:0.5 2204:0.5 2216:0.5 
-0.10589210859187592195240767978248 1:0.25961539 3:0.62962961 4:0.074074067 7:0.22222222 18:0.14285713 22:0.20731707 27:0.14285713 43:0.30000001 44:0.2 47:0.2 48:0.16666667 51:0.25 54:0.22222222 55:0.16666667 61:0.25 112:0.5 124:0.5 181:0.5 357:0.375 470:0.33333334 632:1 888:1 910:1 1646:1 1702:1 1703:1 1704:1 1705:1 2121:0.5 2126:0.5 2130:0.5 2133:0.5 2137:0.5 2140:0.5 2141:0.5 2185:0.5 2196:0.5 
-0.7440143127901418518277409930306 1:0.03846154 6:0.25 7:0.5 9:0.25 18:0.085714288 30:0.1 43:0.1 196:0.25 322:0.25 349:0.33333334 352:0.5 357:0.125 1086:1 1124:1 2121:0.5 2126:0.5 2128:0.5 2130:0.5 2132:0.5 2155:0.5 2158:0.5 2168:0.5 
-1.6407581834342914728352980091586 1:0.0096153803 7:1 18:0.18571429 237:0.33333334 2142:0.5 2158:0.5 2159:0.5 2160:0.5 2161:0.5 
1.2112411384628865018697752020671 1:0.096153848 7:0.40000001 9:0.1 18:0.37142858 43:0.40000001 74:0.25 75:0.25 83:0.25 102:1 124:0.33333334 186:0.25 237:0.33333334 253:0.5 262:0.25 321:0.33333334 322:0.25 371:1 373:1 382:0.5 593:1 594:1 595:0.33333334 596:0.33333334 632:0.33333334 1442:1 2155:0.5 2159:0.5 2183:0.5 2184:0.5 2186:0.5 2202:0.5 
0.96396175600621936130352196414606 1:0.04807692 4:0.2 7:0.40000001 11:0.2 18:0.35714287 54:0.11111111 83:0.25 156:0.5 526:0.5 594:1 644:1 741:1 744:0.5 748:1 749:1 2155:0.5 2157:0.5 2160:0.5 2161:0.5 2173:0.5 2177:0.5 2182:0.5 2191:0.5 2193:0.5 2194:0.5 2195:0.5 2197:0.5 
0.5445472314759798315719763195375 1:0.04807692 4:0.2 7:0.40000001 11:0.2 18:0.32857144 54:0.11111111 83:0.25 156:0.5 526:0.5 594:1 644:1 741:1 744:0.5 748:1 749:1 2150:0.5 2152:0.5 2155:0.5 2156:0.5 2160:0.5 2161:0.5 2166:0.5 2173:0.5 2180:0.5 2189:0.5 2190:0.5 2191:0.5 2193:0.5 2194:0.5 2195:0.5 2211:0.5 
-0.51222176969226307363669548067264 1:0.13461538 4:0.14285713 5:0.14285713 6:0.071428567 7:0.071428567 9:0.071428567 11:0.14285713 14:0.071428567 17:0.071428567 18:0.48571429 19:0.13333333 27:0.14285713 30:0.1 41:0.11111111 43:0.30000001 54:0.22222222 56:0.01639344 67:0.5 69:0.5 84:0.25 93:0.33333334 110:0.5 123:0.5 135:0.33333334 142:0.25 143:0.5 146:0.5 154:1 156:1 236:1 237:0.33333334 349:0.33333334 352:0.5 382:0.5 411:1 474:1 745:1 939:1 2154:0.5 2158:0.5 2168:0.5 2171:0.5 2175:0.5 2181:0.5 2185:0.5 2192:0.5 2196:0.5 2218:0.5 
-0.68962637785520997102395313049783 1:0.13461538 3:0.21428572 5:0.14285713 7:0.14285713 8:0.28571427 11:0.071428567 14:0.071428567 18:0.2857143 19:0.13333333 20:0.2 21:0.33333334 22:0.036585368 41:0.11111111 43:0.30000001 44:0.01538462 56:0.032786891 57:0.2 58:0.2 61:0.25 64:1 83:0.25 112:0.5 124:0.16666667 141:0.5 154:0.5 156:0.5 181:0.16666667 188:0.5 450:0.5 593:0.5 594:0.5 595:0.33333334 596:0.33333334 907:0.5 934:1 952:0.125 955:1 1271:1 1419:1 1420:1 2159:0.5 2183:0.5 2184:0.5 2186:0.5 2202:0.5 
-0.33520237634743871302234197173675 1:0.04807692 6:0.40000001 7:0.2 9:0.2 18:0.41428572 30:0.2 43:0.2 56:0.01639344 196:0.25 282:0.33333334 322:0.25 349:0.33333334 351:1 352:0.5 426:0.33333334 483:1 913:0.5 2000:1 2148:0.5 2152:0.5 2153:0.5 2155:0.5 2164:0.5 2168:0.5 2173:0.5 2185:0.5 2194:0.5 
1.6407581834342914728352980091586 1:0.03846154 7:0.75 18:0.1 38:0.33333334 322:0.5 789:0.33333334 790:0.5 1155:0.5 1157:0.5 2121:0.5 2126:0.5 2130:0.5 2136:0.5 2158:0.5 2160:0.5 2161:0.5 2168:0.5 
1.6407581834342914728352980091586 1:0.01923077 7:0.5 18:0.11428571 124:0.16666667 593:0.5 594:0.5 595:0.33333334 596:0.33333334 2121:0.5 2126:0.5 2130:0.5 2133:0.5 2158:0.5 2160:0.5 2161:0.5 2185:0.5 
1.6407581834342914728352980091586 1:0.02884615 11:0.66666669 18:0.1 150:0.01333333 152:0.5 156:1 2121:0.5 2126:0.5 2130:0.5 2133:0.5 2160:0.5 2161:0.5 2185:0.5 2192:0.5 
-1.6407581834342914728352980091586 1:0.0096153803 11:1 18:0.1 156:0.5 2121:0.5 2126:0.5 2130:0.5 2136:0.5 2158:0.5 2160:0.5 2161:0.5 2168:0.5 
-1.6407581834342914728352980091586 1:0.0096153803 11:1 18:0.1 156:0.5 2121:0.5 2126:0.5 2130:0.5 2160:0.5 2161:0.5 2168:0.5 2185:0.5 2192:0.5 
-0.074083696185324038330222151671478 1:0.086538456 4:0.22222222 16:0.33333334 18:0.028571431 33:0.375 43:0.1 54:0.22222222 61:0.25 235:0.2 241:0.5 424:0.5 673:1 674:1 1432:1 1433:1 1434:1 2114:0.5 2143:0.5 2146:0.5 2149:0.5 2150:0.5 2151:0.5 2156:0.5 2163:0.5 2166:0.5 2168:0.5 
1.6407581834342914728352980091586 1:0.01923077 18:0.30000001 150:0.01333333 186:0.25 1931:1 1932:1 1933:1 2157:0.5 2160:0.5 2168:0.5 2185:0.5 2192:0.5 2194:0.5 
1.0571762807429743169507219135994 1:0.057692312 7:0.66666669 11:0.16666667 18:0.071428567 56:0.01639344 124:0.16666667 150:0.01333333 156:0.5 181:0.16666667 322:0.25 357:0.25 737:1 742:1 1037:1 1473:0.16666667 1474:0.33333334 1475:0.5 1476:1 1477:1 2128:0.5 2132:0.5 2148:0.5 2150:0.5 2153:0.5 2155:0.5 2158:0.5 2160:0.5 2163:0.5 2188:0.5 
1.6407581834342914728352980091586 1:0.0096153803 7:1 18:0.15714286 797:1 2115:0.5 2143:0.5 2146:0.5 2148:0.5 2171:0.5 2192:0.5 2194:0.5 2196:0.5 
-0.84722970097974847902833062107675 1:0.01923077 7:0.5 18:0.11428571 115:0.33333334 1696:1 2129:0.5 2157:0.5 2171:0.5 2185:0.5 2192:0.5 2194:0.5 
-1.6407581834342914728352980091586 1:0.0096153803 7:1 18:0.01428571 322:0.25 2110:0.5 2111:0.5 2146:0.5 2149:0.5 
-0.45879112824384660207499564421596 1:0.02884615 14:0.33333334 18:0.17142858 41:0.11111111 65:0.33333334 140:1 315:1 2148:0.5 2150:0.5 2151:0.5 2171:0.5 2185:0.5 2187:0.5 2193:0.5 2194:0.5 
1.6407581834342914728352980091586 1:0.01923077 11:0.5 18:0.25714287 150:0.01333333 152:0.5 156:0.5 2121:0.5 2171:0.5 2180:0.5 2181:0.5 2182:0.5 2185:0.5 2192:0.5 2194:0.5 
1.47887531629103174957151622948 1:0.01923077 11:0.5 18:0.18571429 150:0.01333333 152:0.5 156:0.5 1932:1 1933:1 2121:0.5 2126:0.5 2130:0.5 2136:0.5 2158:0.5 2160:0.5 2161:0.5 2168:0.5 
1.6407581834342914728352980091586 1:0.04807692 4:0.2 7:0.40000001 11:0.2 18:0.1 38:0.33333334 54:0.11111111 150:0.01333333 152:0.5 156:0.5 560:1 611:1 2121:0.5 2126:0.5 2129:0.5 2130:0.5 2161:0.5 2171:0.5 2185:0.5 2192:0.5 
-1.6407581834342914728352980091586 1:0.0096153803 17:1 18:0.12857144 2121:0.5 2126:0.5 2130:0.5 2133:0.5 2171:0.5 2173:0.5 2194:0.5 2196:0.5 
-0.80887830452496667366091287476593 1:0.02884615 7:0.33333334 17:0.33333334 18:0.11428571 43:0.1 181:0.16666667 221:0.2 549:1 570:1 1178:1 2121:0.5 2126:0.5 2130:0.5 2133:0.5 2158:0.5 2160:0.5 2185:0.5 2192:0.5 2194:0.5 2196:0.5 
-0.37219239398055764533879141708894 1:0.07692308 4:0.25 6:0.125 7:0.125 12:0.125 14:0.375 18:0.21428572 29:0.1 38:0.33333334 41:0.33333334 54:0.22222222 56:0.01639344 85:0.25 161:1 224:0.5 263:0.5 498:1 500:1 504:1 611:1 1212:1 2121:0.5 2126:0.5 2161:0.5 2171:0.5 2181:0.5 2182:0.5 2185:0.5 2192:0.5 
1.6407581834342914728352980091586 1:0.02884615 4:0.33333334 7:0.33333334 18:0.30000001 54:0.11111111 83:0.25 526:0.25 644:1 738:1 739:1 744:0.5 2146:0.5 2147:0.5 2150:0.5 2151:0.5 2155:0.5 2156:0.5 2160:0.5 2163:0.5 2166:0.5 2187:0.5 2188:0.5 2189:0.5 2190:0.5 2191:0.5 2208:0.5 2209:0.5 
1.6407581834342914728352980091586 1:0.01923077 7:0.5 18:0.1 124:0.16666667 593:0.5 594:0.5 595:0.33333334 596:0.33333334 2125:0.5 2136:0.5 2158:0.5 2160:0.5 2161:0.5 2168:0.5 2199:0.5 
1.6407581834342914728352980091586 1:0.01923077 17:1 18:0.30000001 2154:0.5 2160:0.5 2161:0.5 2166:0.5 2168:0.5 2185:0.5 2190:0.5 2192:0.5 
-0.32579990143354736753522615799739 1:0.02884615 7:0.33333334 9:0.33333334 18:0.2857143 43:0.1 74:0.25 75:0.25 186:0.25 237:0.33333334 262:0.25 321:0.33333334 2136:0.5 2154:0.5 2160:0.5 2161:0.5 2166:0.5 2190:0.5 2192:0.5 
0.28039433530700158536674848619441 1:0.057692312 7:0.66666669 11:0.16666667 18:0.11428571 56:0.01639344 124:0.16666667 150:0.01333333 156:0.5 357:0.5 737:1 742:1 1037:1 1473:0.5 1476:1 1477:1 2121:0.5 2126:0.5 2130:0.5 2155:0.5 2158:0.5 2160:0.5 2168:0.5 2185:0.5 2195:0.5 2196:0.5 
-0.33809971810892647248181219765684 1:0.02884615 7:0.33333334 9:0.33333334 18:0.12857144 43:0.1 74:0.25 75:0.25 185:1 192:0.5 237:0.33333334 796:1 2112:0.5 2136:0.5 2143:0.5 2160:0.5 2161:0.5 2168:0.5 2189:0.5 2192:0.5 
1.6407581834342914728352980091586 1:0.03846154 7:0.5 18:0.15714286 38:0.33333334 124:0.16666667 322:0.25 595:0.33333334 596:0.33333334 786:0.33333334 789:0.33333334 1441:1 2121:0.5 2126:0.5 2130:0.5 2133:0.5 2158:0.5 2160:0.5 2195:0.5 2196:0.5 
1.6407581834342914728352980091586 1:0.01923077 7:0.5 18:0.15714286 124:0.16666667 593:0.5 594:0.5 595:0.33333334 596:0.33333334 2121:0.5 2126:0.5 2130:0.5 2133:0.5 2173:0.5 2185:0.5 2194:0.5 2218:0.5 
1.6407581834342914728352980091586 1:0.01923077 11:0.5 18:0.11428571 150:0.01333333 152:0.5 153:0.5 155:0.5 156:0.5 2121:0.5 2126:0.5 2130:0.5 2133:0.5 2171:0.5 2185:0.5 2192:0.5 2194:0.5 
1.2713071258969554921947064940468 1:0.01923077 11:0.5 18:0.14285713 56:0.01639344 156:0.5 1037:1 1470:1 2111:0.5 2143:0.5 2146:0.5 2160:0.5 2161:0.5 2168:0.5 2185:0.5 2192:0.5 
-0.94406111516156543395084099756787 1:0.0096153803 18:0.12857144 383:0.5 2121:0.5 2126:0.5 2130:0.5 2158:0.5 2160:0.5 2168:0.5 2185:0.5 2194:0.5 
-1.3068062297291997975179356217268 1:0.01923077 18:0.24285714 83:0.25 673:0.5 2121:0.5 2126:0.5 2130:0.5 2161:0.5 2168:0.5 2185:0.5 2191:0.5 2192:0.5 
-1.6407581834342914728352980091586 1:0.13461538 3:0.35714287 4:0.071428567 5:0.14285713 7:0.14285713 11:0.071428567 18:0.24285714 19:0.13333333 20:0.2 22:0.060975611 38:0.33333334 44:0.061538462 47:0.2 54:0.11111111 56:0.01639344 58:0.2 83:0.25 150:0.01333333 152:0.5 156:0.5 322:0.25 644:1 787:0.5 788:0.5 789:0.33333334 1158:1 2137:0.5 2140:0.5 2144:0.5 2147:0.5 2157:0.5 2182:0.5 
1.6407581834342914728352980091586 1:0.0096153803 7:1 18:0.1 797:1 2111:0.5 2112:0.5 2136:0.5 2143:0.5 2160:0.5 2161:0.5 2168:0.5 2192:0.5 
0.92765952364416237596600467441021 1:0.13461538 7:0.5714286 11:0.14285713 18:0.14285713 83:0.25 150:0.039999999 152:1 156:1 157:1 158:0.5 159:0.5 357:1 787:1 788:1 1473:1 2003:1 2004:1 2121:0.5 2126:0.5 2130:0.5 2132:0.5 2133:0.5 2158:0.5 2160:0.5 2202:0.5 
-0.23924833134783637933473698922171 1:0.13461538 5:0.071428567 6:0.14285713 7:0.21428572 8:0.14285713 9:0.071428567 18:0.15714286 19:0.06666667 27:0.2857143 30:0.2 38:0.33333334 43:0.30000001 56:0.01639344 62:0.5 64:0.5 65:0.33333334 74:0.25 75:0.25 139:0.5 141:0.5 142:0.25 181:0.16666667 186:0.25 199:0.33333334 222:0.33333334 257:0.5 304:1 305:1 332:1 357:0.125 364:0.5 485:1 705:1 736:1 902:1 1148:1 1286:1 1298:1 2121:0.5 2148:0.5 2151:0.5 2156:0.5 2158:0.5 2164:0.5 2168:0.5 2171:0.5 2175:0.5 2185:0.5 2192:0.5 2196:0.5 
-0.19624489330126723696245960582019 1:0.14423077 5:0.13333333 6:0.13333333 8:0.13333334 9:0.13333333 14:0.06666667 18:0.42857143 19:0.13333333 27:0.2857143 30:0.2 41:0.11111111 43:0.30000001 56:0.065573767 58:0.2 61:0.25 64:0.5 66:0.33333334 75:0.25 96:0.33333334 108:1 128:1 132:0.5 139:0.5 141:0.5 142:0.25 144:0.5 150:0.01333333 247:0.5 257:0.5 258:0.5 279:0.5 286:0.5 385:0.5 408:1 411:1 426:0.33333334 443:1 497:1 736:1 932:1 933:1 2143:0.5 2148:0.5 2149:0.5 2153:0.5 2155:0.5 2160:0.5 2163:0.5 2164:0.5 2168:0.5 2184:0.5 2186:0.5 2202:0.5 2215:0.5 
-0.90512852877308780374931984624709 1:0.03846154 7:0.25 9:0.25 11:0.25 18:0.085714288 43:0.2 56:0.01639344 74:0.25 75:0.25 154:0.5 156:0.5 185:1 192:0.5 237:0.33333334 974:1 1037:1 1663:1 2121:0.5 2125:0.5 2126:0.5 2128:0.5 2132:0.5 2155:0.5 2158:0.5 2168:0.5 
1.6407581834342914728352980091586 1:0.01923077 11:0.5 18:0.15714286 150:0.01333333 152:0.5 156:0.5 2146:0.5 2149:0.5 2162:0.5 2171:0.5 2185:0.5 2192:0.5 2194:0.5 2217:0.5 
1.6407581834342914728352980091586 1:0.01923077 7:0.5 18:0.2 124:0.16666667 593:0.5 594:0.5 595:0.33333334 596:0.33333334 2121:0.5 2126:0.5 2129:0.5 2130:0.5 2161:0.5 2171:0.5 2185:0.5 2192:0.5 
-1.6407581834342914728352980091586 1:0.0096153803 18:0.14285713 83:0.25 2111:0.5 2143:0.5 2146:0.5 2160:0.5 2185:0.5 2190:0.5 2192:0.5 2194:0.5 
-0.83741836816881942695545149035752 1:0.01923077 7:0.5 10:0.5 18:0.18571429 181:0.16666667 183:0.5 184:1 2161:0.5 2171:0.5 2185:0.5 2192:0.5 2196:0.5 
-0.25096496844156446215379219211172 1:0.0096153803 18:0.12857144 781:0.5 2111:0.5 2143:0.5 2146:0.5 2161:0.5 2171:0.5 2185:0.5 2192:0.5 2217:0.5 
0.60024876776410973633346657152288 1:0.14423077 6:0.06666667 7:0.2 9:0.2 11:0.13333333 14:0.06666667 17:0.06666667 18:0.47142857 29:0.1 41:0.11111111 43:0.5 56:0.01639344 71:0.5 74:0.5 75:0.5 124:0.16666667 144:0.5 150:0.026666669 152:0.5 154:0.5 156:1 186:0.5 243:0.5 245:0.5 259:0.33333334 260:1 262:0.5 286:0.5 357:0.125 389:0.5 469:1 495:0.5 711:1 740:1 773:1 1037:1 1280:1 1287:1 1732:1 1733:1 2156:0.5 2157:0.5 2160:0.5 2184:0.5 2186:0.5 2190:0.5 2191:0.5 2211:0.5 
-0.20074988829304357684790716120915 1:0.096153848 2:0.2 4:0.1 7:0.30000001 14:0.2 17:0.1 18:0.1 40:0.33333334 41:0.22222222 43:0.5 54:0.11111111 56:0.01639344 96:0.33333334 119:0.25 161:1 181:0.33333334 188:0.5 221:0.40000001 366:0.5 391:0.5 456:1 457:1 465:1 489:1 491:1 588:1 841:1 897:1 1150:1 1777:1 1778:1 2121:0.5 2126:0.5 2127:0.5 2130:0.5 2133:0.5 2136:0.5 2155:0.5 2160:0.5 2161:0.5 2194:0.5 
-0.25323191833103025905060690092796 1:0.25 3:0.26923078 5:0.03846154 6:0.07692308 9:0.03846154 12:0.03846154 14:0.1923077 16:0.07692308 18:0.32857144 19:0.06666667 22:0.085365847 26:0.5 29:0.2 32:0.5 33:0.25 41:0.55555558 43:0.30000001 44:0.046153851 51:0.25 52:0.40000001 61:0.75 75:0.25 80:0.5 85:0.25 112:0.5 115:0.33333334 123:1 160:1 162:0.5 163:1 174:0.25 224:0.5 339:1 370:0.5 413:0.5 481:0.5 501:0.66666669 526:0.25 530:0.5 564:1 799:0.33333334 1170:1 1409:1 1518:1 2148:0.5 2152:0.5 2153:0.5 2155:0.5 2160:0.5 2161:0.5 2166:0.5 2171:0.5 2175:0.5 2180:0.5 2181:0.5 2182:0.5 2183:0.5 2184:0.5 2192:0.5 2194:0.5 2202:0.5 2216:0.5 2218:0.5 
-0.26424700622459673660102907888358 1:0.14423077 5:0.13333333 7:0.13333333 8:0.13333334 9:0.13333333 11:0.06666667 17:0.06666667 18:0.21428572 19:0.13333333 38:0.33333334 43:0.2 56:0.01639344 64:0.5 75:0.5 83:0.25 84:0.25 144:0.5 156:0.5 186:0.25 222:0.33333334 237:0.33333334 259:0.66666669 321:0.33333334 346:0.5 404:1 495:0.5 521:0.33333334 804:1 813:0.5 934:1 1037:1 1065:1 1136:1 1364:1 1365:1 2137:0.5 2140:0.5 2144:0.5 2147:0.5 2150:0.5 2156:0.5 2157:0.5 2168:0.5 
1.6407581834342914728352980091586 1:0.02884615 11:0.33333334 17:0.66666669 18:0.22857143 150:0.01333333 152:0.5 156:0.5 2121:0.5 2126:0.5 2158:0.5 2160:0.5 2161:0.5 2166:0.5 2168:0.5 2185:0.5 
1.6407581834342914728352980091586 1:0.02884615 11:0.33333334 17:0.66666669 18:0.14285713 150:0.01333333 152:0.5 156:0.5 2143:0.5 2146:0.5 2148:0.5 2158:0.5 2160:0.5 2161:0.5 2168:0.5 2185:0.5 
1.6407581834342914728352980091586 1:0.03846154 7:0.75 18:0.1 38:0.33333334 322:0.5 789:0.33333334 790:0.5 1155:0.5 1157:0.5 2121:0.5 2126:0.5 2130:0.5 2136:0.5 2160:0.5 2161:0.5 2168:0.5 2192:0.5 
-1.6407581834342914728352980091586 1:0.0096153803 11:1 18:0.11428571 156:0.5 2121:0.5 2126:0.5 2130:0.5 2133:0.5 2160:0.5 2161:0.5 2185:0.5 2192:0.5 
-1.6407581834342914728352980091586 1:0.0096153803 7:1 18:0.15714286 38:0.33333334 2129:0.5 2157:0.5 2158:0.5 2160:0.5 2176:0.5 2178:0.5 
0.96862603064243080197570634481963 1:0.03846154 7:0.5 11:0.25 17:0.25 18:0.085714288 150:0.01333333 152:0.5 156:0.5 229:1 322:0.25 594:0.5 1670:1 1671:1 2166:0.5 2183:0.5 2184:0.5 2186:0.5 2190:0.5 2202:0.5 2213:0.5 2215:0.5 
-0.32064297560803356468284164293436 1:0.14423077 3:0.33333334 4:0.06666667 6:0.06666667 7:0.06666667 8:0.13333334 9:0.06666667 14:0.06666667 18:0.3142857 22:0.060975611 27:0.14285713 29:0.1 41:0.11111111 43:0.2 44:0.061538462 54:0.11111111 56:0.01639344 64:0.5 65:0.33333334 109:0.25 139:0.5 141:0.5 150:0.01333333 176:0.5 232:0.5 233:0.33333334 259:0.33333334 260:1 291:0.5 322:0.25 389:0.5 443:1 495:0.5 768:1 773:1 973:1 1523:1 1670:1 2155:0.5 2156:0.5 2157:0.5 2158:0.5 2186:0.5 2202:0.5 
-0.17964787805477125393061044178467 1:0.25961539 3:0.18518519 5:0.14814815 6:0.11111111 9:0.037037041 14:0.11111111 17:0.074074067 18:0.40000001 19:0.26666668 21:0.33333334 22:0.060975611 23:0.14285713 27:0.14285713 29:0.2 30:0.1 34:0.33333334 41:0.33333334 43:0.2 44:0.030769231 56:0.01639344 61:0.5 65:0.33333334 82:0.5 84:0.5 93:0.66666669 105:0.5 108:0.5 112:0.5 124:0.16666667 165:1 166:0.5 174:0.25 189:0.16666667 244:0.33333334 280:0.66666669 287:0.33333334 310:0.5 349:0.33333334 360:1 389:0.5 400:1 401:1 402:1 411:1 531:1 711:1 773:1 819:1 1488:1 1525:1 1530:1 1564:0.5 2140:0.5 2144:0.5 2147:0.5 2157:0.5 2182:0.5 2183:0.5 
-0.16704575804187904441988621329074 1:0.07692308 3:0.125 5:0.25 6:0.125 11:0.125 18:0.32857144 19:0.13333333 21:0.33333334 22:0.01219512 27:0.14285713 29:0.1 81:0.5 96:0.33333334 97:0.5 156:0.5 474:0.5 501:0.33333334 661:1 920:1 922:0.5 925:1 1815:1 2144:0.5 2146:0.5 2147:0.5 2150:0.5 2151:0.5 2156:0.5 2164:0.5 2166:0.5 2168:0.5 2179:0.5 2180:0.5 2183:0.5 2184:0.5 
1.6407581834342914728352980091586 1:0.03846154 7:0.5 11:0.25 18:0.11428571 56:0.01639344 156:0.5 357:0.125 787:0.5 1037:1 2004:0.5 2046:0.33333334 2157:0.5 2171:0.5 2182:0.5 2185:0.5 2192:0.5 2194:0.5 
1.6407581834342914728352980091586 1:0.01923077 7:0.5 18:0.18571429 124:0.16666667 593:0.5 594:0.5 595:0.33333334 596:0.33333334 2154:0.5 2160:0.5 2161:0.5 2181:0.5 2182:0.5 2185:0.5 2192:0.5 
-0.67999999818404222029499806012609 1:0.02884615 2:0.66666669 7:0.66666669 18:0.12857144 38:0.33333334 39:0.5 40:0.33333334 181:0.16666667 791:1 2121:0.5 2126:0.5 2130:0.5 2133:0.5 2171:0.5 2185:0.5 2192:0.5 2194:0.5 
-1.4075114385072986511460157998954 1:0.0096153803 7:1 18:0.01428571 322:0.25 2110:0.5 2112:0.5 2162:0.5 2210:0.5 
-1.0350148839523349852953515437548 1:0.0096153803 7:1 18:0.071428567 237:0.33333334 2123:0.5 2127:0.5 2128:0.5 2146:0.5 2151:0.5 2152:0.5 2155:0.5 2160:0.5 2181:0.5 2182:0.5 
0.44392524719059200943860332699842 1:0.11538462 7:0.5 11:0.16666667 18:0.071428567 38:0.66666669 43:0.1 124:0.33333334 150:0.026666669 152:1 154:0.5 156:1 322:1 431:0.33333334 756:0.66666669 758:0.66666669 785:1 786:0.66666669 787:1 788:1 789:0.66666669 790:1 2121:0.5 2124:0.5 2125:0.5 2126:0.5 2128:0.5 2132:0.5 2158:0.5 2171:0.5 2192:0.5 2218:0.5 
0.56301107031190178453528005775297 1:0.086538456 7:0.66666669 18:0.11428571 38:1 124:0.5 322:0.75 595:1 596:1 786:1 789:1 2121:0.5 2132:0.5 2145:0.5 2150:0.5 2153:0.5 2160:0.5 2173:0.5 2188:0.5 
-0.021765223144579962794020744354384 1:0.057692312 4:0.66666669 6:0.16666667 18:0.12857144 30:0.1 54:0.44444445 83:0.25 133:0.5 150:0.01333333 267:0.5 354:1 644:1 2121:0.5 2126:0.5 2130:0.5 2133:0.5 2158:0.5 2160:0.5 2185:0.5 2194:0.5 
-0.19448756496704328045055376605887 1:0.04807692 6:0.2 7:0.2 9:0.2 18:0.11428571 30:0.1 43:0.2 83:0.25 181:0.16666667 196:0.25 253:0.5 349:0.33333334 352:0.5 665:1 831:1 1293:1 1300:1 2121:0.5 2126:0.5 2132:0.5 2136:0.5 2148:0.5 2150:0.5 2153:0.5 2155:0.5 2156:0.5 2158:0.5 2160:0.5 2166:0.5 2168:0.5 2171:0.5 2173:0.5 2192:0.5 
-0.96491899857176821608817363085109 1:0.03846154 6:0.25 7:0.5 18:0.14285713 30:0.1 43:0.1 96:0.33333334 322:0.5 465:1 483:1 790:0.5 1436:1 2121:0.5 2126:0.5 2130:0.5 2158:0.5 2160:0.5 2168:0.5 2175:0.5 2196:0.5 
-0.29140220073932054933862900725217 1:0.04807692 6:0.2 7:0.2 9:0.2 18:0.12857144 30:0.1 43:0.2 83:0.25 181:0.16666667 196:0.25 253:0.5 349:0.33333334 352:0.5 665:1 831:1 1293:1 1300:1 2121:0.5 2126:0.5 2130:0.5 2136:0.5 2150:0.5 2155:0.5 2156:0.5 2158:0.5 2160:0.5 2161:0.5 2168:0.5 2171:0.5 2173:0.5 2175:0.5 2192:0.5 2194:0.5 
1.6407581834342914728352980091586 1:0.0096153803 7:1 18:0.15714286 797:1 2121:0.5 2126:0.5 2130:0.5 2136:0.5 2158:0.5 2160:0.5 2161:0.5 2168:0.5 
-0.73285739735314670006971482507652 1:0.0096153803 15:1 18:0.5 76:1 2160:0.5 2191:0.5 2192:0.5 2193:0.5 2194:0.5 2195:0.5 2202:0.5 
-0.64038709806408999902771483903052 1:0.01923077 5:0.5 7:0.5 18:0.11428571 19:0.06666667 181:0.16666667 278:1 2161:0.5 2171:0.5 2185:0.5 2192:0.5 
-0.26535424931990031494066784034658 1:0.057692312 6:0.16666667 7:0.33333334 9:0.33333334 11:0.16666667 18:0.1 29:0.1 43:0.2 71:0.5 74:0.25 75:0.25 144:0.5 156:0.5 259:0.33333334 337:0.25 529:1 560:1 1074:1 1201:1 1202:1 2121:0.5 2125:0.5 2126:0.5 2136:0.5 2139:0.5 2155:0.5 2158:0.5 2168:0.5 
-0.30887550825601983728319055444445 1:0.01923077 10:0.5 17:0.5 18:0.65714288 183:0.5 229:1 230:1 2207:0.5 2208:0.5 2209:0.5 2211:0.5 
-1.6407581834342914728352980091586 1:0.0096153803 11:1 18:0.11428571 156:0.5 2121:0.5 2126:0.5 2130:0.5 2133:0.5 2160:0.5 2161:0.5 2185:0.5 2192:0.5 
-0.71719558481062473109801658210927 1:0.02884615 6:0.66666669 7:0.33333334 18:0.17142858 29:0.1 30:0.1 34:0.33333334 181:0.16666667 340:0.33333334 2148:0.5 2150:0.5 2151:0.5 2161:0.5 2163:0.5 2171:0.5 2185:0.5 2192:0.5 
-1.3075371491947447299963869227213 1:0.0096153803 18:0.1 83:0.25 2121:0.5 2125:0.5 2126:0.5 2160:0.5 2161:0.5 2168:0.5 2185:0.5 2192:0.5 
-0.18448001004080444298338647968194 1:0.02884615 7:0.33333334 18:0.1 108:0.5 325:1 328:1 556:1 557:1 2121:0.5 2125:0.5 2126:0.5 2150:0.5 2161:0.5 2171:0.5 2185:0.5 2192:0.5 
0.49656366795138268122045133168285 1:0.13461538 6:0.14285713 7:0.35714287 9:0.14285713 11:0.071428567 16:0.071428567 18:0.028571431 29:0.2 33:0.125 38:0.33333334 43:0.1 66:0.33333334 71:0.5 72:1 73:1 74:0.25 75:0.25 124:0.33333334 156:0.5 322:0.25 417:0.5 418:1 501:0.33333334 591:1 593:1 594:1 595:0.66666669 596:0.66666669 732:1 1369:1 1370:1 1371:1 1372:1 1373:1 1374:1 1375:1 1376:1 1377:1 1378:1 2110:0.5 2155:0.5 2162:0.5 2210:0.5 2212:0.5 
-0.4110905996934638984008358875144 1:0.16346154 3:0.29411766 5:0.11764706 6:0.05882353 9:0.05882353 11:0.11764706 16:0.05882353 18:0.41428572 19:0.13333333 22:0.060975611 27:0.14285713 30:0.1 33:0.125 35:0.25 43:0.30000001 44:0.030769231 53:0.14285713 65:0.66666669 68:0.5 83:0.25 120:0.33333334 142:0.25 143:0.5 146:0.5 154:1 156:1 189:0.16666667 210:0.33333334 349:0.33333334 352:0.5 374:1 474:1 526:0.25 527:0.33333334 811:0.5 2122:0.5 2127:0.5 2147:0.5 2154:0.5 2158:0.5 2160:0.5 2168:0.5 2171:0.5 2181:0.5 2184:0.5 2186:0.5 
-0.32753991351647643304190182789171 1:0.0096153803 7:1 18:0.01428571 43:0.2 1864:1 1909:1 1910:1 1911:1 1912:1 1913:1 1914:1 2112:0.5 2162:0.5 2163:0.5 2182:0.5 
-0.46158374506257365821326743571262 1:0.057692312 7:0.33333334 9:0.16666667 18:0.071428567 38:0.33333334 75:0.25 233:0.33333334 259:0.33333334 496:1 594:0.5 604:1 1402:1 2112:0.5 2128:0.5 2132:0.5 2143:0.5 2155:0.5 2156:0.5 2158:0.5 2166:0.5 
1.0134309425046810204662506293971 1:0.04807692 7:0.60000002 11:0.2 18:0.14285713 38:0.33333334 124:0.16666667 150:0.01333333 152:0.5 156:0.5 181:0.16666667 322:0.25 789:0.33333334 1475:0.5 2088:0.5 2089:0.5 2090:0.5 2091:0.5 2121:0.5 2126:0.5 2130:0.5 2168:0.5 2191:0.5 2192:0.5 2194:0.5 2196:0.5 
-0.29748318452977429160455358214676 1:0.057692312 5:0.16666667 7:0.16666667 14:0.16666667 17:0.5 18:0.11428571 19:0.06666667 38:0.33333334 41:0.11111111 43:0.1 84:0.25 88:0.5 93:0.33333334 150:0.01333333 286:0.5 813:0.5 2121:0.5 2126:0.5 2130:0.5 2133:0.5 2161:0.5 2173:0.5 2183:0.5 2185:0.5 2194:0.5 
-0.40620504322625439197480545772123 1:0.03846154 5:0.25 7:0.25 13:0.25 17:0.25 18:0.085714288 19:0.06666667 84:0.25 88:0.5 467:0.5 484:1 1027:1 2121:0.5 2126:0.5 2129:0.5 2130:0.5 2136:0.5 2158:0.5 2160:0.5 2161:0.5 
-0.43001740303829460998485956224613 1:0.11538462 5:0.083333328 6:0.083333328 7:0.083333328 8:0.16666666 9:0.083333328 11:0.083333328 14:0.083333328 17:0.083333328 18:0.11428571 19:0.06666667 29:0.1 41:0.11111111 43:0.40000001 56:0.032786891 64:0.5 71:0.5 75:0.25 83:0.25 84:0.25 93:0.33333334 130:0.5 141:0.5 142:0.25 143:0.5 144:0.5 148:0.2 154:0.5 156:0.5 186:0.25 253:0.5 348:0.5 404:1 450:0.5 469:1 781:0.5 782:1 1037:1 1287:1 1420:1 2137:0.5 2140:0.5 2144:0.5 2147:0.5 2157:0.5 2168:0.5 
-0.18672599344489779205069623913005 1:0.26923078 3:0.21428572 5:0.035714291 9:0.035714291 12:0.14285713 14:0.035714291 17:0.071428567 18:0.085714288 19:0.06666667 20:0.2 22:0.073170729 25:1 26:0.5 27:1 41:0.11111111 43:0.2 44:0.061538462 55:0.16666667 61:0.25 65:0.33333334 67:0.5 69:0.5 74:0.25 75:0.25 84:0.5 85:1 86:1 89:0.5 90:1 91:1 93:0.33333334 94:1 96:0.33333334 110:0.5 123:0.5 142:0.25 257:0.5 316:1 318:1 324:0.5 332:1 736:1 845:1 1120:1 1721:1 2128:0.5 2132:0.5 2134:0.5 2135:0.5 2157:0.5 2182:0.5 
-0.16887452042936643148429709526681 1:0.1826923 3:0.15789475 4:0.052631579 5:0.10526316 6:0.15789475 7:0.052631579 14:0.052631579 18:0.2857143 19:0.13333333 22:0.036585368 26:0.5 27:0.2857143 30:0.30000001 38:0.33333334 41:0.11111111 43:0.1 46:0.25 48:0.16666667 52:0.2 54:0.11111111 62:0.5 65:0.33333334 170:1 171:0.5 172:0.5 199:0.33333334 251:1 291:0.5 292:0.5 423:0.25 625:0.14285713 798:1 805:0.16666667 921:1 922:0.5 1036:1 1396:1 1682:1 1819:1 2053:1 2054:1 2056:1 2140:0.5 2144:0.5 2147:0.5 2157:0.5 2182:0.5 2183:0.5 
-0.73386764101195156584367396135349 1:0.01923077 18:0.085714288 349:0.33333334 2120:0.5 2121:0.5 2136:0.5 2158:0.5 2160:0.5 2161:0.5 2166:0.5 2168:0.5 
-0.44806326993201539554689816213795 1:0.04807692 4:0.2 14:0.2 17:0.2 18:0.11428571 27:0.14285713 41:0.11111111 54:0.11111111 67:0.5 69:0.5 84:0.25 93:0.33333334 110:0.5 939:1 2121:0.5 2150:0.5 2153:0.5 2161:0.5 2164:0.5 2171:0.5 2185:0.5 2188:0.5 2191:0.5 2192:0.5 
-0.17357710167679737955914731628582 1:0.067307688 5:0.14285713 7:0.14285713 18:0.057142861 19:0.06666667 27:0.14285713 38:0.33333334 43:0.1 56:0.01639344 65:0.33333334 67:0.5 68:0.5 69:0.5 124:0.16666667 148:0.2 580:1 625:0.14285713 811:0.5 1159:1 1459:1 1460:1 1461:1 1462:1 2122:0.5 2123:0.5 2127:0.5 2165:0.5 2167:0.5 2169:0.5 2170:0.5 
-0.10983608139730893782370912958868 1:0.28846154 5:0.2 6:0.30000001 7:0.033333331 9:0.1 11:0.033333331 14:0.06666667 17:0.033333331 18:0.01428571 19:0.40000001 23:0.5714286 27:0.2857143 29:0.30000001 30:0.60000002 41:0.22222222 43:0.69999999 66:0.66666669 67:0.5 69:0.5 73:1 74:0.25 75:0.25 78:0.33333334 84:0.25 93:0.33333334 99:0.25 100:0.5 105:0.5 142:0.25 144:0.5 156:0.5 166:0.5 196:0.75 199:0.66666669 200:0.25 201:0.5 237:0.33333334 257:0.5 258:0.5 331:1 337:0.5 359:1 385:0.5 389:0.5 472:0.5 675:1 755:1 768:1 804:1 919:1 1740:1 2121:0.5 2126:0.5 2130:0.5 2133:0.5 
-0.25743905284101359365322991834546 1:0.14423077 2:0.13333334 3:0.13333333 4:0.06666667 5:0.13333333 7:0.06666667 9:0.06666667 11:0.06666667 14:0.2 17:0.13333333 18:0.11428571 19:0.13333333 21:0.33333334 22:0.024390239 23:0.14285713 27:0.14285713 38:0.33333334 40:0.33333334 41:0.33333334 43:0.40000001 45:0.5 54:0.11111111 55:0.16666667 56:0.01639344 74:0.25 75:0.25 109:0.25 119:0.25 144:0.5 154:0.5 156:0.5 189:0.16666667 224:0.5 366:0.5 431:0.33333334 817:1 988:0.5 1135:1 1752:1 1753:1 1928:1 2121:0.5 2126:0.5 2130:0.5 2133:0.5 2161:0.5 2171:0.5 2185:0.5 2192:0.5 
-0.71126994378593455525816580120591 1:0.0096153803 18:0.22857143 83:0.25 2160:0.5 2179:0.5 2180:0.5 2181:0.5 2182:0.5 2185:0.5 2192:0.5 2194:0.5 
-0.66544872749880512596831749760895 1:0.01923077 4:0.5 18:0.14285713 54:0.11111111 83:0.25 150:0.01333333 158:0.5 284:0.5 2143:0.5 2160:0.5 2161:0.5 2185:0.5 2190:0.5 2192:0.5 2212:0.5 2216:0.5 
-0.34698880059631431738154105914873 1:0.057692312 4:0.16666667 6:0.16666667 7:0.33333334 18:0.1 27:0.14285713 30:0.1 54:0.11111111 115:0.33333334 252:1 298:1 322:0.5 790:0.5 871:0.5 1357:0.5 1710:1 2110:0.5 2114:0.5 2118:0.5 2121:0.5 2123:0.5 2126:0.5 2130:0.5 2145:0.5 
0.4871927414463246841513921481237 1:0.11538462 4:0.083333328 7:0.5 11:0.16666667 18:0.1 38:0.66666669 43:0.1 54:0.11111111 83:0.25 150:0.01333333 154:0.5 156:1 158:0.5 284:0.5 322:1 333:0.5 526:0.25 741:1 789:0.66666669 790:1 1155:1 1157:1 1516:0.5 2062:1 2136:0.5 2148:0.5 2150:0.5 2151:0.5 2158:0.5 2160:0.5 2161:0.5 2163:0.5 2187:0.5 
-0.14480069412102561376975984330784 1:0.27884614 3:0.20689654 4:0.20689654 7:0.1724138 16:0.1724138 18:0.22857143 22:0.073170729 27:0.14285713 33:0.625 43:0.2 44:0.01538462 47:0.60000002 48:0.33333334 49:0.25 51:0.125 54:0.66666669 55:0.16666667 60:0.33333334 61:0.5 124:0.16666667 159:0.5 180:0.33333334 181:0.83333331 182:0.25 209:0.2 221:0.2 235:0.2 406:0.66666669 413:0.5 418:0.5 526:0.75 628:0.5 684:0.5 872:1 879:0.5 881:1 883:0.66666669 887:0.66666669 910:0.33333334 1104:0.5 1222:0.5 1556:1 1770:1 1965:1 1966:1 1967:1 2121:0.5 2126:0.5 2130:0.5 2133:0.5 2137:0.5 2140:0.5 2144:0.5 2147:0.5 
-0.12643227692979036591580666026857 1:0.52884614 3:0.60000002 4:0.14545456 5:0.036363639 7:0.036363639 14:0.018181819 16:0.054545451 18:0.1 19:0.13333333 20:0.2 22:0.40243903 27:0.71428573 33:0.375 41:0.11111111 42:0.11111111 43:0.30000001 44:0.2923077 46:0.5 47:1 48:1 51:0.375 52:0.2 53:0.71428573 54:0.8888889 55:0.5 56:0.049180329 150:0.01333333 181:0.33333334 189:0.16666667 205:0.5 209:0.2 247:0.5 248:1 876:1 877:1 896:1 951:1 952:0.375 1046:1 1104:0.5 1222:0.5 1546:0.033333331 1854:1 1967:1 1968:1 2121:0.5 2126:0.5 2130:0.5 2133:0.5 2137:0.5 2140:0.5 2144:0.5 2185:0.5 
-0.16895368363793736299349745877407 1:0.10576923 3:0.18181819 4:0.090909094 6:0.090909094 7:0.090909094 17:0.090909094 18:0.2857143 22:0.024390239 30:0.1 43:0.2 48:0.16666667 54:0.11111111 61:0.25 115:0.33333334 124:0.16666667 165:1 217:0.5 244:0.33333334 283:0.5 342:1 357:0.125 451:1 531:1 1191:1 1193:1 1342:1 1443:1 1444:1 1445:1 1446:1 1447:1 2130:0.5 2133:0.5 2137:0.5 2140:0.5 2144:0.5 2147:0.5 2199:0.5 
-0.61020413230589798381231503299205 1:0.0096153803 11:1 18:0.11428571 156:0.5 2115:0.5 2136:0.5 2146:0.5 2148:0.5 2149:0.5 2158:0.5 2160:0.5 2161:0.5 
-0.45499318723334009062497784725565 1:0.03846154 7:0.25 9:0.5 11:0.25 18:0.085714288 43:0.1 71:0.5 156:0.5 259:0.66666669 495:0.5 529:1 806:1 1075:1 2121:0.5 2126:0.5 2130:0.5 2136:0.5 2155:0.5 2161:0.5 2168:0.5 2192:0.5 
-0.24847644575100003017098515556427 1:0.03846154 7:0.25 9:0.25 18:0.085714288 43:0.1 66:0.33333334 71:0.5 72:1 73:1 74:0.25 75:0.25 2121:0.5 2126:0.5 2130:0.5 2136:0.5 2158:0.5 2160:0.5 2161:0.5 2168:0.5 
-0.17705746683468501223579494308069 1:0.1826923 3:0.15789475 5:0.2631579 14:0.10526316 18:0.37142858 19:0.33333334 21:0.33333334 22:0.036585368 23:0.42857143 26:0.5 41:0.22222222 44:0.01538462 52:0.2 56:0.01639344 61:0.5 65:0.33333334 96:0.33333334 108:0.5 117:0.25 118:1 140:1 166:0.5 174:0.25 214:0.5 279:0.5 525:1 583:1 1129:1 1526:1 1742:1 1792:1 1884:1 2155:0.5 2159:0.5 2160:0.5 2171:0.5 2177:0.5 2183:0.5 2184:0.5 2185:0.5 2186:0.5 2196:0.5 2202:0.5 2218:0.5 2221:0.5 
-0.1814964212218796169029388920535 1:0.086538456 2:0.22222222 7:0.22222222 14:0.11111111 18:0.45714286 27:0.14285713 38:0.33333334 40:0.33333334 41:0.11111111 43:0.2 65:0.33333334 95:1 124:0.16666667 140:1 186:0.25 191:1 208:0.5 222:0.33333334 366:0.5 557:1 762:1 763:1 1138:1 1324:1 2150:0.5 2154:0.5 2156:0.5 2166:0.5 2182:0.5 2183:0.5 2184:0.5 2186:0.5 2202:0.5 
-0.23148186230774439597901448451012 1:0.01923077 7:0.5 17:0.5 18:0.028571431 43:0.1 456:1 457:1 1174:1 1541:1 2110:0.5 2112:0.5 2143:0.5 2149:0.5 2162:0.5 2183:0.5 
0.92423262452422771939808399110916 1:0.01923077 11:0.5 18:0.1 150:0.01333333 152:0.5 156:0.5 1932:1 1933:1 2111:0.5 2136:0.5 2143:0.5 2146:0.5 2158:0.5 2160:0.5 2161:0.5 2168:0.5 
-0.27288128684111639943310478884086 1:0.04807692 2:0.40000001 5:0.2 7:0.60000002 18:0.11428571 19:0.06666667 38:0.33333334 39:0.5 40:0.33333334 43:0.1 181:0.16666667 221:0.2 266:1 357:0.125 451:1 589:1 2121:0.5 2126:0.5 2130:0.5 2133:0.5 2136:0.5 2160:0.5 2161:0.5 2192:0.5 
-0.23959501807859179267623517262109 1:0.03846154 6:0.25 7:0.25 18:0.11428571 29:0.1 43:0.2 71:0.5 74:0.25 75:0.25 200:0.25 337:0.25 659:1 2121:0.5 2126:0.5 2130:0.5 2136:0.5 2158:0.5 2160:0.5 2161:0.5 2168:0.5 
-1.0566224950911147217880170501303 1:0.03846154 7:0.25 9:0.25 11:0.25 18:0.18571429 43:0.2 74:0.25 75:0.25 154:0.5 156:0.5 186:0.25 237:0.33333334 262:0.25 321:0.33333334 382:0.5 2121:0.5 2126:0.5 2130:0.5 2136:0.5 2158:0.5 2160:0.5 2161:0.5 2168:0.5 
0.43321427028803316527927336210269 1:0.02884615 7:0.33333334 18:0.18571429 124:0.16666667 150:0.01333333 186:0.25 593:0.5 594:0.5 595:0.33333334 596:0.33333334 666:0.5 1931:1 2111:0.5 2112:0.5 2143:0.5 2160:0.5 2168:0.5 2185:0.5 2192:0.5 2194:0.5 
-0.39385622545438214725521675063646 1:0.02884615 4:0.33333334 18:0.47142857 43:0.1 54:0.11111111 83:0.25 333:0.5 781:0.5 935:1 936:1 937:1 938:1 2150:0.5 2152:0.5 2155:0.5 2156:0.5 2160:0.5 2161:0.5 2166:0.5 2168:0.5 2173:0.5 2180:0.5 2185:0.5 2194:0.5 2196:0.5 
-0.31795660728473745804123495872773 1:0.086538456 5:0.33333334 7:0.33333334 9:0.33333334 18:0.1 19:0.2 259:1 322:0.75 521:1 1088:1 1247:1 2127:0.5 2141:0.5 2142:0.5 2148:0.5 2151:0.5 2171:0.5 2187:0.5 2190:0.5 
1.3672259984393828613491450596484 1:0.01923077 7:0.5 18:0.085714288 124:0.16666667 593:0.5 594:0.5 595:0.33333334 596:0.33333334 2121:0.5 2126:0.5 2130:0.5 2136:0.5 2158:0.5 2160:0.5 2161:0.5 2168:0.5 
-0.48193335915536095193090204702457 1:0.0096153803 17:1 18:0.30000001 1539:1 2154:0.5 2181:0.5 2182:0.5 2183:0.5 2184:0.5 2209:0.5 2211:0.5 
-0.82568967179389651800391902725096 1:0.02884615 7:0.33333334 9:0.33333334 18:0.11428571 43:0.1 71:0.5 74:0.25 75:0.25 186:0.25 262:0.25 469:1 2111:0.5 2136:0.5 2143:0.5 2146:0.5 2158:0.5 2160:0.5 2168:0.5 2192:0.5 2194:0.5 
-0.64923436639112086510294830077328 1:0.0096153803 7:1 18:0.11428571 38:0.33333334 2136:0.5 2155:0.5 2158:0.5 2159:0.5 2176:0.5 
-0.30923318546654421368202747544274 1:0.07692308 7:0.25 9:0.375 11:0.125 18:0.085714288 43:0.2 65:0.33333334 69:0.5 71:0.5 74:0.25 75:0.75 144:1 156:0.5 181:0.16666667 519:1 520:1 523:1 529:1 685:1 713:0.5 2121:0.5 2126:0.5 2128:0.5 2130:0.5 2132:0.5 2158:0.5 2168:0.5 2171:0.5 2192:0.5 
-0.12782074731268897038738430183002 1:0.07692308 7:0.125 9:0.375 13:0.125 18:0.085714288 27:0.14285713 43:0.30000001 66:0.66666669 69:0.5 73:1 74:0.25 75:0.25 142:0.25 144:0.5 237:0.33333334 257:0.5 258:0.5 331:1 385:0.5 467:0.5 713:0.5 736:1 1957:1 2112:0.5 2115:0.5 2118:0.5 2122:0.5 2123:0.5 2143:0.5 2148:0.5 2149:0.5 2153:0.5 2164:0.5 2168:0.5 2171:0.5 2202:0.5 
0.11570925289790584544746820938599 1:0.03846154 7:0.5 11:0.25 18:0.11428571 150:0.01333333 152:0.5 156:0.5 322:0.25 594:0.5 1155:0.5 1156:1 1157:0.5 1671:1 2129:0.5 2171:0.5 2192:0.5 2194:0.5 2196:0.5 2200:0.5 
-0.47535065994875463912805457766808 1:0.02884615 2:0.66666669 7:0.66666669 18:0.11428571 38:0.33333334 40:0.33333334 43:0.1 181:0.16666667 219:1 221:0.2 222:0.33333334 2121:0.5 2126:0.5 2130:0.5 2133:0.5 2160:0.5 2185:0.5 2192:0.5 2194:0.5 
-0.68054933096223746424868750182213 1:0.01923077 7:0.5 18:0.085714288 83:0.25 181:0.16666667 1806:1 2121:0.5 2126:0.5 2130:0.5 2133:0.5 2136:0.5 2158:0.5 2161:0.5 2171:0.5 
-0.21678390007685244267321422739769 1:0.01923077 6:0.5 7:0.5 18:0.15714286 29:0.1 38:0.33333334 1948:1 2121:0.5 2126:0.5 2130:0.5 2132:0.5 2156:0.5 2158:0.5 2160:0.5 2177:0.5 
-0.093425445090041775442202265367087 1:0.30769232 3:0.25 5:0.09375 6:0.1875 12:0.03125 14:0.125 16:0.03125 18:0.54285711 19:0.2 20:0.2 22:0.097560979 28:0.25 29:0.30000001 30:0.30000001 32:0.25 33:0.125 41:0.44444445 43:0.60000002 44:0.061538462 51:0.375 61:0.25 65:0.33333334 85:0.25 99:0.125 105:1 108:0.5 112:0.5 115:1 122:0.5 123:1 126:0.5 127:1 134:0.5 162:0.5 196:0.25 199:0.66666669 231:1 275:0.5 277:0.33333334 282:0.33333334 310:0.5 311:1 389:0.5 490:1 574:1 1309:1 1391:1 1393:1 1716:1 2147:0.5 2181:0.5 2182:0.5 2183:0.5 2184:0.5 2186:0.5 
-0.14107071881380531253036281214008 1:0.14423077 4:0.13333333 5:0.06666667 6:0.2 7:0.13333333 8:0.26666665 9:0.06666667 17:0.13333333 18:0.085714288 19:0.06666667 30:0.30000001 43:0.40000001 54:0.22222222 56:0.01639344 64:1 83:0.25 84:0.5 150:0.01333333 158:0.5 159:0.5 189:0.16666667 196:0.5 237:0.33333334 284:0.5 322:0.25 343:0.5 346:1 349:0.33333334 352:0.5 386:0.5 483:1 510:1 712:1 745:1 1025:0.5 1168:1 1260:1 1295:1 1435:1 1436:1 2121:0.5 2126:0.5 2130:0.5 2133:0.5 2136:0.5 2155:0.5 2160:0.5 2161:0.5 2173:0.5 2175:0.5 2194:0.5 
-0.10932126610432339741674212518774 1:0.25961539 3:0.2962963 5:0.11111111 14:0.14814815 18:0.47142857 19:0.2 20:0.2 21:0.33333334 22:0.097560979 41:0.44444445 43:0.30000001 44:0.030769231 51:0.25 52:0.40000001 61:1 105:0.5 109:0.75 112:0.5 117:1 150:0.01333333 233:0.33333334 247:0.5 256:0.5 277:0.33333334 282:0.66666669 300:1 310:0.5 597:1 914:1 1185:1 1519:1 1563:1 1564:0.5 1565:1 1566:1 1567:1 2159:0.5 2186:0.5 2202:0.5 2207:0.5 2208:0.5 
-0.13025966815258613329397974212043 1:0.07692308 5:0.125 7:0.25 9:0.125 11:0.25 18:0.1 19:0.06666667 43:0.40000001 74:0.25 75:0.25 154:1 156:1 186:0.5 189:0.16666667 237:0.66666669 262:0.5 321:0.66666669 382:1 1774:1 2121:0.5 2136:0.5 2155:0.5 2158:0.5 2161:0.5 2168:0.5 2192:0.5 2204:0.5 2205:0.5 
-0.21390786598531461026873046193941 1:0.086538456 5:0.22222222 6:0.11111111 7:0.11111111 11:0.11111111 18:0.38571429 19:0.13333333 23:0.14285713 27:0.14285713 29:0.1 43:0.2 61:0.25 62:0.5 154:0.5 156:0.5 186:0.25 189:0.16666667 200:0.25 237:0.33333334 262:0.25 321:0.33333334 472:0.5 473:0.5 526:0.25 564:1 1906:1 2086:1 2147:0.5 2150:0.5 2155:0.5 2156:0.5 2158:0.5 2160:0.5 2161:0.5 2179:0.5 2180:0.5 2181:0.5 2192:0.5 2194:0.5 
-0.13494536758102662621361389483354 1:0.057692312 5:0.16666667 6:0.5 7:0.33333334 18:0.18571429 19:0.06666667 29:0.2 30:0.1 38:0.33333334 43:0.1 56:0.01639344 134:0.5 251:1 261:1 322:0.25 337:0.25 426:0.33333334 450:0.5 591:1 2121:0.5 2126:0.5 2127:0.5 2130:0.5 2155:0.5 2156:0.5 2185:0.5 2194:0.5 
-0.13591065397525076141604927215667 1:0.17307691 3:0.27777779 4:0.05555556 5:0.05555556 7:0.05555556 14:0.22222222 17:0.05555556 18:0.24285714 19:0.06666667 22:0.060975611 27:0.14285713 41:0.44444445 44:0.030769231 53:0.14285713 54:0.11111111 56:0.01639344 61:0.25 65:0.66666669 68:0.5 84:0.25 93:0.33333334 105:0.5 109:0.5 115:0.33333334 120:0.33333334 124:0.16666667 173:1 224:0.5 280:0.33333334 291:0.5 479:1 543:0.5 702:1 1095:1 1096:1 1097:1 1170:1 1596:1 1597:1 2171:0.5 2179:0.5 2180:0.5 2181:0.5 2182:0.5 2192:0.5 2194:0.5 2196:0.5 
-0.18582561742266986981597653993958 1:0.07692308 5:0.125 6:0.25 7:0.375 9:0.125 16:0.125 18:0.071428567 19:0.06666667 30:0.2 33:0.125 35:0.25 38:0.33333334 43:0.2 99:0.125 181:0.16666667 196:0.25 322:0.25 349:0.33333334 483:1 608:0.16666667 813:0.5 922:1 1121:1 1125:1 1552:1 1860:1 2121:0.5 2123:0.5 2126:0.5 2127:0.5 2128:0.5 2155:0.5 2166:0.5 2190:0.5 2216:0.5 
-0.27199832250840816350034856441198 1:0.125 3:0.07692308 7:0.07692308 9:0.15384614 11:0.07692308 14:0.15384614 17:0.07692308 18:0.3142857 22:0.01219512 27:0.2857143 41:0.22222222 43:0.40000001 56:0.01639344 67:0.5 69:0.5 74:0.5 75:0.5 84:0.25 93:0.33333334 109:0.25 110:0.5 123:0.5 142:0.25 144:0.5 154:0.5 156:0.5 186:0.25 237:0.33333334 257:0.5 262:0.25 321:0.33333334 332:1 382:0.5 479:1 736:1 1037:1 2157:0.5 2182:0.5 2183:0.5 2184:0.5 2186:0.5 2202:0.5 
-0.27747657328736430315530014922842 1:0.03846154 6:0.5 7:0.25 11:0.25 18:0.085714288 29:0.1 30:0.1 43:0.1 156:0.5 196:0.25 237:0.33333334 337:0.25 361:1 804:1 2121:0.5 2126:0.5 2128:0.5 2130:0.5 2132:0.5 2158:0.5 2160:0.5 2168:0.5 
-0.86269108245676418000869034585776 1:0.0096153803 11:1 18:0.085714288 156:0.5 2121:0.5 2125:0.5 2126:0.5 2136:0.5 2158:0.5 2160:0.5 2161:0.5 2168:0.5 
-0.30065076082546388080984911539417 1:0.04807692 5:0.40000001 11:0.2 18:0.40000001 19:0.13333333 43:0.2 96:0.33333334 142:0.25 143:0.5 146:0.5 154:0.5 156:0.5 189:0.16666667 465:1 474:0.5 2158:0.5 2160:0.5 2161:0.5 2180:0.5 2181:0.5 2182:0.5 2185:0.5 2192:0.5 2194:0.5 2196:0.5 2198:0.5 
-0.085970634982387758582511594340758 1:0.16346154 2:0.11764706 3:0.05882353 5:0.11764706 6:0.05882353 7:0.17647059 9:0.05882353 14:0.11764706 18:0.01428571 19:0.13333333 21:0.33333334 22:0.01219512 23:0.14285713 30:0.1 38:0.33333334 40:0.33333334 41:0.22222222 43:0.40000001 56:0.032786891 61:0.25 75:0.25 92:0.5 96:0.33333334 105:0.5 128:1 144:0.5 161:1 186:0.25 191:1 222:0.33333334 243:0.5 269:1 366:0.5 389:0.5 404:1 426:0.33333334 427:1 431:0.33333334 456:1 607:1 769:1 990:1 1417:0.5 1843:1 1844:1 1845:1 2110:0.5 2112:0.5 2162:0.5 2210:0.5 
-0.10135879646848694468630469600612 1:0.20192309 3:0.33333334 4:0.19047619 5:0.14285713 6:0.047619049 18:0.21428572 19:0.2 20:0.40000001 22:0.085365847 26:0.5 30:0.1 42:0.22222222 43:0.2 44:0.01538462 47:0.40000001 48:0.5 54:0.44444445 56:0.01639344 58:0.2 59:0.25 61:0.5 112:0.5 124:0.5 173:1 210:0.33333334 217:0.5 536:1 540:1 541:0.5 542:1 543:1 544:0.5 545:1 546:1 547:1 548:1 549:1 2121:0.5 2126:0.5 2130:0.5 2133:0.5 2137:0.5 2140:0.5 2144:0.5 2145:0.5 
-0.12050643710154938792467049779589 1:0.11538462 3:0.083333328 5:0.25 7:0.16666667 14:0.083333328 17:0.16666667 18:0.01428571 19:0.2 22:0.01219512 27:0.14285713 41:0.11111111 81:0.5 95:1 108:0.5 124:0.16666667 166:0.5 181:0.16666667 279:0.5 456:1 526:0.25 527:0.33333334 1894:1 1895:1 1896:1 1897:1 1898:1 1899:1 2110:0.5 2111:0.5 2112:0.5 2143:0.5 2164:0.5 2166:0.5 
-0.161719418061570668898596636609 1:0.04807692 6:0.40000001 7:0.2 9:0.2 18:0.085714288 29:0.1 30:0.1 100:0.25 186:0.25 322:0.25 349:0.33333334 827:1 920:1 922:0.5 1781:1 1839:1 2121:0.5 2126:0.5 2128:0.5 2130:0.5 2132:0.5 2158:0.5 2160:0.5 2168:0.5 
-0.36568995154686945170396938920021 1:0.0096153803 7:1 18:0.35714287 181:0.16666667 952:0.125 955:1 2121:0.5 2126:0.5 2130:0.5 2133:0.5 2137:0.5 2140:0.5 2144:0.5 2147:0.5 
-0.15426493226335979969121581234504 1:0.11538462 3:0.083333328 5:0.16666667 6:0.083333328 7:0.083333328 8:0.16666666 14:0.16666667 17:0.083333328 18:0.18571429 19:0.13333333 22:0.01219512 29:0.1 41:0.22222222 43:0.1 52:0.2 64:0.5 84:0.25 88:0.5 108:0.5 130:0.5 148:0.2 166:0.5 181:0.16666667 287:0.33333334 346:0.5 394:1 923:1 924:1 1465:1 2121:0.5 2126:0.5 2130:0.5 2156:0.5 2158:0.5 2160:0.5 2168:0.5 2171:0.5 2175:0.5 2185:0.5 2192:0.5 2196:0.5 
-0.15731063057085994949524376806949 1:0.11538462 5:0.16666667 7:0.083333328 9:0.083333328 11:0.16666667 14:0.083333328 17:0.083333328 18:0.34285715 19:0.13333333 27:0.14285713 41:0.11111111 43:0.30000001 56:0.01639344 67:0.5 69:0.5 84:0.25 93:0.33333334 110:0.5 123:0.5 142:0.25 143:0.5 146:0.5 154:1 156:1 159:0.5 236:1 237:0.33333334 349:0.33333334 352:0.5 382:0.5 474:1 682:1 745:1 2147:0.5 2148:0.5 2153:0.5 2155:0.5 2166:0.5 2168:0.5 2179:0.5 2180:0.5 2181:0.5 2184:0.5 2186:0.5 
-0.070508541747095448970483744233206 1:0.20192309 3:0.047619049 5:0.047619049 6:0.33333334 9:0.047619049 16:0.38095239 17:0.047619049 18:0.15714286 19:0.06666667 20:0.2 22:0.01219512 28:1 29:0.40000001 30:0.30000001 33:1 35:0.75 43:0.60000002 56:0.01639344 61:0.25 75:0.25 112:0.5 196:0.5 200:1 235:1 335:1 424:0.5 426:0.33333334 481:0.5 580:1 1461:1 1823:1 1937:1 1938:1 2179:0.5 2180:0.5 2181:0.5 2182:0.5 2183:0.5 2184:0.5 2186:0.5 2202:0.5 
-0.1230217702321666911613462502828 1:0.10576923 6:0.090909094 7:0.090909094 8:0.18181819 9:0.18181819 14:0.090909094 17:0.18181819 18:0.071428567 27:0.14285713 29:0.1 41:0.11111111 43:0.30000001 56:0.032786891 64:0.5 74:0.25 75:0.25 84:0.25 93:0.33333334 110:0.5 115:0.33333334 126:0.5 139:0.5 141:0.5 186:0.25 259:0.33333334 260:1 262:0.25 322:0.25 337:0.25 443:1 483:1 1803:1 1868:1 2030:1 2031:1 2032:1 2112:0.5 2123:0.5 2127:0.5 2128:0.5 2143:0.5 2155:0.5 2168:0.5 2216:0.5 
-0.2366880508000543115176839137348 1:0.02884615 7:0.33333334 18:0.085714288 108:0.5 325:1 328:1 362:1 363:1 2121:0.5 2126:0.5 2130:0.5 2133:0.5 2136:0.5 2158:0.5 2160:0.5 2161:0.5 
-0.17044924655685722569842255325057 1:0.02884615 2:0.66666669 7:0.66666669 18:0.11428571 38:0.33333334 40:0.33333334 43:0.1 181:0.16666667 219:1 221:0.2 222:0.33333334 2121:0.5 2126:0.5 2130:0.5 2161:0.5 2171:0.5 2182:0.5 2185:0.5 2192:0.5 
-0.40361132341429267755827936525748 1:0.02884615 2:0.66666669 7:0.66666669 18:0.12857144 38:0.33333334 39:0.5 40:0.33333334 357:0.125 589:1 2121:0.5 2126:0.5 2130:0.5 2133:0.5 2161:0.5 2171:0.5 2185:0.5 2192:0.5 
-0.17699796793274652495497889503895 1:0.057692312 14:0.33333334 17:0.16666667 18:0.5 41:0.22222222 43:0.1 118:1 121:1 150:0.01333333 186:0.25 271:1 286:0.5 526:0.25 1006:1 1007:1 2161:0.5 2185:0.5 2192:0.5 2201:0.5 2207:0.5 
-0.35000132227652597238787279820826 1:0.01923077 4:0.5 18:0.37142858 54:0.11111111 83:0.25 150:0.01333333 158:0.5 284:0.5 2185:0.5 2191:0.5 2192:0.5 2194:0.5 2203:0.5 2204:0.5 2205:0.5 2217:0.5 
-0.40323012478217512555289658848778 1:0.01923077 6:1 18:0.2857143 29:0.1 30:0.1 100:0.25 2111:0.5 2143:0.5 2160:0.5 2161:0.5 2164:0.5 2168:0.5 2185:0.5 2192:0.5 
-0.079418682128399475939062313045724 1:0.07692308 5:0.125 6:0.125 7:0.125 9:0.25 17:0.125 18:0.071428567 19:0.06666667 30:0.1 38:0.33333334 43:0.2 148:0.2 186:0.25 196:0.25 222:0.33333334 233:0.33333334 259:0.33333334 349:0.33333334 528:1 535:1 1148:1 1149:1 1677:1 1678:1 1679:1 2121:0.5 2123:0.5 2126:0.5 2127:0.5 2128:0.5 2130:0.5 2155:0.5 2168:0.5 
-0.22742025596181447699706268394948 1:0.03846154 7:0.25 11:0.25 18:0.60000002 38:0.33333334 43:0.2 66:0.33333334 154:0.5 156:0.5 222:0.33333334 385:0.5 817:1 2121:0.5 2126:0.5 2130:0.5 2133:0.5 2183:0.5 2184:0.5 2186:0.5 2202:0.5 
-0.18636725440516624385800525942614 1:0.01923077 18:0.11428571 83:0.25 150:0.01333333 157:1 158:0.5 159:0.5 2148:0.5 2149:0.5 2150:0.5 2151:0.5 2160:0.5 2185:0.5 2192:0.5 2194:0.5 
-0.15605421850890627277763655911258 1:0.11538462 5:0.083333328 6:0.083333328 7:0.083333328 8:0.33333334 9:0.083333328 14:0.083333328 17:0.16666667 18:0.45714286 19:0.06666667 27:0.14285713 30:0.1 38:0.33333334 41:0.11111111 43:0.40000001 56:0.01639344 64:1 74:0.25 75:0.25 84:0.25 93:0.33333334 110:0.5 123:0.5 139:0.5 141:0.5 144:0.5 148:0.2 186:0.25 222:0.33333334 262:0.25 315:1 610:1 718:1 907:0.5 929:1 934:1 2148:0.5 2153:0.5 2158:0.5 2161:0.5 2164:0.5 2166:0.5 2168:0.5 2171:0.5 2179:0.5 2192:0.5 2194:0.5 2202:0.5 2217:0.5 
-0.14160006568854824338110631742893 1:0.11538462 3:0.33333334 5:0.083333328 6:0.16666667 7:0.083333328 14:0.083333328 18:0.085714288 19:0.06666667 20:0.2 22:0.04878049 27:0.14285713 29:0.1 30:0.1 38:0.33333334 41:0.11111111 43:0.1 44:0.046153851 61:0.25 132:0.5 150:0.01333333 200:0.25 222:0.33333334 247:0.5 283:0.5 286:0.5 339:1 458:1 1338:1 1339:1 1480:1 1481:1 2121:0.5 2126:0.5 2130:0.5 2133:0.5 2136:0.5 2161:0.5 2171:0.5 2192:0.5 
-0.16368884089317081720338364903 1:0.067307688 7:0.14285713 9:0.5714286 11:0.14285713 17:0.14285713 18:0.071428567 43:0.30000001 66:0.33333334 71:0.5 72:1 73:1 74:0.25 75:0.5 144:0.5 154:0.5 156:0.5 259:0.33333334 496:1 1171:1 1172:1 1287:1 2121:0.5 2126:0.5 2128:0.5 2132:0.5 2155:0.5 2158:0.5 2168:0.5 2190:0.5 2216:0.5 
-0.20100304274356167733017741738877 1:0.07692308 6:0.375 7:0.125 17:0.125 18:0.071428567 30:0.30000001 43:0.2 56:0.01639344 78:0.33333334 99:0.125 181:0.16666667 186:0.25 196:0.25 199:0.33333334 426:0.33333334 572:0.5 831:1 832:1 1293:1 2121:0.5 2126:0.5 2128:0.5 2130:0.5 2132:0.5 2156:0.5 2158:0.5 2160:0.5 2168:0.5 2171:0.5 2192:0.5 
-0.30373556370699350548392203563708 1:0.0096153803 11:1 18:0.27142856 156:0.5 2112:0.5 2115:0.5 2158:0.5 2160:0.5 2161:0.5 2163:0.5 2166:0.5 2177:0.5 
-0.11344011028050626777030629455112 1:0.07692308 7:0.125 9:0.125 18:0.085714288 27:0.2857143 38:0.33333334 66:0.33333334 75:0.25 124:0.16666667 233:0.33333334 258:0.5 330:1 332:1 1324:1 1460:1 1463:1 1464:1 2127:0.5 2128:0.5 2132:0.5 2165:0.5 2167:0.5 2169:0.5 2170:0.5 2172:0.5 
-0.23747096133713907484263927472057 1:0.02884615 7:0.33333334 9:0.33333334 18:0.1 38:0.33333334 233:0.33333334 259:0.33333334 528:1 1529:1 2112:0.5 2128:0.5 2132:0.5 2143:0.5 2155:0.5 2156:0.5 2160:0.5 2166:0.5 2192:0.5 
-0.11972232845507911613847085163798 1:0.17307691 3:0.05555556 4:0.05555556 5:0.16666667 14:0.27777779 17:0.11111111 18:0.17142858 19:0.2 21:0.33333334 22:0.01219512 23:0.14285713 41:0.55555558 43:0.30000001 51:0.125 54:0.11111111 61:0.25 65:0.33333334 84:0.5 93:0.66666669 94:1 96:0.66666669 97:1 119:0.25 123:1 140:1 224:1 232:0.5 233:0.33333334 277:0.33333334 282:0.33333334 316:1 375:1 912:1 1260:1 2154:0.5 2181:0.5 2182:0.5 2183:0.5 2185:0.5 2192:0.5 2194:0.5 
-0.083290887942614313943501258563629 1:0.30769232 3:0.25 4:0.03125 5:0.15625 6:0.03125 7:0.03125 9:0.03125 12:0.03125 14:0.125 16:0.03125 17:0.03125 18:0.38571429 19:0.33333334 22:0.097560979 23:0.14285713 27:0.2857143 29:0.1 33:0.125 41:0.44444445 43:0.2 44:0.030769231 45:0.5 47:0.2 49:0.25 50:1 52:0.2 53:0.14285713 54:0.11111111 55:0.16666667 56:0.01639344 61:0.25 65:0.33333334 66:0.33333334 68:0.5 84:0.25 85:0.25 93:0.33333334 104:0.5 105:1 108:0.5 112:0.5 120:0.33333334 134:0.5 142:0.25 146:0.5 147:1 161:1 174:0.25 181:0.16666667 268:1 272:1 273:1 274:1 275:1 276:1 277:0.66666669 278:1 279:0.5 280:0.33333334 281:1 282:0.66666669 283:0.5 2140:0.5 2144:0.5 2147:0.5 2207:0.5 
-0.068232384582863722655154958829371 1:0.16346154 3:0.11764706 4:0.11764706 5:0.29411766 7:0.11764706 14:0.17647059 18:0.27142856 19:0.33333334 20:0.40000001 21:0.33333334 22:0.024390239 23:0.14285713 27:0.14285713 41:0.33333334 43:0.30000001 52:0.2 54:0.22222222 56:0.01639344 81:0.5 95:1 96:0.33333334 119:0.5 161:1 166:0.5 189:0.16666667 329:1 357:0.25 364:1 423:0.25 428:1 433:1 987:0.5 1068:1 1203:1 1329:1 2147:0.5 2148:0.5 2153:0.5 2154:0.5 2181:0.5 2182:0.5 2207:0.5 2208:0.5 2209:0.5 
-0.17761581497216197278454785646318 1:0.057692312 3:0.16666667 5:0.16666667 17:0.16666667 18:0.30000001 19:0.06666667 20:0.2 22:0.01219512 37:1 43:0.2 232:0.5 233:0.33333334 1034:1 1089:1 2121:0.5 2126:0.5 2130:0.5 2133:0.5 2161:0.5 2171:0.5 2185:0.5 2192:0.5 
-0.89913851748278739162145711816265 1:0.01923077 7:0.5 18:0.11428571 233:0.33333334 1696:1 2121:0.5 2126:0.5 2130:0.5 2133:0.5 2161:0.5 2171:0.5 2185:0.5 2192:0.5 
-0.18542987871083435602592714985803 1:0.02884615 7:0.33333334 9:0.33333334 18:0.24285714 65:0.33333334 259:0.33333334 322:0.25 662:1 1406:1 2121:0.5 2126:0.5 2130:0.5 2155:0.5 2156:0.5 2161:0.5 2185:0.5 2192:0.5 
-0.1053448853223069997531169406102 1:0.125 2:0.15384616 5:0.07692308 6:0.07692308 7:0.15384614 13:0.07692308 14:0.23076923 17:0.07692308 18:0.01428571 19:0.06666667 27:0.14285713 30:0.1 38:0.33333334 40:0.33333334 41:0.33333334 43:0.1 45:0.5 56:0.01639344 105:0.5 150:0.01333333 286:0.5 366:0.5 403:1 467:0.5 504:1 549:1 557:1 760:1 763:1 803:1 988:0.5 1258:1 1449:1 1978:1 2110:0.5 2112:0.5 2143:0.5 2149:0.5 2162:0.5 
-0.06190116657347589229631878993132 1:1 3:0.78846157 4:0.02884615 5:0.057692312 12:0.0096153803 14:0.02884615 18:0.057142861 19:0.40000001 20:1 22:1 27:0.85714287 41:0.33333334 44:1 46:0.25 47:0.40000001 48:0.33333334 52:0.2 53:0.85714287 54:0.33333334 55:0.66666669 56:0.081967212 57:1 58:1 59:0.75 61:0.75 85:0.25 87:1 95:1 109:0.5 174:0.75 202:1 203:0.5 204:1 238:0.5 2118:0.5 2122:0.5 2123:0.5 2201:0.5 
-0.077290049012440131814827282141778 1:0.20192309 3:0.33333334 5:0.33333334 18:0.24285714 19:0.46666667 20:0.60000002 22:0.085365847 23:0.2857143 42:0.11111111 43:0.30000001 44:0.046153851 51:0.125 61:0.25 80:0.5 96:0.66666669 112:0.5 118:1 148:0.2 150:0.026666669 189:0.33333334 247:1 526:0.5 617:0.66666669 1067:1 1113:1 1115:1 1116:1 1820:1 1821:1 1822:1 2147:0.5 2199:0.5 2205:0.5 2206:0.5 2207:0.5 2208:0.5 2209:0.5 
0.31177287074597676008735902541957 1:0.03846154 7:0.5 11:0.25 17:0.25 18:0.1 150:0.01333333 152:0.5 156:0.5 322:0.25 594:0.5 1355:1 1670:1 1671:1 2168:0.5 2184:0.5 2186:0.5 2191:0.5 2202:0.5 2212:0.5 2213:0.5 2216:0.5 
-0.46090446221758901712561851127248 1:0.02884615 5:0.33333334 7:0.33333334 18:0.085714288 19:0.06666667 43:0.1 186:0.25 189:0.16666667 237:0.33333334 262:0.25 321:0.33333334 2120:0.5 2136:0.5 2160:0.5 2161:0.5 2168:0.5 2189:0.5 2192:0.5 2198:0.5 
-0.23075972967957145143280683896592 1:0.057692312 5:0.16666667 7:0.16666667 8:0.33333334 9:0.16666667 17:0.16666667 18:0.1 19:0.06666667 43:0.2 64:0.5 83:0.25 84:0.25 181:0.16666667 189:0.16666667 253:0.5 344:0.25 346:0.5 349:0.33333334 352:0.5 386:0.5 665:1 2121:0.5 2127:0.5 2128:0.5 2132:0.5 2146:0.5 2148:0.5 2150:0.5 2151:0.5 2153:0.5 2155:0.5 2156:0.5 2160:0.5 2164:0.5 2166:0.5 2168:0.5 2171:0.5 
-0.25416349216487055251434412639355 1:0.057692312 3:0.16666667 6:0.16666667 7:0.16666667 9:0.16666667 11:0.16666667 18:0.1 22:0.01219512 29:0.1 43:0.2 75:0.25 154:0.5 156:0.5 162:0.5 186:0.25 200:0.25 237:0.33333334 262:0.25 321:0.33333334 382:0.5 602:1 2111:0.5 2136:0.5 2143:0.5 2146:0.5 2158:0.5 2160:0.5 2161:0.5 2168:0.5 
-0.12476870691325163409413079307342 1:0.10576923 4:0.27272728 5:0.18181819 7:0.18181819 14:0.36363637 18:0.15714286 19:0.13333333 23:0.14285713 38:0.33333334 41:0.44444445 43:0.1 54:0.33333334 56:0.032786891 105:0.5 119:0.25 133:0.16666667 161:1 166:0.5 176:0.5 398:1 431:0.33333334 456:1 479:1 510:1 841:1 1397:1 2121:0.5 2126:0.5 2130:0.5 2136:0.5 2161:0.5 2171:0.5 2182:0.5 2192:0.5 
-0.07661623290101951533337398814183 1:0.25961539 3:0.4074074 4:0.18518519 6:0.11111111 7:0.074074067 16:0.074074067 18:0.11428571 22:0.13414633 27:0.2857143 29:0.1 30:0.2 32:0.25 33:0.25 36:0.5 42:0.11111111 43:0.5 44:0.061538462 47:0.60000002 51:0.125 53:0.2857143 54:0.55555558 61:0.25 112:0.5 119:0.25 133:0.16666667 150:0.01333333 181:0.33333334 199:0.33333334 209:0.80000001 217:0.5 248:1 285:1 423:0.5 461:1 608:0.16666667 632:0.66666669 693:1 865:1 944:1 984:1 985:1 986:1 2130:0.5 2133:0.5 2137:0.5 2140:0.5 2144:0.5 2145:0.5 2198:0.5 2204:0.5 
-0.095556767058726344021835075182025 1:0.16346154 3:0.41176471 4:0.17647059 5:0.05882353 16:0.17647059 18:0.15714286 19:0.06666667 22:0.085365847 33:0.375 43:0.1 44:0.07692308 48:0.16666667 49:0.25 54:0.33333334 56:0.01639344 57:0.2 58:0.2 124:0.33333334 189:0.16666667 233:0.66666669 235:0.2 283:0.5 526:0.5 735:0.33333334 950:0.5 952:0.125 1167:1 1556:1 1861:1 1879:1 1995:1 2072:1 2073:1 2074:1 2075:1 2076:1 2077:1 2078:1 2121:0.5 2126:0.5 2130:0.5 2133:0.5 2137:0.5 2140:0.5 2144:0.5 2147:0.5 
-0.15837240901480931221101400296902 1:0.0096153803 18:0.11428571 83:0.25 2121:0.5 2126:0.5 2130:0.5 2136:0.5 2158:0.5 2160:0.5 2161:0.5 2168:0.5 
-0.17850771497723613712160783961735 1:0.01923077 7:0.5 18:0.1 56:0.01639344 557:1 1032:1 1748:1 2121:0.5 2136:0.5 2155:0.5 2156:0.5 2158:0.5 2161:0.5 2166:0.5 2215:0.5 
-1.1938492846226120835950723630958 1:0.0096153803 18:0.1 83:0.25 2121:0.5 2126:0.5 2130:0.5 2158:0.5 2160:0.5 2161:0.5 2168:0.5 2185:0.5 
-0.10217072680763880643262098146806 1:0.125 3:0.07692308 6:0.07692308 14:0.23076923 18:0.27142856 22:0.01219512 27:0.14285713 30:0.1 41:0.33333334 43:0.1 51:0.125 61:0.25 65:0.66666669 68:0.5 115:0.33333334 122:0.5 123:0.5 127:0.33333334 224:0.5 310:0.5 311:1 380:1 389:0.5 472:0.5 473:0.5 705:1 1391:1 1392:1 1393:1 2146:0.5 2147:0.5 2151:0.5 2155:0.5 2160:0.5 2161:0.5 2163:0.5 2166:0.5 2173:0.5 2179:0.5 2180:0.5 2181:0.5 2182:0.5 2183:0.5 2194:0.5 
-0.059507351477735316580552904497381 1:0.25 2:0.07692308 3:0.23076923 5:0.03846154 9:0.03846154 14:0.23076923 17:0.11538462 18:0.32857144 19:0.06666667 22:0.073170729 26:0.5 27:0.42857143 40:0.33333334 41:0.66666669 43:0.1 44:0.030769231 45:1 52:0.60000002 55:0.16666667 56:0.01639344 57:0.2 67:0.5 69:0.5 75:0.25 84:0.5 93:0.66666669 96:0.33333334 105:0.5 106:1 109:0.25 110:1 111:1 123:0.5 144:0.5 150:0.01333333 214:0.5 310:0.5 525:1 562:1 567:1 570:1 1564:0.5 1738:1 1996:0.5 2137:0.5 2140:0.5 2144:0.5 2147:0.5 2148:0.5 2153:0.5 2154:0.5 2156:0.5 2168:0.5 2181:0.5 
-0.049463764910619469061803243903341 1:0.52884614 3:0.65454543 4:0.12727273 5:0.054545451 14:0.036363639 16:0.018181819 18:0.057142861 19:0.2 20:0.40000001 22:0.43902439 27:0.42857143 33:0.125 41:0.22222222 43:0.2 44:0.38461539 47:0.80000001 48:0.5 49:0.25 50:1 51:0.125 52:0.2 53:0.42857143 54:0.77777779 55:0.33333334 56:0.049180329 57:0.40000001 58:0.40000001 78:0.33333334 119:0.25 123:0.5 124:0.16666667 131:0.5 161:1 189:0.16666667 264:0.5 477:0.5 536:1 538:1 641:1 721:0.5 735:0.33333334 1175:1 1176:1 1208:1 2118:0.5 2122:0.5 2123:0.5 2179:0.5 2180:0.5 2181:0.5 2182:0.5 
-0.85312850738984946641352280494175 1:0.02884615 2:0.66666669 7:0.66666669 18:0.18571429 38:0.33333334 40:0.33333334 43:0.1 222:0.33333334 357:0.125 364:0.5 365:0.5 2121:0.5 2126:0.5 2130:0.5 2133:0.5 2136:0.5 2160:0.5 2161:0.5 2192:0.5 
-0.1794417471977379219261194975843 1:0.03846154 18:0.085714288 43:0.2 83:0.75 150:0.01333333 157:1 158:0.5 159:0.5 253:1 333:1 2121:0.5 2126:0.5 2130:0.5 2133:0.5 2136:0.5 2158:0.5 2160:0.5 2161:0.5 
-0.060945122732611094196197853989361 1:0.35576922 3:0.32432431 5:0.054054052 6:0.081081077 14:0.24324325 16:0.081081077 17:0.054054052 18:0.34285715 19:0.13333333 22:0.14634146 26:0.5 27:0.2857143 28:0.25 29:0.30000001 32:0.25 33:0.375 41:1 44:0.061538462 45:0.5 52:0.2 55:0.16666667 56:0.01639344 67:0.5 69:0.5 84:0.5 93:0.66666669 95:1 104:0.5 105:0.5 107:1 108:0.5 109:1 134:0.5 160:1 161:1 162:0.5 166:0.5 195:1 224:0.5 280:0.66666669 406:0.33333334 479:1 501:0.33333334 526:0.5 527:0.66666669 530:0.5 539:0.33333334 609:0.5 1120:1 1285:1 1518:1 2157:0.5 2182:0.5 2183:0.5 2184:0.5 2186:0.5 2202:0.5 
-0.058282389757026334398126721225708 1:0.125 5:0.23076923 7:0.07692308 9:0.15384614 14:0.15384614 18:0.1 19:0.2 27:0.14285713 41:0.22222222 43:0.30000001 61:0.25 65:0.33333334 66:0.33333334 67:0.5 69:0.5 74:0.25 75:0.25 92:0.5 95:1 122:0.5 140:1 142:0.25 143:0.5 144:0.5 146:0.5 147:1 148:0.40000001 149:1 181:0.16666667 690:1 811:0.5 2121:0.5 2126:0.5 2132:0.5 2136:0.5 2148:0.5 2150:0.5 2153:0.5 2155:0.5 2156:0.5 2158:0.5 2160:0.5 2192:0.5 
-0.063517070309994816401655270965421 1:0.096153848 5:0.2 8:0.2 17:0.1 18:0.085714288 19:0.13333333 27:0.14285713 43:0.2 56:0.01639344 64:0.5 84:0.25 88:0.5 96:0.33333334 108:0.5 142:0.25 148:0.2 257:0.5 325:1 328:1 346:0.5 408:1 736:1 845:1 934:1 996:1 997:1 998:1 999:1 2121:0.5 2122:0.5 2126:0.5 2127:0.5 2129:0.5 2130:0.5 2132:0.5 2136:0.5 2156:0.5 2184:0.5 
-0.27614020295142072125571530705201 1:0.01923077 4:0.5 18:0.1 54:0.11111111 83:0.25 644:1 2121:0.5 2126:0.5 2130:0.5 2133:0.5 2136:0.5 2160:0.5 2161:0.5 2192:0.5 
0.19424179124485638214814287039189 1:0.13461538 6:0.14285713 7:0.35714287 9:0.14285713 11:0.071428567 16:0.071428567 18:0.028571431 29:0.2 33:0.125 38:0.33333334 43:0.1 66:0.33333334 71:0.5 72:1 73:1 74:0.25 75:0.25 124:0.33333334 156:0.5 322:0.25 417:0.5 418:1 501:0.33333334 591:1 593:1 594:1 595:0.66666669 596:0.66666669 732:1 1369:1 1370:1 1371:1 1372:1 1373:1 1374:1 1375:1 1376:1 1377:1 1378:1 2110:0.5 2155:0.5 2162:0.5 2212:0.5 2213:0.5 
-0.052899841063721336764658076390333 1:0.086538456 6:0.22222222 7:0.22222222 18:0.1 27:0.14285713 30:0.2 43:0.30000001 69:0.5 96:0.33333334 132:0.5 142:0.25 181:0.16666667 196:0.5 237:0.33333334 257:0.5 389:0.5 465:1 675:1 712:1 773:1 1295:1 1658:1 1659:1 2122:0.5 2123:0.5 2127:0.5 2128:0.5 2143:0.5 2148:0.5 2149:0.5 2153:0.5 2164:0.5 2168:0.5 
-0.066822246283782499309822355826327 1:0.16346154 2:0.11764706 4:0.05882353 5:0.17647059 6:0.17647059 7:0.05882353 9:0.05882353 18:0.01428571 19:0.2 27:0.14285713 29:0.2 30:0.1 34:0.33333334 38:0.33333334 39:0.5 40:0.33333334 43:0.30000001 54:0.11111111 74:0.25 75:0.25 81:0.5 124:0.16666667 144:0.5 165:1 172:0.5 200:0.25 251:1 337:0.25 366:0.5 389:0.5 440:1 536:1 538:1 768:1 1138:1 1161:1 1231:1 1838:1 2087:1 2110:0.5 2111:0.5 2143:0.5 2146:0.5 
-0.070249892540951985875352647781256 1:0.125 3:0.38461539 4:0.23076923 18:0.34285715 22:0.060975611 44:0.061538462 54:0.33333334 389:1 526:0.5 536:1 538:1 544:1 548:1 631:1 744:1 943:1 1594:1 2121:0.5 2126:0.5 2130:0.5 2133:0.5 2137:0.5 2140:0.5 2144:0.5 2147:0.5 
-0.069258116186164661587376656370907 1:0.16346154 3:0.17647059 4:0.11764706 5:0.17647059 14:0.11764706 18:0.18571429 19:0.2 22:0.036585368 23:0.14285713 27:0.2857143 41:0.22222222 45:0.5 47:0.2 52:0.2 54:0.22222222 55:0.16666667 95:1 96:0.33333334 97:0.5 104:0.5 108:0.5 133:0.16666667 172:0.5 228:1 279:0.5 423:0.25 433:1 470:0.33333334 693:0.5 899:0.5 1415:1 2160:0.5 2161:0.5 2179:0.5 2180:0.5 2181:0.5 2182:0.5 2185:0.5 2192:0.5 
-0.053426733305074483593166689843201 1:0.23076923 3:0.25 5:0.083333328 14:0.16666667 17:0.083333328 18:0.25714287 19:0.13333333 22:0.073170729 27:0.42857143 41:0.44444445 44:0.030769231 45:0.5 53:0.14285713 55:0.16666667 61:0.25 65:1 68:1 69:0.5 84:0.5 93:0.66666669 104:0.5 105:0.5 108:0.5 120:0.66666669 140:1 166:0.5 224:0.5 279:0.5 280:0.66666669 282:0.33333334 554:1 694:1 1120:1 1185:1 2148:0.5 2151:0.5 2153:0.5 2164:0.5 2179:0.5 2181:0.5 2182:0.5 2207:0.5 2208:0.5 2209:0.5 2211:0.5 
-0.055131926248912256627310313206181 1:0.16346154 3:0.29411766 5:0.11764706 11:0.05882353 14:0.05882353 16:0.05882353 18:0.38571429 19:0.13333333 21:0.33333334 22:0.060975611 27:0.42857143 33:0.125 41:0.11111111 45:0.5 49:0.25 50:1 52:0.2 53:0.14285713 55:0.16666667 56:0.01639344 59:0.25 61:0.25 81:0.5 142:0.25 146:0.5 156:0.5 171:0.5 172:0.5 174:0.25 228:1 474:0.5 501:0.33333334 661:1 925:1 926:1 2146:0.5 2148:0.5 2151:0.5 2153:0.5 2163:0.5 2182:0.5 2183:0.5 2184:0.5 2186:0.5 2202:0.5 
-0.059021332442862756151313874397601 1:0.20192309 3:0.2857143 5:0.2857143 6:0.047619049 18:0.2857143 19:0.40000001 20:0.40000001 22:0.073170729 23:0.14285713 27:0.14285713 29:0.1 44:0.061538462 61:0.5 62:0.5 80:1 82:1 96:0.66666669 97:0.5 118:0.5 134:0.5 150:0.026666669 247:0.5 285:1 526:0.25 617:0.33333334 1113:1 1115:0.5 1117:1 1195:1 1196:1 2041:1 2144:0.5 2147:0.5 2203:0.5 2204:0.5 2205:0.5 2206:0.5 2207:0.5 2208:0.5 
-0.051959608918402441779527123344451 1:0.13461538 3:0.14285713 5:0.21428572 9:0.14285713 18:0.15714286 19:0.2 22:0.024390239 27:0.14285713 61:0.25 62:0.5 66:0.33333334 67:0.5 69:0.5 70:1 75:0.25 77:0.5 78:0.33333334 113:0.5 124:0.33333334 165:1 174:0.25 243:0.5 244:0.33333334 245:0.5 276:1 314:1 315:1 359:1 531:1 1136:1 2121:0.5 2126:0.5 2130:0.5 2133:0.5 2137:0.5 2173:0.5 2185:0.5 2196:0.5 2220:0.5 
-0.042762073843099150660673757329278 1:0.10576923 7:0.18181819 9:0.090909094 18:0.12857144 27:0.2857143 43:0.2 67:0.5 69:0.5 75:0.25 78:0.33333334 142:0.25 144:0.5 181:0.16666667 186:0.75 191:1 237:0.33333334 257:0.5 264:0.5 306:1 321:0.33333334 404:1 514:0.5 572:0.5 690:1 736:1 1186:1 1187:1 2134:0.5 2135:0.5 2159:0.5 2185:0.5 2194:0.5 
0.20137450341097429262759987977915 1:0.04807692 7:0.60000002 11:0.2 18:0.1 38:0.33333334 150:0.01333333 152:0.5 156:0.5 322:0.5 789:0.33333334 790:0.5 1155:0.5 1156:1 1157:0.5 2142:0.5 2145:0.5 2160:0.5 2161:0.5 2168:0.5 2179:0.5 2180:0.5 2181:0.5 2192:0.5 
-0.13900922925721204137516906484962 1:0.04807692 7:0.2 9:0.2 18:0.12857144 27:0.14285713 75:0.25 142:0.25 181:0.16666667 257:0.5 332:1 1658:1 1974:1 2149:0.5 2150:0.5 2151:0.5 2153:0.5 2171:0.5 2192:0.5 2194:0.5 2196:0.5 
-0.060738079257734445270955347950803 1:0.057692312 2:0.33333334 7:0.5 18:0.75714284 38:0.33333334 40:0.33333334 43:0.1 222:0.33333334 269:1 322:0.25 389:0.5 1310:1 1417:0.5 1843:1 1844:1 1845:1 2159:0.5 2183:0.5 2184:0.5 2186:0.5 2202:0.5 
-0.1031462145002095404100472819664 1:0.03846154 6:0.25 7:0.25 17:0.25 18:0.085714288 30:0.1 43:0.1 196:0.25 322:0.25 625:0.14285713 918:1 922:0.5 1125:1 1355:1 1839:1 2123:0.5 2127:0.5 2128:0.5 2153:0.5 2155:0.5 2156:0.5 2187:0.5 2188:0.5 
-0.18828257346231294655503063495416 1:0.01923077 18:0.1 115:0.33333334 150:0.01333333 505:1 781:0.5 963:1 2121:0.5 2126:0.5 2130:0.5 2133:0.5 2161:0.5 2171:0.5 2185:0.5 2191:0.5 2192:0.5 
-0.092398278747755871465052734947676 1:0.1923077 3:0.55000001 4:0.050000001 5:0.050000001 6:0.1 14:0.050000001 18:0.1 19:0.06666667 20:0.2 22:0.13414633 27:0.14285713 29:0.1 30:0.1 41:0.11111111 44:0.07692308 46:0.25 48:0.16666667 53:0.14285713 54:0.11111111 56:0.01639344 58:0.2 59:0.5 61:0.5 100:0.25 124:0.16666667 161:1 162:0.5 174:0.5 210:0.33333334 244:0.33333334 860:1 861:1 863:1 2121:0.5 2126:0.5 2130:0.5 2133:0.5 2158:0.5 2160:0.5 2171:0.5 2175:0.5 2185:0.5 2192:0.5 2194:0.5 2196:0.5 
-0.057269400267594194886555669654626 1:0.096153848 5:0.2 7:0.1 13:0.2 17:0.1 18:0.01428571 19:0.13333333 84:0.25 88:0.5 96:0.33333334 108:0.5 314:1 315:1 322:0.25 383:0.5 467:1 484:1 583:1 670:1 1499:1 1568:1 1569:1 1570:1 2112:0.5 2143:0.5 2149:0.5 2162:0.5 2182:0.5 
-0.065456909001249188873039486225025 1:0.03846154 7:0.25 9:0.25 11:0.25 18:0.1 43:0.2 71:0.5 74:0.25 75:0.25 154:0.5 156:0.5 186:0.25 262:0.25 469:1 1287:1 2123:0.5 2127:0.5 2148:0.5 2151:0.5 2155:0.5 2163:0.5 2168:0.5 2202:0.5 
-0.033877572036713016201403547711379 1:0.096153848 6:0.1 7:0.1 9:0.1 11:0.1 18:0.04285714 27:0.14285713 29:0.1 43:0.40000001 66:0.33333334 69:0.5 71:0.5 74:0.25 75:0.25 142:0.25 144:0.5 154:0.5 156:0.5 257:0.5 258:0.5 337:0.25 385:0.5 389:0.5 713:0.5 736:1 1074:1 1287:1 1288:1 2118:0.5 2122:0.5 2129:0.5 2181:0.5 2199:0.5 
-0.61796597948045550730000741168624 1:0.02884615 2:0.66666669 7:0.66666669 18:0.2857143 38:0.33333334 40:0.33333334 43:0.1 222:0.33333334 357:0.125 364:0.5 365:0.5 2121:0.5 2126:0.5 2130:0.5 2133:0.5 2171:0.5 2185:0.5 2192:0.5 2194:0.5 
-0.05500231831639934565458815995953 1:0.17307691 3:0.05555556 4:0.11111111 5:0.16666667 6:0.05555556 7:0.22222222 14:0.16666667 18:0.25714287 19:0.2 21:0.33333334 22:0.01219512 27:0.14285713 30:0.1 38:0.33333334 41:0.33333334 43:0.40000001 54:0.22222222 56:0.049180329 61:0.25 65:0.33333334 80:0.5 81:0.5 82:0.5 95:1 119:0.5 161:1 181:0.33333334 182:0.25 188:0.5 192:0.5 221:0.40000001 222:0.33333334 322:0.25 426:0.33333334 427:1 430:1 479:1 483:1 485:1 811:0.5 1150:1 1158:1 1799:1 2092:1 2144:0.5 2147:0.5 2159:0.5 2207:0.5 2208:0.5 
-0.051490550321163508495914129525772 1:0.057692312 7:0.16666667 9:0.33333334 18:0.14285713 43:0.1 75:0.25 186:0.25 233:0.33333334 237:0.33333334 259:0.33333334 282:0.33333334 382:0.5 522:1 528:1 913:0.5 1280:1 1281:1 2127:0.5 2146:0.5 2148:0.5 2149:0.5 2160:0.5 2168:0.5 2175:0.5 2196:0.5 
-0.047473032030077647047683342407254 1:0.1826923 3:0.21052632 4:0.2631579 5:0.15789475 7:0.052631579 16:0.10526316 18:0.18571429 19:0.2 20:0.2 22:0.04878049 33:0.25 43:0.1 44:0.01538462 47:0.2 48:0.16666667 51:0.125 54:0.55555558 60:0.33333334 61:0.5 124:0.16666667 133:0.16666667 181:0.16666667 190:1 241:0.5 266:1 406:0.33333334 413:0.5 424:0.5 543:0.5 569:1 828:1 829:1 871:1 873:1 1357:1 1542:1 1963:1 2121:0.5 2126:0.5 2130:0.5 2133:0.5 2137:0.5 2140:0.5 2144:0.5 2147:0.5 
-0.14498268333741254343394189163519 1:0.02884615 2:0.66666669 7:0.66666669 18:0.24285714 38:0.33333334 40:0.33333334 43:0.1 222:0.33333334 357:0.125 364:0.5 365:0.5 2161:0.5 2171:0.5 2179:0.5 2180:0.5 2181:0.5 2182:0.5 2185:0.5 2192:0.5 
-0.12984513884013418327789679551643 1:0.01923077 7:0.5 16:0.5 18:0.071428567 33:0.125 38:0.33333334 1369:1 2118:0.5 2122:0.5 2123:0.5 2129:0.5 2154:0.5 2181:0.5 2185:0.5 
-0.10338083569375008941015892105497 1:0.057692312 12:0.16666667 14:0.16666667 18:0.11428571 27:0.14285713 41:0.11111111 61:0.25 65:0.33333334 67:0.5 69:0.5 85:0.25 91:0.5 122:0.5 140:1 555:1 2112:0.5 2122:0.5 2143:0.5 2150:0.5 2153:0.5 2185:0.5 2192:0.5 2194:0.5 2196:0.5 
-0.13936476711488327007160137327446 1:0.057692312 4:0.16666667 5:0.16666667 7:0.16666667 14:0.16666667 18:0.21428572 19:0.06666667 38:0.33333334 41:0.11111111 54:0.11111111 96:0.33333334 115:0.33333334 263:0.5 507:1 611:1 813:0.5 1920:1 2121:0.5 2126:0.5 2130:0.5 2133:0.5 2173:0.5 2183:0.5 2185:0.5 2194:0.5 
-0.045555901510486641881048086588635 1:0.11538462 4:0.083333328 5:0.16666667 6:0.083333328 8:0.16666666 16:0.16666667 17:0.083333328 18:0.51428568 19:0.13333333 23:0.14285713 28:0.25 29:0.1 33:0.25 43:0.40000001 54:0.11111111 64:0.5 83:0.5 84:0.25 115:0.33333334 125:0.5 148:0.2 186:0.25 189:0.16666667 191:1 253:1 262:0.25 333:0.5 346:0.5 539:0.33333334 934:1 1325:1 1559:1 2147:0.5 2155:0.5 2158:0.5 2159:0.5 2160:0.5 2161:0.5 2171:0.5 2173:0.5 2175:0.5 2192:0.5 2194:0.5 
-0.045223306157945425409749873324472 1:0.15384614 3:0.1875 4:0.0625 5:0.375 14:0.0625 18:0.14285713 19:0.40000001 22:0.036585368 23:0.42857143 24:0.5 26:0.5 41:0.11111111 42:0.11111111 43:0.1 54:0.11111111 61:0.25 111:1 112:0.5 124:0.5 163:1 165:1 166:0.5 167:1 174:0.25 243:0.5 244:0.33333334 245:0.5 531:1 543:0.5 639:1 721:0.5 909:1 989:0.5 1973:1 2121:0.5 2126:0.5 2130:0.5 2133:0.5 2137:0.5 2140:0.5 2144:0.5 2147:0.5 
-0.1496882569794759088033231364534 1:0.01923077 14:0.5 17:0.5 18:0.17142858 41:0.11111111 229:1 1867:1 2121:0.5 2126:0.5 2130:0.5 2133:0.5 2207:0.5 2208:0.5 2209:0.5 2211:0.5 
-0.10786734606489896404202255553173 1:0.03846154 6:0.5 14:0.25 18:0.65714288 29:0.2 31:0.25 41:0.11111111 65:0.33333334 140:1 150:0.01333333 285:1 1523:1 2147:0.5 2159:0.5 2183:0.5 2184:0.5 2209:0.5 
-0.051534476930306841180318144779449 1:0.067307688 5:0.42857143 7:0.2857143 18:0.01428571 19:0.2 23:0.14285713 27:0.14285713 62:0.5 81:0.5 124:0.16666667 150:0.01333333 181:0.16666667 317:1 1351:1 1475:0.5 1896:1 1899:1 1962:1 2112:0.5 2143:0.5 2149:0.5 2162:0.5 2182:0.5 
-0.14513256745580518924931823221414 1:0.03846154 7:0.25 9:0.25 11:0.25 18:0.11428571 43:0.1 74:0.25 75:0.25 156:0.5 186:0.25 237:0.33333334 262:0.25 321:0.33333334 804:1 2121:0.5 2126:0.5 2130:0.5 2136:0.5 2158:0.5 2160:0.5 2161:0.5 2168:0.5 
-0.046559416839875376881163759890114 1:0.1826923 3:0.052631579 4:0.052631579 5:0.2631579 6:0.21052632 14:0.15789475 18:0.01428571 19:0.33333334 21:0.33333334 22:0.01219512 26:0.5 27:0.2857143 29:0.1 30:0.30000001 41:0.33333334 43:0.1 45:0.5 54:0.11111111 55:0.16666667 56:0.01639344 95:1 96:0.33333334 97:0.5 105:0.5 119:0.25 137:1 150:0.026666669 200:0.25 233:0.33333334 247:0.5 251:1 252:1 271:1 286:1 405:0.33333334 408:1 488:0.33333334 512:1 658:1 707:1 2162:0.5 2182:0.5 2212:0.5 2213:0.5 
-0.062341975765238887008390378241529 1:0.096153848 5:0.60000002 6:0.1 14:0.1 18:0.11428571 19:0.40000001 23:0.2857143 30:0.1 41:0.11111111 43:0.40000001 137:0.5 148:0.40000001 150:0.01333333 166:0.5 189:0.5 199:0.33333334 211:1 246:1 271:1 389:0.5 711:1 773:1 2121:0.5 2126:0.5 2161:0.5 2171:0.5 2185:0.5 2192:0.5 2205:0.5 2206:0.5 
-0.035830702894957315585156010229184 1:0.26923078 3:0.64285713 4:0.071428567 16:0.10714286 18:0.22857143 22:0.21951219 27:0.14285713 33:0.375 42:0.11111111 43:0.1 44:0.16923077 48:0.16666667 49:0.25 51:0.125 53:0.14285713 54:0.22222222 55:0.16666667 124:0.66666669 150:0.01333333 233:0.66666669 244:0.66666669 248:1 377:1 406:0.33333334 536:1 541:0.5 544:0.5 546:1 628:0.5 721:0.5 950:1 1269:1 1861:1 2121:0.5 2126:0.5 2130:0.5 2133:0.5 2137:0.5 2140:0.5 2144:0.5 2147:0.5 
-0.041080234043741753469092259365425 1:0.125 3:0.07692308 6:0.07692308 7:0.07692308 9:0.07692308 14:0.07692308 17:0.07692308 18:0.37142858 22:0.01219512 27:0.2857143 29:0.1 41:0.11111111 43:0.30000001 55:0.16666667 56:0.032786891 65:0.33333334 67:0.5 69:0.5 74:0.25 75:0.25 83:0.25 84:0.25 93:0.33333334 110:0.5 115:0.33333334 123:0.5 126:0.5 129:0.5 144:0.5 150:0.01333333 157:1 158:0.5 159:0.5 237:0.33333334 292:0.5 337:0.25 361:1 682:1 1130:1 1335:1 1418:1 2154:0.5 2158:0.5 2161:0.5 2171:0.5 2173:0.5 2181:0.5 2182:0.5 2192:0.5 2202:0.5 
-0.061561036957517731305067343328119 1:0.096153848 7:0.2 11:0.2 18:0.057142861 43:0.2 71:0.5 74:0.5 75:0.5 156:1 186:0.5 237:0.33333334 262:0.5 321:0.33333334 469:1 529:1 804:1 1774:1 2121:0.5 2123:0.5 2126:0.5 2127:0.5 2130:0.5 2155:0.5 2168:0.5 
-0.042181565056727259033220178707779 1:0.10576923 3:0.090909094 5:0.18181819 6:0.090909094 14:0.090909094 17:0.090909094 18:0.41428572 19:0.13333333 22:0.01219512 26:0.5 27:0.14285713 29:0.1 41:0.11111111 43:0.2 56:0.01639344 67:0.5 69:0.5 84:0.25 93:0.33333334 110:0.5 123:0.5 142:0.25 214:0.5 314:1 315:1 337:0.25 348:0.5 514:0.5 525:1 675:1 926:1 929:1 930:1 931:1 2146:0.5 2150:0.5 2151:0.5 2156:0.5 2163:0.5 2166:0.5 2183:0.5 2184:0.5 2186:0.5 2202:0.5 2214:0.5 
-0.15434692311081427140706523459812 1:0.057692312 6:0.16666667 7:0.16666667 8:0.33333334 9:0.16666667 17:0.16666667 18:0.14285713 30:0.1 43:0.2 64:0.5 83:0.25 84:0.25 181:0.16666667 196:0.25 253:0.5 343:0.5 344:0.25 346:0.5 349:0.33333334 352:0.5 665:1 2121:0.5 2126:0.5 2130:0.5 2133:0.5 2155:0.5 2158:0.5 2160:0.5 2161:0.5 2171:0.5 2173:0.5 2175:0.5 2177:0.5 2185:0.5 2192:0.5 2194:0.5 2196:0.5 
-0.088438390728562701892379038781655 1:0.04807692 5:0.2 6:0.2 9:0.40000001 17:0.2 18:0.085714288 19:0.06666667 30:0.1 43:0.2 66:0.33333334 73:1 189:0.16666667 349:0.33333334 352:0.5 385:0.5 1051:1 1478:1 1479:1 2111:0.5 2136:0.5 2143:0.5 2146:0.5 2158:0.5 2160:0.5 2161:0.5 2168:0.5 
-0.053770689594191567461933800586849 1:0.14423077 3:0.2 5:0.13333333 9:0.06666667 13:0.06666667 17:0.13333333 18:0.42857143 19:0.13333333 20:0.2 22:0.036585368 27:0.14285713 43:0.30000001 44:0.01538462 66:0.33333334 69:0.5 74:0.25 75:0.25 84:0.25 142:0.25 144:0.5 186:0.25 189:0.16666667 257:0.5 258:0.5 262:0.25 280:0.33333334 385:0.5 396:1 467:0.5 484:1 670:1 736:1 1105:1 1106:1 1120:1 2147:0.5 2157:0.5 2208:0.5 2209:0.5 2217:0.5 2218:0.5 
-0.18488867913077358662299332081602 1:0.03846154 7:0.25 18:0.11428571 43:0.2 74:0.25 75:0.25 186:0.25 191:1 237:0.33333334 262:0.25 712:1 2121:0.5 2126:0.5 2160:0.5 2161:0.5 2166:0.5 2185:0.5 2190:0.5 2192:0.5 
-0.060690499140094826546754092078118 1:0.14423077 3:0.2 4:0.13333333 5:0.2 6:0.2 14:0.06666667 18:0.12857144 19:0.2 22:0.036585368 23:0.2857143 27:0.14285713 30:0.30000001 41:0.11111111 43:0.30000001 44:0.01538462 45:0.5 47:0.2 54:0.22222222 56:0.01639344 119:0.25 124:0.33333334 173:1 176:0.5 196:0.75 199:0.66666669 243:0.5 244:0.66666669 245:0.5 622:1 623:1 989:0.5 1885:1 2045:1 2121:0.5 2126:0.5 2130:0.5 2133:0.5 2137:0.5 2173:0.5 2185:0.5 2194:0.5 
-0.054396519483349059509436074222322 1:0.086538456 6:0.22222222 7:0.11111111 9:0.22222222 14:0.11111111 17:0.11111111 18:0.085714288 27:0.14285713 30:0.2 41:0.11111111 43:0.2 99:0.125 142:0.25 181:0.16666667 188:0.5 196:0.25 257:0.5 349:0.66666669 352:0.5 400:1 571:0.33333334 665:1 1242:1 2121:0.5 2126:0.5 2128:0.5 2130:0.5 2132:0.5 2155:0.5 2158:0.5 2160:0.5 2168:0.5 2192:0.5 
-0.054853181382625411377507163024347 1:0.07692308 3:0.125 5:0.125 7:0.125 9:0.25 17:0.125 18:0.11428571 19:0.06666667 22:0.01219512 38:0.33333334 43:0.2 51:0.125 186:0.25 189:0.16666667 222:0.33333334 233:0.33333334 259:0.33333334 349:0.33333334 511:0.5 528:1 1031:1 1148:1 2107:1 2108:1 2109:1 2121:0.5 2126:0.5 2127:0.5 2130:0.5 2133:0.5 2155:0.5 2185:0.5 2194:0.5 
-0.041576222160541055627991369192387 1:0.07692308 2:0.5 5:0.25 7:0.375 17:0.125 18:0.1 19:0.13333333 38:0.33333334 40:0.66666669 43:0.2 150:0.026666669 222:0.33333334 256:1 357:0.25 364:1 365:1 526:0.25 1057:1 1058:1 1426:0.5 1516:0.5 1848:1 2121:0.5 2126:0.5 2130:0.5 2136:0.5 2158:0.5 2161:0.5 2171:0.5 2182:0.5 2192:0.5 
-0.063395510005921140717077832960058 1:0.057692312 5:0.16666667 7:0.16666667 14:0.33333334 18:0.1 19:0.06666667 27:0.14285713 41:0.22222222 67:0.5 69:0.5 95:1 166:0.5 181:0.16666667 514:0.5 689:1 690:1 691:1 2121:0.5 2126:0.5 2130:0.5 2150:0.5 2155:0.5 2156:0.5 2158:0.5 2160:0.5 2161:0.5 2185:0.5 
-0.06130695655628716489449203663753 1:0.07692308 6:0.25 7:0.375 9:0.125 18:0.085714288 29:0.2 31:0.25 38:0.33333334 43:0.1 75:0.25 144:0.5 186:0.25 237:0.33333334 321:0.33333334 322:0.25 404:1 483:1 501:0.33333334 591:1 1370:1 1376:1 2121:0.5 2126:0.5 2128:0.5 2130:0.5 2132:0.5 2155:0.5 2158:0.5 2168:0.5 
-0.027970287055356601174649355812107 1:0.02884615 7:0.33333334 18:0.1 108:0.5 325:1 328:1 362:1 363:1 2129:0.5 2136:0.5 2148:0.5 2153:0.5 2154:0.5 2158:0.5 2160:0.5 2161:0.5 
-0.193948793546168118950845382642 1:0.01923077 4:0.5 18:0.11428571 43:0.1 54:0.11111111 83:0.25 209:0.2 253:0.5 922:0.5 1289:1 2121:0.5 2126:0.5 2130:0.5 2133:0.5 2185:0.5 2191:0.5 2192:0.5 2194:0.5 
-0.059893905570248658076781822501289 1:0.0096153803 17:1 18:0.17142858 2138:0.5 2139:0.5 2159:0.5 2183:0.5 2196:0.5 
-0.053476969286997660946170185525261 1:0.0096153803 17:1 18:0.32857144 1355:1 2137:0.5 2140:0.5 2144:0.5 2147:0.5 2152:0.5 2180:0.5 2181:0.5 2182:0.5 
-0.059465782822618148961701933785662 1:0.0096153803 17:1 18:0.47142857 2140:0.5 2144:0.5 2147:0.5 2159:0.5 2183:0.5 
-0.62635946112546270203580434099422 1:0.0096153803 18:0.1 83:0.25 2115:0.5 2136:0.5 2146:0.5 2148:0.5 2149:0.5 2160:0.5 2161:0.5 2192:0.5 2194:0.5 
-0.074691600669888655317230075070256 1:0.01923077 5:0.5 9:0.5 18:0.12857144 19:0.06666667 349:0.33333334 535:1 2111:0.5 2116:0.5 2117:0.5 2143:0.5 2149:0.5 2160:0.5 2161:0.5 2162:0.5 2168:0.5 2181:0.5 2185:0.5 2192:0.5 2212:0.5 
-0.23716028651616613553976264938683 1:0.02884615 7:0.33333334 9:0.33333334 18:0.21428572 43:0.1 74:0.25 75:0.25 186:0.25 237:0.33333334 262:0.25 321:0.33333334 2160:0.5 2161:0.5 2168:0.5 2179:0.5 2180:0.5 2181:0.5 2185:0.5 2192:0.5 
-0.0014205671544277184096399802015753 1:0.07692308 13:0.125 14:0.125 17:0.125 18:0.071428567 27:0.14285713 41:0.11111111 43:0.1 61:0.25 67:0.5 69:0.5 78:0.33333334 84:0.25 93:0.33333334 94:1 96:0.33333334 123:0.5 467:0.5 468:1 476:0.5 578:1 992:1 2111:0.5 2122:0.5 2123:0.5 2127:0.5 2146:0.5 2149:0.5 2156:0.5 2166:0.5 2171:0.5 2173:0.5 2202:0.5 
-0.12002681434985695840822472746368 1:0.04807692 6:0.2 7:0.2 11:0.2 18:0.085714288 29:0.1 43:0.2 71:0.5 74:0.25 75:0.25 154:0.5 156:0.5 337:0.25 1074:1 1287:1 2121:0.5 2126:0.5 2130:0.5 2133:0.5 2136:0.5 2155:0.5 2158:0.5 2161:0.5 2192:0.5 
-0.02868504606447686358650095428402 1:0.02884615 2:0.66666669 7:0.33333334 17:0.33333334 18:0.11428571 38:0.33333334 39:0.5 40:0.33333334 2121:0.5 2126:0.5 2130:0.5 2133:0.5 2155:0.5 2158:0.5 2160:0.5 2161:0.5 2185:0.5 
-0.056588361827210900689699712984293 1:0.10576923 3:0.36363637 4:0.090909094 7:0.18181819 18:0.18571429 22:0.04878049 44:0.046153851 47:0.2 54:0.11111111 124:0.66666669 159:1 181:0.33333334 192:1 461:0.5 524:0.5 526:0.75 630:1 871:0.5 889:1 952:0.625 1218:0.5 1366:1 1382:0.5 1475:0.5 1761:1 1851:0.60000002 1852:1 1853:1 2121:0.5 2126:0.5 2130:0.5 2133:0.5 2137:0.5 2140:0.5 2144:0.5 2147:0.5 
-0.071374919813233170251542958339996 1:0.067307688 3:0.2857143 4:0.14285713 14:0.14285713 16:0.14285713 18:0.15714286 22:0.024390239 27:0.14285713 33:0.125 41:0.11111111 45:0.5 47:0.2 54:0.11111111 55:0.16666667 171:0.5 172:0.5 228:1 312:1 2160:0.5 2179:0.5 2180:0.5 2181:0.5 2182:0.5 2185:0.5 2192:0.5 2194:0.5 
-0.027421795770954916771078302417664 1:0.15384614 3:0.125 14:0.0625 18:0.60000002 22:0.024390239 27:0.14285713 41:0.11111111 43:0.2 44:0.01538462 55:0.16666667 61:0.5 65:1 108:1 112:0.5 115:0.33333334 275:0.5 277:0.33333334 282:0.33333334 316:1 360:1 497:0.5 574:1 577:1 625:0.2857143 798:1 1525:1 1587:1 2014:1 2180:0.5 2181:0.5 2182:0.5 2183:0.5 2184:0.5 2186:0.5 2198:0.5 2202:0.5 
-0.027458182527198310429739080973377 1:0.25961539 3:0.18518519 5:0.074074067 6:0.074074067 7:0.037037041 9:0.11111111 14:0.074074067 16:0.074074067 17:0.074074067 18:0.35714287 19:0.13333333 20:0.2 22:0.060975611 27:0.2857143 29:0.1 30:0.1 33:0.25 35:0.25 41:0.22222222 43:0.5 44:0.030769231 52:0.2 56:0.01639344 58:0.2 62:0.5 65:0.66666669 66:0.33333334 67:1 68:0.5 69:1 70:1 73:1 74:0.5 75:0.5 84:0.25 93:0.33333334 109:0.25 144:1 186:0.25 210:0.33333334 237:0.33333334 262:0.25 280:0.33333334 315:1 321:0.33333334 337:0.25 485:1 539:0.33333334 811:1 929:1 1120:1 1130:1 1424:1 2144:0.5 2147:0.5 2158:0.5 2159:0.5 2160:0.5 2171:0.5 2184:0.5 
-0.041726998004330773106573815312004 1:0.14423077 3:0.46666667 4:0.06666667 5:0.13333333 18:0.11428571 19:0.13333333 20:0.2 22:0.085365847 27:0.14285713 44:0.061538462 46:0.25 54:0.11111111 56:0.01639344 58:0.2 61:0.5 65:0.33333334 82:0.5 124:0.16666667 174:0.5 480:1 639:1 640:1 1098:1 1237:1 1239:1 1240:1 2121:0.5 2126:0.5 2130:0.5 2133:0.5 2137:0.5 2161:0.5 2185:0.5 2192:0.5 
-0.035706853587121702153783786570784 1:0.17307691 3:0.3888889 4:0.3888889 5:0.05555556 7:0.05555556 17:0.05555556 18:0.34285715 19:0.06666667 20:0.2 22:0.085365847 43:0.2 44:0.046153851 47:0.60000002 48:0.16666667 51:0.25 54:0.77777779 124:0.5 131:0.5 181:0.16666667 221:0.2 524:0.5 526:0.5 721:0.5 735:0.66666669 744:0.5 871:0.5 873:0.5 875:1 881:0.5 882:0.5 883:0.33333334 884:1 885:1 886:1 887:0.33333334 888:0.33333334 2121:0.5 2126:0.5 2130:0.5 2133:0.5 2137:0.5 2140:0.5 2144:0.5 2147:0.5 
-0.026055756745345465263952178247564 1:0.15384614 5:0.125 7:0.125 8:0.125 9:0.3125 14:0.125 18:0.47142857 19:0.13333333 27:0.14285713 38:0.33333334 41:0.22222222 43:0.1 56:0.01639344 64:0.5 66:0.33333334 69:0.5 74:0.25 75:0.5 139:0.5 141:0.5 150:0.01333333 166:0.5 186:0.25 192:0.5 237:0.33333334 258:0.5 259:0.66666669 262:0.25 271:1 286:0.5 321:0.33333334 379:0.5 496:1 526:1 669:0.5 1154:1 1164:1 1227:1 1236:1 1906:1 2042:1 2157:0.5 2168:0.5 2183:0.5 2184:0.5 2186:0.5 2202:0.5 
-0.02502550217286128933502631355168 1:0.14423077 5:0.06666667 6:0.2 7:0.2 9:0.06666667 14:0.06666667 18:0.30000001 19:0.06666667 29:0.2 30:0.1 38:0.33333334 41:0.11111111 43:0.40000001 74:0.25 75:0.5 105:0.5 144:0.5 150:0.01333333 186:0.25 222:0.33333334 237:0.33333334 259:0.33333334 260:1 261:1 262:0.25 286:0.5 315:1 321:0.33333334 322:0.25 337:0.25 483:1 495:0.5 591:1 686:1 760:1 929:1 1485:1 2159:0.5 2183:0.5 2184:0.5 2209:0.5 2211:0.5 
-0.035692635121891455596276898631913 1:0.057692312 3:0.16666667 6:0.16666667 14:0.16666667 18:0.085714288 22:0.01219512 30:0.1 41:0.11111111 56:0.01639344 61:0.25 78:0.66666669 161:1 197:1 198:1 210:0.33333334 218:1 1238:1 2121:0.5 2126:0.5 2130:0.5 2133:0.5 2136:0.5 2161:0.5 2171:0.5 2192:0.5 
-0.047128273976245423082520602520162 1:0.04807692 5:0.2 18:0.44285715 19:0.06666667 27:0.14285713 61:0.25 65:0.33333334 68:0.5 81:0.5 96:0.33333334 128:1 316:1 2132:0.5 2136:0.5 2158:0.5 2159:0.5 2171:0.5 2173:0.5 2175:0.5 2185:0.5 2192:0.5 2194:0.5 2202:0.5 
-0.095060991469369859885318874148652 1:0.02884615 7:0.33333334 9:0.33333334 18:0.17142858 38:0.33333334 75:0.25 186:0.25 1148:1 1280:1 2121:0.5 2126:0.5 2156:0.5 2158:0.5 2160:0.5 2161:0.5 2166:0.5 2177:0.5 
-0.10913140094925419254501264276769 1:0.02884615 14:0.33333334 17:0.33333334 18:0.11428571 41:0.11111111 84:0.25 93:0.33333334 472:0.5 755:1 2121:0.5 2148:0.5 2150:0.5 2151:0.5 2158:0.5 2160:0.5 2161:0.5 2185:0.5 
-0.020559520765058094532440335910906 1:0.02884615 6:0.33333334 9:0.33333334 17:0.33333334 18:0.22857143 30:0.1 75:0.25 341:1 777:1 778:1 2121:0.5 2126:0.5 2136:0.5 2155:0.5 2158:0.5 2161:0.5 2168:0.5 2189:0.5 
-0.081195040140728466648845085273933 1:0.03846154 7:0.25 18:0.071428567 108:0.5 192:0.5 322:0.25 325:1 328:1 2129:0.5 2160:0.5 2161:0.5 2162:0.5 2185:0.5 2192:0.5 2210:0.5 2212:0.5 
-0.046991515642464662394495178432408 1:0.07692308 5:0.125 6:0.125 18:0.40000001 19:0.06666667 27:0.2857143 30:0.1 43:0.1 62:0.5 67:0.5 69:0.5 96:0.33333334 108:0.5 142:0.25 196:0.25 251:1 257:0.5 845:1 1123:1 1535:1 2146:0.5 2151:0.5 2156:0.5 2161:0.5 2163:0.5 2166:0.5 2171:0.5 2192:0.5 2211:0.5 
-0.050963994209748515740177055022286 1:0.057692312 4:0.83333331 18:0.085714288 43:0.5 54:0.55555558 83:0.25 119:1 209:1 253:0.5 2121:0.5 2126:0.5 2130:0.5 2133:0.5 2136:0.5 2155:0.5 2158:0.5 2160:0.5 2161:0.5 2192:0.5 
-0.026803531351161740542421441091392 1:0.1826923 3:0.052631579 5:0.15789475 6:0.21052632 9:0.052631579 14:0.052631579 16:0.31578946 17:0.052631579 18:0.11428571 19:0.2 20:0.2 21:0.33333334 22:0.01219512 28:0.5 29:0.2 30:0.2 33:0.75 35:0.5 41:0.11111111 43:0.30000001 56:0.032786891 61:0.25 75:0.25 112:0.5 138:1 196:0.5 200:0.25 235:0.40000001 335:1 408:1 424:0.5 479:1 539:0.33333334 580:1 834:1 1136:1 1461:1 1823:1 1937:1 1938:1 2175:0.5 2179:0.5 2180:0.5 2181:0.5 2182:0.5 2183:0.5 2184:0.5 2196:0.5 
-0.028369543902998173301455153705319 1:0.10576923 3:0.27272728 5:0.090909094 14:0.090909094 18:0.34285715 19:0.06666667 21:0.33333334 22:0.036585368 41:0.11111111 43:0.1 51:0.125 52:0.2 65:0.66666669 104:0.5 108:0.5 115:0.33333334 116:1 127:0.33333334 140:1 279:0.5 282:0.33333334 327:1 694:1 1947:1 2144:0.5 2147:0.5 2150:0.5 2153:0.5 2154:0.5 2166:0.5 2182:0.5 2183:0.5 2184:0.5 2189:0.5 
