SVM-light Version V5.00
2 # kernel type
3 # kernel parameter -d 
0.1 # kernel parameter -g 
1 # kernel parameter -s 
1 # kernel parameter -r 
empty# kernel parameter -u 
2226 # highest feature index 
18907 # number of training documents 
449 # number of support vectors plus 1 
0.76237653 # threshold b, each following line is a SV (starting with alpha*y)
0.70347374202634671558342915886897 1:0.04807692 2:0.40000001 7:0.40000001 18:0.057142861 38:0.33333334 40:0.33333334 43:0.1 108:0.5 222:0.33333334 325:1 328:1 357:0.125 588:1 589:1 590:1 2118:0.5 2122:0.5 2123:0.5 2150:0.5 2151:0.5 2153:0.5 2187:0.5 
-1.6407581834342914728352980091586 1:0.0096153803 18:0.071428567 96:0.33333334 2121:0.5 2122:0.5 2126:0.5 2127:0.5 2128:0.5 2130:0.5 2132:0.5 2133:0.5 
0.50626170082944899064614219241776 1:0.02884615 7:0.33333334 18:0.085714288 108:0.5 325:1 328:1 362:1 363:1 2121:0.5 2126:0.5 2130:0.5 2133:0.5 2136:0.5 2158:0.5 2160:0.5 2161:0.5 
-0.1384732031344892144719693760635 1:0.03846154 7:0.5 11:0.25 18:0.11428571 150:0.01333333 152:0.5 156:0.5 322:0.25 594:0.5 1155:0.5 1156:1 1157:0.5 1671:1 2129:0.5 2171:0.5 2192:0.5 2194:0.5 2196:0.5 2200:0.5 
-0.13666096852771325576014760372345 1:0.04807692 2:0.80000001 5:0.2 7:0.40000001 18:0.057142861 19:0.06666667 38:0.66666669 39:1 40:0.66666669 922:0.5 1141:0.5 1245:1 2121:0.5 2123:0.5 2126:0.5 2127:0.5 2130:0.5 2131:0.5 2133:0.5 
-0.14278297851978499766190111586184 1:0.03846154 14:0.25 17:0.25 18:0.04285714 41:0.11111111 61:0.25 65:0.33333334 84:0.25 92:0.5 93:0.33333334 360:1 2112:0.5 2118:0.5 2122:0.5 2143:0.5 2150:0.5 2166:0.5 
1.6407581834342914728352980091586 1:0.0096153803 18:0.01428571 37:1 2110:0.5 2112:0.5 2162:0.5 2163:0.5 
1.6407581834342914728352980091586 1:0.0096153803 18:0.057142861 2118:0.5 2122:0.5 2123:0.5 2129:0.5 2152:0.5 2180:0.5 2181:0.5 
1.6407581834342914728352980091586 1:0.0096153803 18:0.057142861 327:1 2114:0.5 2115:0.5 2118:0.5 2123:0.5 2125:0.5 2143:0.5 2146:0.5 
0.010945181320088174722893192836182 1:0.02884615 18:0.057142861 37:1 96:0.33333334 108:0.5 583:1 1858:1 2118:0.5 2122:0.5 2123:0.5 2129:0.5 2146:0.5 2148:0.5 2149:0.5 
-1.598795655269614313098713864747 1:0.125 3:0.69230771 4:0.07692308 5:0.07692308 18:0.30000001 19:0.06666667 22:0.1097561 43:0.1 44:0.092307687 47:0.2 48:0.16666667 51:0.125 54:0.11111111 56:0.01639344 57:0.2 58:0.2 108:0.5 279:0.5 325:1 328:1 2179:0.5 2180:0.5 2181:0.5 2182:0.5 2183:0.5 2184:0.5 2186:0.5 2202:0.5 
-1.6407581834342914728352980091586 1:0.02884615 3:0.33333334 18:0.11428571 22:0.01219512 37:1 1003:0.5 1458:0.5 2127:0.5 2129:0.5 2131:0.5 2132:0.5 2136:0.5 2179:0.5 2180:0.5 2181:0.5 
-1.0313479342628457668951114101219 1:0.086538456 3:0.22222222 5:0.11111111 14:0.11111111 18:0.15714286 19:0.06666667 20:0.2 22:0.024390239 41:0.11111111 44:0.01538462 65:0.33333334 69:0.5 108:0.5 115:0.33333334 127:0.33333334 140:1 325:1 328:1 370:0.5 520:1 2179:0.5 2180:0.5 2181:0.5 2182:0.5 2183:0.5 2184:0.5 2186:0.5 2196:0.5 
1.6407581834342914728352980091586 1:0.0096153803 18:0.028571431 2114:0.5 2115:0.5 2121:0.5 2125:0.5 2126:0.5 
0.16889517106109769306598877847136 1:0.03846154 2:0.5 7:0.25 18:0.085714288 38:0.33333334 39:0.5 40:0.33333334 118:0.5 389:0.5 660:1 1862:1 2121:0.5 2122:0.5 2126:0.5 2127:0.5 2128:0.5 2130:0.5 2132:0.5 2133:0.5 
1.6407581834342914728352980091586 1:0.03846154 2:0.5 7:0.25 18:0.12857144 38:0.33333334 39:0.5 40:0.33333334 118:0.5 389:0.5 660:1 1862:1 2121:0.5 2122:0.5 2126:0.5 2127:0.5 2130:0.5 2132:0.5 2133:0.5 2136:0.5 
-1.6407581834342914728352980091586 1:0.0096153803 18:0.071428567 83:0.25 2118:0.5 2121:0.5 2122:0.5 2123:0.5 2126:0.5 2128:0.5 2129:0.5 2130:0.5 
-1.6407581834342914728352980091586 1:0.01923077 18:0.085714288 78:0.33333334 142:0.25 2121:0.5 2122:0.5 2126:0.5 2128:0.5 2129:0.5 2130:0.5 2132:0.5 2158:0.5 
1.6407581834342914728352980091586 1:0.03846154 5:0.5 16:0.25 18:0.028571431 19:0.13333333 27:0.14285713 33:0.125 62:0.5 81:0.5 454:1 2112:0.5 2124:0.5 2131:0.5 2143:0.5 2162:0.5 
1.6407581834342914728352980091586 1:0.01923077 7:0.5 18:0.057142861 108:0.5 322:0.25 2110:0.5 2111:0.5 2131:0.5 2135:0.5 2141:0.5 2146:0.5 2149:0.5 
1.6407581834342914728352980091586 1:0.01923077 7:0.5 18:0.028571431 357:0.125 439:0.5 1701:1 2110:0.5 2111:0.5 2131:0.5 2143:0.5 2146:0.5 2149:0.5 
-1.6407581834342914728352980091586 1:0.0096153803 7:1 18:0.01428571 322:0.25 2110:0.5 2111:0.5 2146:0.5 2149:0.5 
1.6407581834342914728352980091586 1:0.03846154 5:0.25 9:0.25 17:0.25 18:0.1 19:0.06666667 282:0.33333334 349:0.33333334 535:1 2117:0.5 2128:0.5 2132:0.5 2155:0.5 2158:0.5 2168:0.5 2180:0.5 2181:0.5 
1.6407581834342914728352980091586 1:0.0096153803 18:0.11428571 118:0.5 2118:0.5 2121:0.5 2122:0.5 2123:0.5 2126:0.5 2128:0.5 2129:0.5 2130:0.5 
-0.60221573634069835989635066653136 1:0.0096153803 18:0.071428567 83:0.25 2121:0.5 2122:0.5 2123:0.5 2127:0.5 2128:0.5 2148:0.5 2150:0.5 2151:0.5 
-0.32048881621015884446634913729213 1:0.0096153803 18:0.057142861 61:0.25 2123:0.5 2127:0.5 2143:0.5 2146:0.5 2148:0.5 2149:0.5 2150:0.5 2153:0.5 2155:0.5 
-0.22575165808578645521009775620769 1:0.02884615 2:0.66666669 17:0.33333334 18:0.04285714 40:0.33333334 567:1 568:1 569:1 570:1 2110:0.5 2111:0.5 2112:0.5 2134:0.5 2135:0.5 2143:0.5 2149:0.5 
1.6407581834342914728352980091586 1:0.0096153803 18:0.071428567 118:0.5 2118:0.5 2121:0.5 2122:0.5 2123:0.5 2126:0.5 2128:0.5 2130:0.5 2133:0.5 
1.6407581834342914728352980091586 1:0.0096153803 18:0.1 118:0.5 2118:0.5 2121:0.5 2122:0.5 2123:0.5 2126:0.5 2128:0.5 2129:0.5 2130:0.5 
-0.057318215139549030801013884683925 1:0.0096153803 18:0.085714288 83:0.25 2112:0.5 2122:0.5 2123:0.5 2127:0.5 2128:0.5 2143:0.5 2148:0.5 2150:0.5 2158:0.5 2173:0.5 
-0.14825003242218595667090141887456 1:0.11538462 6:0.16666667 7:0.083333328 16:0.16666667 17:0.16666667 18:0.057142861 29:0.2 32:0.25 33:0.25 181:0.16666667 186:0.25 367:0.5 389:0.5 391:0.5 439:0.5 673:0.5 1780:1 1787:1 1917:1 1922:1 1923:1 2121:0.5 2122:0.5 2123:0.5 2126:0.5 2127:0.5 2130:0.5 2133:0.5 
1.6407581834342914728352980091586 1:0.0096153803 18:0.18571429 282:0.33333334 2155:0.5 2158:0.5 2161:0.5 2179:0.5 2180:0.5 2181:0.5 2182:0.5 2185:0.5 
1.6407581834342914728352980091586 1:0.04807692 5:0.40000001 7:0.2 18:0.057142861 19:0.13333333 23:0.14285713 96:0.33333334 108:0.5 279:0.5 322:0.25 583:1 1499:1 2118:0.5 2122:0.5 2129:0.5 2179:0.5 2180:0.5 2181:0.5 2186:0.5 
-1.6407581834342914728352980091586 1:0.0096153803 18:0.071428567 83:0.25 2118:0.5 2121:0.5 2122:0.5 2123:0.5 2126:0.5 2128:0.5 2129:0.5 2130:0.5 
1.6407581834342914728352980091586 1:0.0096153803 18:0.17142858 118:0.5 2121:0.5 2126:0.5 2129:0.5 2130:0.5 2132:0.5 2155:0.5 2158:0.5 2160:0.5 2185:0.5 
-1.0680372805993945117819521328784 1:0.0096153803 18:0.057142861 96:0.33333334 2118:0.5 2121:0.5 2122:0.5 2123:0.5 2126:0.5 2130:0.5 2133:0.5 
1.6407581834342914728352980091586 1:0.03846154 14:0.25 17:0.25 18:0.01428571 27:0.14285713 41:0.11111111 67:0.5 69:0.5 84:0.25 93:0.33333334 110:0.5 2119:0.5 2124:0.5 2210:0.5 2212:0.5 
1.6407581834342914728352980091586 1:0.01923077 7:0.5 18:0.01428571 389:0.5 557:1 2110:0.5 2111:0.5 2143:0.5 2146:0.5 
-1.6407581834342914728352980091586 1:0.0096153803 18:0.057142861 96:0.33333334 2118:0.5 2121:0.5 2122:0.5 2123:0.5 2126:0.5 2130:0.5 2133:0.5 
-1.6407581834342914728352980091586 1:0.0096153803 18:0.12857144 83:0.25 2121:0.5 2126:0.5 2129:0.5 2130:0.5 2131:0.5 2161:0.5 2185:0.5 2192:0.5 
1.6407581834342914728352980091586 1:0.0096153803 18:0.085714288 118:0.5 2118:0.5 2121:0.5 2122:0.5 2123:0.5 2126:0.5 2128:0.5 2129:0.5 2130:0.5 
1.6407581834342914728352980091586 1:0.0096153803 18:0.071428567 118:0.5 2118:0.5 2121:0.5 2122:0.5 2123:0.5 2126:0.5 2128:0.5 2129:0.5 2130:0.5 
-0.35876794617759316663452295870229 1:0.04807692 5:0.2 7:0.2 18:0.42857143 19:0.06666667 38:0.33333334 43:0.1 118:1 121:1 150:0.01333333 186:0.25 256:0.5 766:1 1007:1 1031:1 1148:1 2140:0.5 2144:0.5 2147:0.5 2152:0.5 2180:0.5 2183:0.5 2205:0.5 2206:0.5 
-1.6407581834342914728352980091586 1:0.057692312 14:0.33333334 17:0.16666667 18:0.5 41:0.22222222 43:0.1 118:1 121:1 150:0.01333333 186:0.25 271:1 286:0.5 526:0.25 1006:1 1007:1 2161:0.5 2185:0.5 2192:0.5 2201:0.5 2207:0.5 
1.6407581834342914728352980091586 1:0.0096153803 18:0.085714288 118:0.5 2118:0.5 2122:0.5 2123:0.5 2143:0.5 2150:0.5 2153:0.5 2164:0.5 2196:0.5 2197:0.5 
1.6407581834342914728352980091586 1:0.03846154 5:0.25 6:0.25 13:0.25 17:0.25 18:0.057142861 19:0.06666667 30:0.1 84:0.25 150:0.01333333 267:0.5 467:0.5 484:1 670:1 1099:1 2120:0.5 2121:0.5 2122:0.5 2123:0.5 2127:0.5 2148:0.5 2150:0.5 
-0.91095623100384104375848437484819 1:0.03846154 7:0.25 18:0.085714288 43:0.1 66:0.33333334 186:0.25 237:0.33333334 262:0.25 321:0.33333334 385:0.5 2121:0.5 2127:0.5 2128:0.5 2129:0.5 2132:0.5 2155:0.5 2180:0.5 2181:0.5 
-0.061143424556774406131154364629765 1:0.067307688 5:0.71428573 18:0.01428571 19:0.33333334 23:0.2857143 65:0.33333334 108:0.5 279:0.5 485:1 598:1 1169:1 2110:0.5 2111:0.5 2143:0.5 2146:0.5 
1.6407581834342914728352980091586 1:0.01923077 7:0.5 18:0.11428571 233:0.33333334 1696:1 2121:0.5 2126:0.5 2130:0.5 2133:0.5 2161:0.5 2171:0.5 2185:0.5 2192:0.5 
1.6407581834342914728352980091586 1:0.02884615 2:0.66666669 7:0.33333334 18:0.01428571 38:0.33333334 40:0.33333334 56:0.01639344 988:0.5 1034:1 1135:1 2110:0.5 2112:0.5 2143:0.5 2162:0.5 
-0.097489451571210014590995740491053 1:0.02884615 18:0.12857144 65:0.33333334 108:0.5 472:0.5 1265:1 1414:1 2135:0.5 2139:0.5 2145:0.5 2150:0.5 2151:0.5 2153:0.5 2155:0.5 2179:0.5 
-0.53504704689870408174101612530649 1:0.01923077 2:1 7:0.5 18:0.04285714 38:0.33333334 39:0.5 40:0.33333334 2110:0.5 2111:0.5 2131:0.5 2135:0.5 2143:0.5 2146:0.5 
1.2664174408661938997511242632754 1:0.057692312 9:0.16666667 17:0.16666667 18:0.04285714 27:0.14285713 66:0.33333334 108:0.5 142:0.25 257:0.5 258:0.5 325:1 328:1 1259:1 2114:0.5 2115:0.5 2118:0.5 2143:0.5 2146:0.5 2149:0.5 2166:0.5 
1.6407581834342914728352980091586 1:0.03846154 13:0.25 18:0.12857144 96:0.33333334 233:0.33333334 467:0.5 487:1 838:1 1719:1 1720:1 2122:0.5 2123:0.5 2127:0.5 2128:0.5 2148:0.5 2149:0.5 2150:0.5 2151:0.5 
-1.1693472322229754301048387787887 1:0.04807692 3:0.2 5:0.2 13:0.2 17:0.2 18:0.057142861 19:0.06666667 22:0.01219512 69:0.5 84:0.25 280:0.33333334 396:1 467:0.5 484:1 670:1 2118:0.5 2122:0.5 2123:0.5 2148:0.5 2150:0.5 2151:0.5 2163:0.5 
-0.68044060372597758856727523379959 1:0.02884615 2:0.66666669 7:0.66666669 18:0.04285714 38:0.33333334 40:0.33333334 43:0.1 181:0.16666667 219:1 221:0.2 222:0.33333334 2118:0.5 2121:0.5 2122:0.5 2126:0.5 2130:0.5 2133:0.5 
1.6407581834342914728352980091586 1:0.02884615 2:0.66666669 7:0.33333334 18:0.01428571 38:0.33333334 39:0.5 40:0.33333334 282:0.33333334 2110:0.5 2162:0.5 2212:0.5 2213:0.5 
1.6407581834342914728352980091586 1:0.0096153803 7:1 18:0.01428571 322:0.25 2110:0.5 2112:0.5 2162:0.5 2210:0.5 
-1.6407581834342914728352980091586 1:0.01923077 4:0.5 7:0.5 18:0.01428571 54:0.11111111 181:0.16666667 182:0.25 2110:0.5 2112:0.5 2162:0.5 2210:0.5 
-1.6407581834342914728352980091586 1:0.0096153803 18:0.01428571 282:0.33333334 2110:0.5 2162:0.5 2210:0.5 2212:0.5 
1.6407581834342914728352980091586 1:0.057692312 3:0.16666667 5:0.16666667 13:0.16666667 17:0.16666667 18:0.028571431 19:0.06666667 22:0.01219512 69:0.5 84:0.25 118:0.5 280:0.33333334 396:1 467:0.5 484:1 670:1 1129:1 2124:0.5 2150:0.5 2155:0.5 2162:0.5 2210:0.5 2212:0.5 
1.6407581834342914728352980091586 1:0.03846154 5:0.25 13:0.25 17:0.25 18:0.057142861 19:0.06666667 65:0.33333334 84:0.25 467:0.5 484:1 485:1 486:1 2123:0.5 2124:0.5 2127:0.5 2131:0.5 2134:0.5 2146:0.5 2148:0.5 2149:0.5 
-0.25398924814083162493361101041955 1:0.11538462 7:0.5 11:0.16666667 18:0.085714288 38:0.66666669 43:0.1 124:0.33333334 150:0.026666669 152:1 154:0.5 156:1 322:1 431:0.33333334 756:0.66666669 758:0.66666669 785:1 786:0.66666669 787:1 788:1 789:0.66666669 790:1 2121:0.5 2124:0.5 2126:0.5 2128:0.5 2129:0.5 2130:0.5 2132:0.5 2158:0.5 2171:0.5 2192:0.5 2218:0.5 
-0.10080901606631452460671738435849 1:0.13461538 4:0.14285713 7:0.5 11:0.14285713 18:0.15714286 38:1 43:0.1 54:0.22222222 56:0.01639344 83:0.25 150:0.01333333 154:0.5 156:1 158:0.5 173:1 284:0.5 322:1 333:0.5 526:0.25 741:1 789:0.66666669 790:1 1135:1 1155:1 1157:1 1516:0.5 2062:1 2063:1 2121:0.5 2126:0.5 2130:0.5 2133:0.5 2158:0.5 2160:0.5 2161:0.5 2177:0.5 2197:0.5 
1.6407581834342914728352980091586 1:0.0096153803 18:0.028571431 1958:1 2112:0.5 2131:0.5 2162:0.5 2182:0.5 2210:0.5 
1.6407581834342914728352980091586 1:0.04807692 14:0.2 17:0.2 18:0.04285714 27:0.14285713 41:0.11111111 67:0.5 69:0.5 84:0.25 93:0.33333334 110:0.5 275:0.5 282:0.33333334 2110:0.5 2112:0.5 2117:0.5 2131:0.5 2155:0.5 2158:0.5 2162:0.5 
-1.6407581834342914728352980091586 1:0.0096153803 18:0.1 83:0.25 2121:0.5 2123:0.5 2126:0.5 2127:0.5 2128:0.5 2129:0.5 2130:0.5 2155:0.5 
-1.6407581834342914728352980091586 1:0.0096153803 18:0.085714288 83:0.25 2121:0.5 2126:0.5 2129:0.5 2130:0.5 2136:0.5 2155:0.5 2158:0.5 2161:0.5 
1.6407581834342914728352980091586 1:0.0096153803 4:1 18:0.057142861 54:0.11111111 2118:0.5 2122:0.5 2123:0.5 2129:0.5 2143:0.5 2148:0.5 2151:0.5 
1.1023028590184265063101065607043 1:0.096153848 5:0.2 8:0.2 17:0.1 18:0.085714288 19:0.13333333 27:0.14285713 43:0.2 56:0.01639344 64:0.5 84:0.25 88:0.5 96:0.33333334 108:0.5 142:0.25 148:0.2 257:0.5 325:1 328:1 346:0.5 408:1 736:1 845:1 934:1 996:1 997:1 998:1 999:1 2121:0.5 2122:0.5 2126:0.5 2127:0.5 2129:0.5 2130:0.5 2132:0.5 2136:0.5 2156:0.5 2184:0.5 
-1.6407581834342914728352980091586 1:0.067307688 3:0.42857143 5:0.14285713 18:0.085714288 19:0.06666667 20:0.2 22:0.036585368 27:0.14285713 53:0.14285713 55:0.16666667 107:1 108:0.5 325:1 328:1 1162:1 2123:0.5 2127:0.5 2128:0.5 2131:0.5 2134:0.5 2157:0.5 2182:0.5 
-0.16410181276801441563328864958748 1:0.11538462 3:0.083333328 5:0.25 7:0.16666667 14:0.083333328 17:0.16666667 18:0.01428571 19:0.2 22:0.01219512 27:0.14285713 41:0.11111111 81:0.5 95:1 108:0.5 124:0.16666667 166:0.5 181:0.16666667 279:0.5 526:0.25 527:0.33333334 557:1 1896:1 1897:1 1898:1 1899:1 2110:0.5 2112:0.5 2162:0.5 2163:0.5 2164:0.5 2210:0.5 
1.6407581834342914728352980091586 1:0.0096153803 18:0.11428571 2121:0.5 2126:0.5 2129:0.5 2130:0.5 2136:0.5 2158:0.5 2160:0.5 2161:0.5 
1.6407581834342914728352980091586 1:0.03846154 7:0.25 9:0.25 17:0.25 18:0.04285714 75:0.25 186:0.25 357:0.125 1472:1 2118:0.5 2121:0.5 2122:0.5 2126:0.5 2130:0.5 2150:0.5 
-1.2819794949172418352389968276839 1:0.0096153803 18:0.085714288 83:0.25 2118:0.5 2121:0.5 2122:0.5 2123:0.5 2124:0.5 2126:0.5 2130:0.5 2196:0.5 2197:0.5 
-0.14714212622936267971240908991604 1:0.01923077 2:1 7:0.5 18:0.085714288 38:0.33333334 40:0.33333334 43:0.1 222:0.33333334 588:1 2127:0.5 2128:0.5 2131:0.5 2132:0.5 2148:0.5 2149:0.5 2150:0.5 2151:0.5 
0.78183985879407413843722451929352 1:0.057692312 7:0.33333334 9:0.16666667 18:0.12857144 43:0.2 74:0.25 75:0.25 108:0.5 150:0.01333333 186:0.25 237:0.33333334 262:0.25 321:0.33333334 325:1 328:1 382:0.5 765:1 1535:1 1696:1 2121:0.5 2123:0.5 2126:0.5 2127:0.5 2128:0.5 2155:0.5 2168:0.5 2181:0.5 
0.41653480351981431173413739088573 1:0.057692312 2:0.33333334 7:0.33333334 18:0.1 38:0.33333334 39:0.5 40:0.33333334 43:0.1 108:0.5 118:0.5 121:1 150:0.01333333 181:0.16666667 325:1 328:1 608:0.16666667 765:1 766:1 791:1 2121:0.5 2126:0.5 2130:0.5 2133:0.5 2136:0.5 2161:0.5 2173:0.5 2191:0.5 2194:0.5 2219:0.5 
-0.41538313110467750544074760910007 1:0.01923077 7:0.5 17:0.5 18:0.028571431 43:0.1 1057:1 1058:1 1696:1 2110:0.5 2111:0.5 2146:0.5 2149:0.5 2183:0.5 
-0.18997887372222704849278329675144 1:0.0096153803 7:1 18:0.01428571 43:0.2 1864:1 1909:1 1910:1 1911:1 1912:1 1913:1 1914:1 2112:0.5 2162:0.5 2163:0.5 2182:0.5 
1.6407581834342914728352980091586 1:0.04807692 2:0.40000001 17:0.2 18:0.071428567 40:0.33333334 83:0.25 108:0.5 1161:1 2118:0.5 2122:0.5 2123:0.5 2128:0.5 2154:0.5 2181:0.5 2182:0.5 
1.6407581834342914728352980091586 1:0.01923077 7:0.5 13:0.5 18:0.057142861 460:1 467:0.5 2118:0.5 2121:0.5 2122:0.5 2123:0.5 2126:0.5 2130:0.5 2150:0.5 
-0.67382948598220249181167673668824 1:0.01923077 2:1 7:0.5 18:0.071428567 38:0.33333334 39:0.5 40:0.33333334 2118:0.5 2122:0.5 2123:0.5 2128:0.5 2129:0.5 2148:0.5 2150:0.5 2154:0.5 
-1.0550031338270644543086973499157 1:0.01923077 7:0.5 16:0.5 18:0.071428567 33:0.125 38:0.33333334 1369:1 2118:0.5 2122:0.5 2123:0.5 2129:0.5 2154:0.5 2181:0.5 2185:0.5 
1.6407581834342914728352980091586 1:0.03846154 7:0.25 18:0.1 96:0.33333334 172:0.5 357:0.125 1362:1 1500:1 1514:1 2110:0.5 2111:0.5 2121:0.5 2126:0.5 2131:0.5 2134:0.5 2158:0.5 2161:0.5 2185:0.5 
1.3642703103423983179709466639906 1:0.057692312 2:0.33333334 7:0.33333334 13:0.16666667 18:0.04285714 38:0.66666669 40:0.33333334 43:0.1 96:0.33333334 222:0.33333334 233:0.33333334 467:0.5 487:1 588:1 1361:1 1497:1 1498:1 2110:0.5 2155:0.5 2158:0.5 2162:0.5 2210:0.5 2212:0.5 
-1.6407581834342914728352980091586 1:0.057692312 3:0.16666667 5:0.16666667 17:0.16666667 18:0.30000001 19:0.06666667 20:0.2 22:0.01219512 37:1 43:0.2 232:0.5 233:0.33333334 1034:1 1089:1 2121:0.5 2126:0.5 2130:0.5 2133:0.5 2161:0.5 2171:0.5 2185:0.5 2192:0.5 
-0.0098145260076545164096284423749239 1:0.02884615 7:0.33333334 9:0.33333334 18:0.12857144 71:0.5 75:0.25 186:0.25 404:1 469:1 2143:0.5 2146:0.5 2155:0.5 2158:0.5 2161:0.5 2166:0.5 2185:0.5 2190:0.5 
1.6407581834342914728352980091586 1:0.0096153803 18:0.071428567 2118:0.5 2122:0.5 2129:0.5 2157:0.5 2161:0.5 2185:0.5 
1.6407581834342914728352980091586 1:0.03846154 2:0.5 7:0.5 13:0.25 18:0.04285714 38:0.33333334 39:0.5 40:0.33333334 43:0.1 322:0.25 366:0.5 467:0.5 482:1 483:1 2118:0.5 2119:0.5 2122:0.5 2124:0.5 2143:0.5 2146:0.5 
-1.5892266622442585699559458589647 1:0.02884615 13:0.33333334 18:0.057142861 233:0.33333334 467:0.5 1425:1 1497:1 2122:0.5 2123:0.5 2127:0.5 2165:0.5 2166:0.5 2170:0.5 2215:0.5 
-0.29545492496679903737799577356782 1:0.02884615 7:0.33333334 9:0.33333334 18:0.071428567 43:0.2 78:0.33333334 322:0.25 349:0.33333334 352:0.5 483:1 572:0.5 1125:1 2111:0.5 2115:0.5 2128:0.5 2132:0.5 2143:0.5 2146:0.5 2155:0.5 2158:0.5 
1.6407581834342914728352980091586 1:0.0096153803 18:0.085714288 37:1 2121:0.5 2127:0.5 2128:0.5 2132:0.5 2134:0.5 2148:0.5 2150:0.5 2151:0.5 
-0.011863946573368528217273798475162 1:0.096153848 6:0.1 7:0.1 9:0.1 11:0.1 18:0.04285714 27:0.14285713 29:0.1 43:0.40000001 66:0.33333334 69:0.5 71:0.5 74:0.25 75:0.25 142:0.25 144:0.5 154:0.5 156:0.5 257:0.5 258:0.5 337:0.25 385:0.5 389:0.5 713:0.5 736:1 1074:1 1287:1 1288:1 2118:0.5 2122:0.5 2129:0.5 2181:0.5 2199:0.5 
-1.6407581834342914728352980091586 1:0.01923077 14:0.5 18:0.071428567 41:0.11111111 108:0.5 394:1 2123:0.5 2127:0.5 2128:0.5 2134:0.5 2143:0.5 2146:0.5 2148:0.5 2150:0.5 
-0.37216928609272276196051620900107 1:0.02884615 13:0.33333334 18:0.1 27:0.14285713 67:0.5 69:0.5 467:0.5 468:1 2111:0.5 2122:0.5 2123:0.5 2127:0.5 2128:0.5 2146:0.5 2149:0.5 2156:0.5 
1.6407581834342914728352980091586 1:0.0096153803 18:0.11428571 1034:1 2121:0.5 2126:0.5 2129:0.5 2130:0.5 2158:0.5 2160:0.5 2161:0.5 2185:0.5 
1.6407581834342914728352980091586 1:0.0096153803 18:0.12857144 327:1 2121:0.5 2125:0.5 2126:0.5 2129:0.5 2161:0.5 2171:0.5 2185:0.5 2192:0.5 
-1.6407581834342914728352980091586 1:0.0096153803 18:0.1 83:0.25 2121:0.5 2126:0.5 2129:0.5 2130:0.5 2158:0.5 2160:0.5 2161:0.5 2185:0.5 
1.6407581834342914728352980091586 1:0.0096153803 18:0.11428571 118:0.5 2117:0.5 2122:0.5 2127:0.5 2128:0.5 2132:0.5 2148:0.5 2150:0.5 2151:0.5 
-0.0041241997206114162921597454669609 1:0.02884615 6:0.33333334 18:0.071428567 30:0.1 96:0.33333334 1084:1 1104:0.5 2114:0.5 2115:0.5 2118:0.5 2121:0.5 2123:0.5 2126:0.5 2130:0.5 2142:0.5 2145:0.5 
0.52874288785043932481499950881698 1:0.04807692 7:0.2 14:0.2 17:0.2 18:0.071428567 41:0.11111111 84:0.25 93:0.33333334 108:0.5 325:1 328:1 394:1 556:1 557:1 2118:0.5 2122:0.5 2123:0.5 2128:0.5 2143:0.5 2146:0.5 2148:0.5 2150:0.5 
-0.70060133699268745122168411398889 1:0.03846154 14:0.25 17:0.25 18:0.1 27:0.14285713 41:0.11111111 84:0.25 93:0.33333334 110:0.5 472:0.5 473:0.5 2121:0.5 2126:0.5 2127:0.5 2150:0.5 2161:0.5 2162:0.5 2171:0.5 2185:0.5 
-1.3919155541949368437570910828072 1:0.01923077 7:0.5 18:0.2 124:0.16666667 593:0.5 594:0.5 595:0.33333334 596:0.33333334 2121:0.5 2126:0.5 2129:0.5 2130:0.5 2161:0.5 2171:0.5 2185:0.5 2192:0.5 
1.6407581834342914728352980091586 1:0.057692312 3:0.16666667 7:0.33333334 13:0.16666667 17:0.16666667 18:0.028571431 22:0.01219512 38:0.33333334 43:0.1 51:0.125 84:0.25 186:0.25 322:0.25 466:1 467:0.5 484:1 812:1 827:1 2110:0.5 2121:0.5 2122:0.5 2126:0.5 2130:0.5 
0.95090518098063292473653973502223 1:0.11538462 5:0.16666667 7:0.083333328 13:0.16666667 17:0.083333328 18:0.01428571 19:0.13333333 84:0.25 88:0.5 96:0.33333334 108:0.5 282:0.33333334 314:1 315:1 322:0.25 383:0.5 467:1 484:1 549:1 583:1 670:1 1499:1 1568:1 1569:1 1570:1 2181:0.5 2182:0.5 2210:0.5 2212:0.5 
-0.56655856192870857057641842402518 1:0.125 2:0.15384616 5:0.07692308 6:0.07692308 7:0.15384614 13:0.07692308 14:0.23076923 17:0.07692308 18:0.01428571 19:0.06666667 27:0.14285713 30:0.1 38:0.33333334 40:0.33333334 41:0.33333334 43:0.1 45:0.5 56:0.01639344 105:0.5 150:0.01333333 286:0.5 366:0.5 403:1 467:0.5 504:1 549:1 557:1 760:1 763:1 803:1 988:0.5 1258:1 1449:1 1978:1 2110:0.5 2112:0.5 2143:0.5 2149:0.5 2162:0.5 
-0.22553902292115968197805386807886 1:0.16346154 2:0.11764706 3:0.17647059 5:0.17647059 6:0.05882353 7:0.17647059 9:0.05882353 14:0.05882353 18:0.01428571 19:0.2 20:0.2 21:0.33333334 22:0.036585368 27:0.14285713 30:0.1 38:0.66666669 40:0.33333334 41:0.11111111 43:0.40000001 52:0.2 55:0.16666667 56:0.049180329 65:0.33333334 66:0.33333334 73:1 74:0.25 75:0.25 139:0.5 144:0.5 161:1 222:0.33333334 366:0.5 385:0.5 408:1 411:1 426:0.33333334 427:1 485:1 557:1 762:1 763:1 811:0.5 812:1 813:0.5 2110:0.5 2112:0.5 2143:0.5 2162:0.5 
1.6407581834342914728352980091586 1:0.01923077 7:0.5 18:0.11428571 115:0.33333334 1696:1 2129:0.5 2157:0.5 2171:0.5 2185:0.5 2192:0.5 2194:0.5 
-0.30128053235286872402198810050322 1:0.02884615 7:0.33333334 9:0.33333334 18:0.085714288 43:0.1 74:0.25 75:0.25 186:0.25 237:0.33333334 262:0.25 321:0.33333334 2128:0.5 2129:0.5 2132:0.5 2155:0.5 2157:0.5 2158:0.5 
-1.270067174263167730785539788485 1:0.0096153803 7:1 18:0.15714286 38:0.33333334 2129:0.5 2157:0.5 2158:0.5 2160:0.5 2176:0.5 2178:0.5 
1.2391539711147039337646447165753 1:0.096153848 3:0.1 5:0.40000001 6:0.1 18:0.17142858 19:0.26666668 21:0.33333334 22:0.01219512 23:0.14285713 30:0.1 43:0.1 56:0.01639344 65:0.33333334 108:0.5 137:0.5 148:0.2 251:1 325:1 328:1 408:1 485:1 996:1 997:1 998:1 999:1 2114:0.5 2121:0.5 2122:0.5 2126:0.5 2129:0.5 2130:0.5 2150:0.5 2156:0.5 2173:0.5 2183:0.5 2194:0.5 2196:0.5 
1.6407581834342914728352980091586 1:0.04807692 6:0.2 18:0.01428571 29:0.1 96:0.33333334 118:0.5 172:0.5 1323:1 2035:1 2150:0.5 2180:0.5 2181:0.5 2214:0.5 
-1.6407581834342914728352980091586 1:0.04807692 3:0.2 13:0.2 17:0.2 18:0.11428571 22:0.01219512 69:0.5 84:0.25 96:0.33333334 280:0.33333334 396:1 467:0.5 484:1 487:1 2122:0.5 2146:0.5 2148:0.5 2149:0.5 2150:0.5 2173:0.5 2185:0.5 2194:0.5 
-1.6407581834342914728352980091586 1:0.057692312 3:0.16666667 5:0.16666667 13:0.16666667 17:0.16666667 18:0.24285714 19:0.06666667 20:0.2 22:0.01219512 84:0.25 118:0.5 391:0.5 467:0.5 484:1 581:0.5 1411:1 2159:0.5 2183:0.5 2184:0.5 2186:0.5 2202:0.5 
1.6407581834342914728352980091586 1:0.02884615 6:0.33333334 18:0.18571429 30:0.1 96:0.33333334 118:0.5 848:1 1084:1 2129:0.5 2136:0.5 2155:0.5 2157:0.5 2158:0.5 2161:0.5 
1.6407581834342914728352980091586 1:0.0096153803 18:0.1 118:0.5 2121:0.5 2123:0.5 2126:0.5 2127:0.5 2128:0.5 2130:0.5 2133:0.5 2171:0.5 
-1.6407581834342914728352980091586 1:0.0096153803 18:0.1 96:0.33333334 2121:0.5 2126:0.5 2127:0.5 2130:0.5 2131:0.5 2132:0.5 2133:0.5 2134:0.5 2136:0.5 
-1.4900688199117020360517926746979 1:0.0096153803 18:0.14285713 96:0.33333334 2121:0.5 2126:0.5 2127:0.5 2130:0.5 2131:0.5 2132:0.5 2133:0.5 2134:0.5 2136:0.5 
1.6407581834342914728352980091586 1:0.03846154 5:0.25 7:0.25 13:0.25 17:0.25 18:0.085714288 19:0.06666667 84:0.25 88:0.5 467:0.5 484:1 1027:1 2121:0.5 2126:0.5 2129:0.5 2130:0.5 2136:0.5 2158:0.5 2160:0.5 2161:0.5 
1.6407581834342914728352980091586 1:0.01923077 7:0.5 13:0.5 18:0.04285714 467:0.5 557:1 1978:1 2114:0.5 2115:0.5 2118:0.5 2125:0.5 2143:0.5 2146:0.5 
-0.49972161258554026463940544999787 1:0.01923077 5:0.5 9:0.5 18:0.12857144 19:0.06666667 349:0.33333334 535:1 2111:0.5 2116:0.5 2117:0.5 2143:0.5 2149:0.5 2160:0.5 2161:0.5 2162:0.5 2168:0.5 2181:0.5 2185:0.5 2192:0.5 2212:0.5 
-0.66635258088854898428365913787275 1:0.11538462 3:0.16666667 5:0.16666667 14:0.083333328 18:0.21428572 19:0.13333333 20:0.2 22:0.024390239 27:0.14285713 41:0.11111111 52:0.2 81:0.5 96:0.66666669 118:1 150:0.026666669 247:1 329:1 526:0.25 617:0.33333334 1113:1 1115:0.5 2039:1 2040:1 2043:1 2140:0.5 2144:0.5 2147:0.5 2203:0.5 2204:0.5 2205:0.5 2206:0.5 2207:0.5 
-1.2267833765572317972214477777015 1:0.01923077 18:0.028571431 96:0.33333334 1323:1 2035:1 2114:0.5 2115:0.5 2146:0.5 2148:0.5 2149:0.5 
1.6407581834342914728352980091586 1:0.03846154 2:0.5 7:0.5 18:0.11428571 37:1 38:0.33333334 40:0.33333334 43:0.1 181:0.16666667 203:0.5 219:1 221:0.2 222:0.33333334 2121:0.5 2126:0.5 2130:0.5 2131:0.5 2133:0.5 2173:0.5 2185:0.5 2194:0.5 
1.6407581834342914728352980091586 1:0.0096153803 18:0.35714287 118:0.5 2121:0.5 2126:0.5 2130:0.5 2133:0.5 2134:0.5 2173:0.5 2194:0.5 2196:0.5 
0.47739418910468373047351064997201 1:0.02884615 17:0.33333334 18:0.057142861 108:0.5 325:1 328:1 2121:0.5 2123:0.5 2126:0.5 2127:0.5 2130:0.5 2133:0.5 2155:0.5 
-0.50715360644441531690063129644841 1:0.02884615 2:0.66666669 7:0.66666669 18:0.14285713 38:0.33333334 39:0.5 40:0.33333334 357:0.125 589:1 2121:0.5 2126:0.5 2129:0.5 2130:0.5 2131:0.5 2173:0.5 2185:0.5 2194:0.5 
1.6407581834342914728352980091586 1:0.02884615 6:0.33333334 18:0.1 29:0.1 327:1 389:0.5 1935:1 2122:0.5 2127:0.5 2128:0.5 2129:0.5 2132:0.5 2146:0.5 2148:0.5 2149:0.5 
1.6407581834342914728352980091586 1:0.01923077 13:0.5 18:0.071428567 467:0.5 2122:0.5 2123:0.5 2127:0.5 2128:0.5 2129:0.5 2146:0.5 2148:0.5 2149:0.5 
-1.6407581834342914728352980091586 1:0.0096153803 18:0.071428567 61:0.25 2115:0.5 2122:0.5 2123:0.5 2127:0.5 2128:0.5 2143:0.5 2146:0.5 2148:0.5 
-1.3107862212750447383768914733082 1:0.02884615 13:0.33333334 18:0.057142861 27:0.14285713 67:0.5 69:0.5 467:0.5 468:1 2118:0.5 2122:0.5 2123:0.5 2148:0.5 2150:0.5 2151:0.5 2210:0.5 
0.97011884227841849170914656497189 1:0.057692312 2:0.33333334 7:0.5 18:0.057142861 38:0.33333334 40:0.33333334 43:0.1 108:0.5 181:0.16666667 219:1 221:0.2 222:0.33333334 325:1 328:1 357:0.125 589:1 590:1 2122:0.5 2123:0.5 2127:0.5 2150:0.5 2151:0.5 2153:0.5 2187:0.5 
1.6407581834342914728352980091586 1:0.0096153803 18:0.028571431 310:0.5 2112:0.5 2129:0.5 2131:0.5 2143:0.5 2162:0.5 
-0.88330500435840719752889071969548 1:0.02884615 5:0.33333334 14:0.33333334 18:0.028571431 19:0.06666667 41:0.11111111 166:0.5 314:1 315:1 2124:0.5 2129:0.5 2155:0.5 2162:0.5 2212:0.5 2213:0.5 
-0.89103138931372383169104978151154 1:0.01923077 6:0.5 8:1 18:0.071428567 29:0.1 64:0.5 1513:1 2119:0.5 2124:0.5 2129:0.5 2155:0.5 2158:0.5 2161:0.5 2185:0.5 2210:0.5 2212:0.5 
1.6407581834342914728352980091586 1:0.0096153803 18:0.01428571 1034:1 2124:0.5 2125:0.5 2210:0.5 2212:0.5 
1.6407581834342914728352980091586 1:0.0096153803 18:0.1 118:0.5 2121:0.5 2126:0.5 2130:0.5 2132:0.5 2136:0.5 2155:0.5 2158:0.5 2160:0.5 2182:0.5 
-1.6407581834342914728352980091586 1:0.0096153803 18:0.11428571 37:1 2132:0.5 2136:0.5 2179:0.5 2180:0.5 2181:0.5 2182:0.5 2183:0.5 2184:0.5 
-1.6407581834342914728352980091586 1:0.0096153803 18:0.085714288 389:0.5 2118:0.5 2121:0.5 2122:0.5 2123:0.5 2125:0.5 2126:0.5 2128:0.5 2168:0.5 
0.80754068809387791194609462763765 1:0.057692312 2:0.33333334 7:0.33333334 13:0.16666667 18:0.085714288 38:0.66666669 39:0.5 40:0.33333334 96:0.33333334 233:0.33333334 467:0.5 487:1 1361:1 1497:1 1498:1 2112:0.5 2121:0.5 2124:0.5 2155:0.5 2158:0.5 2161:0.5 2162:0.5 2185:0.5 
1.6407581834342914728352980091586 1:0.01923077 7:0.5 18:0.01428571 357:0.125 439:0.5 1701:1 2112:0.5 2124:0.5 2143:0.5 2162:0.5 
-1.6407581834342914728352980091586 1:0.0096153803 18:0.01428571 192:0.5 2110:0.5 2112:0.5 2143:0.5 2162:0.5 
-1.6407581834342914728352980091586 1:0.0096153803 18:0.01428571 186:0.25 2110:0.5 2112:0.5 2143:0.5 2162:0.5 
1.6407581834342914728352980091586 1:0.0096153803 18:0.028571431 37:1 2114:0.5 2115:0.5 2146:0.5 2148:0.5 2149:0.5 
1.6407581834342914728352980091586 1:0.0096153803 18:0.057142861 118:0.5 2118:0.5 2122:0.5 2123:0.5 2159:0.5 
-1.6407581834342914728352980091586 1:0.01923077 5:0.5 13:0.5 18:0.028571431 19:0.06666667 467:0.5 670:1 2114:0.5 2115:0.5 2146:0.5 2148:0.5 2149:0.5 
-1.106718770540583651751376237371 1:0.04807692 3:0.2 14:0.2 17:0.2 18:0.17142858 22:0.01219512 41:0.11111111 65:0.33333334 84:0.25 93:0.33333334 118:0.5 120:0.33333334 280:0.33333334 436:1 2144:0.5 2147:0.5 2150:0.5 2154:0.5 2156:0.5 2158:0.5 2160:0.5 2171:0.5 2181:0.5 2182:0.5 2192:0.5 
1.6407581834342914728352980091586 1:0.0096153803 18:0.04285714 108:0.5 2112:0.5 2124:0.5 2131:0.5 2138:0.5 2143:0.5 2162:0.5 
1.6407581834342914728352980091586 1:0.0096153803 18:0.01428571 37:1 2110:0.5 2112:0.5 2162:0.5 2179:0.5 
-0.94479019295983812654071698489133 1:0.0096153803 18:0.085714288 83:0.25 2122:0.5 2124:0.5 2125:0.5 2128:0.5 2132:0.5 2143:0.5 2146:0.5 2173:0.5 
-1.6407581834342914728352980091586 1:0.01923077 2:1 7:0.5 18:0.028571431 38:0.33333334 39:0.5 40:0.33333334 2112:0.5 2129:0.5 2131:0.5 2162:0.5 2210:0.5 
1.6407581834342914728352980091586 1:0.0096153803 18:0.21428572 118:0.5 2129:0.5 2161:0.5 2171:0.5 2179:0.5 2180:0.5 2181:0.5 2185:0.5 2192:0.5 
-0.2857961746296071581241449166555 1:0.0096153803 18:0.15714286 83:0.25 2129:0.5 2136:0.5 2158:0.5 2160:0.5 2161:0.5 2179:0.5 2180:0.5 2181:0.5 
-0.049584420529074593742002718954609 1:0.01923077 11:0.5 18:0.24285714 56:0.01639344 156:0.5 1037:1 2112:0.5 2143:0.5 2158:0.5 2160:0.5 2161:0.5 2168:0.5 2185:0.5 2216:0.5 
1.6407581834342914728352980091586 1:0.02884615 2:0.66666669 7:0.33333334 18:0.057142861 38:0.33333334 39:0.5 40:0.33333334 118:0.5 660:1 2118:0.5 2122:0.5 2123:0.5 2148:0.5 2150:0.5 2151:0.5 2163:0.5 
1.085289080738061961994844750734 1:0.057692312 5:0.16666667 8:0.33333334 14:0.16666667 17:0.16666667 18:0.01428571 19:0.06666667 41:0.11111111 64:0.5 84:0.25 93:0.33333334 108:0.5 325:1 328:1 394:1 907:0.5 2124:0.5 2181:0.5 2210:0.5 2212:0.5 
-0.77498352457605568233134363254067 1:0.02884615 5:0.33333334 18:0.04285714 19:0.06666667 108:0.5 831:1 2118:0.5 2122:0.5 2148:0.5 2150:0.5 2151:0.5 2179:0.5 
-0.048088492239388623550322421351666 1:0.01923077 6:0.5 18:0.085714288 29:0.1 78:0.33333334 201:0.5 2115:0.5 2122:0.5 2127:0.5 2128:0.5 2139:0.5 2157:0.5 
1.6407581834342914728352980091586 1:0.0096153803 18:0.085714288 118:0.5 2121:0.5 2126:0.5 2127:0.5 2128:0.5 2132:0.5 2155:0.5 2160:0.5 2181:0.5 2182:0.5 
1.6407581834342914728352980091586 1:0.0096153803 13:1 18:0.028571431 467:0.5 2119:0.5 2124:0.5 2134:0.5 2210:0.5 2212:0.5 
-0.71877631621031046194048030884005 1:0.04807692 5:0.40000001 13:0.2 18:0.01428571 19:0.13333333 27:0.14285713 62:0.5 81:0.5 391:0.5 467:0.5 582:0.5 821:1 2181:0.5 2182:0.5 2210:0.5 2212:0.5 
1.5148361173667637125106466555735 1:0.057692312 5:0.16666667 14:0.33333334 18:0.1 19:0.06666667 41:0.22222222 61:0.25 92:0.5 108:0.5 122:0.5 166:0.5 279:0.5 325:1 328:1 2121:0.5 2124:0.5 2126:0.5 2129:0.5 2130:0.5 2136:0.5 2161:0.5 2171:0.5 2192:0.5 
1.2794687025269935176652325026225 1:0.0096153803 18:0.1 37:1 2131:0.5 2136:0.5 2138:0.5 2146:0.5 2148:0.5 2149:0.5 2150:0.5 2175:0.5 
-0.34497613752461581126951273290615 1:0.13461538 3:0.42857143 4:0.071428567 5:0.071428567 18:0.2857143 19:0.06666667 22:0.073170729 27:0.14285713 44:0.046153851 47:0.2 48:0.16666667 53:0.14285713 54:0.11111111 61:0.25 108:0.5 115:0.33333334 127:0.33333334 279:0.5 301:0.33333334 325:1 328:1 389:0.5 768:1 956:1 1162:1 2121:0.5 2126:0.5 2130:0.5 2133:0.5 2137:0.5 2140:0.5 2144:0.5 2147:0.5 
-1.5866870160427770652944445828325 1:0.096153848 3:0.60000002 5:0.1 14:0.1 18:0.25714287 19:0.06666667 22:0.073170729 41:0.11111111 44:0.046153851 52:0.2 56:0.01639344 57:0.2 58:0.2 108:0.5 109:0.25 279:0.5 325:1 328:1 1162:1 2121:0.5 2126:0.5 2130:0.5 2133:0.5 2137:0.5 2140:0.5 2144:0.5 2147:0.5 
1.3500466674872888539482573833084 1:0.03846154 7:0.25 13:0.5 18:0.071428567 96:0.33333334 322:0.25 467:1 482:1 487:1 2128:0.5 2131:0.5 2132:0.5 2135:0.5 2138:0.5 2148:0.5 2149:0.5 2150:0.5 2151:0.5 
0.7826729265642903277111486204376 1:0.03846154 13:0.25 18:0.057142861 96:0.33333334 233:0.33333334 467:0.5 487:1 838:1 1719:1 1720:1 2118:0.5 2122:0.5 2123:0.5 2129:0.5 2152:0.5 2180:0.5 2181:0.5 
-0.50417202233441082981357794778887 1:0.0096153803 15:1 18:0.12857144 76:1 2131:0.5 2138:0.5 2185:0.5 2194:0.5 
-1.6407581834342914728352980091586 1:0.0096153803 18:0.04285714 61:0.25 2110:0.5 2112:0.5 2114:0.5 2121:0.5 2135:0.5 2138:0.5 2162:0.5 
0.85434121814459806909525241280789 1:0.03846154 18:0.12857144 108:0.5 186:0.25 325:1 328:1 835:0.5 1230:1 1231:1 2129:0.5 2152:0.5 2160:0.5 2161:0.5 2180:0.5 2181:0.5 2185:0.5 2192:0.5 
1.1649765240779959007966226636199 1:0.03846154 5:0.25 18:0.11428571 19:0.06666667 108:0.5 150:0.01333333 279:0.5 325:1 328:1 765:1 2121:0.5 2125:0.5 2126:0.5 2158:0.5 2160:0.5 2161:0.5 2168:0.5 2178:0.5 
-0.53769352303528905601126552937785 1:0.1826923 3:0.15789475 5:0.2631579 14:0.10526316 18:0.37142858 19:0.33333334 21:0.33333334 22:0.036585368 23:0.42857143 26:0.5 41:0.22222222 44:0.01538462 52:0.2 56:0.01639344 61:0.5 65:0.33333334 96:0.33333334 108:0.5 117:0.25 118:1 140:1 166:0.5 174:0.25 214:0.5 279:0.5 525:1 583:1 1129:1 1526:1 1742:1 1792:1 1884:1 2155:0.5 2159:0.5 2160:0.5 2171:0.5 2177:0.5 2183:0.5 2184:0.5 2185:0.5 2186:0.5 2196:0.5 2202:0.5 2218:0.5 2221:0.5 
-0.1421596297904765271447047325637 1:0.21153846 3:0.13636364 4:0.045454551 5:0.045454551 7:0.045454551 11:0.045454551 14:0.090909094 16:0.090909094 17:0.045454551 18:0.38571429 19:0.06666667 22:0.036585368 33:0.25 41:0.22222222 43:0.1 44:0.01538462 54:0.11111111 56:0.01639344 61:0.25 65:0.33333334 71:0.5 83:0.25 84:0.25 93:0.33333334 104:0.5 108:1 138:1 154:0.5 156:0.5 173:1 174:0.25 186:0.25 275:0.5 279:0.5 280:0.33333334 282:0.33333334 310:0.5 311:1 389:0.5 406:0.33333334 469:1 526:0.5 539:0.33333334 574:1 935:1 998:1 1185:1 1276:1 1287:1 1393:1 1644:1 1645:1 1646:0.33333334 1647:1 1648:1 1649:1 1650:1 1651:1 2155:0.5 2159:0.5 2160:0.5 2161:0.5 2175:0.5 2184:0.5 2186:0.5 2194:0.5 2202:0.5 2220:0.5 
1.6407581834342914728352980091586 1:0.0096153803 18:0.17142858 118:0.5 2121:0.5 2126:0.5 2129:0.5 2130:0.5 2155:0.5 2158:0.5 2161:0.5 2185:0.5 
1.6407581834342914728352980091586 1:0.02884615 13:0.33333334 18:0.01428571 327:1 389:0.5 467:0.5 922:1 2110:0.5 2112:0.5 2143:0.5 2162:0.5 
-1.6407581834342914728352980091586 1:0.0096153803 18:0.17142858 781:0.5 2121:0.5 2126:0.5 2129:0.5 2130:0.5 2136:0.5 2158:0.5 2161:0.5 2171:0.5 2192:0.5 
-1.1795149412039702685461861619842 1:0.0096153803 18:0.071428567 83:0.25 2121:0.5 2123:0.5 2126:0.5 2127:0.5 2128:0.5 2129:0.5 2130:0.5 2155:0.5 2160:0.5 
0.68868301684970412157582586587523 1:0.096153848 5:0.2 7:0.1 13:0.2 17:0.1 18:0.01428571 19:0.13333333 84:0.25 88:0.5 96:0.33333334 108:0.5 314:1 315:1 322:0.25 383:0.5 467:1 484:1 583:1 670:1 1499:1 1568:1 1569:1 1570:1 2112:0.5 2143:0.5 2149:0.5 2162:0.5 2182:0.5 
0.59571253613078034572225760712172 1:0.02884615 18:0.057142861 108:0.5 325:1 328:1 1801:1 2121:0.5 2123:0.5 2126:0.5 2127:0.5 2150:0.5 2153:0.5 2171:0.5 
-0.40939914859682191572431975146173 1:0.04807692 5:0.40000001 18:0.35714287 19:0.13333333 65:0.33333334 327:1 389:0.5 437:1 440:1 485:1 1947:1 2147:0.5 2157:0.5 2182:0.5 2183:0.5 2208:0.5 2209:0.5 
-0.81338801779439984240838157347753 1:0.01923077 4:0.5 13:0.5 18:0.42857143 54:0.11111111 150:0.01333333 354:1 467:0.5 2126:0.5 2130:0.5 2133:0.5 2177:0.5 2203:0.5 2207:0.5 2208:0.5 2220:0.5 
1.6407581834342914728352980091586 1:0.0096153803 18:0.1 118:0.5 2121:0.5 2123:0.5 2126:0.5 2127:0.5 2128:0.5 2130:0.5 2133:0.5 2155:0.5 
1.6407581834342914728352980091586 1:0.0096153803 18:0.11428571 118:0.5 2121:0.5 2122:0.5 2126:0.5 2127:0.5 2128:0.5 2129:0.5 2130:0.5 2132:0.5 
-0.2768015709669024992933827888919 1:0.0096153803 7:1 18:0.071428567 237:0.33333334 2123:0.5 2127:0.5 2128:0.5 2146:0.5 2151:0.5 2152:0.5 2155:0.5 2160:0.5 2181:0.5 2182:0.5 
1.4989444959629689702040877818945 1:0.02884615 13:0.66666669 17:0.33333334 18:0.028571431 84:0.25 467:1 484:1 1401:1 2114:0.5 2124:0.5 2125:0.5 2212:0.5 2213:0.5 
-1.6407581834342914728352980091586 1:0.0096153803 18:0.071428567 83:0.25 2121:0.5 2123:0.5 2126:0.5 2127:0.5 2128:0.5 2129:0.5 2130:0.5 2155:0.5 2160:0.5 
-0.3296577545036770695574546152784 1:0.04807692 6:0.2 7:0.2 9:0.2 18:0.2 30:0.1 43:0.1 75:0.25 186:0.25 282:0.33333334 322:0.25 483:1 913:0.5 1280:1 1281:1 1436:1 2121:0.5 2126:0.5 2129:0.5 2130:0.5 2155:0.5 2158:0.5 2175:0.5 2196:0.5 
-0.41962395523965173582681131847494 1:0.067307688 5:0.14285713 12:0.14285713 13:0.14285713 14:0.14285713 17:0.14285713 18:0.1 19:0.06666667 27:0.14285713 41:0.11111111 43:0.2 61:0.25 81:0.5 84:0.25 85:0.25 91:0.5 93:0.33333334 94:1 112:0.5 466:1 467:0.5 1524:1 1842:1 2111:0.5 2127:0.5 2128:0.5 2132:0.5 2143:0.5 2146:0.5 2150:0.5 2161:0.5 2171:0.5 2175:0.5 
1.6407581834342914728352980091586 1:0.01923077 18:0.04285714 108:0.5 118:0.5 2110:0.5 2111:0.5 2131:0.5 2135:0.5 2143:0.5 2146:0.5 
1.6407581834342914728352980091586 1:0.0096153803 18:0.085714288 118:0.5 2121:0.5 2122:0.5 2126:0.5 2127:0.5 2128:0.5 2129:0.5 2130:0.5 2132:0.5 
-0.712982542390535156684450157627 1:0.01923077 5:0.5 18:0.14285713 19:0.06666667 108:0.5 279:0.5 2131:0.5 2135:0.5 2141:0.5 2145:0.5 2148:0.5 2149:0.5 2150:0.5 2151:0.5 
-0.40346589102687696604121470045357 1:0.04807692 9:0.2 18:0.01428571 27:0.14285713 66:0.33333334 75:0.25 142:0.25 257:0.5 258:0.5 1128:1 2119:0.5 2124:0.5 2148:0.5 2150:0.5 2212:0.5 2213:0.5 
0.40459584558813554977518833766226 1:0.02884615 18:0.12857144 37:1 61:0.25 1034:1 1035:1 1127:1 2117:0.5 2131:0.5 2148:0.5 2150:0.5 2151:0.5 2158:0.5 2161:0.5 2179:0.5 2185:0.5 2192:0.5 2196:0.5 
-0.63274350742060181396198004222242 1:0.067307688 5:0.42857143 12:0.14285713 18:0.12857144 19:0.2 23:0.14285713 85:0.25 96:0.33333334 118:0.5 150:0.01333333 231:1 526:0.25 1072:1 1113:0.5 1115:0.5 1489:1 1576:1 2121:0.5 2126:0.5 2132:0.5 2136:0.5 2158:0.5 2205:0.5 2206:0.5 2207:0.5 
-0.30964747241399409594109215504432 1:0.20192309 3:0.33333334 5:0.33333334 18:0.24285714 19:0.46666667 20:0.60000002 22:0.085365847 23:0.2857143 42:0.11111111 43:0.30000001 44:0.046153851 51:0.125 61:0.25 80:0.5 96:0.66666669 112:0.5 118:1 148:0.2 150:0.026666669 189:0.33333334 247:1 526:0.5 617:0.66666669 1067:1 1113:1 1115:1 1116:1 1820:1 1821:1 1822:1 2147:0.5 2199:0.5 2205:0.5 2206:0.5 2207:0.5 2208:0.5 2209:0.5 
0.75898708294956340747461354112602 1:0.0096153803 18:0.12857144 37:1 2131:0.5 2138:0.5 2141:0.5 2146:0.5 2148:0.5 2149:0.5 2150:0.5 2177:0.5 
-0.11452953819396587131773657119993 1:0.0096153803 18:0.12857144 781:0.5 2111:0.5 2143:0.5 2146:0.5 2161:0.5 2171:0.5 2185:0.5 2192:0.5 2217:0.5 
-0.64839612068441054848477733685286 1:0.0096153803 18:0.071428567 83:0.25 2113:0.5 2116:0.5 2122:0.5 2123:0.5 2125:0.5 2127:0.5 2128:0.5 2129:0.5 
0.041841630256229646322996273966055 1:0.02884615 18:0.1 108:0.5 325:1 328:1 1188:1 1189:1 2129:0.5 2136:0.5 2157:0.5 2158:0.5 2160:0.5 2161:0.5 2194:0.5 
0.61487007508468527472444975501276 1:0.02884615 18:0.057142861 108:0.5 325:1 328:1 1188:1 1189:1 2118:0.5 2122:0.5 2123:0.5 2148:0.5 2150:0.5 2151:0.5 2163:0.5 
-0.26913522406935730391097649771837 1:0.067307688 2:0.28571427 3:0.14285713 5:0.14285713 7:0.2857143 9:0.14285713 18:0.01428571 19:0.06666667 20:0.2 22:0.01219512 38:0.33333334 40:0.33333334 43:0.30000001 74:0.25 75:0.25 144:0.5 222:0.33333334 557:1 588:1 774:1 775:1 776:1 2110:0.5 2111:0.5 2146:0.5 2151:0.5 2163:0.5 2214:0.5 
-0.21151196810513514523499623010139 1:0.11538462 2:0.16666666 3:0.083333328 5:0.16666667 6:0.083333328 7:0.25 14:0.083333328 18:0.01428571 19:0.13333333 20:0.2 22:0.01219512 29:0.1 38:0.66666669 40:0.33333334 41:0.11111111 43:0.2 74:0.25 75:0.25 108:0.5 222:0.33333334 279:0.5 337:0.25 418:0.5 557:1 574:1 762:1 763:1 812:1 813:0.5 1326:1 1372:1 2110:0.5 2111:0.5 2146:0.5 2210:0.5 
1.6407581834342914728352980091586 1:0.0096153803 18:0.085714288 118:0.5 2121:0.5 2123:0.5 2126:0.5 2127:0.5 2128:0.5 2129:0.5 2130:0.5 2171:0.5 
1.6407581834342914728352980091586 1:0.0096153803 18:0.057142861 118:0.5 2118:0.5 2122:0.5 2123:0.5 2129:0.5 2146:0.5 2148:0.5 2149:0.5 
-1.1695876349503320223988112047664 1:0.01923077 18:0.057142861 108:0.5 233:0.33333334 2094:1 2115:0.5 2118:0.5 2120:0.5 2121:0.5 2122:0.5 2123:0.5 2148:0.5 
-0.88719358957229377260489400214283 1:0.057692312 5:0.33333334 6:0.16666667 7:0.16666667 13:0.16666667 18:0.04285714 19:0.13333333 23:0.14285713 27:0.14285713 30:0.1 43:0.1 132:0.5 148:0.2 181:0.16666667 196:0.25 467:0.5 1486:1 2118:0.5 2121:0.5 2122:0.5 2125:0.5 2126:0.5 2150:0.5 
0.70740636457342931375791295067756 1:0.067307688 2:0.28571427 7:0.42857143 13:0.14285713 18:0.085714288 38:0.66666669 40:0.33333334 43:0.1 96:0.33333334 181:0.16666667 219:1 221:0.2 222:0.33333334 233:0.33333334 467:0.5 487:1 1361:1 1497:1 1498:1 2124:0.5 2155:0.5 2158:0.5 2161:0.5 2162:0.5 2185:0.5 2210:0.5 2212:0.5 
-0.49486915544202531025419489196793 1:0.02884615 5:0.33333334 18:0.15714286 19:0.06666667 118:0.5 150:0.01333333 211:1 256:0.5 766:1 1102:1 2137:0.5 2140:0.5 2144:0.5 2147:0.5 2200:0.5 2206:0.5 
-0.22417062651567559727894263232884 1:0.04807692 4:0.2 5:0.40000001 18:0.01428571 19:0.13333333 54:0.11111111 96:0.33333334 131:0.5 170:1 172:0.5 407:1 1362:1 2110:0.5 2112:0.5 2113:0.5 2162:0.5 
1.6407581834342914728352980091586 1:0.0096153803 18:0.071428567 37:1 2121:0.5 2122:0.5 2123:0.5 2126:0.5 2127:0.5 2128:0.5 2130:0.5 2133:0.5 
-0.70277759026638919603868771446287 1:0.02884615 6:0.33333334 16:0.66666669 18:0.1 28:0.25 29:0.1 33:0.25 539:0.33333334 2122:0.5 2123:0.5 2124:0.5 2127:0.5 2128:0.5 2146:0.5 2148:0.5 2149:0.5 
-0.49178579366454117094420439570968 1:0.0096153803 18:0.071428567 439:0.5 2118:0.5 2122:0.5 2123:0.5 2128:0.5 2151:0.5 2153:0.5 2156:0.5 2187:0.5 
1.162058974851029713448724578484 1:0.03846154 7:0.25 13:0.25 18:0.1 96:0.33333334 322:0.25 467:0.5 487:1 1499:1 1500:1 2110:0.5 2112:0.5 2121:0.5 2131:0.5 2134:0.5 2158:0.5 2161:0.5 2162:0.5 2185:0.5 
-0.9515355779998757590476543555269 1:0.15384614 3:0.5625 5:0.0625 14:0.1875 17:0.0625 18:0.25714287 19:0.06666667 20:0.2 22:0.1097561 41:0.33333334 43:0.1 44:0.092307687 52:0.2 84:0.25 93:0.33333334 109:0.5 118:1 121:1 224:0.5 280:0.33333334 1007:1 2130:0.5 2133:0.5 2137:0.5 2140:0.5 2144:0.5 2147:0.5 2180:0.5 2214:0.5 
-0.53446152306717809032932109403191 1:0.057692312 5:0.5 13:0.33333334 18:0.085714288 19:0.2 23:0.14285713 43:0.1 96:0.33333334 97:0.5 148:0.2 466:1 467:1 582:0.5 670:1 2118:0.5 2121:0.5 2122:0.5 2123:0.5 2126:0.5 2150:0.5 2153:0.5 2202:0.5 
1.6407581834342914728352980091586 1:0.0096153803 18:0.071428567 118:0.5 2122:0.5 2123:0.5 2127:0.5 2128:0.5 2129:0.5 2157:0.5 
0.29074196904615734471377663794556 1:0.0096153803 18:0.071428567 37:1 2123:0.5 2127:0.5 2128:0.5 2129:0.5 2131:0.5 2154:0.5 2181:0.5 
-1.4966591499425341282858425984159 1:0.0096153803 18:0.028571431 61:0.25 2110:0.5 2112:0.5 2114:0.5 2162:0.5 2210:0.5 
-1.0487086219827350674904664629139 1:0.0096153803 18:0.15714286 1500:1 2112:0.5 2122:0.5 2143:0.5 2156:0.5 2161:0.5 2166:0.5 2173:0.5 2185:0.5 
-0.35011422804068759173645730697899 1:0.04807692 4:0.2 7:0.40000001 11:0.2 18:0.1 38:0.33333334 54:0.11111111 150:0.01333333 152:0.5 156:0.5 560:1 611:1 2121:0.5 2126:0.5 2129:0.5 2130:0.5 2161:0.5 2171:0.5 2185:0.5 2192:0.5 
-1.3831972268519985291845841857139 1:0.01923077 18:0.17142858 37:1 43:0.1 1089:1 2179:0.5 2180:0.5 2181:0.5 2182:0.5 2183:0.5 2184:0.5 2186:0.5 2202:0.5 
-0.28343487498457009543528783979127 1:0.0096153803 4:1 18:0.028571431 54:0.11111111 2111:0.5 2114:0.5 2115:0.5 2143:0.5 2146:0.5 2149:0.5 
-0.63888296613066042350936868388089 1:0.02884615 5:0.33333334 7:0.33333334 9:0.33333334 18:0.1 19:0.06666667 259:0.33333334 521:0.33333334 1696:1 2121:0.5 2126:0.5 2128:0.5 2130:0.5 2132:0.5 2155:0.5 2156:0.5 2158:0.5 2175:0.5 
-0.3882868546938531006951222934731 1:0.02884615 5:0.33333334 9:0.33333334 18:0.071428567 19:0.06666667 75:0.25 233:0.33333334 335:1 494:1 2121:0.5 2123:0.5 2126:0.5 2127:0.5 2128:0.5 2129:0.5 2130:0.5 2171:0.5 
-0.51005058624066867967172811404453 1:0.02884615 5:0.33333334 7:0.33333334 13:0.33333334 18:0.057142861 19:0.06666667 467:0.5 582:0.5 1537:1 1538:1 2111:0.5 2118:0.5 2122:0.5 2123:0.5 2146:0.5 2149:0.5 2150:0.5 2156:0.5 
-0.19607545072550294773527923553047 1:0.02884615 2:0.66666669 17:0.33333334 18:0.04285714 40:0.33333334 568:1 569:1 1412:1 1413:1 2110:0.5 2111:0.5 2112:0.5 2131:0.5 2135:0.5 2143:0.5 
-1.6407581834342914728352980091586 1:0.0096153803 18:0.057142861 83:0.25 2116:0.5 2118:0.5 2119:0.5 2122:0.5 2123:0.5 2129:0.5 2143:0.5 
-1.1686313718813490236669849764439 1:0.02884615 6:0.66666669 7:0.33333334 18:0.071428567 29:0.1 30:0.1 34:0.33333334 181:0.16666667 340:0.33333334 2118:0.5 2121:0.5 2122:0.5 2123:0.5 2126:0.5 2128:0.5 2129:0.5 2130:0.5 
0.32276113476381829148209590130136 1:0.03846154 7:0.25 18:0.085714288 108:0.5 325:1 328:1 391:0.5 556:1 557:1 558:1 2128:0.5 2129:0.5 2132:0.5 2155:0.5 2157:0.5 2158:0.5 
-0.21045113782259167178878556114796 1:0.16346154 2:0.11764706 4:0.05882353 5:0.17647059 6:0.17647059 7:0.05882353 9:0.05882353 18:0.01428571 19:0.2 27:0.14285713 29:0.2 30:0.1 34:0.33333334 38:0.33333334 39:0.5 40:0.33333334 43:0.30000001 54:0.11111111 74:0.25 75:0.25 81:0.5 124:0.16666667 144:0.5 165:1 172:0.5 200:0.25 251:1 337:0.25 366:0.5 389:0.5 440:1 536:1 538:1 768:1 1138:1 1161:1 1231:1 1838:1 2087:1 2110:0.5 2111:0.5 2143:0.5 2146:0.5 
-0.34058862845535670116348114788707 1:0.11538462 5:0.33333334 14:0.083333328 18:0.25714287 19:0.26666668 41:0.11111111 61:0.5 80:0.5 82:1 96:0.33333334 118:1 122:0.5 150:0.026666669 166:0.5 186:0.25 247:0.5 256:0.5 526:0.25 766:1 1031:1 1113:0.5 1115:0.5 1117:0.5 1195:1 1196:1 1489:1 2137:0.5 2140:0.5 2144:0.5 2147:0.5 2203:0.5 2204:0.5 2205:0.5 2206:0.5 
-0.93205837150091042087041159902583 1:0.01923077 17:0.5 18:0.085714288 186:0.25 2121:0.5 2125:0.5 2126:0.5 2128:0.5 2132:0.5 2155:0.5 2158:0.5 2168:0.5 
-0.31183188895008984165002630106756 1:0.067307688 14:0.14285713 17:0.14285713 18:0.2 41:0.11111111 61:0.25 65:0.33333334 84:0.25 93:0.33333334 115:0.33333334 116:1 117:0.25 118:0.5 436:1 585:1 1742:1 1884:0.5 2155:0.5 2159:0.5 2160:0.5 2175:0.5 2183:0.5 2184:0.5 2185:0.5 2194:0.5 2196:0.5 
-0.2412166939214376859546007381141 1:0.11538462 3:0.083333328 4:0.083333328 14:0.25 18:0.3142857 22:0.01219512 41:0.33333334 43:0.2 52:0.2 54:0.11111111 61:0.5 65:0.33333334 112:0.5 113:0.5 114:1 115:0.33333334 116:1 117:0.25 118:0.5 119:0.25 120:0.33333334 121:1 122:1 123:0.5 124:0.16666667 125:0.5 2138:0.5 2157:0.5 2161:0.5 2178:0.5 2182:0.5 2183:0.5 
-0.3376799225771329182599345131166 1:0.03846154 9:0.25 18:0.071428567 27:0.14285713 108:0.5 142:0.25 257:0.5 349:0.33333334 400:1 1123:1 2115:0.5 2121:0.5 2123:0.5 2127:0.5 2128:0.5 2146:0.5 2148:0.5 2155:0.5 
-0.45643716501605391400175903982017 1:0.01923077 7:0.5 10:0.5 18:0.071428567 181:0.16666667 183:0.5 184:1 2123:0.5 2127:0.5 2128:0.5 2134:0.5 
-0.47274237260784807146407615618955 1:0.067307688 5:0.14285713 13:0.14285713 17:0.14285713 18:0.057142861 19:0.06666667 27:0.14285713 43:0.1 67:0.5 69:0.5 84:0.25 314:1 315:1 389:0.5 467:0.5 484:1 670:1 675:1 768:1 929:1 2118:0.5 2121:0.5 2122:0.5 2150:0.5 2153:0.5 2164:0.5 2186:0.5 
-0.31847872941668237123380436059961 1:0.07692308 2:0.75 7:0.25 17:0.125 18:0.04285714 38:0.66666669 39:0.5 40:1 56:0.01639344 61:0.25 599:1 988:0.5 1135:1 1267:1 1344:1 1549:1 1550:1 1551:1 2118:0.5 2121:0.5 2122:0.5 2126:0.5 2130:0.5 2133:0.5 
-0.61270026599800209154977892467286 1:0.02884615 2:0.66666669 7:0.66666669 18:0.12857144 38:0.33333334 40:0.33333334 43:0.1 181:0.16666667 219:1 221:0.2 222:0.33333334 2124:0.5 2154:0.5 2161:0.5 2171:0.5 2181:0.5 2185:0.5 2192:0.5 
-0.50561277017982186876565720012877 1:0.01923077 6:0.5 18:0.028571431 29:0.1 389:0.5 1935:1 2114:0.5 2121:0.5 2126:0.5 2130:0.5 2150:0.5 
-0.31614887682132292168191156633839 1:0.07692308 5:0.125 9:0.125 14:0.125 17:0.125 18:0.028571431 19:0.06666667 27:0.2857143 41:0.11111111 43:0.1 75:0.25 84:0.25 93:0.33333334 110:0.5 123:0.5 142:0.25 146:0.5 148:0.2 257:0.5 332:1 472:0.5 473:0.5 2110:0.5 2112:0.5 2131:0.5 2143:0.5 2162:0.5 
-0.70424097178553413112211956104147 1:0.01923077 9:0.5 18:0.04285714 75:0.25 142:0.25 561:0.5 2112:0.5 2115:0.5 2118:0.5 2122:0.5 2143:0.5 2148:0.5 
-0.50118255649313381283604940108489 1:0.01923077 2:1 7:0.5 18:0.071428567 38:0.33333334 40:0.33333334 43:0.1 222:0.33333334 588:1 2123:0.5 2127:0.5 2128:0.5 2131:0.5 2148:0.5 2149:0.5 2150:0.5 2151:0.5 
-0.19005761081491398534204506631795 1:0.067307688 3:0.14285713 6:0.42857143 9:0.14285713 18:0.04285714 22:0.01219512 29:0.2 30:0.1 31:0.25 61:0.25 75:0.25 104:0.5 108:0.5 150:0.01333333 227:0.5 248:1 339:1 341:1 1056:1 2118:0.5 2121:0.5 2122:0.5 2126:0.5 2129:0.5 2130:0.5 
-0.43854424979373429760443059421959 1:0.03846154 5:0.75 16:0.25 18:0.057142861 19:0.2 23:0.2857143 33:0.125 150:0.01333333 256:0.5 506:1 2110:0.5 2112:0.5 2131:0.5 2134:0.5 2158:0.5 2161:0.5 2162:0.5 2179:0.5 
-0.26294828482836674066192017562571 1:0.01923077 7:0.5 18:0.01428571 43:0.2 269:1 1840:1 1926:1 2162:0.5 2163:0.5 2182:0.5 2210:0.5 2212:0.5 
-0.93914605620665747576225612647249 1:0.02884615 2:0.66666669 7:0.66666669 18:0.057142861 38:0.33333334 39:0.5 40:0.33333334 357:0.125 589:1 2118:0.5 2122:0.5 2123:0.5 2124:0.5 2146:0.5 2148:0.5 2149:0.5 
-0.069219058942788291854952831272385 1:0.02884615 18:0.12857144 108:0.5 115:0.33333334 472:0.5 584:1 1775:1 2122:0.5 2148:0.5 2150:0.5 2151:0.5 2163:0.5 2173:0.5 2194:0.5 2196:0.5 
-0.30741859309125102450721556124336 1:0.01923077 7:0.5 18:0.1 56:0.01639344 557:1 1032:1 1748:1 2121:0.5 2136:0.5 2155:0.5 2156:0.5 2158:0.5 2161:0.5 2166:0.5 2215:0.5 
-0.24345900820423274635295740608854 1:0.15384614 3:0.3125 5:0.125 14:0.0625 18:0.30000001 19:0.13333333 21:0.33333334 22:0.060975611 27:0.14285713 41:0.11111111 44:0.046153851 53:0.14285713 61:0.5 65:0.33333334 68:0.5 104:0.5 108:0.5 113:0.5 118:0.5 120:0.33333334 122:0.5 124:0.16666667 279:0.5 1792:1 1951:1 1952:1 2122:0.5 2144:0.5 2147:0.5 2159:0.5 2171:0.5 2183:0.5 2191:0.5 2208:0.5 
1.5132255915897756537447094160598 1:0.0096153803 18:0.057142861 37:1 2123:0.5 2127:0.5 2134:0.5 2148:0.5 2150:0.5 2151:0.5 2179:0.5 
-0.80495851009905905470986908767372 1:0.02884615 6:0.66666669 16:0.33333334 18:0.04285714 29:0.1 30:0.1 32:0.25 33:0.125 35:0.25 2114:0.5 2118:0.5 2124:0.5 2129:0.5 2148:0.5 2149:0.5 2151:0.5 
-0.28097099846300049863501158142753 1:0.02884615 6:0.66666669 16:0.33333334 18:0.01428571 28:0.25 29:0.2 32:0.25 33:0.125 2121:0.5 2124:0.5 2126:0.5 2129:0.5 2162:0.5 
-0.12172692057263244380660438537234 1:0.10576923 6:0.090909094 7:0.090909094 8:0.18181819 9:0.18181819 14:0.090909094 17:0.18181819 18:0.071428567 27:0.14285713 29:0.1 41:0.11111111 43:0.30000001 56:0.032786891 64:0.5 74:0.25 75:0.25 84:0.25 93:0.33333334 110:0.5 115:0.33333334 126:0.5 139:0.5 141:0.5 186:0.25 259:0.33333334 260:1 262:0.25 322:0.25 337:0.25 443:1 483:1 1803:1 1868:1 2030:1 2031:1 2032:1 2112:0.5 2123:0.5 2127:0.5 2128:0.5 2143:0.5 2155:0.5 2168:0.5 2216:0.5 
-0.089972507263458748050233282356203 1:0.40384614 3:0.42857143 4:0.023809521 5:0.14285713 6:0.023809521 7:0.023809521 8:0.047619041 12:0.023809521 14:0.095238097 17:0.023809521 18:0.12857144 19:0.40000001 20:0.2 21:0.33333334 22:0.21951219 23:0.14285713 27:0.2857143 29:0.1 41:0.44444445 44:0.12307692 47:0.2 48:0.16666667 52:0.40000001 53:0.2857143 54:0.11111111 55:0.16666667 56:0.032786891 58:0.2 59:0.25 61:0.5 64:0.5 80:0.5 82:0.5 84:0.25 85:0.25 89:0.5 104:1 105:0.5 107:1 108:1 109:0.25 115:0.33333334 130:0.5 161:1 166:0.5 174:0.25 181:0.16666667 238:0.5 278:1 279:0.5 298:1 301:0.33333334 327:1 346:0.5 397:0.5 479:1 1559:1 2173:0.5 2195:0.5 2196:0.5 2218:0.5 
0.8560251380695327316772136327927 1:0.0096153803 18:0.1 37:1 2127:0.5 2129:0.5 2136:0.5 2146:0.5 2148:0.5 2149:0.5 2171:0.5 2175:0.5 
-1.6150962405202740068688171959366 1:0.0096153803 18:0.028571431 2129:0.5 2162:0.5 2183:0.5 2212:0.5 2213:0.5 
-0.68803391103735744849245747900568 1:0.02884615 6:0.33333334 18:0.057142861 29:0.1 83:0.25 96:0.33333334 697:0.5 2114:0.5 2118:0.5 2123:0.5 2124:0.5 2129:0.5 2152:0.5 2180:0.5 2181:0.5 
0.42273081355004576975531449534174 1:0.04807692 2:0.40000001 7:0.40000001 18:0.04285714 38:0.33333334 40:0.33333334 43:0.1 108:0.5 222:0.33333334 322:0.25 325:1 328:1 588:1 2118:0.5 2122:0.5 2150:0.5 2151:0.5 2153:0.5 2187:0.5 
-0.35457965370864757970181813107047 1:0.067307688 5:0.2857143 13:0.14285713 18:0.057142861 19:0.13333333 27:0.2857143 43:0.1 62:1 142:0.25 257:0.5 466:1 467:0.5 472:0.5 473:0.5 514:0.5 736:1 930:1 2118:0.5 2121:0.5 2122:0.5 2123:0.5 2126:0.5 2130:0.5 2133:0.5 
-0.34116524380164175989094133001345 1:0.03846154 13:0.25 14:0.25 17:0.25 18:0.30000001 41:0.11111111 61:0.25 84:0.25 93:0.33333334 94:1 467:0.5 578:1 2121:0.5 2122:0.5 2126:0.5 2150:0.5 2166:0.5 2173:0.5 2194:0.5 2196:0.5 
-0.61395971283619499292427690306795 1:0.04807692 4:0.40000001 7:0.60000002 18:0.071428567 38:1 43:0.30000001 54:0.22222222 133:0.16666667 209:0.2 222:1 431:0.66666669 2118:0.5 2122:0.5 2123:0.5 2128:0.5 2129:0.5 2157:0.5 2182:0.5 
-0.2230461078181097400729981927725 1:0.01923077 7:0.5 18:0.01428571 389:0.5 2010:1 2110:0.5 2111:0.5 2116:0.5 2117:0.5 
-0.46158080982256716184863876151212 1:0.04807692 3:0.2 5:0.2 13:0.2 17:0.2 18:0.14285713 19:0.06666667 22:0.01219512 69:0.5 84:0.25 280:0.33333334 396:1 467:0.5 484:1 670:1 2120:0.5 2121:0.5 2131:0.5 2135:0.5 2150:0.5 2153:0.5 2161:0.5 2180:0.5 2185:0.5 2194:0.5 
-0.43348668817231972294479191987193 1:0.02884615 13:0.33333334 18:0.04285714 27:0.14285713 67:0.5 69:0.5 467:0.5 468:1 2112:0.5 2118:0.5 2122:0.5 2150:0.5 2153:0.5 2210:0.5 
-0.23238944275128439742594821382227 1:0.11538462 2:0.16666666 3:0.083333328 5:0.16666667 6:0.083333328 7:0.16666667 9:0.083333328 14:0.16666667 17:0.083333328 18:0.028571431 19:0.13333333 22:0.01219512 29:0.1 38:0.33333334 40:0.33333334 41:0.22222222 43:0.40000001 52:0.2 74:0.25 75:0.25 84:0.25 93:0.33333334 109:0.25 144:0.5 150:0.01333333 166:0.5 200:0.25 222:0.33333334 256:0.5 337:0.25 366:0.5 557:1 762:1 763:1 1099:1 1417:0.5 1571:1 1572:0.5 2110:0.5 2111:0.5 2131:0.5 2143:0.5 2146:0.5 
-0.38125383005415597326148713364091 1:0.04807692 4:0.2 7:0.2 18:0.028571431 27:0.14285713 46:0.25 54:0.11111111 65:0.33333334 108:0.5 181:0.16666667 292:0.5 368:1 1897:1 2114:0.5 2115:0.5 2143:0.5 2146:0.5 2148:0.5 
0.01036251263588157563166891605988 1:0.096153848 5:0.2 7:0.1 13:0.2 17:0.1 18:0.01428571 19:0.13333333 84:0.25 88:0.5 96:0.33333334 108:0.5 314:1 315:1 322:0.25 383:0.5 467:1 484:1 583:1 670:1 1499:1 1568:1 1569:1 1570:1 2162:0.5 2182:0.5 2210:0.5 2212:0.5 
-0.52522265460413364301928140775999 1:0.01923077 5:0.5 6:0.5 18:0.071428567 19:0.06666667 29:0.1 130:0.5 2121:0.5 2122:0.5 2123:0.5 2124:0.5 2126:0.5 2127:0.5 2128:0.5 2129:0.5 2130:0.5 
-0.14843724394676857669672642714431 1:0.057692312 4:0.16666667 6:0.16666667 7:0.16666667 8:0.66666669 17:0.16666667 18:0.04285714 30:0.1 43:0.1 54:0.11111111 64:1 84:0.25 181:0.16666667 182:0.25 196:0.25 343:0.5 346:0.5 442:1 443:1 2118:0.5 2121:0.5 2122:0.5 2124:0.5 2126:0.5 2130:0.5 
-0.29485950452861092729861525185697 1:0.057692312 2:0.33333334 5:0.16666667 17:0.16666667 18:0.01428571 19:0.06666667 27:0.14285713 40:0.33333334 56:0.01639344 81:0.5 150:0.01333333 223:1 423:0.25 988:0.5 1450:1 2112:0.5 2143:0.5 2162:0.5 2182:0.5 
-0.048283382096486839041293848140413 1:0.01923077 7:0.5 17:0.5 18:0.028571431 43:0.1 456:1 457:1 1174:1 1541:1 2110:0.5 2112:0.5 2143:0.5 2149:0.5 2162:0.5 2183:0.5 
0.024565998990778350336006141674261 1:0.03846154 7:0.25 18:0.085714288 108:0.5 115:0.33333334 325:1 328:1 584:1 2121:0.5 2122:0.5 2126:0.5 2127:0.5 2128:0.5 2129:0.5 2130:0.5 2132:0.5 
-0.064178669273592503508041318127653 1:0.07692308 5:0.125 6:0.25 7:0.375 9:0.125 16:0.125 18:0.071428567 19:0.06666667 30:0.2 33:0.125 35:0.25 38:0.33333334 43:0.2 99:0.125 181:0.16666667 196:0.25 322:0.25 349:0.33333334 483:1 608:0.16666667 813:0.5 922:1 1121:1 1125:1 1552:1 1860:1 2121:0.5 2123:0.5 2126:0.5 2127:0.5 2128:0.5 2155:0.5 2166:0.5 2190:0.5 2216:0.5 
-0.23054084242811900828939997154521 1:0.096153848 5:0.40000001 14:0.1 18:0.11428571 19:0.26666668 41:0.11111111 61:0.5 80:0.5 82:1 96:0.33333334 118:0.5 122:0.5 150:0.026666669 166:0.5 247:0.5 256:0.5 766:1 1113:0.5 1820:1 1821:1 1822:1 2121:0.5 2127:0.5 2132:0.5 2155:0.5 2185:0.5 2204:0.5 2205:0.5 2206:0.5 
-0.9523042448355820699390505978954 1:0.0096153803 18:0.04285714 115:0.33333334 2118:0.5 2122:0.5 2150:0.5 2151:0.5 2153:0.5 2214:0.5 
-0.41323557686859546667079712278792 1:0.01923077 5:0.5 18:0.1 19:0.06666667 108:0.5 279:0.5 2121:0.5 2124:0.5 2125:0.5 2126:0.5 2132:0.5 2136:0.5 2155:0.5 2158:0.5 
1.2045443309520920127653198505868 1:0.0096153803 18:0.057142861 37:1 2118:0.5 2121:0.5 2122:0.5 2123:0.5 2126:0.5 2129:0.5 2130:0.5 
-0.074210038458155630491930310199677 1:0.13461538 6:0.14285713 7:0.35714287 9:0.14285713 11:0.071428567 16:0.071428567 18:0.028571431 29:0.2 33:0.125 38:0.33333334 43:0.1 66:0.33333334 71:0.5 72:1 73:1 74:0.25 75:0.25 124:0.33333334 156:0.5 322:0.25 417:0.5 418:1 501:0.33333334 591:1 593:1 594:1 595:0.66666669 596:0.66666669 732:1 1369:1 1370:1 1371:1 1372:1 1373:1 1374:1 1375:1 1376:1 1377:1 1378:1 2110:0.5 2112:0.5 2155:0.5 2162:0.5 2163:0.5 
-0.019045116776474652758865957480339 1:0.13461538 6:0.14285713 7:0.35714287 9:0.14285713 11:0.071428567 16:0.071428567 18:0.028571431 29:0.2 33:0.125 38:0.33333334 43:0.1 66:0.33333334 71:0.5 72:1 73:1 74:0.25 75:0.25 124:0.33333334 156:0.5 322:0.25 417:0.5 418:1 501:0.33333334 591:1 593:1 594:1 595:0.66666669 596:0.66666669 732:1 1369:1 1370:1 1371:1 1372:1 1373:1 1374:1 1375:1 1376:1 1377:1 1378:1 2110:0.5 2155:0.5 2162:0.5 2212:0.5 2213:0.5 
0.059751997729269173964539163534937 1:0.01923077 18:0.085714288 108:0.5 325:1 328:1 2124:0.5 2128:0.5 2132:0.5 2134:0.5 2143:0.5 2146:0.5 2148:0.5 2173:0.5 
-0.31191607044865377051934274277301 1:0.04807692 5:0.40000001 8:0.40000001 14:0.2 17:0.2 18:0.057142861 19:0.13333333 23:0.14285713 41:0.11111111 64:0.5 84:0.25 88:0.5 166:0.5 346:0.5 2117:0.5 2127:0.5 2131:0.5 2132:0.5 2146:0.5 2148:0.5 2150:0.5 2151:0.5 
-0.44787838469407692532087139625219 1:0.01923077 12:0.5 17:0.5 18:0.057142861 84:0.25 85:0.25 86:1 2113:0.5 2118:0.5 2122:0.5 2123:0.5 2148:0.5 2150:0.5 2151:0.5 
-0.41666189055484909031790152766916 1:0.02884615 6:0.33333334 18:0.057142861 29:0.1 96:0.33333334 108:0.5 583:1 1309:1 2118:0.5 2121:0.5 2122:0.5 2123:0.5 2126:0.5 2156:0.5 2166:0.5 
-0.23078023382813725450368735891971 1:0.03846154 5:0.25 9:0.25 18:0.14285713 19:0.06666667 65:0.33333334 66:0.33333334 69:0.5 70:1 485:1 1422:1 2129:0.5 2143:0.5 2158:0.5 2161:0.5 2167:0.5 2172:0.5 2178:0.5 2181:0.5 
-1.6407581834342914728352980091586 1:0.0096153803 18:0.01428571 96:0.33333334 2110:0.5 2111:0.5 2143:0.5 2146:0.5 
-0.16499295189093132751878556518932 1:0.03846154 17:0.25 18:0.12857144 115:0.66666669 150:0.01333333 505:1 781:0.5 963:1 2110:0.5 2112:0.5 2143:0.5 2162:0.5 2171:0.5 2193:0.5 2195:0.5 2202:0.5 
-0.22487631157827761563261503852118 1:0.04807692 6:0.40000001 7:0.2 9:0.2 18:0.085714288 29:0.1 30:0.1 100:0.25 186:0.25 322:0.25 349:0.33333334 827:1 920:1 922:0.5 1781:1 1839:1 2121:0.5 2126:0.5 2128:0.5 2130:0.5 2132:0.5 2158:0.5 2160:0.5 2168:0.5 
-0.79306499979444411430051786737749 1:0.02884615 7:0.33333334 9:0.33333334 18:0.057142861 43:0.1 74:0.25 75:0.25 186:0.25 237:0.33333334 262:0.25 321:0.33333334 2124:0.5 2125:0.5 2158:0.5 2160:0.5 2161:0.5 2212:0.5 2213:0.5 
-0.13588124598981926594021274468105 1:0.15384614 2:0.125 3:0.125 5:0.25 7:0.125 9:0.0625 14:0.1875 17:0.0625 18:0.01428571 19:0.26666668 21:0.33333334 22:0.024390239 23:0.2857143 27:0.14285713 38:0.33333334 40:0.33333334 41:0.33333334 43:0.40000001 45:0.5 55:0.16666667 109:0.25 148:0.2 189:0.16666667 222:0.33333334 224:0.5 277:0.33333334 282:0.33333334 303:1 349:0.33333334 352:0.5 366:0.5 557:1 665:1 762:1 763:1 1752:1 1753:1 1928:1 2110:0.5 2112:0.5 2143:0.5 2149:0.5 2162:0.5 
-0.11073662060477695856519630979165 1:0.21153846 3:0.22727273 5:0.18181819 14:0.13636364 17:0.045454551 18:0.01428571 19:0.26666668 21:0.33333334 22:0.060975611 41:0.33333334 43:0.40000001 44:0.030769231 52:0.2 61:0.5 65:0.33333334 78:0.33333334 82:0.5 84:0.25 93:0.33333334 96:0.33333334 104:0.5 105:0.5 108:0.5 109:0.25 112:0.5 117:0.25 128:1 148:0.40000001 174:0.25 216:1 275:0.5 277:0.33333334 279:0.5 282:0.33333334 310:0.5 311:1 485:1 572:0.5 1079:0.5 1168:1 1519:0.5 1716:1 2110:0.5 2112:0.5 2143:0.5 2162:0.5 
-1.1932894239786340229159122827696 1:0.0096153803 18:0.11428571 83:0.25 2119:0.5 2129:0.5 2152:0.5 2158:0.5 2160:0.5 2161:0.5 2180:0.5 2185:0.5 
-0.60966085525976099201983515740721 1:0.01923077 18:0.028571431 75:0.25 2110:0.5 2155:0.5 2162:0.5 2165:0.5 2167:0.5 
-0.3753333738879164882540351300122 1:0.04807692 5:0.2 13:0.2 18:0.085714288 19:0.06666667 27:0.14285713 61:0.25 62:0.5 82:0.5 467:0.5 472:0.5 473:0.5 699:1 2120:0.5 2121:0.5 2123:0.5 2127:0.5 2128:0.5 2150:0.5 2153:0.5 2171:0.5 
-0.13125283206286331161294356206781 1:0.10576923 2:0.18181819 4:0.27272728 7:0.18181819 14:0.090909094 17:0.090909094 18:0.028571431 38:0.33333334 40:0.33333334 41:0.11111111 43:0.2 54:0.33333334 56:0.032786891 119:0.25 150:0.01333333 209:0.2 233:0.33333334 366:0.5 410:1 456:1 457:1 499:1 597:1 841:1 988:0.5 1135:1 1158:1 2110:0.5 2112:0.5 2162:0.5 2183:0.5 2210:0.5 
-0.53391638494526871827616787413717 1:0.04807692 3:0.2 5:0.2 13:0.2 17:0.2 18:0.22857143 19:0.06666667 22:0.01219512 69:0.5 84:0.25 280:0.33333334 396:1 467:0.5 484:1 670:1 2127:0.5 2148:0.5 2150:0.5 2151:0.5 2155:0.5 2163:0.5 2175:0.5 2196:0.5 
-0.93169003796809957140823144072783 1:0.01923077 2:1 7:0.5 18:0.028571431 38:0.33333334 39:0.5 40:0.33333334 2110:0.5 2112:0.5 2131:0.5 2162:0.5 2210:0.5 
-0.39989519857188426943395143098314 1:0.04807692 3:0.2 5:0.2 6:0.2 9:0.2 13:0.2 18:0.085714288 19:0.06666667 21:0.33333334 22:0.01219512 30:0.1 75:0.25 210:0.33333334 341:1 467:0.5 582:0.5 2128:0.5 2132:0.5 2134:0.5 2135:0.5 2143:0.5 2180:0.5 2181:0.5 2182:0.5 
-0.31251929163761071883698150486453 1:0.03846154 9:0.25 18:0.071428567 27:0.14285713 65:0.33333334 66:0.33333334 67:0.5 68:0.5 69:0.5 70:1 2118:0.5 2121:0.5 2122:0.5 2123:0.5 2126:0.5 2128:0.5 2129:0.5 2130:0.5 
-0.20071012353843753484028411548934 1:0.02884615 2:0.66666669 7:0.66666669 18:0.1 38:0.33333334 40:0.33333334 43:0.1 181:0.16666667 219:1 221:0.2 222:0.33333334 2131:0.5 2136:0.5 2158:0.5 2159:0.5 2161:0.5 
-0.46941685588257009431600863536005 1:0.02884615 18:0.085714288 108:0.5 115:0.33333334 472:0.5 584:1 1775:1 2121:0.5 2122:0.5 2126:0.5 2127:0.5 2128:0.5 2132:0.5 2150:0.5 2153:0.5 
-1.1087725648829678259943420925993 1:0.03846154 14:0.25 17:0.25 18:0.11428571 27:0.14285713 41:0.11111111 67:0.5 69:0.5 84:0.25 93:0.33333334 110:0.5 2121:0.5 2126:0.5 2129:0.5 2130:0.5 2131:0.5 2173:0.5 2185:0.5 2194:0.5 
-0.0053909469379424413554291461991852 1:0.057692312 5:0.16666667 6:0.16666667 7:0.33333334 9:0.16666667 18:0.085714288 19:0.06666667 26:0.5 30:0.1 43:0.2 148:0.2 322:0.25 349:0.33333334 352:0.5 483:1 802:1 1036:1 1882:1 2121:0.5 2126:0.5 2128:0.5 2130:0.5 2132:0.5 2155:0.5 2158:0.5 2168:0.5 
-0.32704475403209559702943920456164 1:0.0096153803 17:1 18:0.12857144 2121:0.5 2126:0.5 2130:0.5 2133:0.5 2171:0.5 2173:0.5 2194:0.5 2196:0.5 
-0.06210620490690880318718214425644 1:0.07692308 6:0.25 7:0.625 18:0.12857144 30:0.2 56:0.032786891 124:0.16666667 150:0.01333333 181:0.16666667 322:0.5 357:0.25 426:0.66666669 922:0.5 1124:1 1473:0.16666667 1475:0.5 1477:1 1859:1 2000:1 2056:1 2088:0.5 2089:0.5 2090:0.5 2091:0.5 2121:0.5 2126:0.5 2160:0.5 2166:0.5 2185:0.5 2190:0.5 2192:0.5 2194:0.5 
0.5468326577765514340256913783378 1:0.02884615 7:0.33333334 18:0.1 108:0.5 325:1 328:1 362:1 363:1 2129:0.5 2136:0.5 2148:0.5 2153:0.5 2154:0.5 2158:0.5 2160:0.5 2161:0.5 
0.48790003705910761633290917416161 1:0.02884615 18:0.24285714 37:1 61:0.25 1034:1 1035:1 1127:1 2131:0.5 2148:0.5 2150:0.5 2151:0.5 2152:0.5 2161:0.5 2185:0.5 2192:0.5 
-0.076109563313435643627791193921439 1:0.16346154 2:0.11764706 3:0.05882353 5:0.11764706 6:0.05882353 7:0.17647059 9:0.05882353 14:0.11764706 18:0.01428571 19:0.13333333 21:0.33333334 22:0.01219512 23:0.14285713 30:0.1 38:0.33333334 40:0.33333334 41:0.22222222 43:0.40000001 56:0.032786891 61:0.25 75:0.25 92:0.5 96:0.33333334 105:0.5 128:1 144:0.5 161:1 186:0.25 191:1 222:0.33333334 243:0.5 269:1 366:0.5 389:0.5 404:1 426:0.33333334 427:1 431:0.33333334 456:1 607:1 769:1 990:1 1417:0.5 1843:1 1844:1 1845:1 2110:0.5 2112:0.5 2162:0.5 2210:0.5 
-0.77582157139565244285961398418294 1:0.02884615 5:0.33333334 13:0.33333334 18:0.057142861 19:0.06666667 61:0.25 80:0.5 467:0.5 582:0.5 2123:0.5 2127:0.5 2150:0.5 2153:0.5 2155:0.5 2164:0.5 2210:0.5 
-0.10196310325003174468427857846109 1:0.02884615 2:0.66666669 7:0.66666669 18:0.04285714 38:0.33333334 40:0.33333334 43:0.1 181:0.16666667 219:1 221:0.2 222:0.33333334 2118:0.5 2121:0.5 2122:0.5 2126:0.5 2130:0.5 2133:0.5 
-0.28599358605238528463488023589889 1:0.02884615 2:0.66666669 7:0.66666669 18:0.2 38:0.33333334 40:0.33333334 43:0.1 181:0.16666667 219:1 221:0.2 222:0.33333334 2121:0.5 2126:0.5 2130:0.5 2133:0.5 2158:0.5 2161:0.5 2171:0.5 2185:0.5 
-0.12644571346954608381807361183746 1:0.03846154 10:0.5 17:0.25 18:0.057142861 61:0.25 183:1 229:1 230:1 867:1 1632:1 2118:0.5 2122:0.5 2123:0.5 
0.56394151618956489535605669516372 1:0.02884615 17:0.33333334 18:0.04285714 108:0.5 325:1 328:1 2111:0.5 2112:0.5 2114:0.5 2115:0.5 2118:0.5 2210:0.5 
-0.24812538053452484754224371954479 1:0.057692312 6:0.5 9:0.16666667 16:0.16666667 18:0.057142861 29:0.2 30:0.1 32:0.25 33:0.125 61:0.25 75:0.25 100:0.25 339:1 481:0.5 1246:1 2118:0.5 2123:0.5 2129:0.5 2131:0.5 2146:0.5 2148:0.5 2149:0.5 
-0.18036880290705895046876605647412 1:0.01923077 11:0.5 18:0.15714286 150:0.01333333 152:0.5 156:0.5 2146:0.5 2149:0.5 2162:0.5 2171:0.5 2185:0.5 2192:0.5 2194:0.5 2217:0.5 
-0.26052034025848364029442905120959 1:0.03846154 5:0.25 14:0.25 18:0.04285714 19:0.06666667 27:0.14285713 41:0.11111111 95:1 108:0.5 166:0.5 728:1 2118:0.5 2121:0.5 2122:0.5 2126:0.5 2130:0.5 2150:0.5 
-0.082267286594923938469747781709884 1:0.096153848 2:0.2 4:0.1 7:0.30000001 14:0.2 17:0.1 18:0.1 40:0.33333334 41:0.22222222 43:0.5 54:0.11111111 56:0.01639344 96:0.33333334 119:0.25 161:1 181:0.33333334 188:0.5 221:0.40000001 366:0.5 391:0.5 456:1 457:1 465:1 489:1 491:1 588:1 841:1 897:1 1150:1 1777:1 1778:1 2121:0.5 2126:0.5 2127:0.5 2130:0.5 2133:0.5 2136:0.5 2155:0.5 2160:0.5 2161:0.5 2194:0.5 
1.1509044901355582890545292684692 1:0.0096153803 18:0.071428567 37:1 2123:0.5 2127:0.5 2128:0.5 2134:0.5 2148:0.5 2150:0.5 2151:0.5 2165:0.5 
-0.49085420548944963536897034828144 1:0.02884615 2:0.66666669 7:0.66666669 18:0.071428567 38:0.33333334 40:0.33333334 43:0.1 222:0.33333334 357:0.125 364:0.5 365:0.5 2119:0.5 2123:0.5 2124:0.5 2127:0.5 2128:0.5 2143:0.5 2146:0.5 2171:0.5 
-0.09590491047081846354149803346445 1:0.096153848 3:0.40000001 14:0.2 18:0.21428572 22:0.04878049 41:0.22222222 44:0.030769231 52:0.2 61:0.25 66:0.33333334 109:0.25 118:0.5 174:0.25 276:1 526:0.25 564:1 565:1 566:1 2157:0.5 2182:0.5 2183:0.5 2184:0.5 2186:0.5 2196:0.5 
-0.23780083330190210366694714139157 1:0.02884615 5:0.33333334 16:0.33333334 18:0.071428567 19:0.06666667 33:0.125 108:0.5 514:0.5 930:1 1183:1 1197:1 2112:0.5 2115:0.5 2122:0.5 2128:0.5 2132:0.5 2143:0.5 2148:0.5 2158:0.5 
-0.71225207800790180101557780290022 1:0.0096153803 18:0.057142861 83:0.25 2117:0.5 2118:0.5 2122:0.5 2123:0.5 2148:0.5 2150:0.5 2151:0.5 
-0.10726892738889851064421065984789 1:0.07692308 5:0.125 6:0.125 7:0.125 9:0.25 17:0.125 18:0.071428567 19:0.06666667 30:0.1 38:0.33333334 43:0.2 148:0.2 186:0.25 196:0.25 222:0.33333334 233:0.33333334 259:0.33333334 349:0.33333334 528:1 535:1 1148:1 1149:1 1677:1 1678:1 1679:1 2121:0.5 2123:0.5 2126:0.5 2127:0.5 2128:0.5 2130:0.5 2155:0.5 2168:0.5 
-0.72122527910260736394576497332309 1:0.0096153803 18:0.1 61:0.25 2117:0.5 2127:0.5 2132:0.5 2136:0.5 2148:0.5 2150:0.5 2151:0.5 2155:0.5 
-0.11224285160658642457320866014925 1:0.04807692 7:0.40000001 17:0.40000001 18:0.01428571 27:0.14285713 181:0.33333334 944:1 1598:1 2110:0.5 2111:0.5 2146:0.5 2149:0.5 
-0.11030800448267294444626429594791 1:0.057692312 7:0.66666669 11:0.16666667 18:0.11428571 56:0.01639344 124:0.16666667 150:0.01333333 156:0.5 357:0.5 737:1 742:1 1037:1 1473:0.5 1476:1 1477:1 2121:0.5 2126:0.5 2130:0.5 2155:0.5 2158:0.5 2160:0.5 2168:0.5 2185:0.5 2195:0.5 2196:0.5 
-0.1000187552297283483104806123265 1:0.086538456 3:0.11111111 6:0.11111111 8:0.22222222 12:0.11111111 18:0.11428571 22:0.01219512 27:0.14285713 30:0.1 56:0.032786891 61:0.25 64:0.5 65:0.33333334 85:0.25 91:0.5 108:0.5 136:0.5 139:0.5 141:0.5 316:1 318:1 426:0.33333334 501:0.33333334 661:1 998:1 1690:1 2111:0.5 2122:0.5 2143:0.5 2146:0.5 2150:0.5 2156:0.5 2161:0.5 2185:0.5 2192:0.5 
-0.60765859766397700703066675487207 1:0.04807692 3:0.2 16:0.2 18:0.057142861 22:0.01219512 27:0.14285713 33:0.125 53:0.14285713 171:0.5 172:0.5 2112:0.5 2114:0.5 2118:0.5 2123:0.5 2143:0.5 2181:0.5 2182:0.5 
-0.27019917159239575932261345769803 1:0.03846154 2:0.5 6:0.5 13:0.25 18:0.2 29:0.1 30:0.1 40:0.33333334 43:0.1 100:0.25 196:0.25 366:0.5 467:0.5 2172:0.5 2174:0.5 2176:0.5 2178:0.5 2179:0.5 2180:0.5 2181:0.5 2182:0.5 
-0.10805315842028086203985282054418 1:0.086538456 5:0.33333334 7:0.33333334 9:0.33333334 18:0.1 19:0.2 259:1 322:0.75 521:1 1088:1 1247:1 2127:0.5 2141:0.5 2142:0.5 2148:0.5 2151:0.5 2171:0.5 2187:0.5 2190:0.5 
-0.26039249090942573339191312697949 1:0.01923077 2:1 7:0.5 18:0.04285714 38:0.33333334 40:0.33333334 43:0.1 222:0.33333334 588:1 2118:0.5 2122:0.5 2124:0.5 2146:0.5 2148:0.5 2149:0.5 
-0.2578916475121579843232666462427 1:0.01923077 6:0.5 18:0.1 30:0.1 96:0.33333334 1084:1 2112:0.5 2136:0.5 2143:0.5 2148:0.5 2150:0.5 2153:0.5 2158:0.5 2160:0.5 2161:0.5 
-0.40227187094424465829689552265336 1:0.0096153803 11:1 18:0.17142858 156:0.5 2129:0.5 2136:0.5 2154:0.5 2158:0.5 2160:0.5 2161:0.5 2181:0.5 
-0.39103189764351864443625572675955 1:0.0096153803 7:1 18:0.01428571 2110:0.5 2111:0.5 2112:0.5 2210:0.5 
-0.067490470333096921895510433841991 1:0.067307688 6:0.42857143 7:0.14285713 18:0.057142861 29:0.1 30:0.2 43:0.2 99:0.125 159:0.5 200:0.25 282:0.33333334 322:0.25 351:1 389:0.5 483:1 913:0.5 1025:0.5 2057:1 2121:0.5 2123:0.5 2126:0.5 2127:0.5 2155:0.5 2166:0.5 2190:0.5 
-1.4457244578211907448661577291205 1:0.0096153803 18:0.071428567 83:0.25 2118:0.5 2121:0.5 2122:0.5 2123:0.5 2124:0.5 2125:0.5 2126:0.5 2128:0.5 
-0.28253107538843252877214240470494 1:0.01923077 6:0.5 18:0.085714288 29:0.1 233:0.33333334 418:0.5 488:0.33333334 1595:1 2122:0.5 2127:0.5 2128:0.5 2132:0.5 2146:0.5 2148:0.5 2149:0.5 2150:0.5 
-0.053137170296599353647160057789733 1:0.15384614 3:0.0625 4:0.25 7:0.25 16:0.125 18:0.2 22:0.01219512 33:0.25 47:0.2 54:0.44444445 124:1 159:1 181:0.66666669 182:0.25 192:1 461:0.5 526:0.5 544:0.5 630:0.5 631:0.5 632:0.66666669 735:1 871:1 889:1 952:1 985:1 1218:1 1349:1 1366:1 1382:1 1475:0.5 1761:1 1851:1 1852:1 1853:1 1854:1 2121:0.5 2126:0.5 2130:0.5 2133:0.5 2137:0.5 2140:0.5 2144:0.5 2147:0.5 
-0.21413685121396561217288478928822 1:0.11538462 3:0.083333328 5:0.25 7:0.16666667 14:0.083333328 17:0.16666667 18:0.01428571 19:0.2 22:0.01219512 27:0.14285713 41:0.11111111 81:0.5 95:1 108:0.5 124:0.16666667 166:0.5 181:0.16666667 279:0.5 526:0.25 527:0.33333334 1696:1 1896:1 1897:1 1898:1 1899:1 2110:0.5 2112:0.5 2162:0.5 2163:0.5 2164:0.5 2210:0.5 
-0.10989595520552083995902137303347 1:0.03846154 7:0.25 9:0.5 18:0.04285714 75:0.5 181:0.16666667 315:1 654:1 685:1 686:1 2118:0.5 2122:0.5 2143:0.5 2146:0.5 2148:0.5 2150:0.5 2151:0.5 
-0.21985279361973805722918484661932 1:0.01923077 18:0.04285714 96:0.33333334 549:1 645:1 2114:0.5 2115:0.5 2118:0.5 2143:0.5 2146:0.5 2148:0.5 2149:0.5 2151:0.5 2153:0.5 
-0.15297310465492761077932470925589 1:0.03846154 4:0.25 7:0.25 17:0.25 18:0.028571431 43:0.2 54:0.11111111 119:0.25 557:1 763:1 1174:1 1541:1 1544:1 2110:0.5 2111:0.5 2143:0.5 2149:0.5 2164:0.5 2183:0.5 
-0.12451791751670747421254503706223 1:0.02884615 9:0.33333334 17:0.33333334 18:0.1 43:0.1 74:0.25 75:0.25 186:0.25 262:0.25 2047:1 2048:1 2121:0.5 2126:0.5 2129:0.5 2130:0.5 2158:0.5 2160:0.5 2161:0.5 2177:0.5 
-0.1685012113751839513131614012309 1:0.04807692 3:0.2 5:0.2 13:0.2 17:0.2 18:0.085714288 19:0.06666667 22:0.01219512 69:0.5 84:0.25 280:0.33333334 396:1 467:0.5 484:1 670:1 2121:0.5 2123:0.5 2127:0.5 2128:0.5 2150:0.5 2155:0.5 2156:0.5 2164:0.5 2216:0.5 
-0.26660534694720317006044751906302 1:0.02884615 7:0.33333334 18:0.1 108:0.5 181:0.16666667 439:0.5 1747:1 2123:0.5 2127:0.5 2128:0.5 2153:0.5 2155:0.5 2156:0.5 2164:0.5 2187:0.5 
-0.12146778346255493463701213840977 1:0.03846154 7:0.25 18:0.21428572 43:0.1 74:0.25 75:0.25 186:0.25 237:0.33333334 262:0.25 321:0.33333334 2119:0.5 2124:0.5 2143:0.5 2146:0.5 2155:0.5 2158:0.5 2175:0.5 2177:0.5 
-0.19264962127975235328669612044905 1:0.03846154 8:0.5 14:0.25 17:0.25 18:0.04285714 27:0.14285713 41:0.11111111 56:0.01639344 64:0.5 84:0.25 93:0.33333334 110:0.5 139:0.5 141:0.5 2118:0.5 2122:0.5 2148:0.5 2150:0.5 2151:0.5 2163:0.5 
-0.13096341069957204150675522669189 1:0.01923077 9:0.5 18:0.11428571 43:0.1 74:0.25 75:0.25 1958:1 2121:0.5 2126:0.5 2130:0.5 2155:0.5 2168:0.5 2173:0.5 2185:0.5 2194:0.5 
-0.18459578211721922036403498168511 1:0.01923077 6:0.5 18:0.04285714 29:0.1 108:0.5 401:1 2118:0.5 2122:0.5 2150:0.5 2153:0.5 2164:0.5 2210:0.5 
-0.82178424475148603711716077668825 1:0.01923077 5:0.5 18:0.11428571 19:0.06666667 108:0.5 279:0.5 2131:0.5 2135:0.5 2141:0.5 2148:0.5 2149:0.5 2150:0.5 2151:0.5 2177:0.5 
-0.1346388008765923016696319791663 1:0.04807692 2:0.40000001 5:0.2 7:0.60000002 18:0.01428571 19:0.06666667 38:0.33333334 40:0.33333334 43:0.1 181:0.16666667 222:0.33333334 266:1 357:0.125 364:0.5 365:0.5 791:1 2110:0.5 2112:0.5 2143:0.5 2162:0.5 
-0.11525667470952413729001762021653 1:0.03846154 3:0.25 5:0.25 6:0.25 18:0.028571431 19:0.06666667 22:0.01219512 30:0.1 96:0.33333334 210:0.33333334 251:1 393:1 2110:0.5 2111:0.5 2131:0.5 2134:0.5 2143:0.5 2146:0.5 
-0.141451456552381171771770596024 1:0.067307688 6:0.2857143 9:0.2857143 16:0.2857143 18:0.04285714 28:0.5 29:0.2 33:0.25 43:0.2 75:0.5 96:0.33333334 144:0.5 200:0.25 465:1 655:1 990:1 2118:0.5 2122:0.5 2124:0.5 2129:0.5 2148:0.5 2149:0.5 2151:0.5 
-0.099804085112238080657043326482381 1:0.057692312 4:0.16666667 6:0.16666667 7:0.33333334 18:0.1 27:0.14285713 30:0.1 54:0.11111111 115:0.33333334 252:1 298:1 322:0.5 790:0.5 871:0.5 1357:0.5 1710:1 2110:0.5 2114:0.5 2118:0.5 2121:0.5 2123:0.5 2126:0.5 2130:0.5 2145:0.5 
-0.1966828693667871663652846336845 1:0.0096153803 7:1 18:0.15714286 797:1 2115:0.5 2143:0.5 2146:0.5 2148:0.5 2171:0.5 2192:0.5 2194:0.5 2196:0.5 
-0.066586678819360686776285263022146 1:0.02884615 2:0.66666669 7:0.66666669 18:0.085714288 38:0.33333334 40:0.33333334 43:0.1 222:0.33333334 357:0.125 364:0.5 365:0.5 2110:0.5 2112:0.5 2131:0.5 2162:0.5 2185:0.5 2192:0.5 2194:0.5 2210:0.5 
-0.057279442197127827807179301089491 1:0.03846154 12:0.25 14:0.25 17:0.25 18:0.057142861 41:0.11111111 65:0.33333334 84:0.25 85:0.25 93:0.33333334 318:1 514:0.5 518:1 1241:1 2118:0.5 2122:0.5 2123:0.5 2150:0.5 2151:0.5 2153:0.5 2163:0.5 
-0.023848856174947277025699676755721 1:0.067307688 5:0.42857143 7:0.2857143 18:0.01428571 19:0.2 23:0.14285713 27:0.14285713 62:0.5 81:0.5 124:0.16666667 150:0.01333333 181:0.16666667 317:1 1351:1 1475:0.5 1896:1 1899:1 1962:1 2112:0.5 2143:0.5 2149:0.5 2162:0.5 2182:0.5 
-0.15973678240365454805704814589262 1:0.02884615 2:0.66666669 17:0.33333334 18:0.1 40:0.33333334 680:1 1412:1 1413:1 2119:0.5 2124:0.5 2132:0.5 2134:0.5 2136:0.5 2143:0.5 2146:0.5 2173:0.5 
-0.12228279815260889584749293135246 1:0.01923077 12:0.5 18:0.028571431 26:0.5 85:0.25 1303:1 2111:0.5 2114:0.5 2143:0.5 2146:0.5 2149:0.5 2170:0.5 
-0.052741092103853394468249149440453 1:0.11538462 3:0.083333328 4:0.083333328 5:0.083333328 9:0.16666667 13:0.083333328 17:0.083333328 18:0.071428567 19:0.06666667 22:0.01219512 27:0.14285713 43:0.30000001 54:0.11111111 66:0.66666669 69:0.5 73:1 74:0.25 75:0.25 84:0.25 142:0.25 144:0.5 189:0.16666667 257:0.5 258:0.5 280:0.33333334 385:0.5 396:1 467:0.5 484:1 670:1 736:1 939:1 2121:0.5 2126:0.5 2128:0.5 2130:0.5 2132:0.5 2133:0.5 2155:0.5 2158:0.5 2160:0.5 2192:0.5 
-0.067474938658039065875193784904695 1:0.086538456 5:0.33333334 6:0.11111111 8:0.22222222 14:0.11111111 18:0.01428571 19:0.2 23:0.14285713 29:0.1 41:0.11111111 64:0.5 490:1 673:0.5 708:1 709:1 1251:1 1709:1 1785:1 1786:1 1787:1 2110:0.5 2112:0.5 2162:0.5 2179:0.5 
-0.41623585891759312671567272445827 1:0.0096153803 18:0.04285714 83:0.25 2118:0.5 2122:0.5 2124:0.5 2125:0.5 2154:0.5 
-0.049309103688748696925348014019619 1:0.125 2:0.15384616 4:0.07692308 5:0.23076923 9:0.07692308 14:0.23076923 17:0.15384614 18:0.01428571 19:0.2 27:0.14285713 40:0.33333334 41:0.33333334 43:0.30000001 45:0.5 54:0.11111111 84:0.25 93:0.33333334 105:1 148:0.2 150:0.01333333 189:0.16666667 209:0.2 247:0.5 263:0.5 282:0.33333334 349:0.33333334 352:0.5 366:0.5 516:1 606:1 665:1 905:1 906:1 2110:0.5 2112:0.5 2162:0.5 2163:0.5 
-0.038691290606554767927960369888751 1:0.38461539 3:0.5 4:0.1 16:0.15000001 18:0.14285713 22:0.24390244 27:0.71428573 33:0.75 42:0.11111111 43:0.2 44:0.18461537 46:0.25 47:0.2 48:0.16666667 51:0.25 53:0.5714286 54:0.44444445 55:0.5 61:0.25 124:0.33333334 133:0.16666667 190:1 233:0.66666669 283:0.5 413:0.5 414:0.5 424:0.5 524:0.5 526:0.5 536:1 539:0.66666669 638:1 639:1 640:1 641:1 950:0.5 952:0.25 1167:1 1861:1 1995:1 2072:1 2073:1 2074:1 2075:1 2076:1 2077:1 2078:1 2121:0.5 2126:0.5 2130:0.5 2133:0.5 2137:0.5 2140:0.5 2144:0.5 2147:0.5 
-0.48979815835492152009678079593868 1:0.01923077 18:0.057142861 69:0.5 389:0.5 1288:1 2111:0.5 2118:0.5 2122:0.5 2123:0.5 2143:0.5 2146:0.5 2150:0.5 
-0.20136900561754136895764588643942 1:0.01923077 2:1 7:0.5 18:0.04285714 38:0.33333334 39:0.5 40:0.33333334 2118:0.5 2122:0.5 2124:0.5 2146:0.5 2148:0.5 2149:0.5 
-0.24782011038174431294400790193322 1:0.03846154 7:0.75 18:0.1 38:0.33333334 322:0.5 789:0.33333334 790:0.5 1155:0.5 1157:0.5 2121:0.5 2126:0.5 2130:0.5 2136:0.5 2158:0.5 2160:0.5 2161:0.5 2168:0.5 
-0.090024933071987112143119702523109 1:0.057692312 3:0.16666667 5:0.16666667 18:0.057142861 19:0.06666667 21:0.33333334 22:0.01219512 61:0.25 82:0.5 96:0.33333334 108:0.5 128:1 501:0.33333334 661:1 1599:1 2118:0.5 2122:0.5 2123:0.5 2146:0.5 2148:0.5 2149:0.5 2150:0.5 
-0.17938645531061786497772914117377 1:0.03846154 6:0.25 9:0.25 18:0.21428572 27:0.14285713 29:0.1 66:0.33333334 142:0.25 257:0.5 387:0.5 1062:1 2121:0.5 2122:0.5 2126:0.5 2129:0.5 2130:0.5 2132:0.5 2158:0.5 2185:0.5 
-0.12015328611816733506145737919724 1:0.03846154 5:0.25 9:0.25 17:0.25 18:0.11428571 19:0.06666667 43:0.1 75:0.25 144:0.5 186:0.25 189:0.16666667 404:1 1539:1 1540:1 2121:0.5 2126:0.5 2127:0.5 2129:0.5 2130:0.5 2155:0.5 2161:0.5 2185:0.5 2194:0.5 
-0.12873860319913499328237094232463 1:0.01923077 7:0.5 18:0.01428571 43:0.2 1840:1 1864:1 1909:1 1926:1 2050:1 2162:0.5 2163:0.5 2182:0.5 2210:0.5 2212:0.5 
-0.42766900975047494881664533750154 1:0.0096153803 18:0.028571431 27:0.14285713 2110:0.5 2111:0.5 2114:0.5 2146:0.5 2149:0.5 
-0.27745463358202321346723806527734 1:0.01923077 18:0.085714288 83:0.25 150:0.01333333 158:0.5 439:0.5 1081:1 2121:0.5 2126:0.5 2129:0.5 2130:0.5 2136:0.5 2158:0.5 2160:0.5 2161:0.5 
-0.221518483210530636728918807421 1:0.03846154 14:0.25 17:0.25 18:0.1 27:0.14285713 41:0.11111111 67:0.5 69:0.5 84:0.25 93:0.33333334 110:0.5 2122:0.5 2127:0.5 2128:0.5 2132:0.5 2148:0.5 2150:0.5 2151:0.5 2163:0.5 
-0.070291657687126557485512989842391 1:0.10576923 2:0.36363637 5:0.27272728 7:0.36363637 14:0.18181819 18:0.01428571 19:0.2 38:0.33333334 39:0.5 40:0.66666669 41:0.22222222 105:0.5 166:0.5 181:0.16666667 224:0.5 357:0.25 365:0.5 589:1 823:1 922:1 1141:0.5 1245:1 1859:1 1860:1 2110:0.5 2112:0.5 2181:0.5 2210:0.5 
-0.95754709625065870248761257244041 18:0.1 181:0.16666667 2121:0.5 2126:0.5 2130:0.5 2133:0.5 2158:0.5 2160:0.5 2161:0.5 2185:0.5 
-0.06201034919060902095289122826216 1:0.03846154 7:0.25 9:0.25 18:0.1 43:0.1 66:0.33333334 73:1 74:0.25 75:0.25 237:0.33333334 331:1 2121:0.5 2124:0.5 2125:0.5 2126:0.5 2136:0.5 2155:0.5 2158:0.5 2161:0.5 
-0.10427109838983662781775052508237 1:0.03846154 7:0.25 9:0.25 18:0.11428571 43:0.2 74:0.25 75:0.25 186:0.25 237:0.33333334 262:0.25 321:0.33333334 382:0.5 383:0.5 384:1 2121:0.5 2126:0.5 2127:0.5 2129:0.5 2130:0.5 2155:0.5 2185:0.5 2194:0.5 2196:0.5 
-0.24471689118110018235086045024218 1:0.0096153803 4:1 18:0.14285713 54:0.11111111 2122:0.5 2146:0.5 2148:0.5 2149:0.5 2150:0.5 2185:0.5 2194:0.5 2219:0.5 
-0.27986292675509816252343853193452 1:0.02884615 9:0.33333334 18:0.01428571 27:0.14285713 66:0.33333334 142:0.25 257:0.5 258:0.5 2150:0.5 2162:0.5 2165:0.5 2212:0.5 
-0.035751102989387606445603751126328 1:0.14423077 4:0.13333333 5:0.06666667 6:0.2 7:0.13333333 8:0.26666665 9:0.06666667 17:0.13333333 18:0.085714288 19:0.06666667 30:0.30000001 43:0.40000001 54:0.22222222 56:0.01639344 64:1 83:0.25 84:0.5 150:0.01333333 158:0.5 159:0.5 189:0.16666667 196:0.5 237:0.33333334 284:0.5 322:0.25 343:0.5 346:1 349:0.33333334 352:0.5 386:0.5 483:1 510:1 712:1 745:1 1025:0.5 1168:1 1260:1 1295:1 1435:1 1436:1 2121:0.5 2126:0.5 2130:0.5 2133:0.5 2136:0.5 2155:0.5 2160:0.5 2161:0.5 2173:0.5 2175:0.5 2194:0.5 
-0.042932565668795413804659233392158 1:0.086538456 5:0.11111111 6:0.22222222 7:0.11111111 8:0.22222222 9:0.11111111 14:0.11111111 17:0.11111111 18:0.44285715 19:0.06666667 30:0.2 41:0.11111111 43:0.30000001 64:0.5 84:0.25 88:0.5 166:0.5 196:0.25 199:0.33333334 282:0.33333334 322:0.25 346:0.5 349:0.33333334 351:1 352:0.5 483:1 913:0.5 934:1 1436:1 2157:0.5 2161:0.5 2168:0.5 2171:0.5 2177:0.5 2192:0.5 
-0.048886316772789366325024928983112 1:0.10576923 14:0.090909094 17:0.090909094 18:0.04285714 27:0.42857143 41:0.11111111 43:0.1 66:0.33333334 67:0.5 69:0.5 75:0.25 84:0.25 93:0.33333334 110:0.5 123:0.5 142:0.25 257:0.5 258:0.5 330:1 332:1 736:1 2118:0.5 2121:0.5 2122:0.5 2126:0.5 2129:0.5 2130:0.5 
-0.20257469857580218119963433309749 1:0.02884615 5:0.33333334 18:0.1 19:0.06666667 27:0.14285713 62:0.5 142:0.25 257:0.5 2128:0.5 2129:0.5 2132:0.5 2155:0.5 2157:0.5 2174:0.5 
-0.025997782760581594763138468806574 1:0.35576922 3:0.35135135 5:0.13513514 6:0.02702703 12:0.02702703 14:0.1891892 17:0.02702703 18:0.22857143 19:0.33333334 21:0.33333334 22:0.15853658 30:0.1 41:0.77777779 43:0.1 44:0.10769231 52:0.40000001 56:0.01639344 58:0.2 61:0.5 65:0.33333334 84:0.25 85:0.25 89:0.5 93:0.33333334 104:0.5 105:1 108:1 109:0.5 113:0.5 117:0.25 120:0.33333334 123:0.5 124:0.33333334 137:0.5 165:1 167:1 174:0.25 224:0.5 233:0.33333334 244:0.33333334 279:0.5 280:0.33333334 360:1 394:1 430:1 531:1 555:1 597:1 598:1 1330:1 1331:1 1526:1 1548:1 1668:1 2174:0.5 2176:0.5 2178:0.5 2179:0.5 2180:0.5 2181:0.5 2182:0.5 2183:0.5 
-0.22587945701304776302542620669556 1:0.03846154 7:1 18:0.071428567 2123:0.5 2127:0.5 2148:0.5 2149:0.5 2150:0.5 2151:0.5 2171:0.5 2202:0.5 
-0.12597520956805344227724674510682 1:0.04807692 14:0.2 17:0.2 18:0.32857144 41:0.11111111 43:0.1 118:0.5 150:0.01333333 286:0.5 1007:1 2140:0.5 2144:0.5 2147:0.5 2201:0.5 2207:0.5 
-0.046308742445217029870541125546879 1:0.07692308 7:0.125 9:0.375 13:0.125 18:0.085714288 27:0.14285713 43:0.30000001 66:0.66666669 69:0.5 73:1 74:0.25 75:0.25 142:0.25 144:0.5 237:0.33333334 257:0.5 258:0.5 331:1 385:0.5 467:0.5 713:0.5 736:1 1957:1 2112:0.5 2115:0.5 2118:0.5 2122:0.5 2123:0.5 2143:0.5 2148:0.5 2149:0.5 2153:0.5 2164:0.5 2168:0.5 2171:0.5 2202:0.5 
-0.010023609596173575081445861201246 1:0.15384614 2:0.125 3:0.0625 4:0.0625 5:0.125 6:0.0625 7:0.25 14:0.1875 18:0.01428571 19:0.13333333 22:0.01219512 27:0.2857143 30:0.1 38:0.33333334 39:0.5 40:0.33333334 41:0.33333334 43:0.40000001 52:0.2 54:0.11111111 55:0.16666667 56:0.032786891 62:0.5 81:1 96:0.33333334 119:0.25 123:0.5 161:1 181:0.16666667 188:0.5 221:0.2 357:0.125 364:0.5 366:0.5 380:1 411:1 431:0.33333334 456:1 465:1 841:1 987:0.5 1397:1 1778:1 2112:0.5 2117:0.5 2162:0.5 2182:0.5 
-0.090265047364729969481267346509412 1:0.03846154 2:0.5 7:0.75 18:0.01428571 38:0.33333334 40:0.33333334 43:0.1 181:0.33333334 194:1 219:1 221:0.2 222:0.33333334 2110:0.5 2120:0.5 2162:0.5 2179:0.5 
-0.19391739804866064966759608978464 1:0.01923077 2:1 7:0.5 18:0.057142861 38:0.33333334 40:0.33333334 43:0.1 222:0.33333334 588:1 2110:0.5 2112:0.5 2113:0.5 2123:0.5 2131:0.5 2135:0.5 2162:0.5 
-0.2482248175791723354688400604573 1:0.01923077 2:1 7:0.5 18:0.071428567 38:0.33333334 39:0.5 40:0.33333334 2122:0.5 2123:0.5 2124:0.5 2127:0.5 2128:0.5 2146:0.5 2148:0.5 2149:0.5 
-0.0074765980508053973135895731161327 1:0.03846154 14:0.25 17:0.25 18:0.071428567 27:0.14285713 41:0.11111111 67:0.5 69:0.5 84:0.25 93:0.33333334 110:0.5 2123:0.5 2127:0.5 2128:0.5 2131:0.5 2150:0.5 2151:0.5 2152:0.5 2153:0.5 
-0.049782379785249832038207529194551 1:0.02884615 14:0.33333334 17:0.33333334 18:0.04285714 41:0.11111111 84:0.25 93:0.33333334 472:0.5 755:1 2112:0.5 2118:0.5 2122:0.5 2143:0.5 2150:0.5 2166:0.5 
-0.072919586880478337587163650823641 1:0.03846154 7:0.25 9:0.5 18:0.071428567 43:0.1 259:0.66666669 282:0.33333334 322:0.25 483:1 806:1 1088:0.5 2112:0.5 2128:0.5 2132:0.5 2143:0.5 2155:0.5 2156:0.5 2158:0.5 2166:0.5 
-0.0081370245119937612693350459380781 1:0.03846154 5:0.25 18:0.04285714 19:0.06666667 27:0.14285713 62:0.5 65:0.33333334 67:0.5 69:0.5 485:1 2115:0.5 2118:0.5 2122:0.5 2146:0.5 2148:0.5 2149:0.5 
-0.078775528435857444797818516235566 1:0.04807692 6:0.40000001 7:0.2 9:0.2 18:0.11428571 29:0.1 30:0.1 43:0.2 181:0.16666667 200:0.25 221:0.2 282:0.33333334 338:0.25 349:0.33333334 352:0.5 913:0.5 1010:1 2121:0.5 2126:0.5 2128:0.5 2129:0.5 2130:0.5 2132:0.5 2155:0.5 2158:0.5 
-0.015357758176396632543436737705633 1:0.01923077 12:0.5 17:0.5 18:0.028571431 84:0.25 85:0.25 86:1 2114:0.5 2115:0.5 2121:0.5 2125:0.5 2126:0.5 
-0.11928978252346170152442539347248 1:0.0096153803 18:0.1 391:0.5 2122:0.5 2123:0.5 2127:0.5 2128:0.5 2150:0.5 2153:0.5 2164:0.5 2179:0.5 
-0.08327017082001846037808689970916 1:0.02884615 2:0.66666669 7:0.33333334 17:0.33333334 18:0.11428571 38:0.33333334 39:0.5 40:0.33333334 2121:0.5 2126:0.5 2130:0.5 2133:0.5 2155:0.5 2158:0.5 2160:0.5 2161:0.5 2185:0.5 
-0.36856303846906429688701223312819 1:0.0096153803 18:0.057142861 389:0.5 2117:0.5 2118:0.5 2122:0.5 2123:0.5 2151:0.5 2153:0.5 2156:0.5 
-0.066779071191311753508124127165502 1:0.03846154 8:0.5 12:0.25 18:0.057142861 27:0.14285713 56:0.01639344 64:0.5 78:0.33333334 85:0.25 91:0.5 139:0.5 141:0.5 1689:1 2112:0.5 2118:0.5 2122:0.5 2123:0.5 2143:0.5 2150:0.5 2153:0.5 
-0.038346382376440155126395836759912 1:0.067307688 4:0.71428573 18:0.071428567 54:0.55555558 83:0.25 133:0.5 150:0.01333333 273:1 283:0.5 284:0.5 1311:1 1312:1 1313:1 1314:1 2122:0.5 2123:0.5 2128:0.5 2135:0.5 2143:0.5 2146:0.5 2148:0.5 2149:0.5 2150:0.5 2153:0.5 
-0.0088242732988304661140288587262148 1:0.13461538 5:0.071428567 6:0.14285713 7:0.21428572 8:0.14285713 9:0.071428567 18:0.15714286 19:0.06666667 27:0.2857143 30:0.2 38:0.33333334 43:0.30000001 56:0.01639344 62:0.5 64:0.5 65:0.33333334 74:0.25 75:0.25 139:0.5 141:0.5 142:0.25 181:0.16666667 186:0.25 199:0.33333334 222:0.33333334 257:0.5 304:1 305:1 332:1 357:0.125 364:0.5 485:1 705:1 736:1 902:1 1148:1 1286:1 1298:1 2121:0.5 2148:0.5 2151:0.5 2156:0.5 2158:0.5 2164:0.5 2168:0.5 2171:0.5 2175:0.5 2185:0.5 2192:0.5 2196:0.5 
-0.034364370915155893759784788699108 1:0.03846154 7:0.25 18:0.071428567 38:0.33333334 124:0.16666667 142:0.25 233:0.33333334 549:1 1460:1 2122:0.5 2123:0.5 2127:0.5 2128:0.5 2165:0.5 2167:0.5 2169:0.5 2170:0.5 
-0.13161080742905434393108521362592 1:0.02884615 5:0.33333334 7:0.33333334 13:0.33333334 18:0.1 19:0.06666667 467:0.5 582:0.5 1537:1 1538:1 2121:0.5 2122:0.5 2125:0.5 2126:0.5 2136:0.5 2156:0.5 2158:0.5 2161:0.5 2192:0.5 
-0.2085760855708882754999677899832 1:0.03846154 7:0.25 18:0.14285713 43:0.1 66:0.33333334 186:0.25 237:0.33333334 262:0.25 321:0.33333334 385:0.5 2121:0.5 2126:0.5 2129:0.5 2130:0.5 2155:0.5 2158:0.5 2161:0.5 2196:0.5 
-0.036967251863769902409107004359612 1:0.057692312 5:0.16666667 18:0.47142857 19:0.06666667 43:0.1 61:0.25 96:0.33333334 97:0.5 118:0.5 121:1 282:0.66666669 848:1 913:0.5 1185:1 1565:1 2144:0.5 2147:0.5 2179:0.5 2180:0.5 2181:0.5 2182:0.5 2183:0.5 2184:0.5 
-0.22218672343221482212705097936123 1:0.0096153803 18:0.11428571 781:0.5 2115:0.5 2146:0.5 2148:0.5 2149:0.5 2161:0.5 2171:0.5 2185:0.5 2192:0.5 
-0.048644691425296072984085782309194 1:0.02884615 14:0.33333334 17:0.33333334 18:0.071428567 41:0.11111111 65:0.33333334 84:0.25 93:0.33333334 514:0.5 517:1 691:1 2112:0.5 2128:0.5 2132:0.5 2143:0.5 2150:0.5 2153:0.5 2155:0.5 2158:0.5 
-0.007261228582973231100716748898094 1:0.26923078 3:0.21428572 5:0.035714291 9:0.035714291 12:0.14285713 14:0.035714291 17:0.071428567 18:0.085714288 19:0.06666667 20:0.2 22:0.073170729 25:1 26:0.5 27:1 41:0.11111111 43:0.2 44:0.061538462 55:0.16666667 61:0.25 65:0.33333334 67:0.5 69:0.5 74:0.25 75:0.25 84:0.5 85:1 86:1 89:0.5 90:1 91:1 93:0.33333334 94:1 96:0.33333334 110:0.5 123:0.5 142:0.25 257:0.5 316:1 318:1 324:0.5 332:1 736:1 845:1 1120:1 1721:1 2128:0.5 2132:0.5 2134:0.5 2135:0.5 2157:0.5 2182:0.5 
-0.048867332582464798051979926185595 1:0.02884615 18:0.04285714 27:0.14285713 78:0.33333334 142:0.25 257:0.5 264:0.5 2111:0.5 2118:0.5 2122:0.5 2146:0.5 2163:0.5 2168:0.5 
-0.19188506520066433980176157092501 1:0.0096153803 15:1 18:0.071428567 76:1 2123:0.5 2127:0.5 2128:0.5 2131:0.5 
-0.019215145411499195277071905252342 1:0.03846154 5:0.25 9:0.5 18:0.14285713 19:0.06666667 66:0.33333334 75:0.25 142:0.25 149:1 274:1 922:0.5 1249:1 1250:1 2129:0.5 2157:0.5 2172:0.5 2174:0.5 2176:0.5 2178:0.5 
-0.012436145810625324689691062474139 1:0.096153848 7:0.60000002 11:0.2 18:0.085714288 38:0.66666669 124:0.33333334 150:0.026666669 152:1 156:1 181:0.33333334 322:0.5 789:0.66666669 1475:1 2088:1 2089:1 2090:1 2091:1 2121:0.5 2126:0.5 2128:0.5 2130:0.5 2132:0.5 2158:0.5 2160:0.5 2168:0.5 2217:0.5 
-0.0011725788144769002784711942055651 1:0.02884615 3:0.33333334 7:0.33333334 14:0.33333334 18:0.2 22:0.01219512 38:0.33333334 41:0.11111111 398:1 399:1 2131:0.5 2152:0.5 2158:0.5 2161:0.5 2180:0.5 2181:0.5 2182:0.5 2185:0.5 
-0.22790178237708588748766658227396 1:0.0096153803 18:0.11428571 83:0.25 2121:0.5 2124:0.5 2125:0.5 2126:0.5 2158:0.5 2160:0.5 2161:0.5 2185:0.5 
-0.019636387331593219834902086518014 1:0.096153848 7:0.80000001 11:0.2 18:0.071428567 150:0.026666669 152:1 156:1 357:1 1473:1 2003:1 2121:0.5 2126:0.5 2128:0.5 2130:0.5 2132:0.5 2155:0.5 2158:0.5 2160:0.5 2168:0.5 
-0.02055912520006413987672111431948 1:0.03846154 7:0.25 9:0.25 18:0.057142861 65:0.33333334 259:0.33333334 322:0.25 662:1 1406:1 1801:1 2123:0.5 2127:0.5 2155:0.5 2156:0.5 2163:0.5 2188:0.5 2189:0.5 
-0.021183803749616997996740863641207 1:0.067307688 6:0.42857143 7:0.2857143 9:0.14285713 18:0.04285714 30:0.30000001 38:0.33333334 43:0.30000001 99:0.125 196:0.25 199:0.33333334 222:0.33333334 349:0.33333334 352:0.5 357:0.125 364:0.5 439:0.5 446:1 610:1 1286:1 2118:0.5 2122:0.5 2168:0.5 2179:0.5 2180:0.5 2181:0.5 
-0.1015800218143095706713197046156 1:0.03846154 7:0.25 9:0.5 18:0.057142861 43:0.1 75:0.25 259:0.33333334 357:0.125 495:0.5 496:1 836:1 837:1 838:1 2121:0.5 2123:0.5 2126:0.5 2127:0.5 2155:0.5 2156:0.5 2189:0.5 
-0.019887480624081965707716790348059 1:0.04807692 5:0.2 9:0.40000001 18:0.085714288 19:0.06666667 43:0.1 74:0.25 75:0.25 148:0.2 186:0.25 282:0.33333334 349:0.33333334 535:1 1280:1 1281:1 2111:0.5 2112:0.5 2136:0.5 2143:0.5 2158:0.5 2160:0.5 2161:0.5 2217:0.5 
-0.021761268036608220205474495401177 1:0.01923077 7:0.5 14:0.5 18:0.057142861 41:0.11111111 181:0.16666667 1465:1 2121:0.5 2123:0.5 2126:0.5 2127:0.5 2130:0.5 2133:0.5 2134:0.5 
0.086834267080070928757074000259308 1:0.096153848 5:0.2 7:0.1 13:0.2 17:0.1 18:0.01428571 19:0.13333333 84:0.25 88:0.5 96:0.33333334 108:0.5 314:1 315:1 322:0.25 383:0.5 467:1 484:1 583:1 670:1 1499:1 1568:1 1569:1 1570:1 2112:0.5 2143:0.5 2162:0.5 2182:0.5 
-0.0095192607413892883772010833354216 1:0.057692312 7:0.16666667 9:0.16666667 14:0.16666667 18:0.01428571 38:0.33333334 41:0.11111111 43:0.2 74:0.25 75:0.25 115:0.33333334 123:0.5 124:0.16666667 144:0.5 150:0.01333333 222:0.33333334 243:0.5 245:0.5 249:1 505:1 781:0.5 963:1 2110:0.5 2112:0.5 2143:0.5 2149:0.5 2162:0.5 
-0.0031680844492803683816462001487935 1:0.07692308 7:0.25 9:0.25 18:0.071428567 38:0.33333334 43:0.30000001 56:0.01639344 71:0.5 74:0.25 75:0.5 144:0.5 186:0.25 259:0.33333334 262:0.25 383:0.5 384:1 450:0.5 469:1 496:1 1287:1 1402:1 1803:1 2121:0.5 2123:0.5 2126:0.5 2127:0.5 2128:0.5 2130:0.5 2133:0.5 2155:0.5 
-0.006700306311190174814174103090636 1:0.03846154 5:0.25 16:0.25 18:0.04285714 19:0.06666667 33:0.125 233:0.33333334 375:1 454:1 1032:1 2114:0.5 2118:0.5 2148:0.5 2150:0.5 2153:0.5 2164:0.5 2179:0.5 
-0.20718063165957520399551583523134 1:0.03846154 7:0.25 18:0.085714288 43:0.1 74:0.25 75:0.25 186:0.25 237:0.33333334 262:0.25 321:0.33333334 2121:0.5 2126:0.5 2128:0.5 2129:0.5 2130:0.5 2132:0.5 2155:0.5 2158:0.5 
-0.042126872160876550899022419116591 1:0.02884615 5:0.66666669 16:0.33333334 18:0.01428571 19:0.13333333 23:0.14285713 33:0.125 454:1 2112:0.5 2143:0.5 2181:0.5 2182:0.5 
-0.075526802174186308258541089344362 1:0.01923077 2:1 7:0.5 18:0.071428567 38:0.33333334 39:0.5 40:0.33333334 2123:0.5 2127:0.5 2128:0.5 2131:0.5 2148:0.5 2150:0.5 2151:0.5 2152:0.5 
-0.053070602899366312033002657244651 1:0.02884615 14:0.33333334 17:0.33333334 18:0.057142861 41:0.11111111 84:0.25 93:0.33333334 472:0.5 755:1 2121:0.5 2123:0.5 2126:0.5 2127:0.5 2130:0.5 2150:0.5 2171:0.5 
-0.0073539188193020499015317703594974 1:0.067307688 5:0.14285713 7:0.2857143 9:0.2857143 11:0.14285713 18:0.057142861 19:0.06666667 43:0.2 71:0.5 74:0.25 75:0.25 144:0.5 145:1 148:0.2 156:0.5 233:0.33333334 237:0.33333334 259:0.33333334 382:0.5 522:1 528:1 529:1 2121:0.5 2123:0.5 2126:0.5 2127:0.5 2129:0.5 2130:0.5 2155:0.5 
-0.022398978545610463003479040366983 1:0.02884615 5:0.33333334 18:0.04285714 19:0.06666667 108:0.5 314:1 315:1 598:1 2115:0.5 2118:0.5 2121:0.5 2122:0.5 2148:0.5 2151:0.5 
-0.034807494405279179594536742570199 1:0.13461538 6:0.14285713 7:0.35714287 9:0.14285713 11:0.071428567 16:0.071428567 18:0.028571431 29:0.2 33:0.125 38:0.33333334 43:0.1 66:0.33333334 71:0.5 72:1 73:1 74:0.25 75:0.25 124:0.33333334 156:0.5 322:0.25 417:0.5 418:1 501:0.33333334 591:1 593:1 594:1 595:0.66666669 596:0.66666669 732:1 1369:1 1370:1 1371:1 1372:1 1373:1 1374:1 1375:1 1376:1 1377:1 1378:1 2110:0.5 2155:0.5 2162:0.5 2210:0.5 2212:0.5 
-0.010490500125802697944932262430484 1:0.057692312 4:0.33333334 6:0.33333334 18:0.04285714 29:0.2 54:0.22222222 403:1 463:0.5 513:1 514:0.5 899:0.5 1448:1 1816:1 2114:0.5 2118:0.5 2148:0.5 2150:0.5 2151:0.5 2163:0.5 2187:0.5 
-0.037742849817488578756385919632521 1:0.01923077 9:1 18:0.18571429 43:0.1 66:0.33333334 73:1 74:0.25 75:0.25 2122:0.5 2127:0.5 2129:0.5 2157:0.5 2176:0.5 2178:0.5 
-0.0099408975627133262104040412054928 1:0.125 3:0.23076923 5:0.07692308 7:0.07692308 14:0.30769232 18:0.085714288 19:0.06666667 21:0.33333334 22:0.036585368 41:0.44444445 43:0.1 44:0.01538462 52:0.2 65:0.33333334 96:0.33333334 105:0.5 108:1 109:0.5 181:0.16666667 224:0.5 394:1 497:0.5 574:1 575:0.5 576:1 577:1 2122:0.5 2123:0.5 2127:0.5 2145:0.5 2179:0.5 2180:0.5 2181:0.5 2182:0.5 
-0.075893949589904793895378531942697 1:0.0096153803 18:0.1 83:0.25 2121:0.5 2126:0.5 2129:0.5 2130:0.5 2136:0.5 2155:0.5 2158:0.5 2161:0.5 
-0.0093575021425825102155959811511821 1:0.057692312 8:0.33333334 14:0.16666667 17:0.16666667 18:0.071428567 27:0.14285713 41:0.11111111 64:0.5 84:0.25 95:1 96:0.33333334 329:1 346:0.5 1068:1 2121:0.5 2122:0.5 2123:0.5 2127:0.5 2128:0.5 2148:0.5 2150:0.5 2151:0.5 
-0.033592032514897202100101480937155 1:0.01923077 6:0.5 16:0.5 18:0.04285714 28:0.25 29:0.1 33:0.125 2114:0.5 2118:0.5 2129:0.5 2143:0.5 2146:0.5 2148:0.5 
-0.0048244575442466797188245664074202 1:0.057692312 7:0.66666669 11:0.16666667 18:0.071428567 56:0.01639344 124:0.16666667 150:0.01333333 156:0.5 181:0.16666667 322:0.25 357:0.25 737:1 742:1 1037:1 1473:0.16666667 1474:0.33333334 1475:0.5 1476:1 1477:1 2128:0.5 2132:0.5 2148:0.5 2150:0.5 2153:0.5 2155:0.5 2158:0.5 2160:0.5 2163:0.5 2188:0.5 
-0.0060783431442479017581259626012979 1:0.02884615 7:0.33333334 9:0.66666669 18:0.14285713 43:0.1 66:0.33333334 73:1 74:0.25 75:0.25 237:0.33333334 331:1 2121:0.5 2126:0.5 2129:0.5 2130:0.5 2155:0.5 2158:0.5 2161:0.5 2185:0.5 
-0.0027502067055874593846931386309507 1:0.03846154 7:0.5 11:0.25 18:0.11428571 56:0.01639344 156:0.5 357:0.125 787:0.5 1037:1 2004:0.5 2046:0.33333334 2157:0.5 2171:0.5 2182:0.5 2185:0.5 2192:0.5 2194:0.5 
-0.0028218550224437081996864407074099 1:0.057692312 5:0.16666667 6:0.16666667 14:0.16666667 17:0.33333334 18:0.01428571 19:0.06666667 30:0.1 41:0.11111111 137:0.5 430:1 1407:1 2162:0.5 2182:0.5 2210:0.5 2212:0.5 
-0.0024302073322408856113907571483423 1:0.01923077 18:0.1 83:0.25 150:0.01333333 157:1 158:0.5 159:0.5 2121:0.5 2126:0.5 2129:0.5 2130:0.5 2158:0.5 2160:0.5 2185:0.5 2194:0.5 
-0.0035659911972635506723083853586331 1:0.067307688 6:0.14285713 13:0.14285713 18:0.057142861 27:0.14285713 29:0.1 43:0.1 61:0.25 65:0.33333334 68:0.5 142:0.25 316:1 337:0.25 348:0.5 466:1 467:0.5 472:0.5 473:0.5 699:1 2122:0.5 2123:0.5 2135:0.5 2143:0.5 2146:0.5 2153:0.5 2156:0.5 
