SVM-light Version V5.00
2 # kernel type
3 # kernel parameter -d 
0.1 # kernel parameter -g 
1 # kernel parameter -s 
1 # kernel parameter -r 
empty# kernel parameter -u 
2109 # highest feature index 
18907 # number of training documents 
315 # number of support vectors plus 1 
1.0409446 # threshold b, each following line is a SV (starting with alpha*y)
-0.10300038743840077282154510385226 1:0.03846154 5:0.25 14:0.25 18:0.04285714 19:0.06666667 27:0.14285713 41:0.11111111 95:1 108:0.5 166:0.5 728:1 
2.9389702385983231813781912933337 1:0.0096153803 18:0.071428567 37:1 
-0.24922290737263200210982461157982 1:0.01923077 7:0.5 18:0.071428567 71:0.5 78:0.33333334 
3.1266851102976906950914326444035 1:0.0096153803 18:0.1 118:0.5 
3.1266851102976906950914326444035 1:0.0096153803 18:0.057142861 
-1.4845889014332169786314352677437 1:0.057692312 14:0.33333334 17:0.16666667 18:0.5 41:0.22222222 43:0.1 118:1 121:1 150:0.01333333 186:0.25 271:1 286:0.5 526:0.25 1006:1 1007:1 
-3.1266851102976906950914326444035 1:0.0096153803 18:0.11428571 37:1 
-3.1266851102976906950914326444035 1:0.01923077 18:0.17142858 37:1 43:0.1 1089:1 
-3.1266851102976906950914326444035 1:0.02884615 3:0.33333334 18:0.11428571 22:0.01219512 37:1 1003:0.5 1458:0.5 
3.1266851102976906950914326444035 1:0.03846154 5:0.5 16:0.25 18:0.028571431 19:0.13333333 27:0.14285713 33:0.125 62:0.5 81:0.5 454:1 
3.1266851102976906950914326444035 1:0.04807692 5:0.40000001 7:0.2 18:0.057142861 19:0.13333333 23:0.14285713 96:0.33333334 108:0.5 279:0.5 322:0.25 583:1 1499:1 
0.28338975501853935767826442315709 1:0.04807692 5:0.40000001 7:0.2 18:0.04285714 19:0.13333333 23:0.14285713 108:0.5 279:0.5 325:1 328:1 556:1 557:1 
-3.1266851102976906950914326444035 1:0.01923077 18:0.085714288 349:0.33333334 
3.1266851102976906950914326444035 1:0.03846154 2:0.5 7:0.5 18:0.11428571 37:1 38:0.33333334 40:0.33333334 43:0.1 181:0.16666667 203:0.5 219:1 221:0.2 222:0.33333334 
-1.6293735303308325423898850203841 1:0.03846154 5:0.5 16:0.25 18:0.028571431 19:0.13333333 27:0.14285713 33:0.125 62:0.5 81:0.5 454:1 
3.1266851102976906950914326444035 1:0.02884615 2:0.66666669 7:0.33333334 18:0.01428571 38:0.33333334 39:0.5 40:0.33333334 282:0.33333334 
3.1266851102976906950914326444035 1:0.0096153803 18:0.12857144 37:1 
-0.37153373400806533055629188311286 1:0.0096153803 18:0.04285714 1251:1 
-3.1266851102976906950914326444035 1:0.125 3:0.69230771 4:0.07692308 5:0.07692308 18:0.30000001 19:0.06666667 22:0.1097561 43:0.1 44:0.092307687 47:0.2 48:0.16666667 51:0.125 54:0.11111111 56:0.01639344 57:0.2 58:0.2 108:0.5 279:0.5 325:1 328:1 
-2.248613835859571530306766362628 1:0.067307688 3:0.42857143 5:0.14285713 18:0.085714288 19:0.06666667 20:0.2 22:0.036585368 27:0.14285713 53:0.14285713 55:0.16666667 107:1 108:0.5 325:1 328:1 1162:1 
0.68292981474667668884137583518168 1:0.02884615 2:0.66666669 7:0.33333334 18:0.057142861 38:0.33333334 39:0.5 40:0.33333334 118:0.5 660:1 
1.3418733797624244896695699935663 1:0.03846154 2:0.5 7:0.25 18:0.12857144 38:0.33333334 39:0.5 40:0.33333334 118:0.5 389:0.5 660:1 1862:1 
0.68443367784520470209486120438669 1:0.02884615 7:0.33333334 18:0.1 108:0.5 325:1 328:1 362:1 363:1 
-0.9499462228434134569710067808046 1:0.02884615 2:0.66666669 7:0.66666669 18:0.04285714 38:0.33333334 40:0.33333334 43:0.1 181:0.16666667 219:1 221:0.2 222:0.33333334 
-1.2221072013935381228577625734033 1:0.15384614 3:0.5625 5:0.0625 14:0.1875 17:0.0625 18:0.25714287 19:0.06666667 20:0.2 22:0.1097561 41:0.33333334 43:0.1 44:0.092307687 52:0.2 84:0.25 93:0.33333334 109:0.5 118:1 121:1 224:0.5 280:0.33333334 1007:1 
1.1683328308517368920860235448345 1:0.096153848 3:0.1 5:0.40000001 6:0.1 18:0.17142858 19:0.26666668 21:0.33333334 22:0.01219512 23:0.14285713 30:0.1 43:0.1 56:0.01639344 65:0.33333334 108:0.5 137:0.5 148:0.2 251:1 325:1 328:1 408:1 485:1 996:1 997:1 998:1 999:1 
0.70295669724329590266620471084025 1:0.03846154 5:0.25 18:0.11428571 19:0.06666667 108:0.5 150:0.01333333 279:0.5 325:1 328:1 765:1 
3.1209551474794339220864003436873 1:0.057692312 5:0.16666667 14:0.33333334 18:0.1 19:0.06666667 41:0.22222222 61:0.25 92:0.5 108:0.5 122:0.5 166:0.5 279:0.5 325:1 328:1 
-1.9030705481466263506717950804159 1:0.096153848 3:0.60000002 5:0.1 14:0.1 18:0.25714287 19:0.06666667 22:0.073170729 41:0.11111111 44:0.046153851 52:0.2 56:0.01639344 57:0.2 58:0.2 108:0.5 109:0.25 279:0.5 325:1 328:1 1162:1 
-2.3573792097349248741977589816088 1:0.086538456 3:0.22222222 5:0.11111111 14:0.11111111 18:0.15714286 19:0.06666667 20:0.2 22:0.024390239 41:0.11111111 44:0.01538462 65:0.33333334 69:0.5 108:0.5 115:0.33333334 127:0.33333334 140:1 325:1 328:1 370:0.5 520:1 
-0.06917780849271221166318923678773 1:0.13461538 3:0.42857143 4:0.071428567 5:0.071428567 18:0.2857143 19:0.06666667 22:0.073170729 27:0.14285713 44:0.046153851 47:0.2 48:0.16666667 53:0.14285713 54:0.11111111 61:0.25 108:0.5 115:0.33333334 127:0.33333334 279:0.5 301:0.33333334 325:1 328:1 389:0.5 768:1 956:1 1162:1 
3.1266851102976906950914326444035 1:0.03846154 5:0.25 9:0.25 17:0.25 18:0.1 19:0.06666667 282:0.33333334 349:0.33333334 535:1 
3.1266851102976906950914326444035 1:0.03846154 5:0.25 6:0.25 13:0.25 17:0.25 18:0.057142861 19:0.06666667 30:0.1 84:0.25 150:0.01333333 267:0.5 467:0.5 484:1 670:1 1099:1 
3.1266851102976906950914326444035 1:0.0096153803 18:0.11428571 
0.41106486430013827737539600093442 1:0.03846154 7:0.25 13:0.5 18:0.071428567 96:0.33333334 322:0.25 467:1 482:1 487:1 
-3.1266851102976906950914326444035 1:0.0096153803 18:0.01428571 282:0.33333334 
-3.1266851102976906950914326444035 1:0.02884615 2:0.66666669 7:0.33333334 17:0.33333334 18:0.11428571 38:0.33333334 39:0.5 40:0.33333334 
0.98962830412980784533516498413519 1:0.057692312 2:0.33333334 7:0.5 18:0.057142861 38:0.33333334 40:0.33333334 43:0.1 108:0.5 181:0.16666667 219:1 221:0.2 222:0.33333334 325:1 328:1 357:0.125 589:1 590:1 
0.65303708476263411242257461708505 1:0.04807692 2:0.40000001 7:0.40000001 18:0.057142861 38:0.33333334 40:0.33333334 43:0.1 108:0.5 222:0.33333334 325:1 328:1 357:0.125 588:1 589:1 590:1 
0.89245415653794024635203641082626 1:0.03846154 18:0.12857144 108:0.5 186:0.25 325:1 328:1 835:0.5 1230:1 1231:1 
-3.1261969780568832355527320032706 1:0.02884615 2:0.66666669 7:0.66666669 18:0.04285714 38:0.33333334 40:0.33333334 43:0.1 181:0.16666667 219:1 221:0.2 222:0.33333334 
3.1266851102976906950914326444035 1:0.0096153803 18:0.12857144 327:1 
-0.52723044826597997847272836224874 1:0.02884615 2:0.66666669 7:0.33333334 17:0.33333334 18:0.12857144 40:0.33333334 557:1 776:1 905:1 906:1 
-3.1266851102976906950914326444035 1:0.0096153803 18:0.028571431 83:0.25 
3.1266851102976906950914326444035 1:0.0096153803 18:0.071428567 
3.1266851102976906950914326444035 1:0.0096153803 18:0.028571431 
3.1266851102976906950914326444035 1:0.0096153803 18:0.18571429 282:0.33333334 
-0.50074203654479687575218349593342 1:0.07692308 14:0.25 17:0.25 18:0.04285714 27:0.2857143 41:0.22222222 67:1 69:1 84:0.5 93:0.66666669 110:1 345:0.5 
-2.6180795501337694730636940221302 1:0.01923077 18:0.071428567 75:0.25 
-3.1266851102976906950914326444035 1:0.0096153803 18:0.04285714 83:0.25 
1.697557136592697357713177552796 1:0.067307688 2:0.28571427 7:0.42857143 13:0.14285713 18:0.085714288 38:0.66666669 40:0.33333334 43:0.1 96:0.33333334 181:0.16666667 219:1 221:0.2 222:0.33333334 233:0.33333334 467:0.5 487:1 1361:1 1497:1 1498:1 
3.1266851102976906950914326444035 1:0.02884615 2:0.66666669 7:0.33333334 18:0.01428571 38:0.33333334 40:0.33333334 56:0.01639344 988:0.5 1034:1 1135:1 
-0.43642508159347687124451908857736 1:0.07692308 2:0.75 7:0.25 17:0.125 18:0.04285714 38:0.66666669 39:0.5 40:1 56:0.01639344 61:0.25 599:1 988:0.5 1135:1 1267:1 1344:1 1549:1 1550:1 1551:1 
-0.18664882340144042793816936409712 1:0.10576923 2:0.18181819 4:0.27272728 7:0.18181819 14:0.090909094 17:0.090909094 18:0.028571431 38:0.33333334 40:0.33333334 41:0.11111111 43:0.2 54:0.33333334 56:0.032786891 119:0.25 150:0.01333333 209:0.2 233:0.33333334 366:0.5 410:1 456:1 457:1 499:1 597:1 841:1 988:0.5 1135:1 1158:1 
-0.12415742559610062900610216729547 1:0.04807692 2:0.80000001 5:0.2 7:0.40000001 18:0.057142861 19:0.06666667 38:0.66666669 39:1 40:0.66666669 922:0.5 1141:0.5 1245:1 
3.1266851102976906950914326444035 1:0.03846154 14:0.25 17:0.25 18:0.01428571 27:0.14285713 41:0.11111111 67:0.5 69:0.5 84:0.25 93:0.33333334 110:0.5 
3.1266851102976906950914326444035 1:0.03846154 7:0.25 9:0.25 17:0.25 18:0.04285714 75:0.25 186:0.25 357:0.125 1472:1 
-0.22946108126081318778766160448868 1:0.0096153803 18:0.1 1470:1 
-0.0016968550088963714212592082120068 1:0.086538456 3:0.11111111 5:0.33333334 14:0.11111111 18:0.14285713 19:0.2 22:0.01219512 27:0.14285713 41:0.11111111 43:0.1 55:0.16666667 81:0.5 96:0.33333334 148:0.2 166:0.5 170:1 172:0.5 189:0.16666667 282:0.33333334 300:1 350:1 1362:1 
-0.20855233403481285292535574171779 1:0.096153848 5:0.40000001 8:0.40000001 14:0.1 17:0.30000001 18:0.057142861 19:0.26666668 23:0.2857143 41:0.11111111 64:1 84:0.75 88:1 93:0.33333334 166:0.5 346:1 386:0.5 
1.0403326170241244952308079518843 1:0.11538462 5:0.16666667 7:0.083333328 13:0.16666667 17:0.083333328 18:0.01428571 19:0.13333333 84:0.25 88:0.5 96:0.33333334 108:0.5 282:0.33333334 314:1 315:1 322:0.25 383:0.5 467:1 484:1 549:1 583:1 670:1 1499:1 1568:1 1569:1 1570:1 
1.0772732049851172497767493041465 1:0.096153848 5:0.2 8:0.2 17:0.1 18:0.085714288 19:0.13333333 27:0.14285713 43:0.2 56:0.01639344 64:0.5 84:0.25 88:0.5 96:0.33333334 108:0.5 142:0.25 148:0.2 257:0.5 325:1 328:1 346:0.5 408:1 736:1 845:1 934:1 996:1 997:1 998:1 999:1 
3.1266851102976906950914326444035 1:0.03846154 2:0.5 7:0.5 13:0.25 18:0.04285714 38:0.33333334 39:0.5 40:0.33333334 43:0.1 322:0.25 366:0.5 467:0.5 482:1 483:1 
3.1266851102976906950914326444035 1:0.04807692 14:0.2 17:0.2 18:0.04285714 27:0.14285713 41:0.11111111 67:0.5 69:0.5 84:0.25 93:0.33333334 110:0.5 275:0.5 282:0.33333334 
-0.39294348416082131025817147929047 1:0.03846154 7:0.25 9:0.5 18:0.071428567 43:0.1 259:0.66666669 282:0.33333334 322:0.25 483:1 806:1 1088:0.5 
-2.6478529769271981209044497518335 1:0.02884615 13:0.33333334 18:0.057142861 233:0.33333334 467:0.5 1425:1 1497:1 
-0.31747115345579129952469088493672 1:0.02884615 7:0.33333334 9:0.33333334 18:0.071428567 43:0.2 78:0.33333334 322:0.25 349:0.33333334 352:0.5 483:1 572:0.5 1125:1 
3.1266851102976906950914326444035 1:0.0096153803 4:1 18:0.057142861 54:0.11111111 
3.1266851102976906950914326444035 1:0.02884615 6:0.33333334 18:0.18571429 30:0.1 96:0.33333334 118:0.5 848:1 1084:1 
3.1266851102976906950914326444035 1:0.0096153803 18:0.028571431 310:0.5 
-1.5624597120278262973869232155266 1:0.0096153803 18:0.057142861 781:0.5 
3.1266851102976906950914326444035 1:0.03846154 7:0.25 18:0.1 96:0.33333334 172:0.5 357:0.125 1362:1 1500:1 1514:1 
3.1266851102976906950914326444035 1:0.0096153803 7:1 18:0.01428571 322:0.25 
-3.1266851102976906950914326444035 1:0.0096153803 18:0.15714286 1500:1 
-2.6198108664004227108534905710258 1:0.02884615 18:0.071428567 96:0.33333334 108:0.5 115:0.33333334 583:1 584:1 
-1.0861105291200123801331756112631 1:0.01923077 18:0.085714288 78:0.33333334 142:0.25 
3.1266851102976906950914326444035 1:0.01923077 7:0.5 18:0.11428571 115:0.33333334 1696:1 
3.1266851102976906950914326444035 1:0.01923077 7:0.5 18:0.11428571 233:0.33333334 1696:1 
2.9027716003716199644202333729481 1:0.057692312 3:0.16666667 7:0.33333334 13:0.16666667 17:0.16666667 18:0.028571431 22:0.01219512 38:0.33333334 43:0.1 51:0.125 84:0.25 186:0.25 322:0.25 466:1 467:0.5 484:1 812:1 827:1 
-1.7832178395892019917567949960358 1:0.0096153803 4:1 18:0.028571431 54:0.11111111 
-3.1266851102976906950914326444035 1:0.0096153803 7:1 18:0.01428571 322:0.25 
-3.1266851102976906950914326444035 1:0.0096153803 7:1 18:0.04285714 322:0.25 
-0.81602783723587446473857198725455 1:0.0096153803 7:1 18:0.11428571 38:0.33333334 
1.1284987349064004025223084681784 1:0.02884615 18:0.057142861 37:1 96:0.33333334 108:0.5 583:1 1858:1 
3.1266851102976906950914326444035 1:0.04807692 2:0.40000001 17:0.2 18:0.071428567 40:0.33333334 83:0.25 108:0.5 1161:1 
3.1266851102976906950914326444035 1:0.02884615 6:0.33333334 18:0.1 29:0.1 327:1 389:0.5 1935:1 
-0.915582790801616974718513120024 1:0.067307688 5:0.14285713 13:0.14285713 17:0.14285713 18:0.057142861 19:0.06666667 27:0.14285713 43:0.1 67:0.5 69:0.5 84:0.25 314:1 315:1 389:0.5 467:0.5 484:1 670:1 675:1 768:1 929:1 
-1.7884174854791374809082071806188 1:0.04807692 5:0.40000001 18:0.35714287 19:0.13333333 65:0.33333334 327:1 389:0.5 437:1 440:1 485:1 1947:1 
-2.1361776878321889761025431653252 1:0.01923077 6:0.5 18:0.028571431 29:0.1 389:0.5 1935:1 
3.1266851102976906950914326444035 1:0.01923077 7:0.5 18:0.028571431 357:0.125 439:0.5 1701:1 
3.1266851102976906950914326444035 1:0.01923077 7:0.5 18:0.01428571 357:0.125 439:0.5 1701:1 
3.1266851102976906950914326444035 1:0.01923077 7:0.5 18:0.057142861 108:0.5 322:0.25 
-1.2286116873672829896690927853342 1:0.02884615 7:0.33333334 18:0.1 108:0.5 181:0.16666667 439:0.5 1747:1 
-3.1266851102976906950914326444035 1:0.02884615 5:0.33333334 7:0.33333334 9:0.33333334 18:0.1 19:0.06666667 259:0.33333334 521:0.33333334 1696:1 
-1.3310778894012458284379363249172 1:0.02884615 2:0.66666669 7:0.66666669 18:0.04285714 38:0.33333334 39:0.5 40:0.33333334 357:0.125 589:1 
3.1266851102976906950914326444035 1:0.03846154 5:0.25 13:0.25 17:0.25 18:0.057142861 19:0.06666667 65:0.33333334 84:0.25 467:0.5 484:1 485:1 486:1 
3.1266851102976906950914326444035 1:0.057692312 3:0.16666667 5:0.16666667 13:0.16666667 17:0.16666667 18:0.028571431 19:0.06666667 22:0.01219512 69:0.5 84:0.25 118:0.5 280:0.33333334 396:1 467:0.5 484:1 670:1 1129:1 
2.7519770007625696806030646257568 1:0.03846154 13:0.25 18:0.12857144 96:0.33333334 233:0.33333334 467:0.5 487:1 838:1 1719:1 1720:1 
-3.1266851102976906950914326444035 1:0.04807692 3:0.2 13:0.2 17:0.2 18:0.11428571 22:0.01219512 69:0.5 84:0.25 96:0.33333334 280:0.33333334 396:1 467:0.5 484:1 487:1 
-3.1251442863744562927763581683394 1:0.04807692 3:0.2 5:0.2 13:0.2 17:0.2 18:0.057142861 19:0.06666667 22:0.01219512 69:0.5 84:0.25 280:0.33333334 396:1 467:0.5 484:1 670:1 
3.1266851102976906950914326444035 1:0.01923077 7:0.5 18:0.01428571 389:0.5 557:1 
3.1266851102976906950914326444035 1:0.0096153803 18:0.028571431 1958:1 
3.1266851102976906950914326444035 1:0.04807692 6:0.2 18:0.01428571 29:0.1 96:0.33333334 118:0.5 172:0.5 1323:1 2035:1 
-1.4500256388662926543275943913613 1:0.01923077 7:0.5 18:0.30000001 233:0.33333334 557:1 1865:1 
-1.9858651503458253362310870215879 1:0.01923077 9:0.5 18:0.11428571 43:0.1 74:0.25 75:0.25 1958:1 
3.1266851102976906950914326444035 1:0.03846154 5:0.25 7:0.25 13:0.25 17:0.25 18:0.085714288 19:0.06666667 84:0.25 88:0.5 467:0.5 484:1 1027:1 
3.1266851102976906950914326444035 1:0.01923077 7:0.5 13:0.5 18:0.057142861 460:1 467:0.5 
-3.1266851102976906950914326444035 1:0.057692312 3:0.16666667 5:0.16666667 13:0.16666667 17:0.16666667 18:0.24285714 19:0.06666667 20:0.2 22:0.01219512 84:0.25 118:0.5 391:0.5 467:0.5 484:1 581:0.5 1411:1 
-0.76006841924351831174533344892552 1:0.057692312 5:0.5 13:0.33333334 18:0.085714288 19:0.2 23:0.14285713 43:0.1 96:0.33333334 97:0.5 148:0.2 466:1 467:1 582:0.5 670:1 
-3.1266851102976906950914326444035 1:0.01923077 5:0.5 13:0.5 18:0.028571431 19:0.06666667 467:0.5 670:1 
2.7113403435413903075357211491792 1:0.03846154 7:0.25 18:0.085714288 108:0.5 115:0.33333334 325:1 328:1 584:1 
3.1266851102976906950914326444035 1:0.0096153803 18:0.04285714 108:0.5 
-1.3171485365229484987281693975092 1:0.01923077 18:0.057142861 108:0.5 233:0.33333334 2094:1 
-3.1266851102976906950914326444035 1:0.0096153803 18:0.01428571 186:0.25 
0.43908318076331670498646531086706 1:0.096153848 5:0.2 7:0.1 13:0.2 17:0.1 18:0.01428571 19:0.13333333 84:0.25 88:0.5 96:0.33333334 108:0.5 314:1 315:1 322:0.25 383:0.5 467:1 484:1 583:1 670:1 1499:1 1568:1 1569:1 1570:1 
-1.1106357358667560131237905807211 1:0.01923077 7:0.5 17:0.5 18:0.028571431 43:0.1 1057:1 1058:1 1696:1 
3.1266851102976906950914326444035 1:0.0096153803 18:0.35714287 118:0.5 
-2.9334769104115472337923620216316 1:0.01923077 18:0.028571431 96:0.33333334 1323:1 2035:1 
-0.25868458593844256832028349890606 1:0.02884615 18:0.12857144 65:0.33333334 108:0.5 472:0.5 1265:1 1414:1 
-2.4368032348878987392026829184033 1:0.01923077 14:0.5 18:0.071428567 41:0.11111111 108:0.5 394:1 
-1.9360662584792363016816807430587 1:0.0096153803 18:0.3142857 282:0.33333334 
3.1266851102976906950914326444035 1:0.0096153803 13:1 18:0.028571431 467:0.5 
3.1266851102976906950914326444035 1:0.01923077 13:0.5 18:0.071428567 467:0.5 
3.1266851102976906950914326444035 1:0.01923077 7:0.5 13:0.5 18:0.04285714 467:0.5 557:1 1978:1 
-0.33272297458034805206494866069988 1:0.0096153803 18:0.028571431 96:0.33333334 
-3.1266851102976906950914326444035 1:0.03846154 2:0.5 6:0.5 13:0.25 18:0.2 29:0.1 30:0.1 40:0.33333334 43:0.1 100:0.25 196:0.25 366:0.5 467:0.5 
2.4217597945813489346278402081225 1:0.057692312 5:0.16666667 8:0.33333334 14:0.16666667 17:0.16666667 18:0.01428571 19:0.06666667 41:0.11111111 64:0.5 84:0.25 93:0.33333334 108:0.5 325:1 328:1 394:1 907:0.5 
-1.1998792985730613036565728179994 1:0.01923077 7:0.5 18:0.1 56:0.01639344 557:1 1032:1 1748:1 
3.1266851102976906950914326444035 1:0.0096153803 18:0.11428571 37:1 
3.1266851102976906950914326444035 1:0.0096153803 18:0.21428572 118:0.5 
3.1266851102976906950914326444035 1:0.0096153803 18:0.17142858 118:0.5 
-0.30879383973192559009746105402883 1:0.04807692 5:0.2 9:0.40000001 18:0.085714288 19:0.06666667 43:0.1 74:0.25 75:0.25 148:0.2 186:0.25 282:0.33333334 349:0.33333334 535:1 1280:1 1281:1 
-0.88102023509300442238867390187806 1:0.04807692 5:0.2 7:0.2 18:0.42857143 19:0.06666667 38:0.33333334 43:0.1 118:1 121:1 150:0.01333333 186:0.25 256:0.5 766:1 1007:1 1031:1 1148:1 
3.1266851102976906950914326444035 1:0.0096153803 18:0.11428571 1034:1 
-2.8997835955202035940203586505959 1:0.0096153803 18:0.057142861 389:0.5 
-3.1266851102976906950914326444035 1:0.0096153803 18:0.071428567 439:0.5 
-1.0738940455803807072499012065236 1:0.1826923 3:0.15789475 5:0.2631579 14:0.10526316 18:0.37142858 19:0.33333334 21:0.33333334 22:0.036585368 23:0.42857143 26:0.5 41:0.22222222 44:0.01538462 52:0.2 56:0.01639344 61:0.5 65:0.33333334 96:0.33333334 108:0.5 117:0.25 118:1 140:1 166:0.5 174:0.25 214:0.5 279:0.5 525:1 583:1 1129:1 1526:1 1742:1 1792:1 1884:1 
-1.5601693782161061285762571060332 1:0.11538462 3:0.16666667 5:0.16666667 14:0.083333328 18:0.21428572 19:0.13333333 20:0.2 22:0.024390239 27:0.14285713 41:0.11111111 52:0.2 81:0.5 96:0.66666669 118:1 150:0.026666669 247:1 329:1 526:0.25 617:0.33333334 1113:1 1115:0.5 2039:1 2040:1 2043:1 
-0.027863718609159340150460693052992 1:0.13461538 4:0.14285713 7:0.5 11:0.14285713 18:0.15714286 38:1 43:0.1 54:0.22222222 56:0.01639344 83:0.25 150:0.01333333 154:0.5 156:1 158:0.5 173:1 284:0.5 322:1 333:0.5 526:0.25 741:1 789:0.66666669 790:1 1135:1 1155:1 1157:1 1516:0.5 2062:1 2063:1 
3.1266851102976906950914326444035 1:0.0096153803 18:0.11428571 118:0.5 
-3.1266851102976906950914326444035 1:0.0096153803 18:0.04285714 83:0.25 
-1.1762784879481325006622682849411 1:0.02884615 6:0.33333334 18:0.071428567 30:0.1 96:0.33333334 1084:1 1104:0.5 
-3.1266851102976906950914326444035 1:0.0096153803 18:0.028571431 
1.9323596014404214038506779616 1:0.03846154 7:0.25 13:0.25 18:0.1 96:0.33333334 322:0.25 467:0.5 487:1 1499:1 1500:1 
-0.38606707468853113107698504791188 1:0.125 2:0.15384616 5:0.07692308 6:0.07692308 7:0.15384614 13:0.07692308 14:0.23076923 17:0.07692308 18:0.01428571 19:0.06666667 27:0.14285713 30:0.1 38:0.33333334 40:0.33333334 41:0.33333334 43:0.1 45:0.5 56:0.01639344 105:0.5 150:0.01333333 286:0.5 366:0.5 403:1 467:0.5 504:1 549:1 557:1 760:1 763:1 803:1 988:0.5 1258:1 1449:1 1978:1 
3.1266851102976906950914326444035 1:0.0096153803 18:0.17142858 118:0.5 
-2.5364790816799978045992247643881 1:0.01923077 4:0.5 13:0.5 18:0.42857143 54:0.11111111 150:0.01333333 354:1 467:0.5 
-3.1266851102976906950914326444035 1:0.0096153803 7:1 18:0.04285714 357:0.125 
-3.1266851102976906950914326444035 1:0.0096153803 7:1 18:0.01428571 
3.1266851102976906950914326444035 1:0.0096153803 18:0.057142861 327:1 
3.1266851102976906950914326444035 1:0.0096153803 18:0.01428571 1034:1 
-3.1266851102976906950914326444035 1:0.057692312 3:0.16666667 5:0.16666667 17:0.16666667 18:0.30000001 19:0.06666667 20:0.2 22:0.01219512 37:1 43:0.2 232:0.5 233:0.33333334 1034:1 1089:1 
-0.48869755014436122575460785810719 1:0.086538456 3:0.22222222 5:0.11111111 7:0.11111111 18:0.2857143 19:0.06666667 22:0.024390239 27:0.14285713 44:0.01538462 61:0.25 65:0.33333334 68:0.5 81:0.5 120:0.33333334 181:0.16666667 278:1 1034:1 1035:1 
-0.011113211611216287227899002232334 1:0.04807692 3:0.2 5:0.2 13:0.2 17:0.2 18:0.057142861 19:0.06666667 22:0.01219512 69:0.5 84:0.25 280:0.33333334 396:1 467:0.5 484:1 670:1 
0.62282236639532762012549937935546 1:0.057692312 7:0.33333334 9:0.16666667 18:0.12857144 43:0.2 74:0.25 75:0.25 108:0.5 150:0.01333333 186:0.25 237:0.33333334 262:0.25 321:0.33333334 325:1 328:1 382:0.5 765:1 1535:1 1696:1 
-1.5270968263526849550970609925571 1:0.057692312 5:0.16666667 18:0.47142857 19:0.06666667 43:0.1 61:0.25 96:0.33333334 97:0.5 118:0.5 121:1 282:0.66666669 848:1 913:0.5 1185:1 1565:1 
-0.73539359708203777543644719116855 1:0.03846154 6:0.25 8:0.5 17:0.25 18:0.11428571 30:0.1 64:0.5 65:0.33333334 84:0.25 346:0.5 486:1 1078:1 
-3.1266851102976906950914326444035 1:0.04807692 3:0.2 14:0.2 17:0.2 18:0.17142858 22:0.01219512 41:0.11111111 65:0.33333334 84:0.25 93:0.33333334 118:0.5 120:0.33333334 280:0.33333334 436:1 
3.1266851102976906950914326444035 1:0.0096153803 18:0.1 37:1 
-2.1197684427157188480350669124164 1:0.0096153803 18:0.01428571 192:0.5 
-3.1266851102976906950914326444035 18:0.04285714 33:0.125 
-3.1266851102976906950914326444035 1:0.01923077 18:0.028571431 75:0.25 
-3.1266851102976906950914326444035 1:0.0096153803 18:0.028571431 27:0.14285713 
0.046929349162591137145650321826906 1:0.02884615 18:0.24285714 37:1 61:0.25 1034:1 1035:1 1127:1 
3.1266851102976906950914326444035 1:0.0096153803 18:0.11428571 118:0.5 
-0.88616655770888497212212087106309 1:0.02884615 6:0.33333334 18:0.057142861 29:0.1 96:0.33333334 108:0.5 583:1 1309:1 
-2.1823399244924321926930588233517 1:0.02884615 5:0.33333334 18:0.15714286 19:0.06666667 118:0.5 150:0.01333333 211:1 256:0.5 766:1 1102:1 
3.1266851102976906950914326444035 1:0.0096153803 18:0.11428571 118:0.5 
-2.8671639285252390472180650249356 1:0.02884615 5:0.33333334 13:0.33333334 18:0.057142861 19:0.06666667 61:0.25 80:0.5 467:0.5 582:0.5 
0.34057101923879584681742471730104 1:0.057692312 2:0.33333334 7:0.33333334 18:0.1 38:0.33333334 39:0.5 40:0.33333334 43:0.1 108:0.5 118:0.5 121:1 150:0.01333333 181:0.16666667 325:1 328:1 608:0.16666667 765:1 766:1 791:1 
-3.1266851102976906950914326444035 1:0.04807692 14:0.2 17:0.2 18:0.32857144 41:0.11111111 43:0.1 118:0.5 150:0.01333333 286:0.5 1007:1 
-1.6532905150537879901406768112793 1:0.0096153803 18:0.085714288 383:0.5 
-0.24206952536092327110672783874179 1:0.11538462 2:0.16666666 3:0.083333328 5:0.16666667 6:0.083333328 7:0.25 14:0.083333328 18:0.01428571 19:0.13333333 20:0.2 22:0.01219512 29:0.1 38:0.66666669 40:0.33333334 41:0.11111111 43:0.2 74:0.25 75:0.25 108:0.5 222:0.33333334 279:0.5 337:0.25 418:0.5 557:1 574:1 762:1 763:1 812:1 813:0.5 1326:1 1372:1 
-1.1213069108130602202777481579687 1:0.067307688 5:0.42857143 12:0.14285713 18:0.12857144 19:0.2 23:0.14285713 85:0.25 96:0.33333334 118:0.5 150:0.01333333 231:1 526:0.25 1072:1 1113:0.5 1115:0.5 1489:1 1576:1 
3.1266851102976906950914326444035 1:0.0096153803 18:0.1 118:0.5 
-0.26918753009514845286886952635541 1:0.03846154 4:0.25 7:0.25 17:0.25 18:0.028571431 43:0.2 54:0.11111111 119:0.25 557:1 763:1 1174:1 1541:1 1544:1 
1.2220831749920855191504642789369 1:0.057692312 2:0.33333334 7:0.33333334 13:0.16666667 18:0.04285714 38:0.66666669 40:0.33333334 43:0.1 96:0.33333334 222:0.33333334 233:0.33333334 467:0.5 487:1 588:1 1361:1 1497:1 1498:1 
-0.23561071640957384487613524015615 1:0.03846154 9:0.25 18:0.071428567 27:0.14285713 108:0.5 142:0.25 257:0.5 349:0.33333334 400:1 1123:1 
-0.029383043762186776548528399644056 1:0.04807692 5:0.2 8:0.80000001 17:0.2 18:0.14285713 19:0.06666667 43:0.1 56:0.01639344 64:1 84:0.25 88:0.5 141:0.5 346:0.5 443:1 934:1 
-0.47437624465433930742719326190127 1:0.04807692 4:0.2 5:0.40000001 18:0.01428571 19:0.13333333 54:0.11111111 96:0.33333334 131:0.5 170:1 172:0.5 407:1 1362:1 
-0.043294771883953343805107039088398 1:0.02884615 18:0.057142861 27:0.14285713 96:0.33333334 142:0.25 257:0.5 845:1 
-3.1266851102976906950914326444035 1:0.0096153803 18:0.04285714 115:0.33333334 
3.1266851102976906950914326444035 1:0.0096153803 18:0.1 118:0.5 
-0.6876965521586045904101069936587 1:0.02884615 5:0.33333334 7:0.33333334 13:0.33333334 18:0.057142861 19:0.06666667 467:0.5 582:0.5 1537:1 1538:1 
-0.039674190294324965244676661768608 1:0.16346154 2:0.11764706 4:0.05882353 5:0.17647059 6:0.17647059 7:0.05882353 9:0.05882353 18:0.01428571 19:0.2 27:0.14285713 29:0.2 30:0.1 34:0.33333334 38:0.33333334 39:0.5 40:0.33333334 43:0.30000001 54:0.11111111 74:0.25 75:0.25 81:0.5 124:0.16666667 144:0.5 165:1 172:0.5 200:0.25 251:1 337:0.25 366:0.5 389:0.5 440:1 536:1 538:1 768:1 1138:1 1161:1 1231:1 1838:1 2087:1 
3.1266851102976906950914326444035 1:0.0096153803 18:0.085714288 118:0.5 
-3.1266851102976906950914326444035 1:0.01923077 18:0.1 
-3.1266851102976906950914326444035 1:0.0096153803 18:0.028571431 233:0.33333334 
3.1266851102976906950914326444035 1:0.0096153803 18:0.085714288 37:1 
-0.99809703228904467220417018324952 1:0.096153848 3:0.40000001 14:0.2 18:0.21428572 22:0.04878049 41:0.22222222 44:0.030769231 52:0.2 61:0.25 66:0.33333334 109:0.25 118:0.5 174:0.25 276:1 526:0.25 564:1 565:1 566:1 
0.92713839551189280996368324849755 1:0.057692312 9:0.16666667 17:0.16666667 18:0.04285714 27:0.14285713 66:0.33333334 108:0.5 142:0.25 257:0.5 258:0.5 325:1 328:1 1259:1 
0.74852860064361115277620228880551 1:0.02884615 18:0.11428571 108:0.5 325:1 328:1 1188:1 1189:1 
3.1266851102976906950914326444035 1:0.0096153803 18:0.1 118:0.5 
-0.17787740561897968927240754055674 1:0.086538456 7:0.66666669 18:0.11428571 38:1 124:0.5 322:0.75 595:1 596:1 786:1 789:1 
-2.1111171232838672473519636696437 1:0.01923077 2:1 7:0.5 18:0.028571431 38:0.33333334 39:0.5 40:0.33333334 
-0.95858871024977709840442230415647 1:0.01923077 6:0.5 18:0.04285714 29:0.1 108:0.5 401:1 
-0.40788596172510932502675018440641 1:0.02884615 6:0.33333334 18:0.071428567 30:0.1 108:0.5 142:0.25 1122:1 1123:1 
-0.74053577176999763054254799499176 1:0.067307688 14:0.14285713 17:0.14285713 18:0.2 41:0.11111111 61:0.25 65:0.33333334 84:0.25 93:0.33333334 115:0.33333334 116:1 117:0.25 118:0.5 436:1 585:1 1742:1 1884:0.5 
-0.69836971730789199064304284547688 1:0.11538462 5:0.33333334 14:0.083333328 18:0.25714287 19:0.26666668 41:0.11111111 61:0.5 80:0.5 82:1 96:0.33333334 118:1 122:0.5 150:0.026666669 166:0.5 186:0.25 247:0.5 256:0.5 526:0.25 766:1 1031:1 1113:0.5 1115:0.5 1117:0.5 1195:1 1196:1 1489:1 
-0.91621324500335366014525106947985 1:0.15384614 3:0.3125 5:0.125 14:0.0625 18:0.30000001 19:0.13333333 21:0.33333334 22:0.060975611 27:0.14285713 41:0.11111111 44:0.046153851 53:0.14285713 61:0.5 65:0.33333334 68:0.5 104:0.5 108:0.5 113:0.5 118:0.5 120:0.33333334 122:0.5 124:0.16666667 279:0.5 1792:1 1951:1 1952:1 
3.1266851102976906950914326444035 1:0.0096153803 18:0.1 37:1 
-0.19319101814093103675062934598827 1:0.20192309 3:0.33333334 5:0.33333334 18:0.24285714 19:0.46666667 20:0.60000002 22:0.085365847 23:0.2857143 42:0.11111111 43:0.30000001 44:0.046153851 51:0.125 61:0.25 80:0.5 96:0.66666669 112:0.5 118:1 148:0.2 150:0.026666669 189:0.33333334 247:1 526:0.5 617:0.66666669 1067:1 1113:1 1115:1 1116:1 1820:1 1821:1 1822:1 
-0.2241997123076929776530619164987 1:0.086538456 3:0.22222222 5:0.33333334 18:0.2 19:0.2 22:0.024390239 23:0.14285713 61:0.25 80:0.5 82:0.5 96:0.33333334 118:0.5 150:0.01333333 203:0.5 247:0.5 526:0.25 617:0.33333334 1053:1 1113:0.5 1115:0.5 1319:1 1820:1 1821:1 1822:1 
-3.1266851102976906950914326444035 18:0.1 54:0.11111111 
-0.49672529087373107348213352452149 1:0.10576923 3:0.36363637 4:0.090909094 5:0.090909094 18:0.34285715 19:0.06666667 22:0.04878049 26:0.5 44:0.01538462 54:0.11111111 59:0.25 61:0.5 118:0.5 174:0.25 214:0.5 241:0.5 526:0.5 527:0.33333334 617:0.66666669 700:1 1112:1 1114:1 1115:0.5 
-3.1266851102976906950914326444035 18:0.1 181:0.16666667 
-0.23128219557381821114283582119242 1:0.02884615 5:0.33333334 18:0.04285714 19:0.06666667 108:0.5 314:1 315:1 598:1 
-0.47578644274078024656304819473007 1:0.01923077 5:0.5 9:0.5 18:0.085714288 19:0.06666667 349:0.33333334 535:1 
3.1266851102976906950914326444035 1:0.0096153803 18:0.085714288 118:0.5 
1.0544072560609021316224698239239 1:0.02884615 13:0.66666669 17:0.33333334 18:0.028571431 84:0.25 467:1 484:1 1401:1 
-1.4270078442842071275720172707224 1:0.057692312 7:0.16666667 14:0.16666667 17:0.16666667 18:0.04285714 27:0.14285713 41:0.11111111 43:0.1 67:0.5 69:0.5 84:0.25 93:0.33333334 110:0.5 123:0.5 186:0.25 262:0.25 322:0.25 827:1 
-0.32243306888006317834083347406704 1:0.067307688 7:0.42857143 11:0.2857143 18:0.071428567 38:0.33333334 43:0.1 124:0.33333334 150:0.026666669 152:1 154:0.5 156:1 322:0.25 483:1 1460:1 1607:1 
-0.47061805246229593269191582294297 1:0.067307688 5:0.2857143 13:0.14285713 18:0.057142861 19:0.13333333 27:0.2857143 43:0.1 62:1 142:0.25 257:0.5 466:1 467:0.5 472:0.5 473:0.5 514:0.5 736:1 930:1 
-0.10819230504488917821159787990837 1:0.11538462 3:0.083333328 5:0.25 7:0.16666667 14:0.083333328 17:0.16666667 18:0.01428571 19:0.2 22:0.01219512 27:0.14285713 41:0.11111111 81:0.5 95:1 108:0.5 124:0.16666667 166:0.5 181:0.16666667 279:0.5 526:0.25 527:0.33333334 1696:1 1896:1 1897:1 1898:1 1899:1 
-0.46639944173446390429660368681652 1:0.03846154 13:0.25 14:0.25 17:0.25 18:0.30000001 41:0.11111111 61:0.25 84:0.25 93:0.33333334 94:1 467:0.5 578:1 
-0.26958920265999275489576803011005 1:0.01923077 16:0.5 18:0.028571431 33:0.125 899:0.5 1997:1 
-0.62806935180034695331841021470609 1:0.02884615 2:0.66666669 7:0.66666669 18:0.028571431 38:0.33333334 40:0.33333334 43:0.1 222:0.33333334 557:1 762:1 763:1 
-0.75060982929638198069000054601929 1:0.03846154 7:0.75 18:0.1 38:0.33333334 322:0.5 789:0.33333334 790:0.5 1155:0.5 1157:0.5 
1.318845452289431063874758365273 1:0.02884615 13:0.33333334 18:0.01428571 327:1 389:0.5 467:0.5 922:1 
-0.20367915443634623806623551445227 1:0.086538456 5:0.33333334 6:0.11111111 14:0.11111111 18:0.32857144 19:0.2 30:0.1 41:0.11111111 61:0.25 82:0.5 96:0.33333334 118:0.5 122:0.5 150:0.026666669 166:0.5 247:0.5 251:1 256:0.5 766:1 1112:1 1113:0.5 1114:1 
-2.6238362442182818767832941375673 1:0.02884615 13:0.33333334 18:0.04285714 27:0.14285713 67:0.5 69:0.5 467:0.5 468:1 
3.1266851102976906950914326444035 1:0.0096153803 18:0.085714288 118:0.5 
-0.16823412472467597078562562273873 1:0.13461538 3:0.35714287 5:0.071428567 14:0.14285713 17:0.071428567 18:0.24285714 19:0.06666667 22:0.060975611 41:0.22222222 43:0.2 44:0.046153851 61:0.25 65:0.33333334 84:0.25 93:0.33333334 105:0.5 109:0.25 112:0.5 118:0.5 121:1 174:0.25 275:0.5 277:0.33333334 282:0.33333334 625:0.14285713 798:1 1168:1 2014:1 2037:1 
-3.1266851102976906950914326444035 1:0.0096153803 18:0.085714288 27:0.14285713 
-2.4231138628293642511835059849545 1:0.0096153803 18:0.057142861 389:0.5 
-0.34017076569323212442697013102588 1:0.03846154 7:0.25 9:0.75 18:0.21428572 75:0.5 259:0.33333334 357:0.125 654:1 1236:1 1472:1 
-0.1248803319775001197111663486794 1:0.07692308 6:0.25 7:0.375 9:0.125 18:0.085714288 29:0.2 31:0.25 38:0.33333334 43:0.1 75:0.25 144:0.5 186:0.25 237:0.33333334 321:0.33333334 322:0.25 404:1 483:1 501:0.33333334 591:1 1370:1 1376:1 
-0.03675536244900788618306108901379 1:0.067307688 6:0.2857143 7:0.14285713 9:0.14285713 18:0.071428567 30:0.2 43:0.1 75:0.25 99:0.125 142:0.25 186:0.25 196:0.25 237:0.33333334 561:0.5 837:1 838:1 1149:1 1991:1 
-0.45463829504402986092514993288205 1:0.0096153803 18:0.028571431 61:0.25 
0.68990008675403613480625608644914 1:0.057692312 2:0.33333334 7:0.33333334 13:0.16666667 18:0.085714288 38:0.66666669 39:0.5 40:0.33333334 96:0.33333334 233:0.33333334 467:0.5 487:1 1361:1 1497:1 1498:1 
-0.30469021400958024026195403166639 1:0.067307688 2:0.28571427 4:0.2857143 5:0.14285713 7:0.42857143 18:0.24285714 19:0.06666667 38:0.66666669 40:0.33333334 43:0.2 54:0.22222222 131:0.5 209:0.2 222:0.66666669 357:0.125 364:0.5 365:0.5 407:1 1498:1 
-0.44691895961666017189628519190592 1:0.057692312 5:0.33333334 6:0.16666667 7:0.16666667 13:0.16666667 18:0.04285714 19:0.13333333 23:0.14285713 27:0.14285713 30:0.1 43:0.1 132:0.5 148:0.2 181:0.16666667 196:0.25 467:0.5 1486:1 
-0.41045615854792016907737206565798 1:0.04807692 5:0.2 13:0.2 18:0.085714288 19:0.06666667 27:0.14285713 61:0.25 62:0.5 82:0.5 467:0.5 472:0.5 473:0.5 699:1 
-0.05427016928524189265381494351459 1:0.01923077 12:1 18:0.028571431 85:0.5 
0.36696431256350231508989168105472 1:0.03846154 7:0.25 18:0.085714288 108:0.5 325:1 328:1 391:0.5 556:1 557:1 558:1 
3.1266851102976906950914326444035 1:0.0096153803 18:0.085714288 118:0.5 
-0.14053143104124460327497558864707 1:0.11538462 3:0.083333328 5:0.25 7:0.16666667 14:0.083333328 17:0.16666667 18:0.01428571 19:0.2 22:0.01219512 27:0.14285713 41:0.11111111 81:0.5 95:1 108:0.5 124:0.16666667 166:0.5 181:0.16666667 279:0.5 526:0.25 527:0.33333334 557:1 1896:1 1897:1 1898:1 1899:1 
-0.20971297577838801662331036368414 1:0.03846154 6:0.25 7:0.5 18:0.14285713 30:0.1 43:0.1 96:0.33333334 322:0.5 465:1 483:1 790:0.5 1436:1 
-0.21611277073988940933269020661101 1:0.0096153803 10:1 18:0.085714288 183:0.5 
-0.16082808704661585852413452357723 1:0.067307688 6:0.14285713 13:0.14285713 18:0.057142861 27:0.14285713 29:0.1 43:0.1 61:0.25 65:0.33333334 68:0.5 142:0.25 316:1 337:0.25 348:0.5 466:1 467:0.5 472:0.5 473:0.5 699:1 
-0.1485185185353325720836181744744 1:0.067307688 5:0.14285713 12:0.14285713 13:0.14285713 14:0.14285713 17:0.14285713 18:0.1 19:0.06666667 27:0.14285713 41:0.11111111 43:0.2 61:0.25 81:0.5 84:0.25 85:0.25 91:0.5 93:0.33333334 94:1 112:0.5 466:1 467:0.5 1524:1 1842:1 
-0.60520176560203697846418435801752 1:0.02884615 5:0.33333334 18:0.04285714 19:0.06666667 108:0.5 831:1 
-0.15526654861583094602295318509277 1:0.067307688 6:0.42857143 7:0.14285713 18:0.057142861 29:0.1 30:0.2 43:0.2 99:0.125 159:0.5 200:0.25 282:0.33333334 322:0.25 351:1 389:0.5 483:1 913:0.5 1025:0.5 2057:1 
-0.17197532319213176821293131979473 1:0.0096153803 15:1 18:0.057142861 76:1 
-0.41504986019468687041822363426036 1:0.01923077 7:0.5 16:0.5 18:0.071428567 33:0.125 38:0.33333334 1369:1 
-0.61910085096548572725083658951917 1:0.01923077 6:0.5 18:0.1 30:0.1 96:0.33333334 1084:1 
-0.35653602542319723367469919139694 1:0.02884615 18:0.085714288 108:0.5 115:0.33333334 472:0.5 584:1 1775:1 
-0.29945295387611481352507780684391 1:0.02884615 3:0.33333334 4:0.33333334 13:0.33333334 18:0.14285713 22:0.01219512 54:0.11111111 467:0.5 657:1 2105:1 
-0.21641690179215583578198334180342 1:0.04807692 4:0.2 7:0.2 18:0.028571431 27:0.14285713 46:0.25 54:0.11111111 65:0.33333334 108:0.5 181:0.16666667 292:0.5 368:1 1897:1 
-0.89876020460373473586201953366981 1:0.057692312 7:0.16666667 13:0.16666667 14:0.16666667 17:0.5 18:0.41428572 38:0.33333334 41:0.11111111 43:0.1 84:0.25 93:0.33333334 150:0.01333333 286:0.5 467:0.5 1401:1 
-3.1266851102976906950914326444035 1:0.0096153803 18:0.01428571 96:0.33333334 
-0.060875408955837193025750764263648 1:0.03846154 2:0.5 7:0.75 18:0.01428571 38:0.33333334 40:0.33333334 43:0.1 181:0.33333334 194:1 219:1 221:0.2 222:0.33333334 
3.1266851102976906950914326444035 1:0.0096153803 18:0.085714288 118:0.5 
-2.2570627643419056695961444347631 1:0.0096153803 18:0.085714288 439:0.5 922:0.5 
-0.018043790507450349624996022157575 1:0.02884615 4:0.33333334 7:0.33333334 18:0.028571431 38:0.33333334 54:0.11111111 115:0.33333334 611:1 
-0.13418375998606399401857913744607 1:0.02884615 2:0.66666669 7:0.66666669 18:0.1 38:0.33333334 39:0.5 40:0.33333334 181:0.16666667 791:1 
-1.2744695552128664228774823641288 1:0.01923077 7:0.5 18:0.071428567 237:0.33333334 1279:0.33333334 
-0.20315334504798518433510423619737 1:0.02884615 5:0.33333334 6:0.33333334 18:0.04285714 19:0.06666667 29:0.1 108:0.5 134:0.5 279:0.5 
-0.09689602947118776399282324973683 1:0.067307688 5:0.2857143 18:0.44285715 19:0.13333333 61:0.25 78:0.33333334 80:0.5 82:0.5 96:0.33333334 118:0.5 150:0.01333333 526:0.25 1103:1 1113:0.5 1115:0.5 1117:0.5 1195:1 1196:1 1489:1 
-0.78803392833284324758835737156915 1:0.0096153803 18:0.057142861 115:0.33333334 
-0.13159580025391598434580942011962 1:0.02884615 18:0.085714288 66:0.33333334 142:0.25 671:1 
-0.34889042400307501701206547295442 1:0.07692308 5:0.125 6:0.125 14:0.125 17:0.125 18:0.057142861 19:0.06666667 27:0.14285713 29:0.1 41:0.11111111 67:0.5 69:0.5 84:0.25 93:0.33333334 96:0.33333334 108:0.5 110:0.5 134:0.5 279:0.5 490:1 583:1 
-0.080050362853869252988125992942514 1:0.086538456 5:0.22222222 8:0.22222222 14:0.11111111 17:0.11111111 18:0.071428567 19:0.13333333 23:0.14285713 27:0.14285713 41:0.11111111 43:0.1 56:0.01639344 64:0.5 84:0.25 93:0.33333334 96:0.33333334 108:0.5 110:0.5 139:0.5 141:0.5 166:0.5 279:0.5 289:0.5 465:1 497:0.5 
-1.0619422135860137057505880875397 1:0.01923077 18:0.085714288 349:0.33333334 
-0.14920586857403717040426727180602 1:0.03846154 7:0.25 9:0.5 18:0.057142861 43:0.1 75:0.25 259:0.33333334 357:0.125 495:0.5 496:1 836:1 837:1 838:1 
-0.19552421828827373784243093268742 1:0.03846154 8:0.5 14:0.25 17:0.25 18:0.071428567 27:0.14285713 41:0.11111111 63:1 64:0.5 84:0.25 93:0.33333334 110:0.5 
-0.079609776915544883113540208796621 1:0.057692312 9:0.16666667 12:0.16666667 17:0.16666667 18:0.085714288 27:0.2857143 66:0.33333334 84:0.25 85:0.25 86:1 110:0.5 142:0.25 257:0.5 258:0.5 330:1 
-0.12663514059384584076184410150745 1:0.17307691 3:0.6111111 6:0.05555556 18:0.27142856 22:0.13414633 27:0.2857143 29:0.1 42:0.22222222 43:0.2 44:0.07692308 51:0.125 53:0.2857143 55:0.33333334 56:0.01639344 59:0.25 61:0.75 112:0.5 118:0.5 174:0.5 287:0.33333334 500:1 1792:1 
-0.080872154619853670043383431220718 1:0.01923077 18:0.028571431 96:0.33333334 549:1 645:1 
-0.68252258313089830821240866498556 1:0.01923077 2:1 7:0.5 18:0.04285714 38:0.33333334 40:0.33333334 43:0.1 222:0.33333334 588:1 
-3.1266851102976906950914326444035 18:0.12857144 54:0.11111111 
-0.0021495755203439393006548119302579 1:0.067307688 2:0.28571427 3:0.14285713 5:0.14285713 7:0.2857143 9:0.14285713 18:0.01428571 19:0.06666667 20:0.2 22:0.01219512 38:0.33333334 40:0.33333334 43:0.30000001 74:0.25 75:0.25 144:0.5 222:0.33333334 557:1 588:1 774:1 775:1 776:1 
-0.080924606221707356956684975557437 1:0.0096153803 11:1 18:0.085714288 156:0.5 
-0.049471782898343488743542195607006 1:0.067307688 2:0.5714286 3:0.14285713 7:0.5714286 18:0.04285714 22:0.01219512 38:0.66666669 40:0.66666669 43:0.30000001 51:0.125 56:0.032786891 220:1 222:0.66666669 357:0.25 364:1 431:0.33333334 987:1 988:1 
-0.063688142647609524704677141926368 1:0.04807692 5:0.2 6:0.40000001 18:0.057142861 19:0.06666667 30:0.2 78:0.33333334 99:0.125 108:0.5 359:1 1717:1 
-0.078967720499101293207822038766608 1:0.01923077 12:0.5 16:0.5 18:0.04285714 33:0.125 85:0.25 842:1 
-0.091591371882818309324569838736352 1:0.04807692 13:0.2 14:0.2 17:0.2 18:0.12857144 41:0.11111111 61:0.25 84:0.25 93:0.33333334 94:1 467:0.5 472:0.5 578:1 755:1 
-0.51133665239526626677957210631575 1:0.03846154 8:0.5 14:0.25 17:0.25 18:0.04285714 27:0.14285713 41:0.11111111 56:0.01639344 64:0.5 84:0.25 93:0.33333334 110:0.5 139:0.5 141:0.5 
-3.1266851102976906950914326444035 1:0.0096153803 18:0.028571431 96:0.33333334 
-0.11125256916088493985839136257709 1:0.086538456 4:0.11111111 5:0.44444445 6:0.11111111 7:0.11111111 9:0.11111111 18:0.028571431 19:0.26666668 23:0.2857143 27:0.14285713 30:0.1 38:0.33333334 54:0.11111111 62:0.5 81:0.5 137:0.5 349:0.33333334 535:1 610:1 611:1 
-0.09218724057511999692149373686334 1:0.01923077 17:0.5 18:0.028571431 78:0.33333334 223:1 
-0.16997512059885419577476284302975 1:0.01923077 12:0.5 17:0.5 18:0.028571431 84:0.25 85:0.25 86:1 
0.14884307538456700847895319839154 1:0.02884615 18:0.057142861 108:0.5 325:1 328:1 1801:1 
-0.053892672918646841728751439859479 1:0.10576923 3:0.27272728 5:0.090909094 14:0.090909094 18:0.34285715 19:0.06666667 21:0.33333334 22:0.036585368 41:0.11111111 43:0.1 51:0.125 52:0.2 65:0.66666669 104:0.5 108:0.5 115:0.33333334 116:1 127:0.33333334 140:1 279:0.5 282:0.33333334 327:1 694:1 1947:1 
-1.2643123585069839798222801618977 1:0.01923077 17:0.5 18:0.085714288 186:0.25 
-0.021857994960013921170727257958788 1:0.03846154 7:0.25 17:0.5 18:0.028571431 181:0.16666667 186:0.25 1640:1 
-0.13111158641342110509064866619156 1:0.03846154 7:0.5 18:0.15714286 38:0.33333334 124:0.16666667 322:0.25 595:0.33333334 596:0.33333334 786:0.33333334 789:0.33333334 1441:1 
-0.026657697811586483077617160120099 1:0.096153848 7:0.80000001 11:0.2 18:0.071428567 150:0.026666669 152:1 156:1 357:1 1473:1 2003:1 
1.453851626806782038059395745222 1:0.0096153803 18:0.071428567 118:0.5 
-0.081431781157705454554651680609823 1:0.01923077 7:0.5 18:0.085714288 124:0.16666667 593:0.5 594:0.5 595:0.33333334 596:0.33333334 
-0.0025300569958679841424398215821157 1:0.11538462 3:0.083333328 4:0.083333328 14:0.25 18:0.3142857 22:0.01219512 41:0.33333334 43:0.2 52:0.2 54:0.11111111 61:0.5 65:0.33333334 112:0.5 113:0.5 114:1 115:0.33333334 116:1 117:0.25 118:0.5 119:0.25 120:0.33333334 121:1 122:1 123:0.5 124:0.16666667 125:0.5 
-0.016454285129022597211623235580191 1:0.057692312 7:0.66666669 11:0.16666667 18:0.071428567 56:0.01639344 124:0.16666667 150:0.01333333 156:0.5 181:0.16666667 322:0.25 357:0.25 737:1 742:1 1037:1 1473:0.16666667 1474:0.33333334 1475:0.5 1476:1 1477:1 
-0.067483480761156774963005489098578 1:0.067307688 5:0.14285713 6:0.14285713 16:0.5714286 18:0.028571431 19:0.06666667 28:0.25 29:0.1 33:0.5 134:0.5 454:1 539:0.66666669 1251:1 1252:1 
-0.24600659916745049038411252695369 1:0.04807692 4:0.2 14:0.2 16:0.2 17:0.2 18:0.04285714 27:0.14285713 33:0.125 41:0.11111111 54:0.11111111 84:0.25 93:0.33333334 110:0.5 205:0.5 470:0.33333334 
-0.02766088383281377696687464151637 1:0.067307688 5:0.71428573 18:0.01428571 19:0.33333334 23:0.2857143 65:0.33333334 108:0.5 279:0.5 485:1 598:1 1169:1 
-0.05410797667639314495469093913016 1:0.067307688 5:0.14285713 6:0.14285713 8:0.28571427 14:0.14285713 17:0.2857143 18:0.071428567 19:0.06666667 30:0.1 41:0.11111111 43:0.1 56:0.01639344 64:0.5 84:0.25 88:0.5 166:0.5 186:0.25 193:1 199:0.33333334 346:0.5 426:0.33333334 934:1 
-0.12040307578253636733300879768649 1:0.01923077 18:0.085714288 26:0.5 142:0.25 
-0.057224111063184243675117102156946 1:0.096153848 3:0.30000001 5:0.2 18:0.27142856 19:0.13333333 20:0.2 22:0.036585368 42:0.11111111 43:0.1 51:0.125 96:0.33333334 118:0.5 150:0.01333333 247:0.5 281:1 282:0.33333334 283:0.5 526:0.5 617:0.66666669 1113:0.5 1115:0.5 1482:1 2039:1 2040:0.5 
-0.051755738365102922637905891178889 1:0.01923077 17:0.5 18:0.17142858 124:0.16666667 282:0.33333334 871:0.5 875:1 1849:1 1850:1 
-0.045103296294241382313749966215255 1:0.07692308 5:0.25 6:0.125 7:0.25 9:0.25 18:0.15714286 19:0.13333333 30:0.1 38:0.33333334 43:0.2 148:0.2 186:0.25 196:0.25 222:0.33333334 259:0.33333334 322:0.25 349:0.33333334 483:1 521:0.33333334 535:1 1088:0.5 1148:1 1149:1 
-0.0085144047590350532828118446104781 1:0.057692312 5:0.16666667 18:0.42857143 19:0.06666667 78:0.33333334 96:0.33333334 118:0.5 150:0.026666669 186:0.25 256:0.5 766:1 1031:1 1103:1 1113:0.5 1117:0.5 1195:1 1196:1 
-0.037572414468953006794205151663846 1:0.057692312 6:0.33333334 7:0.33333334 16:0.16666667 17:0.16666667 18:0.085714288 29:0.2 31:0.25 33:0.125 38:0.33333334 322:0.25 591:1 592:0.5 
-0.073342778441543673983993301135342 1:0.01923077 7:0.5 18:0.01428571 389:0.5 2010:1 
-0.14234132618987963003753804969165 1:0.02884615 9:0.33333334 18:0.01428571 27:0.14285713 66:0.33333334 142:0.25 257:0.5 258:0.5 
-0.0305947218775919592415046821543 1:0.01923077 12:0.5 18:0.028571431 26:0.5 85:0.25 1303:1 
-0.050336035288006931998072701617275 1:0.07692308 3:0.125 5:0.125 7:0.125 14:0.125 17:0.125 18:0.42857143 19:0.06666667 22:0.01219512 27:0.14285713 41:0.11111111 65:0.33333334 68:0.5 81:0.5 84:0.25 93:0.33333334 118:0.5 120:0.33333334 181:0.16666667 278:1 280:0.33333334 436:1 
-0.26573507117576816716209009427985 1:0.0096153803 18:0.04285714 83:0.25 
-0.15678705912649071319009408398415 1:0.0096153803 18:0.057142861 233:0.33333334 
-0.0063230134761238666191163204643999 1:0.07692308 4:0.125 7:0.375 14:0.125 17:0.125 18:0.40000001 38:0.33333334 41:0.11111111 43:0.2 54:0.11111111 56:0.01639344 96:0.33333334 124:0.16666667 161:1 357:0.25 364:1 465:1 721:0.5 898:1 987:0.5 1138:1 1514:1 2007:1 
-0.0079487728655029329938308535474789 1:0.03846154 6:0.25 7:0.25 16:0.25 17:0.25 18:0.071428567 29:0.1 33:0.125 322:0.25 1669:1 1949:1 
-0.023073392365015411853423898946858 1:0.03846154 5:0.25 18:0.04285714 19:0.06666667 27:0.14285713 62:0.5 65:0.33333334 67:0.5 69:0.5 485:1 
-0.35013546238535547816539406085212 1:0.0096153803 18:0.11428571 27:0.14285713 
-0.00056462730933452040093384338703686 1:0.01923077 12:0.5 17:0.5 18:0.028571431 84:0.25 85:0.25 86:1 
-0.0039382168363600198943141883489716 1:0.03846154 7:0.25 18:0.071428567 38:0.33333334 124:0.16666667 142:0.25 233:0.33333334 549:1 1460:1 
