SVM-light Version V5.00
2 # kernel type
3 # kernel parameter -d 
0.1 # kernel parameter -g 
1 # kernel parameter -s 
1 # kernel parameter -r 
empty# kernel parameter -u 
2109 # highest feature index 
18907 # number of training documents 
380 # number of support vectors plus 1 
0.96546383 # threshold b, each following line is a SV (starting with alpha*y)
-0.0068500530771213041791867226493196 1:0.03846154 6:0.5 14:0.25 18:0.65714288 29:0.2 31:0.25 41:0.11111111 65:0.33333334 140:1 150:0.01333333 285:1 1523:1 
-0.0093067019914955442100312765774106 1:0.28846154 5:0.2 6:0.30000001 7:0.033333331 9:0.1 11:0.033333331 14:0.06666667 17:0.033333331 18:0.01428571 19:0.40000001 23:0.5714286 27:0.2857143 29:0.30000001 30:0.60000002 41:0.22222222 43:0.69999999 66:0.66666669 67:0.5 69:0.5 73:1 74:0.25 75:0.25 78:0.33333334 84:0.25 93:0.33333334 99:0.25 100:0.5 105:0.5 142:0.25 144:0.5 156:0.5 166:0.5 196:0.75 199:0.66666669 200:0.25 201:0.5 237:0.33333334 257:0.5 258:0.5 331:1 337:0.5 359:1 385:0.5 389:0.5 472:0.5 675:1 755:1 768:1 804:1 919:1 1740:1 
-0.020805870261756422706644897857586 1:0.21153846 3:0.13636364 4:0.045454551 5:0.045454551 7:0.045454551 11:0.045454551 14:0.090909094 16:0.090909094 17:0.045454551 18:0.38571429 19:0.06666667 22:0.036585368 33:0.25 41:0.22222222 43:0.1 44:0.01538462 54:0.11111111 56:0.01639344 61:0.25 65:0.33333334 71:0.5 83:0.25 84:0.25 93:0.33333334 104:0.5 108:1 138:1 154:0.5 156:0.5 173:1 174:0.25 186:0.25 275:0.5 279:0.5 280:0.33333334 282:0.33333334 310:0.5 311:1 389:0.5 406:0.33333334 469:1 526:0.5 539:0.33333334 574:1 935:1 998:1 1185:1 1276:1 1287:1 1393:1 1644:1 1645:1 1646:0.33333334 1647:1 1648:1 1649:1 1650:1 1651:1 
3.1266851102976906950914326444035 1:0.0096153803 15:1 18:0.057142861 76:1 
-0.0062919337015807184215754332967663 1:0.10576923 3:0.18181819 5:0.27272728 18:0.67142856 19:0.2 21:0.33333334 22:0.024390239 27:0.14285713 43:0.1 44:0.01538462 61:0.25 108:1 112:0.5 174:0.25 186:0.25 279:1 304:1 305:1 598:1 728:1 917:1 1031:1 
-0.01176564158442141606875086523587 1:0.11538462 3:0.58333331 18:0.24285714 22:0.085365847 42:0.11111111 43:0.2 44:0.061538462 51:0.125 61:0.25 124:0.16666667 244:0.33333334 423:0.5 541:0.5 544:0.5 616:1 693:0.5 980:1 982:1 1019:1 1491:1 1492:1 1493:1 
-0.21003026418563441879427955427673 1:0.0096153803 18:0.67142856 96:0.33333334 
-0.010450786190205358511251532149799 1:0.07692308 6:0.25 7:0.625 18:0.12857144 30:0.2 56:0.032786891 124:0.16666667 150:0.01333333 181:0.16666667 322:0.5 357:0.25 426:0.66666669 922:0.5 1124:1 1473:0.16666667 1475:0.5 1477:1 1859:1 2000:1 2056:1 2088:0.5 2089:0.5 2090:0.5 2091:0.5 
0.11323024910969808898286714793358 1:0.0096153803 15:1 18:0.071428567 76:1 
-0.020626375890587779482476804560065 1:0.15384614 3:0.0625 4:0.25 7:0.25 16:0.125 18:0.2 22:0.01219512 33:0.25 47:0.2 54:0.44444445 124:1 159:1 181:0.66666669 182:0.25 192:1 461:0.5 526:0.5 544:0.5 630:0.5 631:0.5 632:0.66666669 735:1 871:1 889:1 952:1 985:1 1218:1 1349:1 1366:1 1382:1 1475:0.5 1761:1 1851:1 1852:1 1853:1 1854:1 
-0.023892623056291997091227230498589 1:0.13461538 6:0.14285713 7:0.35714287 9:0.14285713 11:0.071428567 16:0.071428567 18:0.028571431 29:0.2 33:0.125 38:0.33333334 43:0.1 66:0.33333334 71:0.5 72:1 73:1 74:0.25 75:0.25 124:0.33333334 156:0.5 322:0.25 417:0.5 418:1 501:0.33333334 591:1 593:1 594:1 595:0.66666669 596:0.66666669 732:1 1369:1 1370:1 1371:1 1372:1 1373:1 1374:1 1375:1 1376:1 1377:1 1378:1 
-0.00092405926321935426877990371608007 1:0.13461538 3:0.2857143 5:0.21428572 14:0.14285713 18:0.22857143 19:0.2 21:0.33333334 22:0.04878049 23:0.14285713 41:0.22222222 44:0.01538462 52:0.2 96:0.33333334 105:0.5 108:1 109:0.25 282:0.33333334 302:1 303:1 394:1 501:0.33333334 503:1 583:1 598:1 661:1 
-0.0042682238460546332789458112699776 1:0.14423077 2:0.13333334 3:0.06666667 5:0.33333334 14:0.2 17:0.06666667 18:0.51428568 19:0.33333334 21:0.33333334 22:0.01219512 23:0.2857143 27:0.2857143 40:0.33333334 41:0.33333334 43:0.1 45:1 62:0.5 95:1 105:0.5 109:0.25 233:0.33333334 366:0.5 597:1 923:1 924:1 1058:1 1306:1 1548:1 
-0.19638939569897456705049876291014 1:0.0096153803 18:0.028571431 
2.9488017843887979196892956679221 1:0.0096153803 15:1 18:0.77142859 76:1 
-0.01684799222738208104854784608051 1:0.38461539 3:0.5 4:0.1 16:0.15000001 18:0.14285713 22:0.24390244 27:0.71428573 33:0.75 42:0.11111111 43:0.2 44:0.18461537 46:0.25 47:0.2 48:0.16666667 51:0.25 53:0.5714286 54:0.44444445 55:0.5 61:0.25 124:0.33333334 133:0.16666667 190:1 233:0.66666669 283:0.5 413:0.5 414:0.5 424:0.5 524:0.5 526:0.5 536:1 539:0.66666669 638:1 639:1 640:1 641:1 950:0.5 952:0.25 1167:1 1861:1 1995:1 2072:1 2073:1 2074:1 2075:1 2076:1 2077:1 2078:1 
-0.017095139805200595950473996254004 1:0.35576922 3:0.35135135 5:0.13513514 6:0.02702703 12:0.02702703 14:0.1891892 17:0.02702703 18:0.22857143 19:0.33333334 21:0.33333334 22:0.15853658 30:0.1 41:0.77777779 43:0.1 44:0.10769231 52:0.40000001 56:0.01639344 58:0.2 61:0.5 65:0.33333334 84:0.25 85:0.25 89:0.5 93:0.33333334 104:0.5 105:1 108:1 109:0.5 113:0.5 117:0.25 120:0.33333334 123:0.5 124:0.33333334 137:0.5 165:1 167:1 174:0.25 224:0.5 233:0.33333334 244:0.33333334 279:0.5 280:0.33333334 360:1 394:1 430:1 531:1 555:1 597:1 598:1 1330:1 1331:1 1526:1 1548:1 1668:1 
-0.015773628945924364486153024245141 1:0.15384614 3:0.125 5:0.125 7:0.1875 9:0.25 14:0.125 16:0.0625 18:0.38571429 19:0.13333333 22:0.024390239 33:0.125 38:0.33333334 41:0.22222222 43:0.60000002 51:0.125 56:0.01639344 58:0.2 74:0.25 75:0.25 108:0.5 123:0.5 150:0.01333333 188:0.5 189:0.16666667 222:0.33333334 224:0.5 232:0.5 233:0.33333334 248:1 259:1 322:0.25 379:0.5 456:1 457:1 481:0.5 495:0.5 497:0.5 506:1 764:1 794:1 806:1 1125:1 1158:1 1227:1 1364:1 1398:1 2094:1 
-0.015984481381258141413637119399027 1:0.25 3:0.03846154 5:0.11538462 6:0.23076923 7:0.03846154 11:0.03846154 14:0.03846154 16:0.07692308 18:0.42857143 19:0.2 22:0.01219512 27:0.2857143 29:0.2 30:0.40000001 33:0.25 35:0.5 41:0.11111111 43:0.60000002 61:0.25 67:1 69:1 74:0.25 75:0.25 95:1 142:0.25 143:0.5 144:0.5 148:0.2 150:0.039999999 154:0.5 156:0.5 166:0.5 189:0.16666667 196:0.5 232:1 233:1 234:1 236:1 237:0.33333334 248:1 267:1 337:0.25 348:0.5 379:0.5 382:0.5 424:0.5 488:0.33333334 492:0.5 506:1 526:0.25 764:1 1227:1 1650:1 1995:1 1996:1 
-0.012083166902390408276035671519821 1:0.30769232 3:0.25 4:0.03125 5:0.15625 6:0.03125 7:0.03125 9:0.03125 12:0.03125 14:0.125 16:0.03125 17:0.03125 18:0.38571429 19:0.33333334 22:0.097560979 23:0.14285713 27:0.2857143 29:0.1 33:0.125 41:0.44444445 43:0.2 44:0.030769231 45:0.5 47:0.2 49:0.25 50:1 52:0.2 53:0.14285713 54:0.11111111 55:0.16666667 56:0.01639344 61:0.25 65:0.33333334 66:0.33333334 68:0.5 84:0.25 85:0.25 93:0.33333334 104:0.5 105:1 108:0.5 112:0.5 120:0.33333334 134:0.5 142:0.25 146:0.5 147:1 161:1 174:0.25 181:0.16666667 268:1 272:1 273:1 274:1 275:1 276:1 277:0.66666669 278:1 279:0.5 280:0.33333334 281:1 282:0.66666669 283:0.5 
-0.014882050479515516669404284755274 1:0.25961539 3:0.18518519 5:0.14814815 6:0.11111111 9:0.037037041 14:0.11111111 17:0.074074067 18:0.40000001 19:0.26666668 21:0.33333334 22:0.060975611 23:0.14285713 27:0.14285713 29:0.2 30:0.1 34:0.33333334 41:0.33333334 43:0.2 44:0.030769231 56:0.01639344 61:0.5 65:0.33333334 82:0.5 84:0.5 93:0.66666669 105:0.5 108:0.5 112:0.5 124:0.16666667 165:1 166:0.5 174:0.25 189:0.16666667 244:0.33333334 280:0.66666669 287:0.33333334 310:0.5 349:0.33333334 360:1 389:0.5 400:1 401:1 402:1 411:1 531:1 711:1 773:1 819:1 1488:1 1525:1 1530:1 1564:0.5 
-0.0209546671996340520827128983683 1:0.1826923 3:0.36842105 5:0.052631579 7:0.15789475 18:0.24285714 19:0.06666667 22:0.085365847 27:0.14285713 44:0.07692308 55:0.16666667 61:0.25 113:0.5 124:0.83333331 181:0.5 244:0.33333334 282:0.33333334 418:0.25 553:0.5 871:1 910:0.66666669 1218:1 1657:1 1666:1 1888:1 2034:1 2081:1 2082:1 2083:1 2095:1 2096:1 2097:1 2098:1 
-0.014516754012106135307558218983104 1:0.26923078 3:0.21428572 5:0.035714291 9:0.035714291 12:0.14285713 14:0.035714291 17:0.071428567 18:0.085714288 19:0.06666667 20:0.2 22:0.073170729 25:1 26:0.5 27:1 41:0.11111111 43:0.2 44:0.061538462 55:0.16666667 61:0.25 65:0.33333334 67:0.5 69:0.5 74:0.25 75:0.25 84:0.5 85:1 86:1 89:0.5 90:1 91:1 93:0.33333334 94:1 96:0.33333334 110:0.5 123:0.5 142:0.25 257:0.5 316:1 318:1 324:0.5 332:1 736:1 845:1 1120:1 1721:1 
-0.0097841485139890348177171830457155 1:0.14423077 6:0.06666667 7:0.2 9:0.2 11:0.13333333 14:0.06666667 17:0.06666667 18:0.47142857 29:0.1 41:0.11111111 43:0.5 56:0.01639344 71:0.5 74:0.5 75:0.5 124:0.16666667 144:0.5 150:0.026666669 152:0.5 154:0.5 156:1 186:0.5 243:0.5 245:0.5 259:0.33333334 260:1 262:0.5 286:0.5 357:0.125 389:0.5 469:1 495:0.5 711:1 740:1 773:1 1037:1 1280:1 1287:1 1732:1 1733:1 
-0.012068005725837226832508619622786 1:0.16346154 2:0.11764706 3:0.05882353 5:0.11764706 6:0.05882353 7:0.17647059 9:0.05882353 14:0.11764706 18:0.01428571 19:0.13333333 21:0.33333334 22:0.01219512 23:0.14285713 30:0.1 38:0.33333334 40:0.33333334 41:0.22222222 43:0.40000001 56:0.032786891 61:0.25 75:0.25 92:0.5 96:0.33333334 105:0.5 128:1 144:0.5 161:1 186:0.25 191:1 222:0.33333334 243:0.5 269:1 366:0.5 389:0.5 404:1 426:0.33333334 427:1 431:0.33333334 456:1 607:1 769:1 990:1 1417:0.5 1843:1 1844:1 1845:1 
-0.014209801731187755510776860035094 1:0.14423077 4:0.13333333 5:0.06666667 6:0.2 7:0.13333333 8:0.26666665 9:0.06666667 17:0.13333333 18:0.085714288 19:0.06666667 30:0.30000001 43:0.40000001 54:0.22222222 56:0.01639344 64:1 83:0.25 84:0.5 150:0.01333333 158:0.5 159:0.5 189:0.16666667 196:0.5 237:0.33333334 284:0.5 322:0.25 343:0.5 346:1 349:0.33333334 352:0.5 386:0.5 483:1 510:1 712:1 745:1 1025:0.5 1168:1 1260:1 1295:1 1435:1 1436:1 
-0.015557022155237782909398269737267 1:0.1826923 3:0.15789475 4:0.052631579 5:0.10526316 6:0.15789475 7:0.052631579 14:0.052631579 18:0.2857143 19:0.13333333 22:0.036585368 26:0.5 27:0.2857143 30:0.30000001 38:0.33333334 41:0.11111111 43:0.1 46:0.25 48:0.16666667 52:0.2 54:0.11111111 62:0.5 65:0.33333334 170:1 171:0.5 172:0.5 199:0.33333334 251:1 291:0.5 292:0.5 423:0.25 625:0.14285713 798:1 805:0.16666667 921:1 922:0.5 1036:1 1396:1 1682:1 1819:1 2053:1 2054:1 2056:1 
-0.0086432407149624693870615388391343 1:0.52884614 3:0.60000002 4:0.14545456 5:0.036363639 7:0.036363639 14:0.018181819 16:0.054545451 18:0.1 19:0.13333333 20:0.2 22:0.40243903 27:0.71428573 33:0.375 41:0.11111111 42:0.11111111 43:0.30000001 44:0.2923077 46:0.5 47:1 48:1 51:0.375 52:0.2 53:0.71428573 54:0.8888889 55:0.5 56:0.049180329 150:0.01333333 181:0.33333334 189:0.16666667 205:0.5 209:0.2 247:0.5 248:1 876:1 877:1 896:1 951:1 952:0.375 1046:1 1104:0.5 1222:0.5 1546:0.033333331 1854:1 1967:1 1968:1 
-0.0096446468969427264633642593594232 1:0.35576922 3:0.32432431 5:0.054054052 6:0.081081077 14:0.24324325 16:0.081081077 17:0.054054052 18:0.34285715 19:0.13333333 22:0.14634146 26:0.5 27:0.2857143 28:0.25 29:0.30000001 32:0.25 33:0.375 41:1 44:0.061538462 45:0.5 52:0.2 55:0.16666667 56:0.01639344 67:0.5 69:0.5 84:0.5 93:0.66666669 95:1 104:0.5 105:0.5 107:1 108:0.5 109:1 134:0.5 160:1 161:1 162:0.5 166:0.5 195:1 224:0.5 280:0.66666669 406:0.33333334 479:1 501:0.33333334 526:0.5 527:0.66666669 530:0.5 539:0.33333334 609:0.5 1120:1 1285:1 1518:1 
-0.011776959092712353457943486034765 1:0.13461538 4:0.14285713 7:0.5 11:0.14285713 18:0.15714286 38:1 43:0.1 54:0.22222222 56:0.01639344 83:0.25 150:0.01333333 154:0.5 156:1 158:0.5 173:1 284:0.5 322:1 333:0.5 526:0.25 741:1 789:0.66666669 790:1 1135:1 1155:1 1157:1 1516:0.5 2062:1 2063:1 
-0.017038299657672315717826805325785 1:0.10576923 3:0.18181819 4:0.090909094 6:0.090909094 7:0.090909094 17:0.090909094 18:0.2857143 22:0.024390239 30:0.1 43:0.2 48:0.16666667 54:0.11111111 61:0.25 115:0.33333334 124:0.16666667 165:1 217:0.5 244:0.33333334 283:0.5 342:1 357:0.125 451:1 531:1 1191:1 1193:1 1342:1 1443:1 1444:1 1445:1 1446:1 1447:1 
-0.010266669560008441497434006350886 1:0.30769232 3:0.25 5:0.09375 6:0.1875 12:0.03125 14:0.125 16:0.03125 18:0.54285711 19:0.2 20:0.2 22:0.097560979 28:0.25 29:0.30000001 30:0.30000001 32:0.25 33:0.125 41:0.44444445 43:0.60000002 44:0.061538462 51:0.375 61:0.25 65:0.33333334 85:0.25 99:0.125 105:1 108:0.5 112:0.5 115:1 122:0.5 123:1 126:0.5 127:1 134:0.5 162:0.5 196:0.25 199:0.66666669 231:1 275:0.5 277:0.33333334 282:0.33333334 310:0.5 311:1 389:0.5 490:1 574:1 1309:1 1391:1 1393:1 1716:1 
-0.029677637340797237419653953338639 1:0.01923077 10:0.5 17:0.5 18:1 183:0.5 229:1 230:1 
-0.013010067555611799783310544853521 1:0.125 2:0.15384616 5:0.07692308 6:0.07692308 7:0.15384614 13:0.07692308 14:0.23076923 17:0.07692308 18:0.01428571 19:0.06666667 27:0.14285713 30:0.1 38:0.33333334 40:0.33333334 41:0.33333334 43:0.1 45:0.5 56:0.01639344 105:0.5 150:0.01333333 286:0.5 366:0.5 403:1 467:0.5 504:1 549:1 557:1 760:1 763:1 803:1 988:0.5 1258:1 1449:1 1978:1 
-0.010622219642031423270100987110709 1:0.15384614 5:0.125 7:0.125 8:0.125 9:0.3125 14:0.125 18:0.47142857 19:0.13333333 27:0.14285713 38:0.33333334 41:0.22222222 43:0.1 56:0.01639344 64:0.5 66:0.33333334 69:0.5 74:0.25 75:0.5 139:0.5 141:0.5 150:0.01333333 166:0.5 186:0.25 192:0.5 237:0.33333334 258:0.5 259:0.66666669 262:0.25 271:1 286:0.5 321:0.33333334 379:0.5 496:1 526:1 669:0.5 1154:1 1164:1 1227:1 1236:1 1906:1 2042:1 
-0.012934206290696569421894146501018 1:0.25961539 3:0.2962963 5:0.11111111 14:0.14814815 18:0.47142857 19:0.2 20:0.2 21:0.33333334 22:0.097560979 41:0.44444445 43:0.30000001 44:0.030769231 51:0.25 52:0.40000001 61:1 105:0.5 109:0.75 112:0.5 117:1 150:0.01333333 233:0.33333334 247:0.5 256:0.5 277:0.33333334 282:0.66666669 300:1 310:0.5 597:1 914:1 1185:1 1519:1 1563:1 1564:0.5 1565:1 1566:1 1567:1 
-0.0071908499787664316438284828336691 1:0.27884614 3:0.20689654 4:0.20689654 7:0.1724138 16:0.1724138 18:0.22857143 22:0.073170729 27:0.14285713 33:0.625 43:0.2 44:0.01538462 47:0.60000002 48:0.33333334 49:0.25 51:0.125 54:0.66666669 55:0.16666667 60:0.33333334 61:0.5 124:0.16666667 159:0.5 180:0.33333334 181:0.83333331 182:0.25 209:0.2 221:0.2 235:0.2 406:0.66666669 413:0.5 418:0.5 526:0.75 628:0.5 684:0.5 872:1 879:0.5 881:1 883:0.66666669 887:0.66666669 910:0.33333334 1104:0.5 1222:0.5 1556:1 1770:1 1965:1 1966:1 1967:1 
-0.0086979458384371655110811616395949 1:0.13461538 5:0.071428567 6:0.14285713 7:0.21428572 8:0.14285713 9:0.071428567 18:0.15714286 19:0.06666667 27:0.2857143 30:0.2 38:0.33333334 43:0.30000001 56:0.01639344 62:0.5 64:0.5 65:0.33333334 74:0.25 75:0.25 139:0.5 141:0.5 142:0.25 181:0.16666667 186:0.25 199:0.33333334 222:0.33333334 257:0.5 304:1 305:1 332:1 357:0.125 364:0.5 485:1 705:1 736:1 902:1 1148:1 1286:1 1298:1 
-0.01323406591523401849841423683074 1:0.07692308 2:0.75 7:0.25 17:0.125 18:0.04285714 38:0.66666669 39:0.5 40:1 56:0.01639344 61:0.25 599:1 988:0.5 1135:1 1267:1 1344:1 1549:1 1550:1 1551:1 
-0.01020638214096122181606673962051 1:0.03846154 4:0.25 5:0.25 18:0.61428571 19:0.06666667 54:0.11111111 111:1 150:0.01333333 211:1 246:1 247:0.5 1973:1 1988:1 
-0.011512629409982398642764422902474 1:0.0096153803 4:1 18:0.72857141 54:0.11111111 
-0.012812096836218065526447063007254 1:0.096153848 2:0.2 4:0.1 7:0.30000001 14:0.2 17:0.1 18:0.1 40:0.33333334 41:0.22222222 43:0.5 54:0.11111111 56:0.01639344 96:0.33333334 119:0.25 161:1 181:0.33333334 188:0.5 221:0.40000001 366:0.5 391:0.5 456:1 457:1 465:1 489:1 491:1 588:1 841:1 897:1 1150:1 1777:1 1778:1 
-0.010365416218478225654497926200293 1:0.23076923 3:0.083333328 4:0.041666672 7:0.041666672 9:0.083333328 11:0.041666672 14:0.16666667 17:0.083333328 18:0.34285715 22:0.024390239 27:0.2857143 41:0.44444445 43:0.40000001 44:0.01538462 54:0.11111111 56:0.01639344 61:0.5 66:0.33333334 67:0.5 69:0.5 74:0.25 75:0.25 83:0.25 84:0.5 92:0.5 93:0.66666669 94:1 95:1 108:0.5 109:0.25 123:0.5 142:0.25 144:0.5 154:0.5 156:0.5 173:1 186:0.25 237:0.33333334 257:0.5 258:0.5 262:0.25 275:0.5 280:0.33333334 282:0.33333334 321:0.33333334 382:0.5 385:0.5 526:0.5 574:1 736:1 935:1 998:1 1185:1 1276:1 1644:1 1645:1 1646:0.33333334 1649:1 1650:1 
-0.0040528686587556206344373777028522 1:0.25961539 3:0.62962961 4:0.074074067 7:0.22222222 18:0.14285713 22:0.20731707 27:0.14285713 43:0.30000001 44:0.2 47:0.2 48:0.16666667 51:0.25 54:0.22222222 55:0.16666667 61:0.25 112:0.5 124:0.5 181:0.5 357:0.375 470:0.33333334 632:1 888:1 910:1 1646:1 1702:1 1703:1 1704:1 1705:1 
-0.0037439066989045778448275125782629 1:0.03846154 3:0.5 14:0.25 18:0.87142855 22:0.024390239 41:0.11111111 44:0.01538462 109:0.25 172:0.5 1794:1 
-0.0089676443111280767367388122579541 1:0.1826923 3:0.052631579 5:0.15789475 6:0.21052632 9:0.052631579 14:0.052631579 16:0.31578946 17:0.052631579 18:0.11428571 19:0.2 20:0.2 21:0.33333334 22:0.01219512 28:0.5 29:0.2 30:0.2 33:0.75 35:0.5 41:0.11111111 43:0.30000001 56:0.032786891 61:0.25 75:0.25 112:0.5 138:1 196:0.5 200:0.25 235:0.40000001 335:1 408:1 424:0.5 479:1 539:0.33333334 580:1 834:1 1136:1 1461:1 1823:1 1937:1 1938:1 
-0.008768144968349366255577770346008 1:0.23076923 3:0.083333328 5:0.041666672 6:0.041666672 8:0.083333343 14:0.20833333 17:0.083333328 18:0.54285711 19:0.06666667 22:0.024390239 27:0.2857143 29:0.1 41:0.55555558 43:0.40000001 52:0.2 53:0.14285713 56:0.01639344 61:0.25 64:0.5 65:0.33333334 68:0.5 84:0.5 93:0.33333334 96:0.33333334 104:0.5 108:0.5 110:0.5 112:0.5 115:0.66666669 120:0.33333334 123:0.5 129:0.5 130:0.5 148:0.2 188:0.5 224:0.5 277:0.33333334 282:0.33333334 310:0.5 329:1 346:0.5 370:0.5 391:0.5 472:0.5 473:0.5 912:1 934:1 1126:1 1170:1 1520:1 1564:0.5 1716:1 1907:1 
-0.010971102616426944148519950772425 1:0.14423077 3:0.06666667 5:0.2 7:0.06666667 9:0.06666667 14:0.2 18:0.30000001 19:0.2 22:0.01219512 23:0.14285713 41:0.33333334 43:0.5 52:0.2 66:0.33333334 71:0.5 73:1 78:0.33333334 105:0.5 115:0.33333334 117:0.25 123:0.5 126:0.5 188:0.5 232:0.5 233:0.33333334 375:1 385:0.5 472:0.5 476:0.5 659:1 923:1 924:1 1079:0.5 1087:1 1519:0.5 1614:1 1615:1 
-0.0094291234982328362562720158734919 1:0.02884615 4:0.33333334 18:0.47142857 43:0.1 54:0.11111111 83:0.25 333:0.5 781:0.5 935:1 936:1 937:1 938:1 
-0.01161715987281325412894261717156 1:0.16346154 2:0.11764706 4:0.05882353 5:0.17647059 6:0.17647059 7:0.05882353 9:0.05882353 18:0.01428571 19:0.2 27:0.14285713 29:0.2 30:0.1 34:0.33333334 38:0.33333334 39:0.5 40:0.33333334 43:0.30000001 54:0.11111111 74:0.25 75:0.25 81:0.5 124:0.16666667 144:0.5 165:1 172:0.5 200:0.25 251:1 337:0.25 366:0.5 389:0.5 440:1 536:1 538:1 768:1 1138:1 1161:1 1231:1 1838:1 2087:1 
-0.0071533671520501189086682636286696 1:0.1826923 3:0.21052632 4:0.2631579 5:0.15789475 7:0.052631579 16:0.10526316 18:0.18571429 19:0.2 20:0.2 22:0.04878049 33:0.25 43:0.1 44:0.01538462 47:0.2 48:0.16666667 51:0.125 54:0.55555558 60:0.33333334 61:0.5 124:0.16666667 133:0.16666667 181:0.16666667 190:1 241:0.5 266:1 406:0.33333334 413:0.5 424:0.5 543:0.5 569:1 828:1 829:1 871:1 873:1 1357:1 1542:1 1963:1 
-0.010080059867448558016955750815669 1:0.13461538 7:0.5714286 11:0.14285713 18:0.14285713 83:0.25 150:0.039999999 152:1 156:1 157:1 158:0.5 159:0.5 357:1 787:1 788:1 1473:1 2003:1 2004:1 
-0.012820390527262845448142059012753 1:0.0096153803 7:1 18:0.01428571 43:0.2 1864:1 1909:1 1910:1 1911:1 1912:1 1913:1 1914:1 
-0.0048866566396318445245072759064442 1:0.25961539 3:0.18518519 5:0.074074067 6:0.074074067 7:0.037037041 9:0.11111111 14:0.074074067 16:0.074074067 17:0.074074067 18:0.35714287 19:0.13333333 20:0.2 22:0.060975611 27:0.2857143 29:0.1 30:0.1 33:0.25 35:0.25 41:0.22222222 43:0.5 44:0.030769231 52:0.2 56:0.01639344 58:0.2 62:0.5 65:0.66666669 66:0.33333334 67:1 68:0.5 69:1 70:1 73:1 74:0.5 75:0.5 84:0.25 93:0.33333334 109:0.25 144:1 186:0.25 210:0.33333334 237:0.33333334 262:0.25 280:0.33333334 315:1 321:0.33333334 337:0.25 485:1 539:0.33333334 811:1 929:1 1120:1 1130:1 1424:1 
-0.014425461342510830994867454535324 1:0.11538462 5:0.16666667 7:0.083333328 13:0.16666667 17:0.083333328 18:0.01428571 19:0.13333333 84:0.25 88:0.5 96:0.33333334 108:0.5 282:0.33333334 314:1 315:1 322:0.25 383:0.5 467:1 484:1 549:1 583:1 670:1 1499:1 1568:1 1569:1 1570:1 
-0.018498972586251539312884872856557 1:0.01923077 18:0.30000001 150:0.01333333 186:0.25 1931:1 1932:1 1933:1 
-0.013680074416467671513664150495515 1:0.16346154 5:0.11764706 6:0.11764706 7:0.05882353 17:0.29411766 18:0.2 19:0.13333333 29:0.1 30:0.1 43:0.60000002 115:0.33333334 129:0.5 148:0.40000001 199:0.33333334 337:0.25 357:0.125 364:0.5 422:1 899:0.5 900:1 1970:1 2018:1 2019:1 2020:1 2022:1 2023:1 
-0.0069254424777283564093610657153022 1:1 3:0.78846157 4:0.02884615 5:0.057692312 12:0.0096153803 14:0.02884615 18:0.057142861 19:0.40000001 20:1 22:1 27:0.85714287 41:0.33333334 44:1 46:0.25 47:0.40000001 48:0.33333334 52:0.2 53:0.85714287 54:0.33333334 55:0.66666669 56:0.081967212 57:1 58:1 59:0.75 61:0.75 85:0.25 87:1 95:1 109:0.5 174:0.75 202:1 203:0.5 204:1 238:0.5 
-0.0094945465897007981503907814158083 1:0.15384614 3:0.125 14:0.0625 18:0.60000002 22:0.024390239 27:0.14285713 41:0.11111111 43:0.2 44:0.01538462 55:0.16666667 61:0.5 65:1 108:1 112:0.5 115:0.33333334 275:0.5 277:0.33333334 282:0.33333334 316:1 360:1 497:0.5 574:1 577:1 625:0.2857143 798:1 1525:1 1587:1 2014:1 
-0.0078073895333145076555481089997102 1:0.17307691 3:0.05555556 4:0.11111111 5:0.16666667 6:0.05555556 7:0.22222222 14:0.16666667 18:0.25714287 19:0.2 21:0.33333334 22:0.01219512 27:0.14285713 30:0.1 38:0.33333334 41:0.33333334 43:0.40000001 54:0.22222222 56:0.049180329 61:0.25 65:0.33333334 80:0.5 81:0.5 82:0.5 95:1 119:0.5 161:1 181:0.33333334 182:0.25 188:0.5 192:0.5 221:0.40000001 222:0.33333334 322:0.25 426:0.33333334 427:1 430:1 479:1 483:1 485:1 811:0.5 1150:1 1158:1 1799:1 2092:1 
-0.0056229426915375448070566477554166 1:0.04807692 5:0.2 7:0.2 18:0.42857143 19:0.06666667 38:0.33333334 43:0.1 118:1 121:1 150:0.01333333 186:0.25 256:0.5 766:1 1007:1 1031:1 1148:1 
-0.0090645282067362640404661888737792 1:0.11538462 5:0.16666667 6:0.16666667 7:0.083333328 11:0.16666667 18:0.2857143 19:0.13333333 27:0.2857143 29:0.2 43:0.30000001 56:0.01639344 62:0.5 67:0.5 69:0.5 124:0.16666667 142:0.25 148:0.2 156:1 189:0.16666667 200:0.5 257:0.5 337:0.25 387:0.5 408:1 526:0.25 736:1 737:1 738:1 739:1 740:1 741:1 742:1 743:1 
-0.0081889374427996514116401272076473 1:0.10576923 3:0.090909094 5:0.18181819 6:0.090909094 14:0.090909094 17:0.090909094 18:0.41428572 19:0.13333333 22:0.01219512 26:0.5 27:0.14285713 29:0.1 41:0.11111111 43:0.2 56:0.01639344 67:0.5 69:0.5 84:0.25 93:0.33333334 110:0.5 123:0.5 142:0.25 214:0.5 314:1 315:1 337:0.25 348:0.5 514:0.5 525:1 675:1 926:1 929:1 930:1 931:1 
-0.010076396247054215243865726847616 1:0.057692312 2:0.33333334 7:0.5 18:0.75714284 38:0.33333334 40:0.33333334 43:0.1 222:0.33333334 269:1 322:0.25 389:0.5 1310:1 1417:0.5 1843:1 1844:1 1845:1 
-0.0056614470706127422230946599768231 1:0.25 3:0.26923078 5:0.03846154 6:0.07692308 9:0.03846154 12:0.03846154 14:0.1923077 16:0.07692308 18:0.32857144 19:0.06666667 22:0.085365847 26:0.5 29:0.2 32:0.5 33:0.25 41:0.55555558 43:0.30000001 44:0.046153851 51:0.25 52:0.40000001 61:0.75 75:0.25 80:0.5 85:0.25 112:0.5 115:0.33333334 123:1 160:1 162:0.5 163:1 174:0.25 224:0.5 339:1 370:0.5 413:0.5 481:0.5 501:0.66666669 526:0.25 530:0.5 564:1 799:0.33333334 1170:1 1409:1 1518:1 
-0.015321009969374814810305629464438 1:0.086538456 5:0.33333334 6:0.11111111 8:0.22222222 14:0.11111111 18:0.01428571 19:0.2 23:0.14285713 29:0.1 41:0.11111111 64:0.5 490:1 673:0.5 708:1 709:1 1251:1 1709:1 1785:1 1786:1 1787:1 
-0.008477973821961658218437918321797 1:0.20192309 3:0.33333334 4:0.19047619 5:0.14285713 6:0.047619049 18:0.21428572 19:0.2 20:0.40000001 22:0.085365847 26:0.5 30:0.1 42:0.22222222 43:0.2 44:0.01538462 47:0.40000001 48:0.5 54:0.44444445 56:0.01639344 58:0.2 59:0.25 61:0.5 112:0.5 124:0.5 173:1 210:0.33333334 217:0.5 536:1 540:1 541:0.5 542:1 543:1 544:0.5 545:1 546:1 547:1 548:1 549:1 
-0.0096153134942308302046676260488312 1:0.15384614 3:0.0625 5:0.25 6:0.0625 14:0.125 17:0.0625 18:0.01428571 19:0.26666668 22:0.01219512 23:0.14285713 26:0.5 30:0.1 41:0.22222222 43:0.2 52:0.2 56:0.032786891 61:0.5 80:1 82:0.5 92:0.5 105:0.5 161:1 185:1 186:0.25 191:1 192:0.5 262:0.25 391:0.5 426:0.33333334 427:1 512:1 569:1 991:1 1263:1 1264:1 
-1.0753920170356965346769584357389 18:0.54285711 33:0.125 
-0.0069138367515494307882772950790695 1:0.14423077 5:0.13333333 7:0.13333333 8:0.13333334 9:0.13333333 11:0.06666667 17:0.06666667 18:0.21428572 19:0.13333333 38:0.33333334 43:0.2 56:0.01639344 64:0.5 75:0.5 83:0.25 84:0.25 144:0.5 156:0.5 186:0.25 222:0.33333334 237:0.33333334 259:0.66666669 321:0.33333334 346:0.5 404:1 495:0.5 521:0.33333334 804:1 813:0.5 934:1 1037:1 1065:1 1136:1 1364:1 1365:1 
-0.0045148866433428556238505180431275 1:0.14423077 3:0.2 5:0.13333333 8:0.13333334 9:0.06666667 14:0.06666667 17:0.06666667 18:0.65714288 19:0.13333333 20:0.2 21:0.33333334 22:0.036585368 27:0.14285713 41:0.11111111 43:0.2 44:0.01538462 61:0.25 64:0.5 66:0.33333334 69:1 84:0.25 93:0.33333334 108:0.5 142:0.25 150:0.01333333 248:1 257:0.5 258:0.5 279:0.5 345:0.5 385:0.5 396:1 443:1 497:0.5 668:1 736:1 1099:1 1100:1 
-0.0046976341584454867766895702629881 1:0.096153848 3:0.1 5:0.40000001 6:0.1 18:0.17142858 19:0.26666668 21:0.33333334 22:0.01219512 23:0.14285713 30:0.1 43:0.1 56:0.01639344 65:0.33333334 108:0.5 137:0.5 148:0.2 251:1 325:1 328:1 408:1 485:1 996:1 997:1 998:1 999:1 
-0.010034361383354097052578168813852 1:0.16346154 3:0.41176471 4:0.17647059 5:0.05882353 16:0.17647059 18:0.15714286 19:0.06666667 22:0.085365847 33:0.375 43:0.1 44:0.07692308 48:0.16666667 49:0.25 54:0.33333334 56:0.01639344 57:0.2 58:0.2 124:0.33333334 189:0.16666667 233:0.66666669 235:0.2 283:0.5 526:0.5 735:0.33333334 950:0.5 952:0.125 1167:1 1556:1 1861:1 1879:1 1995:1 2072:1 2073:1 2074:1 2075:1 2076:1 2077:1 2078:1 
-0.0069168079368763773356887369914148 1:0.04807692 3:0.80000001 18:0.75714284 22:0.04878049 44:0.01538462 124:0.16666667 244:0.33333334 639:1 1267:1 1316:1 1496:1 
-7.4549625743924267246010018084235e-08 1:0.03846154 7:0.25 14:0.25 17:0.25 18:0.74285716 38:0.33333334 41:0.11111111 504:1 
-0.049817286252171945337696712385878 1:0.0096153803 18:0.51428568 781:0.5 
-0.008832152589212702298304691339581 1:0.17307691 5:0.27777779 6:0.22222222 8:0.11111112 14:0.05555556 18:0.35714287 19:0.33333334 23:0.14285713 29:0.1 30:0.30000001 41:0.11111111 43:0.69999999 56:0.032786891 64:0.5 65:0.33333334 96:0.33333334 97:0.5 105:0.5 108:0.5 115:0.33333334 126:0.5 129:0.5 134:0.5 141:0.5 148:0.2 189:0.16666667 199:0.66666669 337:0.25 426:0.33333334 450:1 501:1 577:1 598:1 799:1 907:0.5 1169:1 1409:1 1535:1 1743:1 
-0.0043637391927476400568797210155481 1:0.096153848 7:0.40000001 9:0.1 18:0.37142858 43:0.40000001 74:0.25 75:0.25 83:0.25 102:1 124:0.33333334 186:0.25 237:0.33333334 253:0.5 262:0.25 321:0.33333334 322:0.25 371:1 373:1 382:0.5 593:1 594:1 595:0.33333334 596:0.33333334 632:0.33333334 1442:1 
-0.0085690533733220764639471056511866 1:0.067307688 7:0.2857143 9:0.42857143 18:0.071428567 75:0.25 233:0.66666669 237:0.66666669 259:0.66666669 494:1 496:1 522:1 528:1 603:1 604:1 
-0.012628321692745735418950125961146 1:0.02884615 18:0.24285714 37:1 61:0.25 1034:1 1035:1 1127:1 
-0.0090883442158665311838561251533974 1:0.125 6:0.30769232 7:0.07692308 8:0.15384616 9:0.15384614 14:0.07692308 17:0.07692308 18:0.057142861 27:0.2857143 30:0.40000001 41:0.11111111 43:0.2 63:1 64:0.5 99:0.25 132:0.5 142:0.25 181:0.16666667 188:0.5 196:0.25 257:0.5 349:0.66666669 352:0.5 400:1 514:0.5 515:1 665:1 1071:1 1242:1 1298:1 
-0.0078037805317114116235299725587993 1:0.10576923 5:0.45454544 6:0.090909094 18:0.24285714 19:0.33333334 23:0.42857143 26:1 30:0.1 43:0.2 148:0.2 150:0.01333333 186:0.25 189:0.16666667 196:0.25 211:1 212:1 246:1 438:1 439:0.5 801:1 1149:1 2025:1 
-0.012185075968023647424720579124369 1:0.13461538 3:0.2857143 6:0.071428567 7:0.071428567 9:0.14285713 14:0.071428567 18:0.22857143 22:0.04878049 30:0.1 41:0.11111111 44:0.030769231 56:0.01639344 65:0.66666669 96:0.33333334 109:0.25 291:0.5 349:1 479:1 511:0.5 575:0.5 745:1 922:0.5 1051:1 1078:1 1097:1 1359:1 1360:1 1552:1 
-0.0096132689443518617999906439308688 1:0.125 3:0.38461539 4:0.23076923 18:0.34285715 22:0.060975611 44:0.061538462 54:0.33333334 389:1 526:0.5 536:1 538:1 544:1 548:1 631:1 744:1 943:1 1594:1 
-0.009187787431639537691352437320802 1:0.16346154 2:0.11764706 3:0.29411766 4:0.05882353 5:0.05882353 6:0.11764706 7:0.17647059 17:0.05882353 18:0.17142858 19:0.06666667 22:0.060975611 27:0.2857143 29:0.1 30:0.1 38:0.33333334 39:0.5 40:0.33333334 44:0.030769231 53:0.14285713 54:0.11111111 56:0.01639344 58:0.2 115:0.33333334 162:0.5 181:0.16666667 182:0.25 210:0.33333334 220:1 287:0.33333334 298:1 301:0.33333334 322:0.25 1158:1 1598:1 1710:1 1711:1 1712:1 1713:1 
-0.010927079299022134442620490801801 1:0.17307691 3:0.66666669 5:0.05555556 6:0.05555556 17:0.05555556 18:0.14285713 19:0.06666667 20:0.2 22:0.14634146 29:0.1 44:0.10769231 115:0.33333334 127:0.33333334 171:0.5 172:0.5 228:1 239:1 240:1 242:1 287:0.33333334 301:0.33333334 714:1 715:1 716:1 
-0.0042966291492122516554319489046065 1:0.30769232 3:0.5 4:0.125 5:0.03125 6:0.03125 7:0.03125 17:0.03125 18:0.2857143 19:0.06666667 20:0.2 22:0.19512194 27:0.2857143 29:0.1 38:0.33333334 43:0.30000001 44:0.13846155 46:0.25 47:0.40000001 48:0.33333334 53:0.2857143 54:0.44444445 55:0.16666667 56:0.01639344 57:0.2 58:0.2 61:0.5 112:0.5 124:0.16666667 133:0.16666667 200:0.25 222:0.33333334 233:0.33333334 244:0.33333334 339:1 439:0.5 445:1 462:1 569:1 580:1 679:1 914:1 1138:1 1700:1 1826:1 
-0.011247113031526524001835198873778 1:0.02884615 18:0.30000001 56:0.01639344 83:0.25 150:0.01333333 157:1 158:0.5 159:0.5 501:0.33333334 682:1 1394:1 
-0.015194040610228397997216731596382 1:0.0096153803 18:0.12857144 327:1 
-0.0070936505125331244039910139065341 1:0.25 2:0.07692308 3:0.23076923 5:0.03846154 9:0.03846154 14:0.23076923 17:0.11538462 18:0.32857144 19:0.06666667 22:0.073170729 26:0.5 27:0.42857143 40:0.33333334 41:0.66666669 43:0.1 44:0.030769231 45:1 52:0.60000002 55:0.16666667 56:0.01639344 57:0.2 67:0.5 69:0.5 75:0.25 84:0.5 93:0.66666669 96:0.33333334 105:0.5 106:1 109:0.25 110:1 111:1 123:0.5 144:0.5 150:0.01333333 214:0.5 310:0.5 525:1 562:1 567:1 570:1 1564:0.5 1738:1 1996:0.5 
-0.0077867155876689530397127825267489 1:0.15384614 3:0.0625 5:0.25 6:0.0625 9:0.0625 14:0.25 17:0.0625 18:0.25714287 19:0.26666668 22:0.01219512 27:0.14285713 30:0.1 41:0.44444445 43:0.2 52:0.2 56:0.01639344 61:0.25 75:0.25 80:0.5 81:0.5 82:0.5 95:1 109:0.25 144:0.5 148:0.2 161:1 164:1 165:1 166:0.5 167:1 168:1 169:1 196:0.25 224:0.5 251:1 1998:1 1999:1 
-0.89713017048577603507197864018963 18:0.52857143 54:0.11111111 
-0.19900765222557384448442974189675 1:0.0096153803 18:0.5 83:0.25 
-0.0069441717039927589039116639924032 1:0.25 3:0.30769232 5:0.1923077 6:0.07692308 14:0.11538462 18:0.25714287 19:0.33333334 20:0.40000001 21:0.66666669 22:0.097560979 29:0.1 30:0.1 41:0.33333334 43:0.2 44:0.046153851 51:0.125 52:0.2 56:0.01639344 58:0.2 59:0.25 61:0.25 96:0.66666669 97:0.5 98:1 105:0.5 108:1 117:0.25 123:0.5 130:0.5 150:0.01333333 166:0.5 188:0.5 196:0.25 233:0.33333334 329:1 377:0.5 389:0.5 508:1 598:1 940:0.5 1229:1 1248:1 1309:1 1526:1 1621:1 
-0.0071871365083675739504620594289008 1:0.10576923 6:0.090909094 8:0.18181819 9:0.27272728 16:0.090909094 17:0.090909094 18:0.057142861 27:0.14285713 30:0.1 33:0.125 43:0.5 64:0.5 74:0.75 75:0.75 96:0.33333334 142:0.25 144:1 186:0.25 199:0.33333334 257:0.5 332:1 465:1 514:0.5 736:1 934:1 1187:1 1589:1 1590:1 1591:1 1776:1 
-0.0026914828252079733839075004198094 1:0.02884615 18:0.11428571 108:0.5 118:0.5 150:0.01333333 325:1 328:1 765:1 766:1 
-0.013462386476477383387417852134149 1:0.0096153803 18:0.24285714 56:1 65:0.33333334 1098:1 1546:1 
-0.0082799859791904770883741448983528 1:0.10576923 6:0.090909094 7:0.090909094 8:0.18181819 9:0.18181819 14:0.090909094 17:0.18181819 18:0.14285713 27:0.14285713 29:0.1 41:0.11111111 43:0.30000001 56:0.032786891 64:0.5 74:0.25 75:0.25 84:0.25 93:0.33333334 110:0.5 115:0.33333334 126:0.5 139:0.5 141:0.5 186:0.25 259:0.33333334 260:1 262:0.25 322:0.25 337:0.25 443:1 483:1 1803:1 1868:1 2030:1 2031:1 2032:1 
-0.0089107789797329434861028474301747 1:0.096153848 3:0.40000001 5:0.1 6:0.1 7:0.1 18:0.30000001 19:0.06666667 21:0.33333334 22:0.04878049 29:0.1 43:0.1 61:0.25 162:0.5 174:0.25 181:0.16666667 281:1 283:1 287:0.33333334 608:0.16666667 977:1 978:1 1191:0.5 1193:0.5 1342:1 1447:0.5 1764:1 1878:1 
-0.0068931075761629765838445216274977 1:0.11538462 3:0.083333328 5:0.083333328 9:0.25 18:0.071428567 19:0.06666667 22:0.01219512 27:0.14285713 61:0.25 66:0.33333334 75:0.5 80:0.5 107:1 108:0.5 142:0.75 175:1 257:0.5 258:0.5 501:0.33333334 561:1 661:1 1136:1 1687:1 1688:1 
-0.0071767925360304964457758281071165 1:0.17307691 3:0.27777779 4:0.05555556 5:0.05555556 7:0.05555556 14:0.22222222 17:0.05555556 18:0.24285714 19:0.06666667 22:0.060975611 27:0.14285713 41:0.44444445 44:0.030769231 53:0.14285713 54:0.11111111 56:0.01639344 61:0.25 65:0.66666669 68:0.5 84:0.25 93:0.33333334 105:0.5 109:0.5 115:0.33333334 120:0.33333334 124:0.16666667 173:1 224:0.5 280:0.33333334 291:0.5 479:1 543:0.5 702:1 1095:1 1096:1 1097:1 1170:1 1596:1 1597:1 
-0.0057483306694656524649111872804497 1:0.067307688 5:0.42857143 12:0.14285713 14:0.14285713 18:0.25714287 19:0.2 23:0.14285713 41:0.11111111 61:0.25 82:0.5 85:0.25 87:1 831:1 995:1 1182:1 2013:1 
-0.0053510412289349048448050538695497 1:0.20192309 3:0.33333334 5:0.33333334 18:0.24285714 19:0.46666667 20:0.60000002 22:0.085365847 23:0.2857143 42:0.11111111 43:0.30000001 44:0.046153851 51:0.125 61:0.25 80:0.5 96:0.66666669 112:0.5 118:1 148:0.2 150:0.026666669 189:0.33333334 247:1 526:0.5 617:0.66666669 1067:1 1113:1 1115:1 1116:1 1820:1 1821:1 1822:1 
-0.0067958145958742282796705147518423 1:0.14423077 5:0.06666667 6:0.2 7:0.2 9:0.06666667 14:0.06666667 18:0.30000001 19:0.06666667 29:0.2 30:0.1 38:0.33333334 41:0.11111111 43:0.40000001 74:0.25 75:0.5 105:0.5 144:0.5 150:0.01333333 186:0.25 222:0.33333334 237:0.33333334 259:0.33333334 260:1 261:1 262:0.25 286:0.5 315:1 321:0.33333334 322:0.25 337:0.25 483:1 495:0.5 591:1 686:1 760:1 929:1 1485:1 
-0.0054960649247794051211468691064965 1:0.04807692 5:0.40000001 18:0.35714287 19:0.13333333 65:0.33333334 327:1 389:0.5 437:1 440:1 485:1 1947:1 
-0.0060527312495266393649329117465641 1:0.086538456 2:0.22222222 7:0.22222222 14:0.11111111 18:0.45714286 27:0.14285713 38:0.33333334 40:0.33333334 41:0.11111111 43:0.2 65:0.33333334 95:1 124:0.16666667 140:1 186:0.25 191:1 208:0.5 222:0.33333334 366:0.5 557:1 762:1 763:1 1138:1 1324:1 
-0.0072504881688308939549636455978998 1:0.15384614 3:0.3125 4:0.125 5:0.0625 16:0.125 18:0.18571429 19:0.06666667 20:0.2 22:0.060975611 33:0.25 44:0.01538462 48:0.33333334 54:0.22222222 60:0.33333334 61:0.25 78:0.33333334 113:0.5 124:0.16666667 186:0.25 216:1 265:1 533:0.5 536:1 641:1 945:1 947:1 948:1 949:1 950:0.5 
-0.030826693885932766880930699926466 1:0.0096153803 18:0.44285715 192:0.5 
-0.0062807551894897241037685198250529 1:0.086538456 3:0.22222222 5:0.11111111 14:0.11111111 17:0.22222222 18:0.41428572 19:0.06666667 21:0.33333334 22:0.024390239 27:0.14285713 41:0.11111111 43:0.1 55:0.16666667 56:0.01639344 96:0.33333334 97:0.5 115:0.33333334 126:0.5 139:0.5 161:1 223:1 225:1 423:0.25 428:1 433:1 434:1 435:1 
-0.0055136537087879826032899011067911 1:0.15384614 3:0.3125 4:0.0625 14:0.1875 18:0.41428572 22:0.060975611 27:0.14285713 41:0.33333334 44:0.01538462 45:0.5 47:0.2 52:0.40000001 54:0.11111111 56:0.01639344 61:0.25 65:0.66666669 68:0.5 83:0.25 109:0.25 120:0.66666669 388:0.5 389:0.5 479:1 480:1 508:1 1271:1 1335:1 1507:1 1508:1 
-0.0062989460092741705529717499700837 1:0.07692308 7:0.125 9:0.125 18:0.085714288 27:0.2857143 38:0.33333334 66:0.33333334 75:0.25 124:0.16666667 233:0.33333334 258:0.5 330:1 332:1 1324:1 1460:1 1463:1 1464:1 
-0.0077203102917169277169540109184709 1:0.067307688 3:0.14285713 5:0.14285713 7:0.14285713 9:0.14285713 17:0.14285713 18:0.11428571 19:0.06666667 22:0.01219512 43:0.2 51:0.125 56:0.01639344 65:0.33333334 75:0.25 78:0.33333334 189:0.16666667 335:1 456:1 811:0.5 905:1 960:1 1238:1 1397:1 1398:1 
-0.0043055741312109461343959893042665 1:0.16346154 3:0.29411766 4:0.05882353 5:0.17647059 14:0.11764706 17:0.05882353 18:0.47142857 19:0.2 22:0.060975611 23:0.14285713 27:0.42857143 41:0.22222222 45:1 47:0.2 48:0.16666667 52:0.2 53:0.14285713 54:0.11111111 55:0.33333334 62:0.5 124:0.16666667 170:1 171:0.5 172:0.5 244:0.33333334 927:1 928:1 1896:1 1899:1 1962:1 
-0.0040783513406428967273953389849339 1:0.15384614 3:0.3125 5:0.0625 6:0.0625 8:0.125 9:0.0625 12:0.0625 14:0.0625 18:0.44285715 19:0.06666667 22:0.060975611 27:0.2857143 30:0.1 41:0.11111111 43:0.1 44:0.030769231 53:0.14285713 55:0.16666667 56:0.049180329 61:0.25 64:0.5 75:0.25 85:0.25 91:0.5 108:0.5 109:0.25 136:0.5 139:0.5 141:0.5 144:0.5 231:1 408:1 426:0.33333334 497:0.5 501:0.33333334 661:1 932:1 998:1 1509:1 1690:1 
-0.0065280013372467577195679133694739 1:0.1826923 3:0.15789475 5:0.2631579 14:0.10526316 18:0.37142858 19:0.33333334 21:0.33333334 22:0.036585368 23:0.42857143 26:0.5 41:0.22222222 44:0.01538462 52:0.2 56:0.01639344 61:0.5 65:0.33333334 96:0.33333334 108:0.5 117:0.25 118:1 140:1 166:0.5 174:0.25 214:0.5 279:0.5 525:1 583:1 1129:1 1526:1 1742:1 1792:1 1884:1 
-0.0043980273095596622914826845374137 1:0.14423077 3:0.13333333 5:0.06666667 6:0.06666667 7:0.13333333 9:0.13333333 14:0.06666667 17:0.06666667 18:0.18571429 19:0.06666667 22:0.024390239 27:0.14285713 29:0.1 41:0.11111111 43:0.30000001 56:0.01639344 58:0.2 65:0.66666669 68:0.5 74:0.25 75:0.25 81:0.5 84:0.25 93:0.33333334 115:0.33333334 120:0.33333334 123:0.5 144:0.5 237:0.33333334 259:0.33333334 280:0.33333334 315:1 322:0.25 337:0.25 361:1 495:0.5 662:1 1125:1 1130:1 1404:1 1405:1 1406:1 
-0.0024368406458263273256514835907183 1:0.10576923 6:0.36363637 9:0.090909094 16:0.090909094 18:0.40000001 28:0.25 29:0.1 30:0.30000001 33:0.125 43:0.40000001 74:0.25 75:0.25 196:0.5 200:0.25 232:0.5 233:0.66666669 234:1 235:0.2 283:0.5 383:0.5 384:1 409:1 410:1 432:1 
-0.005259288523480391830400293429193 1:0.10576923 6:0.18181819 7:0.18181819 16:0.27272728 17:0.090909094 18:0.028571431 28:0.25 29:0.2 32:0.25 33:0.375 181:0.33333334 340:0.33333334 367:0.5 439:1 539:0.33333334 872:1 899:0.5 1747:1 1780:1 1922:1 1923:1 
-0.0051077129444245059769480477029902 1:0.07692308 7:0.25 11:0.25 18:0.085714288 43:0.2 83:0.25 124:0.33333334 150:0.039999999 152:1 154:1 156:1 157:1 158:0.5 159:0.5 333:0.5 593:1 594:1 595:0.66666669 596:0.66666669 666:1 1419:1 
-0.0057514795775260975710385658032919 1:0.10576923 7:0.18181819 9:0.090909094 18:0.12857144 27:0.2857143 43:0.2 67:0.5 69:0.5 75:0.25 78:0.33333334 142:0.25 144:0.5 181:0.16666667 186:0.75 191:1 237:0.33333334 257:0.5 264:0.5 306:1 321:0.33333334 404:1 514:0.5 572:0.5 690:1 736:1 1186:1 1187:1 
-0.0059287665178255725961786737343573 1:0.25961539 3:0.4074074 4:0.18518519 6:0.11111111 7:0.074074067 16:0.074074067 18:0.11428571 22:0.13414633 27:0.2857143 29:0.1 30:0.2 32:0.25 33:0.25 36:0.5 42:0.11111111 43:0.5 44:0.061538462 47:0.60000002 51:0.125 53:0.2857143 54:0.55555558 61:0.25 112:0.5 119:0.25 133:0.16666667 150:0.01333333 181:0.33333334 199:0.33333334 209:0.80000001 217:0.5 248:1 285:1 423:0.5 461:1 608:0.16666667 632:0.66666669 693:1 865:1 944:1 984:1 985:1 986:1 
-0.0064683317421247096823400113407843 1:0.1826923 3:0.63157892 4:0.15789475 14:0.052631579 16:0.052631579 17:0.10526316 18:0.38571429 22:0.14634146 33:0.125 41:0.11111111 42:0.11111111 43:0.1 44:0.061538462 47:0.60000002 48:0.16666667 49:0.25 51:0.125 52:0.2 54:0.33333334 109:0.25 150:0.01333333 248:1 353:1 406:0.33333334 731:1 733:1 734:1 1796:1 1797:1 1846:1 
-0.008092643718986701831252794647753 1:0.07692308 3:0.5 6:0.125 9:0.125 18:0.24285714 22:0.04878049 30:0.1 44:0.01538462 75:0.25 115:0.33333334 136:0.5 210:0.33333334 602:1 1091:1 1092:1 1093:1 1891:1 
-0.00569990103672528801437291434695 1:0.03846154 5:0.25 9:0.5 18:0.15714286 19:0.06666667 66:0.33333334 75:0.25 142:0.25 149:1 274:1 922:0.5 1249:1 1250:1 
-0.0049138848032301068666227727987916 1:0.13461538 3:0.14285713 6:0.071428567 7:0.071428567 9:0.14285713 14:0.071428567 16:0.071428567 17:0.071428567 18:0.40000001 22:0.024390239 27:0.14285713 30:0.1 33:0.125 35:0.25 41:0.11111111 43:0.30000001 44:0.01538462 50:1 56:0.01639344 66:0.33333334 67:0.5 69:0.5 73:1 75:0.25 83:0.25 95:1 144:0.5 196:0.25 237:0.33333334 259:0.33333334 331:1 374:1 495:0.5 496:1 526:0.25 527:0.33333334 675:1 1335:1 1906:1 
-0.0071933881341966817574151704661745 1:0.11538462 3:0.083333328 5:0.25 7:0.16666667 14:0.083333328 17:0.16666667 18:0.01428571 19:0.2 22:0.01219512 27:0.14285713 41:0.11111111 81:0.5 95:1 108:0.5 124:0.16666667 166:0.5 181:0.16666667 279:0.5 456:1 526:0.25 527:0.33333334 1894:1 1895:1 1896:1 1897:1 1898:1 1899:1 
-0.0038342739849377815292141846725826 1:0.03846154 2:0.5 4:0.25 17:0.25 18:0.48571429 40:0.33333334 43:0.30000001 54:0.11111111 209:0.2 366:0.5 391:0.5 489:1 491:1 588:1 704:1 1777:1 
-0.004647427857562628529530801557712 1:0.23076923 3:0.20833333 5:0.083333328 8:0.083333343 9:0.041666672 14:0.125 17:0.083333328 18:0.40000001 19:0.13333333 22:0.060975611 41:0.33333334 43:0.30000001 44:0.030769231 51:0.25 52:0.2 61:0.75 64:0.5 75:0.25 80:0.5 84:0.5 88:0.5 93:0.33333334 96:0.33333334 108:1 112:0.5 115:0.33333334 123:0.5 127:0.33333334 174:0.25 224:0.5 233:0.33333334 277:0.33333334 279:0.5 282:0.33333334 336:1 346:0.5 493:1 497:0.5 501:0.33333334 587:1 914:1 1065:1 1137:1 1409:1 1600:1 
-0.0050538992751418630039461632463826 1:0.36538461 3:0.65789473 5:0.02631579 14:0.02631579 18:0.15714286 19:0.06666667 20:0.2 22:0.30487806 27:0.2857143 41:0.11111111 43:0.1 44:0.21538462 45:0.5 51:0.125 52:0.2 53:0.14285713 55:0.33333334 59:0.5 61:0.75 115:1 127:1 172:0.5 174:0.75 186:0.25 192:0.5 228:1 301:1 533:0.5 534:1 880:1 890:1 1773:1 
-0.0074890518740708235737035813883722 1:0.11538462 7:0.5 11:0.16666667 18:0.085714288 38:0.66666669 43:0.1 124:0.33333334 150:0.026666669 152:1 154:0.5 156:1 322:1 431:0.33333334 756:0.66666669 758:0.66666669 785:1 786:0.66666669 787:1 788:1 789:0.66666669 790:1 
-0.012782666458069970663591341519805 1:0.02884615 5:0.33333334 18:0.028571431 19:0.06666667 403:1 1256:1 1468:1 1469:1 
-0.008129252609159989817477764972864 1:0.02884615 18:0.11428571 108:0.5 325:1 328:1 1188:1 1189:1 
-0.0072779049100187998694311275471591 1:0.07692308 5:0.125 6:0.125 7:0.125 8:0.25 9:0.25 17:0.125 18:0.071428567 19:0.06666667 26:0.5 30:0.1 43:0.2 64:0.5 148:0.2 181:0.16666667 189:0.16666667 259:0.33333334 349:0.33333334 352:0.5 495:0.5 761:1 858:1 1049:1 1050:1 1051:1 1052:1 
-0.0043028344799235368478562691052502 1:0.13461538 3:0.14285713 5:0.21428572 9:0.14285713 18:0.15714286 19:0.2 22:0.024390239 27:0.14285713 61:0.25 62:0.5 66:0.33333334 67:0.5 69:0.5 70:1 75:0.25 77:0.5 78:0.33333334 113:0.5 124:0.33333334 165:1 174:0.25 243:0.5 244:0.33333334 245:0.5 276:1 314:1 315:1 359:1 531:1 1136:1 
-0.0064689575525809644984676083367958 1:0.1826923 3:0.052631579 4:0.052631579 5:0.2631579 6:0.21052632 14:0.15789475 18:0.01428571 19:0.33333334 21:0.33333334 22:0.01219512 26:0.5 27:0.2857143 29:0.1 30:0.30000001 41:0.33333334 43:0.1 45:0.5 54:0.11111111 55:0.16666667 56:0.01639344 95:1 96:0.33333334 97:0.5 105:0.5 119:0.25 137:1 150:0.026666669 200:0.25 233:0.33333334 247:0.5 251:1 252:1 271:1 286:1 405:0.33333334 408:1 488:0.33333334 512:1 658:1 707:1 
-0.005256895246600953343352191637905 1:0.16346154 3:0.35294119 4:0.05882353 5:0.17647059 7:0.11764706 14:0.05882353 18:0.15714286 19:0.2 21:0.33333334 22:0.073170729 27:0.14285713 41:0.11111111 43:0.2 44:0.046153851 45:0.5 54:0.11111111 55:0.16666667 56:0.01639344 58:0.2 124:0.16666667 148:0.2 170:1 171:0.5 172:0.5 173:1 181:0.33333334 221:0.2 232:0.5 233:0.33333334 244:0.33333334 266:1 407:1 622:1 623:1 624:1 910:0.33333334 1584:1 
-0.0033939501565681778720573458230092 1:0.28846154 3:0.2 5:0.13333333 7:0.033333331 8:0.066666663 9:0.033333331 14:0.13333333 17:0.1 18:0.3142857 19:0.26666668 21:0.33333334 22:0.073170729 27:0.2857143 41:0.44444445 43:0.5 44:0.046153851 51:0.125 52:0.2 56:0.032786891 58:0.2 61:0.25 62:0.5 64:0.5 65:0.33333334 69:0.5 75:0.25 84:0.5 93:0.66666669 104:0.5 108:0.5 109:0.25 110:0.5 112:0.5 115:0.33333334 116:1 122:0.5 123:0.5 127:0.33333334 139:0.5 141:0.5 142:0.25 144:0.5 186:0.5 189:0.33333334 237:0.33333334 257:0.5 279:0.5 345:0.5 516:1 712:1 713:0.5 736:1 917:1 933:1 1146:1 1395:1 
-0.0036692013196004823367968317171517 1:0.14423077 2:0.26666665 4:0.06666667 5:0.06666667 6:0.06666667 7:0.06666667 9:0.06666667 17:0.06666667 18:0.41428572 19:0.06666667 27:0.14285713 30:0.1 40:0.66666669 43:0.60000002 54:0.11111111 56:0.032786891 61:0.25 74:0.25 75:0.25 132:0.5 144:0.5 148:0.2 186:0.25 189:0.16666667 191:1 262:0.25 349:0.33333334 352:0.5 357:0.125 366:1 554:1 665:1 987:0.5 988:1 1417:1 1572:1 1672:0.5 
-0.017194403247687783942154737815144 1:0.0096153803 18:0.45714286 211:1 
-0.0098483063340583099076752660039347 1:0.10576923 3:0.63636363 5:0.090909094 18:0.1 19:0.06666667 20:0.2 22:0.085365847 27:0.14285713 44:0.046153851 53:0.14285713 55:0.16666667 1040:1 1041:1 1042:1 1043:1 1044:1 1045:1 
-0.0074214137340552236918322925873781 1:0.07692308 5:0.125 6:0.125 7:0.125 9:0.25 17:0.125 18:0.071428567 19:0.06666667 30:0.1 38:0.33333334 43:0.2 148:0.2 186:0.25 196:0.25 222:0.33333334 233:0.33333334 259:0.33333334 349:0.33333334 528:1 535:1 1148:1 1149:1 1677:1 1678:1 1679:1 
-0.012960323964131270635391501855338 1:0.0096153803 12:1 18:0.3142857 85:0.25 
-0.0058851657550135910712540976419405 1:0.07692308 4:0.25 6:0.375 12:0.125 16:0.125 18:0.14285713 28:0.25 29:0.30000001 32:0.25 33:0.125 43:0.1 54:0.22222222 56:0.01639344 85:0.25 200:0.25 391:0.5 464:1 498:1 500:1 704:1 1212:1 1520:1 
-0.0042802863109461120744159146056518 1:0.1826923 3:0.52631581 4:0.10526316 18:0.24285714 22:0.12195122 43:0.1 44:0.07692308 47:0.40000001 48:0.16666667 54:0.22222222 61:0.5 112:0.5 113:0.5 124:0.16666667 174:0.25 423:0.5 639:1 965:1 966:1 967:1 1003:1 1111:1 1204:0.25 1205:0.25 1458:1 1866:0.5 
-0.0042066172049200880114772083118169 1:0.125 3:0.07692308 6:0.07692308 14:0.23076923 18:0.27142856 22:0.01219512 27:0.14285713 30:0.1 41:0.33333334 43:0.1 51:0.125 61:0.25 65:0.66666669 68:0.5 115:0.33333334 122:0.5 123:0.5 127:0.33333334 224:0.5 310:0.5 311:1 380:1 389:0.5 472:0.5 473:0.5 705:1 1391:1 1392:1 1393:1 
-0.0052964395502961671494124296089012 1:0.07692308 2:0.5 5:0.25 7:0.375 17:0.125 18:0.1 19:0.13333333 38:0.33333334 40:0.66666669 43:0.2 150:0.026666669 222:0.33333334 256:1 357:0.25 364:1 365:1 526:0.25 1057:1 1058:1 1426:0.5 1516:0.5 1848:1 
-0.0052024056657522712437957679298961 1:0.02884615 2:0.66666669 17:0.33333334 18:0.04285714 40:0.33333334 568:1 569:1 1412:1 1413:1 
-0.0068491055010352006049423323474912 1:0.14423077 3:0.46666667 6:0.06666667 14:0.06666667 16:0.06666667 18:0.15714286 22:0.085365847 25:1 26:0.5 27:0.14285713 29:0.1 33:0.125 41:0.11111111 44:0.046153851 52:0.2 53:0.14285713 214:0.5 287:0.33333334 490:1 526:0.25 527:0.33333334 2028:1 2029:1 2099:0.5 2100:1 2101:0.5 2102:1 
-0.007656251532432797705929328202501 1:0.067307688 5:0.14285713 7:0.14285713 18:0.085714288 19:0.06666667 27:0.14285713 38:0.33333334 43:0.1 56:0.01639344 65:0.33333334 67:0.5 68:0.5 69:0.5 124:0.16666667 148:0.2 580:1 625:0.14285713 811:0.5 1159:1 1459:1 1460:1 1461:1 1462:1 
-0.023499511625658695695983979589982 1:0.0096153803 18:0.27142856 1470:1 
-0.0060250083118306013707510260246636 1:0.096153848 5:0.2 8:0.2 17:0.1 18:0.085714288 19:0.13333333 27:0.14285713 43:0.2 56:0.01639344 64:0.5 84:0.25 88:0.5 96:0.33333334 108:0.5 142:0.25 148:0.2 257:0.5 325:1 328:1 346:0.5 408:1 736:1 845:1 934:1 996:1 997:1 998:1 999:1 
-0.004562561354083846144880087791762 1:0.125 3:0.30769232 6:0.30769232 14:0.07692308 17:0.07692308 18:0.37142858 22:0.04878049 29:0.2 30:0.2 41:0.11111111 43:0.2 44:0.030769231 51:0.125 61:0.25 84:0.25 93:0.33333334 100:0.25 112:0.5 123:0.5 162:0.5 174:0.25 625:0.14285713 798:1 918:1 919:1 920:1 921:1 922:0.5 923:1 924:1 
-0.0086217942256308997134306437715168 1:0.057692312 6:0.33333334 18:0.028571431 29:0.1 30:0.1 78:0.33333334 233:1 234:0.5 488:0.33333334 514:1 515:1 573:1 2006:1 
-0.0079585313771896749185374986268471 1:0.057692312 5:0.16666667 6:0.16666667 16:0.16666667 18:0.057142861 19:0.06666667 29:0.1 33:0.125 130:0.5 438:1 439:1 1433:1 1779:1 1780:1 
-0.0047836767972470693038866684787536 1:0.13461538 3:0.5 4:0.14285713 6:0.071428567 18:0.38571429 22:0.085365847 27:0.14285713 30:0.1 44:0.046153851 47:0.2 48:0.16666667 53:0.14285713 54:0.22222222 104:0.5 107:1 108:0.5 124:0.16666667 132:0.5 244:0.33333334 536:1 638:1 874:1 878:1 894:1 895:1 
-0.0046845169179023553665541790280713 1:0.20192309 3:0.2857143 4:0.047619049 5:0.38095239 6:0.047619049 18:0.15714286 19:0.5333333 20:0.40000001 21:0.33333334 22:0.073170729 23:0.5714286 29:0.1 44:0.01538462 47:0.2 48:0.16666667 54:0.11111111 61:0.25 80:0.5 113:0.5 115:0.33333334 124:0.16666667 127:0.33333334 134:0.5 159:0.5 162:0.5 301:0.33333334 615:0.5 814:1 815:1 816:1 1385:1 1386:1 1387:1 
-0.0088950474652820729626334639306151 1:0.01923077 17:0.5 18:0.17142858 124:0.16666667 282:0.33333334 871:0.5 875:1 1849:1 1850:1 
-0.008187891974928050708992799400221 1:0.03846154 11:0.5 18:0.1 43:0.1 150:0.026666669 151:1 152:1 153:1 154:0.5 155:1 156:1 
-0.0063545379881645349534613487207935 1:0.086538456 6:0.11111111 7:0.11111111 9:0.44444445 17:0.11111111 18:0.071428567 27:0.14285713 29:0.1 43:0.1 56:0.01639344 66:0.33333334 142:0.25 257:0.5 259:1 322:0.25 387:0.5 450:0.5 794:1 806:1 1062:1 1364:1 1803:1 
-0.0063287265680529976655255275375112 1:0.10576923 3:0.72727275 7:0.090909094 18:0.15714286 22:0.097560979 38:0.33333334 44:0.07692308 124:0.16666667 244:0.33333334 423:0.25 455:0.5 618:1 619:1 620:1 898:1 1138:1 2007:1 
-0.0066524587808501440752695366143143 1:0.01923077 10:0.5 17:0.5 18:0.45714286 183:0.5 1355:1 1869:1 
-0.01176349428262234500519589630585 1:0.0096153803 10:1 18:0.54285711 183:0.5 
-0.0054648980573052466369610158380965 1:0.1826923 3:0.21052632 5:0.10526316 6:0.10526316 8:0.10526316 14:0.052631579 17:0.052631579 18:0.21428572 19:0.13333333 21:0.33333334 22:0.04878049 27:0.2857143 30:0.2 41:0.11111111 43:0.1 44:0.01538462 51:0.125 53:0.14285713 56:0.049180329 61:0.25 64:0.5 65:0.33333334 68:0.5 96:0.33333334 104:0.5 108:0.5 114:1 118:0.5 120:0.33333334 121:1 132:0.5 139:0.5 141:0.5 217:0.5 229:1 279:0.5 426:0.66666669 436:1 706:1 862:1 932:1 1509:1 
-0.0049959239837674470491313272191292 1:0.21153846 3:0.59090906 5:0.045454551 7:0.045454551 9:0.045454551 14:0.090909094 18:0.17142858 19:0.06666667 22:0.15853658 38:0.33333334 41:0.22222222 42:0.11111111 43:0.2 44:0.10769231 52:0.40000001 56:0.01639344 58:0.2 61:0.5 75:0.25 109:0.5 112:0.5 170:1 171:0.5 172:0.5 174:0.5 222:0.33333334 283:0.5 336:1 458:1 933:1 1337:1 1338:1 1339:1 1342:1 
-0.0091902938726004922836976263056386 1:0.03846154 13:0.25 18:0.12857144 96:0.33333334 233:0.33333334 467:0.5 487:1 838:1 1719:1 1720:1 
-0.0064652158909773299599876850152214 1:0.04807692 4:0.2 9:0.2 18:0.2857143 27:0.14285713 54:0.11111111 66:0.33333334 67:0.5 69:0.5 70:1 774:1 1505:1 1517:1 
-0.0080028989872437152064410526008942 1:0.057692312 14:0.33333334 17:0.16666667 18:0.5 41:0.22222222 43:0.1 118:1 121:1 150:0.01333333 186:0.25 271:1 286:0.5 526:0.25 1006:1 1007:1 
-0.0060836231077041778500524848993791 1:0.15384614 3:0.1875 4:0.0625 5:0.375 14:0.0625 18:0.14285713 19:0.40000001 22:0.036585368 23:0.42857143 24:0.5 26:0.5 41:0.11111111 42:0.11111111 43:0.1 54:0.11111111 61:0.25 111:1 112:0.5 124:0.5 163:1 165:1 166:0.5 167:1 174:0.25 243:0.5 244:0.33333334 245:0.5 531:1 543:0.5 639:1 721:0.5 909:1 989:0.5 1973:1 
-0.011864321595961064073621038517103 1:0.0096153803 18:0.2 65:0.33333334 150:1 1522:1 1523:1 
-0.0039232016399711171911190987771079 1:0.16346154 2:0.11764706 3:0.17647059 5:0.17647059 6:0.05882353 7:0.17647059 9:0.05882353 14:0.05882353 18:0.01428571 19:0.2 20:0.2 21:0.33333334 22:0.036585368 27:0.14285713 30:0.1 38:0.66666669 40:0.33333334 41:0.11111111 43:0.40000001 52:0.2 55:0.16666667 56:0.049180329 65:0.33333334 66:0.33333334 73:1 74:0.25 75:0.25 139:0.5 144:0.5 161:1 222:0.33333334 366:0.5 385:0.5 408:1 411:1 426:0.33333334 427:1 485:1 557:1 762:1 763:1 811:0.5 812:1 813:0.5 
-0.0047729780304939066482017295811602 1:0.15384614 3:0.5625 5:0.0625 14:0.0625 18:0.24285714 19:0.06666667 20:0.2 22:0.1097561 41:0.11111111 43:0.1 44:0.07692308 51:0.125 52:0.2 56:0.01639344 58:0.2 61:0.25 171:0.5 172:0.5 228:1 233:0.33333334 309:1 388:0.5 389:1 820:1 941:1 956:1 1829:1 
-0.0084927695802644986161622497888857 1:0.01923077 7:0.5 18:0.01428571 43:0.2 1840:1 1864:1 1909:1 1926:1 2050:1 
-0.0062653409090529079208953255886172 1:0.086538456 3:0.11111111 5:0.11111111 14:0.33333334 18:0.32857144 19:0.06666667 20:0.2 22:0.01219512 41:0.33333334 61:0.25 122:0.5 224:0.5 310:1 439:0.5 462:1 1392:1 1564:1 1959:1 
-0.0037935807375527987386765182975523 1:0.13461538 3:0.14285713 7:0.071428567 9:0.14285713 13:0.071428567 14:0.071428567 18:0.35714287 22:0.024390239 27:0.2857143 41:0.11111111 43:0.30000001 44:0.01538462 56:0.01639344 66:0.33333334 67:0.5 69:0.5 71:0.5 74:0.25 75:0.25 83:0.25 109:0.25 142:0.25 144:0.5 186:0.25 257:0.5 258:0.5 262:0.25 385:0.5 466:1 467:0.5 468:1 469:1 479:1 736:1 781:0.5 783:1 1390:1 1883:1 
-0.0036880319262374921217284562402483 1:0.24038462 3:0.28 5:0.16 12:0.039999999 14:0.12 17:0.039999999 18:0.12857144 19:0.26666668 21:0.33333334 22:0.085365847 27:0.2857143 41:0.33333334 43:0.1 44:0.046153851 53:0.14285713 61:0.5 65:1 68:1 84:0.25 85:0.25 87:1 93:0.33333334 105:0.5 109:0.5 112:0.5 120:0.66666669 224:0.5 231:1 277:0.33333334 280:0.33333334 282:0.66666669 291:0.5 303:1 554:1 1169:1 1185:1 1565:1 
-0.005674980835487271856043545170678 1:0.10576923 2:0.36363637 5:0.27272728 7:0.36363637 14:0.18181819 18:0.01428571 19:0.2 38:0.33333334 39:0.5 40:0.66666669 41:0.22222222 105:0.5 166:0.5 181:0.16666667 224:0.5 357:0.25 365:0.5 589:1 823:1 922:1 1141:0.5 1245:1 1859:1 1860:1 
-0.0047240326257859928740789889900498 1:0.086538456 5:0.44444445 6:0.11111111 7:0.11111111 16:0.11111111 18:0.01428571 19:0.26666668 23:0.2857143 29:0.1 33:0.125 134:0.5 138:1 150:0.01333333 181:0.16666667 266:1 389:0.5 439:0.5 506:1 1081:1 2057:1 2058:1 
-0.00425578765549520197930544185283 1:0.086538456 3:0.11111111 5:0.22222222 6:0.11111111 14:0.11111111 17:0.11111111 18:0.42857143 19:0.13333333 21:0.33333334 22:0.01219512 30:0.1 41:0.11111111 43:0.2 78:0.33333334 84:0.25 93:0.33333334 96:0.33333334 148:0.2 189:0.16666667 198:1 304:1 305:1 359:1 465:1 919:1 1151:1 
-0.005767116063323749972080456416279 1:0.02884615 6:0.66666669 18:0.028571431 29:0.1 30:0.1 100:0.25 952:0.125 1758:1 1759:1 1893:1 
-0.0029876102931615231873829774400519 1:0.067307688 5:0.14285713 8:0.28571427 12:0.14285713 14:0.14285713 17:0.14285713 18:0.34285715 19:0.06666667 41:0.11111111 43:0.1 56:0.01639344 64:0.5 84:0.25 85:0.25 87:1 93:0.33333334 96:0.33333334 141:0.5 389:0.5 769:1 1168:1 1420:1 1524:1 2005:1 
-0.0042973231439924850644240805763729 1:0.13461538 5:0.071428567 6:0.21428572 7:0.14285713 9:0.14285713 14:0.071428567 16:0.071428567 18:0.028571431 19:0.06666667 28:0.25 29:0.30000001 32:0.25 33:0.125 41:0.11111111 43:0.1 65:0.33333334 74:0.25 75:0.25 83:0.25 115:0.33333334 166:0.5 237:0.33333334 259:0.33333334 314:1 315:1 322:0.25 337:0.25 361:1 370:0.5 662:1 1236:1 1406:1 1793:1 1813:1 
-0.0047887053137868644189789613108132 1:0.07692308 3:0.25 4:0.25 5:0.125 14:0.125 16:0.125 18:0.11428571 19:0.06666667 21:0.33333334 22:0.024390239 33:0.125 41:0.11111111 43:0.1 48:0.16666667 54:0.22222222 119:0.25 176:0.5 186:0.25 263:0.5 454:1 1626:1 1627:1 1628:1 1629:1 1630:1 
-0.0032129571771825353627971555425802 1:0.36538461 3:0.71052635 5:0.02631579 14:0.078947373 18:0.21428572 19:0.06666667 20:0.2 22:0.32926828 27:0.5714286 41:0.33333334 42:0.33333334 43:0.30000001 44:0.24615385 45:0.5 51:0.125 52:0.60000002 53:0.42857143 55:0.66666669 56:0.01639344 58:0.2 109:0.25 124:0.5 150:0.01333333 161:1 244:1 248:1 536:1 541:0.5 544:0.5 546:1 547:1 551:0.5 553:0.5 1269:1 1453:1 
-0.0045395194818356474422693658254957 1:0.04807692 2:0.40000001 7:0.2 9:0.40000001 17:0.2 18:0.24285714 40:0.33333334 43:0.2 66:0.33333334 75:0.25 223:1 225:1 366:0.5 385:0.5 1818:1 1864:1 1929:1 
-0.047092415661488494504904878112939 1:0.0096153803 18:0.35714287 383:0.5 
-0.0046899967444305702343743114113295 1:0.11538462 3:0.58333331 5:0.083333328 18:0.17142858 19:0.06666667 20:0.2 22:0.085365847 27:0.2857143 44:0.07692308 55:0.16666667 56:0.01639344 58:0.2 255:1 294:1 453:1 2059:1 2060:1 
-0.0037368653070398928812967387358412 1:0.16346154 6:0.11764706 7:0.23529412 8:0.23529412 14:0.11764706 17:0.23529412 18:0.057142861 30:0.2 41:0.22222222 64:1 69:1 84:1 93:0.66666669 115:0.33333334 181:0.66666669 338:0.25 342:1 343:1 344:1 345:1 346:1 
-0.012487948838701615553170576333741 1:0.01923077 18:0.057142861 391:0.5 1251:1 1257:1 
-0.01005046679839509404796871194776 1:0.02884615 13:0.33333334 18:0.057142861 233:0.33333334 467:0.5 1425:1 1497:1 
-0.0023696887353356326649800323025374 1:0.07692308 6:0.375 7:0.125 9:0.375 18:0.34285715 29:0.2 30:0.1 43:0.2 56:0.01639344 75:0.25 83:0.25 150:0.01333333 158:0.5 237:0.33333334 259:0.66666669 260:1 267:0.5 337:0.5 361:1 411:1 495:1 496:1 1130:1 
-0.0037581675150433787972736876525914 1:0.15384614 2:0.125 3:0.125 5:0.25 7:0.125 9:0.0625 14:0.1875 17:0.0625 18:0.01428571 19:0.26666668 21:0.33333334 22:0.024390239 23:0.2857143 27:0.14285713 38:0.33333334 40:0.33333334 41:0.33333334 43:0.40000001 45:0.5 55:0.16666667 109:0.25 148:0.2 189:0.16666667 222:0.33333334 224:0.5 277:0.33333334 282:0.33333334 303:1 349:0.33333334 352:0.5 366:0.5 557:1 665:1 762:1 763:1 1752:1 1753:1 1928:1 
-0.0044417055336206648016861286976109 1:0.03846154 17:0.25 18:0.42857143 43:0.1 74:0.25 75:0.25 186:0.25 262:0.25 1105:1 1106:1 
-0.0087358551402014622544456301511673 1:0.057692312 5:0.16666667 18:0.42857143 19:0.06666667 78:0.33333334 96:0.33333334 118:0.5 150:0.026666669 186:0.25 256:0.5 766:1 1031:1 1103:1 1113:0.5 1117:0.5 1195:1 1196:1 
-0.003099958292541494381255873236114 1:0.1826923 3:0.2631579 5:0.10526316 7:0.052631579 14:0.21052632 16:0.052631579 18:0.44285715 19:0.13333333 21:0.66666669 22:0.060975611 27:0.42857143 33:0.125 41:0.44444445 45:1 49:0.25 52:0.2 53:0.14285713 55:0.33333334 105:0.5 109:0.25 150:0.01333333 171:0.5 172:0.5 228:1 271:1 357:0.125 899:1 1415:1 1714:1 1943:1 
-0.0074786660597816172896257214119942 1:0.03846154 18:0.04285714 69:1 115:0.33333334 389:0.5 1288:1 1637:1 1659:1 
-0.0072312114604649972704475402451862 1:0.03846154 18:0.057142861 43:0.1 389:0.5 391:0.5 439:0.5 448:1 899:0.5 1777:1 1916:1 
-0.0019037373347415944332267079275312 1:0.125 3:0.38461539 6:0.07692308 14:0.07692308 18:0.54285711 22:0.060975611 30:0.1 41:0.11111111 44:0.030769231 52:0.2 61:0.25 65:0.66666669 104:0.5 108:1 140:1 174:0.25 291:0.5 316:1 439:0.5 445:1 462:1 1525:1 1717:1 
-0.0067565019458303374882968128645189 1:0.086538456 3:0.66666669 18:0.12857144 22:0.073170729 44:0.046153851 61:0.25 423:0.5 455:0.5 693:0.5 965:1 966:0.5 967:1 982:1 1111:1 1728:1 
-0.14265621731924699178151172418438 1:0.0096153803 18:0.40000001 142:0.25 
-0.01500562017230221666108658240546 1:0.0096153803 18:0.15714286 1500:1 
-0.0057165294185876633706322458294835 1:0.067307688 5:0.42857143 7:0.2857143 18:0.01428571 19:0.2 23:0.14285713 27:0.14285713 62:0.5 81:0.5 124:0.16666667 150:0.01333333 181:0.16666667 317:1 1351:1 1475:0.5 1896:1 1899:1 1962:1 
-0.0055425731651618593068264750911567 1:0.057692312 7:0.66666669 11:0.16666667 18:0.11428571 56:0.01639344 124:0.16666667 150:0.01333333 156:0.5 357:0.5 737:1 742:1 1037:1 1473:0.5 1476:1 1477:1 
-0.004201584062887108242390077350592 1:0.086538456 5:0.22222222 6:0.11111111 7:0.33333334 9:0.33333334 18:0.057142861 19:0.13333333 29:0.1 38:1 75:0.25 259:0.66666669 496:1 521:0.33333334 813:1 857:1 1136:1 1529:1 1948:1 
-0.0026138831473702397144298625875081 1:0.07692308 7:0.25 9:0.375 11:0.125 18:0.085714288 43:0.2 65:0.33333334 69:0.5 71:0.5 74:0.25 75:0.75 144:1 156:0.5 181:0.16666667 519:1 520:1 523:1 529:1 685:1 713:0.5 
-0.0028175824604961337456476844209874 1:0.10576923 5:0.090909094 6:0.090909094 7:0.090909094 9:0.090909094 12:0.090909094 18:0.057142861 19:0.06666667 27:0.42857143 30:0.1 43:0.2 66:0.33333334 85:0.25 91:0.5 132:0.5 142:0.25 181:0.16666667 189:0.16666667 196:0.25 231:1 257:0.5 258:0.5 472:1 473:1 736:1 1275:1 1487:1 
-0.003453653079798375043901748071562 1:0.30769232 3:0.71875 4:0.03125 5:0.03125 7:0.03125 17:0.03125 18:0.2 19:0.06666667 20:0.2 22:0.28048781 27:0.2857143 43:0.2 44:0.26153845 47:0.2 48:0.16666667 53:0.2857143 54:0.11111111 56:0.01639344 57:0.2 58:0.2 114:1 124:0.16666667 159:0.5 181:0.16666667 221:0.2 244:0.33333334 608:0.16666667 614:0.5 643:0.5 652:1 692:1 1193:0.5 1447:0.5 1789:1 1790:1 1791:1 
-0.0039863917548920305491955140553273 1:0.11538462 3:0.25 4:0.083333328 5:0.16666667 6:0.083333328 7:0.083333328 18:0.17142858 19:0.13333333 22:0.036585368 25:1 26:1 27:0.14285713 29:0.1 42:0.11111111 43:0.2 44:0.01538462 51:0.125 53:0.14285713 54:0.11111111 56:0.01639344 58:0.2 134:0.5 181:0.16666667 212:1 214:0.5 266:1 389:0.5 408:1 545:1 773:1 2058:1 
-0.0040285516353522404439657655927931 1:0.04807692 4:0.2 7:0.40000001 11:0.2 18:0.35714287 54:0.11111111 83:0.25 156:0.5 526:0.5 594:1 644:1 741:1 744:0.5 748:1 749:1 
-0.0059041737311868224338806676598779 1:0.04807692 6:0.40000001 7:0.2 9:0.2 18:0.085714288 29:0.1 30:0.1 100:0.25 186:0.25 322:0.25 349:0.33333334 827:1 920:1 922:0.5 1781:1 1839:1 
-0.0038356963134096198550504475122125 1:0.057692312 3:0.16666667 6:0.16666667 14:0.16666667 18:0.085714288 22:0.01219512 30:0.1 41:0.11111111 56:0.01639344 61:0.25 78:0.66666669 161:1 197:1 198:1 210:0.33333334 218:1 1238:1 
-0.0038950410040597812852403158956349 1:0.067307688 5:0.14285713 6:0.14285713 18:0.1 19:0.06666667 27:0.14285713 30:0.1 61:0.25 65:0.66666669 67:0.5 69:0.5 80:0.5 124:0.16666667 132:0.5 316:1 485:1 1078:1 1147:1 1596:1 1597:1 
-0.0028397557771252268134232199514599 1:0.14423077 5:0.13333333 6:0.13333333 8:0.13333334 9:0.13333333 14:0.06666667 18:0.42857143 19:0.13333333 27:0.2857143 30:0.2 41:0.11111111 43:0.30000001 56:0.065573767 58:0.2 61:0.25 64:0.5 66:0.33333334 75:0.25 96:0.33333334 108:1 128:1 132:0.5 139:0.5 141:0.5 142:0.25 144:0.5 150:0.01333333 247:0.5 257:0.5 258:0.5 279:0.5 286:0.5 385:0.5 408:1 411:1 426:0.33333334 443:1 497:1 736:1 932:1 933:1 
-0.0069830205568043477934447871291468 1:0.03846154 16:0.25 18:0.028571431 33:0.125 43:0.2 78:1 79:1 476:1 572:1 
-0.004042847056835676376740362769624 1:0.13461538 3:0.5714286 4:0.14285713 5:0.071428567 17:0.071428567 18:0.40000001 19:0.06666667 22:0.097560979 42:0.11111111 43:0.1 44:0.07692308 48:0.16666667 51:0.125 54:0.22222222 407:1 526:0.25 882:0.5 883:0.33333334 887:0.33333334 1003:0.5 1004:1 1353:1 1354:1 1795:1 
-0.0034486063626120778448369552648956 1:0.03846154 7:0.25 18:0.085714288 108:0.5 325:1 328:1 391:0.5 556:1 557:1 558:1 
-0.0033868637188742803552365945307656 1:0.10576923 3:0.27272728 4:0.090909094 5:0.36363637 6:0.18181819 18:0.27142856 19:0.26666668 20:0.40000001 22:0.036585368 29:0.2 54:0.11111111 78:0.33333334 134:0.5 150:0.01333333 247:0.5 256:0.5 265:1 287:0.33333334 526:1 617:1 1426:1 1489:1 1490:1 
-0.0035581346422528621273317916973156 1:0.07692308 6:0.5 7:0.125 8:0.25 17:0.125 18:0.04285714 29:0.1 30:0.30000001 43:0.2 64:0.5 100:0.25 181:0.16666667 196:0.25 199:0.33333334 367:0.5 831:1 832:1 934:1 1293:1 1294:1 
-0.0079261775309417987350757428544057 1:0.02884615 18:0.071428567 43:0.1 83:0.25 780:1 781:0.5 782:1 783:1 784:1 
-0.0029017317841595296860901509461428 1:0.125 3:0.46153846 6:0.07692308 7:0.07692308 9:0.07692308 17:0.07692308 18:0.25714287 22:0.073170729 27:0.2857143 29:0.1 38:0.33333334 44:0.061538462 61:0.25 75:0.25 162:0.5 174:0.25 336:1 402:1 599:1 1021:1 1258:1 1259:1 
-0.0046273913483307329772009630630691 1:0.04807692 6:0.40000001 18:0.028571431 29:0.2 61:0.25 339:1 403:1 439:0.5 1816:1 1817:1 
-0.0024868592382362077891633234116853 1:0.1923077 3:0.69999999 6:0.1 18:0.44285715 22:0.17073171 27:0.14285713 29:0.1 30:0.1 42:0.11111111 43:0.2 44:0.13846155 51:0.25 53:0.14285713 55:0.16666667 61:0.25 162:0.5 217:0.5 492:0.5 865:1 984:1 1750:1 1751:1 1905:1 
-0.00273953231790483725527352021345 1:0.39423078 3:0.43902439 5:0.073170729 12:0.024390239 14:0.21951219 17:0.024390239 18:0.44285715 19:0.2 20:0.2 21:0.66666669 22:0.21951219 27:0.14285713 41:1 43:0.2 44:0.15384614 45:0.5 51:0.125 52:1 61:0.5 84:0.25 85:0.25 93:0.33333334 104:0.5 105:0.5 108:1 109:1 110:0.5 112:0.5 117:0.25 174:0.25 224:0.5 243:0.5 279:0.5 310:0.5 497:0.5 501:0.33333334 1226:1 1308:1 1409:1 1563:0.5 1566:0.5 1715:1 1716:1 
-0.0064543426579650228086526553283875 1:0.03846154 18:0.12857144 108:0.5 186:0.25 325:1 328:1 835:0.5 1230:1 1231:1 
-0.0053939833850485761207460555510806 1:0.03846154 14:0.25 18:0.25714287 41:0.11111111 75:0.25 315:1 1424:1 1536:1 
-0.0029859894079092524736551705899501 1:0.20192309 3:0.2857143 5:0.2857143 6:0.047619049 18:0.2857143 19:0.40000001 20:0.40000001 22:0.073170729 23:0.14285713 27:0.14285713 29:0.1 44:0.061538462 61:0.5 62:0.5 80:1 82:1 96:0.66666669 97:0.5 118:0.5 134:0.5 150:0.026666669 247:0.5 285:1 526:0.25 617:0.33333334 1113:1 1115:0.5 1117:1 1195:1 1196:1 2041:1 
-0.0040587369847624611002290251349223 1:0.096153848 7:0.60000002 11:0.2 18:0.085714288 38:0.66666669 124:0.33333334 150:0.026666669 152:1 156:1 181:0.33333334 322:0.5 789:0.66666669 1475:1 2088:1 2089:1 2090:1 2091:1 
-0.011383808860421127176487665622062 1:0.01923077 18:0.17142858 37:1 43:0.1 1089:1 
-0.0035303890716802083064862483041679 1:0.02884615 6:0.33333334 18:0.22857143 29:0.1 115:0.33333334 501:0.33333334 750:1 1815:1 
-0.0033496609568944360479925137497048 1:0.086538456 5:0.11111111 7:0.11111111 14:0.22222222 18:0.2857143 19:0.06666667 26:0.5 41:0.22222222 43:0.1 65:0.33333334 96:0.33333334 115:0.33333334 150:0.01333333 160:1 166:0.5 286:0.5 308:1 314:1 315:1 322:0.25 370:0.5 575:0.5 929:1 1125:1 1406:1 
-0.002578334541966013568337068306846 1:0.16346154 3:0.11764706 4:0.11764706 5:0.29411766 7:0.11764706 14:0.17647059 18:0.27142856 19:0.33333334 20:0.40000001 21:0.33333334 22:0.024390239 23:0.14285713 27:0.14285713 41:0.33333334 43:0.30000001 52:0.2 54:0.22222222 56:0.01639344 81:0.5 95:1 96:0.33333334 119:0.5 161:1 166:0.5 189:0.16666667 329:1 357:0.25 364:1 423:0.25 428:1 433:1 987:0.5 1068:1 1203:1 1329:1 
-0.00293285239386811228540219431693 1:0.02884615 6:0.33333334 9:0.33333334 17:0.33333334 18:0.22857143 30:0.1 75:0.25 341:1 777:1 778:1 
-0.0049863494057429931863301142414002 1:0.02884615 6:0.66666669 18:0.22857143 29:0.1 30:0.1 100:0.25 111:1 124:0.16666667 1654:1 1729:1 
-0.0044403864337934657174900010545571 1:0.096153848 6:0.1 8:0.40000001 14:0.2 17:0.2 18:0.04285714 27:0.2857143 29:0.1 41:0.22222222 56:0.032786891 64:1 84:0.5 93:0.66666669 110:1 139:1 141:1 490:1 501:0.33333334 1420:1 1815:1 
-0.0048763280835125606682556309579013 1:0.096153848 3:0.40000001 4:0.1 5:0.2 12:0.1 18:0.085714288 19:0.13333333 22:0.04878049 44:0.030769231 47:0.2 54:0.11111111 61:0.25 85:0.25 87:1 150:0.01333333 174:0.25 256:0.5 353:1 555:1 1735:1 1736:1 1737:1 
-0.0037923734663491384840050546500834 1:0.067307688 14:0.14285713 17:0.14285713 18:0.2 41:0.11111111 61:0.25 65:0.33333334 84:0.25 93:0.33333334 115:0.33333334 116:1 117:0.25 118:0.5 436:1 585:1 1742:1 1884:0.5 
-0.0079515920001521737947580703576023 1:0.02884615 2:0.66666669 17:0.33333334 18:0.04285714 40:0.33333334 567:1 568:1 569:1 570:1 
-0.0019353875007685006695568041834576 1:0.20192309 3:0.66666669 6:0.047619049 18:0.15714286 22:0.17073171 27:0.14285713 30:0.1 43:0.30000001 44:0.15384614 51:0.125 53:0.14285713 55:0.16666667 61:0.25 107:1 108:0.5 115:0.33333334 124:0.16666667 126:0.5 129:0.5 199:0.33333334 227:0.5 244:0.33333334 497:0.5 622:1 623:1 624:1 831:1 995:1 1028:1 
-0.0014166550348551775091732185529736 1:0.086538456 3:0.33333334 5:0.22222222 6:0.11111111 14:0.11111111 18:0.62857145 19:0.13333333 21:0.33333334 22:0.036585368 30:0.1 41:0.11111111 43:0.1 44:0.01538462 51:0.125 105:0.5 166:0.5 472:0.5 1087:1 1682:1 1740:1 1886:1 
-0.0066133153341447654949281087510826 1:0.02884615 13:0.66666669 17:0.33333334 18:0.028571431 84:0.25 467:1 484:1 1401:1 
-0.0037842704745580805006377467236689 1:0.10576923 2:0.18181819 4:0.27272728 7:0.18181819 14:0.090909094 17:0.090909094 18:0.028571431 38:0.33333334 40:0.33333334 41:0.11111111 43:0.2 54:0.33333334 56:0.032786891 119:0.25 150:0.01333333 209:0.2 233:0.33333334 366:0.5 410:1 456:1 457:1 499:1 597:1 841:1 988:0.5 1135:1 1158:1 
-0.003485556825241977949025873328992 1:0.11538462 3:0.33333334 5:0.083333328 6:0.16666667 7:0.083333328 14:0.083333328 18:0.085714288 19:0.06666667 20:0.2 22:0.04878049 27:0.14285713 29:0.1 30:0.1 38:0.33333334 41:0.11111111 43:0.1 44:0.046153851 61:0.25 132:0.5 150:0.01333333 200:0.25 222:0.33333334 247:0.5 283:0.5 286:0.5 339:1 458:1 1338:1 1339:1 1480:1 1481:1 
-0.008012310384355916803578168128297 1:0.057692312 5:0.5 18:0.01428571 19:0.2 23:0.14285713 159:0.5 192:0.5 289:0.5 681:1 853:1 898:1 1181:1 
-0.017601087117299674816850441061433 1:0.0096153803 18:0.028571431 1958:1 
-0.0044932630293946255670145539795612 1:0.07692308 3:0.625 4:0.125 18:0.21428572 22:0.060975611 44:0.046153851 54:0.11111111 423:0.25 553:0.5 620:1 693:0.5 1001:0.5 1047:1 1741:1 2016:1 
-0.0020760424101519646400415552989216 1:0.14423077 3:0.66666669 4:0.2 5:0.06666667 17:0.06666667 18:0.40000001 19:0.06666667 20:0.2 22:0.12195122 44:0.10769231 47:0.40000001 48:0.16666667 54:0.33333334 124:0.16666667 721:0.5 876:1 877:1 884:1 885:1 886:1 896:1 
-0.0093995606663381681827873492807157 1:0.01923077 18:0.04285714 233:0.33333334 831:1 1804:1 
-0.0061687508154613570482416307072526 1:0.01923077 18:0.11428571 43:0.1 83:0.25 253:0.5 254:1 255:1 
-0.0026341983382307662328591923994736 1:0.057692312 4:0.16666667 14:0.16666667 18:0.38571429 41:0.11111111 54:0.11111111 108:0.5 115:0.66666669 150:0.01333333 211:1 246:1 308:1 394:1 514:0.5 524:0.5 526:0.25 1022:1 
-0.0019147896613002184356550072763525 1:0.20192309 3:0.047619049 5:0.047619049 6:0.33333334 9:0.047619049 16:0.38095239 17:0.047619049 18:0.15714286 19:0.06666667 20:0.2 22:0.01219512 28:1 29:0.40000001 30:0.30000001 33:1 35:0.75 43:0.60000002 56:0.01639344 61:0.25 75:0.25 112:0.5 196:0.5 200:1 235:1 335:1 424:0.5 426:0.33333334 481:0.5 580:1 1461:1 1823:1 1937:1 1938:1 
-0.0037628113246285363122090039667 1:0.057692312 6:0.16666667 7:0.33333334 9:0.33333334 11:0.16666667 18:0.1 29:0.1 43:0.2 71:0.5 74:0.25 75:0.25 144:0.5 156:0.5 259:0.33333334 337:0.25 529:1 560:1 1074:1 1201:1 1202:1 
-0.0055256243605393612003395809040285 1:0.057692312 7:0.33333334 18:0.1 43:0.1 124:0.33333334 593:1 594:1 595:0.66666669 596:0.66666669 1441:1 1442:1 
-0.0024842275970998802664402305140356 1:0.01923077 2:1 17:0.5 18:0.12857144 40:0.33333334 43:0.1 588:1 1174:1 1541:1 
-0.0039961979532543139698175238549993 1:0.057692312 9:0.16666667 18:0.085714288 27:0.14285713 65:1 67:0.5 68:0.5 69:0.5 75:0.25 514:0.5 517:1 518:1 519:1 520:1 
-0.0057682386686844031725707182545193 1:0.07692308 3:0.375 18:0.057142861 22:0.036585368 27:0.14285713 44:0.030769231 115:0.66666669 127:0.33333334 150:0.01333333 298:1 439:0.5 445:1 505:1 605:1 781:0.5 963:1 
-0.0031538175381414573425487013480506 1:0.02884615 2:0.66666669 7:0.33333334 17:0.33333334 18:0.12857144 40:0.33333334 557:1 776:1 905:1 906:1 
-0.0019018380332050212940669942085492 1:0.125 3:0.15384614 5:0.15384614 6:0.23076923 7:0.07692308 9:0.07692308 17:0.07692308 18:0.071428567 19:0.13333333 21:0.33333334 22:0.024390239 30:0.30000001 43:0.30000001 136:0.5 186:0.25 189:0.16666667 210:0.66666669 237:0.33333334 251:1 262:0.25 315:1 349:0.33333334 389:0.5 711:1 712:1 929:1 1146:1 1781:1 
-0.0028433240104990225964598504759806 1:0.086538456 3:0.11111111 6:0.11111111 8:0.44444445 9:0.11111111 18:0.071428567 22:0.01219512 27:0.2857143 30:0.1 64:1 66:0.33333334 75:0.25 136:0.5 150:0.01333333 258:0.5 330:1 332:1 397:0.5 1294:1 1828:1 
-0.0012542613832128032911455983722249 1:0.13461538 4:0.14285713 5:0.14285713 6:0.071428567 7:0.071428567 9:0.071428567 11:0.14285713 14:0.071428567 17:0.071428567 18:0.48571429 19:0.13333333 27:0.14285713 30:0.1 41:0.11111111 43:0.30000001 54:0.22222222 56:0.01639344 67:0.5 69:0.5 84:0.25 93:0.33333334 110:0.5 123:0.5 135:0.33333334 142:0.25 143:0.5 146:0.5 154:1 156:1 236:1 237:0.33333334 349:0.33333334 352:0.5 382:0.5 411:1 474:1 745:1 939:1 
-0.0026825080717881619012110672173321 1:0.01923077 5:1 18:0.1 19:0.13333333 1782:1 1783:1 1784:1 
-0.0029707328842579878123986159010883 1:0.125 3:0.23076923 4:0.15384614 5:0.07692308 12:0.07692308 18:0.17142858 19:0.06666667 22:0.036585368 27:0.14285713 44:0.030769231 46:0.25 54:0.22222222 61:0.25 85:0.25 87:1 133:0.16666667 186:0.25 238:0.5 283:0.5 533:0.5 553:0.5 1192:0.5 1193:0.5 1342:1 1345:1 1346:1 1347:1 
-0.0035898392479534681383246397246012 1:0.057692312 3:0.16666667 5:0.16666667 12:0.33333334 17:0.16666667 18:0.32857144 19:0.06666667 22:0.01219512 43:0.1 65:0.33333334 84:0.25 85:0.5 86:1 238:0.5 291:0.5 1168:1 1169:1 1524:1 
-0.0039999679846806713082174589146689 1:0.057692312 3:0.16666667 5:0.16666667 18:0.11428571 19:0.06666667 20:0.2 22:0.01219512 43:0.2 61:0.25 112:0.5 1279:1 1622:1 1635:1 1708:1 
-0.002956386912967040158511933256591 1:0.11538462 3:0.58333331 4:0.083333328 5:0.083333328 18:0.1 19:0.06666667 20:0.2 22:0.085365847 44:0.046153851 47:0.2 54:0.11111111 61:0.25 131:0.5 150:0.01333333 248:1 423:0.25 455:0.5 807:1 980:1 981:1 982:1 983:1 
-0.0055903032307131495654006769768785 1:0.02884615 2:0.66666669 17:0.33333334 18:0.1 40:0.33333334 680:1 1412:1 1413:1 
-0.0053077012047343967091062033603066 1:0.13461538 6:0.071428567 7:0.14285713 9:0.21428572 11:0.14285713 14:0.071428567 17:0.071428567 18:0.45714286 29:0.1 41:0.11111111 43:0.5 56:0.01639344 71:0.5 74:0.5 75:0.5 124:0.16666667 144:0.5 150:0.026666669 152:0.5 154:0.5 156:1 186:0.5 243:0.5 245:0.5 259:0.33333334 260:1 262:0.5 286:0.5 389:0.5 456:1 469:1 495:0.5 711:1 740:1 773:1 1037:1 1280:1 1287:1 1732:1 
-0.0077263053450039378966529568515398 1:0.03846154 7:0.25 10:0.5 18:0.38571429 61:0.25 181:0.16666667 183:1 184:1 867:1 1632:1 
-0.0030997636178581918636742997819056 1:0.067307688 6:0.2857143 7:0.2857143 9:0.42857143 18:0.057142861 29:0.1 30:0.1 38:0.33333334 75:0.25 259:0.66666669 261:1 322:0.25 496:1 698:0.5 1085:1 1529:1 1710:1 
-0.0020343541725200827915975843040997 1:0.057692312 6:0.16666667 7:0.16666667 8:0.33333334 9:0.33333334 18:0.085714288 29:0.1 64:0.5 75:0.25 142:0.25 259:0.33333334 322:0.25 561:0.5 856:1 857:1 858:1 859:1 
-0.0002232208011795841224710751360405 1:0.14423077 3:0.2 5:0.13333333 9:0.06666667 13:0.06666667 17:0.13333333 18:0.42857143 19:0.13333333 20:0.2 22:0.036585368 27:0.14285713 43:0.30000001 44:0.01538462 66:0.33333334 69:0.5 74:0.25 75:0.25 84:0.25 142:0.25 144:0.5 186:0.25 189:0.16666667 257:0.5 258:0.5 262:0.25 280:0.33333334 385:0.5 396:1 467:0.5 484:1 670:1 736:1 1105:1 1106:1 1120:1 
-0.0034679412988102681879298838651948 1:0.11538462 3:0.16666667 5:0.16666667 14:0.083333328 18:0.21428572 19:0.13333333 20:0.2 22:0.024390239 27:0.14285713 41:0.11111111 52:0.2 81:0.5 96:0.66666669 118:1 150:0.026666669 247:1 329:1 526:0.25 617:0.33333334 1113:1 1115:0.5 2039:1 2040:1 2043:1 
-0.0030127622174383442317513459585143 1:0.04807692 3:0.2 5:0.60000002 18:0.01428571 19:0.2 20:0.2 21:0.33333334 22:0.01219512 423:0.25 1180:1 1495:1 1730:1 1731:1 
-0.0029309347822119033791232745045363 1:0.096153848 3:0.5 4:0.1 5:0.1 14:0.1 18:0.12857144 19:0.06666667 20:0.2 22:0.060975611 41:0.11111111 44:0.030769231 47:0.2 48:0.16666667 54:0.11111111 56:0.01639344 57:0.2 124:0.16666667 249:1 389:0.5 636:1 639:1 769:1 1985:1 2038:1 
-0.0021743148909692138794069737883774 1:0.13461538 3:0.5 4:0.071428567 5:0.071428567 18:0.18571429 19:0.06666667 20:0.2 22:0.085365847 27:0.2857143 44:0.030769231 46:0.25 53:0.14285713 54:0.11111111 55:0.16666667 56:0.01639344 58:0.2 115:0.33333334 124:0.16666667 125:0.5 171:0.5 172:0.5 228:1 536:1 638:1 639:1 640:1 641:1 642:1 
-0.0022441980958240810746506799233657 1:0.14423077 3:0.46666667 4:0.06666667 5:0.13333333 18:0.11428571 19:0.13333333 20:0.2 22:0.085365847 27:0.14285713 44:0.061538462 46:0.25 54:0.11111111 56:0.01639344 58:0.2 61:0.5 65:0.33333334 82:0.5 124:0.16666667 174:0.5 480:1 639:1 640:1 1098:1 1237:1 1239:1 1240:1 
-0.0044895868319516163760796167991884 1:0.04807692 6:0.2 8:0.40000001 12:0.2 18:0.12857144 29:0.1 56:0.032786891 64:0.5 78:0.33333334 85:0.25 141:0.5 233:0.33333334 488:0.33333334 707:1 1689:1 1987:1 
-0.0028424587432951823121052292719924 1:0.04807692 6:0.2 9:0.40000001 17:0.2 18:0.17142858 30:0.1 43:0.2 74:0.25 75:0.25 186:0.25 262:0.25 349:0.33333334 352:0.5 1149:1 1855:1 1856:1 1857:1 
-0.0016558346603995782470725162127678 1:0.07692308 5:0.375 6:0.125 7:0.125 9:0.125 18:0.057142861 19:0.2 23:0.14285713 30:0.1 43:0.2 115:0.33333334 142:0.25 143:0.5 148:0.2 181:0.16666667 189:0.16666667 199:0.33333334 347:1 349:0.33333334 535:1 935:1 1466:1 1467:1 
-0.0025666627527540864309174573065775 1:0.07692308 3:0.125 5:0.125 7:0.125 9:0.25 17:0.125 18:0.11428571 19:0.06666667 22:0.01219512 38:0.33333334 43:0.2 51:0.125 186:0.25 189:0.16666667 222:0.33333334 233:0.33333334 259:0.33333334 349:0.33333334 511:0.5 528:1 1031:1 1148:1 2107:1 2108:1 2109:1 
-0.0050705947818337039970093549356989 1:0.067307688 4:0.71428573 18:0.071428567 54:0.55555558 83:0.25 133:0.5 150:0.01333333 273:1 283:0.5 284:0.5 1311:1 1312:1 1313:1 1314:1 
-0.00099403881091625822738477857853923 1:0.11538462 3:0.16666667 5:0.16666667 6:0.16666667 7:0.16666667 14:0.083333328 18:0.085714288 19:0.13333333 21:0.33333334 22:0.024390239 27:0.14285713 30:0.2 41:0.11111111 43:0.30000001 51:0.125 107:1 108:0.5 132:0.5 188:0.5 189:0.16666667 196:0.25 237:0.33333334 252:1 269:1 472:0.5 598:1 712:1 755:1 1845:1 
-0.0029697461775013492268904258253315 1:0.07692308 3:0.125 5:0.125 6:0.125 18:0.057142861 19:0.06666667 22:0.01219512 29:0.1 61:0.25 65:0.66666669 69:0.5 107:1 108:0.5 130:0.5 316:1 360:1 396:1 1265:1 1423:1 
-0.0025103607483460501671734821371729 1:0.17307691 3:0.16666667 4:0.22222222 5:0.16666667 7:0.05555556 16:0.11111111 18:0.21428572 19:0.2 20:0.2 22:0.036585368 26:0.5 33:0.25 43:0.1 44:0.01538462 47:0.2 51:0.125 54:0.44444445 60:0.33333334 61:0.5 124:0.16666667 133:0.16666667 181:0.16666667 190:1 241:0.5 266:1 305:1 406:0.33333334 413:0.5 424:0.5 543:0.5 569:1 658:1 871:1 873:0.5 1357:1 1542:1 1963:1 
-0.0015615116934228480231883207096644 1:0.28846154 2:0.066666663 3:0.66666669 4:0.033333331 5:0.06666667 14:0.033333331 17:0.033333331 18:0.21428572 19:0.13333333 20:0.40000001 22:0.24390244 27:0.2857143 40:0.33333334 41:0.11111111 43:0.2 44:0.2 45:0.5 47:0.2 51:0.125 53:0.14285713 54:0.11111111 55:0.16666667 56:0.032786891 57:0.2 58:0.40000001 59:0.25 61:0.25 95:1 173:1 174:0.25 220:1 296:0.5 975:1 976:1 977:1 978:1 979:1 
-0.0016005828354699559376572715052589 1:0.17307691 3:0.33333334 5:0.05555556 6:0.16666667 7:0.05555556 14:0.05555556 18:0.3142857 19:0.06666667 21:0.33333334 22:0.073170729 29:0.2 30:0.1 41:0.11111111 43:0.2 44:0.046153851 51:0.125 61:0.25 96:0.33333334 100:0.25 108:0.5 112:0.5 115:0.33333334 123:0.5 162:1 174:0.25 186:0.25 237:0.33333334 583:1 584:1 609:0.5 915:1 916:1 917:1 923:1 924:1 
-0.0016427579799810237450030658834521 1:0.14423077 3:0.33333334 4:0.06666667 6:0.06666667 7:0.06666667 8:0.13333334 9:0.06666667 14:0.06666667 18:0.3142857 22:0.060975611 27:0.14285713 29:0.1 41:0.11111111 43:0.2 44:0.061538462 54:0.11111111 56:0.01639344 64:0.5 65:0.33333334 109:0.25 139:0.5 141:0.5 150:0.01333333 176:0.5 232:0.5 233:0.33333334 259:0.33333334 260:1 291:0.5 322:0.25 389:0.5 443:1 495:0.5 768:1 773:1 973:1 1523:1 1670:1 
-0.0016164151739114390217422201345698 1:0.27884614 3:0.31034482 5:0.10344828 7:0.034482758 14:0.20689654 17:0.068965517 18:0.45714286 19:0.2 22:0.1097561 27:0.14285713 38:0.33333334 41:0.66666669 43:0.1 44:0.046153851 52:0.2 53:0.14285713 61:0.25 65:0.66666669 68:0.5 84:0.5 93:0.66666669 96:0.33333334 97:0.5 105:1 108:0.5 109:0.75 112:0.5 120:0.33333334 166:0.5 174:0.25 224:0.5 277:0.33333334 280:0.66666669 282:0.33333334 291:0.5 394:1 598:1 694:1 1267:1 1361:1 1496:1 1549:1 
-0.0012059965896788842586173640114566 1:0.17307691 3:0.3888889 5:0.11111111 6:0.11111111 9:0.05555556 18:0.42857143 19:0.13333333 22:0.085365847 27:0.2857143 29:0.1 30:0.1 34:0.33333334 43:0.1 44:0.061538462 51:0.125 56:0.01639344 61:0.25 62:1 66:0.33333334 67:1 69:1 70:1 82:0.5 174:0.25 200:0.25 233:0.33333334 276:1 377:0.5 408:1 411:1 1321:1 
-0.0021648915803626485147848068635312 1:0.01923077 7:0.5 18:0.1 56:0.01639344 557:1 1032:1 1748:1 
-0.0034603922396624952131927166476544 1:0.01923077 7:0.5 18:0.11428571 56:0.01639344 357:0.125 987:0.5 1032:1 1748:1 
-0.0021164895883010468105589474419048 1:0.10576923 4:0.090909094 6:0.63636363 9:0.090909094 16:0.090909094 18:0.057142861 29:0.30000001 30:0.40000001 32:0.25 33:0.125 43:0.40000001 54:0.11111111 74:0.25 75:0.25 99:0.125 100:0.25 196:0.5 199:0.66666669 337:0.5 698:0.5 922:0.5 1289:1 1290:1 1291:1 1292:1 1299:1 
-0.0028320945942283547343276683960767 1:0.086538456 3:0.22222222 5:0.33333334 18:0.2 19:0.2 22:0.024390239 23:0.14285713 61:0.25 80:0.5 82:0.5 96:0.33333334 118:0.5 150:0.01333333 203:0.5 247:0.5 526:0.25 617:0.33333334 1053:1 1113:0.5 1115:0.5 1319:1 1820:1 1821:1 1822:1 
-0.0011679341409179552855462924654262 1:0.15384614 3:0.5625 4:0.1875 5:0.0625 7:0.0625 18:0.15714286 19:0.06666667 22:0.1097561 27:0.14285713 43:0.1 44:0.07692308 47:0.2 48:0.5 53:0.14285713 54:0.33333334 56:0.01639344 57:0.2 58:0.2 281:1 283:0.5 357:0.125 407:1 451:1 975:1 977:1 978:1 1445:1 
-0.0033872391801950058401460275092631 1:0.10576923 3:0.36363637 4:0.090909094 7:0.18181819 18:0.18571429 22:0.04878049 44:0.046153851 47:0.2 54:0.11111111 124:0.66666669 159:1 181:0.33333334 192:1 461:0.5 524:0.5 526:0.75 630:1 871:0.5 889:1 952:0.625 1218:0.5 1366:1 1382:0.5 1475:0.5 1761:1 1851:0.60000002 1852:1 1853:1 
-0.002396002679478282174074799115715 1:0.07692308 3:0.25 5:0.125 6:0.125 18:0.12857144 19:0.06666667 22:0.024390239 27:0.14285713 30:0.1 108:0.5 159:0.5 251:1 389:0.5 508:1 614:0.5 615:0.5 728:1 768:1 1122:1 
-0.016349799917113019137593354912497 1:0.0096153803 18:0.30000001 117:0.25 
-0.002161272107354084929392579184082 1:0.057692312 7:0.33333334 11:0.33333334 18:0.14285713 124:0.33333334 150:0.026666669 152:1 156:1 593:1 594:1 595:0.66666669 596:0.66666669 666:1 667:1 
-0.001492336918202972562488839436412 1:0.15384614 3:0.1875 4:0.0625 5:0.125 6:0.125 7:0.0625 14:0.125 18:0.25714287 19:0.13333333 20:0.2 22:0.036585368 27:0.14285713 29:0.2 31:0.25 41:0.22222222 43:0.2 51:0.25 52:0.2 54:0.11111111 62:0.5 65:0.33333334 67:0.5 69:0.5 115:0.33333334 166:0.5 291:0.5 464:1 702:1 1095:1 1097:1 1120:1 1170:1 1994:1 
-0.0021920994571419118689126204202466 1:0.04807692 6:0.2 7:0.2 9:0.2 18:0.2 30:0.1 43:0.1 75:0.25 186:0.25 282:0.33333334 322:0.25 483:1 913:0.5 1280:1 1281:1 1436:1 
-0.0020434397462830863022309468846061 1:0.17307691 3:0.6111111 4:0.05555556 14:0.05555556 18:0.21428572 22:0.13414633 41:0.11111111 44:0.12307692 54:0.11111111 61:0.25 109:0.25 113:0.5 124:0.5 174:0.25 249:1 551:1 553:1 721:0.5 756:0.33333334 757:0.5 758:0.33333334 1001:1 1746:1 
-0.0017463449981017422490969792647775 1:0.1923077 3:0.75 5:0.1 18:0.11428571 19:0.13333333 20:0.2 21:0.33333334 22:0.18292683 27:0.14285713 43:0.1 44:0.15384614 51:0.125 53:0.14285713 55:0.16666667 124:0.16666667 244:0.33333334 622:1 623:1 639:1 923:1 924:1 1029:1 1306:1 
-0.0039563069794293559064413123849135 1:0.067307688 18:0.04285714 43:0.60000002 625:1 805:1 1606:1 
-0.0010513526573005297325147378018073 1:0.125 6:0.07692308 9:0.07692308 11:0.07692308 14:0.07692308 17:0.15384614 18:0.34285715 27:0.2857143 30:0.1 41:0.11111111 43:0.30000001 56:0.01639344 67:0.5 69:0.5 74:0.25 75:0.25 84:0.25 93:0.33333334 110:0.5 123:0.5 132:0.5 142:0.25 144:0.5 156:0.5 196:0.25 257:0.5 349:0.33333334 352:0.5 736:1 740:1 742:1 743:1 745:1 746:1 747:1 
-0.0016013448908776656796904003243753 1:0.15384614 2:0.125 3:0.0625 4:0.0625 5:0.125 6:0.0625 7:0.25 14:0.1875 18:0.01428571 19:0.13333333 22:0.01219512 27:0.2857143 30:0.1 38:0.33333334 39:0.5 40:0.33333334 41:0.33333334 43:0.40000001 52:0.2 54:0.11111111 55:0.16666667 56:0.032786891 62:0.5 81:1 96:0.33333334 119:0.25 123:0.5 161:1 181:0.16666667 188:0.5 221:0.2 357:0.125 364:0.5 366:0.5 380:1 411:1 431:0.33333334 456:1 465:1 841:1 987:0.5 1397:1 1778:1 
-0.0038664709635589998397431354959508 1:0.02884615 6:0.33333334 9:0.33333334 17:0.33333334 18:0.17142858 30:0.1 75:0.25 341:1 1014:1 1015:1 
-0.0041193230168354950590514640396123 1:0.02884615 18:0.12857144 108:0.5 115:0.33333334 472:0.5 584:1 1775:1 
-0.0016117663971049493373821626107656 1:0.1826923 3:0.2631579 4:0.15789475 5:0.10526316 6:0.052631579 7:0.052631579 16:0.052631579 18:0.11428571 19:0.13333333 22:0.060975611 27:0.42857143 30:0.1 33:0.125 43:0.2 47:0.40000001 48:0.33333334 53:0.14285713 54:0.33333334 55:0.33333334 56:0.032786891 58:0.2 119:0.25 132:0.5 294:1 357:0.125 364:0.5 408:1 423:0.25 449:1 450:0.5 451:1 452:1 453:1 454:1 455:0.5 
-0.0016441963870563341444663851831365 1:0.086538456 6:0.22222222 7:0.22222222 18:0.1 27:0.14285713 30:0.2 43:0.30000001 69:0.5 96:0.33333334 132:0.5 142:0.25 181:0.16666667 196:0.5 237:0.33333334 257:0.5 389:0.5 465:1 675:1 712:1 773:1 1295:1 1658:1 1659:1 
-0.0042711941947063281760366137973506 1:0.04807692 5:0.2 6:0.2 18:0.028571431 19:0.06666667 30:0.1 66:0.33333334 78:0.33333334 149:1 198:1 2036:1 
-0.00054265361186782413126239443812437 1:0.02884615 18:0.11428571 108:0.5 325:1 326:1 327:1 328:1 
-0.0030828957239060206241276773653226 1:0.04807692 5:0.40000001 18:0.04285714 19:0.13333333 389:1 440:1 899:0.5 1352:1 1698:1 
-0.0023234114678646442149478890115688 1:0.20192309 3:0.14285713 4:0.19047619 5:0.14285713 6:0.19047619 14:0.047619049 18:0.30000001 19:0.2 22:0.036585368 23:0.14285713 26:0.5 30:0.40000001 41:0.11111111 44:0.01538462 47:0.2 54:0.44444445 61:0.25 65:0.33333334 96:0.33333334 99:0.125 109:0.25 115:0.33333334 131:0.5 135:0.33333334 136:0.5 174:0.25 342:1 372:1 405:0.33333334 407:1 485:1 550:1 826:1 1022:1 1036:1 
-0.00026359528150154493348136797159498 1:0.086538456 3:0.55555558 5:0.11111111 18:0.24285714 19:0.06666667 20:0.2 22:0.060975611 44:0.046153851 61:0.25 83:0.5 374:1 376:1 379:0.5 764:1 1160:1 1271:1 
-0.0027089409541894088687130626169619 1:0.03846154 18:0.11428571 61:0.25 83:0.5 150:0.01333333 158:0.5 439:0.5 1081:1 1160:1 1271:1 
-0.0054151833072193875789901440498397 1:0.02884615 13:0.33333334 18:0.17142858 27:0.14285713 467:0.5 468:1 472:0.5 473:0.5 
-0.002536243794566292626690984235438 1:0.04807692 6:0.2 7:0.2 18:0.04285714 27:0.14285713 30:0.1 132:0.5 142:0.25 181:0.16666667 257:0.5 829:1 1588:1 1658:1 
-0.00061501300682174041278837961499448 1:0.31730768 3:0.48484847 5:0.090909094 12:0.030303029 14:0.18181819 17:0.030303029 18:0.24285714 19:0.2 22:0.19512194 23:0.14285713 41:0.66666669 42:0.11111111 43:0.1 44:0.12307692 51:0.125 52:0.40000001 56:0.032786891 57:0.2 58:0.2 61:0.5 65:0.66666669 84:0.25 85:0.25 89:0.5 93:0.33333334 105:1 109:1 120:0.33333334 124:0.16666667 165:1 166:0.5 174:0.25 244:0.33333334 280:0.33333334 291:0.5 310:0.5 311:1 360:1 479:1 531:1 555:1 819:1 1530:1 
-0.0017816207648728528065151799353316 1:0.10576923 3:0.63636363 4:0.090909094 16:0.090909094 18:0.25714287 22:0.085365847 27:0.14285713 33:0.125 43:0.1 44:0.061538462 48:0.16666667 53:0.14285713 54:0.11111111 119:0.25 186:0.25 306:1 406:0.33333334 1626:1 1627:1 1628:1 1629:1 1630:1 
-0.0010951822697150964940754347409779 1:0.15384614 2:0.125 3:0.125 5:0.3125 6:0.0625 9:0.0625 14:0.125 17:0.0625 18:0.01428571 19:0.33333334 20:0.2 21:0.33333334 22:0.024390239 29:0.1 40:0.33333334 41:0.22222222 43:0.40000001 61:0.25 66:0.33333334 73:1 77:0.5 78:0.33333334 80:0.5 82:0.5 109:0.25 134:0.5 148:0.2 189:0.5 216:1 337:0.25 366:0.5 385:0.5 899:0.5 1259:1 1415:1 1416:1 1714:1 
-0.0012519394037704240866398786025115 1:0.11538462 3:0.66666669 5:0.083333328 12:0.083333328 18:0.21428572 19:0.06666667 22:0.097560979 44:0.07692308 85:0.25 87:1 124:0.16666667 238:0.5 244:0.33333334 423:0.25 455:0.5 551:0.5 553:0.5 807:1 809:1 983:1 
-0.0023876413752246432656289876206301 1:0.03846154 7:0.25 9:0.5 18:0.085714288 43:0.1 75:0.25 259:0.33333334 357:0.125 495:0.5 496:1 836:1 837:1 838:1 
-0.00087019469606962492318896762455438 1:0.057692312 3:0.16666667 14:0.33333334 17:0.16666667 18:0.47142857 22:0.01219512 27:0.14285713 41:0.22222222 45:0.5 55:0.16666667 389:0.5 1234:1 1752:1 1753:1 
-0.0044116598242879305133423706308804 1:0.02884615 18:0.15714286 43:0.1 115:0.33333334 150:0.01333333 505:1 781:0.5 782:1 963:1 
-0.00093973015450529674350010900241159 1:0.04807692 5:0.60000002 18:0.04285714 19:0.2 23:0.14285713 27:0.14285713 81:0.5 1032:1 1451:1 1452:1 
-0.0028980201468427682631734398910339 1:0.03846154 14:0.25 17:0.25 18:0.085714288 41:0.11111111 84:0.25 93:0.33333334 472:0.5 755:1 924:1 1615:1 
-0.002910582385042277675513133772256 1:0.03846154 2:0.5 7:0.25 17:0.25 18:0.15714286 40:0.33333334 357:0.125 589:1 679:1 680:1 
-0.0037497452401307924951812111658001 1:0.07692308 7:0.125 9:0.375 18:0.071428567 27:0.2857143 38:0.33333334 43:0.1 66:0.66666669 73:1 74:0.25 75:0.25 124:0.16666667 233:0.33333334 258:0.5 330:1 332:1 1324:1 1460:1 1463:1 1464:1 
-0.0028404678450324825217387925135881 1:0.03846154 4:0.25 7:0.25 17:0.25 18:0.028571431 43:0.2 54:0.11111111 119:0.25 557:1 763:1 1174:1 1541:1 1544:1 
-0.0018341367601864416725376827344007 1:0.11538462 5:0.33333334 14:0.083333328 18:0.25714287 19:0.26666668 41:0.11111111 61:0.5 80:0.5 82:1 96:0.33333334 118:1 122:0.5 150:0.026666669 166:0.5 186:0.25 247:0.5 256:0.5 526:0.25 766:1 1031:1 1113:0.5 1115:0.5 1117:0.5 1195:1 1196:1 1489:1 
-0.0093962220180598028662632970053892 1:0.0096153803 18:0.11428571 1034:1 
-0.0019756294066255080180138925527444 1:0.04807692 7:0.2 11:0.40000001 18:0.11428571 124:0.16666667 150:0.026666669 152:1 156:1 526:0.25 593:0.5 594:0.5 737:1 741:1 742:1 1476:1 
-0.0024913214063905907841300901850445 1:0.03846154 6:0.25 7:0.25 17:0.25 18:0.085714288 30:0.1 43:0.1 196:0.25 322:0.25 625:0.14285713 918:1 922:0.5 1125:1 1355:1 1839:1 
-0.0027858508800749320725997915104699 1:0.067307688 7:0.2857143 9:0.2857143 18:0.1 43:0.1 75:0.25 96:0.33333334 232:0.5 233:0.66666669 237:0.66666669 259:0.33333334 494:1 522:1 528:1 562:1 603:1 990:1 
-0.0018434065598903327885121905538313 1:0.057692312 6:0.33333334 7:0.33333334 9:0.16666667 18:0.085714288 30:0.2 186:0.25 237:0.66666669 321:0.33333334 349:0.33333334 526:0.5 710:1 1006:1 1051:1 1295:1 
-0.00094688873814039006999998537850161 1:0.03846154 7:0.25 9:0.75 18:0.21428572 75:0.5 259:0.33333334 357:0.125 654:1 1236:1 1472:1 
-0.0021480201298080068422757804569301 1:0.067307688 3:0.14285713 4:0.14285713 5:0.14285713 12:0.14285713 18:0.25714287 19:0.06666667 22:0.01219512 27:0.2857143 54:0.11111111 55:0.16666667 56:0.01639344 58:0.2 81:0.5 85:0.25 91:0.5 173:1 498:1 651:1 653:1 
-0.0014708750555052806704287027272926 1:0.14423077 3:0.26666668 5:0.13333333 6:0.13333333 14:0.13333333 18:0.27142856 19:0.13333333 21:0.33333334 22:0.04878049 30:0.2 41:0.22222222 43:0.1 44:0.01538462 51:0.125 52:0.2 96:0.66666669 97:1 98:1 108:1 150:0.01333333 166:0.5 196:0.25 210:0.33333334 233:0.33333334 377:0.5 423:0.25 428:1 433:1 940:0.5 1248:1 1621:1 1717:1 
-0.0020143233423776810489536082116047 1:0.04807692 6:0.2 9:0.2 14:0.2 18:0.21428572 27:0.14285713 29:0.1 41:0.11111111 108:0.5 349:0.33333334 394:1 400:1 401:1 402:1 
-0.0016797801484892749875749151655668 1:0.14423077 3:0.40000001 4:0.06666667 5:0.06666667 9:0.06666667 18:0.21428572 19:0.06666667 22:0.073170729 44:0.046153851 47:0.2 54:0.11111111 61:0.25 65:1 75:0.25 96:0.33333334 120:0.66666669 128:1 291:0.5 316:1 336:1 480:1 485:1 501:0.33333334 661:1 868:1 
-1.2175963526288480220927112895879 1:0.0096153803 18:0.25714287 
-0.0012303985332162714356335486698413 1:0.11538462 6:0.16666667 7:0.083333328 16:0.16666667 17:0.16666667 18:0.057142861 29:0.2 32:0.25 33:0.25 181:0.16666667 186:0.25 367:0.5 389:0.5 391:0.5 439:0.5 673:0.5 1780:1 1787:1 1917:1 1922:1 1923:1 
-0.0025242003573670546666407599190052 1:0.057692312 5:0.16666667 18:0.47142857 19:0.06666667 43:0.1 61:0.25 96:0.33333334 97:0.5 118:0.5 121:1 282:0.66666669 848:1 913:0.5 1185:1 1565:1 
-0.0024876589233574970295992390134643 1:0.057692312 4:0.33333334 6:0.33333334 18:0.04285714 29:0.2 54:0.22222222 403:1 463:0.5 513:1 514:0.5 899:0.5 1448:1 1816:1 
-0.0012439140186920154274030636543102 1:0.03846154 5:0.25 18:0.04285714 19:0.06666667 24:0.5 26:1 61:0.25 700:1 2012:1 
-0.0010107954129538968685020350335435 1:0.11538462 2:0.16666666 3:0.083333328 5:0.16666667 6:0.083333328 7:0.25 14:0.083333328 18:0.01428571 19:0.13333333 20:0.2 22:0.01219512 29:0.1 38:0.66666669 40:0.33333334 41:0.11111111 43:0.2 74:0.25 75:0.25 108:0.5 222:0.33333334 279:0.5 337:0.25 418:0.5 557:1 574:1 762:1 763:1 812:1 813:0.5 1326:1 1372:1 
-0.00026956578604541786775908307483007 1:0.16346154 3:0.41176471 5:0.11764706 6:0.05882353 14:0.11764706 17:0.05882353 18:0.18571429 19:0.13333333 22:0.085365847 29:0.1 41:0.22222222 43:0.2 44:0.07692308 51:0.125 84:0.25 93:0.33333334 104:0.5 105:0.5 108:1 123:0.5 279:0.5 280:0.33333334 389:0.5 394:1 425:1 598:1 711:1 773:1 1903:1 1904:1 
-0.00089288330136878867136079884758715 1:0.125 5:0.23076923 6:0.15384614 7:0.23076923 8:0.30769229 17:0.15384614 18:0.057142861 19:0.2 30:0.2 43:0.40000001 64:1 84:0.5 96:0.33333334 99:0.125 181:0.16666667 189:0.5 199:0.33333334 237:0.33333334 344:0.25 346:1 357:0.125 364:0.5 386:1 465:1 712:1 1146:1 1168:1 1286:1 
-0.0010971252424856981974587988304393 1:0.067307688 5:0.14285713 13:0.14285713 17:0.14285713 18:0.057142861 19:0.06666667 27:0.14285713 43:0.1 67:0.5 69:0.5 84:0.25 314:1 315:1 389:0.5 467:0.5 484:1 670:1 675:1 768:1 929:1 
-0.0016441251088469303540118282569438 1:0.07692308 4:0.25 6:0.125 7:0.125 12:0.125 14:0.375 18:0.21428572 29:0.1 38:0.33333334 41:0.33333334 54:0.22222222 56:0.01639344 85:0.25 161:1 224:0.5 263:0.5 498:1 500:1 504:1 611:1 1212:1 
-0.0017737123282365863368575942260463 1:0.07692308 7:0.25 9:0.25 18:0.071428567 38:0.33333334 43:0.30000001 56:0.01639344 71:0.5 74:0.25 75:0.5 144:0.5 186:0.25 259:0.33333334 262:0.25 383:0.5 384:1 450:0.5 469:1 496:1 1287:1 1402:1 1803:1 
-0.0029241128867902514525123347510771 1:0.02884615 18:0.14285713 69:0.5 186:0.5 514:0.5 1186:1 1187:1 
-0.0015482362101552722341568646413634 1:0.057692312 3:0.16666667 5:0.5 17:0.33333334 18:0.04285714 19:0.2 20:0.2 22:0.01219512 23:0.14285713 730:1 731:1 1574:1 1797:1 
-0.00091807796691927565698593260989924 1:0.067307688 3:0.14285713 5:0.2857143 6:0.14285713 9:0.14285713 16:0.14285713 18:0.01428571 19:0.13333333 22:0.01219512 23:0.14285713 30:0.1 33:0.125 75:0.25 150:0.01333333 267:0.5 335:1 336:1 501:0.33333334 506:1 661:1 1140:1 
-0.00058297357750107634162539671507375 1:0.15384614 3:0.125 5:0.1875 14:0.125 17:0.0625 18:0.48571429 19:0.2 21:0.33333334 22:0.024390239 23:0.14285713 27:0.14285713 41:0.22222222 61:0.25 65:1 68:0.5 81:0.5 84:0.25 93:0.33333334 120:0.33333334 140:1 174:0.25 224:0.5 280:0.33333334 282:0.33333334 310:0.5 311:1 389:0.5 437:1 694:1 1185:1 1393:1 
-0.002974957051423308181797855453965 1:0.01923077 5:0.5 18:0.028571431 19:0.06666667 1924:1 1980:1 
-0.0041017010083439463252741319365668 1:0.01923077 18:0.085714288 83:0.25 952:0.125 1758:1 1759:1 
-0.0022120872310894970982908525058974 1:0.02884615 6:0.33333334 9:0.33333334 17:0.33333334 18:0.22857143 29:0.1 259:0.33333334 260:1 1871:1 1872:1 
-0.0018598888767692449593138537267123 1:0.04807692 5:0.2 6:0.40000001 18:0.04285714 19:0.06666667 29:0.2 130:0.5 391:0.5 438:1 439:0.5 1255:1 1817:1 
-0.00092645502148637850527157500124531 1:0.07692308 4:0.125 7:0.375 14:0.125 17:0.125 18:0.40000001 38:0.33333334 41:0.11111111 43:0.2 54:0.11111111 56:0.01639344 96:0.33333334 124:0.16666667 161:1 357:0.25 364:1 465:1 721:0.5 898:1 987:0.5 1138:1 1514:1 2007:1 
-0.00086596761754052461491915071434278 1:0.11538462 3:0.25 4:0.16666667 5:0.33333334 18:0.22857143 19:0.26666668 22:0.036585368 23:0.2857143 43:0.1 44:0.01538462 47:0.2 51:0.125 54:0.22222222 124:0.16666667 131:0.5 165:1 244:0.33333334 389:0.5 407:1 531:1 773:1 814:1 815:1 816:1 943:0.5 
-0.0013343307271627615363113195101619 1:0.096153848 3:0.1 4:0.1 5:0.2 18:0.35714287 19:0.13333333 22:0.01219512 26:0.5 54:0.11111111 96:0.33333334 150:0.01333333 214:0.5 247:0.5 284:0.5 526:0.5 617:0.33333334 658:1 1067:1 1116:1 1117:0.5 1118:1 
-0.0017895187055121280269437411547528 1:0.03846154 7:0.25 9:0.5 18:0.04285714 75:0.5 181:0.16666667 315:1 654:1 685:1 686:1 
-0.0013719006135651020533705590764839 1:0.067307688 4:0.2857143 6:0.42857143 12:0.14285713 18:0.18571429 29:0.2 30:0.1 43:0.1 54:0.22222222 56:0.01639344 85:0.25 100:0.25 196:0.25 464:1 498:1 500:1 1212:1 1433:1 
-0.0020424750147048221886325602980605 1:0.04807692 5:0.40000001 18:0.04285714 19:0.13333333 61:0.25 77:0.5 78:0.66666669 197:1 218:1 359:1 
-0.0018975072074583711114609263503894 1:0.10576923 3:0.45454544 4:0.36363637 5:0.090909094 18:0.25714287 19:0.06666667 20:0.2 22:0.060975611 44:0.030769231 47:0.2 54:0.44444445 124:0.5 524:0.5 526:0.25 721:0.5 735:1 744:0.5 871:0.5 873:0.5 874:1 875:1 876:1 877:1 878:1 
-0.00061324614949559419756902611808869 1:0.52884614 3:0.65454543 4:0.12727273 5:0.054545451 14:0.036363639 16:0.018181819 18:0.057142861 19:0.2 20:0.40000001 22:0.43902439 27:0.42857143 33:0.125 41:0.22222222 43:0.2 44:0.38461539 47:0.80000001 48:0.5 49:0.25 50:1 51:0.125 52:0.2 53:0.42857143 54:0.77777779 55:0.33333334 56:0.049180329 57:0.40000001 58:0.40000001 78:0.33333334 119:0.25 123:0.5 124:0.16666667 131:0.5 161:1 189:0.16666667 264:0.5 477:0.5 536:1 538:1 641:1 721:0.5 735:0.33333334 1175:1 1176:1 1208:1 
-0.0018944675714021455906199697949432 1:0.02884615 18:0.057142861 43:0.1 83:0.25 780:1 781:0.5 782:1 783:1 784:1 
-0.00104361846758932908137140760374 1:0.17307691 3:0.3888889 4:0.05555556 7:0.05555556 16:0.22222222 18:0.17142858 22:0.085365847 27:0.14285713 33:0.5 43:0.1 44:0.07692308 51:0.125 53:0.14285713 54:0.11111111 61:0.5 124:0.16666667 159:0.5 181:0.16666667 182:0.25 192:0.5 244:0.33333334 413:1 414:0.5 424:1 871:1 946:1 974:1 1366:1 1380:1 1381:1 
-0.0039471835397572639994590026901733 1:0.01923077 18:0.028571431 96:0.33333334 1323:1 2035:1 
-0.0009506796971412452947405857806018 1:0.096153848 3:0.2 4:0.1 5:0.2 6:0.1 10:0.1 17:0.1 18:0.12857144 19:0.13333333 22:0.024390239 30:0.1 43:0.2 44:0.01538462 48:0.16666667 54:0.11111111 56:0.01639344 58:0.2 148:0.2 183:0.5 199:0.33333334 229:1 230:1 407:1 622:1 623:1 624:1 1204:0.25 1205:0.25 1253:1 
-0.00078764986868389572430282363768583 1:0.21153846 3:0.5 4:0.045454551 5:0.045454551 16:0.13636364 18:0.2857143 19:0.06666667 20:0.2 21:0.33333334 22:0.13414633 27:0.42857143 33:0.375 44:0.10769231 47:0.2 53:0.2857143 54:0.11111111 55:0.16666667 124:0.16666667 192:0.5 414:0.5 526:0.5 527:0.33333334 628:0.5 680:1 879:0.5 950:0.5 1104:0.5 1166:1 1167:1 1532:1 1968:1 1969:1 
-0.0021515312504357124619158714295963 1:0.03846154 5:0.25 6:0.25 12:0.25 18:0.18571429 19:0.06666667 29:0.1 43:0.1 78:0.33333334 85:0.25 231:1 268:1 381:1 572:0.5 
-0.0007928421873649835367736660174387 1:0.14423077 3:0.26666668 14:0.13333333 17:0.06666667 18:0.24285714 22:0.04878049 27:0.14285713 41:0.22222222 44:0.046153851 61:0.25 65:0.33333334 67:0.5 69:1 84:0.25 92:0.5 93:0.33333334 96:0.33333334 114:1 122:0.5 140:1 233:0.33333334 377:0.5 520:1 652:1 845:1 1321:1 
-0.00079478992514948952445574814618112 1:0.13461538 5:0.42857143 7:0.14285713 14:0.21428572 16:0.071428567 18:0.01428571 19:0.40000001 23:0.42857143 33:0.125 38:0.33333334 41:0.33333334 43:0.30000001 56:0.01639344 105:0.5 148:0.2 161:1 166:1 181:0.16666667 185:1 186:0.25 187:1 188:0.5 189:0.16666667 190:1 191:1 192:0.5 193:1 194:1 
-0.00062729314525457444042672028317043 1:0.15384614 3:0.3125 4:0.125 5:0.0625 6:0.0625 7:0.125 17:0.0625 18:0.18571429 19:0.06666667 20:0.2 22:0.060975611 26:0.5 29:0.1 44:0.046153851 54:0.22222222 60:0.33333334 61:0.5 162:0.5 181:0.33333334 182:0.25 281:1 283:0.5 492:0.5 684:0.5 700:1 871:1 1192:0.5 1193:0.5 1218:0.5 1355:1 1357:0.5 1382:0.5 1383:1 
