SVM-light Version V5.00
2 # kernel type
3 # kernel parameter -d 
0.1 # kernel parameter -g 
1 # kernel parameter -s 
1 # kernel parameter -r 
empty# kernel parameter -u 
2226 # highest feature index 
18907 # number of training documents 
658 # number of support vectors plus 1 
1.4237816 # threshold b, each following line is a SV (starting with alpha*y)
0.56047461061590519992847703178995 1:0.067307688 2:0.28571427 3:0.42857143 6:0.14285713 14:0.14285713 16:0.14285713 18:0.071428567 22:0.036585368 30:0.1 33:0.125 40:0.33333334 41:0.11111111 44:0.030769231 109:0.25 150:0.01333333 220:1 267:0.5 312:1 506:1 2110:0.5 2111:0.5 2116:0.5 2117:0.5 2128:0.5 2134:0.5 2135:0.5 2139:0.5 
1.0378955582525051237752222732524 1:0.04807692 5:0.40000001 18:0.04285714 19:0.13333333 61:0.25 77:0.5 78:0.66666669 197:1 218:1 359:1 2115:0.5 2146:0.5 2151:0.5 2166:0.5 2179:0.5 2183:0.5 2184:0.5 
-1.6407581834342914728352980091586 1:0.0096153803 3:1 18:0.04285714 22:0.01219512 2114:0.5 2115:0.5 2118:0.5 2143:0.5 2167:0.5 2169:0.5 
-0.32323802623958547419746878404112 1:0.02884615 5:0.33333334 16:0.33333334 18:0.071428567 19:0.06666667 33:0.125 108:0.5 514:0.5 930:1 1183:1 1197:1 2112:0.5 2115:0.5 2122:0.5 2128:0.5 2132:0.5 2143:0.5 2148:0.5 2158:0.5 
1.5986326517969362548399203660665 1:0.02884615 3:0.33333334 5:0.33333334 18:0.028571431 19:0.06666667 22:0.01219512 2110:0.5 2111:0.5 2112:0.5 2155:0.5 2165:0.5 
1.0085530604768340179333563355613 1:0.03846154 5:0.5 18:0.01428571 19:0.13333333 61:0.25 80:0.5 82:0.5 150:0.01333333 247:0.5 1433:1 2115:0.5 2146:0.5 2148:0.5 2149:0.5 
1.6407581834342914728352980091586 1:0.067307688 3:0.2857143 5:0.2857143 6:0.2857143 18:0.01428571 19:0.13333333 21:0.33333334 22:0.024390239 23:0.14285713 29:0.2 44:0.01538462 115:0.33333334 130:0.5 301:0.33333334 1793:1 2111:0.5 2115:0.5 2116:0.5 2143:0.5 
1.6407581834342914728352980091586 1:0.01923077 5:0.5 6:0.5 18:0.01428571 19:0.06666667 29:0.1 134:0.5 2110:0.5 2112:0.5 2143:0.5 2162:0.5 
0.58564221968836138731973051108071 1:0.086538456 3:0.11111111 5:0.22222222 6:0.11111111 16:0.11111111 18:0.01428571 19:0.13333333 21:0.33333334 22:0.01219512 30:0.1 33:0.125 61:0.25 78:0.33333334 79:1 96:0.66666669 97:0.5 128:1 150:0.01333333 267:0.5 477:0.5 506:1 550:1 971:1 2110:0.5 2111:0.5 2143:0.5 2164:0.5 
1.6407581834342914728352980091586 1:0.02884615 5:0.33333334 18:0.01428571 19:0.06666667 77:0.5 78:0.33333334 96:0.33333334 97:0.5 2110:0.5 2112:0.5 2143:0.5 2162:0.5 
-1.6407581834342914728352980091586 1:0.10576923 3:0.36363637 5:0.36363637 6:0.090909094 18:0.01428571 19:0.26666668 20:0.2 22:0.04878049 23:0.14285713 27:0.2857143 30:0.1 44:0.030769231 53:0.14285713 62:1 81:0.5 136:0.5 210:0.33333334 2110:0.5 2111:0.5 2143:0.5 2146:0.5 2149:0.5 
-1.6407581834342914728352980091586 1:0.02884615 3:0.33333334 5:0.66666669 18:0.01428571 19:0.13333333 20:0.2 22:0.01219512 23:0.14285713 2111:0.5 2115:0.5 2143:0.5 2146:0.5 2149:0.5 
-1.6407581834342914728352980091586 1:0.11538462 3:0.41666666 5:0.41666666 14:0.083333328 18:0.01428571 19:0.33333334 20:0.40000001 21:0.66666669 22:0.060975611 23:0.14285713 41:0.11111111 44:0.046153851 96:0.33333334 97:0.5 105:0.5 166:0.5 2110:0.5 2111:0.5 2143:0.5 2146:0.5 
1.6407581834342914728352980091586 1:0.0096153803 6:1 18:0.04285714 30:0.1 2114:0.5 2115:0.5 2118:0.5 2119:0.5 2120:0.5 2121:0.5 
1.6407581834342914728352980091586 1:0.0096153803 14:1 18:0.028571431 41:0.11111111 2114:0.5 2115:0.5 2121:0.5 2126:0.5 2130:0.5 
1.6407581834342914728352980091586 1:0.02884615 6:0.33333334 18:0.071428567 30:0.1 96:0.33333334 1084:1 1104:0.5 2114:0.5 2115:0.5 2118:0.5 2121:0.5 2123:0.5 2126:0.5 2130:0.5 2142:0.5 2145:0.5 
-1.6407581834342914728352980091586 1:0.0096153803 5:1 18:0.04285714 19:0.06666667 2114:0.5 2115:0.5 2118:0.5 2165:0.5 2167:0.5 2169:0.5 
-1.6407581834342914728352980091586 1:0.0096153803 5:1 18:0.057142861 19:0.06666667 2114:0.5 2115:0.5 2118:0.5 2123:0.5 2165:0.5 2167:0.5 2169:0.5 
1.6407581834342914728352980091586 1:0.096153848 3:0.69999999 5:0.1 18:0.028571431 19:0.06666667 20:0.2 22:0.085365847 27:0.2857143 44:0.061538462 53:0.2857143 55:0.33333334 2115:0.5 2134:0.5 2143:0.5 2146:0.5 2148:0.5 2149:0.5 2183:0.5 
1.6407581834342914728352980091586 1:0.086538456 3:0.77777779 5:0.11111111 18:0.01428571 19:0.06666667 20:0.2 22:0.085365847 27:0.14285713 44:0.07692308 53:0.14285713 55:0.16666667 2111:0.5 2124:0.5 2146:0.5 2149:0.5 
0.41066006631118279202041776443366 1:0.04807692 3:0.80000001 18:0.01428571 22:0.04878049 26:0.5 44:0.046153851 214:0.5 2110:0.5 2111:0.5 2143:0.5 2146:0.5 2149:0.5 
-1.6407581834342914728352980091586 1:0.0096153803 5:1 18:0.04285714 19:0.06666667 2114:0.5 2115:0.5 2118:0.5 2165:0.5 2167:0.5 2169:0.5 
-1.6407581834342914728352980091586 1:0.0096153803 3:1 18:0.071428567 22:0.01219512 2114:0.5 2115:0.5 2138:0.5 2141:0.5 2142:0.5 2148:0.5 2153:0.5 2164:0.5 2179:0.5 
-1.6407581834342914728352980091586 1:0.0096153803 3:1 18:0.071428567 22:0.01219512 2114:0.5 2115:0.5 2118:0.5 2141:0.5 2142:0.5 2146:0.5 2148:0.5 2149:0.5 
1.6407581834342914728352980091586 1:0.02884615 5:0.66666669 6:0.33333334 18:0.11428571 19:0.13333333 29:0.1 130:0.5 134:0.5 2114:0.5 2118:0.5 2121:0.5 2123:0.5 2126:0.5 2128:0.5 2130:0.5 2133:0.5 
1.6407581834342914728352980091586 1:0.03846154 5:0.75 14:0.25 18:0.1 19:0.2 23:0.2857143 41:0.11111111 166:0.5 2121:0.5 2126:0.5 2130:0.5 2133:0.5 2136:0.5 2161:0.5 2171:0.5 2191:0.5 2192:0.5 
1.6407581834342914728352980091586 1:0.02884615 5:0.66666669 6:0.33333334 18:0.04285714 19:0.13333333 23:0.14285713 29:0.1 130:0.5 2121:0.5 2126:0.5 2127:0.5 2130:0.5 2131:0.5 2133:0.5 2134:0.5 
-1.6407581834342914728352980091586 1:0.0096153803 3:1 18:0.071428567 22:0.01219512 2114:0.5 2115:0.5 2118:0.5 2141:0.5 2142:0.5 2146:0.5 2148:0.5 2149:0.5 
1.6407581834342914728352980091586 1:0.07692308 3:0.75 5:0.125 14:0.125 18:0.01428571 19:0.06666667 20:0.2 22:0.073170729 41:0.11111111 44:0.061538462 52:0.2 109:0.25 2115:0.5 2148:0.5 2151:0.5 2187:0.5 
0.52142576793833972370606488766498 1:0.04807692 5:0.60000002 6:0.2 17:0.2 18:0.01428571 19:0.2 23:0.14285713 30:0.1 150:0.01333333 247:0.5 251:1 267:0.5 1683:1 2115:0.5 2146:0.5 2148:0.5 2149:0.5 
1.4010603375748760246466417811462 1:0.04807692 3:0.40000001 18:0.028571431 22:0.024390239 44:0.01538462 61:0.25 2114:0.5 2115:0.5 2146:0.5 2148:0.5 2198:0.5 
1.6407581834342914728352980091586 1:0.0096153803 5:1 18:0.04285714 19:0.06666667 2114:0.5 2118:0.5 2165:0.5 2167:0.5 2169:0.5 2170:0.5 
1.6407581834342914728352980091586 1:0.01923077 3:0.5 5:0.5 18:0.04285714 19:0.06666667 21:0.33333334 22:0.01219512 2114:0.5 2115:0.5 2118:0.5 2143:0.5 2146:0.5 2169:0.5 
0.49704533271891571111211760580773 1:0.04807692 3:0.40000001 5:0.60000002 18:0.071428567 19:0.2 20:0.2 21:0.33333334 22:0.024390239 23:0.14285713 44:0.01538462 2114:0.5 2115:0.5 2118:0.5 2123:0.5 2143:0.5 2146:0.5 2148:0.5 2149:0.5 2151:0.5 2153:0.5 2202:0.5 
-1.6407581834342914728352980091586 1:0.02884615 4:0.33333334 5:0.33333334 6:0.33333334 18:0.028571431 19:0.06666667 30:0.1 54:0.11111111 131:0.5 135:0.33333334 2111:0.5 2114:0.5 2143:0.5 2164:0.5 2168:0.5 
-1.6407581834342914728352980091586 1:0.01923077 12:0.5 18:0.028571431 26:0.5 85:0.25 1303:1 2111:0.5 2114:0.5 2143:0.5 2146:0.5 2149:0.5 2170:0.5 
-1.6407581834342914728352980091586 1:0.01923077 5:0.5 18:0.01428571 19:0.06666667 170:1 172:0.5 2110:0.5 2111:0.5 2143:0.5 2146:0.5 
1.6407581834342914728352980091586 1:0.096153848 5:0.2 8:0.2 17:0.1 18:0.085714288 19:0.13333333 27:0.14285713 43:0.2 56:0.01639344 64:0.5 84:0.25 88:0.5 96:0.33333334 108:0.5 142:0.25 148:0.2 257:0.5 325:1 328:1 346:0.5 408:1 736:1 845:1 934:1 996:1 997:1 998:1 999:1 2121:0.5 2122:0.5 2126:0.5 2127:0.5 2129:0.5 2130:0.5 2132:0.5 2136:0.5 2156:0.5 2184:0.5 
1.6407581834342914728352980091586 1:0.0096153803 3:1 18:0.04285714 22:0.01219512 2114:0.5 2115:0.5 2118:0.5 2121:0.5 2148:0.5 2151:0.5 2164:0.5 
1.6407581834342914728352980091586 1:0.02884615 3:1 18:0.028571431 22:0.036585368 44:0.030769231 2114:0.5 2115:0.5 2121:0.5 2126:0.5 2130:0.5 
-0.048381159916475770244037590828157 1:0.11538462 6:0.41666666 7:0.25 9:0.083333328 16:0.083333328 18:0.028571431 29:0.2 30:0.30000001 33:0.125 35:0.25 36:0.5 43:0.2 61:0.25 75:0.25 78:0.33333334 112:0.5 181:0.5 201:0.5 217:0.5 221:0.40000001 337:0.25 338:0.5 340:0.33333334 341:1 698:0.5 2111:0.5 2114:0.5 2115:0.5 2146:0.5 2149:0.5 
-0.2539312490976970426714842687943 1:0.057692312 3:0.16666667 5:0.5 18:0.057142861 19:0.2 21:0.33333334 22:0.01219512 23:0.14285713 61:0.25 80:0.5 82:0.5 501:0.33333334 661:1 2121:0.5 2123:0.5 2127:0.5 2150:0.5 2151:0.5 2153:0.5 2171:0.5 
-1.257693174486817389023940449988 1:0.096153848 5:0.1 6:0.60000002 16:0.2 18:0.028571431 19:0.06666667 29:0.2 30:0.40000001 32:0.5 33:0.25 35:0.25 43:0.30000001 96:0.33333334 99:0.125 138:1 189:0.16666667 196:0.5 199:0.66666669 337:0.25 1084:1 2114:0.5 2115:0.5 2121:0.5 2146:0.5 2148:0.5 2151:0.5 2153:0.5 
1.6407581834342914728352980091586 1:0.0096153803 18:0.01428571 96:0.33333334 2110:0.5 2111:0.5 2143:0.5 2146:0.5 
0.033553436740252740033696454702294 1:0.04807692 5:0.40000001 16:0.2 18:0.028571431 19:0.13333333 23:0.14285713 24:0.5 26:0.5 27:0.14285713 33:0.125 81:0.5 195:1 2110:0.5 2111:0.5 2121:0.5 2126:0.5 2183:0.5 
1.6407581834342914728352980091586 1:0.057692312 3:0.16666667 5:0.33333334 6:0.5 18:0.01428571 19:0.13333333 22:0.01219512 23:0.14285713 29:0.30000001 31:0.5 130:0.5 287:0.33333334 2110:0.5 2111:0.5 2143:0.5 2146:0.5 
-1.6407581834342914728352980091586 1:0.02884615 5:0.33333334 18:0.01428571 19:0.06666667 27:0.14285713 81:0.5 282:0.33333334 606:1 2110:0.5 2111:0.5 2143:0.5 2146:0.5 
-1.6407581834342914728352980091586 1:0.02884615 3:0.33333334 5:0.33333334 18:0.01428571 19:0.06666667 20:0.2 22:0.01219512 226:1 2110:0.5 2111:0.5 2143:0.5 2146:0.5 
-1.6407581834342914728352980091586 1:0.01923077 18:0.04285714 108:0.5 118:0.5 2110:0.5 2111:0.5 2131:0.5 2135:0.5 2143:0.5 2146:0.5 
1.6407581834342914728352980091586 1:0.28846154 5:0.2 6:0.30000001 7:0.033333331 9:0.1 11:0.033333331 14:0.06666667 17:0.033333331 18:0.01428571 19:0.40000001 23:0.5714286 27:0.2857143 29:0.30000001 30:0.60000002 41:0.22222222 43:0.69999999 66:0.66666669 67:0.5 69:0.5 73:1 74:0.25 75:0.25 78:0.33333334 84:0.25 93:0.33333334 99:0.25 100:0.5 105:0.5 142:0.25 144:0.5 156:0.5 166:0.5 196:0.75 199:0.66666669 200:0.25 201:0.5 237:0.33333334 257:0.5 258:0.5 331:1 337:0.5 359:1 385:0.5 389:0.5 472:0.5 675:1 755:1 768:1 804:1 919:1 1740:1 2121:0.5 2126:0.5 2130:0.5 2133:0.5 
1.6407581834342914728352980091586 1:0.125 3:0.07692308 4:0.07692308 5:0.23076923 6:0.23076923 16:0.15384614 18:0.15714286 19:0.2 20:0.2 22:0.01219512 23:0.14285713 30:0.30000001 33:0.25 35:0.25 43:0.2 50:1 54:0.11111111 56:0.01639344 61:0.25 112:0.5 138:1 150:0.01333333 196:0.5 248:1 383:1 384:1 405:0.33333334 424:0.5 426:0.33333334 1008:1 1009:1 2110:0.5 2121:0.5 2124:0.5 2125:0.5 2126:0.5 2148:0.5 2153:0.5 2171:0.5 2192:0.5 2194:0.5 2196:0.5 
0.61902585768550322242731454025488 1:0.067307688 3:0.14285713 5:0.2857143 6:0.14285713 9:0.14285713 16:0.14285713 18:0.01428571 19:0.13333333 22:0.01219512 23:0.14285713 30:0.1 33:0.125 75:0.25 150:0.01333333 267:0.5 335:1 336:1 501:0.33333334 506:1 661:1 1140:1 2115:0.5 2120:0.5 2121:0.5 2148:0.5 
1.6407581834342914728352980091586 18:0.04285714 33:0.125 2110:0.5 2111:0.5 2112:0.5 2114:0.5 2121:0.5 2184:0.5 
1.6407581834342914728352980091586 1:0.04807692 3:0.2 5:0.40000001 6:0.40000001 18:0.028571431 19:0.13333333 20:0.2 22:0.01219512 23:0.14285713 29:0.1 30:0.1 100:0.25 162:0.5 2115:0.5 2121:0.5 2146:0.5 2148:0.5 2183:0.5 
1.2214785189299077750035849021515 1:0.04807692 5:0.60000002 6:0.2 12:0.2 18:0.01428571 19:0.2 23:0.14285713 29:0.1 85:0.25 130:0.5 134:0.5 231:1 2110:0.5 2165:0.5 2167:0.5 2169:0.5 
-0.19278018217260964317638638476637 1:0.01923077 5:0.5 18:0.14285713 19:0.06666667 108:0.5 279:0.5 2131:0.5 2135:0.5 2141:0.5 2145:0.5 2148:0.5 2149:0.5 2150:0.5 2151:0.5 
0.68826372008723823991971357827424 1:0.03846154 3:0.25 5:0.25 6:0.5 18:0.01428571 19:0.06666667 20:0.2 22:0.01219512 29:0.1 30:0.1 34:0.33333334 134:0.5 2110:0.5 2111:0.5 2143:0.5 2146:0.5 
0.63758379227907624464677383002709 1:0.04807692 5:0.60000002 14:0.2 18:0.04285714 19:0.2 23:0.14285713 41:0.11111111 105:0.5 166:0.5 501:0.33333334 530:0.5 2115:0.5 2121:0.5 2146:0.5 2151:0.5 2166:0.5 2183:0.5 2184:0.5 2218:0.5 
-1.6407581834342914728352980091586 1:0.01923077 5:0.5 6:0.5 18:0.04285714 19:0.06666667 29:0.1 134:0.5 2111:0.5 2114:0.5 2115:0.5 2116:0.5 2117:0.5 2118:0.5 
-1.6407581834342914728352980091586 1:0.03846154 5:0.25 6:0.75 18:0.04285714 19:0.06666667 29:0.2 30:0.1 43:0.2 100:0.25 134:0.5 189:0.16666667 196:0.25 337:0.25 2111:0.5 2112:0.5 2113:0.5 2114:0.5 2115:0.5 2118:0.5 
-1.6407581834342914728352980091586 1:0.01923077 5:0.5 6:0.5 18:0.028571431 19:0.06666667 30:0.1 137:0.5 2114:0.5 2121:0.5 2126:0.5 2129:0.5 2130:0.5 
1.6407581834342914728352980091586 1:0.096153848 3:0.1 4:0.1 5:0.2 14:0.2 18:0.04285714 19:0.13333333 22:0.01219512 27:0.2857143 41:0.22222222 45:0.5 46:0.25 52:0.2 54:0.11111111 61:0.25 81:0.5 82:0.5 122:0.5 166:0.5 501:0.33333334 661:1 1235:1 2110:0.5 2155:0.5 2158:0.5 2165:0.5 2167:0.5 2169:0.5 
1.6407581834342914728352980091586 1:0.096153848 3:0.1 5:0.40000001 6:0.1 18:0.17142858 19:0.26666668 21:0.33333334 22:0.01219512 23:0.14285713 30:0.1 43:0.1 56:0.01639344 65:0.33333334 108:0.5 137:0.5 148:0.2 251:1 325:1 328:1 408:1 485:1 996:1 997:1 998:1 999:1 2114:0.5 2121:0.5 2122:0.5 2126:0.5 2129:0.5 2130:0.5 2150:0.5 2156:0.5 2173:0.5 2183:0.5 2194:0.5 2196:0.5 
1.6407581834342914728352980091586 1:0.01923077 6:0.5 9:0.5 18:0.18571429 29:0.1 75:0.25 698:0.5 2150:0.5 2151:0.5 2153:0.5 2163:0.5 2175:0.5 2193:0.5 2196:0.5 2218:0.5 
-1.3195735328320390422618402226362 1:0.086538456 4:0.11111111 5:0.44444445 6:0.11111111 9:0.11111111 18:0.028571431 19:0.26666668 23:0.14285713 27:0.14285713 30:0.1 43:0.1 54:0.11111111 56:0.01639344 58:0.2 62:0.5 75:0.25 81:0.5 96:0.33333334 97:0.5 137:0.5 144:0.5 189:0.16666667 405:0.33333334 933:1 2110:0.5 2112:0.5 2162:0.5 2163:0.5 2164:0.5 2183:0.5 2210:0.5 
-1.6407581834342914728352980091586 1:0.07692308 5:0.5 6:0.125 9:0.125 18:0.01428571 19:0.26666668 23:0.14285713 27:0.14285713 30:0.1 43:0.1 56:0.01639344 58:0.2 62:0.5 75:0.25 81:0.5 96:0.33333334 97:0.5 137:0.5 144:0.5 189:0.16666667 933:1 2110:0.5 2112:0.5 2143:0.5 2149:0.5 2162:0.5 
1.6407581834342914728352980091586 1:0.01923077 5:0.5 6:0.5 18:0.057142861 19:0.06666667 29:0.1 130:0.5 2114:0.5 2115:0.5 2118:0.5 2121:0.5 2126:0.5 2141:0.5 2181:0.5 
1.5273387435023224600882940649171 1:0.01923077 5:1 18:0.085714288 19:0.13333333 23:0.14285713 2114:0.5 2115:0.5 2118:0.5 2121:0.5 2126:0.5 2139:0.5 2141:0.5 2181:0.5 2185:0.5 
0.63155114695308245398308599760639 1:0.03846154 5:1 18:0.085714288 19:0.26666668 23:0.42857143 2111:0.5 2114:0.5 2115:0.5 2116:0.5 2118:0.5 2141:0.5 2143:0.5 2185:0.5 2194:0.5 
-1.6407581834342914728352980091586 1:0.01923077 5:1 18:0.028571431 19:0.13333333 23:0.14285713 2115:0.5 2122:0.5 2146:0.5 2148:0.5 2151:0.5 2163:0.5 
-1.6407581834342914728352980091586 1:0.0096153803 3:1 18:0.1 22:0.01219512 2114:0.5 2115:0.5 2118:0.5 2119:0.5 2123:0.5 2143:0.5 2145:0.5 2146:0.5 2196:0.5 
-1.6407581834342914728352980091586 1:0.0096153803 18:0.12857144 61:0.25 2115:0.5 2146:0.5 2148:0.5 2149:0.5 2171:0.5 2193:0.5 2194:0.5 2196:0.5 
1.6104058564270877784707636237727 1:0.07692308 3:0.25 5:0.25 6:0.125 16:0.125 18:0.01428571 19:0.13333333 20:0.2 21:0.33333334 22:0.024390239 27:0.14285713 30:0.1 33:0.125 36:0.5 55:0.16666667 81:0.5 136:0.5 294:1 449:1 2110:0.5 2112:0.5 2162:0.5 2210:0.5 
0.11742410116208822079553186767953 1:0.067307688 3:0.2857143 4:0.14285713 5:0.2857143 6:0.14285713 18:0.01428571 19:0.13333333 20:0.2 21:0.33333334 22:0.024390239 27:0.14285713 30:0.1 47:0.2 54:0.11111111 55:0.16666667 81:0.5 405:0.33333334 2112:0.5 2115:0.5 2143:0.5 2148:0.5 2149:0.5 2153:0.5 
1.6121020473175839970991773952846 1:0.04807692 4:0.2 5:0.40000001 18:0.01428571 19:0.13333333 54:0.11111111 96:0.33333334 131:0.5 170:1 172:0.5 407:1 1362:1 2110:0.5 2112:0.5 2113:0.5 2162:0.5 
-1.6407581834342914728352980091586 1:0.086538456 4:0.11111111 5:0.44444445 6:0.11111111 9:0.11111111 18:0.028571431 19:0.26666668 23:0.14285713 27:0.14285713 30:0.1 43:0.1 54:0.11111111 56:0.01639344 58:0.2 62:0.5 75:0.25 81:0.5 96:0.33333334 97:0.5 137:0.5 144:0.5 189:0.16666667 405:0.33333334 933:1 2110:0.5 2112:0.5 2162:0.5 2163:0.5 2164:0.5 2183:0.5 2210:0.5 
-1.6407581834342914728352980091586 1:0.07692308 3:0.125 5:0.375 6:0.125 7:0.125 14:0.125 18:0.01428571 19:0.2 20:0.2 21:0.33333334 22:0.01219512 29:0.1 41:0.11111111 77:0.5 78:0.33333334 105:0.5 130:0.5 166:0.5 181:0.16666667 340:0.33333334 2110:0.5 2162:0.5 2210:0.5 2212:0.5 
-1.6407581834342914728352980091586 1:0.086538456 5:0.77777779 7:0.11111111 14:0.11111111 18:0.01428571 19:0.46666667 23:0.71428573 38:0.33333334 41:0.11111111 43:0.1 105:0.5 166:0.5 189:0.16666667 222:0.33333334 2110:0.5 2112:0.5 2143:0.5 2162:0.5 
-1.6407581834342914728352980091586 1:0.067307688 3:0.14285713 5:0.42857143 14:0.2857143 18:0.01428571 19:0.2 22:0.01219512 23:0.14285713 27:0.14285713 41:0.22222222 45:0.5 52:0.2 55:0.16666667 105:0.5 166:0.5 2110:0.5 2111:0.5 2143:0.5 2164:0.5 
1.6407581834342914728352980091586 1:0.03846154 3:0.75 4:0.25 18:0.057142861 22:0.036585368 44:0.030769231 48:0.16666667 54:0.11111111 2114:0.5 2115:0.5 2118:0.5 2146:0.5 2148:0.5 2149:0.5 2186:0.5 
1.6407581834342914728352980091586 1:0.01923077 5:0.5 6:0.5 18:0.04285714 19:0.06666667 29:0.1 134:0.5 2114:0.5 2115:0.5 2118:0.5 2146:0.5 2148:0.5 2149:0.5 
1.6407581834342914728352980091586 1:0.02884615 5:0.33333334 6:0.33333334 18:0.04285714 19:0.06666667 29:0.1 108:0.5 134:0.5 279:0.5 2114:0.5 2115:0.5 2146:0.5 2148:0.5 2149:0.5 2184:0.5 
-1.6133240255323260115005723491777 1:0.02884615 6:0.33333334 9:0.33333334 16:0.33333334 18:0.085714288 28:0.25 29:0.1 33:0.125 75:0.25 655:0.5 2114:0.5 2115:0.5 2146:0.5 2148:0.5 2149:0.5 2184:0.5 2186:0.5 2202:0.5 
-0.051794824225347271817732064391748 1:0.03846154 18:0.057142861 43:0.1 389:0.5 391:0.5 439:0.5 448:1 899:0.5 1777:1 1916:1 2114:0.5 2121:0.5 2148:0.5 2153:0.5 2168:0.5 2180:0.5 2184:0.5 2186:0.5 
-1.6407581834342914728352980091586 1:0.01923077 6:1 18:0.028571431 30:0.2 99:0.125 2114:0.5 2115:0.5 2146:0.5 2148:0.5 2149:0.5 
1.5300931883183708226425778775592 1:0.057692312 5:0.5 9:0.16666667 14:0.16666667 18:0.028571431 19:0.2 23:0.14285713 41:0.11111111 61:0.25 80:0.5 105:0.5 166:0.5 259:0.33333334 2110:0.5 2111:0.5 2112:0.5 2143:0.5 2164:0.5 2166:0.5 2183:0.5 
-0.65546236373052058077348647202598 1:0.01923077 5:0.5 6:0.5 18:0.04285714 19:0.06666667 29:0.1 134:0.5 2114:0.5 2118:0.5 2148:0.5 2150:0.5 2153:0.5 2164:0.5 2214:0.5 
1.6407581834342914728352980091586 1:0.03846154 5:0.5 6:0.25 14:0.25 18:0.01428571 19:0.13333333 29:0.1 41:0.11111111 105:0.5 134:0.5 166:0.5 2110:0.5 2162:0.5 2210:0.5 2212:0.5 
0.76264566807471756426650699722813 1:0.04807692 3:0.2 5:0.40000001 14:0.2 18:0.01428571 19:0.13333333 20:0.2 22:0.01219512 41:0.11111111 105:0.5 166:0.5 233:0.33333334 377:0.5 2115:0.5 2143:0.5 2146:0.5 2148:0.5 2149:0.5 2151:0.5 2153:0.5 
-1.6407581834342914728352980091586 1:0.03846154 5:1 18:0.14285713 19:0.26666668 23:0.42857143 2121:0.5 2126:0.5 2127:0.5 2155:0.5 2156:0.5 2166:0.5 2175:0.5 2185:0.5 2196:0.5 
-1.6407581834342914728352980091586 1:0.03846154 5:0.25 18:0.028571431 19:0.06666667 27:0.14285713 81:0.5 115:0.33333334 298:1 781:0.5 2110:0.5 2111:0.5 2143:0.5 2149:0.5 2164:0.5 2183:0.5 
1.6407581834342914728352980091586 1:0.01923077 6:1 18:0.01428571 30:0.2 99:0.125 2115:0.5 2117:0.5 2148:0.5 2153:0.5 2164:0.5 
1.6407581834342914728352980091586 1:0.01923077 6:0.5 18:0.01428571 26:0.5 30:0.1 512:1 2115:0.5 2146:0.5 2148:0.5 2149:0.5 
1.6407581834342914728352980091586 1:0.0096153803 6:1 18:0.028571431 30:0.1 2114:0.5 2115:0.5 2119:0.5 2120:0.5 2143:0.5 
-1.6407581834342914728352980091586 1:0.01923077 6:0.5 18:0.028571431 29:0.1 233:0.33333334 488:0.33333334 2111:0.5 2112:0.5 2113:0.5 2114:0.5 2115:0.5 2143:0.5 2181:0.5 2213:0.5 
-0.31954599758851826019068198547757 1:0.14423077 2:0.13333334 3:0.06666667 5:0.33333334 6:0.06666667 7:0.13333333 9:0.06666667 14:0.06666667 18:0.028571431 19:0.33333334 20:0.2 22:0.01219512 23:0.14285713 27:0.14285713 29:0.1 40:0.33333334 41:0.11111111 43:0.40000001 52:0.2 56:0.01639344 62:0.5 74:0.25 75:0.25 81:0.5 134:0.5 144:0.5 148:0.2 150:0.01333333 170:1 172:0.5 189:0.16666667 285:1 286:0.5 357:0.25 364:0.5 366:0.5 389:0.5 711:1 880:1 987:0.5 988:0.5 2110:0.5 2111:0.5 2131:0.5 2146:0.5 2151:0.5 2163:0.5 2214:0.5 
-1.6407581834342914728352980091586 1:0.02884615 6:0.66666669 18:0.028571431 29:0.2 31:0.25 78:0.33333334 201:0.5 2111:0.5 2112:0.5 2114:0.5 2115:0.5 2143:0.5 
1.6407581834342914728352980091586 1:0.057692312 3:0.16666667 5:0.83333331 18:0.12857144 19:0.33333334 20:0.2 21:0.33333334 22:0.01219512 23:0.42857143 2121:0.5 2126:0.5 2130:0.5 2133:0.5 2136:0.5 2155:0.5 2158:0.5 2175:0.5 
1.6407581834342914728352980091586 1:0.067307688 5:0.71428573 18:0.01428571 19:0.33333334 23:0.2857143 27:0.2857143 62:1 81:1 2115:0.5 2121:0.5 2126:0.5 2130:0.5 2150:0.5 2156:0.5 2168:0.5 
1.6407581834342914728352980091586 1:0.02884615 5:0.33333334 6:0.33333334 18:0.01428571 19:0.06666667 29:0.1 77:0.5 78:0.33333334 381:1 2110:0.5 2112:0.5 2119:0.5 2210:0.5 
-1.6407581834342914728352980091586 1:0.04807692 5:1 18:0.14285713 19:0.33333334 23:0.42857143 150:0.01333333 247:0.5 256:0.5 2121:0.5 2126:0.5 2130:0.5 2136:0.5 2161:0.5 2206:0.5 2207:0.5 2208:0.5 
-1.6407581834342914728352980091586 1:0.0096153803 5:1 18:0.14285713 19:0.06666667 2121:0.5 2126:0.5 2130:0.5 2133:0.5 2175:0.5 2196:0.5 2207:0.5 2208:0.5 
-1.6407581834342914728352980091586 1:0.0096153803 5:1 18:0.22857143 19:0.06666667 2121:0.5 2126:0.5 2130:0.5 2133:0.5 2134:0.5 2161:0.5 2185:0.5 2192:0.5 
1.6407581834342914728352980091586 1:0.03846154 5:0.25 6:0.25 7:0.25 18:0.057142861 19:0.06666667 27:0.14285713 30:0.1 62:0.5 181:0.16666667 252:1 266:1 2111:0.5 2112:0.5 2113:0.5 2114:0.5 2115:0.5 2118:0.5 2123:0.5 
1.6407581834342914728352980091586 1:0.04807692 5:0.2 6:0.2 16:0.2 18:0.028571431 19:0.06666667 30:0.1 33:0.125 77:0.5 78:0.33333334 921:1 922:0.5 1633:1 1736:1 2111:0.5 2112:0.5 2134:0.5 2143:0.5 2182:0.5 2183:0.5 
1.6407581834342914728352980091586 1:0.0096153803 6:1 18:0.01428571 30:0.1 2110:0.5 2112:0.5 2162:0.5 2163:0.5 
-1.6407581834342914728352980091586 1:0.01923077 5:0.5 7:0.5 18:0.01428571 19:0.06666667 181:0.16666667 266:1 2110:0.5 2112:0.5 2121:0.5 2162:0.5 
-1.4332303962735555291629907515016 1:0.13461538 3:0.21428572 5:0.42857143 6:0.071428567 14:0.071428567 18:0.01428571 19:0.40000001 20:0.2 21:1 22:0.036585368 27:0.2857143 29:0.1 41:0.11111111 55:0.16666667 61:0.25 80:0.5 81:1 82:0.5 105:0.5 109:0.25 134:0.5 387:0.5 2162:0.5 2182:0.5 2210:0.5 2212:0.5 
-0.17451721184920376828131338697858 1:0.10576923 3:0.18181819 5:0.36363637 14:0.18181819 18:0.028571431 19:0.26666668 21:0.33333334 22:0.024390239 23:0.14285713 27:0.2857143 41:0.22222222 55:0.16666667 62:0.5 81:1 109:0.25 166:0.5 625:0.14285713 798:1 2162:0.5 2182:0.5 2183:0.5 2210:0.5 2212:0.5 
1.6407581834342914728352980091586 1:0.057692312 3:0.16666667 5:0.5 6:0.16666667 18:0.11428571 19:0.2 22:0.01219512 23:0.14285713 29:0.1 61:0.25 82:0.5 134:0.5 162:0.5 174:0.25 2115:0.5 2121:0.5 2126:0.5 2130:0.5 2131:0.5 2135:0.5 2138:0.5 2161:0.5 2185:0.5 
1.6407581834342914728352980091586 1:0.02884615 5:0.66666669 18:0.04285714 19:0.13333333 115:0.33333334 297:0.5 507:1 2114:0.5 2121:0.5 2126:0.5 2130:0.5 2133:0.5 2184:0.5 
1.6407581834342914728352980091586 1:0.057692312 5:0.66666669 18:0.01428571 19:0.26666668 43:0.2 61:0.25 80:0.5 112:0.5 148:0.2 150:0.01333333 189:0.33333334 247:0.5 256:0.5 501:0.33333334 587:1 2115:0.5 2121:0.5 2126:0.5 2130:0.5 
-1.6407581834342914728352980091586 1:0.03846154 5:0.25 6:0.5 18:0.028571431 19:0.06666667 29:0.1 30:0.1 43:0.1 100:0.25 148:0.2 196:0.25 501:0.33333334 530:0.5 2114:0.5 2115:0.5 2121:0.5 2126:0.5 2130:0.5 2150:0.5 
-1.6407581834342914728352980091586 1:0.01923077 5:0.5 6:0.5 18:0.04285714 19:0.06666667 29:0.1 134:0.5 2114:0.5 2118:0.5 2121:0.5 2126:0.5 2130:0.5 2150:0.5 
-1.6407581834342914728352980091586 1:0.02884615 5:0.33333334 6:0.33333334 16:0.33333334 18:0.04285714 19:0.06666667 29:0.1 32:0.25 33:0.125 138:1 2114:0.5 2115:0.5 2118:0.5 2121:0.5 2126:0.5 2148:0.5 
-0.21680940456851185982323215739598 1:0.0096153803 18:0.15714286 83:0.25 2115:0.5 2132:0.5 2143:0.5 2146:0.5 2148:0.5 2158:0.5 2160:0.5 2177:0.5 
1.6407581834342914728352980091586 1:0.01923077 5:0.5 18:0.057142861 19:0.06666667 26:0.5 658:1 2110:0.5 2143:0.5 2162:0.5 2183:0.5 2184:0.5 2186:0.5 2210:0.5 2212:0.5 
1.5958652590043500563155021154671 1:0.04807692 5:0.40000001 6:0.2 16:0.2 18:0.028571431 19:0.13333333 27:0.14285713 30:0.1 33:0.125 81:0.5 137:0.5 251:1 414:0.5 2110:0.5 2112:0.5 2162:0.5 2183:0.5 2210:0.5 
-1.6407581834342914728352980091586 1:0.07692308 5:0.375 14:0.25 17:0.125 18:0.01428571 19:0.2 41:0.22222222 61:0.25 65:0.33333334 80:0.5 82:0.5 105:0.5 166:0.5 372:1 485:1 2110:0.5 2112:0.5 2143:0.5 2162:0.5 
-1.6407581834342914728352980091586 1:0.0096153803 18:0.028571431 96:0.33333334 2110:0.5 2162:0.5 2183:0.5 2210:0.5 2212:0.5 
1.6407581834342914728352980091586 1:0.02884615 5:1 18:0.04285714 19:0.2 23:0.2857143 2114:0.5 2129:0.5 2138:0.5 2179:0.5 2180:0.5 2181:0.5 
1.6407581834342914728352980091586 1:0.02884615 6:0.66666669 14:0.33333334 18:0.01428571 30:0.2 41:0.11111111 99:0.125 380:1 2111:0.5 2120:0.5 2121:0.5 2182:0.5 
1.6407581834342914728352980091586 1:0.03846154 5:0.25 6:0.5 18:0.071428567 19:0.06666667 29:0.1 30:0.1 61:0.25 137:0.5 217:0.5 492:0.5 2114:0.5 2115:0.5 2121:0.5 2125:0.5 2126:0.5 2135:0.5 2139:0.5 2158:0.5 2161:0.5 2185:0.5 
1.6407581834342914728352980091586 1:0.01923077 6:0.5 18:0.028571431 30:0.1 625:0.14285713 918:1 2114:0.5 2115:0.5 2121:0.5 2125:0.5 2126:0.5 
-1.6407581834342914728352980091586 1:0.0096153803 18:0.028571431 2114:0.5 2115:0.5 2121:0.5 2125:0.5 2126:0.5 
-1.6407581834342914728352980091586 1:0.0096153803 5:1 18:0.12857144 19:0.06666667 2115:0.5 2125:0.5 2154:0.5 2172:0.5 2174:0.5 2176:0.5 2178:0.5 
-1.6407581834342914728352980091586 1:0.0096153803 5:1 18:0.14285713 19:0.06666667 2115:0.5 2125:0.5 2154:0.5 2172:0.5 2174:0.5 2176:0.5 2178:0.5 2185:0.5 
1.6407581834342914728352980091586 1:0.04807692 7:0.2 14:0.2 17:0.2 18:0.01428571 38:0.33333334 41:0.11111111 69:0.5 84:0.25 93:0.33333334 115:0.33333334 345:0.5 901:1 2110:0.5 2111:0.5 2112:0.5 2143:0.5 
1.6407581834342914728352980091586 1:0.01923077 14:0.5 18:0.01428571 41:0.11111111 65:0.33333334 140:1 2110:0.5 2112:0.5 2143:0.5 2162:0.5 
0.85526270032751905425527638726635 1:0.02884615 5:0.33333334 16:0.33333334 18:0.01428571 19:0.06666667 33:0.125 138:1 159:0.5 681:1 2110:0.5 2112:0.5 2162:0.5 2210:0.5 
-0.062575648656408300318787496507866 1:0.03846154 7:0.25 14:0.25 17:0.25 18:0.057142861 38:0.33333334 41:0.11111111 43:0.2 123:0.5 222:0.33333334 389:0.5 431:0.33333334 1234:1 2110:0.5 2111:0.5 2112:0.5 2143:0.5 2183:0.5 2184:0.5 2186:0.5 
-1.6407581834342914728352980091586 1:0.01923077 6:0.5 18:0.01428571 29:0.1 142:0.25 348:0.5 2110:0.5 2112:0.5 2162:0.5 2210:0.5 
-1.6407581834342914728352980091586 1:0.02884615 13:0.33333334 18:0.01428571 327:1 389:0.5 467:0.5 922:1 2110:0.5 2112:0.5 2143:0.5 2162:0.5 
1.6407581834342914728352980091586 1:0.0096153803 5:1 18:0.04285714 19:0.06666667 2114:0.5 2118:0.5 2154:0.5 2169:0.5 2170:0.5 
1.6407581834342914728352980091586 1:0.02884615 5:0.33333334 16:0.33333334 18:0.04285714 19:0.06666667 33:0.125 43:0.1 65:0.33333334 189:0.16666667 577:1 1561:1 2114:0.5 2115:0.5 2118:0.5 2125:0.5 2150:0.5 2156:0.5 2199:0.5 
1.6407581834342914728352980091586 1:0.03846154 5:0.5 6:0.25 18:0.028571431 19:0.13333333 23:0.14285713 29:0.1 134:0.5 472:0.5 1087:1 2122:0.5 2148:0.5 2149:0.5 2150:0.5 2151:0.5 
-1.6407581834342914728352980091586 1:0.0096153803 5:1 18:0.04285714 19:0.06666667 2114:0.5 2115:0.5 2118:0.5 2146:0.5 2165:0.5 2167:0.5 2169:0.5 
-1.6407581834342914728352980091586 1:0.01923077 5:1 18:0.057142861 19:0.13333333 23:0.14285713 2114:0.5 2118:0.5 2123:0.5 2157:0.5 2170:0.5 
-1.6407581834342914728352980091586 1:0.01923077 5:0.5 6:0.5 18:0.04285714 19:0.06666667 29:0.1 134:0.5 2114:0.5 2118:0.5 2148:0.5 2150:0.5 2151:0.5 2163:0.5 
1.6407581834342914728352980091586 1:0.0096153803 18:0.01428571 186:0.25 2110:0.5 2112:0.5 2143:0.5 2162:0.5 
1.6407581834342914728352980091586 1:0.0096153803 18:0.01428571 192:0.5 2110:0.5 2112:0.5 2143:0.5 2162:0.5 
1.6407581834342914728352980091586 1:0.02884615 5:0.33333334 6:0.33333334 18:0.01428571 19:0.06666667 30:0.1 96:0.33333334 97:0.5 137:0.5 2110:0.5 2162:0.5 2210:0.5 2212:0.5 
-1.6407581834342914728352980091586 1:0.01923077 4:0.5 7:0.5 18:0.01428571 54:0.11111111 181:0.16666667 182:0.25 2110:0.5 2112:0.5 2162:0.5 2210:0.5 
-1.6407581834342914728352980091586 1:0.0096153803 18:0.01428571 282:0.33333334 2110:0.5 2162:0.5 2210:0.5 2212:0.5 
-1.6407581834342914728352980091586 1:0.04807692 3:0.2 5:0.2 18:0.028571431 19:0.06666667 20:0.2 22:0.01219512 27:0.14285713 65:0.33333334 192:0.5 291:0.5 292:0.5 1184:1 2110:0.5 2111:0.5 2143:0.5 2146:0.5 2183:0.5 
0.59060037124940212294177399598993 1:0.057692312 3:0.16666667 5:0.5 18:0.01428571 19:0.2 22:0.01219512 23:0.14285713 77:0.5 78:0.33333334 186:0.25 216:1 307:1 917:1 2115:0.5 2116:0.5 2125:0.5 2143:0.5 
-0.22636558298453146598205876216525 1:0.02884615 5:0.33333334 18:0.071428567 19:0.06666667 27:0.14285713 62:0.5 67:0.5 69:0.5 2112:0.5 2115:0.5 2118:0.5 2122:0.5 2123:0.5 2143:0.5 2148:0.5 2202:0.5 
1.1352915488990731329721484144102 1:0.0096153803 5:1 18:0.028571431 19:0.06666667 2114:0.5 2165:0.5 2167:0.5 2169:0.5 2170:0.5 
-1.6407581834342914728352980091586 1:0.0096153803 5:1 18:0.057142861 19:0.06666667 2114:0.5 2115:0.5 2118:0.5 2123:0.5 2165:0.5 2167:0.5 2169:0.5 
-1.6407581834342914728352980091586 1:0.057692312 5:0.83333331 18:0.057142861 19:0.33333334 23:0.5714286 501:0.33333334 587:1 2116:0.5 2119:0.5 2125:0.5 2150:0.5 2155:0.5 2158:0.5 2161:0.5 2213:0.5 
-1.6407581834342914728352980091586 1:0.0096153803 3:1 18:0.028571431 22:0.01219512 2114:0.5 2115:0.5 2165:0.5 2167:0.5 2169:0.5 
1.6407581834342914728352980091586 1:0.0096153803 6:1 18:0.01428571 30:0.1 1527:1 2110:0.5 2162:0.5 2210:0.5 2212:0.5 
1.6407581834342914728352980091586 1:0.057692312 3:0.66666669 6:0.16666667 18:0.04285714 22:0.04878049 30:0.1 43:0.1 44:0.030769231 51:0.125 196:0.25 388:0.5 389:0.5 508:1 2115:0.5 2148:0.5 2151:0.5 2163:0.5 2183:0.5 2184:0.5 
1.6407581834342914728352980091586 1:0.04807692 4:0.2 7:0.2 18:0.028571431 27:0.14285713 46:0.25 54:0.11111111 65:0.33333334 108:0.5 181:0.16666667 292:0.5 368:1 1897:1 2114:0.5 2115:0.5 2143:0.5 2146:0.5 2148:0.5 
-1.5991057280575777799214165497688 1:0.02884615 6:0.66666669 18:0.057142861 29:0.2 31:0.25 83:0.25 612:1 2114:0.5 2115:0.5 2120:0.5 2121:0.5 2148:0.5 2153:0.5 2168:0.5 2184:0.5 2186:0.5 
-1.6407581834342914728352980091586 1:0.02884615 6:0.66666669 18:0.01428571 30:0.2 233:0.33333334 234:0.5 903:1 2110:0.5 2146:0.5 2148:0.5 2149:0.5 
-1.6407581834342914728352980091586 1:0.0096153803 18:0.14285713 83:0.25 2110:0.5 2115:0.5 2119:0.5 2120:0.5 2121:0.5 2146:0.5 2151:0.5 2160:0.5 2162:0.5 2182:0.5 2185:0.5 2192:0.5 2194:0.5 
1.6407581834342914728352980091586 1:0.02884615 5:1 18:0.057142861 19:0.2 23:0.2857143 2114:0.5 2158:0.5 2161:0.5 2165:0.5 2167:0.5 2169:0.5 2170:0.5 
1.6407581834342914728352980091586 1:0.02884615 5:0.66666669 18:0.04285714 19:0.13333333 23:0.14285713 233:0.33333334 375:1 2114:0.5 2158:0.5 2165:0.5 2167:0.5 2169:0.5 2170:0.5 
1.6407581834342914728352980091586 1:0.03846154 5:1 18:0.01428571 19:0.26666668 23:0.42857143 2165:0.5 2167:0.5 2169:0.5 2170:0.5 
-1.6407581834342914728352980091586 1:0.01923077 3:0.5 5:0.5 18:0.24285714 19:0.06666667 20:0.2 22:0.01219512 2165:0.5 2167:0.5 2169:0.5 2170:0.5 2183:0.5 2184:0.5 2186:0.5 2202:0.5 
-0.4999750183956584992372995657206 1:0.01923077 3:0.5 5:0.5 18:0.22857143 19:0.06666667 20:0.2 22:0.01219512 150:0.75999999 248:1 1522:0.75675678 2134:0.5 2158:0.5 2165:0.5 2167:0.5 2169:0.5 2170:0.5 2176:0.5 2202:0.5 
-0.16051747315145156735916032175737 1:0.086538456 4:0.11111111 5:0.44444445 6:0.11111111 9:0.11111111 18:0.028571431 19:0.26666668 23:0.14285713 27:0.14285713 30:0.1 43:0.1 54:0.11111111 56:0.01639344 58:0.2 62:0.5 75:0.25 81:0.5 96:0.33333334 97:0.5 137:0.5 144:0.5 189:0.16666667 289:1 855:1 933:1 1665:1 1915:1 2110:0.5 2111:0.5 2143:0.5 2149:0.5 2164:0.5 2183:0.5 
1.6407581834342914728352980091586 1:0.0096153803 4:1 18:0.071428567 54:0.11111111 2114:0.5 2115:0.5 2118:0.5 2119:0.5 2120:0.5 2121:0.5 2185:0.5 2194:0.5 2195:0.5 
1.6407581834342914728352980091586 1:0.0096153803 18:0.057142861 96:0.33333334 2114:0.5 2115:0.5 2117:0.5 2118:0.5 2123:0.5 2148:0.5 2164:0.5 
1.6407581834342914728352980091586 1:0.04807692 3:0.40000001 12:0.2 14:0.2 16:0.2 18:0.01428571 22:0.024390239 33:0.125 41:0.11111111 49:0.25 52:0.2 85:0.25 89:0.5 238:0.5 2111:0.5 2115:0.5 2121:0.5 2146:0.5 
-1.3934246210293006473790455856943 1:0.02884615 6:0.66666669 16:0.33333334 18:0.04285714 30:0.2 33:0.125 35:0.25 36:0.5 2111:0.5 2114:0.5 2115:0.5 2116:0.5 2118:0.5 2120:0.5 2121:0.5 
-0.89029142286547691131914916695678 1:0.02884615 17:0.33333334 18:0.04285714 108:0.5 325:1 328:1 2111:0.5 2112:0.5 2114:0.5 2115:0.5 2118:0.5 2210:0.5 
-0.22405132976630953711705274145061 1:0.01923077 18:0.15714286 83:0.25 150:0.01333333 157:1 158:0.5 159:0.5 2115:0.5 2132:0.5 2148:0.5 2151:0.5 2158:0.5 2160:0.5 2163:0.5 2177:0.5 
1.6407581834342914728352980091586 1:0.04807692 3:0.2 5:0.2 6:0.40000001 18:0.057142861 19:0.06666667 20:0.2 22:0.01219512 30:0.2 61:0.25 136:0.5 217:0.5 227:0.5 2110:0.5 2134:0.5 2162:0.5 2184:0.5 2186:0.5 2212:0.5 2213:0.5 
0.16264651411543060155473483519017 1:0.02884615 5:0.33333334 7:0.33333334 18:0.04285714 19:0.06666667 181:0.16666667 233:0.33333334 266:1 375:1 2114:0.5 2115:0.5 2121:0.5 2146:0.5 2148:0.5 2151:0.5 2153:0.5 2184:0.5 2219:0.5 
-0.40301734296569191595693837371073 1:0.01923077 5:0.5 18:0.1 19:0.06666667 192:0.5 334:1 2136:0.5 2138:0.5 2139:0.5 2159:0.5 2183:0.5 
-1.6407581834342914728352980091586 1:0.02884615 5:1 18:0.1 19:0.2 23:0.2857143 2136:0.5 2138:0.5 2139:0.5 2143:0.5 2146:0.5 2181:0.5 2182:0.5 2183:0.5 
-1.6407581834342914728352980091586 1:0.01923077 5:1 18:0.2 19:0.13333333 23:0.14285713 2155:0.5 2156:0.5 2158:0.5 2163:0.5 2164:0.5 2175:0.5 2189:0.5 2197:0.5 
-1.6407581834342914728352980091586 1:0.04807692 5:0.60000002 14:0.2 18:0.04285714 19:0.2 23:0.2857143 41:0.11111111 61:0.25 82:0.5 122:0.5 2181:0.5 2182:0.5 2183:0.5 2184:0.5 2187:0.5 2188:0.5 
1.6407581834342914728352980091586 1:0.01923077 6:0.5 17:0.5 18:0.01428571 30:0.1 731:1 2115:0.5 2121:0.5 2126:0.5 2130:0.5 
1.6407581834342914728352980091586 1:0.067307688 3:0.14285713 5:0.14285713 6:0.2857143 14:0.14285713 18:0.028571431 19:0.06666667 22:0.01219512 27:0.14285713 29:0.2 31:0.25 41:0.11111111 45:0.5 55:0.16666667 609:0.5 899:0.5 1697:1 1698:1 2114:0.5 2115:0.5 2119:0.5 2154:0.5 
0.41232593297451458624891529325396 1:0.03846154 3:0.25 5:0.25 6:0.25 18:0.057142861 19:0.06666667 20:0.2 22:0.01219512 29:0.1 78:0.33333334 201:0.5 216:1 2111:0.5 2114:0.5 2115:0.5 2146:0.5 2151:0.5 2166:0.5 2168:0.5 2179:0.5 2184:0.5 2186:0.5 
-0.44454709399165975858281285582052 1:0.01923077 18:0.028571431 96:0.33333334 549:1 645:1 2114:0.5 2115:0.5 2121:0.5 2126:0.5 2130:0.5 
-1.6407581834342914728352980091586 1:0.01923077 6:0.5 18:0.01428571 29:0.1 142:0.25 348:0.5 2110:0.5 2162:0.5 2210:0.5 2212:0.5 
-1.6407581834342914728352980091586 1:0.01923077 12:1 18:0.028571431 85:0.5 2114:0.5 2115:0.5 2121:0.5 2126:0.5 2130:0.5 
1.6407581834342914728352980091586 1:0.02884615 5:0.66666669 16:0.33333334 18:0.01428571 19:0.13333333 23:0.14285713 33:0.125 454:1 2112:0.5 2143:0.5 2181:0.5 2182:0.5 
1.6407581834342914728352980091586 1:0.02884615 5:1 18:0.04285714 19:0.2 23:0.2857143 2114:0.5 2118:0.5 2180:0.5 2181:0.5 2182:0.5 2210:0.5 
1.6407581834342914728352980091586 1:0.02884615 5:1 18:0.01428571 19:0.2 23:0.2857143 2181:0.5 2182:0.5 2210:0.5 2212:0.5 
-1.6407581834342914728352980091586 1:0.03846154 5:0.5 16:0.25 18:0.028571431 19:0.13333333 27:0.14285713 33:0.125 62:0.5 81:0.5 454:1 2112:0.5 2124:0.5 2131:0.5 2143:0.5 2162:0.5 
-0.97774815685424465439012919887318 1:0.0096153803 5:1 18:0.12857144 19:0.06666667 2154:0.5 2173:0.5 2181:0.5 2182:0.5 2185:0.5 2191:0.5 2194:0.5 
0.89547680900724158092884863435756 1:0.057692312 5:0.33333334 7:0.16666667 14:0.16666667 18:0.04285714 19:0.13333333 23:0.14285713 26:0.5 41:0.11111111 61:0.25 160:1 166:0.5 181:0.16666667 266:1 700:1 2114:0.5 2115:0.5 2118:0.5 2143:0.5 2146:0.5 2166:0.5 
1.6407581834342914728352980091586 1:0.01923077 6:0.5 18:0.01428571 30:0.1 115:0.33333334 342:1 2115:0.5 2121:0.5 2125:0.5 2126:0.5 
1.6407581834342914728352980091586 1:0.0096153803 18:0.085714288 27:0.14285713 2110:0.5 2114:0.5 2118:0.5 2121:0.5 2126:0.5 2141:0.5 2162:0.5 2202:0.5 
1.6407581834342914728352980091586 1:0.0096153803 18:0.028571431 233:0.33333334 2114:0.5 2115:0.5 2121:0.5 2126:0.5 2148:0.5 2153:0.5 
-1.6407581834342914728352980091586 1:0.0096153803 3:1 18:0.057142861 22:0.01219512 2114:0.5 2115:0.5 2138:0.5 2139:0.5 2179:0.5 2180:0.5 2181:0.5 
0.96655387535822956390774152168888 1:0.04807692 3:0.2 5:0.2 14:0.2 18:0.01428571 19:0.06666667 20:0.2 22:0.01219512 41:0.11111111 52:0.2 96:0.33333334 108:0.5 329:1 598:1 2110:0.5 2111:0.5 2164:0.5 2210:0.5 
-0.79390040530302008470187047350919 1:0.057692312 6:0.83333331 9:0.16666667 18:0.028571431 29:0.1 30:0.40000001 34:0.33333334 75:0.25 99:0.25 341:1 698:0.5 2114:0.5 2115:0.5 2121:0.5 2126:0.5 2148:0.5 
1.6407581834342914728352980091586 1:0.02884615 5:0.33333334 18:0.028571431 19:0.06666667 403:1 1256:1 1468:1 1469:1 2110:0.5 2111:0.5 2143:0.5 2146:0.5 2183:0.5 
1.2885611018500262581198967382079 1:0.125 2:0.15384616 3:0.38461539 5:0.30769232 6:0.07692308 14:0.07692308 16:0.07692308 18:0.01428571 19:0.26666668 20:0.2 21:0.66666669 22:0.060975611 23:0.2857143 30:0.1 33:0.125 40:0.33333334 41:0.11111111 44:0.030769231 109:0.25 150:0.01333333 220:1 267:0.5 296:0.5 312:1 506:1 2119:0.5 2120:0.5 2124:0.5 2213:0.5 
1.6407581834342914728352980091586 1:0.04807692 5:0.2 6:0.2 18:0.028571431 19:0.06666667 30:0.1 66:0.33333334 78:0.33333334 149:1 198:1 2036:1 2112:0.5 2115:0.5 2143:0.5 2148:0.5 2183:0.5 
-1.6407581834342914728352980091586 1:0.17307691 3:0.33333334 5:0.27777779 6:0.05555556 7:0.11111111 14:0.05555556 18:0.01428571 19:0.33333334 20:0.60000002 21:0.66666669 22:0.073170729 27:0.14285713 29:0.1 38:0.33333334 41:0.11111111 44:0.01538462 53:0.14285713 55:0.16666667 77:0.5 78:0.33333334 109:0.25 134:0.5 150:0.01333333 181:0.16666667 216:1 233:0.33333334 256:0.5 266:1 285:1 377:0.5 504:1 2110:0.5 2111:0.5 2143:0.5 2146:0.5 
-1.6407581834342914728352980091586 1:0.096153848 2:0.2 3:0.30000001 5:0.40000001 17:0.1 18:0.01428571 19:0.26666668 20:0.2 21:0.33333334 22:0.036585368 23:0.14285713 40:0.33333334 43:0.1 44:0.030769231 61:0.25 80:0.5 82:0.5 189:0.16666667 366:0.5 905:1 906:1 2110:0.5 2111:0.5 2146:0.5 2210:0.5 
-1.6407581834342914728352980091586 1:0.10576923 2:0.18181819 5:0.45454544 7:0.18181819 14:0.090909094 17:0.090909094 18:0.01428571 19:0.33333334 23:0.5714286 38:0.33333334 39:0.5 40:0.33333334 41:0.11111111 43:0.2 65:0.33333334 166:0.5 181:0.16666667 194:1 366:0.5 485:1 811:0.5 2110:0.5 2111:0.5 2121:0.5 2126:0.5 
1.6407581834342914728352980091586 1:0.04807692 5:0.40000001 6:0.60000002 18:0.01428571 19:0.13333333 23:0.14285713 29:0.30000001 31:0.5 130:0.5 2115:0.5 2117:0.5 2146:0.5 2148:0.5 
1.6407581834342914728352980091586 1:0.057692312 3:0.33333334 4:0.33333334 16:0.16666667 18:0.028571431 22:0.024390239 33:0.125 47:0.2 48:0.16666667 49:0.25 54:0.22222222 60:0.33333334 61:0.25 241:0.5 2112:0.5 2114:0.5 2124:0.5 2125:0.5 2163:0.5 
1.6407581834342914728352980091586 1:0.04807692 3:1 18:0.028571431 22:0.060975611 44:0.046153851 150:0.01333333 248:1 353:1 2112:0.5 2114:0.5 2115:0.5 2163:0.5 2166:0.5 
-1.6407581834342914728352980091586 1:0.01923077 5:0.5 18:0.057142861 19:0.06666667 77:0.5 78:0.33333334 2114:0.5 2117:0.5 2118:0.5 2123:0.5 2146:0.5 2148:0.5 2170:0.5 
-1.6407581834342914728352980091586 1:0.0096153803 3:1 18:0.028571431 22:0.01219512 2114:0.5 2115:0.5 2163:0.5 2167:0.5 2169:0.5 
-1.6407581834342914728352980091586 1:0.0096153803 3:1 18:0.071428567 22:0.01219512 2114:0.5 2115:0.5 2118:0.5 2141:0.5 2142:0.5 2148:0.5 2151:0.5 2210:0.5 
1.6407581834342914728352980091586 1:0.057692312 5:0.33333334 14:0.16666667 18:0.01428571 19:0.13333333 23:0.14285713 27:0.14285713 41:0.11111111 45:0.5 61:0.25 82:0.5 122:0.5 192:0.5 1184:1 2110:0.5 2111:0.5 2121:0.5 2146:0.5 
0.34005523117292063561833970197767 1:0.067307688 5:0.71428573 18:0.01428571 19:0.33333334 23:0.2857143 65:0.33333334 108:0.5 279:0.5 485:1 598:1 1169:1 2110:0.5 2111:0.5 2143:0.5 2146:0.5 
-0.029900879829016669547714357690893 1:0.11538462 3:0.083333328 5:0.25 7:0.16666667 14:0.083333328 17:0.16666667 18:0.01428571 19:0.2 22:0.01219512 27:0.14285713 41:0.11111111 81:0.5 95:1 108:0.5 124:0.16666667 166:0.5 181:0.16666667 279:0.5 526:0.25 527:0.33333334 557:1 1896:1 1897:1 1898:1 1899:1 2110:0.5 2112:0.5 2162:0.5 2163:0.5 2164:0.5 2210:0.5 
-1.6172843328320134492770421275054 1:0.086538456 5:0.33333334 9:0.11111111 14:0.22222222 18:0.01428571 19:0.2 23:0.14285713 27:0.2857143 41:0.22222222 45:1 62:0.5 75:0.25 95:1 105:0.5 1136:1 1417:0.5 2110:0.5 2112:0.5 2143:0.5 2162:0.5 
-1.6407581834342914728352980091586 1:0.04807692 5:0.2 14:0.40000001 18:0.01428571 19:0.06666667 27:0.14285713 41:0.22222222 45:0.5 56:0.01639344 95:1 105:0.5 161:1 282:0.33333334 2110:0.5 2111:0.5 2143:0.5 2146:0.5 
-1.6407581834342914728352980091586 1:0.086538456 4:0.11111111 5:0.44444445 6:0.11111111 7:0.11111111 9:0.11111111 18:0.028571431 19:0.26666668 23:0.2857143 27:0.14285713 30:0.1 38:0.33333334 54:0.11111111 62:0.5 81:0.5 137:0.5 349:0.33333334 535:1 610:1 611:1 2110:0.5 2111:0.5 2112:0.5 2143:0.5 2149:0.5 2164:0.5 2166:0.5 2183:0.5 
1.6407581834342914728352980091586 1:0.0096153803 3:1 18:0.028571431 22:0.01219512 2114:0.5 2115:0.5 2146:0.5 2148:0.5 2151:0.5 2210:0.5 
0.3229548122357946970950592913141 1:0.03846154 3:1 18:0.028571431 22:0.04878049 44:0.046153851 2114:0.5 2115:0.5 2121:0.5 2148:0.5 2151:0.5 
1.6407581834342914728352980091586 1:0.02884615 3:0.33333334 5:0.33333334 18:0.1 19:0.06666667 20:0.2 22:0.01219512 96:0.33333334 393:1 2114:0.5 2115:0.5 2118:0.5 2121:0.5 2123:0.5 2126:0.5 2130:0.5 2150:0.5 2202:0.5 
-1.6407581834342914728352980091586 1:0.02884615 5:0.33333334 9:0.33333334 18:0.057142861 19:0.06666667 75:0.25 108:0.5 279:0.5 335:1 2115:0.5 2118:0.5 2121:0.5 2122:0.5 2126:0.5 2148:0.5 2186:0.5 
-1.0046099371086789631135616218671 1:0.02884615 5:0.33333334 18:0.04285714 19:0.06666667 108:0.5 314:1 315:1 598:1 2115:0.5 2118:0.5 2121:0.5 2122:0.5 2148:0.5 2151:0.5 
-1.6407581834342914728352980091586 1:0.04807692 6:0.60000002 16:0.2 18:0.028571431 30:0.30000001 33:0.125 35:0.25 36:0.5 78:0.33333334 99:0.125 198:1 2114:0.5 2115:0.5 2121:0.5 2125:0.5 2126:0.5 
0.28020187214438746492461973502941 1:0.04807692 5:0.80000001 12:0.2 18:0.01428571 19:0.26666668 23:0.2857143 85:0.25 87:1 231:1 2110:0.5 2162:0.5 2165:0.5 2167:0.5 
-0.0032384514824929716211854291429972 1:0.02884615 6:0.33333334 16:0.66666669 18:0.04285714 30:0.1 33:0.25 35:0.25 539:0.33333334 2114:0.5 2124:0.5 2125:0.5 2179:0.5 2180:0.5 2184:0.5 
1.6407581834342914728352980091586 1:0.067307688 5:0.71428573 18:0.01428571 19:0.33333334 23:0.2857143 27:0.14285713 61:0.25 62:0.5 80:0.5 81:0.5 82:0.5 2112:0.5 2143:0.5 2169:0.5 2170:0.5 
-1.6407581834342914728352980091586 1:0.14423077 3:0.06666667 5:0.66666669 6:0.13333333 18:0.01428571 19:0.66666669 20:0.2 21:0.33333334 22:0.01219512 23:0.5714286 27:0.14285713 29:0.2 43:0.1 61:0.25 80:0.5 81:0.5 82:0.5 130:0.5 134:1 148:0.2 189:0.16666667 387:0.5 2162:0.5 2182:0.5 2210:0.5 2212:0.5 
-1.6407581834342914728352980091586 1:0.067307688 3:0.2857143 5:0.5714286 18:0.028571431 19:0.26666668 20:0.2 21:0.66666669 22:0.024390239 23:0.2857143 2112:0.5 2143:0.5 2162:0.5 2182:0.5 2183:0.5 
-1.6407581834342914728352980091586 1:0.086538456 5:0.55555558 6:0.11111111 18:0.04285714 19:0.33333334 23:0.2857143 29:0.1 61:0.25 80:0.5 82:0.5 96:0.33333334 97:0.5 130:0.5 134:0.5 150:0.01333333 247:0.5 2162:0.5 2182:0.5 2183:0.5 2184:0.5 2210:0.5 2212:0.5 2217:0.5 
1.6407581834342914728352980091586 1:0.057692312 4:0.16666667 6:0.16666667 7:0.33333334 18:0.1 27:0.14285713 30:0.1 54:0.11111111 115:0.33333334 252:1 298:1 322:0.5 790:0.5 871:0.5 1357:0.5 1710:1 2110:0.5 2114:0.5 2118:0.5 2121:0.5 2123:0.5 2126:0.5 2130:0.5 2145:0.5 
1.6407581834342914728352980091586 1:0.02884615 7:0.33333334 14:0.33333334 17:0.33333334 18:0.028571431 41:0.11111111 84:0.25 93:0.33333334 181:0.16666667 1139:1 2114:0.5 2115:0.5 2148:0.5 2164:0.5 2198:0.5 
1.6407581834342914728352980091586 1:0.04807692 3:0.2 5:0.60000002 9:0.2 18:0.11428571 19:0.2 20:0.2 21:0.33333334 22:0.01219512 75:0.25 335:1 1136:1 2110:0.5 2111:0.5 2121:0.5 2126:0.5 2131:0.5 2135:0.5 2138:0.5 2161:0.5 2185:0.5 
-1.6407581834342914728352980091586 1:0.01923077 7:0.5 18:0.057142861 108:0.5 322:0.25 2110:0.5 2111:0.5 2131:0.5 2135:0.5 2141:0.5 2146:0.5 2149:0.5 
-1.6407581834342914728352980091586 1:0.096153848 3:0.5 4:0.1 6:0.1 16:0.1 18:0.04285714 22:0.060975611 29:0.1 32:0.25 33:0.125 44:0.046153851 47:0.2 48:0.16666667 54:0.11111111 96:0.33333334 162:0.5 1152:1 1407:1 2111:0.5 2114:0.5 2115:0.5 2138:0.5 2146:0.5 2149:0.5 2184:0.5 
-1.6407581834342914728352980091586 1:0.04807692 3:0.2 5:0.2 14:0.2 18:0.01428571 19:0.06666667 20:0.2 22:0.01219512 41:0.11111111 52:0.2 899:0.5 1415:1 1417:0.5 1788:1 2110:0.5 2111:0.5 2164:0.5 2187:0.5 
1.6407581834342914728352980091586 1:0.067307688 3:0.14285713 5:0.71428573 6:0.14285713 18:0.01428571 19:0.33333334 20:0.2 21:0.33333334 22:0.01219512 23:0.2857143 29:0.1 130:0.5 134:0.5 2111:0.5 2121:0.5 2126:0.5 2182:0.5 
1.6407581834342914728352980091586 1:0.067307688 3:0.14285713 5:0.42857143 6:0.42857143 18:0.04285714 19:0.2 21:0.33333334 22:0.01219512 23:0.14285713 29:0.2 30:0.1 100:0.25 130:0.5 137:0.5 287:0.33333334 2115:0.5 2121:0.5 2125:0.5 2126:0.5 2183:0.5 2184:0.5 
1.2337519831824916849427609122358 1:0.03846154 5:0.75 6:0.25 18:0.028571431 19:0.2 23:0.14285713 29:0.1 130:0.5 134:0.5 2111:0.5 2114:0.5 2164:0.5 2182:0.5 2210:0.5 
-1.6407581834342914728352980091586 1:0.0096153803 5:1 18:0.11428571 19:0.06666667 2114:0.5 2121:0.5 2126:0.5 2130:0.5 2133:0.5 2173:0.5 2185:0.5 2193:0.5 2194:0.5 
-1.6407581834342914728352980091586 1:0.02884615 5:1 18:0.071428567 19:0.2 23:0.2857143 2121:0.5 2123:0.5 2127:0.5 2151:0.5 2153:0.5 2155:0.5 2156:0.5 2202:0.5 
-1.442361636383471257261135178851 1:0.01923077 12:0.5 17:0.5 18:0.028571431 84:0.25 85:0.25 86:1 2114:0.5 2115:0.5 2121:0.5 2125:0.5 2126:0.5 
1.6407581834342914728352980091586 1:0.057692312 3:0.16666667 6:0.33333334 16:0.16666667 18:0.01428571 22:0.01219512 29:0.1 30:0.1 33:0.125 34:0.33333334 35:0.25 78:0.66666669 216:1 287:0.33333334 1528:1 2110:0.5 2111:0.5 2143:0.5 2146:0.5 
1.6407581834342914728352980091586 1:0.057692312 3:0.33333334 5:0.16666667 16:0.16666667 18:0.04285714 19:0.06666667 20:0.2 21:0.33333334 22:0.024390239 33:0.125 78:0.33333334 104:0.5 108:0.5 216:1 1183:1 2110:0.5 2111:0.5 2112:0.5 2143:0.5 2149:0.5 2164:0.5 2166:0.5 2183:0.5 2184:0.5 
0.20227426958360814057691356993018 1:0.057692312 3:0.16666667 5:0.5 17:0.33333334 18:0.04285714 19:0.2 20:0.2 22:0.01219512 23:0.14285713 730:1 731:1 1574:1 1797:1 2111:0.5 2112:0.5 2114:0.5 2115:0.5 2184:0.5 2210:0.5 
-1.6407581834342914728352980091586 1:0.10576923 3:0.090909094 5:0.45454544 6:0.090909094 14:0.18181819 18:0.01428571 19:0.33333334 20:0.2 21:0.33333334 22:0.01219512 23:0.14285713 27:0.14285713 29:0.1 41:0.22222222 43:0.1 45:0.5 62:0.5 105:0.5 150:0.01333333 166:0.5 189:0.16666667 256:0.5 285:1 609:0.5 2110:0.5 2111:0.5 2143:0.5 2146:0.5 
-0.21244647526020310479566433059517 1:0.11538462 3:0.083333328 5:0.25 7:0.16666667 14:0.083333328 17:0.16666667 18:0.01428571 19:0.2 22:0.01219512 27:0.14285713 41:0.11111111 81:0.5 95:1 108:0.5 124:0.16666667 166:0.5 181:0.16666667 279:0.5 456:1 526:0.25 527:0.33333334 1894:1 1895:1 1896:1 1897:1 1898:1 1899:1 2110:0.5 2111:0.5 2112:0.5 2143:0.5 2164:0.5 2166:0.5 
-1.6407581834342914728352980091586 1:0.03846154 2:0.5 5:0.25 7:0.25 17:0.25 18:0.01428571 19:0.06666667 40:0.33333334 43:0.1 181:0.16666667 219:1 221:0.2 1141:0.5 2110:0.5 2111:0.5 2143:0.5 2146:0.5 
1.6407581834342914728352980091586 1:0.03846154 5:0.5 7:0.25 18:0.04285714 19:0.13333333 23:0.14285713 27:0.14285713 62:0.5 181:0.16666667 266:1 2114:0.5 2115:0.5 2118:0.5 2121:0.5 2126:0.5 2130:0.5 
0.94361891678562426211129832154256 1:0.03846154 5:0.5 12:0.25 18:0.028571431 19:0.13333333 85:0.25 87:1 96:0.33333334 97:0.5 231:1 2114:0.5 2115:0.5 2148:0.5 2151:0.5 2153:0.5 2179:0.5 
0.41183257144440971186938327264215 1:0.02884615 5:0.66666669 7:0.33333334 18:0.11428571 19:0.13333333 23:0.14285713 181:0.16666667 266:1 2111:0.5 2114:0.5 2115:0.5 2138:0.5 2139:0.5 2163:0.5 2179:0.5 2180:0.5 2196:0.5 
-1.6407581834342914728352980091586 1:0.01923077 5:0.5 6:0.5 18:0.04285714 19:0.06666667 29:0.1 130:0.5 2114:0.5 2118:0.5 2148:0.5 2150:0.5 2151:0.5 2163:0.5 
-1.6407581834342914728352980091586 1:0.057692312 5:0.16666667 6:0.66666669 18:0.028571431 19:0.06666667 30:0.40000001 61:0.25 99:0.25 217:0.5 227:0.5 251:1 2114:0.5 2124:0.5 2146:0.5 2148:0.5 2151:0.5 2163:0.5 
-1.6407581834342914728352980091586 1:0.0096153803 3:1 18:0.028571431 22:0.01219512 2114:0.5 2115:0.5 2165:0.5 2167:0.5 2169:0.5 
1.6407581834342914728352980091586 1:0.04807692 3:0.2 5:0.2 14:0.40000001 18:0.01428571 19:0.06666667 22:0.01219512 27:0.14285713 41:0.22222222 45:0.5 52:0.2 62:0.5 109:0.25 2110:0.5 2112:0.5 2143:0.5 2149:0.5 2162:0.5 
1.6407581834342914728352980091586 1:0.057692312 5:0.66666669 6:0.16666667 14:0.16666667 18:0.028571431 19:0.26666668 23:0.14285713 29:0.1 41:0.11111111 105:0.5 134:0.5 150:0.01333333 166:0.5 256:0.5 285:1 2111:0.5 2114:0.5 2124:0.5 2143:0.5 2164:0.5 
1.6407581834342914728352980091586 1:0.02884615 6:0.33333334 16:0.33333334 18:0.01428571 30:0.1 33:0.125 35:0.25 150:0.01333333 389:0.5 506:1 959:1 2110:0.5 2111:0.5 2143:0.5 2167:0.5 
-0.77573284567092593011494727761601 1:0.067307688 5:0.42857143 7:0.42857143 14:0.14285713 18:0.01428571 19:0.2 23:0.14285713 38:0.33333334 41:0.11111111 43:0.30000001 148:0.2 181:0.16666667 188:0.5 189:0.16666667 221:0.2 222:0.33333334 357:0.125 364:0.5 823:1 1139:1 2110:0.5 2112:0.5 2143:0.5 2149:0.5 2162:0.5 
-1.2692425601132089063582952803699 1:0.02884615 5:0.33333334 7:0.33333334 17:0.33333334 18:0.04285714 19:0.06666667 43:0.1 357:0.125 364:0.5 822:1 823:1 824:1 2110:0.5 2111:0.5 2112:0.5 2121:0.5 2183:0.5 2184:0.5 
-1.2322231493357129750165768200532 1:0.10576923 3:0.090909094 5:0.36363637 7:0.27272728 14:0.090909094 17:0.090909094 18:0.01428571 19:0.26666668 22:0.01219512 23:0.14285713 38:0.33333334 41:0.11111111 43:0.30000001 124:0.16666667 148:0.2 150:0.01333333 181:0.33333334 188:0.5 189:0.16666667 221:0.40000001 244:0.33333334 247:0.5 256:0.5 266:1 569:1 1138:1 1139:1 2110:0.5 2111:0.5 2143:0.5 2146:0.5 
1.6407581834342914728352980091586 1:0.01923077 3:0.5 6:0.5 18:0.057142861 22:0.01219512 30:0.1 136:0.5 2110:0.5 2112:0.5 2113:0.5 2114:0.5 2161:0.5 2162:0.5 2192:0.5 2193:0.5 
-0.059810245349114499191500726738013 1:0.0096153803 18:0.071428567 83:0.25 2115:0.5 2128:0.5 2132:0.5 2146:0.5 2148:0.5 2158:0.5 2160:0.5 2163:0.5 
1.6407581834342914728352980091586 1:0.01923077 5:0.5 18:0.04285714 19:0.06666667 96:0.33333334 97:0.5 2114:0.5 2115:0.5 2118:0.5 2146:0.5 2148:0.5 2151:0.5 2163:0.5 
-1.6407581834342914728352980091586 1:0.02884615 6:0.33333334 16:0.66666669 18:0.028571431 28:0.25 29:0.1 33:0.25 539:0.33333334 2111:0.5 2114:0.5 2115:0.5 2143:0.5 2146:0.5 
-1.6407581834342914728352980091586 1:0.02884615 6:0.33333334 9:0.33333334 16:0.33333334 18:0.028571431 29:0.1 32:0.25 33:0.125 75:0.25 481:0.5 2114:0.5 2115:0.5 2143:0.5 2146:0.5 2148:0.5 
-1.6407581834342914728352980091586 1:0.02884615 6:0.66666669 16:0.33333334 18:0.028571431 28:0.25 29:0.2 32:0.25 33:0.125 2111:0.5 2112:0.5 2114:0.5 2115:0.5 2143:0.5 
1.6407581834342914728352980091586 1:0.086538456 3:0.11111111 5:0.11111111 14:0.22222222 18:0.04285714 19:0.06666667 22:0.01219512 27:0.14285713 41:0.22222222 45:0.5 55:0.16666667 61:0.25 115:1 127:0.33333334 166:0.5 370:1 585:1 1137:1 2110:0.5 2111:0.5 2112:0.5 2183:0.5 2184:0.5 2210:0.5 
1.5258570825924722136335276445607 1:0.096153848 3:0.1 4:0.30000001 5:0.30000001 6:0.1 18:0.057142861 19:0.2 20:0.2 22:0.01219512 29:0.1 43:0.2 47:0.2 54:0.33333334 60:0.33333334 61:0.25 96:0.33333334 97:0.5 112:0.5 119:0.25 131:1 189:0.16666667 200:0.25 464:1 2110:0.5 2111:0.5 2146:0.5 2149:0.5 2183:0.5 2184:0.5 2186:0.5 
1.2203696818726845751967857722775 1:0.086538456 3:0.11111111 5:0.22222222 6:0.33333334 14:0.11111111 18:0.01428571 19:0.13333333 22:0.01219512 26:0.5 29:0.2 30:0.1 31:0.25 41:0.11111111 43:0.2 61:0.25 80:0.5 112:0.5 148:0.2 160:1 162:0.5 189:0.16666667 200:0.25 210:0.33333334 418:0.25 430:1 754:1 2115:0.5 2143:0.5 2146:0.5 2148:0.5 
-1.5378229027287184660366392563446 1:0.125 3:0.53846157 5:0.23076923 14:0.07692308 16:0.07692308 18:0.1 19:0.2 20:0.2 22:0.085365847 23:0.2857143 27:0.14285713 33:0.125 41:0.11111111 44:0.092307687 53:0.14285713 138:1 150:0.01333333 286:0.5 506:1 2121:0.5 2126:0.5 2130:0.5 2133:0.5 2136:0.5 2158:0.5 2161:0.5 2171:0.5 2192:0.5 
-0.24533684702209032635344954087486 1:0.11538462 3:0.083333328 5:0.41666666 14:0.083333328 18:0.057142861 19:0.33333334 20:0.2 22:0.01219512 23:0.14285713 27:0.2857143 41:0.11111111 61:0.25 62:0.5 77:0.5 78:0.33333334 81:1 82:0.5 96:0.33333334 128:1 150:0.01333333 166:0.5 216:1 271:1 1450:1 2121:0.5 2123:0.5 2126:0.5 2127:0.5 2130:0.5 2155:0.5 2160:0.5 2182:0.5 
-0.38024720894626679035255278904515 1:0.01923077 5:0.5 12:0.5 18:0.04285714 19:0.06666667 85:0.25 87:1 2114:0.5 2118:0.5 2148:0.5 2150:0.5 2165:0.5 2167:0.5 
1.6407581834342914728352980091586 1:0.0096153803 18:0.028571431 96:0.33333334 2114:0.5 2115:0.5 2143:0.5 2146:0.5 2166:0.5 
1.6407581834342914728352980091586 1:0.02884615 5:0.33333334 6:0.33333334 18:0.028571431 19:0.06666667 27:0.14285713 29:0.1 134:0.5 387:0.5 2111:0.5 2114:0.5 2120:0.5 2124:0.5 2143:0.5 
-1.6407581834342914728352980091586 1:0.04807692 3:0.2 5:0.40000001 14:0.2 18:0.04285714 19:0.13333333 20:0.2 22:0.01219512 41:0.11111111 52:0.2 166:0.5 1417:0.5 1571:1 2115:0.5 2118:0.5 2146:0.5 2148:0.5 2149:0.5 2183:0.5 
-1.6407581834342914728352980091586 1:0.0096153803 18:0.028571431 37:1 2114:0.5 2115:0.5 2146:0.5 2148:0.5 2149:0.5 
-1.6407581834342914728352980091586 1:0.01923077 18:0.1 65:0.33333334 96:0.33333334 575:0.5 2115:0.5 2128:0.5 2141:0.5 2148:0.5 2149:0.5 2151:0.5 2183:0.5 2184:0.5 
1.6407581834342914728352980091586 1:0.04807692 5:0.40000001 14:0.2 16:0.2 18:0.01428571 19:0.13333333 33:0.125 41:0.11111111 105:0.5 138:1 159:0.5 1181:1 2115:0.5 2121:0.5 2126:0.5 2130:0.5 
1.0611013350963567347662319662049 1:0.057692312 5:0.5 16:0.16666667 18:0.01428571 19:0.2 23:0.14285713 33:0.125 108:0.5 124:0.16666667 150:0.01333333 256:0.5 506:1 569:1 598:1 753:1 1553:1 2115:0.5 2148:0.5 2149:0.5 2151:0.5 
1.6407581834342914728352980091586 1:0.067307688 3:0.71428573 18:0.01428571 22:0.060975611 44:0.046153851 192:1 203:0.5 890:1 1053:1 1094:1 2115:0.5 2148:0.5 2164:0.5 2210:0.5 
0.019492820772608634299905006059817 1:0.04807692 4:0.2 5:0.40000001 6:0.2 14:0.2 18:0.028571431 19:0.13333333 29:0.1 41:0.11111111 54:0.11111111 105:0.5 130:0.5 131:0.5 150:0.01333333 354:1 586:1 2114:0.5 2115:0.5 2146:0.5 2148:0.5 2149:0.5 
-1.0135041475266937105459419399267 1:0.04807692 5:0.40000001 18:0.04285714 19:0.13333333 389:1 440:1 899:0.5 1352:1 1698:1 2114:0.5 2118:0.5 2121:0.5 2126:0.5 2130:0.5 2133:0.5 
-1.1675926677347943094531501628808 1:0.086538456 5:0.33333334 6:0.11111111 8:0.22222222 14:0.11111111 18:0.01428571 19:0.2 23:0.14285713 29:0.1 41:0.11111111 64:0.5 490:1 673:0.5 708:1 709:1 1251:1 1709:1 1785:1 1786:1 1787:1 2110:0.5 2112:0.5 2162:0.5 2179:0.5 
1.6407581834342914728352980091586 1:0.01923077 18:0.028571431 96:0.33333334 1323:1 2035:1 2114:0.5 2115:0.5 2146:0.5 2148:0.5 2149:0.5 
1.6407581834342914728352980091586 1:0.03846154 3:0.75 12:0.25 18:0.057142861 22:0.036585368 44:0.030769231 85:0.25 89:0.5 2111:0.5 2114:0.5 2115:0.5 2138:0.5 2139:0.5 2146:0.5 2149:0.5 
1.6407581834342914728352980091586 1:0.03846154 3:0.25 6:0.25 14:0.5 18:0.028571431 22:0.01219512 30:0.1 41:0.22222222 109:0.25 150:0.01333333 224:0.5 267:0.5 271:1 2110:0.5 2111:0.5 2146:0.5 2149:0.5 2183:0.5 
-1.6407581834342914728352980091586 1:0.13461538 3:0.21428572 5:0.21428572 14:0.35714287 18:0.01428571 19:0.2 21:0.33333334 22:0.036585368 27:0.2857143 41:0.55555558 45:1 52:0.40000001 55:0.33333334 105:1 109:0.25 166:0.5 224:0.5 2110:0.5 2111:0.5 2146:0.5 2149:0.5 
-1.6407581834342914728352980091586 1:0.01923077 6:0.5 9:0.5 18:0.04285714 30:0.1 349:0.33333334 1051:1 2111:0.5 2112:0.5 2114:0.5 2115:0.5 2210:0.5 2224:0.5 
-0.56282305884219696601178384298692 1:0.01923077 6:0.5 18:0.028571431 29:0.1 96:0.33333334 697:0.5 2111:0.5 2114:0.5 2143:0.5 2164:0.5 2168:0.5 
1.6407581834342914728352980091586 1:0.02884615 5:0.33333334 18:0.028571431 19:0.06666667 233:0.33333334 375:1 1251:1 1786:1 2114:0.5 2143:0.5 2148:0.5 2165:0.5 2167:0.5 2169:0.5 2170:0.5 
0.61729376886560305415230232028989 1:0.04807692 5:0.60000002 18:0.01428571 19:0.2 389:0.5 437:1 438:1 439:0.5 440:1 441:1 2115:0.5 2116:0.5 2121:0.5 2148:0.5 
1.2540610634475295448453380231513 1:0.03846154 5:0.75 18:0.04285714 19:0.2 23:0.14285713 389:0.5 437:1 440:1 2110:0.5 2158:0.5 2160:0.5 2162:0.5 2191:0.5 2210:0.5 2212:0.5 
-1.6407581834342914728352980091586 1:0.0096153803 5:1 18:0.1 19:0.06666667 2128:0.5 2132:0.5 2134:0.5 2138:0.5 2155:0.5 2159:0.5 
-1.6407581834342914728352980091586 1:0.01923077 5:0.5 8:1 18:0.085714288 19:0.06666667 64:0.5 907:0.5 2115:0.5 2121:0.5 2122:0.5 2126:0.5 2128:0.5 2132:0.5 2148:0.5 2158:0.5 
-1.6407581834342914728352980091586 1:0.02884615 5:1 18:0.11428571 19:0.2 23:0.2857143 2113:0.5 2123:0.5 2127:0.5 2128:0.5 2146:0.5 2148:0.5 2150:0.5 2171:0.5 
1.6407581834342914728352980091586 1:0.04807692 3:0.2 5:0.2 6:0.2 10:0.2 14:0.2 18:0.01428571 19:0.06666667 22:0.01219512 29:0.1 41:0.11111111 52:0.2 166:0.5 183:0.5 1611:1 1612:1 2115:0.5 2116:0.5 2125:0.5 2143:0.5 
1.6407581834342914728352980091586 1:0.02884615 3:0.66666669 6:0.33333334 18:0.04285714 22:0.024390239 30:0.1 44:0.01538462 136:0.5 2110:0.5 2111:0.5 2114:0.5 2118:0.5 2146:0.5 2149:0.5 
1.0066966051173060758827659810777 1:0.03846154 3:0.25 14:0.25 18:0.01428571 22:0.01219512 41:0.11111111 78:0.33333334 109:0.25 952:0.125 972:1 1758:1 1759:1 2111:0.5 2112:0.5 2115:0.5 2210:0.5 
-1.6407581834342914728352980091586 1:0.0096153803 3:1 18:0.04285714 22:0.01219512 2114:0.5 2115:0.5 2118:0.5 2143:0.5 2167:0.5 2169:0.5 
-1.6407581834342914728352980091586 1:0.0096153803 3:1 18:0.028571431 22:0.01219512 2114:0.5 2115:0.5 2165:0.5 2167:0.5 2169:0.5 
0.72060356231518796210622213038732 1:0.057692312 5:0.66666669 14:0.16666667 18:0.01428571 19:0.26666668 23:0.2857143 41:0.11111111 105:0.5 166:0.5 708:1 1709:1 2115:0.5 2146:0.5 2148:0.5 2151:0.5 2163:0.5 
1.6407581834342914728352980091586 1:0.057692312 3:0.16666667 5:0.5 14:0.33333334 18:0.01428571 19:0.2 20:0.2 21:0.33333334 22:0.01219512 41:0.22222222 105:1 166:0.5 2115:0.5 2148:0.5 2151:0.5 2198:0.5 
-0.69851283478621073452785594781744 1:0.02884615 6:0.66666669 16:0.33333334 18:0.01428571 29:0.1 30:0.1 32:0.25 33:0.125 35:0.25 2115:0.5 2119:0.5 2143:0.5 2146:0.5 
-1.4033471460824908927378373846295 1:0.01923077 7:0.5 18:0.028571431 357:0.125 439:0.5 1701:1 2110:0.5 2111:0.5 2131:0.5 2143:0.5 2146:0.5 2149:0.5 
-1.6407581834342914728352980091586 1:0.01923077 7:0.5 18:0.01428571 389:0.5 557:1 2110:0.5 2111:0.5 2143:0.5 2146:0.5 
-1.6407581834342914728352980091586 1:0.03846154 5:0.25 7:0.25 14:0.25 17:0.25 18:0.01428571 19:0.06666667 41:0.11111111 43:0.1 105:0.5 123:0.5 181:0.16666667 2110:0.5 2162:0.5 2212:0.5 2213:0.5 
1.6034550906086666444139154918958 1:0.03846154 3:0.25 5:0.5 9:0.25 18:0.028571431 19:0.13333333 20:0.2 21:0.33333334 22:0.01219512 75:0.25 1136:1 2110:0.5 2114:0.5 2165:0.5 2167:0.5 2169:0.5 
1.6407581834342914728352980091586 1:0.04807692 3:0.80000001 5:0.2 18:0.01428571 19:0.06666667 20:0.2 22:0.04878049 44:0.046153851 2111:0.5 2115:0.5 2165:0.5 2167:0.5 
0.75241334027145623242205374481273 1:0.03846154 5:0.75 18:0.028571431 19:0.2 23:0.14285713 1924:1 1980:1 2114:0.5 2115:0.5 2165:0.5 2167:0.5 2169:0.5 
-1.6407581834342914728352980091586 1:0.02884615 5:0.33333334 12:0.33333334 16:0.33333334 18:0.028571431 19:0.06666667 33:0.125 85:0.25 231:1 842:1 2111:0.5 2114:0.5 2143:0.5 2165:0.5 2167:0.5 2170:0.5 
-1.2081034946267086294113823896623 1:0.03846154 5:0.25 12:0.25 14:0.25 18:0.14285713 19:0.06666667 41:0.11111111 65:0.33333334 85:0.25 105:0.5 140:1 231:1 2111:0.5 2115:0.5 2117:0.5 2151:0.5 2172:0.5 2174:0.5 2176:0.5 2178:0.5 
-1.4492011247907008453239541267976 1:0.02884615 6:0.66666669 18:0.04285714 29:0.1 30:0.1 83:0.25 100:0.25 1421:1 2114:0.5 2115:0.5 2148:0.5 2151:0.5 2163:0.5 2168:0.5 2184:0.5 2210:0.5 
1.6407581834342914728352980091586 1:0.01923077 14:0.5 18:0.01428571 41:0.11111111 96:0.33333334 329:1 2110:0.5 2112:0.5 2162:0.5 2179:0.5 
0.51931987069714791172003742758534 1:0.04807692 3:0.2 5:0.2 9:0.2 16:0.2 18:0.01428571 19:0.06666667 20:0.2 22:0.01219512 33:0.125 96:0.33333334 259:0.33333334 393:1 818:1 1153:1 2110:0.5 2112:0.5 2143:0.5 2162:0.5 
1.1040967471954621359486736764666 1:0.03846154 16:0.25 18:0.028571431 33:0.125 43:0.2 78:1 79:1 476:1 572:1 2110:0.5 2111:0.5 2114:0.5 2143:0.5 2146:0.5 
-1.6407581834342914728352980091586 1:0.02884615 5:0.33333334 6:0.33333334 18:0.01428571 19:0.06666667 29:0.1 130:0.5 142:0.25 348:0.5 2110:0.5 2162:0.5 2165:0.5 2167:0.5 
-1.6407581834342914728352980091586 1:0.0096153803 18:0.01428571 37:1 2110:0.5 2112:0.5 2162:0.5 2179:0.5 
-0.95321917805251255018106348870788 1:0.07692308 5:0.25 6:0.125 9:0.125 14:0.125 17:0.25 18:0.028571431 19:0.13333333 23:0.14285713 29:0.1 41:0.11111111 43:0.2 74:0.25 75:0.25 115:0.33333334 150:0.01333333 200:0.25 286:0.5 337:0.25 370:0.5 1056:1 1057:1 1058:1 2110:0.5 2112:0.5 2143:0.5 2162:0.5 2183:0.5 
1.6407581834342914728352980091586 1:0.04807692 3:0.2 5:0.60000002 12:0.2 18:0.01428571 19:0.2 20:0.2 22:0.01219512 23:0.14285713 85:0.25 89:0.5 231:1 2112:0.5 2165:0.5 2169:0.5 2170:0.5 
1.6407581834342914728352980091586 1:0.0096153803 18:0.04285714 1251:1 2114:0.5 2115:0.5 2143:0.5 2146:0.5 2148:0.5 2184:0.5 
1.6407581834342914728352980091586 1:0.057692312 3:0.5 4:0.16666667 6:0.16666667 18:0.01428571 22:0.036585368 27:0.14285713 30:0.1 44:0.01538462 46:0.25 48:0.16666667 53:0.14285713 54:0.11111111 210:0.33333334 2115:0.5 2143:0.5 2146:0.5 2148:0.5 
-1.6407581834342914728352980091586 1:0.0096153803 4:1 18:0.14285713 54:0.11111111 2115:0.5 2143:0.5 2146:0.5 2148:0.5 2173:0.5 2185:0.5 2194:0.5 2218:0.5 
-0.11458611521890268991619166172313 1:0.01923077 4:0.5 18:0.1 54:0.11111111 83:0.25 150:0.01333333 158:0.5 284:0.5 2115:0.5 2143:0.5 2146:0.5 2148:0.5 2158:0.5 2160:0.5 2161:0.5 2185:0.5 
-1.6407581834342914728352980091586 1:0.03846154 5:0.5 6:0.25 17:0.25 18:0.1 19:0.13333333 30:0.1 43:0.1 148:0.2 251:1 2115:0.5 2136:0.5 2146:0.5 2148:0.5 2149:0.5 2155:0.5 2158:0.5 2161:0.5 
1.6407581834342914728352980091586 1:0.02884615 5:0.66666669 18:0.04285714 19:0.13333333 23:0.14285713 708:1 709:1 2110:0.5 2112:0.5 2162:0.5 2183:0.5 2184:0.5 2210:0.5 
1.6407581834342914728352980091586 1:0.057692312 3:0.16666667 5:0.33333334 6:0.33333334 18:0.01428571 19:0.13333333 20:0.2 22:0.01219512 29:0.2 43:0.1 96:0.33333334 130:0.5 148:0.2 162:0.5 200:0.25 697:0.5 2110:0.5 2162:0.5 2210:0.5 2212:0.5 
1.6407581834342914728352980091586 1:0.03846154 3:0.25 5:0.5 14:0.25 18:0.01428571 19:0.13333333 22:0.01219512 23:0.14285713 41:0.11111111 105:0.5 109:0.25 2110:0.5 2162:0.5 2165:0.5 2167:0.5 
-1.6407581834342914728352980091586 1:0.057692312 3:0.33333334 5:0.33333334 14:0.16666667 18:0.01428571 19:0.13333333 21:0.33333334 22:0.024390239 27:0.14285713 41:0.11111111 44:0.01538462 45:0.5 55:0.16666667 105:0.5 2112:0.5 2129:0.5 2162:0.5 2210:0.5 
-1.6407581834342914728352980091586 1:0.067307688 3:0.2857143 4:0.14285713 5:0.42857143 14:0.14285713 18:0.071428567 19:0.2 20:0.2 21:0.33333334 22:0.024390239 23:0.14285713 41:0.11111111 52:0.2 54:0.11111111 109:0.25 407:1 2164:0.5 2183:0.5 2184:0.5 2186:0.5 2189:0.5 2190:0.5 2202:0.5 2214:0.5 
-1.6407581834342914728352980091586 1:0.02884615 5:0.66666669 18:0.14285713 19:0.13333333 23:0.14285713 96:0.33333334 97:0.5 2121:0.5 2126:0.5 2130:0.5 2182:0.5 2183:0.5 2184:0.5 2186:0.5 2196:0.5 
1.6407581834342914728352980091586 1:0.0096153803 4:1 18:0.028571431 54:0.11111111 2111:0.5 2114:0.5 2115:0.5 2143:0.5 2146:0.5 2149:0.5 
1.6055561619749283419622543078731 1:0.03846154 5:0.75 6:0.25 18:0.028571431 19:0.2 23:0.2857143 30:0.1 251:1 289:0.5 854:1 2111:0.5 2114:0.5 2143:0.5 2146:0.5 2149:0.5 2151:0.5 2182:0.5 
0.45386111038770615699888821836794 1:0.03846154 5:0.25 6:0.25 18:0.028571431 19:0.06666667 27:0.14285713 30:0.1 78:0.33333334 81:0.5 198:1 264:0.5 2111:0.5 2114:0.5 2115:0.5 2143:0.5 2146:0.5 2149:0.5 2151:0.5 
-1.6407581834342914728352980091586 1:0.03846154 5:0.25 6:0.5 18:0.04285714 19:0.06666667 29:0.2 31:0.25 77:0.5 78:0.33333334 289:1 853:1 2114:0.5 2115:0.5 2118:0.5 2146:0.5 2148:0.5 2149:0.5 
-1.5481664118553828402014005405363 1:0.07692308 5:0.375 6:0.125 9:0.125 18:0.028571431 19:0.2 27:0.14285713 30:0.1 43:0.2 62:0.5 78:0.33333334 142:0.25 148:0.40000001 189:0.33333334 198:1 257:0.5 347:1 349:0.33333334 535:1 2111:0.5 2112:0.5 2114:0.5 2115:0.5 2121:0.5 2146:0.5 2148:0.5 2150:0.5 2151:0.5 2153:0.5 2156:0.5 
-1.6407581834342914728352980091586 1:0.02884615 6:0.66666669 16:0.33333334 18:0.028571431 29:0.1 30:0.1 32:0.25 33:0.125 35:0.25 2111:0.5 2114:0.5 2115:0.5 2146:0.5 2149:0.5 
1.6407581834342914728352980091586 1:0.04807692 3:0.40000001 5:0.2 6:0.2 18:0.057142861 19:0.06666667 20:0.2 22:0.024390239 27:0.14285713 30:0.1 53:0.14285713 55:0.16666667 136:0.5 2115:0.5 2121:0.5 2126:0.5 2130:0.5 2183:0.5 2184:0.5 2186:0.5 
1.5793486831263279235315621917835 1:0.057692312 3:0.16666667 4:0.16666667 5:0.16666667 6:0.5 18:0.04285714 19:0.06666667 22:0.01219512 29:0.1 30:0.2 34:0.33333334 54:0.11111111 136:0.5 287:0.33333334 405:0.33333334 407:1 2111:0.5 2115:0.5 2117:0.5 2146:0.5 2151:0.5 2166:0.5 2168:0.5 2183:0.5 2184:0.5 
1.6407581834342914728352980091586 1:0.02884615 5:0.33333334 6:0.33333334 18:0.01428571 19:0.06666667 27:0.14285713 29:0.1 62:0.5 402:1 2115:0.5 2148:0.5 2151:0.5 2163:0.5 
-1.6407581834342914728352980091586 1:0.0096153803 14:1 18:0.01428571 41:0.11111111 2121:0.5 2126:0.5 2130:0.5 2133:0.5 
-1.6407581834342914728352980091586 1:0.02884615 5:0.66666669 18:0.01428571 19:0.13333333 23:0.14285713 69:0.5 1422:1 2113:0.5 2150:0.5 2151:0.5 2153:0.5 
-0.69335648771592306438549258018611 1:0.0096153803 18:0.01428571 1034:1 2124:0.5 2125:0.5 2210:0.5 2212:0.5 
1.2004651023677210819329275182099 1:0.057692312 5:0.33333334 6:0.16666667 14:0.16666667 18:0.04285714 19:0.13333333 23:0.14285713 26:0.5 27:0.14285713 29:0.1 41:0.11111111 95:1 134:0.5 289:0.5 853:1 1707:1 1892:1 2114:0.5 2115:0.5 2121:0.5 2126:0.5 2148:0.5 2153:0.5 2184:0.5 
1.6407581834342914728352980091586 1:0.02884615 5:0.33333334 14:0.33333334 16:0.33333334 18:0.057142861 19:0.06666667 33:0.125 41:0.11111111 105:0.5 138:1 2114:0.5 2115:0.5 2118:0.5 2146:0.5 2148:0.5 2149:0.5 2186:0.5 
1.6407581834342914728352980091586 1:0.03846154 3:0.25 5:0.5 6:0.25 18:0.071428567 19:0.13333333 20:0.2 21:0.33333334 22:0.01219512 29:0.1 134:0.5 2110:0.5 2111:0.5 2114:0.5 2116:0.5 2117:0.5 2118:0.5 2185:0.5 2194:0.5 2195:0.5 
-1.6407581834342914728352980091586 1:0.057692312 5:0.16666667 6:0.83333331 18:0.04285714 19:0.06666667 29:0.40000001 30:0.1 31:0.25 34:0.33333334 100:0.25 130:0.5 134:0.5 2114:0.5 2115:0.5 2118:0.5 2121:0.5 2125:0.5 2126:0.5 
-1.5389630144848525095113700444927 1:0.10576923 3:0.18181819 5:0.27272728 14:0.36363637 17:0.090909094 18:0.01428571 19:0.2 21:0.33333334 22:0.024390239 27:0.14285713 41:0.44444445 43:0.1 45:0.5 52:0.2 55:0.16666667 105:1 109:0.25 166:1 189:0.16666667 1259:1 2110:0.5 2111:0.5 2146:0.5 2149:0.5 
-1.0048927248090790964596408230136 1:0.07692308 3:0.375 18:0.057142861 22:0.036585368 27:0.14285713 44:0.030769231 115:0.66666669 127:0.33333334 150:0.01333333 298:1 439:0.5 445:1 505:1 605:1 781:0.5 963:1 2110:0.5 2112:0.5 2143:0.5 2162:0.5 2183:0.5 2184:0.5 2186:0.5 
1.6407581834342914728352980091586 1:0.02884615 4:0.33333334 6:0.33333334 18:0.028571431 30:0.1 54:0.11111111 61:0.25 135:0.33333334 217:0.5 2114:0.5 2115:0.5 2121:0.5 2125:0.5 2126:0.5 
1.6407581834342914728352980091586 1:0.0096153803 18:0.04285714 61:0.25 2110:0.5 2112:0.5 2114:0.5 2121:0.5 2135:0.5 2138:0.5 2162:0.5 
1.6407581834342914728352980091586 1:0.0096153803 18:0.028571431 61:0.25 2110:0.5 2112:0.5 2114:0.5 2162:0.5 2210:0.5 
-1.0448641539794569776944399563945 1:0.067307688 5:0.14285713 6:0.2857143 16:0.2857143 18:0.04285714 19:0.06666667 30:0.2 33:0.25 36:1 61:0.25 78:0.33333334 79:1 138:1 217:0.5 218:1 2114:0.5 2118:0.5 2124:0.5 2125:0.5 2179:0.5 2180:0.5 
-1.6407581834342914728352980091586 1:0.01923077 6:0.5 18:0.04285714 30:0.1 78:0.33333334 627:1 2114:0.5 2115:0.5 2118:0.5 2121:0.5 2146:0.5 2148:0.5 2151:0.5 
-1.6407581834342914728352980091586 1:0.01923077 18:0.028571431 96:0.33333334 233:0.33333334 493:1 2114:0.5 2121:0.5 2148:0.5 2151:0.5 2168:0.5 
0.89702789102454938419128893656307 1:0.057692312 4:0.16666667 5:0.66666669 18:0.01428571 19:0.26666668 23:0.2857143 54:0.11111111 77:0.5 78:0.33333334 407:1 1332:1 2111:0.5 2143:0.5 2146:0.5 2182:0.5 
0.86855714643577675015961858662195 1:0.04807692 3:0.2 5:0.60000002 18:0.01428571 19:0.2 20:0.2 21:0.33333334 22:0.01219512 423:0.25 1180:1 1495:1 1730:1 1731:1 2115:0.5 2146:0.5 2148:0.5 2149:0.5 
-1.6407581834342914728352980091586 1:0.0096153803 5:1 18:0.24285714 19:0.06666667 2147:0.5 2154:0.5 2181:0.5 2182:0.5 2183:0.5 2184:0.5 2209:0.5 
-0.47733084401236469673790452361573 1:0.086538456 3:0.22222222 5:0.33333334 14:0.11111111 18:0.22857143 19:0.2 20:0.2 22:0.024390239 41:0.11111111 44:0.01538462 77:0.5 78:0.33333334 96:0.33333334 97:0.5 150:0.01333333 166:0.5 248:1 359:1 2145:0.5 2157:0.5 2182:0.5 2183:0.5 2184:0.5 2186:0.5 
-0.8952941947036126002501532639144 1:0.04807692 5:0.60000002 18:0.01428571 19:0.2 23:0.14285713 108:0.5 279:0.5 708:1 709:1 1709:1 2125:0.5 2182:0.5 2212:0.5 2213:0.5 
1.6407581834342914728352980091586 1:0.02884615 14:0.66666669 18:0.028571431 27:0.14285713 41:0.22222222 95:1 224:0.5 2114:0.5 2115:0.5 2200:0.5 
0.74675815087894625854403329867637 1:0.057692312 5:0.33333334 18:0.057142861 19:0.13333333 27:0.14285713 81:0.5 96:0.33333334 97:0.5 115:0.33333334 298:1 569:1 1542:1 2114:0.5 2115:0.5 2121:0.5 2148:0.5 2153:0.5 2164:0.5 2184:0.5 2186:0.5 
1.3547636746484887915187300677644 1:0.03846154 5:0.5 18:0.04285714 19:0.13333333 23:0.14285713 61:0.25 80:0.5 83:0.25 124:0.16666667 1159:1 1160:1 2114:0.5 2115:0.5 2118:0.5 2119:0.5 2125:0.5 2179:0.5 2180:0.5 
-0.73096181018632311321425731875934 1:0.0096153803 18:0.04285714 83:0.25 2112:0.5 2115:0.5 2118:0.5 2122:0.5 2163:0.5 2166:0.5 
-1.1592665972303903831885918407352 1:0.10576923 3:0.090909094 4:0.090909094 5:0.27272728 7:0.18181819 14:0.18181819 17:0.090909094 18:0.01428571 19:0.2 20:0.2 22:0.01219512 23:0.14285713 27:0.14285713 41:0.22222222 43:0.2 53:0.14285713 54:0.11111111 95:1 119:0.25 166:0.5 181:0.16666667 221:0.2 224:0.5 266:1 456:1 457:1 841:1 2110:0.5 2112:0.5 2143:0.5 2162:0.5 
-1.6407581834342914728352980091586 1:0.02884615 5:0.33333334 11:0.33333334 18:0.057142861 19:0.06666667 142:0.25 146:0.5 156:0.5 474:0.5 2115:0.5 2118:0.5 2120:0.5 2121:0.5 2122:0.5 2123:0.5 2148:0.5 
0.92219262406236757190214348156587 1:0.03846154 3:0.25 5:0.5 18:0.057142861 19:0.13333333 20:0.2 21:0.33333334 22:0.01219512 27:0.14285713 81:0.5 2110:0.5 2111:0.5 2120:0.5 2121:0.5 2131:0.5 2135:0.5 2155:0.5 2158:0.5 2161:0.5 
1.6407581834342914728352980091586 1:0.02884615 5:0.66666669 18:0.028571431 19:0.13333333 23:0.14285713 24:0.5 26:0.5 2112:0.5 2114:0.5 2121:0.5 2181:0.5 2182:0.5 
-1.6407581834342914728352980091586 1:0.0096153803 18:0.071428567 781:0.5 2110:0.5 2111:0.5 2112:0.5 2121:0.5 2142:0.5 2161:0.5 2183:0.5 2184:0.5 
-1.6407581834342914728352980091586 1:0.03846154 6:0.5 16:0.25 18:0.028571431 28:0.25 29:0.2 32:0.25 33:0.125 43:0.1 96:0.33333334 200:0.25 465:1 2111:0.5 2114:0.5 2115:0.5 2121:0.5 2126:0.5 
-0.72768758171997593997559761191951 1:0.02884615 2:0.66666669 17:0.33333334 18:0.04285714 40:0.33333334 567:1 568:1 569:1 570:1 2110:0.5 2111:0.5 2112:0.5 2134:0.5 2135:0.5 2143:0.5 2149:0.5 
1.1473401857799907510582215763861 1:0.057692312 3:0.16666667 5:0.16666667 16:0.16666667 17:0.16666667 18:0.01428571 19:0.06666667 22:0.01219512 33:0.125 78:0.33333334 79:1 115:0.33333334 301:0.33333334 1614:1 2115:0.5 2146:0.5 2148:0.5 2151:0.5 2187:0.5 
1.6407581834342914728352980091586 1:0.057692312 5:0.33333334 6:0.16666667 14:0.33333334 18:0.04285714 19:0.13333333 27:0.14285713 29:0.1 41:0.22222222 45:0.5 62:0.5 105:0.5 166:0.5 609:0.5 2114:0.5 2115:0.5 2146:0.5 2148:0.5 2149:0.5 2184:0.5 
1.6407581834342914728352980091586 1:0.067307688 3:0.14285713 6:0.14285713 14:0.2857143 16:0.14285713 18:0.01428571 22:0.01219512 27:0.14285713 30:0.1 33:0.125 41:0.22222222 45:0.5 55:0.16666667 96:0.33333334 136:0.5 224:0.5 312:1 1084:1 2110:0.5 2111:0.5 2143:0.5 2146:0.5 
-1.6407581834342914728352980091586 1:0.067307688 3:0.14285713 5:0.14285713 14:0.2857143 18:0.028571431 19:0.06666667 22:0.01219512 27:0.2857143 41:0.22222222 45:1 52:0.2 55:0.16666667 105:0.5 282:0.33333334 606:1 2114:0.5 2115:0.5 2146:0.5 2148:0.5 2149:0.5 
-1.6407581834342914728352980091586 1:0.01923077 3:0.5 4:0.5 18:0.21428572 22:0.01219512 47:0.2 54:0.11111111 2115:0.5 2137:0.5 2140:0.5 2144:0.5 2146:0.5 2147:0.5 2148:0.5 2149:0.5 
-1.3170176303317762123157308451482 1:0.02884615 18:0.028571431 108:0.5 118:0.5 325:1 328:1 793:1 2114:0.5 2115:0.5 2148:0.5 2149:0.5 2151:0.5 
0.6123842458596966409345441206824 1:0.07692308 5:0.375 6:0.25 18:0.057142861 19:0.2 23:0.14285713 27:0.14285713 30:0.2 61:0.25 81:0.5 82:0.5 132:0.5 137:0.5 1032:1 2110:0.5 2111:0.5 2112:0.5 2143:0.5 2183:0.5 2184:0.5 2186:0.5 
1.6407581834342914728352980091586 1:0.02884615 5:0.33333334 6:0.33333334 16:0.33333334 18:0.01428571 19:0.06666667 30:0.1 33:0.125 35:0.25 137:0.5 2110:0.5 2111:0.5 2112:0.5 2143:0.5 
0.59764590522422900153998170935665 1:0.086538456 5:0.44444445 6:0.11111111 7:0.11111111 16:0.11111111 18:0.01428571 19:0.26666668 23:0.2857143 29:0.1 33:0.125 134:0.5 138:1 150:0.01333333 181:0.16666667 266:1 389:0.5 439:0.5 506:1 1081:1 2057:1 2058:1 2110:0.5 2111:0.5 2112:0.5 2121:0.5 
-1.6407581834342914728352980091586 1:0.125 3:0.15384614 5:0.61538464 14:0.07692308 18:0.028571431 19:0.5333333 20:0.2 21:0.33333334 22:0.024390239 23:0.5714286 27:0.14285713 41:0.11111111 52:0.2 55:0.16666667 81:0.5 96:0.33333334 97:0.5 150:0.01333333 166:0.5 247:0.5 256:0.5 2112:0.5 2121:0.5 2131:0.5 2162:0.5 2182:0.5 2183:0.5 
-0.44530843598130298577331132037216 1:0.16346154 2:0.11764706 3:0.11764706 5:0.41176471 14:0.05882353 17:0.05882353 18:0.01428571 19:0.46666667 21:0.66666669 22:0.024390239 23:0.42857143 27:0.2857143 40:0.33333334 41:0.11111111 43:0.1 55:0.16666667 61:0.25 81:0.5 82:0.5 96:0.33333334 105:0.5 109:0.25 128:1 189:0.16666667 223:1 366:0.5 369:1 423:0.25 432:1 433:1 1180:1 2110:0.5 2112:0.5 2162:0.5 2210:0.5 
-1.6407581834342914728352980091586 1:0.01923077 17:0.5 18:0.028571431 78:0.33333334 223:1 2110:0.5 2112:0.5 2143:0.5 2162:0.5 2183:0.5 
1.6407581834342914728352980091586 1:0.01923077 18:0.028571431 61:0.25 159:0.5 1327:1 2114:0.5 2115:0.5 2146:0.5 2148:0.5 2149:0.5 
1.0417554408599685178415938935359 1:0.02884615 5:0.33333334 18:0.01428571 19:0.06666667 77:0.5 78:0.33333334 1080:1 2115:0.5 2146:0.5 2148:0.5 2149:0.5 
0.92912083395347011549603166713496 1:0.057692312 4:0.33333334 5:0.16666667 7:0.16666667 18:0.028571431 19:0.06666667 27:0.14285713 54:0.22222222 78:0.33333334 131:0.5 133:0.16666667 181:0.16666667 264:0.5 265:1 266:1 2114:0.5 2115:0.5 2146:0.5 2148:0.5 2149:0.5 
-1.6407581834342914728352980091586 1:0.02884615 6:0.33333334 9:0.33333334 16:0.33333334 18:0.028571431 28:0.25 29:0.1 33:0.125 75:0.25 655:0.5 2114:0.5 2115:0.5 2143:0.5 2146:0.5 2148:0.5 
-1.6407581834342914728352980091586 1:0.01923077 6:1 18:0.028571431 30:0.2 99:0.125 2114:0.5 2115:0.5 2146:0.5 2148:0.5 2149:0.5 
-1.6407581803527635511130711165606 1:0.02884615 5:0.33333334 6:0.33333334 16:0.33333334 18:0.057142861 19:0.06666667 29:0.1 32:0.25 33:0.125 138:1 2115:0.5 2122:0.5 2123:0.5 2127:0.5 2143:0.5 2146:0.5 2148:0.5 
1.6407581834342914728352980091586 1:0.04807692 3:0.60000002 4:0.2 5:0.2 18:0.028571431 19:0.06666667 20:0.2 22:0.036585368 42:0.11111111 43:0.1 44:0.030769231 54:0.11111111 119:0.25 2110:0.5 2112:0.5 2143:0.5 2162:0.5 2183:0.5 
1.6407581834342914728352980091586 1:0.03846154 3:0.25 5:0.25 18:0.01428571 19:0.06666667 20:0.2 22:0.01219512 115:0.33333334 127:0.33333334 150:0.01333333 505:1 2110:0.5 2162:0.5 2210:0.5 2212:0.5 
0.96908551366773232338402976893121 1:0.067307688 5:0.2857143 6:0.14285713 17:0.14285713 18:0.01428571 19:0.13333333 23:0.14285713 27:0.2857143 30:0.1 62:0.5 81:0.5 96:0.33333334 252:1 1510:1 1511:0.5 2110:0.5 2112:0.5 2121:0.5 2162:0.5 
-1.3277721910150452888643712867633 1:0.11538462 2:0.16666666 3:0.25 5:0.16666667 14:0.16666667 17:0.16666667 18:0.01428571 19:0.13333333 20:0.2 22:0.036585368 27:0.14285713 40:0.33333334 41:0.22222222 43:0.1 44:0.01538462 53:0.14285713 55:0.16666667 77:0.5 78:0.33333334 105:0.5 123:0.5 366:0.5 1173:1 1174:1 1950:1 2110:0.5 2112:0.5 2143:0.5 2162:0.5 
-1.3385707860703306426586323141237 1:0.067307688 3:0.42857143 5:0.2857143 6:0.14285713 18:0.2 19:0.13333333 20:0.40000001 22:0.036585368 30:0.1 44:0.01538462 77:0.5 78:0.33333334 136:0.5 216:1 2154:0.5 2160:0.5 2161:0.5 2185:0.5 2192:0.5 2216:0.5 2217:0.5 
-1.6407581834342914728352980091586 1:0.03846154 14:0.25 17:0.25 18:0.028571431 27:0.14285713 41:0.11111111 67:0.5 69:0.5 84:0.25 93:0.33333334 110:0.5 2110:0.5 2111:0.5 2116:0.5 2117:0.5 2155:0.5 
1.6407581834342914728352980091586 1:0.03846154 5:0.25 6:0.5 18:0.01428571 19:0.06666667 27:0.14285713 30:0.2 81:0.5 132:0.5 137:0.5 2115:0.5 2143:0.5 2146:0.5 2148:0.5 
1.1283371065697129775884377522743 1:0.03846154 5:0.25 6:0.25 16:0.25 18:0.028571431 19:0.06666667 30:0.1 33:0.125 65:0.33333334 137:0.5 150:0.01333333 760:1 1560:1 1561:1 2111:0.5 2114:0.5 2115:0.5 2146:0.5 2149:0.5 
-1.6407581834342914728352980091586 1:0.02884615 4:0.33333334 7:0.33333334 18:0.028571431 38:0.33333334 54:0.11111111 115:0.33333334 611:1 2110:0.5 2111:0.5 2143:0.5 2146:0.5 2149:0.5 2151:0.5 2183:0.5 
-1.6407581834342914728352980091586 1:0.057692312 3:0.5 6:0.33333334 18:0.04285714 22:0.036585368 27:0.14285713 29:0.1 30:0.1 44:0.030769231 53:0.14285713 100:0.25 387:0.5 2115:0.5 2118:0.5 2146:0.5 2148:0.5 2151:0.5 2172:0.5 2179:0.5 
-1.4690675069764718152498517156346 1:0.01923077 18:0.028571431 96:0.33333334 549:1 645:1 2114:0.5 2115:0.5 2148:0.5 2164:0.5 2210:0.5 
1.6407581834342914728352980091586 1:0.01923077 5:0.5 14:0.5 18:0.04285714 19:0.06666667 41:0.11111111 105:0.5 2111:0.5 2114:0.5 2118:0.5 2120:0.5 2124:0.5 2143:0.5 
1.2985848445639431858467105485033 1:0.03846154 5:0.5 16:0.25 18:0.01428571 19:0.13333333 23:0.14285713 33:0.125 389:0.5 440:1 1437:1 2115:0.5 2116:0.5 2117:0.5 2166:0.5 
-1.1941481339807493711191455076914 1:0.11538462 4:0.083333328 5:0.66666669 6:0.16666667 18:0.12857144 19:0.5333333 23:0.5714286 27:0.14285713 30:0.2 43:0.30000001 46:0.25 54:0.11111111 131:0.5 137:0.5 148:0.40000001 189:0.5 199:0.33333334 252:1 2121:0.5 2126:0.5 2130:0.5 2173:0.5 2185:0.5 2194:0.5 2206:0.5 2207:0.5 
-1.6407581834342914728352980091586 1:0.03846154 5:0.75 18:0.04285714 19:0.2 23:0.14285713 27:0.14285713 62:0.5 81:0.5 2118:0.5 2122:0.5 2153:0.5 2156:0.5 2164:0.5 2210:0.5 
-0.68470456006475854948689629964065 1:0.057692312 3:0.16666667 5:0.5 18:0.2857143 19:0.2 20:0.2 22:0.01219512 23:0.14285713 56:0.01639344 57:0.2 58:0.2 61:0.25 82:0.5 159:0.5 1327:1 2159:0.5 2186:0.5 2202:0.5 2207:0.5 2208:0.5 
1.6407581834342914728352980091586 1:0.04807692 3:0.80000001 5:0.2 18:0.01428571 19:0.06666667 20:0.2 22:0.04878049 44:0.046153851 2115:0.5 2125:0.5 2154:0.5 
1.3121392931255386749000990675995 1:0.04807692 3:0.60000002 4:0.2 14:0.2 18:0.028571431 22:0.036585368 41:0.11111111 44:0.01538462 47:0.2 54:0.11111111 109:0.25 176:0.5 2114:0.5 2115:0.5 2143:0.5 2148:0.5 2149:0.5 2151:0.5 2153:0.5 
1.6407581834342914728352980091586 1:0.0096153803 18:0.028571431 96:0.33333334 2110:0.5 2111:0.5 2114:0.5 2117:0.5 2179:0.5 2180:0.5 
-1.6407581834342914728352980091586 1:0.0096153803 3:1 18:0.04285714 22:0.01219512 2114:0.5 2115:0.5 2118:0.5 2165:0.5 2167:0.5 2169:0.5 
-1.6407581834342914728352980091586 1:0.01923077 7:0.5 18:0.01428571 389:0.5 2010:1 2110:0.5 2111:0.5 2116:0.5 2117:0.5 
-1.6407581834342914728352980091586 1:0.0096153803 3:1 18:0.057142861 22:0.01219512 2114:0.5 2115:0.5 2118:0.5 2165:0.5 2167:0.5 2169:0.5 2186:0.5 
1.305516206605452644851084187394 1:0.067307688 5:0.2857143 9:0.14285713 14:0.14285713 18:0.028571431 19:0.13333333 23:0.14285713 27:0.14285713 41:0.11111111 61:0.25 75:0.25 80:0.5 81:0.5 92:0.5 115:0.33333334 298:1 1891:1 2110:0.5 2111:0.5 2164:0.5 2183:0.5 2210:0.5 
-1.6407581834342914728352980091586 1:0.04807692 3:0.2 9:0.2 14:0.2 18:0.01428571 22:0.01219512 41:0.11111111 43:0.30000001 51:0.125 52:0.2 74:0.25 75:0.25 144:0.5 186:0.25 191:1 262:0.25 277:0.33333334 282:0.33333334 2110:0.5 2112:0.5 2143:0.5 2162:0.5 
-1.6407581834342914728352980091586 1:0.125 3:0.15384614 5:0.23076923 14:0.23076923 17:0.15384614 18:0.028571431 19:0.2 21:0.33333334 22:0.024390239 27:0.42857143 41:0.33333334 43:0.2 45:0.5 55:0.16666667 62:0.5 81:0.5 95:1 105:0.5 109:0.25 123:0.5 188:0.5 189:0.16666667 2110:0.5 2111:0.5 2120:0.5 2121:0.5 2183:0.5 
-1.249536151767205005569394415943 1:0.16346154 3:0.41176471 4:0.05882353 5:0.11764706 7:0.05882353 14:0.11764706 17:0.05882353 18:0.01428571 19:0.13333333 20:0.2 21:0.66666669 22:0.085365847 38:0.33333334 41:0.22222222 44:0.046153851 47:0.2 48:0.16666667 54:0.11111111 65:0.66666669 96:0.33333334 97:0.5 120:0.66666669 291:0.5 398:1 504:1 2110:0.5 2121:0.5 2126:0.5 2162:0.5 
1.6407581834342914728352980091586 1:0.02884615 5:0.66666669 18:0.04285714 19:0.13333333 23:0.14285713 27:0.14285713 62:0.5 2111:0.5 2114:0.5 2118:0.5 2165:0.5 2167:0.5 2170:0.5 
1.6407581834342914728352980091586 1:0.01923077 5:0.5 18:0.04285714 19:0.06666667 77:0.5 78:0.33333334 2111:0.5 2114:0.5 2115:0.5 2118:0.5 2165:0.5 2167:0.5 
-1.6407581834342914728352980091586 1:0.02884615 6:0.66666669 16:0.33333334 18:0.028571431 30:0.2 33:0.125 35:0.25 36:0.5 2111:0.5 2114:0.5 2115:0.5 2143:0.5 2146:0.5 
-1.6407581834342914728352980091586 1:0.02884615 6:0.66666669 18:0.028571431 29:0.2 233:0.33333334 488:0.33333334 1686:1 2111:0.5 2112:0.5 2114:0.5 2115:0.5 2143:0.5 
-1.6407581834342914728352980091586 1:0.01923077 6:1 18:0.028571431 29:0.2 31:0.25 2114:0.5 2115:0.5 2119:0.5 2143:0.5 2146:0.5 
0.73868535155610171027973365198704 1:0.03846154 3:0.25 5:0.5 18:0.04285714 19:0.13333333 22:0.01219512 23:0.14285713 27:0.14285713 55:0.16666667 81:0.5 2110:0.5 2112:0.5 2113:0.5 2158:0.5 2160:0.5 2162:0.5 2191:0.5 
1.1157159587316958226921315144864 1:0.04807692 3:0.2 4:0.2 5:0.2 6:0.40000001 18:0.01428571 19:0.06666667 21:0.33333334 22:0.01219512 29:0.2 54:0.11111111 287:0.33333334 407:1 464:1 2110:0.5 2112:0.5 2162:0.5 2163:0.5 
1.6407581834342914728352980091586 1:0.02884615 14:0.33333334 16:0.33333334 18:0.01428571 33:0.125 41:0.11111111 78:0.33333334 79:1 972:1 2110:0.5 2112:0.5 2121:0.5 2162:0.5 
-1.1071390116594257424509351039887 1:0.02884615 5:1 18:0.35714287 19:0.2 23:0.2857143 2157:0.5 2170:0.5 2172:0.5 2174:0.5 2176:0.5 2178:0.5 
-0.97445515150346351251897658585222 1:0.02884615 5:1 18:0.17142858 19:0.2 23:0.2857143 2130:0.5 2133:0.5 2137:0.5 2140:0.5 2144:0.5 2147:0.5 2152:0.5 2199:0.5 
-1.3044218137260383816311559712631 1:0.057692312 4:0.16666667 5:0.66666669 7:0.16666667 18:0.22857143 19:0.26666668 23:0.2857143 54:0.11111111 131:0.5 181:0.16666667 278:1 407:1 2137:0.5 2140:0.5 2144:0.5 2147:0.5 
1.0712362355130284896631565061398 1:0.03846154 3:0.25 5:0.25 6:0.25 18:0.01428571 19:0.06666667 20:0.2 22:0.01219512 27:0.14285713 29:0.1 53:0.14285713 387:0.5 2111:0.5 2115:0.5 2121:0.5 2146:0.5 
1.3910548579556383241850880949642 1:0.04807692 3:0.2 5:0.2 6:0.2 18:0.01428571 19:0.06666667 20:0.2 22:0.01219512 27:0.14285713 29:0.1 107:1 108:0.5 134:0.5 728:1 2110:0.5 2111:0.5 2143:0.5 2146:0.5 
1.4157696827739574274573897127993 1:0.03846154 6:0.25 14:0.25 18:0.01428571 27:0.14285713 30:0.1 41:0.11111111 115:0.33333334 252:1 298:1 430:1 2115:0.5 2146:0.5 2148:0.5 2149:0.5 
-0.97000433804496877243650487798732 1:0.01923077 4:0.5 18:0.2 54:0.11111111 83:0.25 150:0.01333333 158:0.5 284:0.5 2111:0.5 2115:0.5 2146:0.5 2149:0.5 2191:0.5 2192:0.5 2194:0.5 2196:0.5 
-0.91739542189387823789559206488775 1:0.0096153803 18:0.14285713 83:0.25 2115:0.5 2132:0.5 2146:0.5 2148:0.5 2149:0.5 2158:0.5 2160:0.5 2177:0.5 
-1.6407581834342914728352980091586 1:0.02884615 3:0.33333334 4:0.33333334 5:0.33333334 18:0.12857144 19:0.06666667 20:0.2 22:0.01219512 47:0.2 54:0.11111111 2145:0.5 2148:0.5 2149:0.5 2150:0.5 2151:0.5 2183:0.5 2184:0.5 2186:0.5 
1.2988416677250405051324833038962 1:0.07692308 3:0.125 5:0.375 6:0.25 17:0.125 18:0.028571431 19:0.2 22:0.01219512 23:0.2857143 30:0.2 136:0.5 210:0.33333334 251:1 569:1 1543:1 2115:0.5 2119:0.5 2120:0.5 2179:0.5 2183:0.5 
0.35602209198597795092311457665346 1:0.067307688 5:0.71428573 6:0.14285713 9:0.14285713 18:0.01428571 19:0.33333334 23:0.42857143 29:0.1 150:0.01333333 256:0.5 259:0.33333334 260:1 285:1 1153:1 2110:0.5 2112:0.5 2121:0.5 2162:0.5 
1.6407581834342914728352980091586 1:0.04807692 3:0.2 5:0.40000001 9:0.2 18:0.01428571 19:0.13333333 20:0.2 22:0.01219512 23:0.14285713 96:0.33333334 259:0.33333334 393:1 1153:1 2111:0.5 2121:0.5 2126:0.5 2182:0.5 
-0.44935497196784168760785860285978 1:0.36538461 3:0.63157892 4:0.078947373 5:0.078947373 6:0.10526316 14:0.02631579 18:0.35714287 19:0.2 22:0.29268292 23:0.14285713 27:0.2857143 29:0.1 30:0.30000001 41:0.11111111 42:0.11111111 43:0.1 44:0.21538462 47:0.60000002 48:0.33333334 51:0.125 53:0.2857143 54:0.33333334 55:0.16666667 56:0.01639344 57:0.2 58:0.2 105:0.5 109:0.25 132:0.5 134:0.5 136:1 162:0.5 210:1 501:0.33333334 530:0.5 661:1 2137:0.5 2140:0.5 2144:0.5 2147:0.5 2201:0.5 
-0.2785867135723332776997551718523 1:0.13461538 3:0.35714287 4:0.35714287 5:0.14285713 6:0.071428567 18:0.11428571 19:0.13333333 20:0.2 22:0.060975611 29:0.1 42:0.11111111 43:0.2 44:0.01538462 48:0.33333334 54:0.55555558 56:0.01639344 57:0.2 58:0.2 60:0.33333334 61:0.25 112:0.5 119:0.25 133:0.33333334 134:0.5 162:0.5 209:0.2 407:1 2126:0.5 2130:0.5 2133:0.5 2137:0.5 2140:0.5 2161:0.5 2177:0.5 2194:0.5 2198:0.5 
-0.19954889782109191953551885490015 1:0.20192309 3:0.2857143 4:0.047619049 5:0.38095239 6:0.047619049 18:0.15714286 19:0.5333333 20:0.40000001 21:0.33333334 22:0.073170729 23:0.5714286 29:0.1 44:0.01538462 47:0.2 48:0.16666667 54:0.11111111 61:0.25 80:0.5 113:0.5 115:0.33333334 124:0.16666667 127:0.33333334 134:0.5 159:0.5 162:0.5 301:0.33333334 615:0.5 814:1 815:1 816:1 1385:1 1386:1 1387:1 2121:0.5 2126:0.5 2130:0.5 2133:0.5 2137:0.5 2140:0.5 2144:0.5 2145:0.5 
1.6407581834342914728352980091586 1:0.02884615 5:0.33333334 6:0.33333334 18:0.057142861 19:0.06666667 30:0.1 61:0.25 137:0.5 217:0.5 2114:0.5 2115:0.5 2148:0.5 2151:0.5 2184:0.5 2186:0.5 2214:0.5 
1.6407581834342914728352980091586 1:0.04807692 3:0.40000001 5:0.60000002 18:0.071428567 19:0.2 20:0.2 21:0.33333334 22:0.024390239 23:0.14285713 44:0.01538462 2114:0.5 2115:0.5 2118:0.5 2123:0.5 2143:0.5 2145:0.5 2146:0.5 2148:0.5 2149:0.5 2151:0.5 2153:0.5 2202:0.5 
0.93296979343247743443612307601143 1:0.03846154 3:0.25 5:0.5 7:0.25 18:0.028571431 19:0.13333333 20:0.2 21:0.33333334 22:0.01219512 150:0.01333333 256:0.5 557:1 2114:0.5 2115:0.5 2146:0.5 2148:0.5 2149:0.5 
-0.87119879337654282380754011683166 1:0.13461538 3:0.2857143 5:0.071428567 6:0.35714287 7:0.21428572 18:0.028571431 19:0.06666667 22:0.04878049 29:0.1 30:0.40000001 43:0.2 44:0.030769231 61:0.25 112:0.5 136:0.5 162:0.5 181:0.5 199:0.33333334 210:0.66666669 217:0.5 221:0.40000001 251:1 338:0.5 340:0.33333334 2114:0.5 2121:0.5 2146:0.5 2148:0.5 2150:0.5 2151:0.5 2153:0.5 2156:0.5 
-0.89397475639880397135783596240799 1:0.07692308 3:0.625 5:0.125 18:0.01428571 19:0.06666667 20:0.2 22:0.060975611 27:0.14285713 44:0.030769231 53:0.14285713 55:0.16666667 171:0.5 172:0.5 228:1 2179:0.5 2180:0.5 2181:0.5 2182:0.5 
-0.73857039737072094354175533226226 1:0.067307688 18:0.04285714 43:0.60000002 625:1 805:1 1606:1 2114:0.5 2115:0.5 2118:0.5 2121:0.5 2146:0.5 2148:0.5 
0.20531837409428604912520199832215 1:0.07692308 3:0.375 4:0.125 5:0.25 6:0.125 18:0.01428571 19:0.13333333 20:0.2 21:0.33333334 22:0.036585368 27:0.14285713 29:0.1 48:0.16666667 54:0.11111111 55:0.16666667 81:0.5 150:0.01333333 162:0.5 354:1 586:1 2115:0.5 2146:0.5 2148:0.5 2149:0.5 
0.55296891525308466963650744219194 1:0.067307688 3:0.14285713 4:0.14285713 5:0.2857143 6:0.14285713 18:0.01428571 19:0.13333333 21:0.33333334 22:0.01219512 29:0.1 54:0.11111111 96:0.33333334 131:0.5 287:0.33333334 407:1 553:0.5 1002:1 2034:1 2110:0.5 2111:0.5 2143:0.5 2146:0.5 
0.60972175127941374839224408788141 1:0.057692312 5:0.5 18:0.01428571 19:0.2 23:0.14285713 159:0.5 192:0.5 289:0.5 681:1 853:1 898:1 1181:1 2115:0.5 2143:0.5 2148:0.5 2151:0.5 
-1.4982073794168879743438083096407 1:0.03846154 7:0.25 17:0.5 18:0.028571431 181:0.16666667 186:0.25 1640:1 2110:0.5 2111:0.5 2112:0.5 2183:0.5 2210:0.5 
-0.97776238495924472360343315813225 1:0.02884615 5:0.66666669 13:0.33333334 18:0.11428571 19:0.13333333 23:0.14285713 467:0.5 582:0.5 2141:0.5 2142:0.5 2146:0.5 2148:0.5 2149:0.5 2182:0.5 2183:0.5 2184:0.5 
-0.5206282071499482855259088864841 1:0.02884615 2:0.66666669 17:0.33333334 18:0.04285714 40:0.33333334 568:1 569:1 1412:1 1413:1 2110:0.5 2111:0.5 2112:0.5 2131:0.5 2135:0.5 2143:0.5 
1.6407581834342914728352980091586 1:0.057692312 3:0.66666669 4:0.16666667 18:0.028571431 22:0.04878049 27:0.14285713 44:0.030769231 46:0.25 48:0.16666667 53:0.14285713 54:0.11111111 2114:0.5 2115:0.5 2125:0.5 2199:0.5 
1.6407581834342914728352980091586 1:0.02884615 3:1 18:0.04285714 22:0.036585368 44:0.030769231 2114:0.5 2115:0.5 2121:0.5 2135:0.5 2180:0.5 2181:0.5 
1.4629790983906001411440911397221 1:0.057692312 3:0.16666667 4:0.16666667 5:0.33333334 6:0.16666667 18:0.01428571 19:0.13333333 22:0.01219512 29:0.1 47:0.2 54:0.11111111 65:0.33333334 120:0.33333334 134:0.5 464:1 485:1 2115:0.5 2120:0.5 2121:0.5 2181:0.5 
-1.6407581834342914728352980091586 1:0.0096153803 3:1 18:0.12857144 22:0.01219512 2114:0.5 2115:0.5 2118:0.5 2141:0.5 2142:0.5 2152:0.5 2164:0.5 2180:0.5 2181:0.5 
-1.6407581834342914728352980091586 1:0.02884615 6:0.66666669 16:0.33333334 18:0.057142861 28:0.25 29:0.2 31:0.25 33:0.125 2111:0.5 2112:0.5 2114:0.5 2115:0.5 2121:0.5 2138:0.5 2186:0.5 
-1.0952335111405440137843925185734 1:0.07692308 6:0.5 9:0.125 16:0.25 18:0.028571431 29:0.2 30:0.2 32:0.25 33:0.25 34:0.33333334 35:0.5 75:0.25 78:0.33333334 381:1 655:0.5 1485:1 2111:0.5 2112:0.5 2114:0.5 2115:0.5 2198:0.5 
0.61972814294842215598890788896824 1:0.04807692 5:0.60000002 18:0.04285714 19:0.2 23:0.14285713 27:0.14285713 81:0.5 1032:1 1451:1 1452:1 2115:0.5 2146:0.5 2148:0.5 2149:0.5 2183:0.5 2184:0.5 
1.6407581834342914728352980091586 1:0.03846154 5:0.75 16:0.25 18:0.057142861 19:0.2 23:0.2857143 33:0.125 138:1 2110:0.5 2112:0.5 2134:0.5 2158:0.5 2160:0.5 2161:0.5 2162:0.5 2210:0.5 
-1.6407581834342914728352980091586 1:0.0096153803 5:1 18:0.11428571 19:0.06666667 2121:0.5 2126:0.5 2130:0.5 2133:0.5 2161:0.5 2171:0.5 2185:0.5 2192:0.5 
-1.6407581834342914728352980091586 1:0.02884615 5:0.66666669 18:0.057142861 19:0.13333333 23:0.14285713 108:0.5 279:0.5 2112:0.5 2123:0.5 2127:0.5 2143:0.5 2156:0.5 2160:0.5 2166:0.5 
-1.6407581834342914728352980091586 1:0.0096153803 18:0.01428571 37:1 2110:0.5 2112:0.5 2162:0.5 2163:0.5 
1.6407581834342914728352980091586 1:0.0096153803 18:0.028571431 27:0.14285713 2110:0.5 2111:0.5 2114:0.5 2146:0.5 2149:0.5 
0.96823762906403409989053443496232 1:0.04807692 3:0.2 5:0.2 6:0.2 10:0.2 16:0.2 18:0.028571431 19:0.06666667 22:0.01219512 29:0.1 33:0.125 138:1 162:0.5 183:0.5 1611:1 1900:1 2111:0.5 2114:0.5 2115:0.5 2143:0.5 2146:0.5 2149:0.5 
1.6407581834342914728352980091586 1:0.067307688 3:0.71428573 6:0.14285713 18:0.01428571 22:0.060975611 27:0.14285713 29:0.1 44:0.046153851 53:0.14285713 55:0.16666667 287:0.33333334 2110:0.5 2111:0.5 2164:0.5 2210:0.5 
-0.70218269328235183301956112700282 1:0.0096153803 3:1 18:0.071428567 22:0.01219512 2111:0.5 2128:0.5 2132:0.5 2146:0.5 2158:0.5 2168:0.5 2214:0.5 2218:0.5 
-1.6407581834342914728352980091586 1:0.01923077 12:0.5 17:0.5 18:0.028571431 84:0.25 85:0.25 86:1 2114:0.5 2115:0.5 2143:0.5 2146:0.5 2148:0.5 
-0.63673954650102815300272141030291 1:0.04807692 7:0.40000001 17:0.40000001 18:0.01428571 27:0.14285713 181:0.33333334 944:1 1598:1 2110:0.5 2111:0.5 2146:0.5 2149:0.5 
-0.87835343802897258846940076182364 1:0.067307688 3:0.2857143 5:0.42857143 6:0.14285713 16:0.14285713 18:0.071428567 19:0.2 20:0.40000001 21:0.33333334 22:0.024390239 23:0.14285713 30:0.1 33:0.125 50:1 56:0.01639344 138:1 426:0.33333334 2110:0.5 2121:0.5 2122:0.5 2124:0.5 2125:0.5 2126:0.5 2127:0.5 2128:0.5 2132:0.5 2150:0.5 2153:0.5 2183:0.5 
-0.85486249587074547573450900017633 1:0.03846154 5:0.25 16:0.25 18:0.04285714 19:0.06666667 33:0.125 233:0.33333334 375:1 454:1 1032:1 2114:0.5 2118:0.5 2148:0.5 2150:0.5 2153:0.5 2164:0.5 2179:0.5 
-0.030329497017072364756229418958355 1:0.1826923 3:0.052631579 4:0.052631579 5:0.2631579 6:0.21052632 14:0.15789475 18:0.01428571 19:0.33333334 21:0.33333334 22:0.01219512 26:0.5 27:0.2857143 29:0.1 30:0.30000001 41:0.33333334 43:0.1 45:0.5 54:0.11111111 55:0.16666667 56:0.01639344 95:1 96:0.33333334 97:0.5 105:0.5 119:0.25 137:1 150:0.026666669 200:0.25 233:0.33333334 247:0.5 251:1 252:1 271:1 286:1 405:0.33333334 408:1 488:0.33333334 512:1 658:1 707:1 2162:0.5 2182:0.5 2212:0.5 2213:0.5 
0.96357735358766705147104403295089 1:0.067307688 2:0.28571427 3:0.5714286 4:0.14285713 5:0.14285713 18:0.01428571 19:0.06666667 22:0.04878049 40:0.33333334 44:0.046153851 54:0.11111111 296:0.5 407:1 1073:1 2115:0.5 2146:0.5 2148:0.5 2149:0.5 
1.6407581834342914728352980091586 1:0.04807692 3:0.60000002 5:0.2 14:0.2 18:0.01428571 19:0.06666667 22:0.036585368 41:0.11111111 44:0.030769231 105:0.5 109:0.25 2113:0.5 2115:0.5 2146:0.5 2148:0.5 
-1.6407581834342914728352980091586 1:0.0096153803 3:1 18:0.14285713 22:0.01219512 2115:0.5 2117:0.5 2148:0.5 2151:0.5 2155:0.5 2174:0.5 2176:0.5 2178:0.5 
-1.6407581834342914728352980091586 1:0.01923077 6:1 18:0.028571431 29:0.2 31:0.25 2111:0.5 2112:0.5 2114:0.5 2115:0.5 2210:0.5 
-1.2348102166683248004375172968139 1:0.0096153803 18:0.057142861 327:1 2114:0.5 2115:0.5 2118:0.5 2123:0.5 2125:0.5 2143:0.5 2146:0.5 
0.98511106747722387844135027989978 1:0.057692312 3:0.16666667 5:0.5 9:0.16666667 16:0.16666667 18:0.01428571 19:0.2 20:0.2 21:0.33333334 22:0.01219512 33:0.125 75:0.25 138:1 335:1 1136:1 2115:0.5 2148:0.5 2151:0.5 2153:0.5 2163:0.5 
0.74354903810753580906123261229368 1:0.02884615 5:0.33333334 16:0.33333334 18:0.01428571 19:0.06666667 33:0.125 138:1 150:0.01333333 506:1 831:1 2110:0.5 2112:0.5 2143:0.5 2162:0.5 
-1.3692435046648614438424829131691 1:0.04807692 3:0.2 5:0.60000002 6:0.2 18:0.17142858 19:0.2 20:0.2 22:0.01219512 30:0.1 137:0.5 150:0.01333333 247:0.5 248:1 251:1 2134:0.5 2159:0.5 2173:0.5 2185:0.5 2194:0.5 
-0.46761312793430270806638304748049 1:0.15384614 2:0.125 3:0.125 5:0.3125 6:0.0625 9:0.0625 14:0.125 17:0.0625 18:0.01428571 19:0.33333334 20:0.2 21:0.33333334 22:0.024390239 29:0.1 40:0.33333334 41:0.22222222 43:0.40000001 61:0.25 66:0.33333334 73:1 77:0.5 78:0.33333334 80:0.5 82:0.5 109:0.25 134:0.5 148:0.2 189:0.5 216:1 337:0.25 366:0.5 385:0.5 899:0.5 1259:1 1415:1 1416:1 1714:1 2110:0.5 2112:0.5 2143:0.5 2162:0.5 
-0.30137636420744523535475423159369 1:0.21153846 3:0.22727273 5:0.18181819 14:0.13636364 17:0.045454551 18:0.01428571 19:0.26666668 21:0.33333334 22:0.060975611 41:0.33333334 43:0.40000001 44:0.030769231 52:0.2 61:0.5 65:0.33333334 78:0.33333334 82:0.5 84:0.25 93:0.33333334 96:0.33333334 104:0.5 105:0.5 108:0.5 109:0.25 112:0.5 117:0.25 128:1 148:0.40000001 174:0.25 216:1 275:0.5 277:0.33333334 279:0.5 282:0.33333334 310:0.5 311:1 485:1 572:0.5 1079:0.5 1168:1 1519:0.5 1716:1 2110:0.5 2112:0.5 2143:0.5 2162:0.5 
0.94223831568048921347724444785854 1:0.03846154 5:0.5 6:0.25 13:0.25 18:0.028571431 19:0.13333333 23:0.14285713 29:0.1 467:0.5 670:1 2114:0.5 2115:0.5 2148:0.5 2151:0.5 2163:0.5 
0.20302646113731376287248053813528 1:0.086538456 3:0.22222222 4:0.11111111 5:0.22222222 6:0.11111111 14:0.11111111 18:0.01428571 19:0.13333333 22:0.024390239 23:0.14285713 27:0.14285713 30:0.1 41:0.11111111 44:0.01538462 46:0.25 54:0.11111111 81:0.5 109:0.25 282:0.33333334 300:1 380:1 405:0.33333334 2111:0.5 2112:0.5 2115:0.5 2210:0.5 
-1.6407581834342914728352980091586 1:0.01923077 6:1 18:0.028571431 29:0.1 30:0.1 100:0.25 2114:0.5 2115:0.5 2146:0.5 2148:0.5 2149:0.5 
-1.0760392737380299887917090018163 1:0.03846154 5:0.25 18:0.04285714 19:0.06666667 27:0.14285713 62:0.5 65:0.33333334 67:0.5 69:0.5 485:1 2115:0.5 2118:0.5 2122:0.5 2146:0.5 2148:0.5 2149:0.5 
-1.6407581834342914728352980091586 1:0.0096153803 18:0.085714288 61:0.25 2115:0.5 2136:0.5 2146:0.5 2148:0.5 2149:0.5 2158:0.5 2160:0.5 2161:0.5 
1.1322140242135509957677186321234 1:0.057692312 5:0.66666669 7:0.16666667 16:0.16666667 18:0.01428571 19:0.26666668 23:0.42857143 33:0.125 181:0.16666667 278:1 454:1 2110:0.5 2111:0.5 2143:0.5 2146:0.5 
0.38276070976554860125773416257289 1:0.04807692 3:0.2 5:0.60000002 17:0.2 18:0.01428571 19:0.2 20:0.2 22:0.01219512 150:0.01333333 247:0.5 256:0.5 729:1 730:1 731:1 2110:0.5 2111:0.5 2121:0.5 2126:0.5 
-1.3498917043443185992401822659303 1:0.096153848 3:0.1 5:0.40000001 14:0.2 18:0.01428571 19:0.26666668 21:0.33333334 22:0.01219512 23:0.14285713 27:0.2857143 41:0.22222222 45:0.5 55:0.16666667 62:0.5 81:0.5 96:0.33333334 105:0.5 150:0.01333333 256:0.5 271:1 329:1 2112:0.5 2143:0.5 2162:0.5 2182:0.5 
-1.2248682520141855878392789236386 1:0.03846154 5:1 18:0.25714287 19:0.26666668 23:0.14285713 43:0.1 148:0.2 150:0.01333333 189:0.16666667 247:0.5 256:0.5 2200:0.5 2206:0.5 2207:0.5 2208:0.5 2209:0.5 2211:0.5 
-1.6407581834342914728352980091586 1:0.0096153803 14:1 18:0.15714286 41:0.11111111 2121:0.5 2126:0.5 2130:0.5 2133:0.5 2134:0.5 2135:0.5 2195:0.5 2197:0.5 
0.8470803562994718705070340547536 1:0.086538456 3:0.11111111 5:0.44444445 16:0.11111111 18:0.028571431 19:0.26666668 20:0.2 21:0.33333334 22:0.01219512 27:0.14285713 33:0.125 62:0.5 65:0.33333334 81:0.5 485:1 501:0.33333334 587:1 1140:1 1169:1 2114:0.5 2115:0.5 2146:0.5 2148:0.5 2210:0.5 
0.63506451161524013482306827427237 1:0.067307688 5:0.5714286 6:0.14285713 18:0.01428571 19:0.26666668 23:0.2857143 29:0.1 61:0.25 80:0.5 82:0.5 186:0.25 319:1 1031:1 2115:0.5 2146:0.5 2148:0.5 2149:0.5 
-0.68614413412159180882810005641659 1:0.067307688 4:0.14285713 6:0.71428573 18:0.04285714 29:0.1 30:0.40000001 54:0.11111111 78:0.33333334 99:0.25 100:0.25 135:0.33333334 198:1 1332:1 2114:0.5 2115:0.5 2118:0.5 2146:0.5 2148:0.5 2149:0.5 
-1.6407581834342914728352980091586 1:0.02884615 5:0.33333334 6:0.33333334 18:0.057142861 19:0.06666667 29:0.1 130:0.5 142:0.25 348:0.5 2115:0.5 2132:0.5 2143:0.5 2146:0.5 2155:0.5 2166:0.5 2173:0.5 
