SVM-light Version V5.00
2 # kernel type
3 # kernel parameter -d 
0.1 # kernel parameter -g 
1 # kernel parameter -s 
1 # kernel parameter -r 
empty# kernel parameter -u 
2109 # highest feature index 
18907 # number of training documents 
1137 # number of support vectors plus 1 
1.7163338 # threshold b, each following line is a SV (starting with alpha*y)
1.5220844612403101603348432036 1:0.057692312 3:0.16666667 5:0.33333334 7:0.16666667 16:0.33333334 18:0.028571431 19:0.13333333 20:0.2 22:0.01219512 23:0.14285713 33:0.25 138:1 150:0.01333333 181:0.16666667 506:1 539:0.33333334 1351:1 
3.1266851102976906950914326444035 1:0.02884615 5:0.66666669 18:0.04285714 19:0.13333333 23:0.14285713 27:0.14285713 62:0.5 
-1.5590270016248564122207653781516 1:0.0096153803 18:0.01428571 37:1 
-3.1266851102976906950914326444035 1:0.057692312 5:0.66666669 6:0.16666667 18:0.14285713 19:0.26666668 23:0.2857143 29:0.1 43:0.1 115:0.33333334 130:0.5 148:0.2 189:0.16666667 297:0.5 
3.1266851102976906950914326444035 1:0.04807692 3:0.2 5:0.60000002 18:0.028571431 19:0.2 20:0.2 22:0.01219512 43:0.2 61:0.25 80:0.5 112:0.5 148:0.2 189:0.33333334 
3.1266851102976906950914326444035 1:0.04807692 3:0.2 5:0.40000001 14:0.2 18:0.01428571 19:0.13333333 20:0.2 22:0.01219512 41:0.11111111 105:0.5 166:0.5 233:0.33333334 377:0.5 
-0.12889606647052170851353025682329 1:0.07692308 5:0.125 6:0.75 18:0.04285714 19:0.06666667 29:0.1 30:0.5 61:0.25 99:0.25 100:0.25 137:0.5 217:0.5 227:0.5 251:1 
3.1266851102976906950914326444035 1:0.03846154 3:0.5 5:0.5 18:0.028571431 19:0.13333333 21:0.33333334 22:0.024390239 23:0.14285713 44:0.01538462 
-2.0058888802712036003583762067137 1:0.02884615 5:0.33333334 6:0.33333334 16:0.33333334 18:0.11428571 19:0.06666667 29:0.1 32:0.25 33:0.125 138:1 
0.28919095450853454787321084040741 1:0.07692308 4:0.25 5:0.375 6:0.25 18:0.01428571 19:0.2 27:0.14285713 29:0.1 30:0.1 54:0.22222222 81:0.5 130:0.5 131:0.5 132:0.5 133:0.16666667 134:0.5 135:0.33333334 
-3.1266851102976906950914326444035 1:0.14423077 3:0.06666667 5:0.66666669 6:0.13333333 18:0.01428571 19:0.66666669 20:0.2 21:0.33333334 22:0.01219512 23:0.5714286 27:0.14285713 29:0.2 43:0.1 61:0.25 80:0.5 81:0.5 82:0.5 130:0.5 134:1 148:0.2 189:0.16666667 387:0.5 
3.1266851102976906950914326444035 1:0.01923077 6:1 18:0.01428571 30:0.2 99:0.125 
-3.1266851102976906950914326444035 1:0.07692308 3:0.625 5:0.125 14:0.125 18:0.1 19:0.06666667 20:0.2 22:0.060975611 27:0.14285713 41:0.11111111 44:0.046153851 53:0.14285713 55:0.16666667 166:0.5 
-3.1266851102976906950914326444035 1:0.13461538 3:0.21428572 5:0.42857143 6:0.071428567 14:0.071428567 18:0.01428571 19:0.40000001 20:0.2 21:1 22:0.036585368 27:0.2857143 29:0.1 41:0.11111111 55:0.16666667 61:0.25 80:0.5 81:1 82:0.5 105:0.5 109:0.25 134:0.5 387:0.5 
3.1266851102976906950914326444035 1:0.0096153803 6:1 18:0.04285714 30:0.1 
-3.1266851102976906950914326444035 1:0.0096153803 5:1 18:0.04285714 19:0.06666667 
3.1266851102976906950914326444035 1:0.0096153803 14:1 18:0.028571431 41:0.11111111 
3.1266851102976906950914326444035 1:0.02884615 14:0.66666669 18:0.028571431 27:0.14285713 41:0.22222222 95:1 224:0.5 
3.1266851102976906950914326444035 1:0.01923077 14:0.5 18:0.01428571 41:0.11111111 65:0.33333334 140:1 
-3.1266851102976906950914326444035 1:0.02884615 6:0.33333334 16:0.33333334 18:0.028571431 29:0.1 32:0.25 33:0.125 78:0.33333334 79:1 
3.1266851102976906950914326444035 1:0.02884615 5:0.66666669 18:0.028571431 19:0.13333333 23:0.14285713 27:0.14285713 62:0.5 
-1.409233183321860982673001672083 1:0.11538462 2:0.16666666 3:0.083333328 5:0.33333334 14:0.16666667 17:0.083333328 18:0.085714288 19:0.26666668 21:0.33333334 22:0.01219512 23:0.14285713 27:0.2857143 40:0.33333334 41:0.22222222 43:0.1 45:0.5 55:0.16666667 61:0.25 80:0.5 81:0.5 92:0.5 95:1 105:0.5 189:0.16666667 366:0.5 
3.1266851102976906950914326444035 1:0.067307688 3:0.2857143 5:0.42857143 6:0.14285713 16:0.14285713 18:0.028571431 19:0.2 21:0.33333334 22:0.024390239 23:0.2857143 28:0.25 29:0.1 33:0.125 44:0.01538462 287:0.33333334 
1.8826984036470391092876752736629 1:0.04807692 5:0.60000002 14:0.2 18:0.01428571 19:0.2 41:0.11111111 43:0.2 61:0.25 80:0.5 105:0.5 112:0.5 123:0.5 148:0.2 189:0.16666667 
-1.678389398410135457950786985748 1:0.04807692 3:0.2 5:0.60000002 18:0.2 19:0.2 20:0.2 22:0.01219512 150:0.01333333 247:0.5 248:1 625:0.14285713 1023:1 1026:1 
-3.1266851102976906950914326444035 1:0.03846154 5:0.75 18:0.04285714 19:0.2 23:0.14285713 27:0.14285713 62:0.5 81:0.5 
3.1266851102976906950914326444035 1:0.28846154 5:0.2 6:0.30000001 7:0.033333331 9:0.1 11:0.033333331 14:0.06666667 17:0.033333331 18:0.01428571 19:0.40000001 23:0.5714286 27:0.2857143 29:0.30000001 30:0.60000002 41:0.22222222 43:0.69999999 66:0.66666669 67:0.5 69:0.5 73:1 74:0.25 75:0.25 78:0.33333334 84:0.25 93:0.33333334 99:0.25 100:0.5 105:0.5 142:0.25 144:0.5 156:0.5 166:0.5 196:0.75 199:0.66666669 200:0.25 201:0.5 237:0.33333334 257:0.5 258:0.5 331:1 337:0.5 359:1 385:0.5 389:0.5 472:0.5 675:1 755:1 768:1 804:1 919:1 1740:1 
3.1266851102976906950914326444035 1:0.057692312 3:0.83333331 18:0.01428571 22:0.060975611 26:0.5 44:0.061538462 214:0.5 
3.1266851102976906950914326444035 1:0.01923077 5:0.5 18:0.01428571 19:0.06666667 96:0.33333334 97:0.5 
-3.1266851102976906950914326444035 1:0.02884615 5:1 18:0.057142861 19:0.2 23:0.2857143 
2.9844334973710964220572350313887 1:0.096153848 5:0.2 8:0.2 17:0.1 18:0.085714288 19:0.13333333 27:0.14285713 43:0.2 56:0.01639344 64:0.5 84:0.25 88:0.5 96:0.33333334 108:0.5 142:0.25 148:0.2 257:0.5 325:1 328:1 346:0.5 408:1 736:1 845:1 934:1 996:1 997:1 998:1 999:1 
-2.2132930156306889202255661075469 1:0.11538462 3:0.25 5:0.25 6:0.083333328 10:0.083333328 14:0.16666667 18:0.11428571 19:0.2 20:0.2 22:0.036585368 27:0.14285713 29:0.1 41:0.22222222 43:0.1 44:0.01538462 52:0.2 65:0.33333334 81:0.5 95:1 140:1 148:0.2 162:0.5 166:0.5 183:0.5 189:0.16666667 1611:1 1612:1 
3.1266851102976906950914326444035 1:0.057692312 3:0.66666669 4:0.16666667 18:0.028571431 22:0.04878049 27:0.14285713 44:0.030769231 46:0.25 48:0.16666667 53:0.14285713 54:0.11111111 
1.7803981221417357616587651136797 1:0.02884615 3:0.33333334 5:0.33333334 18:0.01428571 19:0.06666667 20:0.2 22:0.01219512 1735:1 1736:1 
3.1266851102976906950914326444035 1:0.03846154 3:0.25 5:0.5 6:0.25 18:0.04285714 19:0.13333333 21:0.33333334 22:0.01219512 23:0.14285713 30:0.1 210:0.33333334 
3.1266851102976906950914326444035 1:0.02884615 5:0.33333334 6:0.33333334 14:0.33333334 18:0.01428571 19:0.06666667 29:0.1 41:0.11111111 105:0.5 134:0.5 
3.1266851102976906950914326444035 1:0.0096153803 18:0.057142861 96:0.33333334 
3.1266851102976906950914326444035 1:0.0096153803 18:0.028571431 96:0.33333334 
-3.1266851102976906950914326444035 1:0.02884615 4:0.33333334 5:0.33333334 6:0.33333334 18:0.028571431 19:0.06666667 30:0.1 54:0.11111111 131:0.5 135:0.33333334 
3.1266851102976906950914326444035 1:0.125 3:0.07692308 4:0.07692308 5:0.23076923 6:0.23076923 16:0.15384614 18:0.15714286 19:0.2 20:0.2 22:0.01219512 23:0.14285713 30:0.30000001 33:0.25 35:0.25 43:0.2 50:1 54:0.11111111 56:0.01639344 61:0.25 112:0.5 138:1 150:0.01333333 196:0.5 248:1 383:1 384:1 405:0.33333334 424:0.5 426:0.33333334 1008:1 1009:1 
-3.1266851102976906950914326444035 1:0.07692308 3:0.625 5:0.125 6:0.125 18:0.085714288 19:0.06666667 20:0.2 22:0.060975611 27:0.14285713 30:0.1 44:0.046153851 53:0.14285713 132:0.5 210:0.33333334 
1.7168194789909709818687133520143 1:0.067307688 3:0.14285713 5:0.2857143 16:0.14285713 18:0.01428571 19:0.13333333 21:0.33333334 22:0.01219512 33:0.125 61:0.25 80:0.5 82:0.5 115:0.33333334 150:0.01333333 501:0.33333334 505:1 506:1 661:1 1140:1 
3.1266851102976906950914326444035 1:0.086538456 3:0.11111111 5:0.11111111 14:0.22222222 18:0.04285714 19:0.06666667 22:0.01219512 27:0.14285713 41:0.22222222 45:0.5 55:0.16666667 61:0.25 115:1 127:0.33333334 166:0.5 370:1 585:1 1137:1 
-0.92219219038026845058908520513796 1:0.067307688 4:0.14285713 6:0.42857143 16:0.14285713 18:0.057142861 30:0.30000001 33:0.125 35:0.25 43:0.2 54:0.11111111 196:0.5 235:0.2 383:1 384:1 405:0.33333334 1008:1 1009:1 
-3.1266851102976906950914326444035 1:0.067307688 3:0.2857143 5:0.42857143 6:0.14285713 16:0.14285713 18:0.071428567 19:0.2 20:0.40000001 21:0.33333334 22:0.024390239 23:0.14285713 30:0.1 33:0.125 50:1 56:0.01639344 138:1 426:0.33333334 
-3.1266851102976906950914326444035 1:0.0096153803 18:0.028571431 310:0.5 
3.1266851102976906950914326444035 1:0.07692308 3:0.125 5:0.5 14:0.125 18:0.01428571 19:0.26666668 20:0.2 22:0.01219512 23:0.14285713 27:0.14285713 41:0.11111111 61:0.25 80:0.5 81:0.5 82:0.5 95:1 166:0.5 
0.036592220427289809392412678334949 1:0.04807692 5:0.80000001 16:0.2 18:0.028571431 19:0.26666668 23:0.2857143 33:0.125 138:1 922:0.5 1121:1 1633:1 
0.2823954954331382438681430357974 1:0.04807692 3:0.2 5:0.40000001 6:0.2 10:0.2 18:0.04285714 19:0.13333333 21:0.33333334 22:0.01219512 23:0.14285713 29:0.1 183:0.5 1611:1 1612:1 
-3.1266851102976906950914326444035 1:0.067307688 5:0.42857143 7:0.14285713 14:0.2857143 18:0.1 19:0.2 23:0.14285713 27:0.14285713 41:0.22222222 81:0.5 95:1 166:0.5 181:0.16666667 224:0.5 266:1 
3.1266851102976906950914326444035 1:0.057692312 3:0.83333331 4:0.16666667 18:0.028571431 22:0.060975611 44:0.046153851 47:0.2 48:0.16666667 54:0.11111111 
-3.1266851102976906950914326444035 1:0.057692312 3:0.16666667 5:0.5 14:0.16666667 18:0.071428567 19:0.2 20:0.2 21:0.33333334 22:0.01219512 27:0.14285713 41:0.11111111 81:0.5 95:1 166:0.5 
-3.1266851102976906950914326444035 1:0.067307688 3:0.2857143 4:0.14285713 5:0.14285713 14:0.14285713 18:0.11428571 19:0.06666667 20:0.2 22:0.024390239 27:0.14285713 41:0.11111111 46:0.25 53:0.14285713 54:0.11111111 59:0.25 61:0.25 174:0.25 176:0.5 
-2.5237305572568700107183303771308 1:0.02884615 5:0.66666669 18:0.11428571 19:0.13333333 23:0.14285713 472:0.5 1087:1 
3.1266851102976906950914326444035 1:0.04807692 3:1 18:0.028571431 22:0.060975611 44:0.046153851 150:0.01333333 248:1 353:1 
-0.054664487061812774837399331318011 1:0.04807692 5:0.2 9:0.40000001 16:0.2 18:0.04285714 19:0.06666667 33:0.125 61:0.25 75:0.5 82:0.5 335:1 563:1 655:0.5 
3.1266851102976906950914326444035 1:0.057692312 3:0.5 4:0.16666667 6:0.16666667 18:0.01428571 22:0.036585368 27:0.14285713 30:0.1 44:0.01538462 46:0.25 48:0.16666667 53:0.14285713 54:0.11111111 210:0.33333334 
-3.1266851102976906950914326444035 1:0.0096153803 3:1 18:0.028571431 22:0.01219512 
3.1266851102976906950914326444035 1:0.04807692 5:0.60000002 14:0.2 18:0.01428571 19:0.2 23:0.14285713 27:0.14285713 41:0.11111111 81:0.5 95:1 166:0.5 
-2.3599464189054182305937956698472 1:0.07692308 3:0.375 5:0.25 6:0.25 18:0.2 19:0.13333333 22:0.036585368 23:0.14285713 29:0.1 30:0.1 43:0.1 44:0.01538462 61:0.25 80:0.5 112:0.5 124:0.16666667 162:0.5 196:0.25 244:0.33333334 287:0.33333334 1159:1 
-3.1266851102976906950914326444035 1:0.0096153803 14:1 18:0.01428571 41:0.11111111 
-0.066689149394870542164603932633327 1:0.01923077 6:0.5 18:0.057142861 29:0.1 115:0.33333334 750:1 
-3.1266851102976906950914326444035 1:0.086538456 5:0.77777779 7:0.11111111 14:0.11111111 18:0.01428571 19:0.46666667 23:0.71428573 38:0.33333334 41:0.11111111 43:0.1 105:0.5 166:0.5 189:0.16666667 222:0.33333334 
3.1266851102976906950914326444035 1:0.03846154 5:0.25 6:0.25 7:0.25 18:0.057142861 19:0.06666667 27:0.14285713 30:0.1 62:0.5 181:0.16666667 252:1 266:1 
-2.5455589572018491040239496214781 1:0.03846154 5:0.25 18:0.04285714 19:0.06666667 61:0.25 80:0.5 115:0.33333334 142:0.25 146:0.5 1137:1 
-3.1266851102976906950914326444035 1:0.125 3:0.53846157 5:0.23076923 14:0.07692308 16:0.07692308 18:0.1 19:0.2 20:0.2 22:0.085365847 23:0.2857143 27:0.14285713 33:0.125 41:0.11111111 44:0.092307687 53:0.14285713 138:1 150:0.01333333 286:0.5 506:1 
-3.1266851102976906950914326444035 1:0.02884615 5:0.33333334 6:0.33333334 17:0.33333334 18:0.1 19:0.06666667 29:0.1 56:0.01639344 134:0.5 408:1 
3.1266851102976906950914326444035 1:0.057692312 3:0.33333334 5:0.16666667 16:0.16666667 18:0.04285714 19:0.06666667 20:0.2 21:0.33333334 22:0.024390239 33:0.125 78:0.33333334 104:0.5 108:0.5 216:1 1183:1 
2.1679570634807077134098562964937 1:0.03846154 16:0.25 18:0.028571431 33:0.125 43:0.2 78:1 79:1 476:1 572:1 
-0.31416225109473139287530329966103 1:0.02884615 5:0.33333334 6:0.66666669 18:0.11428571 19:0.06666667 29:0.1 30:0.1 100:0.25 150:0.01333333 256:0.5 285:1 
-0.64674556556074913604703624514514 1:0.02884615 6:0.33333334 9:0.33333334 18:0.12857144 27:0.14285713 30:0.1 66:0.33333334 252:1 258:0.5 
-3.1266851102976906950914326444035 1:0.11538462 4:0.083333328 5:0.66666669 6:0.16666667 18:0.12857144 19:0.5333333 23:0.5714286 27:0.14285713 30:0.2 43:0.30000001 46:0.25 54:0.11111111 131:0.5 137:0.5 148:0.40000001 189:0.5 199:0.33333334 252:1 
3.1266851102976906950914326444035 1:0.057692312 3:0.16666667 5:0.5 18:0.057142861 19:0.2 20:0.2 21:0.33333334 22:0.01219512 65:0.33333334 108:0.5 279:0.5 1169:1 1265:1 
2.9018099391285150367991718667326 1:0.057692312 3:0.16666667 5:0.5 14:0.33333334 18:0.01428571 19:0.2 20:0.2 21:0.33333334 22:0.01219512 41:0.22222222 105:1 166:0.5 
3.1266851102976906950914326444035 1:0.04807692 7:0.2 14:0.2 17:0.2 18:0.01428571 38:0.33333334 41:0.11111111 69:0.5 84:0.25 93:0.33333334 115:0.33333334 345:0.5 901:1 
-0.58116996086342498362142805490294 1:0.13461538 3:0.21428572 5:0.21428572 14:0.35714287 18:0.01428571 19:0.2 21:0.33333334 22:0.036585368 27:0.2857143 41:0.55555558 45:1 52:0.40000001 55:0.33333334 105:1 109:0.25 166:0.5 224:0.5 
0.49394837886334996834847288482706 1:0.01923077 5:0.5 6:0.5 18:0.01428571 19:0.06666667 30:0.1 137:0.5 
-3.1266851102976906950914326444035 1:0.01923077 6:0.5 18:0.04285714 29:0.1 78:0.33333334 201:0.5 
3.1266851102976906950914326444035 1:0.01923077 6:0.5 9:0.5 18:0.18571429 29:0.1 75:0.25 698:0.5 
-3.1266851102976906950914326444035 1:0.11538462 3:0.083333328 5:0.41666666 14:0.083333328 18:0.057142861 19:0.33333334 20:0.2 22:0.01219512 23:0.14285713 27:0.2857143 41:0.11111111 61:0.25 62:0.5 77:0.5 78:0.33333334 81:1 82:0.5 96:0.33333334 128:1 150:0.01333333 166:0.5 216:1 271:1 1450:1 
3.1266851102976906950914326444035 1:0.01923077 5:0.5 6:0.5 18:0.04285714 19:0.06666667 30:0.1 137:0.5 
3.1266851102976906950914326444035 1:0.057692312 3:0.5 5:0.16666667 14:0.16666667 18:0.04285714 19:0.06666667 20:0.2 22:0.036585368 27:0.14285713 41:0.11111111 44:0.01538462 45:0.5 52:0.2 55:0.16666667 
-1.8213380604899305215127469637082 1:0.02884615 6:0.33333334 16:0.33333334 18:0.028571431 29:0.1 32:0.25 33:0.125 389:0.5 1437:1 
-3.1266851102976906950914326444035 1:0.04807692 3:0.2 5:0.40000001 18:0.21428572 19:0.13333333 22:0.01219512 23:0.14285713 77:0.5 78:0.33333334 216:1 
-3.1266851102976906950914326444035 1:0.04807692 5:0.2 6:0.2 14:0.2 18:0.01428571 19:0.06666667 27:0.14285713 29:0.1 41:0.11111111 45:0.5 96:0.33333334 105:0.5 387:0.5 697:0.5 
3.1266851102976906950914326444035 1:0.03846154 5:0.75 18:0.028571431 19:0.2 23:0.2857143 708:1 1709:1 
3.1266851102976906950914326444035 1:0.067307688 3:0.14285713 5:0.42857143 6:0.14285713 18:0.04285714 19:0.2 22:0.01219512 23:0.2857143 29:0.1 134:0.5 150:0.01333333 285:1 501:0.33333334 530:0.5 625:0.14285713 661:1 
2.8727668801388475117164489347488 1:0.067307688 5:0.71428573 18:0.01428571 19:0.33333334 23:0.2857143 43:0.2 61:0.25 80:0.5 96:0.33333334 97:0.5 112:0.5 148:0.2 189:0.33333334 
0.42851585122648927494992676656693 1:0.067307688 5:0.71428573 6:0.14285713 9:0.14285713 18:0.01428571 19:0.33333334 23:0.42857143 29:0.1 150:0.01333333 256:0.5 259:0.33333334 260:1 285:1 1153:1 
-3.1266851102976906950914326444035 1:0.057692312 3:0.16666667 5:0.66666669 18:0.085714288 19:0.26666668 21:0.33333334 22:0.01219512 23:0.42857143 501:0.33333334 661:1 
3.1266851102976906950914326444035 1:0.057692312 4:0.16666667 6:0.16666667 7:0.33333334 18:0.1 27:0.14285713 30:0.1 54:0.11111111 115:0.33333334 252:1 298:1 322:0.5 790:0.5 871:0.5 1357:0.5 1710:1 
-3.1266851102976906950914326444035 1:0.096153848 3:0.1 5:0.60000002 6:0.1 18:0.18571429 19:0.40000001 20:0.2 22:0.01219512 23:0.14285713 29:0.1 43:0.2 61:0.25 80:0.5 96:0.33333334 97:0.5 112:0.5 134:0.5 148:0.2 150:0.01333333 162:0.5 189:0.33333334 247:0.5 256:0.5 
-3.1266851102976906950914326444035 1:0.0096153803 18:0.04285714 83:0.25 
2.1899611224102235595978527271654 1:0.096153848 3:0.1 5:0.40000001 6:0.1 18:0.17142858 19:0.26666668 21:0.33333334 22:0.01219512 23:0.14285713 30:0.1 43:0.1 56:0.01639344 65:0.33333334 108:0.5 137:0.5 148:0.2 251:1 325:1 328:1 408:1 485:1 996:1 997:1 998:1 999:1 
-3.1266851102976906950914326444035 1:0.03846154 5:0.25 6:0.25 7:0.25 18:0.071428567 19:0.06666667 30:0.1 96:0.33333334 97:0.5 137:0.5 322:0.25 1710:1 
-3.1266851102976906950914326444035 1:0.01923077 5:0.5 18:0.12857144 19:0.06666667 233:0.33333334 375:1 
-3.1266851102976906950914326444035 1:0.03846154 5:0.25 14:0.25 17:0.25 18:0.028571431 19:0.06666667 41:0.11111111 61:0.25 80:0.5 84:0.25 88:0.5 93:0.33333334 
3.1266851102976906950914326444035 1:0.096153848 3:0.1 4:0.1 5:0.2 14:0.2 18:0.04285714 19:0.13333333 22:0.01219512 27:0.2857143 41:0.22222222 45:0.5 46:0.25 52:0.2 54:0.11111111 61:0.25 81:0.5 82:0.5 122:0.5 166:0.5 501:0.33333334 661:1 1235:1 
3.1266851102976906950914326444035 1:0.04807692 5:0.60000002 18:0.028571431 19:0.2 23:0.14285713 27:0.14285713 61:0.25 62:0.5 80:0.5 82:0.5 
-1.4241581084555030578542300645495 1:0.16346154 3:0.70588237 4:0.05882353 6:0.11764706 18:0.11428571 22:0.14634146 29:0.1 30:0.1 44:0.12307692 47:0.2 48:0.16666667 54:0.11111111 61:0.25 136:0.5 162:0.5 210:0.33333334 233:0.33333334 377:0.5 492:0.5 940:0.5 
-3.1266851102976906950914326444035 1:0.0096153803 14:1 18:0.028571431 41:0.11111111 
3.1266851102976906950914326444035 1:0.0096153803 6:1 18:0.028571431 30:0.1 
-3.1266851102976906950914326444035 1:0.17307691 3:0.33333334 5:0.27777779 6:0.05555556 7:0.11111111 14:0.05555556 18:0.01428571 19:0.33333334 20:0.60000002 21:0.66666669 22:0.073170729 27:0.14285713 29:0.1 38:0.33333334 41:0.11111111 44:0.01538462 53:0.14285713 55:0.16666667 77:0.5 78:0.33333334 109:0.25 134:0.5 150:0.01333333 181:0.16666667 216:1 233:0.33333334 256:0.5 266:1 285:1 377:0.5 504:1 
0.75094801549006573448963308692328 1:0.04807692 5:0.60000002 14:0.2 18:0.028571431 19:0.2 23:0.2857143 41:0.11111111 166:0.5 418:0.25 754:1 1032:1 
-3.1266851102976906950914326444035 1:0.01923077 5:0.5 14:0.5 18:0.15714286 19:0.06666667 41:0.11111111 105:0.5 
3.1266851102976906950914326444035 1:0.086538456 5:0.8888889 6:0.11111111 18:0.01428571 19:0.5333333 23:0.71428573 29:0.1 43:0.1 134:0.5 148:0.2 150:0.01333333 189:0.16666667 247:0.5 256:0.5 
3.1266851102976906950914326444035 1:0.067307688 3:0.14285713 5:0.42857143 6:0.2857143 18:0.01428571 19:0.2 20:0.2 21:0.33333334 22:0.01219512 30:0.2 43:0.1 61:0.25 80:0.5 137:0.5 189:0.16666667 199:0.33333334 227:0.5 
3.1266851102976906950914326444035 1:0.02884615 5:0.33333334 6:0.33333334 18:0.01428571 19:0.06666667 30:0.1 96:0.33333334 97:0.5 137:0.5 
-3.1266851102976906950914326444035 1:0.01923077 5:0.5 6:0.5 18:0.028571431 19:0.06666667 30:0.1 137:0.5 
-3.1266851102976906950914326444035 1:0.01923077 5:0.5 6:0.5 18:0.04285714 19:0.06666667 29:0.1 130:0.5 
-3.1266851102976906950914326444035 1:0.01923077 5:0.5 6:0.5 18:0.071428567 19:0.06666667 29:0.1 130:0.5 
3.1266851102976906950914326444035 1:0.067307688 3:0.71428573 18:0.01428571 22:0.060975611 44:0.046153851 192:1 203:0.5 890:1 1053:1 1094:1 
3.1266851102976906950914326444035 1:0.04807692 3:0.60000002 4:0.2 14:0.2 18:0.028571431 22:0.036585368 41:0.11111111 44:0.01538462 47:0.2 54:0.11111111 109:0.25 176:0.5 
3.1266851102976906950914326444035 1:0.03846154 3:0.25 6:0.25 14:0.5 18:0.028571431 22:0.01219512 30:0.1 41:0.22222222 109:0.25 150:0.01333333 224:0.5 267:0.5 271:1 
-0.60940594254045288291621318421676 1:0.125 3:0.69230771 14:0.07692308 16:0.07692308 18:0.085714288 22:0.1097561 33:0.125 41:0.11111111 43:0.1 44:0.092307687 52:0.2 61:0.25 108:0.5 109:0.25 112:0.5 150:0.01333333 174:0.25 248:1 353:1 497:0.5 1183:1 
3.1266851102976906950914326444035 1:0.02884615 5:1 18:0.12857144 19:0.2 23:0.2857143 
-3.1266851102976906950914326444035 1:0.0096153803 3:1 18:0.028571431 22:0.01219512 
3.1266851102976906950914326444035 1:0.02884615 5:0.66666669 7:0.33333334 18:0.11428571 19:0.13333333 23:0.14285713 181:0.16666667 266:1 
3.1266851102976906950914326444035 1:0.02884615 5:0.33333334 7:0.33333334 18:0.04285714 19:0.06666667 181:0.16666667 233:0.33333334 266:1 375:1 
0.53301721681386238227418061796925 1:0.04807692 5:0.60000002 18:0.04285714 19:0.2 23:0.14285713 27:0.14285713 81:0.5 1032:1 1451:1 1452:1 
-0.64931515895751834577254157920834 1:0.125 3:0.69230771 4:0.07692308 18:0.14285713 22:0.1097561 27:0.14285713 42:0.11111111 43:0.1 44:0.07692308 47:0.2 51:0.125 53:0.14285713 54:0.11111111 55:0.16666667 192:1 890:1 1094:1 1301:1 
-3.1266851102976906950914326444035 1:0.03846154 3:0.5 5:0.25 12:0.25 18:0.11428571 19:0.06666667 20:0.2 22:0.024390239 44:0.01538462 85:0.25 89:0.5 
3.1266851102976906950914326444035 1:0.04807692 5:0.40000001 6:0.60000002 18:0.01428571 19:0.13333333 23:0.14285713 29:0.30000001 31:0.5 130:0.5 
3.1266851102976906950914326444035 1:0.01923077 5:0.5 6:0.5 18:0.057142861 19:0.06666667 29:0.1 130:0.5 
3.1266851102976906950914326444035 1:0.03846154 3:0.25 5:0.25 6:0.25 18:0.057142861 19:0.06666667 20:0.2 22:0.01219512 29:0.1 78:0.33333334 201:0.5 216:1 
-3.1266851102976906950914326444035 1:0.01923077 5:1 18:0.028571431 19:0.13333333 23:0.14285713 
3.1266851102976906950914326444035 1:0.04807692 3:0.40000001 4:0.40000001 18:0.028571431 22:0.024390239 47:0.2 48:0.33333334 54:0.22222222 192:0.5 890:1 
-1.2613511312249598983470377788763 1:0.07692308 6:0.375 16:0.25 18:0.028571431 28:0.25 29:0.30000001 33:0.25 43:0.2 61:0.25 78:0.66666669 112:0.5 200:0.5 201:1 424:0.5 476:0.5 539:0.33333334 
3.1266851102976906950914326444035 1:0.096153848 3:0.69999999 5:0.1 18:0.028571431 19:0.06666667 20:0.2 22:0.085365847 27:0.2857143 44:0.061538462 53:0.2857143 55:0.33333334 
1.7059197653173141517868316441309 1:0.057692312 3:0.16666667 5:0.33333334 6:0.16666667 18:0.01428571 19:0.13333333 21:0.33333334 22:0.01219512 29:0.1 115:0.33333334 134:0.5 150:0.01333333 233:0.33333334 285:1 301:0.33333334 507:1 1681:1 
-3.1266851102976906950914326444035 1:0.01923077 5:0.5 18:0.057142861 19:0.06666667 142:0.25 146:0.5 
1.6670396261949607108476811845321 1:0.086538456 3:0.11111111 5:0.22222222 6:0.33333334 14:0.11111111 18:0.01428571 19:0.13333333 22:0.01219512 26:0.5 29:0.2 30:0.1 31:0.25 41:0.11111111 43:0.2 61:0.25 80:0.5 112:0.5 148:0.2 160:1 162:0.5 189:0.16666667 200:0.25 210:0.33333334 418:0.25 430:1 754:1 
2.4320266230444573807289998512715 1:0.096153848 3:0.1 4:0.30000001 5:0.30000001 6:0.1 18:0.057142861 19:0.2 20:0.2 22:0.01219512 29:0.1 43:0.2 47:0.2 54:0.33333334 60:0.33333334 61:0.25 96:0.33333334 97:0.5 112:0.5 119:0.25 131:1 189:0.16666667 200:0.25 464:1 
3.1266851102976906950914326444035 1:0.04807692 3:0.2 5:0.2 6:0.2 18:0.01428571 19:0.06666667 20:0.2 22:0.01219512 27:0.14285713 29:0.1 107:1 108:0.5 134:0.5 728:1 
-3.1266851102976906950914326444035 1:0.02884615 5:1 18:0.071428567 19:0.2 23:0.2857143 
3.1266851102976906950914326444035 1:0.02884615 3:1 18:0.04285714 22:0.036585368 44:0.030769231 
3.1266851102976906950914326444035 1:0.04807692 3:1 18:0.028571431 22:0.060975611 44:0.061538462 
-3.1266851102976906950914326444035 1:0.096153848 3:0.1 5:0.40000001 14:0.2 18:0.01428571 19:0.26666668 21:0.33333334 22:0.01219512 23:0.14285713 27:0.2857143 41:0.22222222 45:0.5 55:0.16666667 62:0.5 81:0.5 96:0.33333334 105:0.5 150:0.01333333 256:0.5 271:1 329:1 
-3.1266851102976906950914326444035 1:0.067307688 5:0.5714286 14:0.14285713 18:0.085714288 19:0.26666668 23:0.2857143 41:0.11111111 61:0.25 82:0.5 96:0.33333334 97:0.5 122:0.5 166:0.5 
-3.1266851102976906950914326444035 1:0.086538456 5:0.55555558 6:0.11111111 18:0.04285714 19:0.33333334 23:0.2857143 29:0.1 61:0.25 80:0.5 82:0.5 96:0.33333334 97:0.5 130:0.5 134:0.5 150:0.01333333 247:0.5 
3.1266851102976906950914326444035 1:0.04807692 4:0.2 7:0.2 18:0.028571431 27:0.14285713 46:0.25 54:0.11111111 65:0.33333334 108:0.5 181:0.16666667 292:0.5 368:1 1897:1 
1.9514639908485675867666486738017 1:0.03846154 5:0.25 6:0.25 16:0.25 18:0.028571431 19:0.06666667 30:0.1 33:0.125 65:0.33333334 137:0.5 150:0.01333333 760:1 1560:1 1561:1 
3.1266851102976906950914326444035 1:0.02884615 5:0.33333334 18:0.028571431 19:0.06666667 43:0.1 61:0.25 96:0.33333334 112:0.5 128:1 189:0.16666667 
-3.1266851102976906950914326444035 1:0.0096153803 3:1 18:0.028571431 22:0.01219512 
0.73619445510449244007844527004636 1:0.067307688 3:0.14285713 5:0.5714286 14:0.14285713 18:0.01428571 19:0.26666668 21:0.33333334 22:0.01219512 23:0.2857143 41:0.11111111 61:0.25 82:0.5 109:0.25 122:0.5 
-3.1266851102976906950914326444035 1:0.0096153803 3:1 18:0.028571431 22:0.01219512 
-3.1266851102976906950914326444035 1:0.0096153803 3:1 18:0.04285714 22:0.01219512 
0.99625306980932704092879248491954 1:0.057692312 3:0.16666667 5:0.66666669 14:0.16666667 18:0.01428571 19:0.26666668 22:0.01219512 23:0.2857143 41:0.11111111 105:0.5 109:0.25 150:0.01333333 247:0.5 256:0.5 
2.7764362560255526624075628205901 1:0.02884615 5:0.33333334 18:0.04285714 19:0.06666667 27:0.14285713 77:0.5 78:0.33333334 264:0.5 
-3.1266851102976906950914326444035 1:0.01923077 4:0.5 6:0.5 18:0.057142861 30:0.1 54:0.11111111 150:0.01333333 267:0.5 354:1 
-3.1266851102976906950914326444035 1:0.10576923 3:0.81818181 5:0.090909094 18:0.12857144 19:0.06666667 20:0.2 22:0.1097561 44:0.12307692 192:0.5 890:1 
1.32099313265019957519541549118 1:0.057692312 5:0.5 18:0.01428571 19:0.2 27:0.14285713 61:0.25 62:0.5 80:0.5 81:0.5 82:0.5 96:0.33333334 97:0.5 
3.1266851102976906950914326444035 1:0.057692312 5:0.5 14:0.5 18:0.04285714 19:0.2 23:0.14285713 41:0.33333334 105:0.5 166:1 224:0.5 
-3.1266851102976906950914326444035 1:0.04807692 5:0.60000002 14:0.2 18:0.04285714 19:0.2 23:0.14285713 41:0.11111111 61:0.25 80:0.5 82:0.5 166:0.5 
1.9038691683145969602009017762612 1:0.04807692 3:0.2 4:0.2 5:0.2 6:0.2 18:0.01428571 19:0.06666667 20:0.2 22:0.01219512 29:0.1 54:0.11111111 78:0.33333334 150:0.01333333 162:0.5 354:1 586:1 1332:1 
3.1266851102976906950914326444035 1:0.0096153803 3:1 18:0.04285714 22:0.01219512 
-3.1266851102976906950914326444035 1:0.057692312 3:0.66666669 5:0.33333334 18:0.17142858 19:0.13333333 20:0.40000001 21:0.33333334 22:0.04878049 44:0.030769231 
1.226149954839603539724635083985 1:0.07692308 3:0.375 4:0.125 5:0.25 6:0.125 18:0.01428571 19:0.13333333 20:0.2 21:0.33333334 22:0.036585368 27:0.14285713 29:0.1 48:0.16666667 54:0.11111111 55:0.16666667 81:0.5 150:0.01333333 162:0.5 354:1 586:1 
-3.1266851102976906950914326444035 1:0.10576923 3:0.36363637 5:0.36363637 6:0.090909094 18:0.01428571 19:0.26666668 20:0.2 22:0.04878049 23:0.14285713 27:0.2857143 30:0.1 44:0.030769231 53:0.14285713 62:1 81:0.5 136:0.5 210:0.33333334 
-3.1266851102976906950914326444035 1:0.10576923 3:0.18181819 5:0.36363637 14:0.18181819 18:0.028571431 19:0.26666668 21:0.33333334 22:0.024390239 23:0.14285713 27:0.2857143 41:0.22222222 55:0.16666667 62:0.5 81:1 109:0.25 166:0.5 625:0.14285713 798:1 
3.1266851102976906950914326444035 1:0.04807692 3:0.40000001 5:0.60000002 18:0.071428567 19:0.2 20:0.40000001 21:0.33333334 22:0.024390239 23:0.14285713 
3.1266851102976906950914326444035 1:0.04807692 3:0.2 5:0.2 14:0.2 18:0.01428571 19:0.06666667 20:0.2 22:0.01219512 41:0.11111111 52:0.2 96:0.33333334 108:0.5 329:1 598:1 
3.1266851102976906950914326444035 1:0.01923077 14:0.5 18:0.01428571 41:0.11111111 96:0.33333334 329:1 
3.1266851102976906950914326444035 1:0.03846154 3:0.5 4:0.25 18:0.04285714 22:0.024390239 42:0.11111111 43:0.1 44:0.01538462 54:0.11111111 61:0.25 119:0.25 174:0.25 
-3.1266851102976906950914326444035 1:0.0096153803 3:1 18:0.04285714 22:0.01219512 
-0.089754237827834371099555710316054 1:0.01923077 16:0.5 18:0.057142861 33:0.125 1251:1 1252:1 
-3.1266851102976906950914326444035 1:0.02884615 5:0.66666669 18:0.057142861 19:0.13333333 23:0.14285713 69:0.5 669:0.5 
-3.1266851102976906950914326444035 1:0.02884615 5:0.33333334 18:0.17142858 19:0.06666667 61:0.25 80:0.5 96:0.33333334 97:0.5 
-3.1266851102976906950914326444035 1:0.04807692 3:0.60000002 5:0.2 18:0.14285713 19:0.06666667 20:0.2 21:0.33333334 22:0.036585368 44:0.01538462 
-3.1266851102976906950914326444035 1:0.03846154 5:0.5 7:0.25 18:0.057142861 19:0.13333333 27:0.14285713 62:0.5 81:0.5 322:0.25 1247:0.33333334 
3.1266851102976906950914326444035 1:0.04807692 3:0.2 5:0.2 6:0.40000001 18:0.057142861 19:0.06666667 20:0.2 22:0.01219512 30:0.2 61:0.25 136:0.5 217:0.5 227:0.5 
-3.1266851102976906950914326444035 1:0.02884615 5:1 18:0.071428567 19:0.2 23:0.2857143 
-3.1266851102976906950914326444035 1:0.057692312 5:0.83333331 18:0.057142861 19:0.33333334 23:0.5714286 501:0.33333334 587:1 
3.1266851102976906950914326444035 1:0.067307688 3:0.14285713 5:0.14285713 6:0.2857143 14:0.14285713 18:0.028571431 19:0.06666667 22:0.01219512 27:0.14285713 29:0.2 31:0.25 41:0.11111111 45:0.5 55:0.16666667 609:0.5 899:0.5 1697:1 1698:1 
3.1266851102976906950914326444035 1:0.02884615 7:0.33333334 14:0.33333334 17:0.33333334 18:0.028571431 41:0.11111111 84:0.25 93:0.33333334 181:0.16666667 1139:1 
3.1266851102976906950914326444035 1:0.067307688 3:0.2857143 4:0.14285713 5:0.2857143 6:0.14285713 18:0.01428571 19:0.13333333 20:0.2 21:0.33333334 22:0.024390239 27:0.14285713 30:0.1 47:0.2 54:0.11111111 55:0.16666667 81:0.5 405:0.33333334 
-3.1266851102976906950914326444035 1:0.02884615 5:1 18:0.085714288 19:0.2 23:0.2857143 
-3.1266851102976906950914326444035 1:0.02884615 3:0.33333334 5:0.66666669 18:0.01428571 19:0.13333333 20:0.2 22:0.01219512 23:0.14285713 
3.1266851102976906950914326444035 1:0.057692312 3:0.66666669 6:0.16666667 18:0.04285714 22:0.04878049 30:0.1 43:0.1 44:0.030769231 51:0.125 196:0.25 388:0.5 389:0.5 508:1 
3.1266851102976906950914326444035 1:0.01923077 6:0.5 17:0.5 18:0.01428571 30:0.1 731:1 
3.1266851102976906950914326444035 1:0.01923077 5:0.5 6:0.5 18:0.028571431 19:0.06666667 30:0.1 137:0.5 
3.1266851102976906950914326444035 1:0.03846154 5:1 18:0.085714288 19:0.26666668 23:0.42857143 
-3.1266851102976906950914326444035 1:0.01923077 6:0.5 14:0.5 18:0.12857144 30:0.1 41:0.11111111 380:1 
-0.83699250396450919353696917823981 1:0.057692312 3:0.33333334 5:0.33333334 18:0.24285714 19:0.13333333 20:0.2 22:0.024390239 26:0.5 42:0.22222222 43:0.2 61:0.25 80:0.5 112:0.5 148:0.2 214:0.5 
3.1266851102976906950914326444035 1:0.03846154 5:0.25 6:0.25 18:0.04285714 19:0.06666667 27:0.14285713 30:0.1 81:0.5 96:0.33333334 137:0.5 845:1 
-3.1266851102976906950914326444035 1:0.057692312 5:0.83333331 18:0.1 19:0.33333334 23:0.42857143 501:0.33333334 530:0.5 587:1 
-1.4053979761325854358489095830009 1:0.10576923 3:0.090909094 5:0.36363637 7:0.27272728 14:0.090909094 17:0.090909094 18:0.01428571 19:0.26666668 22:0.01219512 23:0.14285713 38:0.33333334 41:0.11111111 43:0.30000001 124:0.16666667 148:0.2 150:0.01333333 181:0.33333334 188:0.5 189:0.16666667 221:0.40000001 244:0.33333334 247:0.5 256:0.5 266:1 569:1 1138:1 1139:1 
-3.1266851102976906950914326444035 1:0.0096153803 4:1 18:0.028571431 54:0.11111111 
2.7217885092405498248524509108393 1:0.03846154 5:0.25 6:0.25 14:0.25 18:0.028571431 19:0.06666667 30:0.1 41:0.11111111 78:0.33333334 166:0.5 198:1 380:1 
3.1266851102976906950914326444035 1:0.02884615 6:0.66666669 14:0.33333334 18:0.01428571 30:0.2 41:0.11111111 99:0.125 380:1 
3.1266851102976906950914326444035 1:0.02884615 5:0.66666669 18:0.14285713 19:0.13333333 23:0.14285713 96:0.33333334 97:0.5 
-0.35369281784675188351485530802165 1:0.04807692 5:0.40000001 11:0.2 18:0.11428571 19:0.13333333 23:0.14285713 43:0.2 66:0.33333334 73:1 154:0.5 156:0.5 189:0.16666667 385:0.5 
3.1266851102976906950914326444035 1:0.057692312 5:0.66666669 18:0.01428571 19:0.26666668 43:0.2 61:0.25 80:0.5 112:0.5 148:0.2 150:0.01333333 189:0.33333334 247:0.5 256:0.5 501:0.33333334 587:1 
3.1266851102976906950914326444035 1:0.02884615 5:0.66666669 18:0.04285714 19:0.13333333 501:0.33333334 530:0.5 587:1 
0.60147001034474545377861431916244 1:0.086538456 5:0.77777779 7:0.11111111 16:0.11111111 18:0.01428571 19:0.46666667 23:0.71428573 33:0.125 38:0.33333334 138:1 187:1 1527:0.5 
-3.1266851102976906950914326444035 1:0.01923077 6:0.5 18:0.04285714 30:0.1 78:0.33333334 198:1 
3.1266851102976906950914326444035 1:0.0096153803 4:1 18:0.071428567 54:0.11111111 
3.1266851102976906950914326444035 1:0.0096153803 4:1 18:0.028571431 54:0.11111111 
3.1266851102976906950914326444035 1:0.067307688 2:0.28571427 3:0.5714286 4:0.14285713 5:0.14285713 18:0.01428571 19:0.06666667 22:0.04878049 40:0.33333334 44:0.046153851 54:0.11111111 296:0.5 407:1 1073:1 
3.1266851102976906950914326444035 1:0.04807692 5:0.2 6:0.2 18:0.028571431 19:0.06666667 30:0.1 66:0.33333334 78:0.33333334 149:1 198:1 2036:1 
-3.1266851102976906950914326444035 1:0.0096153803 4:1 18:0.057142861 54:0.11111111 
-0.12026249519383717945242295854769 1:0.10576923 3:0.36363637 4:0.090909094 5:0.27272728 7:0.090909094 14:0.090909094 16:0.090909094 18:0.057142861 19:0.2 21:0.33333334 22:0.04878049 33:0.125 41:0.11111111 43:0.1 44:0.030769231 48:0.16666667 54:0.11111111 105:0.5 119:0.25 166:0.5 190:1 356:0.33333334 357:0.125 454:1 823:1 
3.1266851102976906950914326444035 1:0.0096153803 6:1 18:0.01428571 30:0.1 
3.1266851102976906950914326444035 1:0.0096153803 6:1 18:0.01428571 30:0.1 1527:1 
-0.22219698143991664651686335218983 1:0.04807692 5:0.60000002 18:0.04285714 19:0.2 23:0.14285713 61:0.25 80:0.5 82:0.5 314:1 315:1 
-0.16589744293806699126925252585352 1:0.02884615 6:0.33333334 16:0.66666669 18:0.028571431 30:0.1 33:0.25 35:0.25 539:0.33333334 
-0.30914659576397945928150079453189 1:0.13461538 3:0.35714287 4:0.35714287 5:0.14285713 6:0.071428567 18:0.11428571 19:0.13333333 20:0.2 22:0.060975611 29:0.1 42:0.11111111 43:0.2 44:0.01538462 48:0.33333334 54:0.55555558 56:0.01639344 57:0.2 58:0.2 60:0.33333334 61:0.25 112:0.5 119:0.25 133:0.33333334 134:0.5 162:0.5 209:0.2 407:1 
3.1266851102976906950914326444035 1:0.03846154 5:0.25 6:0.5 18:0.071428567 19:0.06666667 29:0.1 30:0.1 61:0.25 137:0.5 217:0.5 492:0.5 
3.1266851102976906950914326444035 1:0.067307688 3:0.14285713 5:0.42857143 6:0.42857143 18:0.04285714 19:0.2 21:0.33333334 22:0.01219512 23:0.14285713 29:0.2 30:0.1 100:0.25 130:0.5 137:0.5 287:0.33333334 
-3.1266851102976906950914326444035 1:0.04807692 5:0.2 6:0.60000002 18:0.04285714 19:0.06666667 30:0.30000001 61:0.25 99:0.125 137:0.5 217:0.5 227:0.5 
3.1266851102976906950914326444035 1:0.03846154 3:0.5 4:0.25 5:0.25 18:0.01428571 19:0.06666667 22:0.024390239 44:0.01538462 48:0.16666667 54:0.11111111 407:1 
3.1266851102976906950914326444035 1:0.03846154 3:1 18:0.028571431 22:0.04878049 44:0.046153851 
-3.1266851102976906950914326444035 1:0.01923077 5:0.5 6:0.5 18:0.04285714 19:0.06666667 29:0.1 134:0.5 
-3.1266851102976906950914326444035 1:0.03846154 5:0.75 14:0.25 18:0.04285714 19:0.2 23:0.14285713 41:0.11111111 105:0.5 166:0.5 
-3.1266851102976906950914326444035 1:0.03846154 5:0.75 18:0.04285714 19:0.2 23:0.14285713 61:0.25 80:0.5 82:0.5 
3.1266851102976906950914326444035 1:0.03846154 5:0.25 6:0.25 18:0.028571431 19:0.06666667 27:0.14285713 30:0.1 78:0.33333334 81:0.5 198:1 264:0.5 
-3.1266851102976906950914326444035 1:0.02884615 3:0.33333334 5:0.33333334 6:0.33333334 18:0.04285714 19:0.06666667 21:0.33333334 22:0.01219512 29:0.1 287:0.33333334 
-3.1266851102976906950914326444035 1:0.067307688 3:0.2857143 5:0.5714286 18:0.028571431 19:0.26666668 20:0.2 21:0.66666669 22:0.024390239 23:0.2857143 
-3.1266851102976906950914326444035 1:0.11538462 3:0.41666666 5:0.41666666 14:0.083333328 18:0.01428571 19:0.33333334 20:0.40000001 21:0.66666669 22:0.060975611 23:0.14285713 41:0.11111111 44:0.046153851 96:0.33333334 97:0.5 105:0.5 166:0.5 
3.1266851102976906950914326444035 1:0.01923077 5:0.5 18:0.028571431 19:0.06666667 170:1 172:0.5 
3.1266851102976906950914326444035 1:0.057692312 3:0.16666667 5:0.16666667 6:0.16666667 14:0.16666667 18:0.028571431 19:0.06666667 22:0.01219512 30:0.1 41:0.11111111 61:0.25 78:0.33333334 122:0.5 166:0.5 198:1 216:1 227:0.5 
3.1266851102976906950914326444035 1:0.03846154 3:0.25 14:0.25 18:0.01428571 22:0.01219512 41:0.11111111 78:0.33333334 109:0.25 952:0.125 972:1 1758:1 1759:1 
-0.65287266226010565173254462933983 1:0.02884615 6:0.66666669 18:0.028571431 29:0.1 30:0.1 100:0.25 952:0.125 1758:1 1759:1 1893:1 
3.1266851102976906950914326444035 1:0.057692312 3:0.16666667 5:0.83333331 18:0.12857144 19:0.33333334 20:0.2 21:0.33333334 22:0.01219512 23:0.42857143 
-3.1266851102976906950914326444035 1:0.01923077 6:0.5 18:0.04285714 30:0.1 78:0.33333334 198:1 
-3.1266851102976906950914326444035 1:0.03846154 5:0.5 16:0.25 18:0.028571431 19:0.13333333 27:0.14285713 33:0.125 62:0.5 81:0.5 454:1 
0.72138468619977891282957216390059 1:0.057692312 5:0.5 14:0.16666667 18:0.01428571 19:0.2 27:0.14285713 41:0.11111111 61:0.25 62:0.5 81:0.5 82:0.5 122:0.5 166:0.5 
-3.1266851102976906950914326444035 1:0.03846154 5:1 18:0.21428572 19:0.26666668 23:0.14285713 43:0.1 148:0.2 150:0.01333333 189:0.16666667 247:0.5 256:0.5 
-2.8918588326988441394860274158418 1:0.067307688 3:0.5714286 5:0.14285713 14:0.14285713 18:0.057142861 19:0.06666667 20:0.2 22:0.04878049 41:0.11111111 44:0.046153851 78:0.33333334 202:1 203:0.5 204:1 216:1 
-1.6396280397477913659542991808848 1:0.02884615 5:0.33333334 18:0.057142861 19:0.06666667 27:0.14285713 62:0.5 142:0.25 257:0.5 
-3.1266851102976906950914326444035 1:0.057692312 3:0.33333334 5:0.33333334 6:0.16666667 18:0.12857144 19:0.13333333 20:0.2 22:0.024390239 30:0.1 44:0.01538462 78:0.33333334 137:0.5 198:1 359:1 
3.1266851102976906950914326444035 1:0.067307688 3:0.14285713 4:0.14285713 5:0.42857143 14:0.14285713 18:0.04285714 19:0.2 22:0.01219512 41:0.11111111 47:0.2 54:0.11111111 61:0.25 80:0.5 82:0.5 105:0.5 109:0.25 131:0.5 
3.1266851102976906950914326444035 1:0.057692312 3:0.16666667 5:0.5 6:0.16666667 18:0.11428571 19:0.2 22:0.01219512 23:0.14285713 29:0.1 61:0.25 82:0.5 134:0.5 162:0.5 174:0.25 
3.1266851102976906950914326444035 1:0.01923077 3:0.5 6:0.5 18:0.057142861 22:0.01219512 30:0.1 136:0.5 
-3.1266851102976906950914326444035 1:0.04807692 5:0.60000002 14:0.2 18:0.04285714 19:0.2 23:0.2857143 41:0.11111111 61:0.25 82:0.5 122:0.5 
-3.1266851102976906950914326444035 1:0.057692312 3:0.16666667 5:0.5 18:0.057142861 19:0.2 21:0.33333334 22:0.01219512 23:0.14285713 61:0.25 80:0.5 82:0.5 501:0.33333334 661:1 
3.1266851102976906950914326444035 1:0.03846154 5:0.5 16:0.25 18:0.028571431 19:0.13333333 27:0.14285713 33:0.125 62:0.5 81:0.5 454:1 
3.1266851102976906950914326444035 1:0.03846154 3:0.25 5:0.25 16:0.25 18:0.028571431 19:0.06666667 22:0.01219512 33:0.125 49:0.25 192:0.5 454:1 890:1 
-0.13705314150501463066333940332697 1:0.02884615 5:0.33333334 14:0.33333334 17:0.33333334 18:0.071428567 19:0.06666667 41:0.11111111 84:0.25 88:0.5 93:0.33333334 
-3.1266851102976906950914326444035 1:0.02884615 4:0.33333334 5:0.33333334 6:0.33333334 18:0.057142861 19:0.06666667 30:0.1 54:0.11111111 131:0.5 135:0.33333334 
3.1266851102976906950914326444035 1:0.067307688 3:0.14285713 5:0.42857143 6:0.2857143 18:0.028571431 19:0.2 21:0.33333334 22:0.01219512 23:0.14285713 29:0.1 30:0.1 134:0.5 150:0.01333333 267:0.5 285:1 501:0.33333334 530:0.5 661:1 
-3.1266851102976906950914326444035 1:0.01923077 5:0.5 18:0.01428571 19:0.06666667 170:1 172:0.5 
-3.1266851102976906950914326444035 1:0.04807692 3:0.60000002 5:0.2 18:0.057142861 19:0.06666667 22:0.036585368 27:0.14285713 44:0.030769231 55:0.16666667 81:0.5 
-3.1266851102976906950914326444035 1:0.02884615 5:0.33333334 18:0.01428571 19:0.06666667 27:0.14285713 81:0.5 282:0.33333334 606:1 
0.19600363371219414743151787661191 1:0.04807692 5:0.60000002 6:0.2 18:0.01428571 19:0.2 23:0.2857143 30:0.1 78:0.33333334 198:1 359:1 
3.1266851102976906950914326444035 1:0.057692312 3:0.16666667 5:0.5 6:0.16666667 18:0.01428571 19:0.2 21:0.33333334 22:0.01219512 23:0.14285713 29:0.1 130:0.5 501:0.33333334 661:1 1815:1 
1.9721664246417700550040308371536 1:0.04807692 3:0.40000001 5:0.40000001 18:0.028571431 19:0.13333333 21:0.66666669 22:0.024390239 78:0.33333334 359:1 477:0.5 
3.1266851102976906950914326444035 1:0.067307688 3:0.71428573 18:0.028571431 22:0.060975611 27:0.2857143 44:0.046153851 53:0.14285713 55:0.33333334 
-3.1266851102976906950914326444035 1:0.10576923 5:0.72727275 6:0.090909094 18:0.22857143 19:0.5333333 23:0.2857143 29:0.1 43:0.2 61:0.25 77:0.5 78:0.33333334 80:0.5 82:0.5 130:0.5 148:0.40000001 150:0.01333333 189:0.16666667 200:0.25 247:0.5 256:0.5 359:1 
-1.1932310055085681987918633240042 1:0.125 3:0.46153846 4:0.07692308 5:0.07692308 6:0.07692308 14:0.07692308 18:0.11428571 19:0.06666667 22:0.073170729 30:0.1 41:0.11111111 44:0.061538462 47:0.2 52:0.2 54:0.11111111 66:0.33333334 78:0.33333334 109:0.25 149:1 198:1 210:0.33333334 2036:1 
3.1266851102976906950914326444035 1:0.03846154 5:0.5 14:0.25 18:0.028571431 19:0.13333333 41:0.11111111 61:0.25 82:0.5 122:0.5 150:0.01333333 247:0.5 256:0.5 
-3.1266851102976906950914326444035 1:0.03846154 3:0.25 5:0.5 18:0.04285714 19:0.13333333 21:0.33333334 22:0.01219512 23:0.14285713 501:0.33333334 661:1 
3.1266851102976906950914326444035 1:0.02884615 4:0.33333334 6:0.33333334 18:0.028571431 30:0.1 54:0.11111111 61:0.25 135:0.33333334 217:0.5 
-3.1266851102976906950914326444035 1:0.10576923 3:0.090909094 5:0.45454544 6:0.090909094 14:0.18181819 18:0.01428571 19:0.33333334 20:0.2 21:0.33333334 22:0.01219512 23:0.14285713 27:0.14285713 29:0.1 41:0.22222222 43:0.1 45:0.5 62:0.5 105:0.5 150:0.01333333 166:0.5 189:0.16666667 256:0.5 285:1 609:0.5 
-2.0718031173610218509395508590387 1:0.04807692 5:0.2 6:0.40000001 18:0.057142861 19:0.06666667 30:0.2 78:0.33333334 99:0.125 108:0.5 359:1 1717:1 
3.1266851102976906950914326444035 1:0.057692312 5:0.33333334 18:0.057142861 19:0.13333333 27:0.14285713 81:0.5 96:0.33333334 97:0.5 115:0.33333334 298:1 569:1 1542:1 
1.4759743974769197194518710603006 1:0.04807692 5:0.2 6:0.2 16:0.2 18:0.028571431 19:0.06666667 30:0.1 33:0.125 77:0.5 78:0.33333334 921:1 922:0.5 1633:1 1736:1 
-3.1266851102976906950914326444035 1:0.04807692 5:0.2 6:0.60000002 18:0.028571431 19:0.06666667 29:0.1 30:0.2 61:0.25 82:0.5 99:0.125 134:0.5 217:0.5 
-3.1266851102976906950914326444035 1:0.057692312 5:0.16666667 6:0.66666669 18:0.057142861 19:0.06666667 29:0.2 30:0.2 31:0.25 61:0.25 82:0.5 99:0.125 134:0.5 217:0.5 
2.3453279242021332073875328205759 1:0.02884615 14:0.33333334 16:0.33333334 18:0.01428571 33:0.125 41:0.11111111 78:0.33333334 79:1 972:1 
3.1266851102976906950914326444035 1:0.04807692 3:0.2 5:0.2 14:0.40000001 18:0.01428571 19:0.06666667 22:0.01219512 27:0.14285713 41:0.22222222 45:0.5 52:0.2 62:0.5 109:0.25 
-0.7132319904037169866484191516065 1:0.057692312 5:0.16666667 6:0.16666667 9:0.16666667 16:0.5 18:0.028571431 19:0.06666667 28:0.25 29:0.1 33:0.375 43:0.2 75:0.25 138:1 189:0.16666667 200:0.25 235:0.40000001 481:0.5 
2.2057850723790686231495783431455 1:0.067307688 3:0.14285713 5:0.42857143 6:0.14285713 14:0.14285713 18:0.057142861 19:0.2 22:0.01219512 23:0.14285713 30:0.1 41:0.11111111 52:0.2 166:0.5 210:0.33333334 1736:1 1768:1 
-3.1266851102976906950914326444035 1:0.04807692 5:0.40000001 14:0.2 18:0.04285714 19:0.13333333 41:0.11111111 166:0.5 501:0.66666669 530:1 
-3.1266851102976906950914326444035 1:0.125 3:0.15384614 5:0.61538464 14:0.07692308 18:0.028571431 19:0.5333333 20:0.2 21:0.33333334 22:0.024390239 23:0.5714286 27:0.14285713 41:0.11111111 52:0.2 55:0.16666667 81:0.5 96:0.33333334 97:0.5 150:0.01333333 166:0.5 247:0.5 256:0.5 
-3.1266851102976906950914326444035 1:0.03846154 5:0.25 18:0.028571431 19:0.06666667 27:0.14285713 81:0.5 115:0.33333334 298:1 781:0.5 
-3.1266851102976906950914326444035 1:0.02884615 5:0.66666669 18:0.057142861 19:0.13333333 23:0.14285713 96:0.33333334 97:0.5 
3.1266851102976906950914326444035 1:0.04807692 3:0.2 5:0.2 6:0.60000002 18:0.028571431 19:0.06666667 22:0.01219512 29:0.2 30:0.1 34:0.33333334 134:0.5 251:1 287:0.33333334 
3.1266851102976906950914326444035 1:0.02884615 5:0.33333334 6:0.33333334 18:0.04285714 19:0.06666667 29:0.1 108:0.5 134:0.5 279:0.5 
3.1266851102976906950914326444035 1:0.02884615 5:0.33333334 6:0.33333334 18:0.057142861 19:0.06666667 30:0.1 61:0.25 137:0.5 217:0.5 
-2.4757698483127521527080716623459 1:0.01923077 6:1 18:0.01428571 30:0.2 99:0.125 
3.1266851102976906950914326444035 1:0.03846154 3:0.25 5:0.5 18:0.057142861 19:0.13333333 20:0.2 21:0.33333334 22:0.01219512 27:0.14285713 81:0.5 
-3.1266851102976906950914326444035 1:0.057692312 5:0.16666667 6:0.66666669 18:0.028571431 19:0.06666667 30:0.40000001 61:0.25 99:0.25 217:0.5 227:0.5 251:1 
-3.1266851102976906950914326444035 1:0.04807692 5:0.2 6:0.60000002 18:0.04285714 19:0.06666667 30:0.30000001 61:0.25 80:0.5 99:0.125 227:0.5 251:1 
3.1266851102976906950914326444035 1:0.096153848 3:0.2 4:0.1 5:0.40000001 18:0.01428571 19:0.26666668 21:0.33333334 22:0.024390239 23:0.14285713 27:0.14285713 47:0.2 54:0.11111111 55:0.16666667 61:0.25 80:0.5 81:0.5 82:0.5 501:0.33333334 530:0.5 661:1 
-3.1266851102976906950914326444035 1:0.02884615 5:0.66666669 18:0.11428571 19:0.13333333 23:0.14285713 108:0.5 279:0.5 
3.1266851102976906950914326444035 1:0.03846154 3:0.25 5:0.5 18:0.057142861 19:0.13333333 20:0.2 21:0.33333334 22:0.01219512 27:0.14285713 81:0.5 
-3.1266851102976906950914326444035 1:0.057692312 3:0.16666667 5:0.5 18:0.057142861 19:0.2 21:0.33333334 22:0.01219512 23:0.14285713 61:0.25 80:0.5 82:0.5 501:0.33333334 661:1 
-3.1266851102976906950914326444035 1:0.057692312 3:0.16666667 5:0.5 18:0.071428567 19:0.2 21:0.33333334 22:0.01219512 23:0.14285713 61:0.25 80:0.5 82:0.5 501:0.33333334 661:1 
-3.1266851102976906950914326444035 1:0.04807692 5:0.40000001 18:0.04285714 19:0.13333333 389:1 440:1 899:0.5 1352:1 1698:1 
-3.1266851102976906950914326444035 1:0.086538456 3:0.22222222 5:0.33333334 14:0.11111111 17:0.11111111 18:0.11428571 19:0.2 21:0.33333334 22:0.024390239 23:0.14285713 27:0.14285713 41:0.11111111 55:0.16666667 61:0.25 80:0.5 81:0.5 109:0.25 
3.1266851102976906950914326444035 1:0.01923077 6:0.5 18:0.028571431 30:0.1 625:0.14285713 918:1 
3.1266851102976906950914326444035 1:0.01923077 6:0.5 18:0.01428571 30:0.1 115:0.33333334 342:1 
3.1266851102976906950914326444035 1:0.01923077 5:0.5 6:0.5 18:0.028571431 19:0.06666667 30:0.1 251:1 
-3.1266851102976906950914326444035 1:0.01923077 5:0.5 6:0.5 18:0.04285714 19:0.06666667 29:0.1 134:0.5 
-3.1266851102976906950914326444035 1:0.01923077 5:0.5 6:0.5 18:0.071428567 19:0.06666667 30:0.1 251:1 
-1.0125838765486767645285226535634 1:0.03846154 5:0.25 6:0.25 7:0.25 16:0.25 18:0.085714288 19:0.06666667 30:0.1 33:0.125 38:0.33333334 138:1 251:1 592:0.5 
3.1266851102976906950914326444035 1:0.04807692 3:0.2 5:0.2 6:0.2 10:0.2 14:0.2 18:0.01428571 19:0.06666667 22:0.01219512 29:0.1 41:0.11111111 52:0.2 166:0.5 183:0.5 1611:1 1612:1 
3.1266851102976906950914326444035 1:0.03846154 5:1 18:0.071428567 19:0.26666668 23:0.42857143 
2.4627400679704845032347293454222 1:0.057692312 5:0.5 18:0.01428571 19:0.2 23:0.14285713 61:0.5 80:0.5 82:1 96:0.33333334 128:1 
-0.69561210595104583376269147265702 1:0.03846154 5:0.25 18:0.12857144 19:0.06666667 61:0.25 82:0.5 96:0.33333334 128:1 549:1 1616:1 
-1.2539357716651629015558455648716 1:0.11538462 3:0.33333334 5:0.25 6:0.083333328 18:0.1 19:0.2 21:0.33333334 22:0.04878049 23:0.2857143 27:0.14285713 29:0.1 44:0.046153851 61:0.25 96:0.33333334 124:0.16666667 128:1 243:0.5 245:0.5 387:0.5 492:0.5 640:1 989:0.5 
-0.25650728839095543465376181302418 1:0.057692312 5:0.33333334 18:0.085714288 19:0.13333333 23:0.14285713 27:0.14285713 61:0.25 65:0.33333334 68:0.5 80:0.5 316:1 472:0.5 473:0.5 
3.1266851102976906950914326444035 1:0.01923077 5:0.5 6:0.5 18:0.028571431 19:0.06666667 30:0.1 251:1 
3.1266851102976906950914326444035 1:0.02884615 3:0.33333334 5:0.33333334 6:0.33333334 18:0.04285714 19:0.06666667 21:0.33333334 22:0.01219512 30:0.1 251:1 
-3.1266851102976906950914326444035 1:0.01923077 5:0.5 6:0.5 18:0.071428567 19:0.06666667 30:0.1 251:1 
-3.1266851102976906950914326444035 1:0.01923077 5:0.5 6:0.5 18:0.04285714 19:0.06666667 29:0.1 134:0.5 
0.047336145732068346525522883894155 1:0.086538456 3:0.11111111 5:0.22222222 6:0.11111111 16:0.11111111 18:0.01428571 19:0.13333333 21:0.33333334 22:0.01219512 30:0.1 33:0.125 61:0.25 78:0.33333334 79:1 96:0.66666669 97:0.5 128:1 150:0.01333333 267:0.5 477:0.5 506:1 550:1 971:1 
-3.1266851102976906950914326444035 1:0.03846154 5:0.5 6:0.25 17:0.25 18:0.1 19:0.13333333 30:0.1 43:0.1 148:0.2 251:1 
-3.1266851102976906950914326444035 1:0.02884615 5:0.33333334 6:0.33333334 7:0.33333334 18:0.085714288 19:0.06666667 30:0.1 181:0.16666667 251:1 338:0.25 
-3.1266851102976906950914326444035 1:0.04807692 3:0.2 5:0.60000002 6:0.2 18:0.17142858 19:0.2 20:0.2 22:0.01219512 30:0.1 137:0.5 150:0.01333333 247:0.5 248:1 251:1 
0.59740982340266191030764275637921 1:0.067307688 3:0.14285713 5:0.42857143 16:0.14285713 18:0.028571431 19:0.2 20:0.2 21:0.33333334 22:0.01219512 23:0.14285713 33:0.125 61:0.25 82:0.5 96:0.33333334 128:1 138:1 
3.1266851102976906950914326444035 1:0.03846154 5:0.5 12:0.25 18:0.028571431 19:0.13333333 85:0.25 87:1 96:0.33333334 97:0.5 231:1 
3.1266851102976906950914326444035 1:0.02884615 6:0.33333334 18:0.071428567 30:0.1 96:0.33333334 1084:1 1104:0.5 
3.1266851102976906950914326444035 1:0.02884615 5:0.66666669 18:0.04285714 19:0.13333333 23:0.14285713 115:0.33333334 297:0.5 
3.1266851102976906950914326444035 1:0.01923077 5:0.5 6:0.5 18:0.028571431 19:0.06666667 30:0.1 251:1 
3.1266851102976906950914326444035 1:0.0096153803 5:1 18:0.085714288 19:0.06666667 
0.31206053004887329693772812788666 1:0.086538456 3:0.11111111 5:0.44444445 6:0.11111111 18:0.1 19:0.26666668 21:0.33333334 22:0.01219512 27:0.2857143 29:0.1 55:0.16666667 81:1 115:0.33333334 130:0.5 134:0.5 297:0.5 298:1 
-0.95971695834146764081395986067946 1:0.096153848 3:0.40000001 4:0.1 5:0.2 12:0.1 18:0.085714288 19:0.13333333 22:0.04878049 44:0.030769231 47:0.2 54:0.11111111 61:0.25 85:0.25 87:1 150:0.01333333 174:0.25 256:0.5 353:1 555:1 1735:1 1736:1 1737:1 
-3.1266851102976906950914326444035 1:0.02884615 5:0.66666669 18:0.057142861 19:0.13333333 23:0.14285713 69:0.5 669:0.5 
3.1266851102976906950914326444035 1:0.03846154 5:0.75 6:0.25 18:0.15714286 19:0.2 23:0.14285713 30:0.1 137:0.5 251:1 
3.1266851102976906950914326444035 1:0.02884615 3:0.33333334 5:0.33333334 6:0.33333334 18:0.01428571 19:0.06666667 22:0.01219512 30:0.1 210:0.33333334 251:1 
-3.1266851102976906950914326444035 1:0.0096153803 5:1 18:0.04285714 19:0.06666667 
3.1266851102976906950914326444035 1:0.057692312 5:0.33333334 6:0.16666667 14:0.33333334 18:0.04285714 19:0.13333333 27:0.14285713 29:0.1 41:0.22222222 45:0.5 62:0.5 105:0.5 166:0.5 609:0.5 
3.1266851102976906950914326444035 1:0.03846154 5:0.75 12:0.25 18:0.01428571 19:0.2 23:0.14285713 85:0.25 87:1 231:1 
1.8141976038115041891529699569219 1:0.067307688 3:0.14285713 4:0.14285713 5:0.5714286 12:0.14285713 18:0.01428571 19:0.26666668 20:0.2 22:0.01219512 23:0.14285713 47:0.2 54:0.11111111 85:0.25 87:1 131:0.5 231:1 
-2.579625249960939115112523722928 1:0.125 3:0.38461539 4:0.15384614 5:0.15384614 6:0.07692308 16:0.07692308 18:0.071428567 19:0.13333333 22:0.060975611 27:0.14285713 30:0.1 33:0.125 44:0.030769231 47:0.2 48:0.16666667 53:0.14285713 54:0.22222222 55:0.16666667 138:1 210:0.33333334 251:1 406:0.33333334 501:0.33333334 530:0.5 
-2.6164559359800731996870126749855 1:0.01923077 6:0.5 18:0.1 30:0.1 96:0.33333334 1084:1 
-3.1266851102976906950914326444035 1:0.02884615 5:0.33333334 6:0.33333334 14:0.33333334 18:0.01428571 19:0.06666667 29:0.1 41:0.11111111 130:0.5 609:0.5 
1.8740897342484621468372552044457 1:0.02884615 5:0.66666669 18:0.028571431 19:0.13333333 23:0.14285713 952:0.125 1757:1 1758:1 1759:1 
3.1266851102976906950914326444035 1:0.01923077 5:0.5 18:0.057142861 19:0.06666667 77:0.5 78:0.33333334 
3.1266851102976906950914326444035 1:0.02884615 3:0.66666669 6:0.33333334 18:0.04285714 22:0.024390239 30:0.1 44:0.01538462 136:0.5 
-3.1266851102976906950914326444035 1:0.057692312 5:0.66666669 12:0.16666667 17:0.16666667 18:0.085714288 19:0.26666668 23:0.2857143 84:0.25 85:0.25 86:1 88:0.5 231:1 
-3.1266851102976906950914326444035 1:0.02884615 5:0.66666669 18:0.04285714 19:0.13333333 23:0.14285713 108:0.5 279:0.5 
3.1266851102976906950914326444035 1:0.01923077 6:0.5 18:0.01428571 26:0.5 30:0.1 512:1 
-3.1266851102976906950914326444035 1:0.067307688 3:0.14285713 5:0.42857143 14:0.2857143 18:0.01428571 19:0.2 22:0.01219512 23:0.14285713 27:0.14285713 41:0.22222222 45:0.5 52:0.2 55:0.16666667 105:0.5 166:0.5 
-3.1256513299113088955039074789966 1:0.057692312 3:0.33333334 4:0.16666667 5:0.16666667 6:0.16666667 18:0.14285713 19:0.06666667 22:0.024390239 30:0.1 44:0.01538462 48:0.16666667 54:0.11111111 136:0.5 569:1 1542:1 1543:1 
-3.1266851102976906950914326444035 1:0.02884615 5:0.66666669 18:0.057142861 19:0.13333333 23:0.14285713 108:0.5 279:0.5 
2.0092424675674558365301436424488 1:0.057692312 5:0.33333334 6:0.16666667 18:0.028571431 19:0.13333333 25:1 26:0.5 27:0.14285713 29:0.1 130:0.5 134:0.5 438:1 439:0.5 2025:1 
3.1266851102976906950914326444035 1:0.03846154 5:0.25 6:0.5 18:0.01428571 19:0.06666667 27:0.14285713 30:0.2 81:0.5 132:0.5 137:0.5 
-2.3288171613893702271980146178976 1:0.01923077 18:0.085714288 83:0.25 952:0.125 1758:1 1759:1 
-3.1266851102976906950914326444035 1:0.02884615 5:0.33333334 12:0.33333334 16:0.33333334 18:0.028571431 19:0.06666667 33:0.125 85:0.25 231:1 842:1 
3.1266851102976906950914326444035 1:0.01923077 5:1 18:0.085714288 19:0.13333333 23:0.14285713 
-3.1266851102976906950914326444035 1:0.0096153803 18:0.04285714 115:0.33333334 
-0.51092417724366667730606650366099 1:0.04807692 5:0.2 6:0.40000001 18:0.04285714 19:0.06666667 29:0.2 130:0.5 391:0.5 438:1 439:0.5 1255:1 1817:1 
-3.1266851102976906950914326444035 1:0.02884615 5:0.33333334 6:0.33333334 18:0.04285714 19:0.06666667 30:0.1 61:0.25 82:0.5 137:0.5 
3.1266851102976906950914326444035 1:0.04807692 5:0.60000002 14:0.2 18:0.04285714 19:0.2 23:0.14285713 41:0.11111111 105:0.5 166:0.5 501:0.33333334 530:0.5 
3.1266851102976906950914326444035 1:0.03846154 5:0.75 14:0.25 18:0.1 19:0.2 23:0.2857143 41:0.11111111 166:0.5 
2.1148989440984617971253101131879 1:0.03846154 3:0.25 5:0.5 18:0.028571431 19:0.13333333 20:0.2 21:0.33333334 22:0.01219512 1080:1 
3.1266851102976906950914326444035 1:0.07692308 3:0.125 5:0.375 6:0.25 17:0.125 18:0.028571431 19:0.2 22:0.01219512 23:0.2857143 30:0.2 136:0.5 210:0.33333334 251:1 569:1 1543:1 
-3.1266851102976906950914326444035 1:0.04807692 5:0.60000002 14:0.2 18:0.057142861 19:0.2 23:0.14285713 41:0.11111111 105:0.5 166:0.5 501:0.33333334 587:1 
3.1266851102976906950914326444035 1:0.057692312 3:0.33333334 4:0.33333334 16:0.16666667 18:0.028571431 22:0.024390239 33:0.125 47:0.2 48:0.16666667 49:0.25 54:0.22222222 60:0.33333334 61:0.25 241:0.5 
-3.1266851102976906950914326444035 1:0.01923077 5:1 18:0.057142861 19:0.13333333 23:0.14285713 
2.9758794692043677443393789872061 1:0.02884615 5:0.33333334 18:0.028571431 19:0.06666667 403:1 1256:1 1468:1 1469:1 
-3.1266851102976906950914326444035 1:0.07692308 5:0.5 6:0.125 9:0.125 18:0.01428571 19:0.26666668 23:0.14285713 27:0.14285713 30:0.1 43:0.1 56:0.01639344 58:0.2 62:0.5 75:0.25 81:0.5 96:0.33333334 97:0.5 137:0.5 144:0.5 189:0.16666667 933:1 
-3.1266851102976906950914326444035 1:0.07692308 3:0.125 5:0.375 6:0.125 7:0.125 14:0.125 18:0.01428571 19:0.2 20:0.2 21:0.33333334 22:0.01219512 29:0.1 41:0.11111111 77:0.5 78:0.33333334 105:0.5 130:0.5 166:0.5 181:0.16666667 340:0.33333334 
-3.1266851102976906950914326444035 1:0.057692312 3:0.5 4:0.16666667 5:0.16666667 18:0.11428571 19:0.06666667 20:0.2 22:0.036585368 26:0.5 44:0.030769231 54:0.11111111 131:0.5 545:1 
3.1266851102976906950914326444035 1:0.04807692 3:0.2 5:0.60000002 9:0.2 18:0.11428571 19:0.2 20:0.2 21:0.33333334 22:0.01219512 75:0.25 335:1 1136:1 
3.1266851102976906950914326444035 1:0.0096153803 18:0.085714288 27:0.14285713 
-1.1220280768248378500118178635603 1:0.01923077 18:0.04285714 391:0.5 403:1 
-0.3477236939752614830467791762203 1:0.0096153803 5:1 18:0.27142856 19:0.06666667 
-3.1266851102976906950914326444035 1:0.02884615 5:0.66666669 18:0.04285714 19:0.13333333 23:0.14285713 501:0.33333334 530:0.5 
3.1266851102976906950914326444035 1:0.02884615 5:0.33333334 18:0.028571431 19:0.06666667 391:0.5 1251:1 1257:1 
3.1266851102976906950914326444035 1:0.03846154 5:0.5 6:0.25 18:0.04285714 19:0.13333333 23:0.14285713 30:0.1 61:0.25 82:0.5 217:0.5 
-3.1266851102976906950914326444035 1:0.01923077 18:0.057142861 391:0.5 1251:1 1257:1 
3.1266851102976906950914326444035 1:0.057692312 3:0.66666669 4:0.16666667 18:0.01428571 22:0.04878049 26:0.5 44:0.046153851 48:0.16666667 54:0.11111111 545:1 
-3.1266851102976906950914326444035 1:0.03846154 5:0.5 9:0.25 18:0.057142861 19:0.13333333 23:0.14285713 75:0.25 335:1 501:0.33333334 530:0.5 
3.1266851102976906950914326444035 1:0.04807692 4:0.2 5:0.40000001 18:0.01428571 19:0.13333333 54:0.11111111 96:0.33333334 131:0.5 170:1 172:0.5 407:1 1362:1 
3.1266851102976906950914326444035 1:0.02884615 5:0.66666669 18:0.028571431 19:0.13333333 501:0.33333334 530:0.5 587:1 
3.1266851102976906950914326444035 1:0.02884615 5:0.66666669 18:0.028571431 19:0.13333333 390:1 391:0.5 821:1 
-3.1266851102976906950914326444035 1:0.067307688 3:0.42857143 4:0.2857143 5:0.14285713 18:0.085714288 19:0.06666667 22:0.036585368 27:0.14285713 44:0.030769231 46:0.25 48:0.16666667 54:0.22222222 407:1 470:0.33333334 
-3.1266851102976906950914326444035 1:0.057692312 3:0.5 4:0.33333334 5:0.16666667 18:0.1 19:0.06666667 22:0.036585368 44:0.030769231 48:0.16666667 54:0.22222222 133:0.16666667 407:1 
-3.1266851102976906950914326444035 1:0.096153848 3:0.60000002 4:0.2 5:0.1 18:0.071428567 19:0.06666667 22:0.073170729 27:0.14285713 44:0.061538462 48:0.16666667 53:0.14285713 54:0.22222222 55:0.16666667 133:0.16666667 407:1 
3.1266851102976906950914326444035 1:0.01923077 5:0.5 18:0.028571431 19:0.06666667 501:0.33333334 530:0.5 
3.1266851102976906950914326444035 1:0.04807692 3:0.2 5:0.40000001 18:0.028571431 19:0.13333333 20:0.2 21:0.33333334 22:0.01219512 77:0.5 78:0.33333334 501:0.33333334 530:0.5 
3.1266851102976906950914326444035 1:0.02884615 5:0.66666669 18:0.04285714 19:0.13333333 23:0.14285713 501:0.33333334 530:0.5 
-3.1266851102976906950914326444035 1:0.0096153803 5:1 18:0.04285714 19:0.06666667 
2.3577320378326591665540945541579 1:0.04807692 3:0.2 4:0.2 5:0.2 6:0.2 14:0.2 18:0.01428571 19:0.06666667 22:0.01219512 29:0.1 41:0.11111111 54:0.11111111 109:0.25 407:1 464:1 609:0.5 
3.1266851102976906950914326444035 1:0.067307688 3:0.14285713 4:0.14285713 5:0.42857143 14:0.14285713 18:0.071428567 19:0.2 20:0.2 22:0.01219512 23:0.14285713 41:0.11111111 54:0.11111111 166:0.5 407:1 
-2.5667480872401453595443854283076 1:0.04807692 3:0.2 4:0.2 6:0.40000001 17:0.2 18:0.085714288 22:0.01219512 30:0.2 43:0.1 54:0.11111111 119:0.25 136:0.5 196:0.25 210:0.33333334 
-3.1266851102976906950914326444035 1:0.01923077 5:1 18:0.071428567 19:0.13333333 23:0.14285713 
-3.1266851102976906950914326444035 1:0.02884615 5:1 18:0.1 19:0.2 23:0.2857143 
3.1266851102976906950914326444035 1:0.03846154 3:0.75 12:0.25 18:0.057142861 22:0.036585368 44:0.030769231 85:0.25 89:0.5 
-3.1266851102976906950914326444035 1:0.02884615 5:0.33333334 18:0.085714288 19:0.06666667 77:0.5 78:0.33333334 501:0.33333334 530:0.5 
-3.1266851102976906950914326444035 1:0.03846154 5:0.5 6:0.25 18:0.057142861 19:0.13333333 23:0.14285713 30:0.1 61:0.25 82:0.5 217:0.5 
-3.1266851102976906950914326444035 1:0.02884615 5:0.33333334 18:0.04285714 19:0.06666667 115:0.33333334 297:0.5 501:0.33333334 530:0.5 
3.1266851102976906950914326444035 1:0.086538456 3:0.22222222 4:0.11111111 5:0.22222222 6:0.11111111 14:0.11111111 18:0.01428571 19:0.13333333 22:0.024390239 23:0.14285713 27:0.14285713 30:0.1 41:0.11111111 44:0.01538462 46:0.25 54:0.11111111 81:0.5 109:0.25 282:0.33333334 300:1 380:1 405:0.33333334 
3.1266851102976906950914326444035 1:0.067307688 3:0.5714286 5:0.14285713 18:0.057142861 19:0.06666667 22:0.04878049 27:0.2857143 44:0.030769231 53:0.14285713 55:0.33333334 81:0.5 
3.1266851102976906950914326444035 1:0.03846154 3:0.75 4:0.25 18:0.057142861 22:0.036585368 44:0.030769231 48:0.16666667 54:0.11111111 
-3.1266851102976906950914326444035 1:0.0096153803 3:1 18:0.04285714 22:0.01219512 
3.1266851102976906950914326444035 1:0.0096153803 5:1 18:0.071428567 19:0.06666667 
3.1266851102976906950914326444035 1:0.03846154 5:0.75 18:0.057142861 19:0.2 43:0.2 61:0.25 80:0.5 112:0.5 148:0.2 189:0.33333334 
-3.1266851102976906950914326444035 1:0.13461538 3:0.64285713 4:0.21428572 5:0.071428567 6:0.071428567 18:0.1 19:0.06666667 22:0.1097561 29:0.1 44:0.092307687 47:0.40000001 48:0.33333334 54:0.33333334 287:0.33333334 407:1 464:1 
-3.1266851102976906950914326444035 1:0.0096153803 3:1 18:0.04285714 22:0.01219512 
3.1266851102976906950914326444035 1:0.02884615 5:0.66666669 6:0.33333334 18:0.11428571 19:0.13333333 29:0.1 130:0.5 134:0.5 
3.1266851102976906950914326444035 1:0.03846154 4:0.25 5:0.5 6:0.25 18:0.057142861 19:0.13333333 30:0.1 54:0.11111111 137:0.5 405:0.33333334 407:1 
-3.1266851102976906950914326444035 1:0.07692308 3:0.75 5:0.125 18:0.1 19:0.06666667 22:0.073170729 27:0.14285713 44:0.07692308 55:0.16666667 81:0.5 
-3.1266851102976906950914326444035 1:0.10576923 3:0.45454544 4:0.18181819 5:0.090909094 6:0.090909094 18:0.1 19:0.06666667 22:0.060975611 27:0.2857143 30:0.1 44:0.030769231 46:0.25 48:0.16666667 53:0.14285713 54:0.22222222 55:0.16666667 81:0.5 133:0.16666667 136:0.5 210:0.33333334 
-3.1266851102976906950914326444035 1:0.03846154 3:0.5 5:0.25 12:0.25 18:0.057142861 19:0.06666667 20:0.2 22:0.024390239 44:0.01538462 85:0.25 89:0.5 
0.41780191058559434935659737675451 1:0.057692312 4:0.16666667 5:0.5 6:0.16666667 18:0.01428571 19:0.2 23:0.14285713 29:0.1 54:0.11111111 115:0.33333334 131:0.5 407:1 507:1 750:1 
3.1266851102976906950914326444035 1:0.057692312 3:0.16666667 4:0.16666667 5:0.16666667 6:0.5 18:0.04285714 19:0.06666667 22:0.01219512 29:0.1 30:0.2 34:0.33333334 54:0.11111111 136:0.5 287:0.33333334 405:0.33333334 407:1 
1.6029303155020859783519426855491 1:0.067307688 3:0.14285713 4:0.14285713 5:0.2857143 6:0.14285713 18:0.01428571 19:0.13333333 21:0.33333334 22:0.01219512 29:0.1 54:0.11111111 96:0.33333334 131:0.5 287:0.33333334 407:1 553:0.5 1002:1 2034:1 
-3.1266851102976906950914326444035 1:0.057692312 3:0.16666667 4:0.33333334 5:0.16666667 6:0.33333334 18:0.057142861 19:0.06666667 21:0.33333334 22:0.01219512 30:0.2 54:0.22222222 135:0.33333334 210:0.33333334 405:0.33333334 407:1 
-3.1266851102976906950914326444035 1:0.01923077 5:0.5 6:0.5 18:0.04285714 19:0.06666667 29:0.1 134:0.5 
-3.1266851102976906950914326444035 1:0.067307688 3:0.2857143 4:0.14285713 5:0.42857143 14:0.14285713 18:0.071428567 19:0.2 20:0.2 21:0.33333334 22:0.024390239 23:0.14285713 41:0.11111111 52:0.2 54:0.11111111 109:0.25 407:1 
3.1266851102976906950914326444035 1:0.02884615 3:1 18:0.028571431 22:0.036585368 44:0.030769231 
-2.9965522724353754746573486045236 1:0.04807692 5:0.40000001 13:0.2 18:0.01428571 19:0.13333333 27:0.14285713 62:0.5 81:0.5 391:0.5 467:0.5 582:0.5 821:1 
3.1266851102976906950914326444035 1:0.03846154 3:0.5 4:0.25 18:0.028571431 22:0.024390239 27:0.14285713 46:0.25 48:0.16666667 53:0.14285713 54:0.11111111 
3.1266851102976906950914326444035 1:0.086538456 3:0.77777779 5:0.11111111 18:0.01428571 19:0.06666667 20:0.2 22:0.085365847 27:0.14285713 44:0.07692308 53:0.14285713 55:0.16666667 
-1.7188583461057147516726217872929 1:0.086538456 5:0.33333334 9:0.11111111 14:0.22222222 18:0.01428571 19:0.2 23:0.14285713 27:0.2857143 41:0.22222222 45:1 62:0.5 75:0.25 95:1 105:0.5 1136:1 1417:0.5 
-0.40506521616004359520601951771823 1:0.04807692 5:0.40000001 8:0.40000001 14:0.2 17:0.2 18:0.057142861 19:0.13333333 23:0.14285713 41:0.11111111 64:0.5 84:0.25 88:0.5 166:0.5 346:0.5 
3.1266851102976906950914326444035 1:0.04807692 3:0.60000002 4:0.2 5:0.2 18:0.01428571 19:0.06666667 20:0.2 22:0.036585368 44:0.030769231 47:0.2 54:0.11111111 
3.1266851102976906950914326444035 1:0.07692308 3:0.75 5:0.125 14:0.125 18:0.01428571 19:0.06666667 20:0.2 22:0.073170729 41:0.11111111 44:0.061538462 52:0.2 109:0.25 
3.1266851102976906950914326444035 1:0.04807692 3:0.40000001 12:0.2 14:0.2 16:0.2 18:0.01428571 22:0.024390239 33:0.125 41:0.11111111 49:0.25 52:0.2 85:0.25 89:0.5 238:0.5 
-3.1266851102976906950914326444035 1:0.0096153803 3:1 18:0.057142861 22:0.01219512 
1.2973333276888883158761700542527 1:0.067307688 5:0.5714286 9:0.14285713 18:0.01428571 19:0.26666668 23:0.2857143 61:0.25 75:0.25 80:0.5 115:0.33333334 297:0.5 1136:1 1246:1 
-3.1266851102976906950914326444035 1:0.01923077 5:0.5 6:0.5 18:0.04285714 19:0.06666667 29:0.1 134:0.5 
-3.1266851102976906950914326444035 1:0.01923077 5:0.5 6:0.5 18:0.04285714 19:0.06666667 29:0.1 43:0.1 134:0.5 189:0.16666667 
3.1266851102976906950914326444035 1:0.07692308 3:0.125 5:0.625 13:0.125 18:0.01428571 19:0.33333334 20:0.2 21:0.33333334 22:0.01219512 23:0.14285713 27:0.14285713 62:0.5 81:0.5 467:0.5 582:0.5 670:1 
-2.5946109237800691893482962768758 1:0.057692312 5:0.16666667 6:0.5 9:0.16666667 18:0.057142861 19:0.06666667 29:0.2 30:0.1 34:0.33333334 61:0.25 75:0.25 80:0.5 251:1 698:0.5 1246:1 
-0.76319779544957866423970926916809 1:0.057692312 3:0.5 12:0.16666667 18:0.057142861 22:0.036585368 61:0.25 65:0.33333334 85:0.25 89:0.5 120:0.33333334 174:0.25 238:0.5 291:0.5 
-1.4293127154442872850381718308199 1:0.01923077 6:0.5 18:0.04285714 30:0.1 78:0.33333334 627:1 
3.1266851102976906950914326444035 1:0.04807692 3:0.2 5:0.40000001 14:0.2 18:0.04285714 19:0.13333333 21:0.33333334 22:0.01219512 27:0.14285713 41:0.11111111 62:0.5 81:0.5 105:0.5 
1.4890543637393287568215782812331 1:0.04807692 3:0.2 5:0.60000002 18:0.01428571 19:0.2 20:0.2 21:0.33333334 22:0.01219512 423:0.25 1180:1 1495:1 1730:1 1731:1 
-3.1266851102976906950914326444035 1:0.02884615 5:0.66666669 13:0.33333334 18:0.057142861 19:0.13333333 23:0.14285713 467:0.5 670:1 
3.1266851102976906950914326444035 1:0.01923077 5:0.5 6:0.5 18:0.04285714 19:0.06666667 29:0.1 134:0.5 
-3.1266851102976906950914326444035 1:0.07692308 3:0.125 5:0.375 14:0.125 18:0.028571431 19:0.2 21:0.33333334 22:0.01219512 23:0.14285713 27:0.14285713 41:0.11111111 43:0.1 62:0.5 75:0.25 81:0.5 109:0.25 144:0.5 189:0.16666667 
3.1266851102976906950914326444035 1:0.04807692 5:0.40000001 6:0.40000001 18:0.01428571 19:0.13333333 29:0.1 30:0.1 61:0.25 82:0.5 134:0.5 251:1 339:1 
-3.1266851102976906950914326444035 1:0.10576923 3:0.18181819 5:0.63636363 14:0.090909094 18:0.1 19:0.46666667 20:0.40000001 21:0.66666669 22:0.024390239 23:0.2857143 27:0.14285713 41:0.11111111 43:0.1 81:0.5 105:0.5 148:0.2 166:0.5 189:0.16666667 
-2.871882361005447137358714826405 1:0.07692308 3:0.25 5:0.375 18:0.057142861 19:0.2 21:0.33333334 22:0.024390239 27:0.14285713 44:0.01538462 61:0.25 62:0.5 69:0.5 80:0.5 81:0.5 82:0.5 396:1 
-2.0752629924098355829187312338036 1:0.086538456 4:0.11111111 5:0.44444445 6:0.11111111 7:0.11111111 9:0.11111111 18:0.028571431 19:0.26666668 23:0.2857143 27:0.14285713 30:0.1 38:0.33333334 54:0.11111111 62:0.5 81:0.5 137:0.5 349:0.33333334 535:1 610:1 611:1 
3.1266851102976906950914326444035 1:0.03846154 5:0.5 6:0.25 13:0.25 18:0.028571431 19:0.13333333 23:0.14285713 29:0.1 467:0.5 670:1 
3.1266851102976906950914326444035 1:0.03846154 3:0.25 5:0.25 6:0.25 18:0.028571431 19:0.06666667 22:0.01219512 30:0.1 96:0.33333334 210:0.33333334 251:1 393:1 
3.1266851102976906950914326444035 1:0.01923077 5:0.5 13:0.5 18:0.028571431 19:0.06666667 467:0.5 670:1 
-3.1266851102976906950914326444035 1:0.057692312 5:0.66666669 13:0.16666667 18:0.071428567 19:0.26666668 23:0.2857143 43:0.1 96:0.33333334 97:0.5 148:0.2 189:0.16666667 467:0.5 670:1 
3.1266851102976906950914326444035 1:0.03846154 3:0.25 5:0.5 7:0.25 18:0.028571431 19:0.13333333 20:0.2 21:0.33333334 22:0.01219512 150:0.01333333 256:0.5 557:1 
3.1266851102976906950914326444035 1:0.057692312 5:0.5 7:0.16666667 14:0.16666667 17:0.16666667 18:0.04285714 19:0.2 23:0.14285713 41:0.11111111 84:0.25 88:0.5 93:0.33333334 166:0.5 181:0.16666667 266:1 
-0.34765821590523554585061560828763 1:0.03846154 5:0.25 6:0.25 13:0.25 17:0.25 18:0.057142861 19:0.06666667 30:0.1 84:0.25 150:0.01333333 267:0.5 467:0.5 484:1 670:1 1099:1 
-3.1266851102976906950914326444035 1:0.03846154 3:0.25 5:0.5 6:0.25 18:0.15714286 19:0.13333333 21:0.33333334 22:0.01219512 23:0.14285713 30:0.1 210:0.33333334 
-0.64404283598151235157303062806022 1:0.04807692 4:0.40000001 6:0.40000001 16:0.2 18:0.1 29:0.1 30:0.1 32:0.25 33:0.125 35:0.25 54:0.22222222 133:0.16666667 464:1 
1.5256076325773082480452558229445 1:0.086538456 3:0.33333334 5:0.33333334 18:0.01428571 19:0.2 21:0.33333334 22:0.036585368 23:0.14285713 27:0.2857143 44:0.01538462 55:0.16666667 59:0.25 61:0.25 81:1 174:0.25 
-0.68397789039016154699623939450248 1:0.01923077 5:0.5 8:1 18:0.057142861 19:0.06666667 64:0.5 907:0.5 
-0.23584387146391358469621479798661 1:0.01923077 17:0.5 18:0.028571431 78:0.33333334 223:1 
-3.1266851102976906950914326444035 1:0.0096153803 5:1 18:0.057142861 19:0.06666667 
0.7342113316947342926965802689665 1:0.057692312 5:0.5 18:0.01428571 19:0.2 23:0.14285713 159:0.5 192:0.5 289:0.5 681:1 853:1 898:1 1181:1 
-3.1266851102976906950914326444035 1:0.01923077 5:0.5 7:0.5 18:0.01428571 19:0.06666667 181:0.16666667 266:1 
-3.1266851102976906950914326444035 1:0.02884615 5:0.66666669 7:0.33333334 18:0.1 19:0.13333333 23:0.14285713 181:0.16666667 266:1 
-0.0059745003276821303378474325995739 1:0.02884615 6:0.66666669 18:0.028571431 29:0.2 233:0.33333334 488:0.33333334 1686:1 
2.0122194161118347466299383086152 1:0.067307688 3:0.14285713 5:0.2857143 6:0.14285713 9:0.14285713 16:0.14285713 18:0.01428571 19:0.13333333 22:0.01219512 23:0.14285713 30:0.1 33:0.125 75:0.25 150:0.01333333 267:0.5 335:1 336:1 501:0.33333334 506:1 661:1 1140:1 
2.893271844796156067047832038952 1:0.057692312 5:0.33333334 6:0.16666667 14:0.16666667 18:0.04285714 19:0.13333333 23:0.14285713 26:0.5 27:0.14285713 29:0.1 41:0.11111111 95:1 134:0.5 289:0.5 853:1 1707:1 1892:1 
1.8969830452299796252901842308347 1:0.07692308 3:0.125 5:0.5 14:0.125 18:0.01428571 19:0.26666668 22:0.01219512 23:0.42857143 27:0.14285713 41:0.11111111 78:0.33333334 81:0.5 95:1 477:0.5 1950:1 
3.1266851102976906950914326444035 1:0.04807692 5:0.60000002 6:0.2 18:0.01428571 19:0.2 23:0.2857143 30:0.1 61:0.25 82:0.5 217:0.5 
-2.8804306624881093057410907931626 1:0.02884615 5:0.66666669 18:0.071428567 19:0.13333333 23:0.14285713 43:0.1 96:0.33333334 189:0.16666667 465:1 
3.1266851102976906950914326444035 1:0.03846154 3:0.25 5:0.5 14:0.25 18:0.028571431 19:0.13333333 21:0.33333334 22:0.01219512 41:0.11111111 105:0.5 166:0.5 
-0.29065340876832340688551425955666 1:0.01923077 18:0.028571431 96:0.33333334 549:1 645:1 
3.1266851102976906950914326444035 1:0.03846154 3:0.25 5:0.5 18:0.028571431 19:0.13333333 21:0.33333334 22:0.01219512 23:0.14285713 27:0.14285713 55:0.16666667 
-3.1266851102976906950914326444035 1:0.0096153803 5:1 18:0.057142861 19:0.06666667 
3.1266851102976906950914326444035 1:0.02884615 3:1 18:0.028571431 22:0.036585368 44:0.030769231 
-1.7825993083488196333519226755016 1:0.02884615 5:0.33333334 9:0.33333334 18:0.04285714 19:0.06666667 75:0.25 233:0.33333334 335:1 494:1 
3.1266851102976906950914326444035 1:0.0096153803 18:0.04285714 1251:1 
-3.1266851102976906950914326444035 1:0.03846154 5:0.25 6:0.5 18:0.04285714 19:0.06666667 29:0.2 31:0.25 77:0.5 78:0.33333334 289:1 853:1 
-0.6478160030079538334035760271945 1:0.16346154 2:0.11764706 3:0.11764706 5:0.41176471 14:0.05882353 17:0.05882353 18:0.01428571 19:0.46666667 21:0.66666669 22:0.024390239 23:0.42857143 27:0.2857143 40:0.33333334 41:0.11111111 43:0.1 55:0.16666667 61:0.25 81:0.5 82:0.5 96:0.33333334 105:0.5 109:0.25 128:1 189:0.16666667 223:1 366:0.5 369:1 423:0.25 432:1 433:1 1180:1 
-3.1266851102976906950914326444035 1:0.0096153803 5:1 18:0.24285714 19:0.06666667 
3.1266851102976906950914326444035 18:0.04285714 33:0.125 
-3.1266851102976906950914326444035 1:0.0096153803 18:0.028571431 96:0.33333334 
-3.1266851102976906950914326444035 1:0.01923077 5:0.5 18:0.057142861 19:0.06666667 77:0.5 78:0.33333334 
-3.1266851102976906950914326444035 1:0.02884615 5:1 18:0.11428571 19:0.2 23:0.2857143 
-3.1266851102976906950914326444035 1:0.02884615 3:0.33333334 5:0.33333334 18:0.01428571 19:0.06666667 20:0.2 22:0.01219512 226:1 
-3.1266851102976906950914326444035 1:0.057692312 3:0.5 5:0.5 18:0.1 19:0.2 20:0.2 22:0.036585368 23:0.2857143 44:0.030769231 
-3.1266851102976906950914326444035 1:0.03846154 5:0.25 14:0.25 17:0.25 18:0.028571431 19:0.06666667 41:0.11111111 61:0.25 80:0.5 84:0.25 88:0.5 93:0.33333334 
3.1266851102976906950914326444035 1:0.01923077 18:0.028571431 96:0.33333334 1323:1 2035:1 
3.1266851102976906950914326444035 1:0.057692312 3:0.16666667 5:0.33333334 6:0.16666667 14:0.16666667 18:0.028571431 19:0.13333333 22:0.01219512 27:0.14285713 29:0.1 41:0.11111111 45:0.5 62:0.5 105:0.5 130:0.5 287:0.33333334 
-2.7591724211232637742341466946527 1:0.04807692 6:0.2 18:0.01428571 29:0.1 96:0.33333334 118:0.5 172:0.5 1323:1 2035:1 
-3.1266851102976906950914326444035 1:0.01923077 3:0.5 18:0.11428571 22:0.01219512 96:0.33333334 393:1 
-0.0076945899078094863801635661104683 1:0.07692308 3:0.125 5:0.5 18:0.17142858 19:0.26666668 20:0.2 21:0.33333334 22:0.01219512 61:0.5 80:1 82:1 150:0.01333333 211:1 246:1 247:0.5 
3.1266851102976906950914326444035 1:0.02884615 5:0.33333334 6:0.33333334 18:0.01428571 19:0.06666667 29:0.1 77:0.5 78:0.33333334 381:1 
3.1266851102976906950914326444035 1:0.057692312 3:0.16666667 5:0.33333334 6:0.5 18:0.01428571 19:0.13333333 22:0.01219512 23:0.14285713 29:0.30000001 31:0.5 130:0.5 287:0.33333334 
3.1266851102976906950914326444035 1:0.03846154 5:0.25 14:0.25 18:0.01428571 19:0.06666667 41:0.11111111 61:0.25 77:0.5 78:0.33333334 92:0.5 150:0.01333333 256:0.5 271:1 
-3.1266851102976906950914326444035 1:0.03846154 5:0.25 6:0.5 18:0.057142861 19:0.06666667 29:0.2 31:0.25 77:0.5 78:0.33333334 381:1 
-3.1266851102976906950914326444035 1:0.01923077 6:0.5 18:0.057142861 29:0.1 78:0.33333334 381:1 
-3.1266851102976906950914326444035 1:0.07692308 5:0.375 14:0.25 17:0.125 18:0.01428571 19:0.2 41:0.22222222 61:0.25 65:0.33333334 80:0.5 82:0.5 105:0.5 166:0.5 372:1 485:1 
3.1266851102976906950914326444035 1:0.02884615 3:0.33333334 5:0.33333334 18:0.1 19:0.06666667 20:0.2 22:0.01219512 96:0.33333334 393:1 
3.1266851102976906950914326444035 1:0.03846154 3:0.5 5:0.25 18:0.028571431 19:0.06666667 20:0.2 22:0.024390239 44:0.01538462 96:0.33333334 393:1 
0.84886228855578949037408165168017 1:0.04807692 3:0.2 5:0.2 9:0.2 16:0.2 18:0.01428571 19:0.06666667 20:0.2 22:0.01219512 33:0.125 96:0.33333334 259:0.33333334 393:1 818:1 1153:1 
-3.1266851102976906950914326444035 1:0.0096153803 3:1 18:0.057142861 22:0.01219512 
-3.1266851102976906950914326444035 1:0.07692308 3:0.75 18:0.11428571 22:0.073170729 27:0.14285713 44:0.061538462 53:0.14285713 55:0.16666667 96:0.33333334 393:1 
-0.30227843521906305745972076692851 1:0.01923077 6:0.5 18:0.028571431 29:0.1 389:0.5 1935:1 
3.1266851102976906950914326444035 1:0.057692312 5:0.5 6:0.33333334 18:0.01428571 19:0.2 23:0.2857143 29:0.2 78:0.33333334 134:0.5 201:0.5 381:1 
2.8086845401241093966859807551373 1:0.086538456 3:0.11111111 4:0.11111111 5:0.44444445 6:0.11111111 14:0.11111111 18:0.04285714 19:0.26666668 20:0.2 22:0.01219512 23:0.2857143 29:0.1 41:0.11111111 47:0.2 54:0.11111111 77:0.5 78:0.33333334 166:0.5 176:0.5 381:1 
3.1266851102976906950914326444035 1:0.0096153803 3:1 18:0.028571431 22:0.01219512 
-1.0053799251340986842251368216239 1:0.057692312 5:0.66666669 6:0.16666667 18:0.071428567 19:0.26666668 23:0.2857143 29:0.1 69:0.5 130:0.5 134:0.5 1422:1 
-3.1266851102976906950914326444035 1:0.04807692 5:1 18:0.14285713 19:0.33333334 23:0.42857143 150:0.01333333 247:0.5 256:0.5 
-3.1266851102976906950914326444035 1:0.02884615 5:1 18:0.12857144 19:0.2 23:0.2857143 
3.1266851102976906950914326444035 1:0.02884615 5:1 18:0.028571431 19:0.2 23:0.14285713 43:0.1 148:0.2 189:0.16666667 
3.1266851102976906950914326444035 1:0.01923077 5:1 18:0.085714288 19:0.13333333 23:0.14285713 
-1.6034511380383216216927166897221 1:0.096153848 3:0.5 4:0.1 5:0.2 6:0.1 14:0.1 18:0.085714288 19:0.13333333 22:0.060975611 30:0.1 41:0.11111111 44:0.061538462 47:0.2 54:0.11111111 56:0.01639344 58:0.2 131:0.5 161:1 210:0.33333334 251:1 
-3.1266851102976906950914326444035 1:0.03846154 5:0.25 16:0.25 18:0.04285714 19:0.06666667 33:0.125 233:0.33333334 375:1 454:1 1032:1 
-3.1266851102976906950914326444035 1:0.13461538 3:0.5 5:0.21428572 6:0.14285713 17:0.071428567 18:0.2 19:0.2 20:0.2 21:0.33333334 22:0.085365847 23:0.14285713 27:0.14285713 30:0.2 44:0.061538462 55:0.16666667 137:0.5 210:0.33333334 251:1 
3.1266851102976906950914326444035 1:0.01923077 5:0.5 18:0.04285714 19:0.06666667 96:0.33333334 97:0.5 
3.1266851102976906950914326444035 1:0.02884615 5:0.66666669 18:0.04285714 19:0.13333333 23:0.14285713 96:0.33333334 97:0.5 
-3.1266851102976906950914326444035 1:0.03846154 5:1 18:0.14285713 19:0.26666668 23:0.42857143 
3.1266851102976906950914326444035 1:0.0096153803 3:1 18:0.028571431 22:0.01219512 
-3.1266851102976906950914326444035 1:0.02884615 5:0.66666669 18:0.071428567 19:0.13333333 23:0.14285713 96:0.33333334 97:0.5 
-3.1266851102976906950914326444035 1:0.0096153803 5:1 18:0.1 19:0.06666667 
-3.1266851102976906950914326444035 1:0.02884615 5:0.66666669 18:0.085714288 19:0.13333333 23:0.14285713 96:0.33333334 97:0.5 
2.0634474048313977689872444898356 1:0.07692308 5:0.375 6:0.25 18:0.057142861 19:0.2 23:0.14285713 27:0.14285713 30:0.2 61:0.25 81:0.5 82:0.5 132:0.5 137:0.5 1032:1 
-3.1266851102976906950914326444035 1:0.0096153803 3:1 18:0.057142861 22:0.01219512 
3.1266851102976906950914326444035 1:0.01923077 5:0.5 18:0.04285714 19:0.06666667 96:0.33333334 97:0.5 
-0.06556615657869704905102992142929 1:0.11538462 5:0.25 14:0.083333328 18:0.18571429 19:0.2 41:0.11111111 61:0.5 77:0.5 78:0.33333334 82:1 96:0.66666669 118:0.5 122:0.5 128:1 150:0.026666669 166:0.5 186:0.25 256:0.5 766:1 1031:1 1103:1 1113:0.5 1117:0.5 1195:1 1196:1 
-3.1266851102976906950914326444035 1:0.01923077 6:0.5 18:0.028571431 29:0.1 233:0.33333334 488:0.33333334 
-3.1266851102976906950914326444035 1:0.086538456 3:0.44444445 4:0.11111111 5:0.11111111 6:0.11111111 16:0.11111111 18:0.071428567 19:0.06666667 21:0.33333334 22:0.04878049 27:0.14285713 29:0.1 33:0.125 44:0.030769231 47:0.2 49:0.25 54:0.11111111 81:0.5 287:0.33333334 387:0.5 
3.1266851102976906950914326444035 1:0.02884615 5:0.66666669 16:0.33333334 18:0.01428571 19:0.13333333 23:0.14285713 33:0.125 454:1 
3.1266851102976906950914326444035 1:0.057692312 5:0.66666669 7:0.16666667 16:0.16666667 18:0.01428571 19:0.26666668 23:0.42857143 33:0.125 181:0.16666667 278:1 454:1 
-0.49108279048565661728531495100469 1:0.067307688 3:0.42857143 4:0.14285713 5:0.14285713 14:0.2857143 18:0.1 19:0.06666667 22:0.036585368 41:0.22222222 44:0.030769231 54:0.11111111 105:0.5 109:0.25 176:0.5 263:0.5 
3.1266851102976906950914326444035 1:0.0096153803 3:1 18:0.028571431 22:0.01219512 
3.1266851102976906950914326444035 1:0.067307688 3:0.71428573 6:0.14285713 18:0.01428571 22:0.060975611 27:0.14285713 29:0.1 44:0.046153851 53:0.14285713 55:0.16666667 287:0.33333334 
-3.1266851102976906950914326444035 1:0.02884615 5:0.66666669 18:0.057142861 19:0.13333333 23:0.14285713 43:0.1 96:0.33333334 189:0.16666667 465:1 
-3.1266851102976906950914326444035 1:0.04807692 5:0.80000001 18:0.071428567 19:0.26666668 23:0.42857143 924:1 1306:1 
3.1266851102976906950914326444035 1:0.086538456 3:0.66666669 5:0.11111111 14:0.11111111 18:0.01428571 19:0.06666667 22:0.073170729 27:0.14285713 41:0.11111111 44:0.07692308 52:0.2 55:0.16666667 81:0.5 
3.1266851102976906950914326444035 1:0.067307688 3:0.71428573 5:0.14285713 18:0.01428571 19:0.06666667 22:0.060975611 27:0.14285713 44:0.061538462 55:0.16666667 81:0.5 
3.1266851102976906950914326444035 1:0.07692308 3:0.75 5:0.125 18:0.01428571 19:0.06666667 20:0.2 22:0.073170729 27:0.14285713 44:0.061538462 53:0.14285713 55:0.16666667 
3.1266851102976906950914326444035 1:0.02884615 5:1 18:0.085714288 19:0.2 23:0.2857143 
-3.1266851102976906950914326444035 1:0.0096153803 3:1 18:0.057142861 22:0.01219512 
-3.1266851102976906950914326444035 1:0.04807692 5:0.2 6:0.2 18:0.057142861 19:0.06666667 27:0.2857143 30:0.1 62:0.5 81:0.5 132:0.5 142:0.25 257:0.5 
3.0060647389050387801034958101809 1:0.04807692 3:0.2 4:0.2 5:0.2 6:0.40000001 18:0.01428571 19:0.06666667 21:0.33333334 22:0.01219512 29:0.2 54:0.11111111 287:0.33333334 407:1 464:1 
-3.1266851102976906950914326444035 1:0.03846154 3:0.25 4:0.25 5:0.25 14:0.25 18:0.11428571 19:0.06666667 22:0.01219512 41:0.11111111 54:0.11111111 109:0.25 176:0.5 407:1 
-3.1266851102976906950914326444035 1:0.01923077 5:0.5 6:0.5 18:0.071428567 19:0.06666667 30:0.1 137:0.5 
3.1266851102976906950914326444035 1:0.0096153803 18:0.028571431 233:0.33333334 
3.1266851102976906950914326444035 1:0.03846154 3:0.25 5:0.5 6:0.25 18:0.057142861 19:0.13333333 21:0.33333334 22:0.01219512 23:0.14285713 30:0.1 210:0.33333334 
-3.1266851102976906950914326444035 1:0.02884615 3:0.66666669 5:0.33333334 18:0.071428567 19:0.06666667 20:0.2 22:0.024390239 44:0.01538462 
-3.1266851102976906950914326444035 1:0.01923077 4:0.5 5:0.5 18:0.17142858 19:0.06666667 54:0.11111111 407:1 
3.1266851102976906950914326444035 1:0.02884615 5:0.33333334 6:0.33333334 18:0.028571431 19:0.06666667 27:0.14285713 29:0.1 81:0.5 387:0.5 
1.1257967958989396617397460431675 1:0.04807692 5:0.60000002 12:0.2 18:0.028571431 19:0.2 23:0.14285713 27:0.14285713 62:0.5 81:0.5 85:0.25 231:1 
-3.1266851102976906950914326444035 1:0.096153848 3:0.80000001 5:0.1 18:0.071428567 19:0.06666667 20:0.2 22:0.097560979 44:0.07692308 56:0.01639344 57:0.2 58:0.2 115:0.33333334 127:0.33333334 301:0.33333334 
-3.1266851102976906950914326444035 1:0.01923077 5:0.5 14:0.5 18:0.057142861 19:0.06666667 41:0.11111111 105:0.5 
-3.1266851102976906950914326444035 1:0.02884615 5:0.66666669 18:0.04285714 19:0.13333333 23:0.14285713 108:0.5 279:0.5 
-0.17438785967821321398751877040922 1:0.086538456 3:0.11111111 5:0.33333334 6:0.22222222 18:0.057142861 19:0.2 21:0.33333334 22:0.01219512 23:0.14285713 27:0.14285713 30:0.2 61:0.25 62:0.5 81:0.5 82:0.5 99:0.125 501:0.33333334 661:1 1743:0.5 
-3.1266851102976906950914326444035 1:0.03846154 5:0.5 18:0.04285714 19:0.13333333 23:0.14285713 27:0.14285713 62:0.5 472:0.5 473:0.5 
-2.2914027743535414494147062214324 1:0.067307688 5:0.14285713 6:0.14285713 16:0.5714286 18:0.028571431 19:0.06666667 28:0.25 29:0.1 33:0.5 134:0.5 454:1 539:0.66666669 1251:1 1252:1 
-0.63318701674992816652576266278629 1:0.02884615 6:0.33333334 16:0.66666669 18:0.028571431 28:0.25 29:0.1 33:0.25 539:0.33333334 
-3.1266851102976906950914326444035 1:0.086538456 3:0.22222222 5:0.22222222 14:0.22222222 17:0.11111111 18:0.01428571 19:0.13333333 21:0.33333334 22:0.024390239 27:0.2857143 41:0.22222222 45:1 55:0.33333334 105:0.5 
1.8589325331144368469438177271513 1:0.07692308 3:0.125 4:0.125 5:0.375 14:0.25 18:0.057142861 19:0.2 22:0.01219512 23:0.14285713 41:0.22222222 47:0.2 54:0.11111111 105:0.5 166:0.5 224:0.5 501:0.33333334 587:1 1235:1 
1.7931201667322176351859752685414 1:0.03846154 5:0.75 17:0.25 18:0.028571431 19:0.2 23:0.2857143 1674:1 1675:1 
-0.93842527009544207672320226265583 1:0.057692312 4:0.16666667 5:0.66666669 7:0.16666667 18:0.22857143 19:0.26666668 23:0.2857143 54:0.11111111 131:0.5 181:0.16666667 278:1 407:1 
-1.1081907184751667028166366435471 1:0.04807692 4:0.2 5:0.2 6:0.2 8:0.40000001 17:0.2 18:0.04285714 19:0.06666667 30:0.1 54:0.11111111 64:0.5 84:0.25 346:0.5 386:0.5 405:0.33333334 407:1 
1.4363641840201621935335651869536 1:0.02884615 5:0.33333334 16:0.33333334 18:0.01428571 19:0.06666667 33:0.125 138:1 159:0.5 681:1 
3.1266851102976906950914326444035 1:0.01923077 5:0.5 14:0.5 18:0.04285714 19:0.06666667 41:0.11111111 105:0.5 
3.1266851102976906950914326444035 1:0.02884615 5:0.33333334 14:0.33333334 16:0.33333334 18:0.057142861 19:0.06666667 33:0.125 41:0.11111111 105:0.5 138:1 
-3.1266851102976906950914326444035 1:0.067307688 3:0.14285713 5:0.2857143 14:0.42857143 18:0.01428571 19:0.13333333 21:0.33333334 22:0.01219512 27:0.14285713 41:0.33333334 45:0.5 55:0.16666667 105:1 224:0.5 
-3.1266851102976906950914326444035 1:0.057692312 3:0.33333334 5:0.33333334 14:0.16666667 18:0.01428571 19:0.13333333 21:0.33333334 22:0.024390239 27:0.14285713 41:0.11111111 44:0.01538462 45:0.5 55:0.16666667 105:0.5 
-3.1266851102976906950914326444035 1:0.02884615 5:0.33333334 6:0.33333334 16:0.33333334 18:0.04285714 19:0.06666667 29:0.1 32:0.25 33:0.125 138:1 
-3.1266851102976906950914326444035 1:0.02884615 5:0.33333334 6:0.33333334 16:0.33333334 18:0.057142861 19:0.06666667 29:0.1 32:0.25 33:0.125 138:1 
1.0016379639184749272828867106 1:0.067307688 4:0.14285713 5:0.5714286 18:0.01428571 19:0.26666668 23:0.2857143 54:0.11111111 96:0.33333334 108:0.5 279:0.5 407:1 598:1 826:1 
-1.4392583219428576324361301885801 1:0.03846154 5:0.25 6:0.5 18:0.028571431 19:0.06666667 29:0.1 30:0.1 43:0.1 100:0.25 148:0.2 196:0.25 501:0.33333334 530:0.5 
3.1266851102976906950914326444035 1:0.057692312 3:0.16666667 5:0.33333334 6:0.33333334 16:0.16666667 18:0.01428571 19:0.13333333 20:0.2 22:0.01219512 30:0.2 33:0.125 35:0.25 43:0.1 136:0.5 137:0.5 148:0.2 196:0.25 
-3.1266851102976906950914326444035 1:0.067307688 3:0.42857143 5:0.2857143 6:0.14285713 18:0.2 19:0.13333333 20:0.40000001 22:0.036585368 30:0.1 44:0.01538462 77:0.5 78:0.33333334 136:0.5 216:1 
-1.5018251516934910672063097081264 1:0.096153848 3:0.1 5:0.60000002 18:0.085714288 19:0.40000001 22:0.01219512 23:0.5714286 56:0.01639344 57:0.2 58:0.2 115:0.66666669 124:0.16666667 244:0.33333334 507:1 1407:1 1755:1 
-1.3642611088531264584844393539242 1:0.067307688 5:0.2857143 6:0.14285713 14:0.14285713 18:0.04285714 19:0.13333333 29:0.1 41:0.11111111 69:0.5 108:0.5 115:0.33333334 166:0.5 370:0.5 507:1 598:1 669:0.5 1309:1 
3.1266851102976906950914326444035 1:0.0096153803 18:0.04285714 61:0.25 
3.1266851102976906950914326444035 1:0.0096153803 18:0.028571431 27:0.14285713 
3.1266851102976906950914326444035 1:0.0096153803 18:0.01428571 186:0.25 
-2.4084033359898016080080651590833 1:0.0096153803 3:1 18:0.071428567 22:0.01219512 
0.17824944064485961914279243956116 1:0.086538456 5:0.44444445 6:0.11111111 7:0.11111111 16:0.11111111 18:0.01428571 19:0.26666668 23:0.2857143 29:0.1 33:0.125 134:0.5 138:1 150:0.01333333 181:0.16666667 266:1 389:0.5 439:0.5 506:1 1081:1 2057:1 2058:1 
-3.1266851102976906950914326444035 1:0.0096153803 18:0.04285714 61:0.25 
-3.1266851102976906950914326444035 1:0.0096153803 18:0.01428571 282:0.33333334 
-0.66347330723706510191561847022967 1:0.02884615 18:0.04285714 27:0.14285713 78:0.33333334 142:0.25 257:0.5 264:0.5 
-0.77071741364352441827634265791858 1:0.04807692 5:0.80000001 18:0.071428567 19:0.26666668 23:0.42857143 924:1 1306:1 
-0.024039245053251129952132103539952 1:0.07692308 3:0.375 12:0.125 18:0.057142861 22:0.036585368 27:0.14285713 44:0.030769231 65:0.66666669 85:0.25 91:0.5 291:0.5 292:0.5 318:1 952:0.125 1758:1 1759:1 
-3.1266851102976906950914326444035 1:0.03846154 5:0.5 16:0.25 18:0.1 19:0.13333333 33:0.125 96:0.33333334 97:0.5 103:1 138:1 
-3.1266851102976906950914326444035 1:0.02884615 5:0.33333334 6:0.33333334 16:0.33333334 18:0.057142861 19:0.06666667 30:0.1 33:0.125 35:0.25 454:1 
-3.1266851102976906950914326444035 1:0.04807692 3:0.2 5:0.80000001 18:0.057142861 19:0.26666668 20:0.2 21:0.33333334 22:0.01219512 23:0.14285713 514:0.5 930:1 931:1 
3.1266851102976906950914326444035 1:0.04807692 3:0.40000001 18:0.028571431 22:0.024390239 44:0.01538462 61:0.25 
3.1266851102976906950914326444035 1:0.04807692 3:0.40000001 5:0.2 6:0.2 18:0.057142861 19:0.06666667 20:0.2 22:0.024390239 27:0.14285713 30:0.1 53:0.14285713 55:0.16666667 136:0.5 
3.1266851102976906950914326444035 1:0.04807692 3:0.60000002 5:0.2 14:0.2 18:0.01428571 19:0.06666667 22:0.036585368 41:0.11111111 44:0.030769231 105:0.5 109:0.25 
0.72109200570606291069708504437585 1:0.04807692 5:0.80000001 18:0.01428571 19:0.26666668 23:0.2857143 379:0.5 389:0.5 437:1 1227:1 1814:1 
-0.12138738497534354299212111527595 1:0.057692312 5:0.16666667 6:0.5 18:0.085714288 19:0.06666667 29:0.2 30:0.1 34:0.33333334 43:0.2 61:0.25 78:0.33333334 112:0.5 189:0.16666667 200:0.25 201:0.5 217:0.5 476:0.5 
-3.1266851102976906950914326444035 1:0.057692312 3:0.66666669 5:0.16666667 14:0.16666667 18:0.057142861 19:0.06666667 22:0.04878049 41:0.11111111 44:0.046153851 105:0.5 109:0.25 
3.1266851102976906950914326444035 1:0.07692308 5:0.625 6:0.125 14:0.125 18:0.01428571 19:0.33333334 23:0.42857143 27:0.14285713 29:0.1 41:0.11111111 45:0.5 62:0.5 150:0.01333333 247:0.5 256:0.5 609:0.5 
-3.1266851102976906950914326444035 1:0.0096153803 18:0.04285714 61:0.25 
-3.1266851102976906950914326444035 1:0.0096153803 18:0.028571431 
-1.2918998535122196980040598646156 1:0.0096153803 14:1 18:0.04285714 41:0.11111111 
-3.1266851102976906950914326444035 1:0.02884615 5:0.33333334 14:0.33333334 18:0.071428567 19:0.06666667 41:0.11111111 61:0.25 122:0.5 166:0.5 
-3.1266851102976906950914326444035 1:0.02884615 5:0.33333334 18:0.057142861 19:0.06666667 115:0.33333334 297:0.5 501:0.33333334 530:0.5 
2.9832665308742134513408927887212 1:0.04807692 3:0.2 5:0.2 6:0.2 10:0.2 16:0.2 18:0.028571431 19:0.06666667 22:0.01219512 29:0.1 33:0.125 138:1 162:0.5 183:0.5 1611:1 1900:1 
3.1266851102976906950914326444035 1:0.02884615 5:0.33333334 16:0.33333334 18:0.04285714 19:0.06666667 33:0.125 43:0.1 65:0.33333334 189:0.16666667 577:1 1561:1 
-3.1266851102976906950914326444035 1:0.07692308 3:0.625 5:0.25 18:0.12857144 19:0.13333333 20:0.2 22:0.060975611 23:0.14285713 27:0.14285713 44:0.061538462 53:0.14285713 
3.1266851102976906950914326444035 1:0.0096153803 18:0.028571431 96:0.33333334 
3.1266851102976906950914326444035 1:0.0096153803 18:0.028571431 61:0.25 
3.1266851102976906950914326444035 1:0.01923077 5:0.5 14:0.5 18:0.04285714 19:0.06666667 41:0.11111111 105:0.5 
-3.1266851102976906950914326444035 1:0.02884615 5:0.66666669 18:0.11428571 19:0.13333333 23:0.14285713 77:0.5 78:0.33333334 
-3.1266851102976906950914326444035 1:0.04807692 3:0.2 5:0.2 18:0.028571431 19:0.06666667 20:0.2 22:0.01219512 27:0.14285713 65:0.33333334 192:0.5 291:0.5 292:0.5 1184:1 
-3.1266851102976906950914326444035 1:0.057692312 3:0.16666667 5:0.16666667 7:0.16666667 14:0.16666667 18:0.01428571 19:0.06666667 22:0.01219512 27:0.2857143 41:0.11111111 45:0.5 55:0.16666667 81:0.5 95:1 181:0.16666667 1217:0.5 
3.1266851102976906950914326444035 1:0.057692312 3:0.16666667 5:0.16666667 6:0.16666667 16:0.16666667 18:0.01428571 19:0.06666667 22:0.01219512 30:0.1 33:0.125 77:0.5 78:0.33333334 79:1 136:0.5 501:0.33333334 530:0.5 661:1 
3.1266851102976906950914326444035 1:0.04807692 5:0.2 14:0.2 18:0.04285714 19:0.06666667 41:0.11111111 61:0.5 122:0.5 166:0.5 
2.112504532063342654879534165957 1:0.057692312 3:0.16666667 5:0.16666667 16:0.16666667 17:0.16666667 18:0.01428571 19:0.06666667 22:0.01219512 33:0.125 78:0.33333334 79:1 115:0.33333334 301:0.33333334 1614:1 
3.1266851102976906950914326444035 1:0.057692312 3:0.33333334 5:0.66666669 18:0.085714288 19:0.26666668 20:0.2 21:0.66666669 22:0.024390239 23:0.2857143 
-2.839643332239464079691515507875 1:0.03846154 14:0.5 18:0.04285714 41:0.22222222 61:0.25 65:0.33333334 92:0.5 122:0.5 140:1 
-3.1266851102976906950914326444035 1:0.01923077 5:0.5 14:0.5 18:0.071428567 19:0.06666667 41:0.11111111 105:0.5 
3.1266851102976906950914326444035 1:0.057692312 5:0.33333334 14:0.16666667 18:0.01428571 19:0.13333333 23:0.14285713 27:0.14285713 41:0.11111111 45:0.5 61:0.25 82:0.5 122:0.5 192:0.5 1184:1 
3.1266851102976906950914326444035 1:0.04807692 5:0.40000001 14:0.2 18:0.01428571 19:0.13333333 23:0.14285713 27:0.14285713 41:0.11111111 81:0.5 95:1 96:0.33333334 329:1 
2.6269378141643033863772416225402 1:0.07692308 3:0.25 5:0.25 6:0.125 16:0.125 18:0.01428571 19:0.13333333 20:0.2 21:0.33333334 22:0.024390239 27:0.14285713 30:0.1 33:0.125 36:0.5 55:0.16666667 81:0.5 136:0.5 294:1 449:1 
3.1266851102976906950914326444035 1:0.02884615 5:0.66666669 18:0.04285714 19:0.13333333 23:0.14285713 708:1 709:1 
-2.4059431583348995786764135118574 1:0.096153848 2:0.2 3:0.30000001 5:0.40000001 17:0.1 18:0.01428571 19:0.26666668 20:0.2 21:0.33333334 22:0.036585368 23:0.14285713 40:0.33333334 43:0.1 44:0.030769231 61:0.25 80:0.5 82:0.5 189:0.16666667 366:0.5 905:1 906:1 
-3.1266851102976906950914326444035 1:0.07692308 3:0.125 5:0.375 14:0.125 17:0.125 18:0.04285714 19:0.2 21:0.33333334 22:0.01219512 23:0.14285713 41:0.11111111 61:0.25 80:0.5 82:0.5 84:0.25 93:0.33333334 96:0.33333334 97:0.5 109:0.25 
-3.1266851102976906950914326444035 1:0.03846154 3:0.25 14:0.25 18:0.04285714 22:0.01219512 41:0.11111111 52:0.2 78:0.33333334 96:0.33333334 329:1 477:0.5 
3.1266851102976906950914326444035 1:0.04807692 3:0.2 5:0.40000001 14:0.2 18:0.028571431 19:0.13333333 20:0.2 22:0.01219512 41:0.11111111 52:0.2 65:0.33333334 140:1 1169:1 
3.1266851102976906950914326444035 1:0.02884615 5:0.33333334 14:0.33333334 18:0.04285714 19:0.06666667 41:0.11111111 61:0.25 92:0.5 105:0.5 
3.1266851102976906950914326444035 1:0.01923077 5:0.5 14:0.5 18:0.04285714 19:0.06666667 41:0.11111111 166:0.5 
-3.1266851102976906950914326444035 1:0.0096153803 5:1 18:0.11428571 19:0.06666667 
-3.1266851102976906950914326444035 1:0.04807692 5:0.60000002 18:0.01428571 19:0.2 23:0.14285713 108:0.5 279:0.5 708:1 709:1 1709:1 
-3.1266851102976906950914326444035 1:0.01923077 5:0.5 14:0.5 18:0.085714288 19:0.06666667 41:0.11111111 166:0.5 
-3.1266851102976906950914326444035 1:0.04807692 5:0.60000002 14:0.2 18:0.14285713 19:0.2 23:0.14285713 41:0.11111111 105:0.5 166:0.5 
3.1266851102976906950914326444035 1:0.04807692 3:0.40000001 5:0.40000001 18:0.028571431 19:0.13333333 20:0.2 21:0.33333334 22:0.024390239 44:0.01538462 96:0.33333334 97:0.5 
3.1266851102976906950914326444035 1:0.03846154 5:0.5 6:0.25 18:0.01428571 19:0.13333333 23:0.14285713 29:0.1 61:0.25 82:0.5 339:1 
0.056869883442635875414605806099644 1:0.04807692 5:0.80000001 18:0.01428571 19:0.26666668 23:0.42857143 1254:1 
-1.8742117769652251180190205559484 1:0.02884615 6:0.33333334 18:0.057142861 29:0.1 61:0.25 78:0.33333334 339:1 381:1 
-3.1266851102976906950914326444035 1:0.04807692 5:0.2 6:0.60000002 18:0.028571431 19:0.06666667 29:0.2 30:0.1 61:0.25 82:0.5 100:0.25 134:0.5 339:1 
-0.1167327756011822814663503322663 1:0.22115386 3:0.52173913 4:0.043478262 5:0.13043478 12:0.043478262 14:0.086956523 16:0.043478262 18:0.085714288 19:0.2 22:0.14634146 23:0.14285713 27:0.14285713 33:0.125 41:0.22222222 44:0.12307692 50:1 52:0.40000001 53:0.14285713 54:0.11111111 55:0.16666667 56:0.01639344 57:0.2 77:0.5 78:0.33333334 79:1 85:0.25 87:1 109:0.25 124:0.16666667 238:0.5 244:0.33333334 735:0.33333334 1267:1 
3.1266851102976906950914326444035 1:0.02884615 6:0.33333334 16:0.33333334 18:0.01428571 30:0.1 33:0.125 35:0.25 150:0.01333333 389:0.5 506:1 959:1 
-3.1266851102976906950914326444035 1:0.0096153803 5:1 18:0.11428571 19:0.06666667 
-3.1266851102976906950914326444035 1:0.03846154 5:0.75 18:0.057142861 19:0.2 23:0.2857143 472:0.5 1087:1 
-3.1266851102976906950914326444035 1:0.01923077 5:0.5 18:0.071428567 19:0.06666667 192:0.5 334:1 
3.1266851102976906950914326444035 1:0.04807692 3:0.2 5:0.40000001 14:0.2 18:0.028571431 19:0.13333333 22:0.01219512 41:0.11111111 61:0.25 80:0.5 82:0.5 105:0.5 109:0.25 
3.1266851102976906950914326444035 1:0.01923077 18:0.028571431 61:0.25 159:0.5 1327:1 
2.1291805409991879649567181331804 1:0.03846154 3:0.25 5:0.25 6:0.25 18:0.028571431 19:0.06666667 22:0.01219512 30:0.1 77:0.5 78:0.33333334 210:0.33333334 216:1 
-3.1266851102976906950914326444035 1:0.0096153803 18:0.028571431 
-0.37035105508818327857412100456713 1:0.057692312 3:0.16666667 6:0.16666667 14:0.16666667 18:0.085714288 22:0.01219512 30:0.1 41:0.11111111 56:0.01639344 61:0.25 78:0.66666669 161:1 197:1 198:1 210:0.33333334 218:1 1238:1 
-3.1266851102976906950914326444035 1:0.02884615 3:0.33333334 4:0.33333334 5:0.33333334 18:0.17142858 19:0.06666667 20:0.2 22:0.01219512 47:0.2 54:0.11111111 
-0.11855166631008189070950464838461 1:0.04807692 3:0.2 4:0.2 18:0.12857144 22:0.01219512 47:0.2 54:0.11111111 61:0.25 159:0.5 389:0.5 614:0.5 956:1 1327:1 
-0.20717030859359547578790738953103 1:0.057692312 5:0.16666667 6:0.83333331 18:0.04285714 19:0.06666667 29:0.30000001 30:0.2 31:0.25 34:0.33333334 99:0.125 100:0.25 134:0.5 
-0.9607118291194559622780957397481 1:0.067307688 3:0.42857143 18:0.18571429 22:0.036585368 25:1 26:0.5 27:0.14285713 44:0.030769231 61:0.25 159:0.5 614:0.5 1327:1 2012:1 
3.1266851102976906950914326444035 1:0.03846154 5:0.5 6:0.25 18:0.028571431 19:0.13333333 23:0.14285713 29:0.1 134:0.5 472:0.5 1087:1 
3.1266851102976906950914326444035 1:0.067307688 3:0.14285713 5:0.71428573 18:0.04285714 19:0.33333334 20:0.2 21:0.33333334 22:0.01219512 23:0.42857143 192:0.5 334:1 
2.409050097341764562486332579283 1:0.03846154 5:0.75 18:0.01428571 19:0.2 23:0.2857143 192:0.5 334:1 
-3.1266851102976906950914326444035 1:0.03846154 5:0.5 6:0.25 17:0.25 18:0.057142861 19:0.13333333 23:0.14285713 29:0.1 134:0.5 1887:1 
-3.1266851102976906950914326444035 1:0.02884615 5:1 18:0.17142858 19:0.2 23:0.2857143 
-3.1266851102976906950914326444035 1:0.0096153803 5:1 18:0.12857144 19:0.06666667 
3.1266851102976906950914326444035 1:0.04807692 3:0.80000001 18:0.01428571 22:0.04878049 26:0.5 44:0.046153851 214:0.5 
3.1266851102976906950914326444035 1:0.057692312 3:0.66666669 5:0.16666667 18:0.01428571 19:0.06666667 20:0.2 22:0.04878049 27:0.14285713 44:0.030769231 53:0.14285713 55:0.16666667 
3.1266851102976906950914326444035 1:0.04807692 3:0.60000002 4:0.2 5:0.2 18:0.028571431 19:0.06666667 20:0.2 22:0.036585368 42:0.11111111 43:0.1 44:0.030769231 54:0.11111111 119:0.25 
-3.1266851102976906950914326444035 1:0.0096153803 3:1 18:0.071428567 22:0.01219512 
3.1266851102976906950914326444035 1:0.01923077 5:1 18:0.071428567 19:0.13333333 23:0.14285713 
-3.1266851102976906950914326444035 1:0.0096153803 3:1 18:0.071428567 22:0.01219512 
-3.1266851102976906950914326444035 1:0.04807692 3:0.80000001 5:0.2 18:0.12857144 19:0.06666667 20:0.2 22:0.04878049 44:0.046153851 
-3.1266851102976906950914326444035 1:0.067307688 3:0.71428573 5:0.2857143 18:0.071428567 19:0.13333333 20:0.40000001 21:0.33333334 22:0.060975611 42:0.11111111 43:0.1 44:0.030769231 51:0.125 
0.032362428998557263293278651872242 1:0.067307688 5:0.5714286 16:0.14285713 18:0.028571431 19:0.26666668 23:0.2857143 33:0.125 233:0.33333334 375:1 501:0.33333334 530:0.5 587:1 
-3.1266851102976906950914326444035 1:0.01923077 3:0.5 5:0.5 18:0.1 19:0.06666667 20:0.2 22:0.01219512 
3.1266851102976906950914326444035 1:0.057692312 5:0.33333334 6:0.33333334 18:0.01428571 19:0.13333333 23:0.14285713 27:0.14285713 30:0.2 61:0.25 62:0.5 217:0.5 227:0.5 252:1 
-3.1266851102976906950914326444035 1:0.01923077 5:0.5 18:0.1 19:0.06666667 192:0.5 334:1 
-3.1266851102976906950914326444035 1:0.02884615 5:0.33333334 14:0.33333334 18:0.04285714 19:0.06666667 41:0.11111111 105:0.5 233:0.33333334 941:1 
-1.0426180658349268881579519074876 1:0.057692312 5:0.16666667 12:0.16666667 14:0.16666667 18:0.057142861 19:0.06666667 27:0.14285713 41:0.11111111 43:0.1 65:0.66666669 68:0.5 85:0.25 90:0.33333334 140:1 189:0.16666667 268:1 1169:1 
3.1266851102976906950914326444035 1:0.04807692 3:0.80000001 5:0.2 18:0.01428571 19:0.06666667 20:0.2 22:0.04878049 44:0.046153851 
-1.9476373914759226302351180493133 1:0.04807692 5:0.40000001 13:0.2 18:0.01428571 19:0.13333333 27:0.14285713 62:0.5 81:0.5 391:0.5 467:0.5 582:0.5 821:1 
-3.1266851102976906950914326444035 1:0.02884615 3:0.33333334 6:0.66666669 18:0.04285714 22:0.01219512 29:0.2 31:0.25 162:0.5 
