SVM-light Version V5.00
2 # kernel type
3 # kernel parameter -d 
0.1 # kernel parameter -g 
1 # kernel parameter -s 
1 # kernel parameter -r 
empty# kernel parameter -u 
2226 # highest feature index 
18907 # number of training documents 
745 # number of support vectors plus 1 
0.65518308 # threshold b, each following line is a SV (starting with alpha*y)
1.6407581834342914728352980091586 1:0.01923077 4:0.5 6:0.5 18:0.057142861 29:0.1 54:0.11111111 463:0.5 2114:0.5 2118:0.5 2121:0.5 2123:0.5 2125:0.5 2126:0.5 2168:0.5 
0.36890021793866589749910644968622 1:0.02884615 6:0.33333334 16:0.66666669 18:0.028571431 28:0.25 29:0.1 33:0.25 539:0.33333334 2111:0.5 2114:0.5 2115:0.5 2143:0.5 2146:0.5 
-1.6407581834342914728352980091586 1:0.03846154 5:0.5 6:0.25 18:0.057142861 19:0.13333333 23:0.14285713 30:0.1 61:0.25 82:0.5 217:0.5 2118:0.5 2122:0.5 2150:0.5 2151:0.5 2153:0.5 2163:0.5 2186:0.5 
1.6407581834342914728352980091586 1:0.04807692 5:0.2 6:0.60000002 18:0.028571431 19:0.06666667 29:0.2 30:0.1 61:0.25 82:0.5 100:0.25 134:0.5 339:1 2114:0.5 2121:0.5 2150:0.5 2153:0.5 2164:0.5 
1.6407581834342914728352980091586 1:0.02884615 5:0.33333334 6:0.33333334 18:0.04285714 19:0.06666667 30:0.1 233:0.33333334 234:0.5 1548:1 2114:0.5 2118:0.5 2148:0.5 2150:0.5 2151:0.5 2163:0.5 
0.92429680569191718930710521817673 1:0.02884615 6:0.33333334 18:0.071428567 29:0.1 83:0.25 439:0.5 612:1 2114:0.5 2115:0.5 2118:0.5 2121:0.5 2126:0.5 2148:0.5 2153:0.5 2168:0.5 2186:0.5 2202:0.5 
1.6407581834342914728352980091586 1:0.01923077 6:1 18:0.04285714 29:0.2 31:0.25 2118:0.5 2122:0.5 2164:0.5 2169:0.5 2170:0.5 2214:0.5 
1.6407581834342914728352980091586 1:0.01923077 6:0.5 18:0.085714288 30:0.1 78:0.33333334 198:1 2112:0.5 2128:0.5 2132:0.5 2143:0.5 2150:0.5 2158:0.5 2166:0.5 2171:0.5 
0.20503369728925771586780513189296 1:0.04807692 5:0.2 6:0.60000002 18:0.028571431 19:0.06666667 29:0.1 30:0.2 61:0.25 82:0.5 99:0.125 134:0.5 217:0.5 2114:0.5 2116:0.5 2117:0.5 2148:0.5 2150:0.5 
0.53697403823409428635926587958238 1:0.11538462 5:0.25 6:0.25 14:0.16666667 16:0.083333328 18:0.057142861 19:0.2 29:0.1 30:0.2 33:0.125 36:0.5 41:0.22222222 43:0.60000002 61:0.25 78:0.66666669 112:0.5 123:0.5 138:1 148:0.40000001 188:1 189:0.5 196:0.25 197:1 198:1 199:0.33333334 200:0.25 201:0.5 2114:0.5 2118:0.5 2121:0.5 2126:0.5 2130:0.5 2133:0.5 2186:0.5 
-1.6407581834342914728352980091586 1:0.0096153803 6:1 18:0.04285714 30:0.1 2114:0.5 2115:0.5 2118:0.5 2119:0.5 2120:0.5 2121:0.5 
-1.6407581834342914728352980091586 1:0.0096153803 6:1 18:0.028571431 30:0.1 2114:0.5 2115:0.5 2119:0.5 2120:0.5 2143:0.5 
-1.6407581834342914728352980091586 1:0.02884615 4:0.33333334 6:0.66666669 18:0.057142861 30:0.2 54:0.11111111 135:0.33333334 405:0.33333334 2118:0.5 2122:0.5 2123:0.5 2153:0.5 2156:0.5 2163:0.5 2188:0.5 
1.6407581834342914728352980091586 1:0.02884615 3:0.33333334 5:0.66666669 18:0.01428571 19:0.13333333 20:0.2 22:0.01219512 23:0.14285713 2111:0.5 2115:0.5 2143:0.5 2146:0.5 2149:0.5 
1.6407581834342914728352980091586 1:0.02884615 6:0.33333334 7:0.33333334 9:0.33333334 18:0.1 29:0.1 75:0.25 181:0.16666667 323:0.5 340:0.33333334 2121:0.5 2122:0.5 2126:0.5 2127:0.5 2128:0.5 2130:0.5 2132:0.5 2133:0.5 
1.6407581834342914728352980091586 1:0.02884615 5:0.66666669 18:0.057142861 19:0.13333333 23:0.14285713 69:0.5 669:0.5 2121:0.5 2122:0.5 2123:0.5 2126:0.5 2127:0.5 2150:0.5 2153:0.5 
-1.6407581834342914728352980091586 1:0.02884615 5:0.33333334 14:0.33333334 16:0.33333334 18:0.057142861 19:0.06666667 33:0.125 41:0.11111111 105:0.5 138:1 2114:0.5 2115:0.5 2118:0.5 2146:0.5 2148:0.5 2149:0.5 2186:0.5 
-1.6407581834342914728352980091586 1:0.02884615 5:0.66666669 16:0.33333334 18:0.04285714 19:0.13333333 23:0.14285713 33:0.125 138:1 2114:0.5 2115:0.5 2118:0.5 2148:0.5 2151:0.5 2163:0.5 
-0.72994776302086961106141416166793 1:0.02884615 5:0.66666669 16:0.33333334 18:0.028571431 19:0.13333333 23:0.14285713 33:0.125 138:1 2114:0.5 2115:0.5 2146:0.5 2148:0.5 2149:0.5 
1.6407581834342914728352980091586 1:0.01923077 6:0.5 18:0.028571431 29:0.1 233:0.33333334 488:0.33333334 2111:0.5 2112:0.5 2113:0.5 2114:0.5 2115:0.5 2143:0.5 2181:0.5 2213:0.5 
1.6407581834342914728352980091586 1:0.01923077 6:1 18:0.071428567 30:0.2 99:0.125 2111:0.5 2112:0.5 2113:0.5 2115:0.5 2117:0.5 2122:0.5 2123:0.5 2127:0.5 2226:0.5 
0.60775840461312757856404687117902 1:0.01923077 6:1 18:0.085714288 30:0.2 99:0.125 2111:0.5 2115:0.5 2116:0.5 2120:0.5 2121:0.5 2122:0.5 2127:0.5 2128:0.5 2132:0.5 
-1.6407581834342914728352980091586 1:0.067307688 4:0.14285713 6:0.5714286 18:0.12857144 30:0.40000001 54:0.11111111 61:0.25 99:0.25 113:0.5 124:0.16666667 135:0.33333334 405:0.33333334 2121:0.5 2122:0.5 2127:0.5 2132:0.5 2136:0.5 2150:0.5 2153:0.5 2215:0.5 
-1.6407581834342914728352980091586 1:0.0096153803 6:1 18:0.11428571 30:0.1 2120:0.5 2121:0.5 2122:0.5 2153:0.5 2156:0.5 2185:0.5 2192:0.5 2194:0.5 
-1.6407581834342914728352980091586 1:0.01923077 6:0.5 18:0.057142861 29:0.1 115:0.33333334 750:1 2118:0.5 2120:0.5 2121:0.5 2122:0.5 2123:0.5 2150:0.5 2153:0.5 
1.6407581834342914728352980091586 1:0.01923077 5:1 18:0.028571431 19:0.13333333 23:0.14285713 2115:0.5 2122:0.5 2146:0.5 2148:0.5 2151:0.5 2163:0.5 
1.6407581834342914728352980091586 1:0.0096153803 18:0.085714288 61:0.25 2115:0.5 2136:0.5 2146:0.5 2148:0.5 2149:0.5 2158:0.5 2160:0.5 2161:0.5 
1.6407581834342914728352980091586 1:0.01923077 5:0.5 18:0.057142861 19:0.06666667 77:0.5 78:0.33333334 2114:0.5 2117:0.5 2118:0.5 2123:0.5 2146:0.5 2148:0.5 2170:0.5 
-1.6407581834342914728352980091586 1:0.01923077 6:0.5 18:0.057142861 29:0.1 142:0.25 348:0.5 2111:0.5 2115:0.5 2118:0.5 2122:0.5 2123:0.5 2146:0.5 2203:0.5 
1.6407581834342914728352980091586 1:0.01923077 5:0.5 6:0.5 18:0.04285714 19:0.06666667 29:0.1 134:0.5 2114:0.5 2118:0.5 2121:0.5 2126:0.5 2130:0.5 2150:0.5 
-1.6407581834342914728352980091586 1:0.03846154 5:0.25 6:0.25 18:0.028571431 19:0.06666667 27:0.14285713 30:0.1 78:0.33333334 81:0.5 198:1 264:0.5 2111:0.5 2114:0.5 2115:0.5 2143:0.5 2146:0.5 2149:0.5 2151:0.5 
1.6407581834342914728352980091586 1:0.02884615 5:0.33333334 6:0.33333334 16:0.33333334 18:0.11428571 19:0.06666667 29:0.1 32:0.25 33:0.125 138:1 2150:0.5 2151:0.5 2153:0.5 2161:0.5 2163:0.5 2171:0.5 2185:0.5 2192:0.5 
-0.25214966633834640097333590347262 1:0.01923077 9:0.5 18:0.057142861 75:0.25 142:0.25 561:0.5 2118:0.5 2121:0.5 2122:0.5 2123:0.5 2126:0.5 2130:0.5 2133:0.5 
1.6407581834342914728352980091586 1:0.02884615 6:0.33333334 9:0.33333334 16:0.33333334 18:0.071428567 29:0.1 32:0.25 33:0.125 75:0.25 481:0.5 2121:0.5 2123:0.5 2125:0.5 2126:0.5 2127:0.5 2128:0.5 2150:0.5 2155:0.5 
-1.6407581834342914728352980091586 1:0.10576923 6:0.72727275 16:0.18181819 18:0.38571429 28:0.25 29:0.60000002 30:0.2 31:0.25 32:0.5 33:0.25 35:0.25 43:0.30000001 61:0.25 100:0.25 112:0.5 196:0.5 200:0.25 337:0.5 339:1 2179:0.5 2180:0.5 2181:0.5 2182:0.5 2183:0.5 2184:0.5 2186:0.5 2202:0.5 
-1.6407581834342914728352980091586 1:0.02884615 6:0.66666669 16:0.33333334 18:0.24285714 29:0.1 30:0.1 32:0.25 33:0.125 35:0.25 2138:0.5 2161:0.5 2165:0.5 2167:0.5 2169:0.5 2170:0.5 2172:0.5 2178:0.5 
-1.6407581834342914728352980091586 1:0.03846154 3:0.25 6:0.5 7:0.25 18:0.14285713 22:0.01219512 30:0.2 136:0.5 181:0.16666667 210:0.33333334 571:0.33333334 2121:0.5 2126:0.5 2136:0.5 2150:0.5 2153:0.5 2158:0.5 2160:0.5 2161:0.5 
1.6407581834342914728352980091586 1:0.0096153803 3:1 18:0.1 22:0.01219512 2114:0.5 2115:0.5 2118:0.5 2119:0.5 2123:0.5 2143:0.5 2145:0.5 2146:0.5 2196:0.5 
1.6407581834342914728352980091586 1:0.04807692 3:0.2 4:0.40000001 6:0.2 18:0.04285714 22:0.01219512 30:0.1 47:0.2 54:0.22222222 135:0.33333334 405:0.33333334 831:1 994:1 2111:0.5 2115:0.5 2116:0.5 2117:0.5 2118:0.5 2122:0.5 2146:0.5 2149:0.5 2182:0.5 2212:0.5 
1.6407581834342914728352980091586 1:0.0096153803 3:1 18:0.071428567 22:0.01219512 2114:0.5 2115:0.5 2118:0.5 2141:0.5 2142:0.5 2146:0.5 2148:0.5 2149:0.5 
-1.6407581834342914728352980091586 1:0.057692312 3:0.83333331 4:0.16666667 18:0.028571431 22:0.060975611 44:0.046153851 47:0.2 48:0.16666667 54:0.11111111 2114:0.5 2115:0.5 2146:0.5 2148:0.5 2149:0.5 
-1.6407581834342914728352980091586 1:0.03846154 3:0.75 4:0.25 18:0.057142861 22:0.036585368 44:0.030769231 48:0.16666667 54:0.11111111 2114:0.5 2115:0.5 2118:0.5 2146:0.5 2148:0.5 2149:0.5 2186:0.5 
-1.6407581834342914728352980091586 1:0.02884615 3:1 18:0.028571431 22:0.036585368 44:0.030769231 2111:0.5 2114:0.5 2115:0.5 2146:0.5 2149:0.5 
1.6407581834342914728352980091586 1:0.01923077 6:1 18:0.085714288 30:0.2 99:0.125 2121:0.5 2126:0.5 2130:0.5 2133:0.5 2136:0.5 2158:0.5 2160:0.5 2161:0.5 
1.6407581834342914728352980091586 1:0.01923077 6:1 18:0.11428571 30:0.2 99:0.125 2136:0.5 2143:0.5 2153:0.5 2156:0.5 2161:0.5 2164:0.5 2171:0.5 2192:0.5 
-0.023274303396592026238476336175154 1:0.01923077 6:0.5 8:1 18:0.085714288 29:0.1 64:0.5 1297:1 2111:0.5 2122:0.5 2136:0.5 2146:0.5 2161:0.5 2163:0.5 2168:0.5 2173:0.5 
0.26450334886656839961105447400769 1:0.01923077 6:0.5 9:0.5 18:0.057142861 29:0.1 75:0.25 698:0.5 2121:0.5 2123:0.5 2127:0.5 2146:0.5 2148:0.5 2151:0.5 2168:0.5 2171:0.5 
0.34529415854091011217619211493002 1:0.01923077 6:0.5 18:0.04285714 29:0.1 673:0.5 1787:1 2114:0.5 2118:0.5 2121:0.5 2126:0.5 2130:0.5 2133:0.5 
0.40947294947568407819105118505831 1:0.07692308 5:0.125 6:0.625 16:0.25 18:0.085714288 19:0.06666667 28:0.25 29:0.2 30:0.30000001 32:0.25 33:0.25 34:0.33333334 99:0.125 137:0.5 251:1 539:0.33333334 2111:0.5 2115:0.5 2118:0.5 2122:0.5 2123:0.5 2143:0.5 2146:0.5 2202:0.5 
1.6407581834342914728352980091586 1:0.0096153803 3:1 18:0.17142858 22:0.01219512 2111:0.5 2115:0.5 2165:0.5 2167:0.5 2172:0.5 2174:0.5 2176:0.5 2178:0.5 
1.6407581834342914728352980091586 1:0.0096153803 3:1 18:0.057142861 22:0.01219512 2114:0.5 2115:0.5 2118:0.5 2165:0.5 2167:0.5 2169:0.5 2186:0.5 
1.6407581834342914728352980091586 1:0.0096153803 3:1 18:0.057142861 22:0.01219512 2114:0.5 2115:0.5 2138:0.5 2139:0.5 2179:0.5 2180:0.5 2181:0.5 
-1.6407581834342914728352980091586 1:0.0096153803 3:1 18:0.04285714 22:0.01219512 2115:0.5 2118:0.5 2146:0.5 2165:0.5 2167:0.5 2169:0.5 2172:0.5 
-0.68855661845230586859401000765502 1:0.04807692 6:0.40000001 7:0.2 9:0.2 18:0.085714288 29:0.1 30:0.1 100:0.25 186:0.25 322:0.25 349:0.33333334 827:1 920:1 922:0.5 1781:1 1839:1 2121:0.5 2126:0.5 2128:0.5 2130:0.5 2132:0.5 2158:0.5 2160:0.5 2168:0.5 
-0.6155217792487551742297569035145 1:0.01923077 3:0.5 18:0.2 22:0.01219512 27:0.14285713 55:0.16666667 2150:0.5 2165:0.5 2167:0.5 2169:0.5 2172:0.5 2174:0.5 2176:0.5 2178:0.5 
1.6407581834342914728352980091586 1:0.01923077 6:0.5 18:0.11428571 29:0.1 96:0.33333334 697:0.5 2146:0.5 2148:0.5 2149:0.5 2158:0.5 2160:0.5 2161:0.5 2168:0.5 2177:0.5 
0.62549421829664275662707950687036 1:0.067307688 5:0.14285713 6:0.2857143 16:0.2857143 18:0.04285714 19:0.06666667 30:0.2 33:0.25 36:1 61:0.25 78:0.33333334 79:1 138:1 217:0.5 218:1 2114:0.5 2118:0.5 2124:0.5 2125:0.5 2179:0.5 2180:0.5 
1.6407581834342914728352980091586 1:0.02884615 6:0.33333334 9:0.33333334 16:0.33333334 18:0.085714288 28:0.25 29:0.1 33:0.125 75:0.25 655:0.5 2114:0.5 2115:0.5 2146:0.5 2148:0.5 2149:0.5 2184:0.5 2186:0.5 2202:0.5 
-1.6407581834342914728352980091586 1:0.01923077 6:1 18:0.01428571 30:0.2 99:0.125 2115:0.5 2117:0.5 2148:0.5 2153:0.5 2164:0.5 
-0.54873647427925020814143408642849 1:0.04807692 6:0.2 7:0.2 9:0.2 18:0.085714288 29:0.1 43:0.2 83:0.25 181:0.16666667 200:0.25 253:0.5 349:0.33333334 352:0.5 665:1 831:1 1300:1 2122:0.5 2123:0.5 2127:0.5 2128:0.5 2143:0.5 2146:0.5 2148:0.5 2149:0.5 2150:0.5 2151:0.5 2153:0.5 2156:0.5 2163:0.5 2164:0.5 2166:0.5 2168:0.5 
-0.58469042225128520229304740496445 1:0.07692308 6:0.5 7:0.125 8:0.25 17:0.125 18:0.04285714 29:0.1 30:0.30000001 43:0.2 64:0.5 100:0.25 181:0.16666667 196:0.25 199:0.33333334 367:0.5 831:1 832:1 934:1 1293:1 1294:1 2118:0.5 2121:0.5 2122:0.5 2148:0.5 2151:0.5 2153:0.5 2156:0.5 2164:0.5 2168:0.5 
1.6407581834342914728352980091586 1:0.0096153803 3:1 18:0.14285713 22:0.01219512 2115:0.5 2165:0.5 2167:0.5 2169:0.5 2172:0.5 2174:0.5 2176:0.5 2178:0.5 
1.6407581834342914728352980091586 1:0.0096153803 3:1 18:0.15714286 22:0.01219512 2115:0.5 2120:0.5 2152:0.5 2153:0.5 2172:0.5 2174:0.5 2176:0.5 2178:0.5 
1.6407581834342914728352980091586 1:0.0096153803 3:1 18:0.14285713 22:0.01219512 2115:0.5 2125:0.5 2154:0.5 2172:0.5 2174:0.5 2176:0.5 2178:0.5 
-1.6407581834342914728352980091586 1:0.02884615 3:1 18:0.04285714 22:0.036585368 44:0.030769231 2114:0.5 2115:0.5 2121:0.5 2135:0.5 2180:0.5 2181:0.5 
-1.6407581834342914728352980091586 1:0.02884615 6:0.66666669 16:0.33333334 18:0.30000001 29:0.1 30:0.1 32:0.25 33:0.125 35:0.25 2157:0.5 2170:0.5 2172:0.5 2174:0.5 2176:0.5 2178:0.5 
-1.6407581834342914728352980091586 1:0.03846154 3:1 18:0.028571431 22:0.04878049 44:0.046153851 2114:0.5 2115:0.5 2121:0.5 2148:0.5 2151:0.5 
1.6407581834342914728352980091586 1:0.067307688 5:0.14285713 6:0.71428573 18:0.071428567 19:0.06666667 29:0.40000001 30:0.1 31:0.25 43:0.2 61:0.25 100:0.25 112:0.5 134:0.5 189:0.16666667 196:0.25 337:0.25 339:1 2121:0.5 2123:0.5 2126:0.5 2128:0.5 2130:0.5 2133:0.5 2183:0.5 2184:0.5 
1.6407581834342914728352980091586 1:0.04807692 5:0.40000001 18:0.04285714 19:0.13333333 389:1 440:1 899:0.5 1352:1 1698:1 2114:0.5 2118:0.5 2121:0.5 2126:0.5 2130:0.5 2133:0.5 
1.6407581834342914728352980091586 1:0.0096153803 18:0.057142861 115:0.33333334 2118:0.5 2122:0.5 2123:0.5 2150:0.5 2153:0.5 2164:0.5 2210:0.5 
-1.6407581834342914728352980091586 1:0.02884615 6:0.66666669 18:0.25714287 29:0.1 30:0.1 34:0.33333334 96:0.33333334 98:1 2125:0.5 2150:0.5 2172:0.5 2174:0.5 2176:0.5 2178:0.5 2179:0.5 2180:0.5 
-1.6407581834342914728352980091586 1:0.03846154 16:1 18:0.11428571 33:0.5 539:1 2127:0.5 2136:0.5 2150:0.5 2151:0.5 2153:0.5 2171:0.5 2175:0.5 2210:0.5 
-0.61726378230550948966737223599921 1:0.086538456 3:0.11111111 5:0.33333334 6:0.22222222 18:0.057142861 19:0.2 21:0.33333334 22:0.01219512 23:0.14285713 27:0.14285713 30:0.2 61:0.25 62:0.5 81:0.5 82:0.5 99:0.125 501:0.33333334 661:1 1743:0.5 2118:0.5 2122:0.5 2123:0.5 2146:0.5 2148:0.5 2149:0.5 2150:0.5 
1.6407581834342914728352980091586 1:0.0096153803 3:1 18:0.028571431 22:0.01219512 2114:0.5 2115:0.5 2163:0.5 2167:0.5 2169:0.5 
1.6407581834342914728352980091586 1:0.01923077 18:0.028571431 96:0.33333334 233:0.33333334 493:1 2114:0.5 2121:0.5 2148:0.5 2151:0.5 2168:0.5 
1.6407581834342914728352980091586 1:0.0096153803 3:1 18:0.028571431 22:0.01219512 2114:0.5 2115:0.5 2165:0.5 2167:0.5 2169:0.5 
-1.6407581834342914728352980091586 1:0.01923077 3:0.5 12:0.5 18:0.057142861 22:0.01219512 85:0.25 238:0.5 2114:0.5 2115:0.5 2118:0.5 2123:0.5 2165:0.5 2167:0.5 2169:0.5 
-0.12218248143729644461519256992688 1:0.04807692 3:0.2 5:0.2 14:0.2 18:0.057142861 19:0.06666667 22:0.01219512 41:0.11111111 52:0.2 65:0.33333334 140:1 501:0.33333334 514:0.5 518:1 661:1 931:1 2118:0.5 2122:0.5 2123:0.5 2148:0.5 2150:0.5 2151:0.5 2210:0.5 
-1.6407581834342914728352980091586 1:0.02884615 3:1 18:0.028571431 22:0.036585368 44:0.030769231 2114:0.5 2115:0.5 2121:0.5 2126:0.5 2130:0.5 
1.6407581834342914728352980091586 1:0.03846154 6:0.25 7:0.25 16:0.5 18:0.12857144 30:0.1 33:0.25 35:0.25 181:0.16666667 338:0.25 539:0.33333334 2132:0.5 2136:0.5 2150:0.5 2153:0.5 2158:0.5 2160:0.5 2179:0.5 2180:0.5 
1.6407581834342914728352980091586 1:0.02884615 6:0.33333334 16:0.33333334 18:0.15714286 30:0.1 33:0.125 35:0.25 952:0.125 1758:1 1759:1 1893:1 2121:0.5 2136:0.5 2150:0.5 2151:0.5 2153:0.5 2158:0.5 2160:0.5 2161:0.5 
1.6407581834342914728352980091586 1:0.067307688 6:0.2857143 14:0.14285713 17:0.14285713 18:0.2857143 29:0.1 30:0.1 34:0.33333334 41:0.11111111 43:0.2 65:0.33333334 83:0.25 124:0.16666667 140:1 150:0.01333333 200:0.25 253:0.5 333:0.5 595:0.33333334 596:0.33333334 760:1 1442:1 1523:1 2140:0.5 2144:0.5 2147:0.5 2157:0.5 2182:0.5 2207:0.5 
-0.34487897919476234731561703483749 1:0.25 3:0.26923078 5:0.03846154 6:0.07692308 9:0.03846154 12:0.03846154 14:0.1923077 16:0.07692308 18:0.32857144 19:0.06666667 22:0.085365847 26:0.5 29:0.2 32:0.5 33:0.25 41:0.55555558 43:0.30000001 44:0.046153851 51:0.25 52:0.40000001 61:0.75 75:0.25 80:0.5 85:0.25 112:0.5 115:0.33333334 123:1 160:1 162:0.5 163:1 174:0.25 224:0.5 339:1 370:0.5 413:0.5 481:0.5 501:0.66666669 526:0.25 530:0.5 564:1 799:0.33333334 1170:1 1409:1 1518:1 2148:0.5 2152:0.5 2153:0.5 2155:0.5 2160:0.5 2161:0.5 2166:0.5 2171:0.5 2175:0.5 2180:0.5 2181:0.5 2182:0.5 2183:0.5 2184:0.5 2192:0.5 2194:0.5 2202:0.5 2216:0.5 2218:0.5 
-0.039544643915787901222724798344643 1:0.125 5:0.46153846 6:0.07692308 7:0.07692308 9:0.15384614 18:0.12857144 19:0.40000001 23:0.2857143 29:0.1 43:0.40000001 69:0.5 75:0.25 96:0.33333334 97:0.5 142:0.25 143:0.5 144:0.5 146:0.5 148:0.40000001 181:0.16666667 189:0.16666667 259:0.33333334 260:1 278:1 335:1 337:0.25 495:0.5 669:0.5 713:0.5 2132:0.5 2136:0.5 2143:0.5 2148:0.5 2151:0.5 2153:0.5 2158:0.5 2164:0.5 2168:0.5 2171:0.5 2192:0.5 
-0.22414765058954336240937266211404 1:0.057692312 5:0.16666667 7:0.16666667 9:0.16666667 18:0.11428571 19:0.06666667 43:0.2 74:0.25 75:0.25 144:0.5 186:0.25 237:0.33333334 262:0.25 321:0.33333334 389:0.5 440:1 501:0.33333334 530:0.5 799:0.33333334 2115:0.5 2120:0.5 2122:0.5 2128:0.5 2132:0.5 2148:0.5 2153:0.5 2158:0.5 2168:0.5 2171:0.5 2175:0.5 2179:0.5 2192:0.5 
1.6407581834342914728352980091586 1:0.0096153803 3:1 18:0.028571431 22:0.01219512 2114:0.5 2115:0.5 2165:0.5 2167:0.5 2169:0.5 
1.6407581834342914728352980091586 1:0.0096153803 5:1 18:0.12857144 19:0.06666667 2115:0.5 2125:0.5 2154:0.5 2172:0.5 2174:0.5 2176:0.5 2178:0.5 
1.6407581834342914728352980091586 1:0.0096153803 3:1 18:0.028571431 22:0.01219512 2114:0.5 2115:0.5 2165:0.5 2167:0.5 2169:0.5 
-1.6407581834342914728352980091586 1:0.0096153803 6:1 18:0.18571429 29:0.1 2152:0.5 2158:0.5 2160:0.5 2161:0.5 2182:0.5 2202:0.5 2215:0.5 2216:0.5 
0.54124658451680951465334601380164 1:0.02884615 6:0.33333334 16:0.33333334 18:0.028571431 29:0.1 32:0.25 33:0.125 389:0.5 1437:1 2114:0.5 2121:0.5 2126:0.5 2150:0.5 2153:0.5 2156:0.5 
-0.6140252619803440170542785381258 1:0.0096153803 18:0.057142861 327:1 2114:0.5 2115:0.5 2118:0.5 2123:0.5 2125:0.5 2143:0.5 2146:0.5 
1.6407581834342914728352980091586 1:0.07692308 5:0.375 6:0.125 9:0.125 18:0.028571431 19:0.2 27:0.14285713 30:0.1 43:0.2 62:0.5 78:0.33333334 142:0.25 148:0.40000001 189:0.33333334 198:1 257:0.5 347:1 349:0.33333334 535:1 2111:0.5 2112:0.5 2114:0.5 2115:0.5 2121:0.5 2146:0.5 2148:0.5 2150:0.5 2151:0.5 2153:0.5 2156:0.5 
1.6407581834342914728352980091586 1:0.15384614 3:0.125 5:0.125 7:0.1875 9:0.25 14:0.125 16:0.0625 18:0.38571429 19:0.13333333 22:0.024390239 33:0.125 38:0.33333334 41:0.22222222 43:0.60000002 51:0.125 56:0.01639344 58:0.2 74:0.25 75:0.25 108:0.5 123:0.5 150:0.01333333 188:0.5 189:0.16666667 222:0.33333334 224:0.5 232:0.5 233:0.33333334 248:1 259:1 322:0.25 379:0.5 456:1 457:1 481:0.5 495:0.5 497:0.5 506:1 764:1 794:1 806:1 1125:1 1158:1 1227:1 1364:1 1398:1 2094:1 2115:0.5 2140:0.5 2144:0.5 2147:0.5 2148:0.5 2153:0.5 2156:0.5 2164:0.5 2166:0.5 2168:0.5 2179:0.5 2183:0.5 
1.6407581834342914728352980091586 1:0.25 3:0.03846154 5:0.11538462 6:0.23076923 7:0.03846154 11:0.03846154 14:0.03846154 16:0.07692308 18:0.42857143 19:0.2 22:0.01219512 27:0.2857143 29:0.2 30:0.40000001 33:0.25 35:0.5 41:0.11111111 43:0.60000002 61:0.25 67:1 69:1 74:0.25 75:0.25 95:1 142:0.25 143:0.5 144:0.5 148:0.2 150:0.039999999 154:0.5 156:0.5 166:0.5 189:0.16666667 196:0.5 232:1 233:1 234:1 236:1 237:0.33333334 248:1 267:1 337:0.25 348:0.5 379:0.5 382:0.5 424:0.5 488:0.33333334 492:0.5 506:1 526:0.25 764:1 1227:1 1650:1 1995:1 1996:1 2144:0.5 2147:0.5 2150:0.5 2156:0.5 2157:0.5 2183:0.5 2184:0.5 
-1.2214110695458539890267957161996 1:0.086538456 5:0.11111111 6:0.11111111 7:0.11111111 9:0.11111111 14:0.11111111 18:0.04285714 19:0.06666667 27:0.14285713 30:0.1 41:0.11111111 43:0.2 65:0.66666669 68:0.5 140:1 142:0.25 148:0.2 181:0.16666667 199:0.33333334 257:0.5 347:1 349:0.33333334 535:1 811:1 1465:1 2118:0.5 2121:0.5 2122:0.5 2126:0.5 2148:0.5 2150:0.5 2153:0.5 2156:0.5 
-0.16007629756055050118668248160247 1:0.21153846 3:0.13636364 4:0.045454551 5:0.045454551 7:0.045454551 11:0.045454551 14:0.090909094 16:0.090909094 17:0.045454551 18:0.38571429 19:0.06666667 22:0.036585368 33:0.25 41:0.22222222 43:0.1 44:0.01538462 54:0.11111111 56:0.01639344 61:0.25 65:0.33333334 71:0.5 83:0.25 84:0.25 93:0.33333334 104:0.5 108:1 138:1 154:0.5 156:0.5 173:1 174:0.25 186:0.25 275:0.5 279:0.5 280:0.33333334 282:0.33333334 310:0.5 311:1 389:0.5 406:0.33333334 469:1 526:0.5 539:0.33333334 574:1 935:1 998:1 1185:1 1276:1 1287:1 1393:1 1644:1 1645:1 1646:0.33333334 1647:1 1648:1 1649:1 1650:1 1651:1 2155:0.5 2159:0.5 2160:0.5 2161:0.5 2175:0.5 2184:0.5 2186:0.5 2194:0.5 2202:0.5 2220:0.5 
-0.89884786388025728065542807598831 1:0.057692312 5:0.33333334 6:0.16666667 18:0.01428571 19:0.13333333 27:0.14285713 29:0.1 62:0.5 78:0.33333334 81:0.5 134:0.5 359:1 952:0.125 1758:1 1759:1 2111:0.5 2115:0.5 2121:0.5 2126:0.5 2148:0.5 2150:0.5 
1.6407581834342914728352980091586 1:0.01923077 6:1 18:0.04285714 29:0.2 31:0.25 2118:0.5 2121:0.5 2126:0.5 2129:0.5 2130:0.5 2172:0.5 
1.6407581834342914728352980091586 1:0.01923077 6:1 18:0.15714286 30:0.2 99:0.125 2122:0.5 2129:0.5 2157:0.5 2174:0.5 2176:0.5 2178:0.5 
0.77177582946161726873413044813788 1:0.02884615 6:0.33333334 9:0.33333334 16:0.33333334 18:0.17142858 29:0.1 33:0.125 75:0.25 323:0.5 481:0.5 2146:0.5 2149:0.5 2150:0.5 2153:0.5 2161:0.5 2171:0.5 2185:0.5 2192:0.5 
-1.6407581834342914728352980091586 1:0.01923077 6:1 18:0.2 29:0.2 31:0.25 2141:0.5 2165:0.5 2167:0.5 2178:0.5 2181:0.5 2182:0.5 2183:0.5 2184:0.5 
-1.6407581834342914728352980091586 1:0.01923077 6:1 18:0.24285714 29:0.2 31:0.25 2141:0.5 2165:0.5 2167:0.5 2169:0.5 2170:0.5 2172:0.5 2174:0.5 2196:0.5 
-1.6407581834342914728352980091586 1:0.01923077 5:0.5 6:0.5 18:0.057142861 19:0.06666667 29:0.1 130:0.5 2114:0.5 2115:0.5 2118:0.5 2121:0.5 2126:0.5 2141:0.5 2181:0.5 
1.6407581834342914728352980091586 1:0.28846154 5:0.2 6:0.30000001 7:0.033333331 9:0.1 11:0.033333331 14:0.06666667 17:0.033333331 18:0.01428571 19:0.40000001 23:0.5714286 27:0.2857143 29:0.30000001 30:0.60000002 41:0.22222222 43:0.69999999 66:0.66666669 67:0.5 69:0.5 73:1 74:0.25 75:0.25 78:0.33333334 84:0.25 93:0.33333334 99:0.25 100:0.5 105:0.5 142:0.25 144:0.5 156:0.5 166:0.5 196:0.75 199:0.66666669 200:0.25 201:0.5 237:0.33333334 257:0.5 258:0.5 331:1 337:0.5 359:1 385:0.5 389:0.5 472:0.5 675:1 755:1 768:1 804:1 919:1 1740:1 2121:0.5 2126:0.5 2130:0.5 2133:0.5 
1.6407581834342914728352980091586 1:0.11538462 3:0.16666667 6:0.16666667 8:0.16666666 14:0.16666667 16:0.083333328 17:0.083333328 18:0.41428572 22:0.024390239 27:0.14285713 28:0.25 29:0.2 32:0.25 33:0.125 41:0.22222222 43:0.2 44:0.01538462 56:0.01639344 64:0.5 84:0.25 93:0.33333334 96:0.33333334 109:0.25 141:0.5 142:0.25 162:0.5 200:0.25 257:0.5 450:0.5 736:1 845:1 1168:1 1420:1 2137:0.5 2140:0.5 2144:0.5 2147:0.5 2152:0.5 2156:0.5 2180:0.5 2181:0.5 
1.6407581834342914728352980091586 1:0.13461538 3:0.14285713 6:0.071428567 7:0.071428567 9:0.14285713 14:0.071428567 16:0.071428567 17:0.071428567 18:0.40000001 22:0.024390239 27:0.14285713 30:0.1 33:0.125 35:0.25 41:0.11111111 43:0.30000001 44:0.01538462 50:1 56:0.01639344 66:0.33333334 67:0.5 69:0.5 73:1 75:0.25 83:0.25 95:1 144:0.5 196:0.25 237:0.33333334 259:0.33333334 331:1 374:1 495:0.5 496:1 526:0.25 527:0.33333334 675:1 1335:1 1906:1 2122:0.5 2144:0.5 2147:0.5 2150:0.5 2152:0.5 2155:0.5 2156:0.5 2166:0.5 2168:0.5 2180:0.5 2183:0.5 2184:0.5 
-1.527856249819720346749818418175 1:0.03846154 5:0.5 6:0.25 18:0.028571431 19:0.13333333 29:0.1 130:0.5 134:0.5 233:0.33333334 1548:1 2111:0.5 2114:0.5 2115:0.5 2165:0.5 2167:0.5 
1.5617379413394418818938902404625 1:0.03846154 6:0.5 16:0.25 18:0.12857144 28:0.25 29:0.2 32:0.25 33:0.125 83:0.25 612:1 2121:0.5 2125:0.5 2127:0.5 2136:0.5 2150:0.5 2155:0.5 2156:0.5 2160:0.5 2161:0.5 2173:0.5 2177:0.5 2180:0.5 2194:0.5 
-0.061142229610499025660441674290269 1:0.13461538 6:0.14285713 7:0.35714287 9:0.14285713 11:0.071428567 16:0.071428567 18:0.028571431 29:0.2 33:0.125 38:0.33333334 43:0.1 66:0.33333334 71:0.5 72:1 73:1 74:0.25 75:0.25 124:0.33333334 156:0.5 322:0.25 417:0.5 418:1 501:0.33333334 591:1 593:1 594:1 595:0.66666669 596:0.66666669 732:1 1369:1 1370:1 1371:1 1372:1 1373:1 1374:1 1375:1 1376:1 1377:1 1378:1 2110:0.5 2155:0.5 2162:0.5 2212:0.5 2213:0.5 
1.6407581834342914728352980091586 1:0.0096153803 18:0.071428567 61:0.25 2115:0.5 2123:0.5 2127:0.5 2128:0.5 2148:0.5 2155:0.5 2203:0.5 2204:0.5 
1.6407581834342914728352980091586 1:0.02884615 5:0.33333334 6:0.66666669 18:0.057142861 19:0.06666667 29:0.2 31:0.25 134:0.5 2123:0.5 2148:0.5 2165:0.5 2167:0.5 2169:0.5 2170:0.5 2172:0.5 2174:0.5 
1.6407581834342914728352980091586 1:0.0096153803 18:0.12857144 61:0.25 2115:0.5 2146:0.5 2148:0.5 2149:0.5 2171:0.5 2193:0.5 2194:0.5 2196:0.5 
-1.4853073224261361673370629432611 1:0.04807692 5:0.60000002 6:0.40000001 18:0.028571431 19:0.2 23:0.2857143 29:0.2 31:0.25 134:0.5 2111:0.5 2114:0.5 2115:0.5 2143:0.5 2146:0.5 2149:0.5 
-1.6407581834342914728352980091586 1:0.01923077 3:0.5 5:0.5 18:0.04285714 19:0.06666667 21:0.33333334 22:0.01219512 2114:0.5 2115:0.5 2118:0.5 2143:0.5 2146:0.5 2169:0.5 
-1.6407581834342914728352980091586 1:0.02884615 6:0.66666669 18:0.071428567 30:0.2 99:0.125 2123:0.5 2127:0.5 2128:0.5 2150:0.5 2151:0.5 2153:0.5 2155:0.5 2163:0.5 
1.6407581834342914728352980091586 1:0.086538456 5:0.11111111 6:0.33333334 14:0.11111111 17:0.11111111 18:0.04285714 19:0.06666667 27:0.14285713 29:0.2 30:0.1 41:0.11111111 43:0.2 84:0.25 93:0.33333334 100:0.25 110:0.5 123:0.5 130:0.5 142:0.25 148:0.2 196:0.25 348:0.5 472:0.5 473:0.5 1275:1 2118:0.5 2121:0.5 2122:0.5 2126:0.5 2130:0.5 2155:0.5 2182:0.5 
1.6407581834342914728352980091586 1:0.07692308 5:0.25 6:0.125 7:0.25 9:0.25 18:0.15714286 19:0.13333333 30:0.1 38:0.33333334 43:0.2 148:0.2 186:0.25 196:0.25 222:0.33333334 259:0.33333334 322:0.25 349:0.33333334 483:1 521:0.33333334 535:1 1088:0.5 1148:1 1149:1 2121:0.5 2126:0.5 2130:0.5 2132:0.5 2155:0.5 2168:0.5 2173:0.5 2185:0.5 
-0.12077178044205340301520124057788 1:0.07692308 5:0.125 6:0.125 7:0.125 9:0.25 17:0.125 18:0.071428567 19:0.06666667 30:0.1 38:0.33333334 43:0.2 148:0.2 186:0.25 196:0.25 222:0.33333334 233:0.33333334 259:0.33333334 349:0.33333334 528:1 535:1 1148:1 1149:1 1677:1 1678:1 1679:1 2121:0.5 2123:0.5 2126:0.5 2127:0.5 2128:0.5 2130:0.5 2155:0.5 2168:0.5 
-0.053591688545275753541297092397144 1:0.067307688 6:0.42857143 7:0.14285713 18:0.057142861 29:0.1 30:0.2 43:0.2 99:0.125 159:0.5 200:0.25 282:0.33333334 322:0.25 351:1 389:0.5 483:1 913:0.5 1025:0.5 2057:1 2121:0.5 2123:0.5 2126:0.5 2127:0.5 2155:0.5 2166:0.5 2190:0.5 
1.6407581834342914728352980091586 1:0.02884615 3:0.33333334 5:0.33333334 6:0.33333334 18:0.04285714 19:0.06666667 21:0.33333334 22:0.01219512 29:0.1 287:0.33333334 2114:0.5 2118:0.5 2133:0.5 2179:0.5 2180:0.5 2181:0.5 
1.6407581834342914728352980091586 1:0.02884615 4:0.33333334 5:0.33333334 6:0.33333334 18:0.028571431 19:0.06666667 30:0.1 54:0.11111111 131:0.5 135:0.33333334 2111:0.5 2114:0.5 2143:0.5 2164:0.5 2168:0.5 
1.6407581834342914728352980091586 1:0.0096153803 18:0.071428567 61:0.25 2115:0.5 2122:0.5 2123:0.5 2127:0.5 2128:0.5 2143:0.5 2146:0.5 2148:0.5 
-1.6407581834342914728352980091586 1:0.02884615 6:0.33333334 9:0.33333334 18:0.12857144 29:0.1 75:0.25 142:0.25 561:0.5 698:0.5 2112:0.5 2115:0.5 2122:0.5 2132:0.5 2143:0.5 2148:0.5 2158:0.5 2185:0.5 
-1.6407581834342914728352980091586 1:0.01923077 6:0.5 18:0.057142861 29:0.1 142:0.25 348:0.5 2112:0.5 2115:0.5 2118:0.5 2122:0.5 2143:0.5 2148:0.5 2186:0.5 
-1.6407581834342914728352980091586 1:0.01923077 6:0.5 18:0.11428571 30:0.1 150:0.01333333 267:0.5 781:0.5 963:1 2121:0.5 2126:0.5 2130:0.5 2133:0.5 2161:0.5 2171:0.5 2185:0.5 2192:0.5 
1.6407581834342914728352980091586 1:0.13461538 5:0.071428567 6:0.21428572 7:0.14285713 9:0.14285713 14:0.071428567 16:0.071428567 18:0.028571431 19:0.06666667 28:0.25 29:0.30000001 32:0.25 33:0.125 41:0.11111111 43:0.1 65:0.33333334 74:0.25 75:0.25 83:0.25 115:0.33333334 166:0.5 237:0.33333334 259:0.33333334 314:1 315:1 322:0.25 337:0.25 361:1 370:0.5 662:1 1236:1 1406:1 1793:1 1813:1 2114:0.5 2121:0.5 2126:0.5 2130:0.5 2133:0.5 
1.6407581834342914728352980091586 1:0.07692308 6:0.25 9:0.25 18:0.057142861 27:0.14285713 29:0.2 31:0.25 43:0.30000001 65:0.33333334 66:0.33333334 67:0.5 68:0.5 69:0.5 70:1 73:1 74:0.25 75:0.25 96:0.33333334 144:0.5 200:0.25 465:1 811:0.5 2114:0.5 2118:0.5 2123:0.5 2129:0.5 2200:0.5 
1.6407581834342914728352980091586 1:0.086538456 6:0.22222222 9:0.22222222 11:0.11111111 18:0.04285714 27:0.2857143 29:0.2 31:0.25 43:0.2 66:0.33333334 74:0.25 75:0.25 142:0.25 154:0.5 156:0.5 186:0.25 191:1 257:0.5 258:0.5 262:0.25 330:1 332:1 348:0.5 2111:0.5 2115:0.5 2118:0.5 2121:0.5 2122:0.5 2126:0.5 2148:0.5 2150:0.5 2153:0.5 2155:0.5 2156:0.5 2160:0.5 
-0.50504809325778798889672316363431 1:0.096153848 6:0.30000001 7:0.1 16:0.2 18:0.028571431 29:0.2 30:0.1 31:0.25 33:0.25 35:0.25 38:0.33333334 43:0.40000001 74:0.25 75:0.25 144:0.5 186:0.25 191:1 200:0.25 222:0.33333334 262:0.25 337:0.25 539:0.33333334 1841:1 2110:0.5 2111:0.5 2143:0.5 2146:0.5 2183:0.5 
-0.10340518565862323596693528315882 1:0.13461538 3:0.071428567 6:0.071428567 7:0.071428567 9:0.21428572 14:0.071428567 17:0.14285713 18:0.24285714 22:0.01219512 27:0.14285713 29:0.1 41:0.11111111 43:0.30000001 65:0.66666669 66:0.33333334 67:0.5 68:0.5 69:0.5 70:1 73:1 75:0.25 84:0.25 93:0.33333334 123:0.5 144:0.5 259:0.33333334 280:0.33333334 315:1 322:0.25 323:0.5 495:0.5 662:1 811:0.5 1125:1 1404:1 1406:1 2137:0.5 2140:0.5 2144:0.5 2147:0.5 2156:0.5 2157:0.5 2168:0.5 
-0.13498603868928241156233127640007 1:0.25961539 3:0.18518519 5:0.074074067 6:0.074074067 7:0.037037041 9:0.11111111 14:0.074074067 16:0.074074067 17:0.074074067 18:0.35714287 19:0.13333333 20:0.2 22:0.060975611 27:0.2857143 29:0.1 30:0.1 33:0.25 35:0.25 41:0.22222222 43:0.5 44:0.030769231 52:0.2 56:0.01639344 58:0.2 62:0.5 65:0.66666669 66:0.33333334 67:1 68:0.5 69:1 70:1 73:1 74:0.5 75:0.5 84:0.25 93:0.33333334 109:0.25 144:1 186:0.25 210:0.33333334 237:0.33333334 262:0.25 280:0.33333334 315:1 321:0.33333334 337:0.25 485:1 539:0.33333334 811:1 929:1 1120:1 1130:1 1424:1 2144:0.5 2147:0.5 2158:0.5 2159:0.5 2160:0.5 2171:0.5 2184:0.5 
1.6407581834342914728352980091586 1:0.01923077 5:0.5 6:0.5 18:0.071428567 19:0.06666667 30:0.1 251:1 2112:0.5 2128:0.5 2132:0.5 2143:0.5 2150:0.5 2158:0.5 2166:0.5 2171:0.5 
1.3314763551843571409705191399553 1:0.02884615 4:0.33333334 6:0.66666669 18:0.071428567 29:0.1 30:0.1 54:0.11111111 405:0.33333334 463:0.5 2122:0.5 2127:0.5 2128:0.5 2132:0.5 2143:0.5 2146:0.5 2148:0.5 2150:0.5 
1.6407581834342914728352980091586 1:0.02884615 6:0.66666669 18:0.1 30:0.2 61:0.25 99:0.125 217:0.5 2118:0.5 2122:0.5 2148:0.5 2150:0.5 2151:0.5 2163:0.5 2186:0.5 2202:0.5 
-1.6407581834342914728352980091586 1:0.01923077 5:0.5 6:0.5 18:0.028571431 19:0.06666667 30:0.1 251:1 2114:0.5 2115:0.5 2146:0.5 2148:0.5 2149:0.5 
-1.6407581834342914728352980091586 1:0.01923077 5:0.5 6:0.5 18:0.04285714 19:0.06666667 29:0.1 134:0.5 2114:0.5 2115:0.5 2118:0.5 2146:0.5 2148:0.5 2149:0.5 
-1.6407581834342914728352980091586 1:0.01923077 5:0.5 6:0.5 18:0.028571431 19:0.06666667 30:0.1 251:1 2114:0.5 2115:0.5 2143:0.5 2146:0.5 2148:0.5 
1.6407581834342914728352980091586 1:0.086538456 6:0.22222222 7:0.22222222 9:0.33333334 16:0.11111111 18:0.071428567 29:0.1 30:0.1 33:0.125 43:0.30000001 74:0.25 75:0.5 100:0.25 144:0.5 186:0.25 196:0.25 237:0.33333334 259:0.33333334 262:0.25 321:0.33333334 322:0.25 481:0.5 495:0.5 496:1 1125:1 1669:1 2118:0.5 2121:0.5 2122:0.5 2123:0.5 2126:0.5 2128:0.5 2130:0.5 2155:0.5 2206:0.5 
1.6407581834342914728352980091586 1:0.125 3:0.07692308 4:0.07692308 5:0.23076923 6:0.23076923 16:0.15384614 18:0.15714286 19:0.2 20:0.2 22:0.01219512 23:0.14285713 30:0.30000001 33:0.25 35:0.25 43:0.2 50:1 54:0.11111111 56:0.01639344 61:0.25 112:0.5 138:1 150:0.01333333 196:0.5 248:1 383:1 384:1 405:0.33333334 424:0.5 426:0.33333334 1008:1 1009:1 2110:0.5 2121:0.5 2124:0.5 2125:0.5 2126:0.5 2148:0.5 2153:0.5 2171:0.5 2192:0.5 2194:0.5 2196:0.5 
0.97303481643927236532931601686869 1:0.11538462 6:0.16666667 7:0.083333328 16:0.16666667 17:0.16666667 18:0.057142861 29:0.2 32:0.25 33:0.25 181:0.16666667 186:0.25 367:0.5 389:0.5 391:0.5 439:0.5 673:0.5 1780:1 1787:1 1917:1 1922:1 1923:1 2121:0.5 2122:0.5 2123:0.5 2126:0.5 2127:0.5 2130:0.5 2133:0.5 
-0.65045655729885965001813019625843 1:0.057692312 7:0.16666667 9:0.33333334 14:0.16666667 17:0.16666667 18:0.04285714 41:0.11111111 43:0.1 75:0.25 84:0.25 93:0.33333334 259:0.33333334 320:1 322:0.25 472:0.5 496:1 755:1 1125:1 1740:1 2118:0.5 2121:0.5 2122:0.5 2126:0.5 2130:0.5 2150:0.5 2156:0.5 
-0.8529158514279315816963844554266 1:0.02884615 6:0.33333334 18:0.057142861 30:0.1 43:0.1 96:0.33333334 196:0.25 282:0.33333334 351:1 465:1 2121:0.5 2123:0.5 2126:0.5 2127:0.5 2130:0.5 2133:0.5 2155:0.5 2160:0.5 
-0.054362056428401445140607961548085 1:0.125 5:0.15384614 6:0.30769232 9:0.23076923 17:0.07692308 18:0.085714288 19:0.13333333 29:0.2 30:0.2 43:0.60000002 75:0.25 108:0.5 115:0.33333334 129:0.5 186:0.25 189:0.16666667 196:0.25 199:0.66666669 200:0.5 259:0.66666669 262:0.25 279:0.5 337:0.25 495:0.5 496:1 598:1 750:1 806:1 1236:1 2121:0.5 2123:0.5 2126:0.5 2127:0.5 2128:0.5 2130:0.5 2133:0.5 2155:0.5 2160:0.5 
1.6407581834342914728352980091586 1:0.0096153803 5:1 18:0.04285714 19:0.06666667 2114:0.5 2115:0.5 2118:0.5 2146:0.5 2165:0.5 2167:0.5 2169:0.5 
1.6407581834342914728352980091586 1:0.0096153803 5:1 18:0.14285713 19:0.06666667 2115:0.5 2125:0.5 2154:0.5 2172:0.5 2174:0.5 2176:0.5 2178:0.5 2185:0.5 
1.6407581834342914728352980091586 1:0.0096153803 5:1 18:0.04285714 19:0.06666667 2114:0.5 2115:0.5 2118:0.5 2165:0.5 2167:0.5 2169:0.5 
-0.14807112170517952587367460637324 1:0.04807692 6:0.40000001 8:0.40000001 16:0.2 17:0.2 18:0.1 28:0.25 29:0.2 32:0.25 33:0.125 64:0.5 84:0.25 346:0.5 1559:1 2121:0.5 2126:0.5 2127:0.5 2130:0.5 2132:0.5 2136:0.5 2155:0.5 2156:0.5 
-1.6407581834342914728352980091586 1:0.02884615 5:0.33333334 6:0.33333334 18:0.028571431 19:0.06666667 27:0.14285713 29:0.1 134:0.5 387:0.5 2111:0.5 2114:0.5 2120:0.5 2124:0.5 2143:0.5 
-1.6407581834342914728352980091586 1:0.01923077 5:0.5 12:0.5 18:0.04285714 19:0.06666667 85:0.25 87:1 2114:0.5 2118:0.5 2148:0.5 2150:0.5 2165:0.5 2167:0.5 
1.6407581834342914728352980091586 1:0.01923077 16:0.5 18:0.057142861 33:0.125 1251:1 1252:1 2121:0.5 2123:0.5 2126:0.5 2127:0.5 2130:0.5 2150:0.5 2155:0.5 2156:0.5 2160:0.5 
1.6407581834342914728352980091586 1:0.02884615 4:0.33333334 6:0.66666669 18:0.1 29:0.1 30:0.1 54:0.11111111 100:0.25 135:0.33333334 2121:0.5 2126:0.5 2127:0.5 2130:0.5 2136:0.5 2150:0.5 2155:0.5 2161:0.5 
0.64428832879865061133983772378997 1:0.10576923 4:0.090909094 6:0.63636363 9:0.090909094 16:0.090909094 18:0.057142861 29:0.30000001 30:0.40000001 32:0.25 33:0.125 43:0.40000001 54:0.11111111 74:0.25 75:0.25 99:0.125 100:0.25 196:0.5 199:0.66666669 337:0.5 698:0.5 922:0.5 1289:1 1290:1 1291:1 1292:1 1299:1 2114:0.5 2115:0.5 2118:0.5 2123:0.5 2143:0.5 2146:0.5 2148:0.5 2149:0.5 2151:0.5 2153:0.5 2163:0.5 2164:0.5 2166:0.5 
-1.6407581834342914728352980091586 1:0.057692312 5:0.16666667 6:0.33333334 16:0.16666667 18:0.071428567 19:0.06666667 27:0.14285713 28:0.25 29:0.2 32:0.25 33:0.125 62:0.5 472:0.5 473:0.5 1333:1 2112:0.5 2123:0.5 2127:0.5 2128:0.5 2143:0.5 2150:0.5 2153:0.5 2155:0.5 
-1.4230905832954294787384696974186 1:0.0096153803 18:0.057142861 83:0.25 2121:0.5 2123:0.5 2126:0.5 2127:0.5 2148:0.5 2150:0.5 2153:0.5 2155:0.5 2156:0.5 2160:0.5 2166:0.5 2171:0.5 
-0.41363555652560901609859911332023 1:0.02884615 6:0.33333334 18:0.071428567 27:0.14285713 30:0.1 132:0.5 472:0.5 473:0.5 2121:0.5 2126:0.5 2128:0.5 2130:0.5 2132:0.5 2150:0.5 2155:0.5 2158:0.5 
1.6407581834342914728352980091586 1:0.0096153803 5:1 18:0.057142861 19:0.06666667 2114:0.5 2115:0.5 2118:0.5 2123:0.5 2165:0.5 2167:0.5 2169:0.5 
1.6407581834342914728352980091586 1:0.0096153803 5:1 18:0.04285714 19:0.06666667 2114:0.5 2115:0.5 2118:0.5 2165:0.5 2167:0.5 2169:0.5 
1.6407581834342914728352980091586 1:0.0096153803 5:1 18:0.057142861 19:0.06666667 2114:0.5 2115:0.5 2118:0.5 2123:0.5 2165:0.5 2167:0.5 2169:0.5 
-1.6407581834342914728352980091586 1:0.125 3:0.07692308 6:0.69230771 7:0.07692308 16:0.07692308 18:0.27142856 22:0.01219512 29:0.69999999 30:0.2 31:0.5 33:0.125 43:0.40000001 49:0.25 96:0.33333334 100:0.5 162:0.5 181:0.16666667 196:0.5 200:0.5 337:1 697:0.5 872:1 2137:0.5 2140:0.5 2144:0.5 2147:0.5 
-1.6407581834342914728352980091586 1:0.067307688 3:0.14285713 4:0.2857143 6:0.42857143 18:0.071428567 22:0.01219512 30:0.30000001 54:0.22222222 115:0.33333334 127:0.33333334 135:0.66666669 210:0.33333334 405:0.66666669 2118:0.5 2122:0.5 2123:0.5 2148:0.5 2149:0.5 2150:0.5 2151:0.5 2202:0.5 
-1.6407581834342914728352980091586 1:0.03846154 5:0.25 6:0.5 18:0.057142861 19:0.06666667 29:0.2 31:0.25 77:0.5 78:0.33333334 381:1 2118:0.5 2122:0.5 2123:0.5 2148:0.5 2149:0.5 2150:0.5 2151:0.5 
1.6407581834342914728352980091586 1:0.01923077 6:0.5 9:0.5 18:0.11428571 29:0.1 75:0.25 698:0.5 2121:0.5 2126:0.5 2132:0.5 2148:0.5 2150:0.5 2155:0.5 2158:0.5 2185:0.5 
1.6407581834342914728352980091586 1:0.02884615 6:0.66666669 18:0.01428571 30:0.2 233:0.33333334 234:0.5 903:1 2110:0.5 2146:0.5 2148:0.5 2149:0.5 
1.6407581834342914728352980091586 1:0.01923077 9:1 18:0.04285714 75:0.5 654:1 2111:0.5 2114:0.5 2121:0.5 2146:0.5 2150:0.5 2184:0.5 
1.6407581834342914728352980091586 1:0.086538456 5:0.11111111 6:0.33333334 14:0.11111111 17:0.11111111 18:0.04285714 19:0.06666667 27:0.14285713 29:0.2 30:0.1 41:0.11111111 43:0.2 84:0.25 93:0.33333334 100:0.25 110:0.5 123:0.5 130:0.5 142:0.25 148:0.2 196:0.25 348:0.5 472:0.5 473:0.5 1275:1 2118:0.5 2121:0.5 2122:0.5 2126:0.5 2130:0.5 2155:0.5 2182:0.5 
-0.32492079468569728950555486335361 1:0.057692312 5:0.16666667 6:0.33333334 8:0.33333334 18:0.057142861 19:0.06666667 27:0.14285713 30:0.2 56:0.065573767 58:0.2 64:0.5 96:0.33333334 132:0.5 139:0.5 141:0.5 408:1 426:0.66666669 514:0.5 862:1 1071:1 2112:0.5 2118:0.5 2122:0.5 2123:0.5 2143:0.5 2150:0.5 2166:0.5 
-0.30841964209428296417314641075791 1:0.03846154 3:0.25 5:0.5 9:0.25 18:0.028571431 19:0.13333333 20:0.2 21:0.33333334 22:0.01219512 75:0.25 1136:1 2110:0.5 2114:0.5 2165:0.5 2167:0.5 2169:0.5 
-1.6407581834342914728352980091586 1:0.03846154 5:0.25 6:0.5 18:0.071428567 19:0.06666667 29:0.1 30:0.1 61:0.25 137:0.5 217:0.5 492:0.5 2114:0.5 2115:0.5 2121:0.5 2125:0.5 2126:0.5 2135:0.5 2139:0.5 2158:0.5 2161:0.5 2185:0.5 
0.93845013899410267832479348726338 1:0.07692308 6:0.625 16:0.25 18:0.057142861 28:0.25 29:0.5 31:0.25 32:0.5 33:0.25 43:0.2 96:0.33333334 200:0.5 337:0.5 1152:1 2115:0.5 2118:0.5 2141:0.5 2148:0.5 2149:0.5 2151:0.5 2183:0.5 2186:0.5 
1.6407581834342914728352980091586 1:0.02884615 6:0.66666669 16:0.33333334 18:0.057142861 29:0.1 30:0.1 32:0.25 33:0.125 35:0.25 2117:0.5 2123:0.5 2148:0.5 2150:0.5 2153:0.5 2172:0.5 2174:0.5 2180:0.5 
1.6407581834342914728352980091586 1:0.02884615 5:0.33333334 6:0.33333334 7:0.33333334 18:0.085714288 19:0.06666667 30:0.1 181:0.16666667 251:1 338:0.25 2118:0.5 2122:0.5 2123:0.5 2145:0.5 2148:0.5 2150:0.5 2151:0.5 2163:0.5 
-1.6407581834342914728352980091586 1:0.03846154 4:0.25 6:0.5 9:0.25 18:0.04285714 30:0.2 54:0.11111111 75:0.25 99:0.125 1328:1 1485:1 2118:0.5 2122:0.5 2148:0.5 2150:0.5 2151:0.5 2163:0.5 
-1.6407581834342914728352980091586 1:0.01923077 6:0.5 18:0.057142861 30:0.1 83:0.25 1421:1 2118:0.5 2121:0.5 2122:0.5 2123:0.5 2148:0.5 2150:0.5 2151:0.5 
-1.6407581834342914728352980091586 1:0.03846154 7:0.25 9:0.5 18:0.04285714 75:0.5 181:0.16666667 315:1 654:1 685:1 686:1 2118:0.5 2122:0.5 2143:0.5 2146:0.5 2148:0.5 2150:0.5 2151:0.5 
1.6407581834342914728352980091586 1:0.10576923 3:0.090909094 4:0.090909094 5:0.27272728 6:0.18181819 9:0.090909094 16:0.090909094 18:0.071428567 19:0.2 22:0.01219512 27:0.14285713 28:0.25 29:0.1 30:0.1 33:0.125 43:0.2 47:0.2 54:0.11111111 62:0.5 142:0.25 148:0.40000001 189:0.33333334 257:0.5 287:0.33333334 347:1 349:0.33333334 405:0.33333334 535:1 2121:0.5 2122:0.5 2126:0.5 2127:0.5 2128:0.5 2130:0.5 2132:0.5 2133:0.5 2155:0.5 2158:0.5 2160:0.5 2161:0.5 2192:0.5 2194:0.5 
1.6407581834342914728352980091586 1:0.01923077 5:0.5 6:0.5 18:0.028571431 19:0.06666667 30:0.1 137:0.5 2114:0.5 2121:0.5 2126:0.5 2129:0.5 2130:0.5 
1.6407581834342914728352980091586 1:0.086538456 5:0.11111111 6:0.22222222 14:0.11111111 17:0.11111111 18:0.028571431 19:0.06666667 27:0.2857143 30:0.2 41:0.11111111 43:0.2 62:0.5 67:0.5 69:0.5 84:0.25 93:0.33333334 99:0.125 110:0.5 123:0.5 142:0.25 196:0.25 257:0.5 675:1 736:1 2114:0.5 2115:0.5 2121:0.5 2126:0.5 2150:0.5 2181:0.5 
-0.26716067970737950032500407360203 1:0.07692308 5:0.125 6:0.125 7:0.125 9:0.25 17:0.125 18:0.071428567 19:0.06666667 30:0.1 38:0.33333334 43:0.2 148:0.2 186:0.25 196:0.25 222:0.33333334 233:0.33333334 259:0.33333334 349:0.33333334 528:1 535:1 1148:1 1149:1 1677:1 1678:1 1679:1 2121:0.5 2123:0.5 2126:0.5 2127:0.5 2128:0.5 2130:0.5 2155:0.5 2168:0.5 
-1.6407581834342914728352980091586 1:0.04807692 5:0.60000002 6:0.40000001 18:0.028571431 19:0.2 23:0.2857143 29:0.1 30:0.1 100:0.25 130:0.5 2114:0.5 2115:0.5 2121:0.5 2126:0.5 2130:0.5 
-1.6407581834342914728352980091586 1:0.02884615 5:0.66666669 6:0.33333334 18:0.11428571 19:0.13333333 29:0.1 130:0.5 134:0.5 2114:0.5 2118:0.5 2121:0.5 2123:0.5 2126:0.5 2128:0.5 2130:0.5 2133:0.5 
-1.6407581834342914728352980091586 1:0.02884615 3:0.33333334 6:0.66666669 18:0.057142861 22:0.01219512 29:0.2 31:0.25 43:0.1 51:0.125 200:0.25 2115:0.5 2118:0.5 2121:0.5 2123:0.5 2126:0.5 2130:0.5 2183:0.5 
1.6407581834342914728352980091586 1:0.02884615 6:0.33333334 18:0.057142861 29:0.1 61:0.25 78:0.33333334 339:1 381:1 2118:0.5 2122:0.5 2123:0.5 2143:0.5 2146:0.5 2148:0.5 2150:0.5 2153:0.5 
1.6407581834342914728352980091586 1:0.01923077 12:0.5 18:0.22857143 85:0.25 233:0.33333334 2122:0.5 2149:0.5 2150:0.5 2151:0.5 2153:0.5 2173:0.5 2195:0.5 2196:0.5 
1.6407581834342914728352980091586 1:0.02884615 5:0.33333334 18:0.04285714 19:0.06666667 108:0.5 314:1 315:1 598:1 2115:0.5 2118:0.5 2121:0.5 2122:0.5 2148:0.5 2151:0.5 
1.6407581834342914728352980091586 1:0.01923077 6:0.5 18:0.04285714 30:0.1 78:0.33333334 627:1 2114:0.5 2115:0.5 2118:0.5 2121:0.5 2146:0.5 2148:0.5 2151:0.5 
1.3771877905662210928028343914775 1:0.01923077 6:0.5 18:0.028571431 26:0.5 30:0.1 1036:1 2114:0.5 2121:0.5 2148:0.5 2150:0.5 2151:0.5 
1.4425018750824747382210944124381 1:0.067307688 6:0.42857143 18:0.057142861 27:0.14285713 29:0.2 30:0.1 43:0.2 78:0.66666669 100:0.25 142:0.25 196:0.25 200:0.25 201:0.5 257:0.5 264:0.5 476:0.5 736:1 2114:0.5 2115:0.5 2118:0.5 2121:0.5 2123:0.5 2126:0.5 2156:0.5 2205:0.5 
1.6407581834342914728352980091586 1:0.01923077 6:0.5 18:0.071428567 29:0.1 625:0.14285713 2115:0.5 2121:0.5 2122:0.5 2123:0.5 2126:0.5 2127:0.5 2128:0.5 2130:0.5 
0.45737556891234343314778243438923 1:0.096153848 5:0.30000001 6:0.40000001 14:0.1 16:0.1 18:0.071428567 19:0.2 23:0.14285713 29:0.1 30:0.30000001 33:0.125 35:0.25 36:0.5 41:0.11111111 43:0.5 100:0.25 123:0.5 148:0.40000001 185:1 188:0.5 189:0.33333334 192:0.5 196:0.5 337:0.25 2114:0.5 2115:0.5 2118:0.5 2121:0.5 2123:0.5 2126:0.5 2130:0.5 2202:0.5 
0.66023899220810911003809451358393 1:0.057692312 2:0.33333334 5:0.16666667 6:0.33333334 9:0.16666667 16:0.16666667 18:0.057142861 19:0.06666667 29:0.2 32:0.25 33:0.125 40:0.33333334 75:0.25 299:1 335:1 481:0.5 1141:0.5 2114:0.5 2118:0.5 2121:0.5 2123:0.5 2126:0.5 2130:0.5 2133:0.5 
-1.6407581834342914728352980091586 1:0.067307688 3:0.14285713 6:0.42857143 9:0.14285713 18:0.04285714 22:0.01219512 29:0.2 30:0.1 31:0.25 61:0.25 75:0.25 104:0.5 108:0.5 150:0.01333333 227:0.5 248:1 339:1 341:1 1056:1 2118:0.5 2121:0.5 2122:0.5 2126:0.5 2129:0.5 2130:0.5 
-1.6407581834342914728352980091586 1:0.01923077 6:0.5 9:0.5 18:0.057142861 29:0.1 43:0.1 74:0.25 75:0.25 337:0.25 2115:0.5 2121:0.5 2123:0.5 2126:0.5 2127:0.5 2148:0.5 2155:0.5 
-1.6407581834342914728352980091586 1:0.14423077 3:0.06666667 4:0.06666667 6:0.60000002 14:0.06666667 16:0.06666667 18:0.12857144 22:0.01219512 29:0.5 30:0.40000001 31:0.25 32:0.25 33:0.125 41:0.11111111 43:0.30000001 48:0.16666667 54:0.11111111 61:0.25 96:0.33333334 99:0.125 100:0.5 136:0.5 196:0.75 263:0.5 337:0.75 339:1 492:0.5 1152:1 2121:0.5 2126:0.5 2130:0.5 2133:0.5 2138:0.5 2183:0.5 2185:0.5 2194:0.5 
1.6407581834342914728352980091586 1:0.01923077 5:0.5 6:0.5 18:0.04285714 19:0.06666667 29:0.1 130:0.5 2114:0.5 2118:0.5 2148:0.5 2150:0.5 2151:0.5 2163:0.5 
1.6407581834342914728352980091586 1:0.01923077 5:0.5 6:0.5 18:0.04285714 19:0.06666667 29:0.1 134:0.5 2114:0.5 2118:0.5 2148:0.5 2150:0.5 2151:0.5 2163:0.5 
1.6407581834342914728352980091586 1:0.01923077 5:0.5 6:0.5 18:0.1 19:0.06666667 29:0.1 134:0.5 2148:0.5 2150:0.5 2151:0.5 2161:0.5 2163:0.5 2171:0.5 2185:0.5 2192:0.5 
-1.6407581834342914728352980091586 1:0.02884615 6:0.33333334 18:0.04285714 27:0.14285713 29:0.1 142:0.25 257:0.5 387:0.5 2118:0.5 2122:0.5 2150:0.5 2151:0.5 2153:0.5 2163:0.5 
-1.6407581834342914728352980091586 1:0.01923077 5:0.5 6:0.5 18:0.17142858 19:0.06666667 29:0.1 130:0.5 2122:0.5 2148:0.5 2150:0.5 2151:0.5 2163:0.5 2177:0.5 2219:0.5 2220:0.5 
-1.6407581834342914728352980091586 1:0.01923077 5:0.5 6:0.5 18:0.25714287 19:0.06666667 29:0.1 130:0.5 2122:0.5 2148:0.5 2150:0.5 2151:0.5 2163:0.5 2173:0.5 2185:0.5 2194:0.5 
1.6407581834342914728352980091586 1:0.03846154 6:0.75 18:0.1 29:0.2 30:0.1 31:0.25 83:0.25 100:0.25 1421:1 2121:0.5 2126:0.5 2132:0.5 2136:0.5 2150:0.5 2153:0.5 2158:0.5 2160:0.5 2175:0.5 2177:0.5 
1.6407581834342914728352980091586 1:0.07692308 6:0.125 16:0.125 18:0.057142861 28:0.25 29:0.1 33:0.125 43:0.60000002 235:0.2 625:0.5714286 805:0.66666669 1279:0.33333334 1606:0.66666669 1622:0.5 2118:0.5 2121:0.5 2122:0.5 2123:0.5 2126:0.5 2148:0.5 2150:0.5 
1.6407581834342914728352980091586 1:0.07692308 3:0.25 4:0.125 5:0.125 6:0.125 18:0.057142861 19:0.06666667 20:0.2 22:0.024390239 29:0.1 47:0.2 54:0.11111111 61:0.25 150:0.01333333 233:0.33333334 248:1 459:1 488:0.33333334 492:0.5 831:1 994:1 995:1 2115:0.5 2119:0.5 2120:0.5 2121:0.5 2122:0.5 2123:0.5 2127:0.5 2148:0.5 2151:0.5 2162:0.5 
-1.6407581834342914728352980091586 1:0.10576923 4:0.090909094 5:0.090909094 6:0.36363637 16:0.27272728 18:0.071428567 19:0.06666667 30:0.40000001 33:0.375 35:0.75 43:0.40000001 54:0.11111111 61:0.25 112:0.5 119:0.25 196:1 233:0.33333334 234:0.5 235:0.40000001 454:1 914:1 2121:0.5 2128:0.5 2132:0.5 2158:0.5 2171:0.5 2180:0.5 2181:0.5 2182:0.5 2192:0.5 
-0.54175578432531390493664957830333 1:0.03846154 6:0.75 12:0.25 18:0.21428572 29:0.1 30:0.2 34:0.33333334 85:0.25 100:0.25 1471:1 2129:0.5 2136:0.5 2157:0.5 2172:0.5 2174:0.5 2176:0.5 
-1.6407581834342914728352980091586 1:0.04807692 4:0.40000001 6:0.40000001 16:0.2 18:0.1 29:0.1 30:0.1 32:0.25 33:0.125 35:0.25 54:0.22222222 133:0.16666667 464:1 2129:0.5 2132:0.5 2155:0.5 2158:0.5 2160:0.5 2178:0.5 2179:0.5 2180:0.5 2181:0.5 
1.6407581834342914728352980091586 1:0.03846154 5:0.5 6:0.25 18:0.04285714 19:0.13333333 29:0.1 43:0.1 134:0.5 142:0.25 146:0.5 148:0.2 189:0.16666667 2118:0.5 2121:0.5 2122:0.5 2126:0.5 2130:0.5 2133:0.5 2155:0.5 
1.6407581834342914728352980091586 1:0.01923077 6:0.5 9:0.5 18:0.04285714 30:0.1 75:0.25 341:1 2118:0.5 2121:0.5 2122:0.5 2148:0.5 2150:0.5 2151:0.5 
1.6407581834342914728352980091586 1:0.01923077 5:0.5 6:0.5 18:0.04285714 19:0.06666667 29:0.1 134:0.5 2118:0.5 2121:0.5 2122:0.5 2148:0.5 2150:0.5 2151:0.5 
-1.6407581834342914728352980091586 1:0.02884615 6:0.33333334 18:0.071428567 30:0.1 96:0.33333334 1084:1 1104:0.5 2114:0.5 2115:0.5 2118:0.5 2121:0.5 2123:0.5 2126:0.5 2130:0.5 2142:0.5 2145:0.5 
-0.42928113985940202779190144610766 1:0.086538456 3:0.44444445 4:0.22222222 5:0.11111111 18:0.057142861 19:0.06666667 22:0.04878049 27:0.14285713 43:0.1 44:0.030769231 46:0.25 48:0.16666667 53:0.14285713 54:0.22222222 119:0.25 170:1 171:0.5 172:0.5 209:0.2 2114:0.5 2118:0.5 2121:0.5 2126:0.5 2130:0.5 2133:0.5 2186:0.5 
-0.13229631185192516906745652249811 1:0.0096153803 5:1 18:0.057142861 19:0.06666667 2114:0.5 2115:0.5 2116:0.5 2118:0.5 2121:0.5 2123:0.5 2148:0.5 
1.6407581834342914728352980091586 1:0.057692312 5:0.16666667 6:0.33333334 7:0.33333334 9:0.16666667 18:0.11428571 19:0.06666667 29:0.1 30:0.1 34:0.33333334 43:0.2 189:0.16666667 237:0.33333334 349:0.33333334 352:0.5 357:0.125 364:0.5 712:1 1145:1 1146:1 2112:0.5 2123:0.5 2127:0.5 2128:0.5 2148:0.5 2155:0.5 2163:0.5 2168:0.5 
1.6407581834342914728352980091586 1:0.02884615 6:0.33333334 9:0.66666669 18:0.18571429 29:0.1 75:0.5 323:0.5 654:1 2155:0.5 2165:0.5 2167:0.5 2169:0.5 2170:0.5 2174:0.5 2176:0.5 2178:0.5 
0.305941240203770892236434519873 1:0.07692308 6:0.5 9:0.125 16:0.25 18:0.028571431 29:0.2 30:0.2 32:0.25 33:0.25 34:0.33333334 35:0.5 75:0.25 78:0.33333334 381:1 655:0.5 1485:1 2111:0.5 2112:0.5 2114:0.5 2115:0.5 2198:0.5 
1.0549538867593590829585536994273 1:0.02884615 4:0.33333334 6:0.66666669 18:0.2 29:0.1 30:0.1 54:0.11111111 100:0.25 135:0.33333334 2136:0.5 2148:0.5 2149:0.5 2150:0.5 2151:0.5 2161:0.5 2171:0.5 2192:0.5 
0.51751109100279468755445577698993 1:0.0096153803 3:1 18:0.071428567 22:0.01219512 2114:0.5 2115:0.5 2118:0.5 2123:0.5 2165:0.5 2167:0.5 2169:0.5 2185:0.5 
0.65577173373750197171716536104213 1:0.057692312 5:0.16666667 6:0.5 9:0.16666667 18:0.057142861 19:0.06666667 29:0.2 30:0.1 34:0.33333334 61:0.25 75:0.25 80:0.5 251:1 698:0.5 1246:1 2114:0.5 2118:0.5 2123:0.5 2146:0.5 2148:0.5 2149:0.5 2168:0.5 
1.6407581834342914728352980091586 1:0.057692312 5:0.33333334 6:0.16666667 14:0.16666667 16:0.16666667 18:0.085714288 19:0.13333333 30:0.1 33:0.125 35:0.25 41:0.11111111 43:0.2 61:0.25 80:0.5 148:0.2 188:0.5 189:0.16666667 196:0.25 454:1 2118:0.5 2121:0.5 2122:0.5 2123:0.5 2126:0.5 2128:0.5 2130:0.5 2133:0.5 
1.6407581834342914728352980091586 1:0.02884615 5:0.33333334 6:0.33333334 16:0.33333334 18:0.057142861 19:0.06666667 30:0.1 33:0.125 35:0.25 454:1 2115:0.5 2118:0.5 2119:0.5 2121:0.5 2122:0.5 2123:0.5 2125:0.5 2126:0.5 
1.6407581834342914728352980091586 1:0.01923077 5:0.5 6:0.5 18:0.071428567 19:0.06666667 29:0.1 130:0.5 2121:0.5 2122:0.5 2123:0.5 2124:0.5 2126:0.5 2127:0.5 2128:0.5 2129:0.5 2130:0.5 
-1.6407581834342914728352980091586 1:0.01923077 6:0.5 12:0.5 18:0.071428567 30:0.1 85:0.25 2118:0.5 2120:0.5 2122:0.5 2123:0.5 2128:0.5 2148:0.5 2150:0.5 2152:0.5 
-1.6407581834342914728352980091586 1:0.01923077 6:0.5 18:0.04285714 29:0.1 142:0.25 348:0.5 2117:0.5 2118:0.5 2122:0.5 2150:0.5 2153:0.5 2164:0.5 
-0.16173415693484113897504528267746 1:0.067307688 6:0.14285713 7:0.2857143 9:0.2857143 18:0.12857144 29:0.1 43:0.2 74:0.25 75:0.5 144:0.5 186:0.5 191:1 237:0.33333334 262:0.25 319:1 320:1 321:0.33333334 322:0.25 323:0.5 2121:0.5 2126:0.5 2130:0.5 2133:0.5 2158:0.5 2160:0.5 2161:0.5 2185:0.5 
1.6407581834342914728352980091586 1:0.01923077 6:0.5 18:0.1 30:0.1 96:0.33333334 1084:1 2112:0.5 2136:0.5 2143:0.5 2148:0.5 2150:0.5 2153:0.5 2158:0.5 2160:0.5 2161:0.5 
1.6407581834342914728352980091586 1:0.0096153803 3:1 18:0.071428567 22:0.01219512 2114:0.5 2115:0.5 2138:0.5 2141:0.5 2142:0.5 2148:0.5 2153:0.5 2164:0.5 2179:0.5 
1.3537682103707577851992027717642 1:0.086538456 4:0.22222222 16:0.33333334 18:0.028571431 33:0.375 43:0.1 54:0.22222222 61:0.25 235:0.2 241:0.5 424:0.5 673:1 674:1 1432:1 1433:1 1434:1 2114:0.5 2143:0.5 2146:0.5 2149:0.5 2150:0.5 2151:0.5 2156:0.5 2163:0.5 2166:0.5 2168:0.5 
-1.6407581834342914728352980091586 1:0.01923077 5:0.5 6:0.5 18:0.028571431 19:0.06666667 29:0.1 134:0.5 2114:0.5 2115:0.5 2146:0.5 2148:0.5 2163:0.5 
-0.9205661430015399382398300076602 1:0.04807692 3:1 18:0.028571431 22:0.060975611 44:0.046153851 150:0.01333333 248:1 353:1 2112:0.5 2114:0.5 2115:0.5 2163:0.5 2166:0.5 
-0.62691060724718017382883772370405 1:0.02884615 5:0.33333334 18:0.028571431 19:0.06666667 233:0.33333334 375:1 1251:1 1786:1 2114:0.5 2143:0.5 2148:0.5 2165:0.5 2167:0.5 2169:0.5 2170:0.5 
1.6407581834342914728352980091586 1:0.02884615 6:0.33333334 18:0.085714288 29:0.1 83:0.25 899:0.5 2118:0.5 2121:0.5 2122:0.5 2123:0.5 2126:0.5 2150:0.5 2156:0.5 2171:0.5 2181:0.5 2202:0.5 
1.6407581834342914728352980091586 1:0.02884615 6:0.66666669 7:0.33333334 18:0.071428567 29:0.1 30:0.1 100:0.25 181:0.16666667 338:0.25 2118:0.5 2122:0.5 2141:0.5 2142:0.5 2179:0.5 2180:0.5 2181:0.5 2182:0.5 
1.6407581834342914728352980091586 1:0.02884615 6:0.33333334 18:0.085714288 29:0.1 83:0.25 439:0.5 1817:1 2118:0.5 2121:0.5 2122:0.5 2123:0.5 2126:0.5 2130:0.5 2150:0.5 2156:0.5 2171:0.5 2202:0.5 
-1.6407581834342914728352980091586 1:0.067307688 6:0.42857143 14:0.14285713 17:0.14285713 18:0.071428567 27:0.14285713 30:0.30000001 41:0.11111111 43:0.1 67:0.5 69:0.5 84:0.25 93:0.33333334 99:0.25 110:0.5 123:0.5 199:0.33333334 2121:0.5 2122:0.5 2123:0.5 2126:0.5 2127:0.5 2128:0.5 2156:0.5 2166:0.5 
-1.6407581834342914728352980091586 1:0.03846154 6:0.5 18:0.04285714 29:0.2 142:0.25 348:0.5 501:0.33333334 1370:1 1815:1 2118:0.5 2121:0.5 2122:0.5 2126:0.5 2150:0.5 2153:0.5 2156:0.5 
-1.6407581834342914728352980091586 1:0.01923077 4:0.5 16:0.5 18:0.15714286 33:0.125 54:0.11111111 205:0.5 2118:0.5 2121:0.5 2122:0.5 2123:0.5 2126:0.5 2130:0.5 2133:0.5 2142:0.5 
1.6407581834342914728352980091586 1:0.067307688 18:0.04285714 43:0.60000002 625:1 805:1 1606:1 2114:0.5 2115:0.5 2118:0.5 2121:0.5 2146:0.5 2148:0.5 
1.6407581834342914728352980091586 1:0.01923077 18:0.057142861 391:0.5 1251:1 1257:1 2118:0.5 2122:0.5 2123:0.5 2165:0.5 2167:0.5 2169:0.5 2170:0.5 
1.6407581834342914728352980091586 1:0.03846154 5:0.25 6:0.5 18:0.04285714 19:0.06666667 29:0.2 31:0.25 77:0.5 78:0.33333334 289:1 853:1 2114:0.5 2115:0.5 2118:0.5 2146:0.5 2148:0.5 2149:0.5 
-1.6172540533980497290400535348454 1:0.02884615 5:0.33333334 18:0.028571431 19:0.06666667 391:0.5 1251:1 1257:1 2111:0.5 2114:0.5 2115:0.5 2165:0.5 2167:0.5 
-1.6407581834342914728352980091586 1:0.02884615 6:0.66666669 16:0.33333334 18:0.25714287 28:0.25 29:0.2 32:0.25 33:0.125 2165:0.5 2167:0.5 2169:0.5 2170:0.5 2172:0.5 2174:0.5 2176:0.5 2178:0.5 
1.6407581834342914728352980091586 1:0.096153848 6:0.2 9:0.1 14:0.1 16:0.1 17:0.1 18:0.057142861 27:0.14285713 28:0.25 29:0.2 32:0.25 33:0.125 41:0.11111111 67:0.5 69:0.5 75:0.25 83:0.25 84:0.25 93:0.33333334 110:0.5 142:0.25 561:0.5 612:1 2114:0.5 2115:0.5 2118:0.5 2123:0.5 2143:0.5 2146:0.5 2166:0.5 
1.6407581834342914728352980091586 1:0.01923077 6:0.5 18:0.057142861 29:0.1 78:0.33333334 201:0.5 2121:0.5 2123:0.5 2126:0.5 2127:0.5 2130:0.5 2150:0.5 2155:0.5 
1.6407581834342914728352980091586 1:0.067307688 3:0.2857143 5:0.42857143 6:0.14285713 16:0.14285713 18:0.071428567 19:0.2 20:0.40000001 21:0.33333334 22:0.024390239 23:0.14285713 30:0.1 33:0.125 50:1 56:0.01639344 138:1 426:0.33333334 2110:0.5 2121:0.5 2122:0.5 2124:0.5 2125:0.5 2126:0.5 2127:0.5 2128:0.5 2132:0.5 2150:0.5 2153:0.5 2183:0.5 
-1.6407581834342914728352980091586 1:0.02884615 6:0.66666669 16:0.33333334 18:0.25714287 28:0.25 29:0.2 32:0.25 33:0.125 2165:0.5 2167:0.5 2169:0.5 2170:0.5 2172:0.5 2174:0.5 2176:0.5 2178:0.5 
-1.6407581834342914728352980091586 1:0.01923077 6:0.5 9:0.5 18:0.085714288 29:0.1 349:0.33333334 395:1 2128:0.5 2132:0.5 2138:0.5 2143:0.5 2146:0.5 2148:0.5 2150:0.5 2155:0.5 
-0.72387763550805317436243058182299 1:0.07692308 5:0.375 6:0.125 7:0.125 9:0.125 18:0.057142861 19:0.2 23:0.14285713 30:0.1 43:0.2 115:0.33333334 142:0.25 143:0.5 148:0.2 181:0.16666667 189:0.16666667 199:0.33333334 347:1 349:0.33333334 535:1 935:1 1466:1 1467:1 2121:0.5 2123:0.5 2126:0.5 2127:0.5 2130:0.5 2150:0.5 2155:0.5 2156:0.5 2160:0.5 
-1.6105167064574383850583672028733 1:0.02884615 5:0.33333334 6:0.66666669 18:0.11428571 19:0.06666667 29:0.1 30:0.1 100:0.25 150:0.01333333 256:0.5 285:1 2121:0.5 2126:0.5 2127:0.5 2128:0.5 2130:0.5 2132:0.5 2133:0.5 2155:0.5 2160:0.5 2173:0.5 2175:0.5 
1.6407581834342914728352980091586 1:0.02884615 6:1 18:0.15714286 29:0.30000001 31:0.5 2122:0.5 2165:0.5 2167:0.5 2169:0.5 2170:0.5 2174:0.5 2176:0.5 2178:0.5 
1.6407581834342914728352980091586 1:0.0096153803 3:1 18:0.14285713 22:0.01219512 2115:0.5 2117:0.5 2148:0.5 2151:0.5 2155:0.5 2174:0.5 2176:0.5 2178:0.5 
1.6407581834342914728352980091586 1:0.01923077 6:0.5 16:0.5 18:0.1 28:0.25 29:0.1 33:0.125 2150:0.5 2163:0.5 2171:0.5 2185:0.5 2215:0.5 2216:0.5 2219:0.5 2220:0.5 
-1.6407581834342914728352980091586 1:0.0096153803 3:1 18:0.04285714 22:0.01219512 2114:0.5 2115:0.5 2118:0.5 2121:0.5 2148:0.5 2151:0.5 2164:0.5 
-0.47205659804951488611735044287343 1:0.02884615 13:0.33333334 18:0.071428567 27:0.14285713 67:0.5 69:0.5 467:0.5 468:1 2118:0.5 2121:0.5 2122:0.5 2123:0.5 2150:0.5 2151:0.5 2153:0.5 2171:0.5 2202:0.5 
-1.6407581834342914728352980091586 1:0.0096153803 3:1 18:0.028571431 22:0.01219512 2114:0.5 2115:0.5 2146:0.5 2148:0.5 2151:0.5 2210:0.5 
1.6407581834342914728352980091586 1:0.03846154 6:0.25 16:0.25 18:0.1 29:0.1 32:0.25 33:0.125 83:0.25 391:0.5 1917:1 2111:0.5 2117:0.5 2123:0.5 2127:0.5 2128:0.5 2146:0.5 2150:0.5 2151:0.5 2155:0.5 2156:0.5 2160:0.5 2166:0.5 2173:0.5 
1.6407581834342914728352980091586 1:0.02884615 6:0.33333334 9:0.33333334 16:0.33333334 18:0.085714288 29:0.1 32:0.25 33:0.125 75:0.25 481:0.5 2120:0.5 2121:0.5 2128:0.5 2132:0.5 2150:0.5 2153:0.5 2155:0.5 2158:0.5 2160:0.5 
1.6407581834342914728352980091586 1:0.01923077 6:0.5 18:0.085714288 29:0.1 233:0.33333334 488:0.33333334 2121:0.5 2126:0.5 2128:0.5 2132:0.5 2150:0.5 2153:0.5 2158:0.5 2160:0.5 
-1.6407581834342914728352980091586 1:0.0096153803 6:1 18:0.11428571 30:0.1 2139:0.5 2142:0.5 2153:0.5 2155:0.5 2156:0.5 2158:0.5 2179:0.5 2180:0.5 
0.12270397023577835071694863700031 1:0.086538456 5:0.11111111 6:0.77777779 18:0.028571431 19:0.06666667 29:0.40000001 30:0.30000001 31:0.25 43:0.30000001 61:0.25 80:0.5 99:0.125 100:0.25 112:0.5 130:0.5 196:0.5 199:0.33333334 200:0.25 337:0.25 2114:0.5 2150:0.5 2153:0.5 2164:0.5 2198:0.5 
-0.45672802301075615671877017121005 1:0.02884615 6:0.66666669 7:0.33333334 18:0.071428567 29:0.1 30:0.1 100:0.25 322:0.25 1436:1 2121:0.5 2126:0.5 2128:0.5 2132:0.5 2155:0.5 2156:0.5 2158:0.5 2189:0.5 
1.6407581834342914728352980091586 1:0.0096153803 3:1 18:0.071428567 22:0.01219512 2114:0.5 2115:0.5 2118:0.5 2141:0.5 2142:0.5 2148:0.5 2151:0.5 2210:0.5 
1.6407581834342914728352980091586 1:0.0096153803 3:1 18:0.071428567 22:0.01219512 2114:0.5 2115:0.5 2118:0.5 2141:0.5 2142:0.5 2146:0.5 2148:0.5 2149:0.5 
1.6407581834342914728352980091586 1:0.0096153803 3:1 18:0.12857144 22:0.01219512 2114:0.5 2115:0.5 2118:0.5 2141:0.5 2142:0.5 2152:0.5 2164:0.5 2180:0.5 2181:0.5 
-1.6407581834342914728352980091586 1:0.02884615 5:0.33333334 6:0.33333334 18:0.04285714 19:0.06666667 30:0.1 61:0.25 82:0.5 137:0.5 2118:0.5 2122:0.5 2146:0.5 2148:0.5 2149:0.5 2150:0.5 
-0.32794733286234850622165026834409 1:0.0096153803 18:0.04285714 83:0.25 2118:0.5 2122:0.5 2146:0.5 2148:0.5 2149:0.5 2150:0.5 
-1.6407581834342914728352980091586 1:0.0096153803 18:0.057142861 96:0.33333334 2114:0.5 2115:0.5 2117:0.5 2118:0.5 2123:0.5 2148:0.5 2164:0.5 
1.4396124750685002080530239254585 1:0.086538456 3:0.11111111 6:0.8888889 18:0.028571431 22:0.01219512 29:0.2 30:0.60000002 31:0.25 43:0.30000001 99:0.375 162:0.5 196:0.5 199:1 200:0.25 2114:0.5 2121:0.5 2126:0.5 2130:0.5 2133:0.5 
1.6407581834342914728352980091586 1:0.057692312 3:0.16666667 5:0.16666667 6:0.5 7:0.16666667 18:0.028571431 19:0.06666667 21:0.33333334 22:0.01219512 29:0.30000001 31:0.25 181:0.16666667 266:1 287:0.33333334 513:1 514:0.5 1213:1 2114:0.5 2121:0.5 2126:0.5 2130:0.5 2133:0.5 
-0.32746607236020458531200461038679 1:0.01923077 18:0.057142861 69:0.5 389:0.5 1288:1 2111:0.5 2118:0.5 2122:0.5 2123:0.5 2143:0.5 2146:0.5 2150:0.5 
-0.66807964995939272956348986554076 1:0.14423077 3:0.5333333 6:0.26666668 16:0.06666667 18:0.15714286 22:0.097560979 27:0.14285713 29:0.40000001 31:0.5 33:0.125 44:0.061538462 49:0.25 50:1 53:0.14285713 56:0.01639344 57:0.2 162:0.5 287:0.66666669 387:0.5 388:0.5 389:0.5 2126:0.5 2130:0.5 2133:0.5 2137:0.5 2140:0.5 2161:0.5 2185:0.5 2198:0.5 
-0.27324224321447698748954735492589 1:0.13461538 3:0.85714287 16:0.071428567 18:0.14285713 22:0.14634146 33:0.125 44:0.13846155 49:0.25 50:1 56:0.01639344 57:0.2 124:0.16666667 244:0.33333334 680:1 892:1 893:1 2121:0.5 2126:0.5 2130:0.5 2133:0.5 2137:0.5 2140:0.5 2141:0.5 2196:0.5 
-0.37347559630439874922558374237269 1:0.20192309 3:0.047619049 5:0.047619049 6:0.33333334 9:0.047619049 16:0.38095239 17:0.047619049 18:0.15714286 19:0.06666667 20:0.2 22:0.01219512 28:1 29:0.40000001 30:0.30000001 33:1 35:0.75 43:0.60000002 56:0.01639344 61:0.25 75:0.25 112:0.5 196:0.5 200:1 235:1 335:1 424:0.5 426:0.33333334 481:0.5 580:1 1461:1 1823:1 1937:1 1938:1 2179:0.5 2180:0.5 2181:0.5 2182:0.5 2183:0.5 2184:0.5 2186:0.5 2202:0.5 
1.6407581834342914728352980091586 1:0.02884615 6:0.33333334 7:0.33333334 18:0.028571431 30:0.1 181:0.16666667 403:1 2114:0.5 2146:0.5 2148:0.5 2149:0.5 2168:0.5 
1.6407581834342914728352980091586 1:0.01923077 6:1 18:0.071428567 29:0.2 31:0.25 2136:0.5 2146:0.5 2148:0.5 2155:0.5 2158:0.5 2168:0.5 2175:0.5 2213:0.5 
1.6407581834342914728352980091586 1:0.01923077 6:1 18:0.01428571 30:0.2 99:0.125 2146:0.5 2148:0.5 2168:0.5 2210:0.5 
-1.6407581834342914728352980091586 1:0.0096153803 6:1 18:0.01428571 30:0.1 2110:0.5 2112:0.5 2162:0.5 2163:0.5 
-1.6407581834342914728352980091586 1:0.01923077 6:0.5 18:0.028571431 30:0.1 625:0.14285713 918:1 2114:0.5 2115:0.5 2121:0.5 2125:0.5 2126:0.5 
-1.6407581834342914728352980091586 1:0.03846154 3:0.25 5:0.25 6:0.25 18:0.057142861 19:0.06666667 20:0.2 22:0.01219512 29:0.1 78:0.33333334 201:0.5 216:1 2111:0.5 2114:0.5 2115:0.5 2146:0.5 2151:0.5 2166:0.5 2168:0.5 2179:0.5 2184:0.5 2186:0.5 
1.6407581834342914728352980091586 1:0.07692308 6:0.25 9:0.25 16:0.125 18:0.11428571 27:0.2857143 29:0.1 30:0.1 32:0.25 33:0.125 35:0.25 66:0.33333334 75:0.25 142:0.25 257:0.5 258:0.5 330:1 332:1 347:1 2114:0.5 2118:0.5 2121:0.5 2123:0.5 2126:0.5 2128:0.5 2130:0.5 2133:0.5 
1.6407581834342914728352980091586 1:0.03846154 5:0.25 16:0.25 18:0.04285714 19:0.06666667 33:0.125 233:0.33333334 375:1 454:1 1032:1 2114:0.5 2118:0.5 2148:0.5 2150:0.5 2153:0.5 2164:0.5 2179:0.5 
0.80725757650713625412919327573036 1:0.057692312 5:0.16666667 6:0.16666667 16:0.16666667 18:0.057142861 19:0.06666667 29:0.1 33:0.125 130:0.5 438:1 439:1 1433:1 1779:1 1780:1 2114:0.5 2118:0.5 2121:0.5 2150:0.5 2156:0.5 2166:0.5 2180:0.5 2186:0.5 
-0.84929554459464817739444697508588 1:0.01923077 6:1 18:0.18571429 29:0.1 30:0.1 100:0.25 2169:0.5 2170:0.5 2172:0.5 2174:0.5 2176:0.5 2178:0.5 2179:0.5 2180:0.5 
-1.6407581834342914728352980091586 1:0.04807692 9:0.40000001 18:0.04285714 27:0.2857143 66:0.33333334 75:0.25 142:0.25 257:0.5 258:0.5 330:1 332:1 2118:0.5 2121:0.5 2122:0.5 2126:0.5 2130:0.5 2150:0.5 
-0.32495175485643906787558421456197 1:0.07692308 5:0.125 6:0.125 7:0.125 9:0.25 16:0.125 18:0.057142861 19:0.06666667 27:0.14285713 29:0.1 33:0.125 38:0.33333334 43:0.1 74:0.25 75:0.5 142:0.25 148:0.2 257:0.5 261:1 332:1 454:1 698:0.5 701:1 2123:0.5 2127:0.5 2150:0.5 2153:0.5 2155:0.5 2163:0.5 2164:0.5 
1.6407581834342914728352980091586 1:0.03846154 6:0.75 18:0.11428571 29:0.2 30:0.1 43:0.1 96:0.33333334 100:0.25 196:0.25 337:0.25 697:0.5 2115:0.5 2148:0.5 2149:0.5 2151:0.5 2185:0.5 2192:0.5 2194:0.5 2218:0.5 
1.6407581834342914728352980091586 1:0.01923077 6:0.5 18:0.085714288 29:0.1 78:0.33333334 201:0.5 2115:0.5 2122:0.5 2127:0.5 2128:0.5 2139:0.5 2157:0.5 
1.6407581834342914728352980091586 1:0.01923077 6:0.5 9:0.5 18:0.04285714 30:0.1 349:0.33333334 1051:1 2111:0.5 2112:0.5 2114:0.5 2115:0.5 2210:0.5 2224:0.5 
-1.6407581834342914728352980091586 1:0.067307688 3:0.14285713 5:0.14285713 6:0.2857143 14:0.14285713 18:0.028571431 19:0.06666667 22:0.01219512 27:0.14285713 29:0.2 31:0.25 41:0.11111111 45:0.5 55:0.16666667 609:0.5 899:0.5 1697:1 1698:1 2114:0.5 2115:0.5 2119:0.5 2154:0.5 
-1.6407581834342914728352980091586 1:0.03846154 3:0.25 5:0.25 6:0.5 18:0.028571431 19:0.06666667 22:0.01219512 29:0.1 30:0.1 34:0.33333334 134:0.5 136:0.5 2111:0.5 2114:0.5 2115:0.5 2120:0.5 2121:0.5 
-1.6407581834342914728352980091586 1:0.04807692 3:0.2 5:0.2 6:0.60000002 18:0.028571431 19:0.06666667 22:0.01219512 29:0.2 30:0.1 34:0.33333334 134:0.5 251:1 287:0.33333334 2110:0.5 2112:0.5 2114:0.5 2162:0.5 2210:0.5 
1.6407581834342914728352980091586 1:0.096153848 6:0.2 7:0.1 16:0.30000001 17:0.2 18:0.04285714 28:0.25 29:0.2 31:0.25 33:0.375 181:0.16666667 673:0.5 674:0.5 872:1 1924:1 2115:0.5 2118:0.5 2121:0.5 2122:0.5 2126:0.5 2130:0.5 
1.6407581834342914728352980091586 1:0.03846154 18:0.057142861 43:0.1 389:0.5 391:0.5 439:0.5 448:1 899:0.5 1777:1 1916:1 2114:0.5 2121:0.5 2148:0.5 2153:0.5 2168:0.5 2180:0.5 2184:0.5 2186:0.5 
1.6407581834342914728352980091586 1:0.01923077 6:0.5 18:0.057142861 29:0.1 391:0.5 1255:1 2118:0.5 2121:0.5 2122:0.5 2123:0.5 2126:0.5 2130:0.5 2133:0.5 
-0.94972315029383624906955674305209 1:0.04807692 6:0.2 8:0.40000001 17:0.2 18:0.057142861 29:0.1 64:0.5 84:0.25 115:0.33333334 233:0.33333334 346:0.5 488:0.33333334 1559:1 2118:0.5 2121:0.5 2122:0.5 2123:0.5 2126:0.5 2130:0.5 2133:0.5 
-1.6407581834342914728352980091586 1:0.02884615 6:0.33333334 18:0.1 29:0.1 327:1 389:0.5 1935:1 2122:0.5 2127:0.5 2128:0.5 2129:0.5 2132:0.5 2146:0.5 2148:0.5 2149:0.5 
-1.6407581834342914728352980091586 1:0.01923077 6:0.5 18:0.11428571 30:0.1 142:0.25 347:1 2121:0.5 2126:0.5 2127:0.5 2130:0.5 2133:0.5 2155:0.5 2161:0.5 2185:0.5 
1.6407581834342914728352980091586 1:0.01923077 5:0.5 6:0.5 18:0.04285714 19:0.06666667 29:0.1 134:0.5 2111:0.5 2114:0.5 2115:0.5 2116:0.5 2117:0.5 2118:0.5 
1.6407581834342914728352980091586 1:0.057692312 5:0.16666667 6:0.66666669 18:0.028571431 19:0.06666667 30:0.40000001 61:0.25 99:0.25 217:0.5 227:0.5 251:1 2114:0.5 2124:0.5 2146:0.5 2148:0.5 2151:0.5 2163:0.5 
1.6407581834342914728352980091586 1:0.13461538 3:0.2857143 5:0.071428567 6:0.35714287 7:0.21428572 18:0.028571431 19:0.06666667 22:0.04878049 29:0.1 30:0.40000001 43:0.2 44:0.030769231 61:0.25 112:0.5 136:0.5 162:0.5 181:0.5 199:0.33333334 210:0.66666669 217:0.5 221:0.40000001 251:1 338:0.5 340:0.33333334 2114:0.5 2121:0.5 2146:0.5 2148:0.5 2150:0.5 2151:0.5 2153:0.5 2156:0.5 
-0.0030470022737671448483098846082839 1:0.03846154 4:0.25 5:0.5 6:0.25 18:0.34285715 19:0.13333333 30:0.1 54:0.11111111 56:0.01639344 58:0.2 405:0.33333334 407:1 408:1 2121:0.5 2127:0.5 2136:0.5 2150:0.5 2151:0.5 2153:0.5 2171:0.5 2175:0.5 
-1.6407581834342914728352980091586 1:0.02884615 5:0.33333334 6:0.33333334 18:0.057142861 19:0.06666667 30:0.1 61:0.25 137:0.5 217:0.5 2114:0.5 2115:0.5 2148:0.5 2151:0.5 2184:0.5 2186:0.5 2214:0.5 
-1.6407581834342914728352980091586 1:0.03846154 5:0.25 6:0.25 7:0.25 18:0.057142861 19:0.06666667 27:0.14285713 30:0.1 62:0.5 181:0.16666667 252:1 266:1 2111:0.5 2112:0.5 2113:0.5 2114:0.5 2115:0.5 2118:0.5 2123:0.5 
1.6407581834342914728352980091586 1:0.02884615 6:0.33333334 16:0.66666669 18:0.2 30:0.1 33:0.25 35:0.25 539:0.33333334 2122:0.5 2127:0.5 2143:0.5 2146:0.5 2169:0.5 2170:0.5 2176:0.5 2178:0.5 
1.6407581834342914728352980091586 1:0.03846154 6:0.5 16:0.25 18:0.057142861 28:0.25 29:0.2 32:0.25 33:0.125 43:0.1 96:0.33333334 200:0.25 465:1 2121:0.5 2122:0.5 2123:0.5 2126:0.5 2127:0.5 2130:0.5 2133:0.5 
1.6407581834342914728352980091586 1:0.01923077 6:0.5 18:0.028571431 29:0.1 389:0.5 1935:1 2114:0.5 2121:0.5 2126:0.5 2130:0.5 2150:0.5 
-1.6407581834342914728352980091586 1:0.01923077 6:1 18:0.21428572 29:0.1 30:0.1 100:0.25 2172:0.5 2174:0.5 2176:0.5 2178:0.5 2179:0.5 2180:0.5 2181:0.5 2182:0.5 
-1.6407581834342914728352980091586 1:0.02884615 5:0.33333334 6:0.33333334 18:0.057142861 19:0.06666667 29:0.1 43:0.1 96:0.33333334 134:0.5 189:0.16666667 465:1 2111:0.5 2118:0.5 2122:0.5 2123:0.5 2146:0.5 2163:0.5 2168:0.5 
-1.6407581834342914728352980091586 1:0.01923077 6:0.5 9:0.5 18:0.18571429 29:0.1 75:0.25 698:0.5 2150:0.5 2151:0.5 2153:0.5 2163:0.5 2175:0.5 2193:0.5 2196:0.5 2218:0.5 
1.6407581834342914728352980091586 1:0.0096153803 3:1 18:0.057142861 22:0.01219512 2114:0.5 2115:0.5 2118:0.5 2161:0.5 2165:0.5 2167:0.5 2169:0.5 
1.6407581834342914728352980091586 1:0.0096153803 3:1 18:0.04285714 22:0.01219512 2114:0.5 2115:0.5 2118:0.5 2165:0.5 2167:0.5 2169:0.5 
-1.1109886640036990002045058645308 1:0.04807692 3:0.80000001 18:0.1 22:0.04878049 44:0.046153851 78:0.33333334 477:0.5 2121:0.5 2122:0.5 2123:0.5 2126:0.5 2127:0.5 2128:0.5 2130:0.5 2133:0.5 
-1.6407581834342914728352980091586 1:0.02884615 3:0.33333334 5:0.33333334 18:0.1 19:0.06666667 20:0.2 22:0.01219512 96:0.33333334 393:1 2114:0.5 2115:0.5 2118:0.5 2121:0.5 2123:0.5 2126:0.5 2130:0.5 2150:0.5 2202:0.5 
-1.5038215596944906060627999977442 1:0.02884615 3:0.33333334 16:0.33333334 18:0.085714288 22:0.01219512 33:0.125 49:0.25 107:1 108:0.5 2118:0.5 2121:0.5 2122:0.5 2123:0.5 2126:0.5 2128:0.5 2130:0.5 2133:0.5 
1.6407581834342914728352980091586 1:0.02884615 6:0.33333334 7:0.33333334 9:0.33333334 18:0.1 29:0.1 75:0.25 181:0.16666667 698:0.5 1296:1 2118:0.5 2122:0.5 2123:0.5 2148:0.5 2150:0.5 2151:0.5 2163:0.5 2202:0.5 
1.6407581834342914728352980091586 1:0.02884615 6:0.33333334 9:0.33333334 16:0.33333334 18:0.11428571 30:0.1 33:0.125 35:0.25 75:0.25 655:0.5 2145:0.5 2149:0.5 2150:0.5 2151:0.5 2153:0.5 2183:0.5 2184:0.5 2186:0.5 
1.6407581834342914728352980091586 1:0.01923077 6:0.5 9:0.5 18:0.14285713 29:0.1 75:0.25 323:0.5 2122:0.5 2129:0.5 2157:0.5 2174:0.5 2176:0.5 2178:0.5 
-1.6407581834342914728352980091586 1:0.0096153803 18:0.1 61:0.25 2117:0.5 2136:0.5 2148:0.5 2150:0.5 2151:0.5 2160:0.5 2161:0.5 2192:0.5 
-1.6407581834342914728352980091586 1:0.01923077 6:1 18:0.30000001 29:0.2 31:0.25 2117:0.5 2167:0.5 2169:0.5 2170:0.5 2172:0.5 2174:0.5 2176:0.5 2178:0.5 
-1.6407581834342914728352980091586 1:0.02884615 9:0.33333334 16:0.66666669 18:0.04285714 33:0.25 75:0.25 481:0.5 539:0.33333334 2118:0.5 2122:0.5 2164:0.5 2210:0.5 2216:0.5 2217:0.5 
1.6407581834342914728352980091586 1:0.086538456 5:0.33333334 6:0.22222222 9:0.11111111 16:0.11111111 18:0.057142861 19:0.2 27:0.14285713 29:0.1 30:0.1 32:0.25 33:0.125 35:0.25 43:0.2 62:0.5 142:0.25 148:0.40000001 189:0.33333334 257:0.5 347:1 349:0.33333334 535:1 2115:0.5 2121:0.5 2122:0.5 2123:0.5 2126:0.5 2127:0.5 2130:0.5 2150:0.5 2155:0.5 2156:0.5 2158:0.5 2160:0.5 2192:0.5 
-1.6407581834342914728352980091586 1:0.057692312 6:0.5 9:0.33333334 17:0.16666667 18:0.071428567 29:0.1 30:0.2 43:0.2 74:0.25 75:0.25 100:0.25 144:0.5 196:0.25 349:0.33333334 352:0.5 1051:1 2121:0.5 2125:0.5 2126:0.5 2128:0.5 2132:0.5 2155:0.5 2158:0.5 2168:0.5 
-0.077929911395629575254773158121679 1:0.14423077 3:0.5333333 6:0.06666667 7:0.13333333 16:0.2 18:0.1 22:0.097560979 30:0.1 33:0.375 43:0.2 44:0.046153851 51:0.125 61:0.25 112:0.5 136:0.5 174:0.25 181:0.33333334 190:1 210:0.33333334 221:0.2 406:1 461:0.5 1222:1 2126:0.5 2130:0.5 2133:0.5 2136:0.5 2137:0.5 2140:0.5 2143:0.5 2144:0.5 2149:0.5 
-1.6407581834342914728352980091586 1:0.02884615 5:0.33333334 16:0.33333334 18:0.04285714 19:0.06666667 33:0.125 43:0.1 65:0.33333334 189:0.16666667 577:1 1561:1 2114:0.5 2115:0.5 2118:0.5 2125:0.5 2150:0.5 2156:0.5 2199:0.5 
1.6407581834342914728352980091586 1:0.02884615 6:1 18:0.071428567 29:0.2 30:0.1 31:0.25 34:0.33333334 2118:0.5 2123:0.5 2128:0.5 2143:0.5 2167:0.5 2169:0.5 2170:0.5 2172:0.5 
1.6407581834342914728352980091586 1:0.03846154 6:0.5 9:0.25 18:0.057142861 30:0.2 43:0.1 75:0.25 96:0.33333334 99:0.125 144:0.5 196:0.25 562:1 2111:0.5 2115:0.5 2116:0.5 2117:0.5 2118:0.5 2122:0.5 2123:0.5 
1.6407581834342914728352980091586 1:0.02884615 6:0.33333334 9:0.33333334 16:0.33333334 18:0.071428567 29:0.1 32:0.25 33:0.125 75:0.25 481:0.5 2118:0.5 2122:0.5 2123:0.5 2128:0.5 2165:0.5 2167:0.5 2169:0.5 2170:0.5 
-1.6407581834342914728352980091586 1:0.01923077 12:0.5 16:0.5 18:0.057142861 33:0.125 85:0.25 842:1 2114:0.5 2118:0.5 2123:0.5 2165:0.5 2167:0.5 2169:0.5 2170:0.5 
0.76790381937529750278059736956493 1:0.02884615 6:0.66666669 16:0.33333334 18:0.1 29:0.1 30:0.1 32:0.25 33:0.125 35:0.25 2115:0.5 2146:0.5 2148:0.5 2149:0.5 2160:0.5 2161:0.5 2185:0.5 2192:0.5 
-1.6407581834342914728352980091586 1:0.02884615 3:0.66666669 6:0.33333334 18:0.04285714 22:0.024390239 30:0.1 44:0.01538462 136:0.5 2110:0.5 2111:0.5 2114:0.5 2118:0.5 2146:0.5 2149:0.5 
1.6407581834342914728352980091586 1:0.01923077 16:0.5 18:0.028571431 33:0.125 899:0.5 1997:1 2111:0.5 2114:0.5 2121:0.5 2146:0.5 2150:0.5 2151:0.5 2156:0.5 
1.6407581834342914728352980091586 1:0.04807692 4:0.40000001 6:0.60000002 18:0.12857144 29:0.1 30:0.2 34:0.33333334 54:0.22222222 133:0.16666667 405:0.33333334 463:0.5 2116:0.5 2117:0.5 2132:0.5 2148:0.5 2150:0.5 2153:0.5 2155:0.5 2158:0.5 2185:0.5 2192:0.5 2196:0.5 
1.6407581834342914728352980091586 1:0.02884615 9:0.33333334 16:0.66666669 18:0.04285714 33:0.25 75:0.25 481:0.5 539:0.33333334 2114:0.5 2150:0.5 2151:0.5 2153:0.5 2156:0.5 2184:0.5 2210:0.5 
-0.98347774004612997789109840596211 1:0.057692312 6:0.5 18:0.32857144 27:0.14285713 30:0.30000001 56:0.049180329 61:0.25 96:0.33333334 132:0.5 139:0.5 217:0.5 426:1 862:1 932:1 2112:0.5 2122:0.5 2143:0.5 2150:0.5 2153:0.5 2161:0.5 2185:0.5 2192:0.5 
-0.089493285707468187006874416056235 1:0.057692312 6:0.5 18:0.38571429 27:0.14285713 30:0.30000001 56:0.049180329 61:0.25 96:0.33333334 132:0.5 139:0.5 217:0.5 426:1 862:1 932:1 2121:0.5 2122:0.5 2126:0.5 2150:0.5 2153:0.5 2161:0.5 2185:0.5 2192:0.5 
-1.4363894676667832150940284918761 1:0.02884615 6:0.66666669 18:0.11428571 29:0.1 30:0.1 100:0.25 282:0.33333334 1010:1 2112:0.5 2113:0.5 2136:0.5 2156:0.5 2158:0.5 2160:0.5 2161:0.5 2166:0.5 2180:0.5 2212:0.5 2213:0.5 
-0.14658155199011621561133722480008 1:0.01923077 18:0.1 115:0.33333334 150:0.01333333 505:1 781:0.5 963:1 2136:0.5 2148:0.5 2150:0.5 2153:0.5 2158:0.5 2161:0.5 2164:0.5 2171:0.5 2192:0.5 2214:0.5 
0.038180338896260726522235984248255 1:0.02884615 6:0.66666669 16:0.33333334 18:0.04285714 30:0.2 33:0.125 35:0.25 36:0.5 2118:0.5 2122:0.5 2165:0.5 2167:0.5 2169:0.5 2170:0.5 
1.0466862753453189949226498356438 1:0.057692312 5:0.16666667 6:0.5 16:0.16666667 18:0.028571431 19:0.06666667 30:0.30000001 33:0.125 35:0.25 36:0.5 61:0.25 82:0.5 137:0.5 217:0.5 2114:0.5 2121:0.5 2126:0.5 2150:0.5 2153:0.5 
-1.6407581834342914728352980091586 1:0.01923077 6:0.5 18:0.04285714 29:0.1 108:0.5 401:1 2118:0.5 2122:0.5 2150:0.5 2153:0.5 2164:0.5 2210:0.5 
-1.235268047412491299041903403122 1:0.01923077 9:1 18:0.18571429 43:0.1 66:0.33333334 73:1 74:0.25 75:0.25 2122:0.5 2127:0.5 2129:0.5 2157:0.5 2176:0.5 2178:0.5 
-0.67891129703671526662844826205401 1:0.02884615 6:0.33333334 9:0.33333334 16:0.33333334 18:0.3142857 29:0.1 32:0.25 33:0.125 75:0.25 481:0.5 2152:0.5 2167:0.5 2169:0.5 2170:0.5 2172:0.5 2174:0.5 2176:0.5 2178:0.5 
0.74963519006328094285152019438101 1:0.086538456 3:0.22222222 6:0.44444445 18:0.085714288 22:0.024390239 29:0.2 30:0.2 44:0.01538462 61:0.25 100:0.25 113:0.5 124:0.16666667 162:0.5 210:0.33333334 217:0.5 541:0.5 544:0.5 1142:1 1143:1 2111:0.5 2114:0.5 2118:0.5 2143:0.5 2150:0.5 2164:0.5 2186:0.5 2202:0.5 
1.6407581834342914728352980091586 1:0.01923077 6:1 18:0.2857143 29:0.1 30:0.1 100:0.25 2111:0.5 2143:0.5 2160:0.5 2161:0.5 2164:0.5 2168:0.5 2185:0.5 2192:0.5 
1.6407581834342914728352980091586 1:0.01923077 6:0.5 18:0.028571431 29:0.1 96:0.33333334 697:0.5 2111:0.5 2114:0.5 2143:0.5 2164:0.5 2168:0.5 
-1.6407581834342914728352980091586 1:0.02884615 3:0.33333334 5:0.33333334 6:0.33333334 18:0.04285714 19:0.06666667 21:0.33333334 22:0.01219512 30:0.1 251:1 2114:0.5 2115:0.5 2143:0.5 2146:0.5 2148:0.5 2184:0.5 
-1.4101377411700737329880439574481 1:0.03846154 6:0.25 8:0.5 9:0.25 17:0.25 18:0.04285714 30:0.1 64:0.5 75:0.25 84:0.25 346:0.5 514:0.5 1065:1 1485:1 2111:0.5 2127:0.5 2143:0.5 2150:0.5 2164:0.5 2171:0.5 
-1.4332764743586861033719515035045 1:0.04807692 3:0.2 5:0.2 6:0.2 10:0.2 16:0.2 18:0.028571431 19:0.06666667 22:0.01219512 29:0.1 33:0.125 138:1 162:0.5 183:0.5 1611:1 1900:1 2111:0.5 2114:0.5 2115:0.5 2143:0.5 2146:0.5 2149:0.5 
1.6407581834342914728352980091586 1:0.01923077 6:0.5 9:0.5 18:0.14285713 29:0.1 75:0.25 698:0.5 2136:0.5 2150:0.5 2153:0.5 2158:0.5 2161:0.5 2164:0.5 2171:0.5 2210:0.5 
1.6407581834342914728352980091586 1:0.02884615 6:1 18:0.17142858 29:0.30000001 31:0.5 2122:0.5 2125:0.5 2154:0.5 2156:0.5 2174:0.5 2176:0.5 2178:0.5 
1.6407581834342914728352980091586 1:0.01923077 6:0.5 18:0.085714288 29:0.1 233:0.33333334 418:0.5 488:0.33333334 1595:1 2122:0.5 2127:0.5 2128:0.5 2132:0.5 2146:0.5 2148:0.5 2149:0.5 2150:0.5 
-1.6407581834342914728352980091586 1:0.02884615 6:0.66666669 18:0.38571429 29:0.2 31:0.25 96:0.33333334 697:0.5 2122:0.5 2136:0.5 2153:0.5 2156:0.5 2161:0.5 2164:0.5 2192:0.5 2210:0.5 
-1.6407581834342914728352980091586 1:0.0096153803 6:1 18:0.01428571 30:0.1 1527:1 2110:0.5 2162:0.5 2210:0.5 2212:0.5 
-1.6407581834342914728352980091586 1:0.01923077 6:1 18:0.2857143 29:0.2 31:0.25 2154:0.5 2169:0.5 2170:0.5 2172:0.5 2174:0.5 2176:0.5 2178:0.5 
1.6407581834342914728352980091586 1:0.02884615 5:0.33333334 6:0.33333334 16:0.33333334 18:0.057142861 19:0.06666667 29:0.1 32:0.25 33:0.125 138:1 2115:0.5 2122:0.5 2123:0.5 2127:0.5 2143:0.5 2146:0.5 2148:0.5 
0.35538656015930103482247659485438 1:0.02884615 5:0.33333334 6:0.33333334 16:0.33333334 18:0.04285714 19:0.06666667 29:0.1 32:0.25 33:0.125 138:1 2114:0.5 2115:0.5 2118:0.5 2121:0.5 2126:0.5 2148:0.5 
0.99786115582841083959664274516399 1:0.02884615 5:0.33333334 6:0.33333334 16:0.33333334 18:0.04285714 19:0.06666667 30:0.1 33:0.125 36:0.5 138:1 2114:0.5 2118:0.5 2146:0.5 2148:0.5 2149:0.5 2168:0.5 
-0.33540057839109949089362316954066 1:0.04807692 5:0.60000002 14:0.2 16:0.2 18:0.028571431 19:0.2 33:0.125 41:0.11111111 105:0.5 138:1 166:0.5 454:1 2114:0.5 2115:0.5 2143:0.5 2146:0.5 2148:0.5 
-1.1707874541856169159359524201136 1:0.07692308 5:0.125 6:0.25 18:0.071428567 19:0.06666667 27:0.2857143 29:0.2 43:0.30000001 62:0.5 142:0.25 186:0.25 189:0.16666667 200:0.5 257:0.5 262:0.25 337:0.25 387:0.5 472:0.5 473:0.5 736:1 2118:0.5 2121:0.5 2122:0.5 2123:0.5 2125:0.5 2126:0.5 2128:0.5 2168:0.5 
-1.299963305812882330414481657499 1:0.03846154 6:0.5 18:0.071428567 29:0.2 142:0.5 348:1 1890:1 2115:0.5 2118:0.5 2121:0.5 2122:0.5 2123:0.5 2126:0.5 2148:0.5 2202:0.5 
1.6407581834342914728352980091586 1:0.086538456 5:0.22222222 6:0.66666669 16:0.11111111 18:0.071428567 19:0.13333333 29:0.1 30:0.5 32:0.25 33:0.125 34:0.33333334 35:0.25 99:0.375 137:0.5 251:1 2122:0.5 2127:0.5 2128:0.5 2132:0.5 2201:0.5 
1.6407581834342914728352980091586 1:0.03846154 6:0.5 16:0.25 18:0.085714288 28:0.25 29:0.2 32:0.25 33:0.125 1198:1 2111:0.5 2127:0.5 2136:0.5 2146:0.5 2150:0.5 2155:0.5 2161:0.5 2210:0.5 
0.64314644530692344215339062429848 1:0.04807692 6:0.60000002 9:0.2 18:0.028571431 29:0.1 30:0.2 61:0.25 75:0.25 99:0.125 217:0.5 698:0.5 1246:1 2114:0.5 2129:0.5 2157:0.5 
-1.6407581834342914728352980091586 1:0.01923077 6:0.5 18:0.085714288 30:0.1 1198:1 2111:0.5 2128:0.5 2132:0.5 2143:0.5 2146:0.5 2155:0.5 2158:0.5 2168:0.5 
-0.10299134078145813497862093299773 1:0.03846154 6:0.25 18:0.057142861 27:0.14285713 30:0.1 65:0.33333334 67:0.5 68:0.5 69:0.5 1315:1 2111:0.5 2118:0.5 2122:0.5 2123:0.5 2146:0.5 2163:0.5 2168:0.5 
-0.85009340843544600740955274886801 1:0.0096153803 18:0.085714288 83:0.25 2121:0.5 2122:0.5 2127:0.5 2128:0.5 2132:0.5 2148:0.5 2150:0.5 2151:0.5 
0.85012483715075304324670923961094 1:0.067307688 5:0.14285713 6:0.14285713 16:0.5714286 18:0.028571431 19:0.06666667 28:0.25 29:0.1 33:0.5 134:0.5 454:1 539:0.66666669 1251:1 1252:1 2114:0.5 2126:0.5 2130:0.5 2133:0.5 2203:0.5 
1.0569346900412235346067291175132 1:0.01923077 6:0.5 9:0.5 18:0.057142861 30:0.1 349:0.33333334 1051:1 2114:0.5 2118:0.5 2121:0.5 2123:0.5 2124:0.5 2125:0.5 2126:0.5 
1.6407581834342914728352980091586 1:0.01923077 18:0.04285714 391:0.5 403:1 2114:0.5 2118:0.5 2121:0.5 2126:0.5 2150:0.5 2153:0.5 
-0.89334593122778860330157613134361 1:0.10576923 5:0.090909094 6:0.36363637 7:0.090909094 9:0.090909094 14:0.090909094 17:0.090909094 18:0.071428567 19:0.06666667 29:0.2 30:0.2 34:0.33333334 41:0.11111111 43:0.40000001 75:0.25 105:0.5 123:0.5 124:0.16666667 144:0.5 186:0.25 199:0.33333334 200:0.25 262:0.25 337:0.25 341:1 357:0.125 364:0.5 543:0.5 756:0.33333334 758:0.33333334 1145:1 1834:1 1835:1 1836:1 2118:0.5 2121:0.5 2122:0.5 2123:0.5 2125:0.5 2126:0.5 2150:0.5 2156:0.5 2202:0.5 2221:0.5 
-1.4075123624614447326308663832606 1:0.07692308 4:0.125 6:0.25 9:0.125 16:0.25 18:0.2 29:0.1 30:0.1 33:0.25 35:0.25 43:0.30000001 54:0.11111111 61:0.25 74:0.25 75:0.25 112:0.5 119:0.25 196:0.25 200:0.25 233:0.33333334 235:0.2 424:0.5 481:0.5 488:0.33333334 2157:0.5 2182:0.5 2183:0.5 2184:0.5 2186:0.5 2196:0.5 
-1.3533101043542687946796831965912 1:0.01923077 6:0.5 18:0.2 30:0.1 186:0.25 1149:1 2114:0.5 2153:0.5 2156:0.5 2164:0.5 2177:0.5 2187:0.5 2195:0.5 2219:0.5 
1.6407581834342914728352980091586 1:0.01923077 6:0.5 9:0.5 18:0.071428567 30:0.1 259:0.33333334 1085:1 2119:0.5 2120:0.5 2123:0.5 2127:0.5 2128:0.5 2143:0.5 2168:0.5 2171:0.5 
1.6407581834342914728352980091586 1:0.03846154 6:0.75 18:0.071428567 30:0.30000001 43:0.1 96:0.33333334 99:0.125 196:0.25 199:0.33333334 1084:1 2115:0.5 2119:0.5 2120:0.5 2122:0.5 2123:0.5 2127:0.5 2128:0.5 2143:0.5 
1.6407581834342914728352980091586 1:0.02884615 4:0.33333334 6:0.66666669 18:0.25714287 30:0.2 54:0.11111111 99:0.125 135:0.33333334 2136:0.5 2148:0.5 2150:0.5 2151:0.5 2158:0.5 2160:0.5 2161:0.5 2210:0.5 
-1.6407581834342914728352980091586 1:0.02884615 4:0.33333334 6:0.66666669 18:0.071428567 30:0.2 54:0.11111111 135:0.33333334 405:0.33333334 2112:0.5 2123:0.5 2127:0.5 2128:0.5 2143:0.5 2155:0.5 2156:0.5 2166:0.5 
-1.3062125718733761381429303582991 1:0.02884615 5:0.33333334 6:0.33333334 18:0.071428567 19:0.06666667 30:0.1 251:1 315:1 718:1 2121:0.5 2123:0.5 2126:0.5 2127:0.5 2128:0.5 2150:0.5 2153:0.5 2171:0.5 
-1.6407581834342914728352980091586 1:0.01923077 5:0.5 6:0.5 18:0.04285714 19:0.06666667 30:0.1 137:0.5 2111:0.5 2114:0.5 2115:0.5 2118:0.5 2120:0.5 2121:0.5 
1.4579997626701308721663963297033 1:0.057692312 6:0.33333334 18:0.028571431 29:0.1 30:0.1 78:0.33333334 233:1 234:0.5 488:0.33333334 514:1 515:1 573:1 2006:1 2114:0.5 2150:0.5 2153:0.5 2199:0.5 
1.6407581834342914728352980091586 1:0.057692312 5:0.16666667 6:0.5 18:0.085714288 19:0.06666667 29:0.2 30:0.1 34:0.33333334 43:0.2 61:0.25 78:0.33333334 112:0.5 189:0.16666667 200:0.25 201:0.5 217:0.5 476:0.5 2118:0.5 2121:0.5 2122:0.5 2126:0.5 2130:0.5 2133:0.5 2186:0.5 2202:0.5 
1.6407581834342914728352980091586 1:0.01923077 6:0.5 18:0.14285713 30:0.1 78:0.33333334 198:1 2122:0.5 2148:0.5 2149:0.5 2150:0.5 2151:0.5 2173:0.5 2195:0.5 2196:0.5 
-0.8238362398612781856144238190609 1:0.057692312 3:0.16666667 6:0.16666667 14:0.16666667 18:0.085714288 22:0.01219512 30:0.1 41:0.11111111 56:0.01639344 61:0.25 78:0.66666669 161:1 197:1 198:1 210:0.33333334 218:1 1238:1 2121:0.5 2126:0.5 2130:0.5 2133:0.5 2136:0.5 2161:0.5 2171:0.5 2192:0.5 
-1.0353471619751215548888012563111 1:0.03846154 5:0.25 6:0.25 14:0.25 18:0.028571431 19:0.06666667 30:0.1 41:0.11111111 78:0.33333334 166:0.5 198:1 380:1 2114:0.5 2115:0.5 2116:0.5 2117:0.5 2119:0.5 
-1.0903368759614593397344606273691 1:0.086538456 2:0.22222222 5:0.11111111 6:0.22222222 9:0.11111111 17:0.11111111 18:0.18571429 19:0.06666667 27:0.14285713 30:0.2 40:0.33333334 43:0.40000001 69:0.5 132:0.5 142:0.25 148:0.2 196:0.5 199:0.33333334 223:1 257:0.5 349:0.33333334 366:0.5 369:1 535:1 665:1 713:0.5 736:1 2114:0.5 2118:0.5 2121:0.5 2126:0.5 2127:0.5 2130:0.5 2131:0.5 2133:0.5 2175:0.5 2184:0.5 2196:0.5 
0.33232831072745339096030647851876 1:0.02884615 6:0.33333334 16:0.33333334 18:0.04285714 28:0.25 29:0.1 33:0.125 418:0.25 1593:1 2111:0.5 2112:0.5 2114:0.5 2115:0.5 2118:0.5 2143:0.5 
1.6407581834342914728352980091586 1:0.02884615 6:0.33333334 16:0.33333334 18:0.057142861 30:0.1 33:0.125 35:0.25 418:0.25 1593:1 2111:0.5 2115:0.5 2118:0.5 2122:0.5 2123:0.5 2143:0.5 2146:0.5 
1.6407581834342914728352980091586 1:0.03846154 5:0.25 6:0.75 18:0.04285714 19:0.06666667 29:0.2 30:0.1 43:0.2 100:0.25 134:0.5 189:0.16666667 196:0.25 337:0.25 2111:0.5 2112:0.5 2113:0.5 2114:0.5 2115:0.5 2118:0.5 
-1.6407581834342914728352980091586 1:0.01923077 6:0.5 18:0.04285714 29:0.1 142:0.25 348:0.5 2111:0.5 2118:0.5 2122:0.5 2146:0.5 2163:0.5 2168:0.5 
-1.6407581834342914728352980091586 1:0.01923077 7:0.5 16:0.5 18:0.071428567 33:0.125 38:0.33333334 1369:1 2118:0.5 2122:0.5 2123:0.5 2129:0.5 2154:0.5 2181:0.5 2185:0.5 
-1.6407581834342914728352980091586 1:0.03846154 7:1 18:0.071428567 2123:0.5 2127:0.5 2148:0.5 2149:0.5 2150:0.5 2151:0.5 2171:0.5 2202:0.5 
1.6407581834342914728352980091586 1:0.086538456 5:0.11111111 6:0.22222222 14:0.11111111 17:0.11111111 18:0.028571431 19:0.06666667 27:0.2857143 30:0.2 41:0.11111111 43:0.2 62:0.5 67:0.5 69:0.5 84:0.25 93:0.33333334 99:0.125 110:0.5 123:0.5 142:0.25 196:0.25 257:0.5 675:1 736:1 2114:0.5 2115:0.5 2121:0.5 2126:0.5 2150:0.5 2181:0.5 
-1.6407581834342914728352980091586 1:0.03846154 5:0.25 6:0.5 18:0.14285713 19:0.06666667 29:0.2 31:0.25 69:0.5 134:0.5 669:0.5 2121:0.5 2126:0.5 2130:0.5 2132:0.5 2136:0.5 2150:0.5 2155:0.5 2156:0.5 2173:0.5 
-0.54945397039609766842715998791391 1:0.04807692 6:0.40000001 7:0.2 9:0.40000001 18:0.085714288 30:0.2 43:0.2 75:0.25 144:0.5 196:0.25 237:0.33333334 259:0.33333334 495:0.5 712:1 1085:1 1295:1 2121:0.5 2123:0.5 2126:0.5 2127:0.5 2128:0.5 2130:0.5 2155:0.5 2168:0.5 
-1.6407581834342914728352980091586 1:0.01923077 6:0.5 9:0.5 18:0.085714288 30:0.1 43:0.1 74:0.25 75:0.25 199:0.33333334 2121:0.5 2126:0.5 2130:0.5 2136:0.5 2155:0.5 2158:0.5 2161:0.5 2168:0.5 2192:0.5 
1.6407581834342914728352980091586 1:0.02884615 6:0.33333334 18:0.057142861 29:0.1 83:0.25 96:0.33333334 697:0.5 2114:0.5 2118:0.5 2123:0.5 2124:0.5 2129:0.5 2152:0.5 2180:0.5 2181:0.5 
1.6407581834342914728352980091586 1:0.01923077 6:0.5 18:0.057142861 29:0.1 78:0.33333334 381:1 2118:0.5 2122:0.5 2123:0.5 2125:0.5 2150:0.5 2156:0.5 2199:0.5 
-1.1621162924244035075105330179213 1:0.03846154 4:0.25 6:0.25 18:0.085714288 30:0.1 54:0.11111111 96:0.33333334 186:0.25 405:0.33333334 514:0.5 515:1 2118:0.5 2122:0.5 2123:0.5 2128:0.5 2150:0.5 2151:0.5 2153:0.5 2163:0.5 
-1.6407581834342914728352980091586 1:0.04807692 3:0.2 16:0.2 18:0.057142861 22:0.01219512 27:0.14285713 33:0.125 53:0.14285713 171:0.5 172:0.5 2112:0.5 2114:0.5 2118:0.5 2123:0.5 2143:0.5 2181:0.5 2182:0.5 
-1.6407581834342914728352980091586 1:0.0096153803 18:0.057142861 83:0.25 2118:0.5 2122:0.5 2123:0.5 2148:0.5 2150:0.5 2151:0.5 2210:0.5 
1.6407581834342914728352980091586 1:0.01923077 6:0.5 9:0.5 18:0.085714288 29:0.1 75:0.25 698:0.5 2111:0.5 2127:0.5 2136:0.5 2143:0.5 2164:0.5 2168:0.5 2171:0.5 2175:0.5 
-0.38174757434880751683081712144485 1:0.11538462 5:0.083333328 6:0.083333328 7:0.083333328 9:0.33333334 18:0.057142861 19:0.06666667 27:0.14285713 30:0.1 43:0.5 62:0.5 67:0.5 69:0.5 74:0.25 75:0.5 142:0.25 143:0.5 144:0.5 186:0.25 189:0.16666667 199:0.33333334 232:0.5 233:0.33333334 259:0.66666669 262:0.25 322:0.25 483:1 495:0.5 528:1 561:0.5 675:1 1085:1 1088:0.5 2118:0.5 2122:0.5 2123:0.5 2143:0.5 2149:0.5 2156:0.5 2180:0.5 2181:0.5 
-1.2470487256482896132325777216465 1:0.057692312 5:0.5 6:0.33333334 18:0.01428571 19:0.2 23:0.2857143 29:0.2 78:0.33333334 134:0.5 201:0.5 381:1 2115:0.5 2121:0.5 2126:0.5 2148:0.5 2153:0.5 
-1.6407581834342914728352980091586 1:0.02884615 4:0.33333334 6:0.33333334 18:0.028571431 30:0.1 54:0.11111111 61:0.25 135:0.33333334 217:0.5 2114:0.5 2115:0.5 2121:0.5 2125:0.5 2126:0.5 
1.6407581834342914728352980091586 1:0.02884615 6:0.66666669 7:0.33333334 18:0.085714288 29:0.2 31:0.25 181:0.16666667 340:0.33333334 2115:0.5 2118:0.5 2119:0.5 2120:0.5 2121:0.5 2122:0.5 2123:0.5 2128:0.5 
1.3862096104368153426378285075771 1:0.04807692 3:0.40000001 6:0.40000001 16:0.2 18:0.11428571 22:0.024390239 29:0.1 30:0.1 32:0.25 33:0.125 44:0.01538462 49:0.25 136:0.5 2148:0.5 2150:0.5 2151:0.5 2161:0.5 2163:0.5 2171:0.5 2185:0.5 2192:0.5 
1.6407581834342914728352980091586 1:0.04807692 3:0.40000001 6:0.40000001 16:0.2 18:0.18571429 22:0.024390239 29:0.1 30:0.1 32:0.25 33:0.125 44:0.01538462 49:0.25 136:0.5 2148:0.5 2150:0.5 2151:0.5 2163:0.5 2171:0.5 2185:0.5 2192:0.5 2194:0.5 
-1.6407581834342914728352980091586 1:0.0096153803 18:0.17142858 83:0.25 2113:0.5 2148:0.5 2150:0.5 2151:0.5 2171:0.5 2185:0.5 2192:0.5 2194:0.5 
-1.6407581834342914728352980091586 1:0.02884615 6:0.66666669 12:0.33333334 18:0.22857143 30:0.2 85:0.25 99:0.125 1471:1 2120:0.5 2127:0.5 2132:0.5 2136:0.5 2148:0.5 2150:0.5 2152:0.5 2172:0.5 
-0.82378913215598092989466749713756 1:0.086538456 3:0.33333334 5:0.11111111 6:0.22222222 14:0.11111111 16:0.11111111 18:0.37142858 19:0.06666667 22:0.036585368 28:0.25 29:0.2 32:0.25 33:0.125 41:0.11111111 44:0.030769231 105:0.5 109:0.25 162:0.5 418:0.25 420:1 2158:0.5 2159:0.5 2171:0.5 2175:0.5 2185:0.5 2191:0.5 2192:0.5 2193:0.5 2195:0.5 2196:0.5 2197:0.5 
1.6407581834342914728352980091586 1:0.03846154 5:0.25 6:0.5 18:0.028571431 19:0.06666667 29:0.1 30:0.1 43:0.1 100:0.25 148:0.2 196:0.25 501:0.33333334 530:0.5 2114:0.5 2115:0.5 2121:0.5 2126:0.5 2130:0.5 2150:0.5 
1.2926592368922049658408468530979 1:0.02884615 6:0.66666669 18:0.057142861 29:0.1 30:0.1 61:0.25 100:0.25 339:1 2118:0.5 2121:0.5 2122:0.5 2123:0.5 2126:0.5 2130:0.5 2133:0.5 
-0.94989045901616653289067926380085 1:0.067307688 6:0.42857143 7:0.2857143 9:0.14285713 18:0.04285714 30:0.30000001 38:0.33333334 43:0.30000001 99:0.125 196:0.25 199:0.33333334 222:0.33333334 349:0.33333334 352:0.5 357:0.125 364:0.5 439:0.5 446:1 610:1 1286:1 2118:0.5 2122:0.5 2168:0.5 2179:0.5 2180:0.5 2181:0.5 
-1.6407581834342914728352980091586 1:0.03846154 5:0.25 6:0.5 18:0.04285714 19:0.06666667 30:0.2 43:0.1 108:0.5 137:0.5 189:0.16666667 199:0.33333334 1122:1 2118:0.5 2121:0.5 2122:0.5 2150:0.5 2153:0.5 2164:0.5 
-1.6407581834342914728352980091586 1:0.0096153803 5:1 18:0.04285714 19:0.06666667 2111:0.5 2114:0.5 2115:0.5 2118:0.5 2143:0.5 2150:0.5 2164:0.5 2168:0.5 
1.3111628492647648958069339641952 1:0.03846154 6:0.5 16:0.25 18:0.15714286 28:0.25 29:0.2 32:0.25 33:0.125 115:0.33333334 1793:1 2146:0.5 2148:0.5 2149:0.5 2150:0.5 2175:0.5 2196:0.5 2218:0.5 2219:0.5 
1.2991588649502425756310231008683 1:0.096153848 6:0.30000001 7:0.30000001 9:0.1 18:0.057142861 29:0.1 30:0.2 43:0.1 61:0.25 75:0.25 78:0.66666669 144:0.5 181:0.5 197:1 198:1 201:0.5 221:0.2 338:0.5 340:0.33333334 341:1 684:0.5 2118:0.5 2123:0.5 2146:0.5 2148:0.5 2150:0.5 2151:0.5 2153:0.5 2156:0.5 2183:0.5 2198:0.5 
-1.6407581834342914728352980091586 1:0.04807692 5:0.40000001 6:0.60000002 18:0.01428571 19:0.13333333 23:0.14285713 29:0.30000001 31:0.5 130:0.5 2115:0.5 2117:0.5 2146:0.5 2148:0.5 
-1.6407581834342914728352980091586 1:0.01923077 6:0.5 9:0.5 18:0.085714288 30:0.1 75:0.25 341:1 2121:0.5 2123:0.5 2126:0.5 2127:0.5 2128:0.5 2130:0.5 2155:0.5 2156:0.5 
-1.4993775297299263282724268719903 1:0.01923077 6:0.5 18:0.01428571 26:0.5 30:0.1 512:1 2115:0.5 2146:0.5 2148:0.5 2149:0.5 
1.6407581834342914728352980091586 1:0.01923077 5:0.5 6:0.5 18:0.04285714 19:0.06666667 29:0.1 134:0.5 2114:0.5 2118:0.5 2148:0.5 2150:0.5 2153:0.5 2164:0.5 2214:0.5 
1.6407581834342914728352980091586 1:0.0096153803 3:1 18:0.04285714 22:0.01219512 2114:0.5 2115:0.5 2118:0.5 2143:0.5 2167:0.5 2169:0.5 
-1.0954654904172982377019707200816 1:0.01923077 4:0.5 12:0.5 18:0.04285714 54:0.11111111 85:0.25 1000:1 2114:0.5 2118:0.5 2146:0.5 2150:0.5 2165:0.5 2167:0.5 2169:0.5 2170:0.5 
-1.6407581834342914728352980091586 1:0.02884615 5:0.33333334 18:0.04285714 19:0.06666667 77:0.5 78:0.33333334 314:1 315:1 2114:0.5 2118:0.5 2146:0.5 2148:0.5 2149:0.5 2150:0.5 
-1.1098633337533505560656976740574 1:0.03846154 3:0.25 5:0.5 6:0.25 18:0.071428567 19:0.13333333 20:0.2 21:0.33333334 22:0.01219512 29:0.1 134:0.5 2110:0.5 2111:0.5 2114:0.5 2116:0.5 2117:0.5 2118:0.5 2185:0.5 2194:0.5 2195:0.5 
1.6407581834342914728352980091586 1:0.04807692 6:0.80000001 18:0.14285713 29:0.2 30:0.2 34:0.33333334 61:0.25 100:0.25 217:0.5 227:0.5 2118:0.5 2122:0.5 2123:0.5 2145:0.5 2154:0.5 2166:0.5 2181:0.5 2182:0.5 
1.6407581834342914728352980091586 1:0.02884615 4:0.33333334 6:0.66666669 18:0.2 29:0.1 30:0.1 54:0.11111111 100:0.25 135:0.33333334 2127:0.5 2146:0.5 2148:0.5 2149:0.5 2168:0.5 2171:0.5 2194:0.5 2196:0.5 
1.6407581834342914728352980091586 1:0.01923077 6:0.5 16:0.5 18:0.071428567 30:0.1 33:0.125 35:0.25 2121:0.5 2123:0.5 2126:0.5 2127:0.5 2128:0.5 2150:0.5 2155:0.5 2156:0.5 2160:0.5 2181:0.5 
-1.2948221489062328171115723307594 1:0.02884615 6:0.33333334 7:0.33333334 9:0.33333334 18:0.071428567 29:0.1 259:0.33333334 260:1 322:0.25 1088:0.5 2121:0.5 2123:0.5 2127:0.5 2150:0.5 2153:0.5 2155:0.5 2164:0.5 2202:0.5 
-1.6407581834342914728352980091586 1:0.01923077 6:1 18:0.25714287 29:0.1 30:0.1 100:0.25 2165:0.5 2167:0.5 2169:0.5 2170:0.5 2172:0.5 2184:0.5 2186:0.5 2202:0.5 
-1.3275254937948282041304537415272 1:0.01923077 3:0.5 6:0.5 18:0.085714288 22:0.01219512 29:0.1 150:0.01333333 248:1 285:1 2121:0.5 2123:0.5 2126:0.5 2127:0.5 2128:0.5 2130:0.5 2133:0.5 2183:0.5 
1.6407581834342914728352980091586 1:0.02884615 6:0.66666669 18:0.04285714 29:0.1 30:0.1 83:0.25 100:0.25 1421:1 2114:0.5 2115:0.5 2148:0.5 2151:0.5 2163:0.5 2168:0.5 2184:0.5 2210:0.5 
-1.6407581834342914728352980091586 1:0.03846154 3:0.25 5:0.25 6:0.25 18:0.028571431 19:0.06666667 20:0.2 22:0.01219512 30:0.1 77:0.5 78:0.33333334 136:0.5 2114:0.5 2115:0.5 2148:0.5 2149:0.5 2151:0.5 
-0.911792380640870980812451307429 1:0.04807692 3:0.60000002 4:0.2 14:0.2 18:0.028571431 22:0.036585368 41:0.11111111 44:0.01538462 47:0.2 54:0.11111111 109:0.25 176:0.5 2114:0.5 2115:0.5 2143:0.5 2148:0.5 2149:0.5 2151:0.5 2153:0.5 
-1.6407581834342914728352980091586 1:0.01923077 5:0.5 6:0.5 18:0.028571431 19:0.06666667 30:0.1 251:1 2114:0.5 2115:0.5 2146:0.5 2148:0.5 2163:0.5 
1.6407581834342914728352980091586 1:0.02884615 6:0.33333334 9:0.66666669 18:0.071428567 29:0.1 75:0.5 323:0.5 654:1 2118:0.5 2122:0.5 2123:0.5 2165:0.5 2167:0.5 2169:0.5 2170:0.5 2202:0.5 
0.60935034776030150283077091444284 1:0.03846154 6:0.5 16:0.25 18:0.085714288 28:0.25 29:0.2 32:0.25 33:0.125 61:0.25 339:1 2120:0.5 2121:0.5 2128:0.5 2132:0.5 2150:0.5 2153:0.5 2158:0.5 2160:0.5 2192:0.5 
1.6407581834342914728352980091586 1:0.0096153803 3:1 18:0.04285714 22:0.01219512 2114:0.5 2115:0.5 2118:0.5 2143:0.5 2167:0.5 2169:0.5 
-0.65733947131802705765579730723402 1:0.13461538 4:0.14285713 6:0.5 7:0.14285713 8:0.14285713 9:0.071428567 17:0.071428567 18:0.04285714 29:0.2 30:0.5 31:0.25 43:0.40000001 54:0.22222222 56:0.01639344 64:0.5 84:0.25 99:0.125 135:0.33333334 181:0.16666667 196:0.75 221:0.2 237:0.33333334 337:0.25 340:0.33333334 343:0.5 346:0.5 349:0.33333334 352:0.5 405:0.33333334 510:1 712:1 745:1 1168:1 1295:1 2118:0.5 2121:0.5 2122:0.5 2146:0.5 2148:0.5 2151:0.5 2153:0.5 2164:0.5 2168:0.5 
-0.53390846472456554572261211433215 1:0.067307688 9:0.2857143 11:0.14285713 18:0.1 43:0.30000001 66:0.33333334 73:1 75:0.25 78:0.33333334 144:0.5 154:0.5 156:0.5 233:0.33333334 259:0.33333334 385:0.5 495:0.5 496:1 572:0.5 573:1 2122:0.5 2123:0.5 2127:0.5 2145:0.5 2168:0.5 2179:0.5 2180:0.5 2181:0.5 
-0.15717029355796208189843810032471 1:0.125 5:0.15384614 6:0.38461539 16:0.15384614 18:0.085714288 19:0.13333333 29:0.1 30:0.40000001 33:0.25 43:0.5 61:0.75 82:0.5 148:0.2 196:1 199:0.33333334 217:1 235:0.40000001 251:1 337:0.25 413:1 1209:1 1210:1 1211:1 2121:0.5 2123:0.5 2126:0.5 2127:0.5 2128:0.5 2155:0.5 2160:0.5 2181:0.5 2182:0.5 
1.6407581834342914728352980091586 1:0.04807692 5:0.2 6:0.60000002 18:0.04285714 19:0.06666667 30:0.30000001 61:0.25 80:0.5 99:0.125 227:0.5 251:1 2114:0.5 2118:0.5 2121:0.5 2126:0.5 2129:0.5 2130:0.5 
0.8723069097829356799422839685576 1:0.10576923 3:0.090909094 4:0.090909094 6:0.54545456 9:0.090909094 16:0.18181819 18:0.071428567 22:0.01219512 28:0.25 29:0.40000001 30:0.2 32:0.5 33:0.25 43:0.30000001 47:0.2 54:0.11111111 75:0.25 144:0.5 196:0.5 200:0.25 287:0.33333334 337:0.5 341:1 405:0.33333334 2114:0.5 2115:0.5 2121:0.5 2126:0.5 2130:0.5 2184:0.5 2186:0.5 2202:0.5 
1.6407581834342914728352980091586 1:0.03846154 5:0.25 6:0.5 7:0.25 18:0.028571431 19:0.06666667 29:0.2 31:0.25 130:0.5 181:0.16666667 340:0.33333334 2114:0.5 2121:0.5 2126:0.5 2130:0.5 2150:0.5 
-1.6407581834342914728352980091586 1:0.01923077 6:1 18:0.25714287 29:0.2 31:0.25 2145:0.5 2165:0.5 2167:0.5 2169:0.5 2170:0.5 2172:0.5 2174:0.5 2176:0.5 
-1.6407581834342914728352980091586 1:0.01923077 6:0.5 18:0.1 30:0.1 83:0.25 150:0.01333333 158:0.5 267:0.5 2136:0.5 2150:0.5 2151:0.5 2153:0.5 2158:0.5 2160:0.5 2161:0.5 2163:0.5 
-1.6407581834342914728352980091586 1:0.086538456 3:0.11111111 6:0.77777779 18:0.48571429 22:0.01219512 29:0.40000001 30:0.30000001 31:0.25 43:0.2 61:0.25 99:0.125 100:0.25 162:0.5 196:0.25 199:0.33333334 200:0.25 227:0.5 337:0.25 339:1 2147:0.5 2182:0.5 2183:0.5 2184:0.5 2186:0.5 2200:0.5 
1.6407581834342914728352980091586 1:0.02884615 5:0.33333334 6:0.33333334 16:0.33333334 18:0.057142861 19:0.06666667 30:0.1 33:0.125 36:0.5 138:1 2123:0.5 2127:0.5 2146:0.5 2148:0.5 2149:0.5 2168:0.5 2171:0.5 
1.2656394504937737988115031839698 1:0.04807692 6:0.40000001 7:0.2 16:0.2 18:0.057142861 29:0.1 30:0.1 32:0.25 33:0.125 35:0.25 43:0.1 181:0.16666667 186:0.25 191:1 608:0.16666667 1739:1 2115:0.5 2118:0.5 2122:0.5 2123:0.5 2146:0.5 2148:0.5 2149:0.5 
-1.0749248981011239045812999393092 1:0.096153848 3:0.5 4:0.1 6:0.1 16:0.1 18:0.04285714 22:0.060975611 29:0.1 32:0.25 33:0.125 44:0.046153851 47:0.2 48:0.16666667 54:0.11111111 96:0.33333334 162:0.5 1152:1 1407:1 2111:0.5 2114:0.5 2115:0.5 2138:0.5 2146:0.5 2149:0.5 2184:0.5 
-0.66699321084590046382345462916419 1:0.067307688 3:0.14285713 5:0.42857143 6:0.14285713 18:0.085714288 19:0.2 21:0.33333334 22:0.01219512 23:0.14285713 30:0.1 61:0.25 80:0.5 82:0.5 210:0.33333334 305:1 1274:1 2121:0.5 2122:0.5 2123:0.5 2126:0.5 2127:0.5 2128:0.5 2130:0.5 2150:0.5 2156:0.5 2171:0.5 2173:0.5 
-0.89859342949069653805338475649478 1:0.10576923 6:0.090909094 7:0.090909094 9:0.18181819 11:0.090909094 14:0.090909094 17:0.090909094 18:0.071428567 27:0.2857143 29:0.1 41:0.11111111 43:0.30000001 66:0.33333334 67:0.5 69:0.5 75:0.25 84:0.25 93:0.33333334 110:0.5 123:0.5 142:0.25 144:0.5 154:0.5 156:0.5 237:0.33333334 257:0.5 258:0.5 323:0.5 361:1 382:0.5 385:0.5 736:1 2118:0.5 2121:0.5 2122:0.5 2123:0.5 2126:0.5 2130:0.5 2133:0.5 2202:0.5 
1.6407581834342914728352980091586 1:0.01923077 6:1 18:0.15714286 29:0.2 31:0.25 2120:0.5 2122:0.5 2150:0.5 2153:0.5 2158:0.5 2165:0.5 2176:0.5 2178:0.5 
-1.2626635184126804301030233546044 1:0.02884615 6:0.33333334 16:0.33333334 18:0.01428571 30:0.1 33:0.125 35:0.25 150:0.01333333 389:0.5 506:1 959:1 2110:0.5 2111:0.5 2143:0.5 2167:0.5 
-0.79149147968945277042962516134139 1:0.01923077 6:0.5 18:0.12857144 30:0.1 96:0.33333334 1084:1 2121:0.5 2122:0.5 2151:0.5 2153:0.5 2156:0.5 2173:0.5 2194:0.5 2196:0.5 
-0.42786078634407342935475071499241 1:0.10576923 3:0.090909094 5:0.36363637 6:0.090909094 7:0.090909094 13:0.090909094 18:0.04285714 19:0.26666668 21:0.33333334 22:0.01219512 23:0.2857143 27:0.14285713 30:0.1 43:0.1 61:0.25 62:0.5 67:0.5 69:0.5 82:0.5 181:0.16666667 196:0.25 217:0.5 467:0.5 656:0.5 675:1 1486:1 2118:0.5 2121:0.5 2122:0.5 2148:0.5 2150:0.5 2151:0.5 2156:0.5 
-0.31490320621974626780215089638659 1:0.03846154 14:0.25 17:0.25 18:0.057142861 27:0.14285713 41:0.11111111 67:0.5 69:0.5 84:0.25 93:0.33333334 110:0.5 2118:0.5 2121:0.5 2122:0.5 2123:0.5 2126:0.5 2148:0.5 2150:0.5 
1.6407581834342914728352980091586 1:0.02884615 6:0.66666669 18:0.028571431 29:0.2 233:0.33333334 488:0.33333334 1686:1 2111:0.5 2112:0.5 2114:0.5 2115:0.5 2143:0.5 
0.64667608180847757637366157723591 1:0.03846154 6:0.75 18:0.1 29:0.30000001 31:0.25 43:0.2 200:0.25 337:0.25 673:0.5 1432:1 1787:1 2114:0.5 2115:0.5 2121:0.5 2126:0.5 2130:0.5 2186:0.5 2202:0.5 2219:0.5 
1.6407581834342914728352980091586 1:0.03846154 6:0.5 16:0.25 18:0.028571431 28:0.25 29:0.2 32:0.25 33:0.125 43:0.1 96:0.33333334 200:0.25 465:1 2111:0.5 2114:0.5 2115:0.5 2121:0.5 2126:0.5 
