SVM-light Version V5.00
2 # kernel type
3 # kernel parameter -d 
0.1 # kernel parameter -g 
1 # kernel parameter -s 
1 # kernel parameter -r 
empty# kernel parameter -u 
2109 # highest feature index 
18907 # number of training documents 
983 # number of support vectors plus 1 
0.41396101 # threshold b, each following line is a SV (starting with alpha*y)
0.81354475409363136151341677759774 1:0.057692312 3:0.16666667 6:0.16666667 7:0.16666667 9:0.16666667 18:0.1 22:0.01219512 29:0.1 43:0.1 75:0.25 83:0.25 162:0.5 186:0.25 200:0.25 237:0.33333334 262:0.25 321:0.33333334 602:1 1813:1 
-0.1519980903308912056903778875494 1:0.086538456 2:0.22222222 5:0.11111111 7:0.22222222 9:0.11111111 14:0.22222222 18:0.01428571 19:0.06666667 27:0.14285713 38:0.33333334 40:0.33333334 41:0.22222222 43:0.30000001 45:0.5 123:0.5 150:0.01333333 222:0.33333334 256:0.5 271:1 349:0.33333334 352:0.5 366:0.5 431:0.33333334 557:1 762:1 763:1 899:0.5 1714:1 1943:1 
3.1266851102976906950914326444035 1:0.02884615 9:0.33333334 17:0.33333334 18:0.1 43:0.2 74:0.25 75:0.25 186:0.25 191:1 262:0.25 646:1 
0.60673200242419611516453414878924 1:0.02884615 9:0.66666669 17:0.33333334 18:0.071428567 75:0.25 259:0.33333334 496:1 1171:1 1172:1 
-3.1266851102976906950914326444035 1:0.0096153803 18:0.18571429 282:0.33333334 
-3.1266851102976906950914326444035 1:0.0096153803 7:1 18:0.2857143 38:0.33333334 
-1.515963028321528183184341287415 1:0.02884615 6:0.66666669 7:0.33333334 18:0.17142858 29:0.1 30:0.1 34:0.33333334 181:0.16666667 340:0.33333334 
0.42981649986657088913233337734709 1:0.057692312 6:0.16666667 7:0.16666667 9:0.16666667 18:0.085714288 30:0.1 38:0.33333334 43:0.2 83:0.5 150:0.01333333 158:0.5 196:0.25 253:0.5 333:0.5 349:0.33333334 352:0.5 610:1 
3.1266851102976906950914326444035 1:0.02884615 9:0.33333334 18:0.35714287 43:0.1 66:0.33333334 73:1 74:0.25 75:0.25 
-3.1266851102976906950914326444035 1:0.01923077 6:0.5 9:0.5 18:0.04285714 29:0.1 75:0.25 323:0.5 
-3.1266851102976906950914326444035 1:0.01923077 9:1 18:0.34285715 43:0.1 66:0.33333334 73:1 74:0.25 75:0.25 
3.1266851102976906950914326444035 1:0.0096153803 6:1 18:0.11428571 30:0.1 
-3.1266851102976906950914326444035 1:0.01923077 9:1 18:0.04285714 43:0.1 66:0.33333334 73:1 74:0.25 75:0.25 
-3.1266851102976906950914326444035 1:0.01923077 9:1 18:0.27142856 43:0.1 66:0.33333334 73:1 74:0.25 75:0.25 
3.1266851102976906950914326444035 1:0.01923077 5:0.5 6:0.5 18:0.071428567 19:0.06666667 30:0.1 251:1 
3.1266851102976906950914326444035 1:0.0096153803 6:1 18:0.18571429 29:0.1 
-3.1266851102976906950914326444035 1:0.02884615 6:0.33333334 7:0.33333334 9:0.33333334 18:0.15714286 29:0.1 259:0.33333334 260:1 322:0.25 973:1 
-3.1266851102976906950914326444035 1:0.067307688 6:0.71428573 9:0.2857143 18:0.028571431 29:0.5 31:0.5 43:0.2 74:0.25 75:0.25 259:0.33333334 260:1 337:0.5 495:0.5 698:0.5 
-3.1266851102976906950914326444035 1:0.03846154 6:0.25 9:0.5 18:0.057142861 29:0.1 43:0.1 259:0.66666669 260:1 337:0.25 501:0.33333334 799:0.33333334 1578:1 
3.1266851102976906950914326444035 1:0.02884615 5:0.66666669 9:0.33333334 18:0.17142858 19:0.13333333 23:0.14285713 43:0.1 189:0.16666667 349:0.33333334 352:0.5 
3.1266851102976906950914326444035 1:0.0096153803 18:0.12857144 115:0.33333334 
3.1266851102976906950914326444035 1:0.01923077 18:0.085714288 349:0.33333334 
-3.1266851102976906950914326444035 1:0.086538456 3:0.44444445 5:0.22222222 6:0.11111111 7:0.11111111 18:0.34285715 19:0.13333333 22:0.04878049 30:0.1 44:0.046153851 61:0.25 80:0.5 210:0.33333334 236:1 237:0.33333334 251:1 
-0.18312732050957256091372471473733 1:0.096153848 3:0.60000002 5:0.1 6:0.2 9:0.1 18:0.27142856 19:0.06666667 22:0.073170729 29:0.1 30:0.1 42:0.55555558 43:0.5 51:0.375 75:0.25 134:0.5 144:0.5 150:0.01333333 199:0.33333334 210:0.33333334 256:0.5 353:1 602:1 
-3.1266851102976906950914326444035 1:0.02884615 6:0.66666669 7:0.33333334 18:0.1 30:0.2 99:0.125 181:0.16666667 338:0.25 
-0.44689676705692621405674458401336 1:0.01923077 7:0.5 10:0.5 18:0.071428567 181:0.16666667 183:0.5 184:1 
1.425309078703359766393532481743 1:0.04807692 3:0.2 5:0.2 6:0.2 9:0.2 18:0.11428571 19:0.06666667 20:0.2 22:0.01219512 29:0.1 43:0.1 162:0.5 200:0.25 282:0.33333334 349:0.33333334 350:1 352:0.5 
-0.3824611897347472422303837902291 1:0.03846154 5:0.5 9:0.25 18:0.057142861 19:0.13333333 66:0.33333334 142:0.25 146:0.5 147:1 149:1 
1.0397996730653074060057861061068 1:0.02884615 6:0.33333334 7:0.33333334 9:0.33333334 18:0.071428567 29:0.1 259:0.33333334 260:1 322:0.25 1088:0.5 
0.47306916971740281541158879008435 1:0.13461538 6:0.071428567 7:0.14285713 9:0.21428572 11:0.14285713 14:0.071428567 17:0.071428567 18:0.45714286 29:0.1 41:0.11111111 43:0.5 56:0.01639344 71:0.5 74:0.5 75:0.5 124:0.16666667 144:0.5 150:0.026666669 152:0.5 154:0.5 156:1 186:0.5 243:0.5 245:0.5 259:0.33333334 260:1 262:0.5 286:0.5 389:0.5 456:1 469:1 495:0.5 711:1 740:1 773:1 1037:1 1280:1 1287:1 1732:1 
1.6903202321700405708071457411279 1:0.16346154 3:0.29411766 5:0.11764706 6:0.05882353 9:0.05882353 11:0.11764706 16:0.05882353 18:0.41428572 19:0.13333333 22:0.060975611 27:0.14285713 30:0.1 33:0.125 35:0.25 43:0.30000001 44:0.030769231 53:0.14285713 65:0.66666669 68:0.5 83:0.25 120:0.33333334 142:0.25 143:0.5 146:0.5 154:1 156:1 189:0.16666667 210:0.33333334 349:0.33333334 352:0.5 374:1 474:1 526:0.25 527:0.33333334 811:0.5 
-3.1266851102976906950914326444035 1:0.02884615 9:0.66666669 17:0.33333334 18:0.48571429 43:0.2 74:0.5 75:0.5 144:0.5 
-2.8848482904534762383264023810625 1:0.03846154 2:0.5 7:0.25 9:0.5 18:0.057142861 38:0.33333334 39:0.5 40:0.33333334 43:0.2 74:0.5 75:0.5 144:0.5 366:0.5 
-3.1266851102976906950914326444035 1:0.0096153803 9:1 18:0.1 349:0.33333334 
0.43066948575391938991430151872919 1:0.125 3:0.15384614 5:0.15384614 6:0.23076923 7:0.07692308 9:0.07692308 17:0.07692308 18:0.071428567 19:0.13333333 21:0.33333334 22:0.024390239 30:0.30000001 43:0.30000001 136:0.5 186:0.25 189:0.16666667 210:0.66666669 237:0.33333334 251:1 262:0.25 315:1 349:0.33333334 389:0.5 711:1 712:1 929:1 1146:1 1781:1 
3.1266851102976906950914326444035 1:0.067307688 5:0.2857143 6:0.42857143 7:0.14285713 17:0.14285713 18:0.12857144 19:0.13333333 29:0.2 30:0.1 31:0.25 43:0.2 148:0.40000001 181:0.16666667 200:0.25 251:1 367:0.5 
3.1266851102976906950914326444035 1:0.067307688 5:0.2857143 6:0.42857143 7:0.14285713 17:0.14285713 18:0.071428567 19:0.13333333 29:0.2 30:0.1 31:0.25 43:0.2 148:0.40000001 200:0.25 251:1 357:0.125 1733:1 
-2.4363959148832958767627587803872 1:0.01923077 5:0.5 6:0.5 18:0.028571431 19:0.06666667 30:0.1 251:1 
-0.64996211600629760773983889521332 1:0.067307688 6:0.71428573 9:0.14285713 18:0.14285713 29:0.30000001 30:0.2 34:0.33333334 43:0.2 61:0.25 100:0.25 112:0.5 196:0.25 200:0.25 337:0.25 339:1 349:0.33333334 395:1 
-3.1266851102976906950914326444035 1:0.01923077 5:0.5 6:0.5 18:0.028571431 19:0.06666667 30:0.1 251:1 
-3.1266851102976906950914326444035 1:0.07692308 6:0.5 7:0.25 18:0.45714286 27:0.14285713 29:0.1 30:0.30000001 38:0.33333334 43:0.30000001 132:0.5 142:0.25 181:0.16666667 196:0.5 199:0.33333334 221:0.2 222:0.33333334 257:0.5 261:1 338:0.25 736:1 
-2.6660755363594503819513192865998 1:0.04807692 5:0.40000001 17:0.2 18:0.14285713 19:0.13333333 23:0.14285713 43:0.2 66:0.33333334 73:1 189:0.16666667 385:0.5 489:1 491:1 
-3.1266851102976906950914326444035 1:0.125 3:0.15384614 5:0.23076923 9:0.23076923 18:0.37142858 19:0.2 21:0.33333334 22:0.024390239 23:0.14285713 27:0.14285713 43:0.5 51:0.25 65:0.33333334 66:0.66666669 67:0.5 68:0.5 69:0.5 70:1 73:1 74:0.25 75:0.25 108:0.5 144:0.5 148:0.2 279:0.5 314:1 315:1 385:0.5 497:0.5 811:0.5 929:1 
3.1266851102976906950914326444035 1:0.067307688 5:0.42857143 7:0.14285713 9:0.2857143 18:0.085714288 19:0.2 43:0.2 66:0.33333334 74:0.25 75:0.25 144:0.5 147:1 148:0.2 149:1 181:0.16666667 278:1 501:0.33333334 530:0.5 799:0.33333334 
1.807314122803190814536833386228 1:0.10576923 5:0.36363637 6:0.090909094 7:0.090909094 9:0.18181819 18:0.071428567 19:0.26666668 27:0.14285713 30:0.1 43:0.30000001 66:0.33333334 67:0.5 69:0.5 74:0.25 75:0.25 132:0.5 142:0.25 144:0.5 146:0.5 147:1 148:0.40000001 149:1 181:0.16666667 189:0.16666667 196:0.25 274:1 690:1 
2.2001038530961873895819280733122 1:0.10576923 5:0.45454544 7:0.090909094 9:0.18181819 18:0.11428571 19:0.33333334 27:0.14285713 43:0.30000001 62:0.5 66:0.33333334 67:0.5 69:0.5 74:0.25 75:0.25 142:0.25 144:0.5 146:0.5 147:1 148:0.40000001 149:1 181:0.16666667 189:0.33333334 274:1 690:1 
-2.6795504654898567586940316687105 1:0.03846154 5:0.5 9:0.25 18:0.057142861 19:0.13333333 66:0.33333334 142:0.25 146:0.5 147:1 149:1 
-3.1266851102976906950914326444035 1:0.07692308 5:0.125 18:0.057142861 19:0.06666667 27:0.14285713 61:0.25 65:0.66666669 68:0.5 142:0.25 257:0.5 316:1 349:0.33333334 360:1 535:1 2033:1 
3.1266851102976906950914326444035 1:0.01923077 6:0.5 9:0.5 18:0.057142861 29:0.1 43:0.1 74:0.25 75:0.25 337:0.25 
3.1266851102976906950914326444035 1:0.01923077 6:0.5 9:0.5 18:0.085714288 30:0.1 43:0.1 74:0.25 75:0.25 199:0.33333334 
-0.025472660286016746145065781092853 1:0.125 3:0.23076923 5:0.23076923 9:0.07692308 18:0.22857143 19:0.2 22:0.036585368 23:0.14285713 27:0.2857143 43:0.2 44:0.030769231 62:0.5 66:0.33333334 67:0.5 69:0.5 104:0.5 108:1 142:0.25 147:1 189:0.16666667 257:0.5 276:1 279:0.5 497:0.5 675:1 736:1 
3.1266851102976906950914326444035 1:0.11538462 3:0.083333328 4:0.083333328 5:0.33333334 6:0.083333328 18:0.071428567 19:0.26666668 21:0.33333334 22:0.01219512 23:0.2857143 27:0.14285713 30:0.1 43:0.2 54:0.11111111 61:0.25 69:0.5 80:0.5 82:0.5 96:0.33333334 132:0.5 142:0.25 189:0.16666667 196:0.25 257:0.5 396:1 465:1 736:1 939:1 
3.1266851102976906950914326444035 1:0.02884615 5:0.66666669 9:0.33333334 18:0.14285713 19:0.13333333 23:0.14285713 259:0.33333334 521:0.33333334 
-1.9927528874955002802238368531107 1:0.086538456 5:0.66666669 6:0.11111111 18:0.38571429 19:0.40000001 23:0.14285713 30:0.1 43:0.60000002 96:0.33333334 148:0.80000001 150:0.01333333 189:0.83333331 196:0.25 199:0.33333334 211:1 246:1 247:0.5 465:1 
-3.1266851102976906950914326444035 1:0.04807692 7:0.2 9:0.2 18:0.55714285 43:0.30000001 74:0.25 75:0.25 83:0.25 142:0.25 143:0.5 144:0.5 186:0.25 237:0.33333334 253:0.5 262:0.25 321:0.33333334 382:0.5 
3.1266851102976906950914326444035 1:0.03846154 3:0.25 5:0.25 7:0.25 18:0.071428567 19:0.06666667 20:0.2 22:0.01219512 26:0.5 38:0.33333334 163:1 813:0.5 
-1.8342370484873145031201602250803 1:0.057692312 3:0.16666667 4:0.16666667 5:0.16666667 13:0.16666667 17:0.16666667 18:0.18571429 19:0.06666667 22:0.01219512 54:0.11111111 69:0.5 84:0.25 280:0.33333334 396:1 467:0.5 484:1 670:1 939:1 
-0.60962145374136589293101451403345 1:0.04807692 4:0.2 14:0.2 17:0.2 18:0.11428571 27:0.14285713 41:0.11111111 54:0.11111111 67:0.5 69:0.5 84:0.25 93:0.33333334 110:0.5 939:1 
-3.1266851102976906950914326444035 1:0.01923077 5:0.5 7:0.5 18:0.11428571 19:0.06666667 181:0.16666667 278:1 
1.3010599492334316007458028252586 1:0.21153846 3:0.13636364 4:0.045454551 5:0.045454551 7:0.045454551 11:0.045454551 14:0.090909094 16:0.090909094 17:0.045454551 18:0.38571429 19:0.06666667 22:0.036585368 33:0.25 41:0.22222222 43:0.1 44:0.01538462 54:0.11111111 56:0.01639344 61:0.25 65:0.33333334 71:0.5 83:0.25 84:0.25 93:0.33333334 104:0.5 108:1 138:1 154:0.5 156:0.5 173:1 174:0.25 186:0.25 275:0.5 279:0.5 280:0.33333334 282:0.33333334 310:0.5 311:1 389:0.5 406:0.33333334 469:1 526:0.5 539:0.33333334 574:1 935:1 998:1 1185:1 1276:1 1287:1 1393:1 1644:1 1645:1 1646:0.33333334 1647:1 1648:1 1649:1 1650:1 1651:1 
2.2151602458920716109957993467106 1:0.11538462 5:0.25 6:0.25 7:0.16666667 18:0.071428567 19:0.2 27:0.14285713 30:0.30000001 43:0.40000001 62:0.5 96:0.33333334 99:0.125 142:0.25 143:0.5 146:0.5 148:0.40000001 181:0.16666667 196:0.5 199:0.33333334 251:1 322:0.25 465:1 472:0.5 473:0.5 483:1 1487:1 1882:1 
-1.4210990183711649237352503405418 1:0.01923077 6:0.5 7:0.5 18:0.085714288 30:0.1 38:0.33333334 1061:1 
-3.1266851102976906950914326444035 1:0.125 3:0.07692308 7:0.07692308 9:0.15384614 11:0.07692308 14:0.15384614 17:0.07692308 18:0.3142857 22:0.01219512 27:0.2857143 41:0.22222222 43:0.40000001 56:0.01639344 67:0.5 69:0.5 74:0.5 75:0.5 84:0.25 93:0.33333334 109:0.25 110:0.5 123:0.5 142:0.25 144:0.5 154:0.5 156:0.5 186:0.25 237:0.33333334 257:0.5 262:0.25 321:0.33333334 332:1 382:0.5 479:1 736:1 1037:1 
3.1266851102976906950914326444035 1:0.04807692 3:0.2 14:0.40000001 17:0.40000001 18:0.24285714 22:0.01219512 41:0.22222222 84:0.25 93:0.33333334 109:0.25 280:0.33333334 
3.1266851102976906950914326444035 1:0.02884615 5:0.66666669 9:0.33333334 18:0.18571429 19:0.13333333 23:0.14285713 259:0.33333334 521:0.33333334 
-0.43464454235078597843511261089589 1:0.17307691 2:0.11111112 3:0.16666667 5:0.16666667 6:0.05555556 7:0.11111111 9:0.11111111 11:0.05555556 14:0.16666667 18:0.01428571 19:0.2 22:0.036585368 27:0.2857143 30:0.1 38:0.66666669 39:0.5 40:0.33333334 41:0.33333334 43:0.40000001 45:0.5 52:0.40000001 55:0.33333334 56:0.049180329 66:0.33333334 73:1 74:0.25 75:0.25 105:0.5 139:0.5 144:0.5 154:0.5 156:0.5 161:1 166:0.5 189:0.16666667 366:0.5 385:0.5 408:1 411:1 426:0.33333334 427:1 812:1 813:0.5 817:1 
-0.32018790241727773659974332076672 1:0.16346154 2:0.11764706 3:0.17647059 5:0.17647059 6:0.05882353 7:0.17647059 9:0.05882353 14:0.05882353 18:0.01428571 19:0.2 20:0.2 21:0.33333334 22:0.036585368 27:0.14285713 30:0.1 38:0.66666669 40:0.33333334 41:0.11111111 43:0.40000001 52:0.2 55:0.16666667 56:0.049180329 65:0.33333334 66:0.33333334 73:1 74:0.25 75:0.25 139:0.5 144:0.5 161:1 222:0.33333334 366:0.5 385:0.5 408:1 411:1 426:0.33333334 427:1 485:1 557:1 762:1 763:1 811:0.5 812:1 813:0.5 
-1.3474659848564112252233826438896 1:0.15384614 3:0.125 5:0.125 7:0.1875 9:0.25 14:0.125 16:0.0625 18:0.38571429 19:0.13333333 22:0.024390239 33:0.125 38:0.33333334 41:0.22222222 43:0.60000002 51:0.125 56:0.01639344 58:0.2 74:0.25 75:0.25 108:0.5 123:0.5 150:0.01333333 188:0.5 189:0.16666667 222:0.33333334 224:0.5 232:0.5 233:0.33333334 248:1 259:1 322:0.25 379:0.5 456:1 457:1 481:0.5 495:0.5 497:0.5 506:1 764:1 794:1 806:1 1125:1 1158:1 1227:1 1364:1 1398:1 2094:1 
3.1266851102976906950914326444035 1:0.02884615 6:0.33333334 17:0.33333334 18:0.32857144 30:0.1 43:0.1 186:0.25 262:0.25 
3.1266851102976906950914326444035 1:0.01923077 18:0.25714287 83:0.25 383:0.5 
-3.1266851102976906950914326444035 1:0.01923077 5:0.5 6:0.5 18:0.028571431 19:0.06666667 30:0.1 251:1 
-0.43434345862885997968660944934527 1:0.04807692 7:0.40000001 17:0.40000001 18:0.01428571 27:0.14285713 181:0.33333334 944:1 1598:1 
-0.10221422043231540022212300300453 1:0.067307688 5:0.5714286 18:0.01428571 19:0.26666668 23:0.14285713 26:1 124:0.16666667 150:0.01333333 247:0.5 389:0.5 437:1 440:1 543:0.5 658:1 
1.2962448807795923233499024718185 1:0.25961539 3:0.18518519 5:0.074074067 6:0.074074067 7:0.037037041 9:0.11111111 14:0.074074067 16:0.074074067 17:0.074074067 18:0.35714287 19:0.13333333 20:0.2 22:0.060975611 27:0.2857143 29:0.1 30:0.1 33:0.25 35:0.25 41:0.22222222 43:0.5 44:0.030769231 52:0.2 56:0.01639344 58:0.2 62:0.5 65:0.66666669 66:0.33333334 67:1 68:0.5 69:1 70:1 73:1 74:0.5 75:0.5 84:0.25 93:0.33333334 109:0.25 144:1 186:0.25 210:0.33333334 237:0.33333334 262:0.25 280:0.33333334 315:1 321:0.33333334 337:0.25 485:1 539:0.33333334 811:1 929:1 1120:1 1130:1 1424:1 
1.2755838777264556505031123379013 1:0.25 3:0.03846154 5:0.11538462 6:0.23076923 7:0.03846154 11:0.03846154 14:0.03846154 16:0.07692308 18:0.42857143 19:0.2 22:0.01219512 27:0.2857143 29:0.2 30:0.40000001 33:0.25 35:0.5 41:0.11111111 43:0.60000002 61:0.25 67:1 69:1 74:0.25 75:0.25 95:1 142:0.25 143:0.5 144:0.5 148:0.2 150:0.039999999 154:0.5 156:0.5 166:0.5 189:0.16666667 196:0.5 232:1 233:1 234:1 236:1 237:0.33333334 248:1 267:1 337:0.25 348:0.5 379:0.5 382:0.5 424:0.5 488:0.33333334 492:0.5 506:1 526:0.25 764:1 1227:1 1650:1 1995:1 1996:1 
2.043161222452098080282212322345 1:0.14423077 5:0.13333333 6:0.13333333 8:0.13333334 9:0.13333333 14:0.06666667 18:0.42857143 19:0.13333333 27:0.2857143 30:0.2 41:0.11111111 43:0.30000001 56:0.065573767 58:0.2 61:0.25 64:0.5 66:0.33333334 75:0.25 96:0.33333334 108:1 128:1 132:0.5 139:0.5 141:0.5 142:0.25 144:0.5 150:0.01333333 247:0.5 257:0.5 258:0.5 279:0.5 286:0.5 385:0.5 408:1 411:1 426:0.33333334 443:1 497:1 736:1 932:1 933:1 
-0.45910081516722195393853667155781 1:0.10576923 3:0.090909094 5:0.090909094 13:0.090909094 14:0.090909094 17:0.18181819 18:0.21428572 19:0.06666667 22:0.01219512 27:0.14285713 41:0.11111111 43:0.1 61:0.25 67:0.5 69:1 84:0.5 92:0.5 93:0.33333334 110:0.5 142:0.25 189:0.16666667 280:0.33333334 396:1 467:0.5 484:1 668:1 670:1 736:1 
-3.1266851102976906950914326444035 1:0.096153848 5:0.1 7:0.1 9:0.1 14:0.1 17:0.1 18:0.071428567 19:0.06666667 27:0.14285713 41:0.11111111 43:0.1 61:0.25 65:0.33333334 66:0.33333334 67:0.5 69:0.5 73:1 84:0.25 92:0.5 93:0.33333334 110:0.5 142:0.25 146:0.5 147:1 181:0.16666667 360:1 690:1 811:0.5 
-3.1266851102976906950914326444035 1:0.14423077 3:0.2 6:0.06666667 9:0.13333333 12:0.06666667 16:0.06666667 18:0.2857143 22:0.036585368 27:0.2857143 28:0.25 29:0.1 33:0.125 43:0.30000001 44:0.030769231 65:0.66666669 66:0.33333334 67:1 68:0.5 69:1 70:1 73:1 74:0.25 75:0.25 85:0.25 91:0.5 144:0.5 186:0.25 262:0.25 287:0.33333334 318:1 811:1 1120:1 
-0.093438542176267694316926792907907 1:0.35576922 3:0.35135135 5:0.13513514 6:0.02702703 12:0.02702703 14:0.1891892 17:0.02702703 18:0.22857143 19:0.33333334 21:0.33333334 22:0.15853658 30:0.1 41:0.77777779 43:0.1 44:0.10769231 52:0.40000001 56:0.01639344 58:0.2 61:0.5 65:0.33333334 84:0.25 85:0.25 89:0.5 93:0.33333334 104:0.5 105:1 108:1 109:0.5 113:0.5 117:0.25 120:0.33333334 123:0.5 124:0.33333334 137:0.5 165:1 167:1 174:0.25 224:0.5 233:0.33333334 244:0.33333334 279:0.5 280:0.33333334 360:1 394:1 430:1 531:1 555:1 597:1 598:1 1330:1 1331:1 1526:1 1548:1 1668:1 
3.1266851102976906950914326444035 1:0.03846154 5:0.5 7:0.25 18:0.085714288 19:0.13333333 23:0.14285713 43:0.1 186:0.25 189:0.16666667 237:0.33333334 262:0.25 321:0.33333334 
3.1266851102976906950914326444035 1:0.03846154 5:0.5 6:0.25 17:0.25 18:0.1 19:0.13333333 30:0.1 43:0.1 148:0.2 251:1 
3.1266851102976906950914326444035 1:0.03846154 5:0.5 7:0.25 18:0.057142861 19:0.13333333 27:0.14285713 62:0.5 81:0.5 322:0.25 1247:0.33333334 
0.340443291907091938330864877571 1:0.03846154 5:0.25 7:0.25 18:0.12857144 19:0.06666667 43:0.1 66:0.33333334 71:0.5 72:1 73:1 189:0.16666667 
-0.19240622564918780090792438386416 1:0.02884615 5:0.33333334 18:0.04285714 19:0.06666667 115:0.33333334 297:0.5 501:0.33333334 530:0.5 
0.7474644572357815874852349224966 1:0.11538462 3:0.083333328 4:0.083333328 5:0.083333328 9:0.16666667 13:0.083333328 17:0.083333328 18:0.071428567 19:0.06666667 22:0.01219512 27:0.14285713 43:0.30000001 54:0.11111111 66:0.66666669 69:0.5 73:1 74:0.25 75:0.25 84:0.25 142:0.25 144:0.5 189:0.16666667 257:0.5 258:0.5 280:0.33333334 385:0.5 396:1 467:0.5 484:1 670:1 736:1 939:1 
0.96289173516755988124771192815388 1:0.14423077 3:0.2 5:0.13333333 9:0.06666667 13:0.06666667 17:0.13333333 18:0.42857143 19:0.13333333 20:0.2 22:0.036585368 27:0.14285713 43:0.30000001 44:0.01538462 66:0.33333334 69:0.5 74:0.25 75:0.25 84:0.25 142:0.25 144:0.5 186:0.25 189:0.16666667 257:0.5 258:0.5 262:0.25 280:0.33333334 385:0.5 396:1 467:0.5 484:1 670:1 736:1 1105:1 1106:1 1120:1 
1.9930569838960743300759759222274 1:0.10576923 6:0.090909094 7:0.090909094 9:0.18181819 11:0.090909094 14:0.090909094 17:0.090909094 18:0.071428567 27:0.2857143 29:0.1 41:0.11111111 43:0.30000001 66:0.33333334 67:0.5 69:0.5 75:0.25 84:0.25 93:0.33333334 110:0.5 123:0.5 142:0.25 144:0.5 154:0.5 156:0.5 237:0.33333334 257:0.5 258:0.5 323:0.5 361:1 382:0.5 385:0.5 736:1 
-1.0952192551204740222914324476733 1:0.14423077 3:0.2 5:0.13333333 8:0.13333334 9:0.06666667 14:0.06666667 17:0.06666667 18:0.65714288 19:0.13333333 20:0.2 21:0.33333334 22:0.036585368 27:0.14285713 41:0.11111111 43:0.2 44:0.01538462 61:0.25 64:0.5 66:0.33333334 69:1 84:0.25 93:0.33333334 108:0.5 142:0.25 150:0.01333333 248:1 257:0.5 258:0.5 279:0.5 345:0.5 385:0.5 396:1 443:1 497:0.5 668:1 736:1 1099:1 1100:1 
-0.87905743322425922148255494903424 1:0.10576923 5:0.090909094 6:0.090909094 7:0.090909094 9:0.090909094 12:0.090909094 18:0.057142861 19:0.06666667 27:0.42857143 30:0.1 43:0.2 66:0.33333334 85:0.25 91:0.5 132:0.5 142:0.25 181:0.16666667 189:0.16666667 196:0.25 231:1 257:0.5 258:0.5 472:1 473:1 736:1 1275:1 1487:1 
-0.25089884732809741851866647266434 1:0.23076923 3:0.20833333 5:0.125 9:0.041666672 14:0.083333328 18:0.27142856 19:0.2 21:0.33333334 22:0.060975611 23:0.14285713 27:0.5714286 41:0.22222222 43:0.40000001 44:0.030769231 53:0.14285713 61:0.25 62:0.5 65:1 66:0.33333334 67:0.5 68:1 69:0.5 96:0.33333334 108:0.5 109:0.25 112:0.5 115:0.33333334 116:1 120:0.66666669 123:0.5 127:0.33333334 142:0.25 189:0.16666667 257:0.5 258:0.5 279:0.5 372:1 385:0.5 465:1 497:0.5 554:1 675:1 736:1 
3.1266851102976906950914326444035 1:0.01923077 6:0.5 18:0.1 29:0.1 142:0.25 348:0.5 
3.1266851102976906950914326444035 1:0.07692308 5:0.125 6:0.125 9:0.125 18:0.071428567 19:0.06666667 27:0.14285713 30:0.1 43:0.2 61:0.25 65:0.66666669 68:0.5 142:0.25 146:0.5 196:0.25 199:0.33333334 257:0.5 316:1 349:0.33333334 352:0.5 360:1 811:0.5 
3.1266851102976906950914326444035 1:0.04807692 3:0.2 4:0.2 6:0.40000001 17:0.2 18:0.085714288 22:0.01219512 30:0.2 43:0.1 54:0.11111111 119:0.25 136:0.5 196:0.25 210:0.33333334 
-3.1266851102976906950914326444035 1:0.03846154 5:0.25 6:0.25 9:0.25 18:0.057142861 19:0.06666667 29:0.1 43:0.1 75:0.25 130:0.5 142:0.25 143:0.5 144:0.5 348:0.5 
-3.1266851102976906950914326444035 1:0.03846154 9:0.5 18:0.04285714 27:0.14285713 43:0.1 66:0.33333334 75:0.25 142:0.25 144:0.5 257:0.5 258:0.5 385:0.5 
-3.1266851102976906950914326444035 1:0.03846154 5:0.25 8:0.5 9:0.25 17:0.25 18:0.11428571 19:0.06666667 43:0.1 64:0.5 84:0.25 189:0.16666667 346:0.5 349:0.33333334 352:0.5 386:0.5 
1.0669570342789311823139541957062 1:0.13461538 6:0.14285713 7:0.35714287 9:0.14285713 11:0.071428567 16:0.071428567 18:0.028571431 29:0.2 33:0.125 38:0.33333334 43:0.1 66:0.33333334 71:0.5 72:1 73:1 74:0.25 75:0.25 124:0.33333334 156:0.5 322:0.25 417:0.5 418:1 501:0.33333334 591:1 593:1 594:1 595:0.66666669 596:0.66666669 732:1 1369:1 1370:1 1371:1 1372:1 1373:1 1374:1 1375:1 1376:1 1377:1 1378:1 
-1.7276282098117388130731342243962 1:0.04807692 4:0.2 5:0.40000001 7:0.2 18:0.27142856 19:0.13333333 43:0.1 54:0.11111111 61:0.25 80:0.5 112:0.5 236:1 237:0.33333334 382:0.5 407:1 
-3.1266851102976906950914326444035 1:0.07692308 5:0.25 6:0.125 7:0.25 9:0.25 18:0.15714286 19:0.13333333 30:0.1 38:0.33333334 43:0.2 148:0.2 186:0.25 196:0.25 222:0.33333334 259:0.33333334 322:0.25 349:0.33333334 483:1 521:0.33333334 535:1 1088:0.5 1148:1 1149:1 
-0.25609848517673511336667502291675 1:0.13461538 4:0.14285713 7:0.5 11:0.14285713 18:0.15714286 38:1 43:0.1 54:0.22222222 56:0.01639344 83:0.25 150:0.01333333 154:0.5 156:1 158:0.5 173:1 284:0.5 322:1 333:0.5 526:0.25 741:1 789:0.66666669 790:1 1135:1 1155:1 1157:1 1516:0.5 2062:1 2063:1 
2.3848098696258390738478283310542 1:0.03846154 6:0.25 7:0.25 9:0.5 18:0.1 29:0.1 38:0.33333334 75:0.25 259:0.33333334 323:0.5 1154:1 1236:1 
3.1266851102976906950914326444035 1:0.01923077 5:0.5 9:0.5 18:0.11428571 19:0.06666667 43:0.1 75:0.25 144:0.5 189:0.16666667 
3.1266851102976906950914326444035 1:0.01923077 18:0.071428567 75:0.25 
3.1266851102976906950914326444035 1:0.0096153803 9:1 18:0.38571429 349:0.33333334 
-3.1266851102976906950914326444035 1:0.0096153803 9:1 18:0.1 349:0.33333334 
-2.1030243029594490877798307337798 1:0.01923077 6:0.5 9:0.5 18:0.028571431 29:0.1 75:0.25 323:0.5 
-0.10310887340337049344896058755694 1:0.07692308 4:0.125 6:0.25 9:0.125 16:0.25 18:0.2 29:0.1 30:0.1 33:0.25 35:0.25 43:0.30000001 54:0.11111111 61:0.25 74:0.25 75:0.25 112:0.5 119:0.25 196:0.25 200:0.25 233:0.33333334 235:0.2 424:0.5 481:0.5 488:0.33333334 
1.2318090845790572451790012564743 1:0.13461538 5:0.071428567 6:0.14285713 7:0.21428572 8:0.14285713 9:0.071428567 18:0.15714286 19:0.06666667 27:0.2857143 30:0.2 38:0.33333334 43:0.30000001 56:0.01639344 62:0.5 64:0.5 65:0.33333334 74:0.25 75:0.25 139:0.5 141:0.5 142:0.25 181:0.16666667 186:0.25 199:0.33333334 222:0.33333334 257:0.5 304:1 305:1 332:1 357:0.125 364:0.5 485:1 705:1 736:1 902:1 1148:1 1286:1 1298:1 
-0.16142119291223064325713210109825 1:0.03846154 16:0.25 18:0.028571431 33:0.125 43:0.2 78:1 79:1 476:1 572:1 
-0.61490258300079769782087169005536 1:0.096153848 5:0.2 8:0.2 17:0.1 18:0.085714288 19:0.13333333 27:0.14285713 43:0.2 56:0.01639344 64:0.5 84:0.25 88:0.5 96:0.33333334 108:0.5 142:0.25 148:0.2 257:0.5 325:1 328:1 346:0.5 408:1 736:1 845:1 934:1 996:1 997:1 998:1 999:1 
-1.4699649572011874720800506111118 1:0.14423077 3:0.06666667 5:0.2 7:0.06666667 9:0.06666667 14:0.2 18:0.30000001 19:0.2 22:0.01219512 23:0.14285713 41:0.33333334 43:0.5 52:0.2 66:0.33333334 71:0.5 73:1 78:0.33333334 105:0.5 115:0.33333334 117:0.25 123:0.5 126:0.5 188:0.5 232:0.5 233:0.33333334 375:1 385:0.5 472:0.5 476:0.5 659:1 923:1 924:1 1079:0.5 1087:1 1519:0.5 1614:1 1615:1 
2.3035184433960917971262460923754 1:0.03846154 5:0.25 7:0.25 9:0.25 16:0.25 18:0.41428572 19:0.06666667 33:0.125 43:0.1 74:0.25 75:0.25 148:0.2 236:1 237:0.33333334 481:0.5 
3.1266851102976906950914326444035 1:0.03846154 9:0.5 18:0.17142858 27:0.14285713 43:0.1 66:0.33333334 75:0.25 142:0.25 144:0.5 257:0.5 258:0.5 385:0.5 
-3.1266851102976906950914326444035 1:0.0096153803 9:1 18:0.1 75:0.25 
-3.1266851102976906950914326444035 1:0.02884615 7:0.33333334 9:0.33333334 18:0.17142858 43:0.1 71:0.5 74:0.25 75:0.25 186:0.25 262:0.25 469:1 
-1.6729959037187545067837390888599 1:0.0096153803 17:1 18:0.27142856 
1.0584881838686888144707154424395 1:0.096153848 5:0.30000001 7:0.1 8:0.40000001 9:0.1 17:0.2 18:0.057142861 19:0.2 43:0.30000001 64:1 84:0.5 181:0.16666667 189:0.5 282:0.33333334 344:0.25 346:1 349:0.33333334 350:1 352:0.5 386:1 913:0.5 1168:1 
-0.49294295993737596850436943896057 1:0.03846154 6:0.25 18:0.057142861 27:0.14285713 30:0.1 132:0.5 142:0.25 257:0.5 305:1 902:1 
2.4915942637185817254419362143381 1:0.10576923 3:0.090909094 5:0.18181819 6:0.090909094 14:0.090909094 17:0.090909094 18:0.41428572 19:0.13333333 22:0.01219512 26:0.5 27:0.14285713 29:0.1 41:0.11111111 43:0.2 56:0.01639344 67:0.5 69:0.5 84:0.25 93:0.33333334 110:0.5 123:0.5 142:0.25 214:0.5 314:1 315:1 337:0.25 348:0.5 514:0.5 525:1 675:1 926:1 929:1 930:1 931:1 
-3.1266851102976906950914326444035 1:0.086538456 3:0.11111111 6:0.11111111 7:0.11111111 9:0.11111111 14:0.11111111 17:0.11111111 18:0.37142858 22:0.01219512 29:0.1 41:0.11111111 43:0.2 75:0.25 84:0.25 93:0.33333334 115:0.33333334 123:0.5 126:0.5 129:0.5 144:0.5 192:0.5 237:0.33333334 280:0.33333334 315:1 323:0.5 361:1 1404:1 
-0.33864820996071959280371288514289 1:0.15384614 3:0.0625 4:0.25 7:0.25 16:0.125 18:0.2 22:0.01219512 33:0.25 47:0.2 54:0.44444445 124:1 159:1 181:0.66666669 182:0.25 192:1 461:0.5 526:0.5 544:0.5 630:0.5 631:0.5 632:0.66666669 735:1 871:1 889:1 952:1 985:1 1218:1 1349:1 1366:1 1382:1 1475:0.5 1761:1 1851:1 1852:1 1853:1 1854:1 
-0.24601810447566516137918313233968 1:0.38461539 3:0.5 4:0.1 16:0.15000001 18:0.14285713 22:0.24390244 27:0.71428573 33:0.75 42:0.11111111 43:0.2 44:0.18461537 46:0.25 47:0.2 48:0.16666667 51:0.25 53:0.5714286 54:0.44444445 55:0.5 61:0.25 124:0.33333334 133:0.16666667 190:1 233:0.66666669 283:0.5 413:0.5 414:0.5 424:0.5 524:0.5 526:0.5 536:1 539:0.66666669 638:1 639:1 640:1 641:1 950:0.5 952:0.25 1167:1 1861:1 1995:1 2072:1 2073:1 2074:1 2075:1 2076:1 2077:1 2078:1 
-1.7538581881047883292978895042324 1:0.01923077 6:0.5 18:0.11428571 30:0.1 142:0.25 347:1 
0.71991016278352071289248215180123 1:0.15384614 3:0.25 5:0.0625 7:0.0625 9:0.0625 14:0.125 17:0.0625 18:0.22857143 19:0.06666667 22:0.04878049 27:0.2857143 41:0.22222222 43:0.2 44:0.030769231 53:0.14285713 56:0.01639344 58:0.2 65:0.33333334 66:0.33333334 68:0.5 74:0.25 75:0.25 84:0.25 93:0.33333334 105:0.5 109:0.25 120:0.33333334 144:0.5 186:0.25 237:0.33333334 258:0.5 262:0.25 280:0.33333334 321:0.33333334 385:0.5 1130:1 
-3.0795661971335537288041450665332 1:0.067307688 5:0.71428573 18:0.32857144 19:0.33333334 23:0.2857143 43:0.30000001 78:0.33333334 96:0.33333334 97:0.5 148:0.60000002 189:0.33333334 572:0.5 
-0.059195153095042390978264279510768 1:0.15384614 3:0.5 4:0.0625 5:0.0625 6:0.0625 14:0.125 18:0.32857144 19:0.06666667 20:0.2 22:0.097560979 30:0.1 41:0.22222222 43:0.1 44:0.07692308 54:0.11111111 56:0.01639344 57:0.2 58:0.2 109:0.5 124:0.16666667 172:0.5 186:0.25 199:0.33333334 228:1 380:1 533:0.5 721:0.5 880:1 1266:1 1267:1 
1.4336802324934136976253284956329 1:0.13461538 3:0.071428567 6:0.071428567 7:0.071428567 9:0.21428572 14:0.071428567 17:0.14285713 18:0.24285714 22:0.01219512 27:0.14285713 29:0.1 41:0.11111111 43:0.30000001 65:0.66666669 66:0.33333334 67:0.5 68:0.5 69:0.5 70:1 73:1 75:0.25 84:0.25 93:0.33333334 123:0.5 144:0.5 259:0.33333334 280:0.33333334 315:1 322:0.25 323:0.5 495:0.5 662:1 811:0.5 1125:1 1404:1 1406:1 
-0.54504103221016819702526845503598 1:0.04807692 2:0.40000001 17:0.2 18:0.057142861 40:0.33333334 43:0.2 66:0.33333334 73:1 366:0.5 385:0.5 1550:1 1551:1 
1.164312972488731556808261302649 1:0.125 3:0.07692308 6:0.07692308 7:0.07692308 9:0.07692308 14:0.07692308 17:0.07692308 18:0.37142858 22:0.01219512 27:0.2857143 29:0.1 41:0.11111111 43:0.30000001 55:0.16666667 56:0.032786891 65:0.33333334 67:0.5 69:0.5 74:0.25 75:0.25 83:0.25 84:0.25 93:0.33333334 110:0.5 115:0.33333334 123:0.5 126:0.5 129:0.5 144:0.5 150:0.01333333 157:1 158:0.5 159:0.5 237:0.33333334 292:0.5 337:0.25 361:1 682:1 1130:1 1335:1 1418:1 
-0.26958604433799288058182241911709 1:0.02884615 6:0.66666669 18:0.38571429 29:0.2 31:0.25 96:0.33333334 697:0.5 
3.1266851102976906950914326444035 1:0.02884615 5:0.33333334 7:0.33333334 18:0.071428567 19:0.06666667 96:0.33333334 97:0.5 357:0.125 1063:1 
-3.1266851102976906950914326444035 1:0.125 3:0.15384614 7:0.15384614 8:0.15384616 9:0.23076923 17:0.07692308 18:0.52857143 22:0.024390239 43:0.30000001 44:0.01538462 64:0.5 74:0.25 75:0.5 83:0.25 84:0.25 104:0.5 108:0.5 115:0.33333334 127:0.33333334 144:0.5 181:0.16666667 186:0.25 237:0.33333334 259:0.33333334 262:0.25 321:0.33333334 346:0.5 495:0.5 496:1 526:0.25 608:0.16666667 685:1 934:1 1126:1 1649:1 1906:1 
-0.95923113810115345767570715906913 1:0.01923077 6:0.5 18:0.085714288 30:0.1 233:0.33333334 234:0.5 
3.1266851102976906950914326444035 1:0.03846154 5:0.25 6:0.25 7:0.25 18:0.071428567 19:0.06666667 30:0.1 96:0.33333334 97:0.5 137:0.5 322:0.25 1710:1 
-3.1266851102976906950914326444035 1:0.057692312 5:0.16666667 6:0.33333334 7:0.33333334 9:0.16666667 18:0.11428571 19:0.06666667 29:0.1 30:0.1 34:0.33333334 43:0.2 189:0.16666667 237:0.33333334 349:0.33333334 352:0.5 357:0.125 364:0.5 712:1 1145:1 1146:1 
-3.1266851102976906950914326444035 1:0.04807692 3:0.2 9:0.2 14:0.2 18:0.01428571 22:0.01219512 41:0.11111111 43:0.30000001 51:0.125 52:0.2 74:0.25 75:0.25 144:0.5 186:0.25 191:1 262:0.25 277:0.33333334 282:0.33333334 
-3.1266851102976906950914326444035 1:0.0096153803 17:1 18:0.085714288 
0.34702177720876647981640417128801 1:0.086538456 7:0.11111111 9:0.22222222 18:0.04285714 27:0.2857143 43:0.2 66:0.33333334 69:0.5 74:0.25 75:0.25 142:0.25 186:0.25 237:0.33333334 257:0.5 258:0.5 262:0.25 321:0.33333334 330:1 332:1 389:0.5 713:0.5 736:1 1288:1 
3.1266851102976906950914326444035 1:0.14423077 5:0.13333333 7:0.13333333 9:0.06666667 14:0.06666667 17:0.06666667 18:0.14285713 19:0.13333333 23:0.14285713 27:0.42857143 38:0.66666669 41:0.11111111 43:0.30000001 65:0.33333334 66:0.33333334 67:0.5 69:0.5 74:0.25 75:0.25 84:0.25 93:0.33333334 110:0.5 142:0.25 148:0.2 187:1 222:0.33333334 257:0.5 258:0.5 330:1 332:1 431:0.33333334 514:0.5 517:1 691:1 736:1 811:0.5 
3.1266851102976906950914326444035 1:0.086538456 6:0.22222222 9:0.22222222 11:0.11111111 18:0.04285714 27:0.2857143 29:0.2 31:0.25 43:0.2 66:0.33333334 74:0.25 75:0.25 142:0.25 154:0.5 156:0.5 186:0.25 191:1 257:0.5 258:0.5 262:0.25 330:1 332:1 348:0.5 
-2.1016028651638625213138311664807 1:0.07692308 7:0.125 9:0.375 18:0.071428567 27:0.2857143 38:0.33333334 43:0.1 66:0.66666669 73:1 74:0.25 75:0.25 124:0.16666667 233:0.33333334 258:0.5 330:1 332:1 1324:1 1460:1 1463:1 1464:1 
3.1266851102976906950914326444035 1:0.01923077 17:0.5 18:0.085714288 186:0.25 
-0.62851156599139379466123500606045 1:0.07692308 5:0.125 18:0.071428567 19:0.06666667 27:0.14285713 61:0.25 65:0.66666669 68:0.5 142:0.25 257:0.5 316:1 349:0.33333334 360:1 535:1 2033:1 
-0.067110982153942663752665964693733 1:0.067307688 5:0.14285713 9:0.14285713 14:0.14285713 18:0.071428567 19:0.06666667 27:0.14285713 41:0.11111111 43:0.1 69:0.5 74:0.25 75:0.25 108:0.5 142:0.25 148:0.2 257:0.5 332:1 394:1 669:0.5 1123:1 
3.1266851102976906950914326444035 1:0.02884615 3:0.33333334 6:0.33333334 7:0.33333334 18:0.085714288 22:0.01219512 29:0.1 162:0.5 357:0.125 1145:1 
3.1266851102976906950914326444035 1:0.02884615 6:0.33333334 7:0.33333334 18:0.1 29:0.1 96:0.33333334 322:0.25 697:0.5 973:1 
3.1266851102976906950914326444035 1:0.03846154 5:0.25 7:0.25 9:0.25 18:0.30000001 19:0.06666667 43:0.2 75:0.25 83:0.25 189:0.16666667 237:0.33333334 253:0.5 335:1 382:0.5 712:1 
-0.038602876369135390166587029625589 1:0.03846154 6:0.75 18:0.1 29:0.30000001 31:0.25 43:0.2 200:0.25 337:0.25 673:0.5 1432:1 1787:1 
-3.1266851102976906950914326444035 1:0.0096153803 7:1 18:0.04285714 322:0.25 
-3.1266851102976906950914326444035 1:0.0096153803 7:1 18:0.01428571 322:0.25 
1.0900690872043008461389490548754 1:0.28846154 3:0.2 5:0.13333333 7:0.033333331 8:0.066666663 9:0.033333331 14:0.13333333 17:0.1 18:0.3142857 19:0.26666668 21:0.33333334 22:0.073170729 27:0.2857143 41:0.44444445 43:0.5 44:0.046153851 51:0.125 52:0.2 56:0.032786891 58:0.2 61:0.25 62:0.5 64:0.5 65:0.33333334 69:0.5 75:0.25 84:0.5 93:0.66666669 104:0.5 108:0.5 109:0.25 110:0.5 112:0.5 115:0.33333334 116:1 122:0.5 123:0.5 127:0.33333334 139:0.5 141:0.5 142:0.25 144:0.5 186:0.5 189:0.33333334 237:0.33333334 257:0.5 279:0.5 345:0.5 516:1 712:1 713:0.5 736:1 917:1 933:1 1146:1 1395:1 
-0.32856300094002693912287327293598 1:0.01923077 7:0.5 17:0.5 18:0.11428571 38:0.33333334 124:0.16666667 1460:1 
0.35715252496918942215486936220259 1:0.11538462 3:0.083333328 5:0.083333328 7:0.083333328 9:0.25 14:0.083333328 17:0.083333328 18:0.25714287 19:0.06666667 20:0.2 22:0.01219512 27:0.14285713 41:0.11111111 43:0.30000001 56:0.01639344 58:0.2 67:0.5 69:0.5 71:0.5 74:0.25 75:0.75 84:0.25 93:0.33333334 110:0.5 123:0.5 142:0.25 143:0.5 144:1 186:0.25 262:0.25 336:1 469:1 561:0.5 1390:1 
-0.45063274123610091992375714653463 1:0.096153848 5:0.2 9:0.30000001 18:0.071428567 19:0.13333333 27:0.2857143 43:0.2 66:0.33333334 75:0.5 142:0.75 143:0.5 146:1 148:0.2 257:1 258:0.5 332:1 335:1 385:0.5 418:0.25 736:1 
-0.1015818168675588772931206449357 1:0.067307688 5:0.5714286 6:0.14285713 16:0.14285713 18:0.01428571 19:0.26666668 23:0.2857143 27:0.14285713 30:0.1 33:0.125 62:0.5 81:0.5 138:1 251:1 
-0.16154741218655496726164244591928 1:0.25961539 3:0.18518519 5:0.14814815 6:0.11111111 9:0.037037041 14:0.11111111 17:0.074074067 18:0.40000001 19:0.26666668 21:0.33333334 22:0.060975611 23:0.14285713 27:0.14285713 29:0.2 30:0.1 34:0.33333334 41:0.33333334 43:0.2 44:0.030769231 56:0.01639344 61:0.5 65:0.33333334 82:0.5 84:0.5 93:0.66666669 105:0.5 108:0.5 112:0.5 124:0.16666667 165:1 166:0.5 174:0.25 189:0.16666667 244:0.33333334 280:0.66666669 287:0.33333334 310:0.5 349:0.33333334 360:1 389:0.5 400:1 401:1 402:1 411:1 531:1 711:1 773:1 819:1 1488:1 1525:1 1530:1 1564:0.5 
3.1266851102976906950914326444035 1:0.0096153803 7:1 18:0.18571429 237:0.33333334 
3.1266851102976906950914326444035 1:0.01923077 5:0.5 7:0.5 18:0.1 19:0.06666667 38:0.33333334 813:0.5 
-0.12870641091757908935910847958439 1:0.057692312 5:0.5 18:0.01428571 19:0.2 23:0.14285713 159:0.5 192:0.5 289:0.5 681:1 853:1 898:1 1181:1 
1.2801128927907579058143028305494 1:0.13461538 3:0.14285713 7:0.071428567 9:0.14285713 13:0.071428567 14:0.071428567 18:0.35714287 22:0.024390239 27:0.2857143 41:0.11111111 43:0.30000001 44:0.01538462 56:0.01639344 66:0.33333334 67:0.5 69:0.5 71:0.5 74:0.25 75:0.25 83:0.25 109:0.25 142:0.25 144:0.5 186:0.25 257:0.5 258:0.5 262:0.25 385:0.5 466:1 467:0.5 468:1 469:1 479:1 736:1 781:0.5 783:1 1390:1 1883:1 
3.1266851102976906950914326444035 1:0.125 6:0.07692308 8:0.30769229 9:0.07692308 12:0.07692308 14:0.07692308 17:0.07692308 18:0.071428567 27:0.2857143 30:0.1 41:0.11111111 43:0.30000001 56:0.032786891 61:0.25 64:1 65:0.33333334 66:0.33333334 74:0.25 75:0.25 84:0.25 85:0.25 91:0.5 93:0.33333334 94:1 123:0.5 139:1 141:1 144:0.5 199:0.33333334 258:0.5 316:1 318:1 385:0.5 443:1 
0.023975087412521162155698561946338 1:0.15384614 5:0.125 7:0.125 8:0.125 9:0.3125 14:0.125 18:0.47142857 19:0.13333333 27:0.14285713 38:0.33333334 41:0.22222222 43:0.1 56:0.01639344 64:0.5 66:0.33333334 69:0.5 74:0.25 75:0.5 139:0.5 141:0.5 150:0.01333333 166:0.5 186:0.25 192:0.5 237:0.33333334 258:0.5 259:0.66666669 262:0.25 271:1 286:0.5 321:0.33333334 379:0.5 496:1 526:1 669:0.5 1154:1 1164:1 1227:1 1236:1 1906:1 2042:1 
3.1266851102976906950914326444035 1:0.0096153803 7:1 18:0.071428567 237:0.33333334 
-0.53374772929825820000360181438737 1:0.067307688 5:0.14285713 8:0.28571427 12:0.14285713 14:0.14285713 17:0.14285713 18:0.34285715 19:0.06666667 41:0.11111111 43:0.1 56:0.01639344 64:0.5 84:0.25 85:0.25 87:1 93:0.33333334 96:0.33333334 141:0.5 389:0.5 769:1 1168:1 1420:1 1524:1 2005:1 
-0.91249870390509790762934017038788 1:0.17307691 5:0.27777779 6:0.22222222 8:0.11111112 14:0.05555556 18:0.35714287 19:0.33333334 23:0.14285713 29:0.1 30:0.30000001 41:0.11111111 43:0.69999999 56:0.032786891 64:0.5 65:0.33333334 96:0.33333334 97:0.5 105:0.5 108:0.5 115:0.33333334 126:0.5 129:0.5 134:0.5 141:0.5 148:0.2 189:0.16666667 199:0.66666669 337:0.25 426:0.33333334 450:1 501:1 577:1 598:1 799:1 907:0.5 1169:1 1409:1 1535:1 1743:1 
-0.23182595962191587801726200268604 1:0.01923077 7:0.5 17:0.5 18:0.028571431 43:0.1 456:1 457:1 1174:1 1541:1 
3.1266851102976906950914326444035 1:0.01923077 6:0.5 7:0.5 18:0.071428567 30:0.1 181:0.16666667 338:0.25 
3.1266851102976906950914326444035 1:0.01923077 6:0.5 7:0.5 18:0.21428572 30:0.1 181:0.16666667 338:0.25 
8.9074914578646127803068788253427e-07 1:0.02884615 6:0.33333334 7:0.33333334 9:0.33333334 18:0.071428567 29:0.1 259:0.33333334 260:1 322:0.25 1088:0.5 
2.8255029801894870900014211656526 1:0.11538462 4:0.083333328 5:0.16666667 6:0.083333328 8:0.16666666 16:0.16666667 17:0.083333328 18:0.51428568 19:0.13333333 23:0.14285713 28:0.25 29:0.1 33:0.25 43:0.40000001 54:0.11111111 64:0.5 83:0.5 84:0.25 115:0.33333334 125:0.5 148:0.2 186:0.25 189:0.16666667 191:1 253:1 262:0.25 333:0.5 346:0.5 539:0.33333334 934:1 1325:1 1559:1 
3.1266851102976906950914326444035 1:0.07692308 7:0.125 9:0.125 14:0.125 17:0.125 18:0.057142861 27:0.14285713 41:0.11111111 43:0.1 61:0.25 65:0.33333334 67:0.5 69:0.5 84:0.25 92:0.5 93:0.33333334 110:0.5 259:0.33333334 360:1 560:1 806:1 811:0.5 1201:1 
-0.77148030006478662823354852662305 1:0.01923077 6:0.5 18:0.028571431 26:0.5 30:0.1 1036:1 
-3.1266851102976906950914326444035 1:0.067307688 5:0.14285713 6:0.2857143 7:0.14285713 18:0.12857144 19:0.06666667 29:0.2 31:0.25 38:0.33333334 43:0.30000001 74:0.25 75:0.25 134:0.5 144:0.5 186:0.25 189:0.16666667 191:1 222:0.33333334 262:0.25 
-3.1266851102976906950914326444035 1:0.01923077 6:0.5 9:0.5 18:0.14285713 29:0.1 75:0.25 323:0.5 
-0.82377069057945795371722397248959 1:0.02884615 18:0.071428567 43:0.2 83:0.75 253:1 333:1 
3.1266851102976906950914326444035 1:0.086538456 3:0.22222222 7:0.11111111 11:0.11111111 14:0.22222222 17:0.11111111 18:0.30000001 22:0.024390239 41:0.22222222 44:0.01538462 56:0.01639344 84:0.25 93:0.33333334 109:0.25 156:0.5 186:0.25 237:0.33333334 275:0.5 280:0.33333334 282:0.33333334 321:0.33333334 479:1 804:1 1037:1 
3.1266851102976906950914326444035 1:0.07692308 5:0.375 7:0.125 8:0.25 14:0.125 17:0.125 18:0.071428567 19:0.2 23:0.14285713 41:0.11111111 56:0.01639344 58:0.2 64:0.5 84:0.25 93:0.33333334 141:0.5 501:0.33333334 530:0.5 1420:1 1699:1 
3.1266851102976906950914326444035 1:0.03846154 8:0.5 9:0.25 18:0.071428567 27:0.14285713 63:1 64:0.5 75:0.25 332:1 501:0.33333334 868:1 
-1.1058002002805444874411477940157 1:0.096153848 6:0.1 8:0.40000001 14:0.2 17:0.2 18:0.04285714 27:0.2857143 29:0.1 41:0.22222222 56:0.032786891 64:1 84:0.5 93:0.66666669 110:1 139:1 141:1 490:1 501:0.33333334 1420:1 1815:1 
-0.20638355788088502684729519387474 1:0.16346154 6:0.11764706 7:0.23529412 8:0.23529412 14:0.11764706 17:0.23529412 18:0.057142861 30:0.2 41:0.22222222 64:1 69:1 84:1 93:0.66666669 115:0.33333334 181:0.66666669 338:0.25 342:1 343:1 344:1 345:1 346:1 
-0.21276823178354856147542761846125 1:0.10576923 5:0.090909094 8:0.36363637 14:0.18181819 17:0.18181819 18:0.057142861 19:0.06666667 27:0.2857143 41:0.22222222 56:0.032786891 64:1 65:0.33333334 69:0.5 84:0.5 93:0.66666669 110:1 139:1 141:1 166:0.5 485:1 520:1 1971:1 
3.1266851102976906950914326444035 1:0.02884615 6:0.66666669 7:0.33333334 18:0.32857144 30:0.2 43:0.1 99:0.125 181:0.16666667 196:0.25 608:0.16666667 
3.1266851102976906950914326444035 1:0.01923077 6:0.5 18:0.057142861 30:0.1 43:0.1 115:0.33333334 126:0.5 199:0.33333334 
3.1266851102976906950914326444035 1:0.01923077 6:0.5 18:0.14285713 29:0.1 43:0.1 200:0.25 232:0.5 233:0.33333334 
-3.1266851102976906950914326444035 1:0.0096153803 7:1 18:0.04285714 357:0.125 
-0.48184360019738792235699520460912 1:0.03846154 5:0.5 6:0.25 8:0.5 18:0.14285713 19:0.13333333 30:0.1 43:0.1 64:0.5 137:0.5 189:0.16666667 386:0.5 443:1 
1.0294943386401416152153842631378 1:0.125 5:0.07692308 7:0.07692308 9:0.15384614 14:0.07692308 17:0.07692308 18:0.34285715 19:0.06666667 27:0.14285713 41:0.11111111 43:0.30000001 61:0.25 67:0.5 69:0.5 74:0.25 75:0.5 84:0.25 93:0.33333334 108:0.5 110:0.5 115:0.33333334 123:0.5 142:0.25 143:0.5 144:1 186:0.25 237:0.33333334 262:0.25 279:0.5 297:0.5 321:0.33333334 526:0.25 561:0.5 564:1 585:1 1906:1 
0.80509465415194836346302054153057 1:0.11538462 5:0.083333328 6:0.083333328 7:0.083333328 8:0.33333334 9:0.083333328 14:0.083333328 17:0.16666667 18:0.45714286 19:0.06666667 27:0.14285713 30:0.1 38:0.33333334 41:0.11111111 43:0.40000001 56:0.01639344 64:1 74:0.25 75:0.25 84:0.25 93:0.33333334 110:0.5 123:0.5 139:0.5 141:0.5 144:0.5 148:0.2 186:0.25 222:0.33333334 262:0.25 315:1 610:1 718:1 907:0.5 929:1 934:1 
0.075795186204680467523253639683389 1:0.10576923 6:0.090909094 7:0.090909094 8:0.18181819 9:0.18181819 14:0.090909094 17:0.18181819 18:0.14285713 27:0.14285713 29:0.1 41:0.11111111 43:0.30000001 56:0.032786891 64:0.5 74:0.25 75:0.25 84:0.25 93:0.33333334 110:0.5 115:0.33333334 126:0.5 139:0.5 141:0.5 186:0.25 259:0.33333334 260:1 262:0.25 322:0.25 337:0.25 443:1 483:1 1803:1 1868:1 2030:1 2031:1 2032:1 
3.1266851102976906950914326444035 1:0.01923077 6:0.5 7:0.5 18:0.1 30:0.1 181:0.16666667 338:0.25 
-3.1266851102976906950914326444035 1:0.057692312 5:0.16666667 7:0.16666667 8:0.33333334 9:0.16666667 17:0.16666667 18:0.057142861 19:0.06666667 43:0.1 64:0.5 75:0.25 84:0.25 186:0.25 262:0.25 346:0.5 934:1 1065:1 1136:1 1699:1 
-3.1266851102976906950914326444035 1:0.057692312 6:0.16666667 7:0.33333334 9:0.33333334 18:0.071428567 29:0.1 43:0.2 74:0.25 75:0.25 237:0.33333334 259:0.33333334 337:0.25 361:1 382:0.5 383:0.5 384:1 560:1 1201:1 
-2.1816702426557754712632686278084 1:0.04807692 5:0.2 8:0.80000001 17:0.2 18:0.14285713 19:0.06666667 43:0.1 56:0.01639344 64:1 84:0.25 88:0.5 141:0.5 346:0.5 443:1 934:1 
3.1266851102976906950914326444035 1:0.01923077 17:0.5 18:0.057142861 96:0.33333334 
3.1266851102976906950914326444035 1:0.02884615 6:0.33333334 7:0.33333334 9:0.33333334 18:0.085714288 29:0.1 75:0.25 323:0.5 357:0.125 836:1 
-1.1694199644839990970268672754173 1:0.02884615 14:0.33333334 17:0.33333334 18:0.071428567 41:0.11111111 65:0.33333334 84:0.25 93:0.33333334 514:0.5 517:1 691:1 
0.12717938436144543556949315643578 1:0.02884615 5:0.33333334 6:0.33333334 9:0.33333334 18:0.47142857 19:0.06666667 30:0.1 43:0.1 148:0.2 196:0.25 349:0.33333334 535:1 
0.30507553415636051719062038500851 1:0.096153848 5:0.1 6:0.1 7:0.2 8:0.2 9:0.2 17:0.1 18:0.071428567 19:0.06666667 29:0.1 43:0.2 64:0.5 75:0.25 84:0.25 148:0.2 186:0.5 237:0.33333334 259:0.33333334 260:1 321:0.33333334 337:0.25 346:0.5 934:1 1065:1 1136:1 1724:1 
0.89638907939359702137238627983606 1:0.14423077 5:0.13333333 7:0.13333333 8:0.13333334 9:0.13333333 11:0.06666667 17:0.06666667 18:0.21428572 19:0.13333333 38:0.33333334 43:0.2 56:0.01639344 64:0.5 75:0.5 83:0.25 84:0.25 144:0.5 156:0.5 186:0.25 222:0.33333334 237:0.33333334 259:0.66666669 321:0.33333334 346:0.5 404:1 495:0.5 521:0.33333334 804:1 813:0.5 934:1 1037:1 1065:1 1136:1 1364:1 1365:1 
-0.2870916504076529984779142523621 1:0.067307688 7:0.2857143 11:0.14285713 14:0.2857143 18:0.32857144 27:0.14285713 41:0.22222222 45:0.5 65:0.33333334 95:1 140:1 150:0.01333333 156:0.5 322:0.25 594:0.5 1523:1 1670:1 1671:1 1830:0.5 
-3.1266851102976906950914326444035 1:0.057692312 7:0.16666667 9:0.16666667 14:0.16666667 17:0.16666667 18:0.1 27:0.14285713 41:0.11111111 43:0.1 67:0.5 69:0.5 84:0.25 93:0.33333334 110:0.5 123:0.5 237:0.33333334 259:0.33333334 522:1 806:1 
3.1266851102976906950914326444035 1:0.02884615 6:0.66666669 18:0.11428571 29:0.1 30:0.1 100:0.25 282:0.33333334 1010:1 
-3.1266851102976906950914326444035 1:0.04807692 5:0.2 7:0.2 14:0.2 17:0.2 18:0.071428567 19:0.06666667 38:0.33333334 41:0.11111111 43:0.1 84:0.25 93:0.33333334 148:0.2 187:1 315:1 929:1 1424:1 
3.1266851102976906950914326444035 1:0.04807692 4:0.2 6:0.60000002 7:0.2 18:0.15714286 30:0.30000001 43:0.1 54:0.11111111 99:0.125 135:0.33333334 196:0.25 357:0.125 405:0.33333334 451:1 
-3.1266851102976906950914326444035 1:0.03846154 7:0.25 9:0.25 11:0.25 18:0.071428567 43:0.1 75:0.25 154:0.5 156:0.5 186:0.25 237:0.33333334 321:0.33333334 382:0.5 404:1 
-3.1266851102976906950914326444035 1:0.0096153803 7:1 18:0.2857143 38:0.33333334 
-1.8418324588590626600392852196819 1:0.07692308 5:0.5 6:0.125 9:0.125 18:0.01428571 19:0.26666668 23:0.14285713 27:0.14285713 30:0.1 43:0.1 56:0.01639344 58:0.2 62:0.5 75:0.25 81:0.5 96:0.33333334 97:0.5 137:0.5 144:0.5 189:0.16666667 933:1 
1.8583106683579411200213371557766 1:0.125 3:0.07692308 5:0.15384614 6:0.07692308 7:0.07692308 9:0.07692308 14:0.07692308 17:0.07692308 18:0.37142858 19:0.13333333 21:0.33333334 22:0.01219512 23:0.14285713 27:0.14285713 29:0.1 41:0.11111111 43:0.40000001 67:0.5 69:0.5 84:0.25 93:0.33333334 96:0.33333334 110:0.5 123:0.5 142:0.25 143:0.5 189:0.16666667 237:0.33333334 259:0.33333334 337:0.25 348:0.5 382:0.5 465:1 501:0.33333334 522:1 661:1 675:1 806:1 
3.1266851102976906950914326444035 1:0.086538456 8:0.22222222 9:0.11111111 14:0.11111111 17:0.11111111 18:0.04285714 27:0.2857143 41:0.11111111 43:0.2 64:0.5 66:0.33333334 67:0.5 69:0.5 84:0.25 93:0.33333334 96:0.33333334 110:0.5 123:0.5 142:0.25 257:0.5 258:0.5 385:0.5 443:1 736:1 1101:1 
0.66073916479356387121413263230352 1:0.02884615 7:0.33333334 9:0.33333334 18:0.11428571 43:0.1 237:0.33333334 259:0.33333334 389:0.5 522:1 773:1 806:1 
-2.0454514446625031709459108242299 1:0.067307688 9:0.14285713 14:0.14285713 17:0.14285713 18:0.51428568 27:0.14285713 41:0.11111111 43:0.2 67:0.5 69:0.5 75:0.25 84:0.25 93:0.33333334 96:0.33333334 110:0.5 123:0.5 144:0.5 315:1 562:1 675:1 929:1 
-3.1266851102976906950914326444035 1:0.057692312 4:0.16666667 6:0.16666667 7:0.33333334 18:0.1 27:0.14285713 30:0.1 54:0.11111111 115:0.33333334 252:1 298:1 322:0.5 790:0.5 871:0.5 1357:0.5 1710:1 
-3.1266851102976906950914326444035 1:0.04807692 9:0.2 18:0.057142861 27:0.14285713 43:0.1 66:0.33333334 69:0.5 115:0.33333334 142:0.25 257:0.5 258:0.5 713:0.5 736:1 1637:1 
-1.8395016880953238835871843548375 1:0.10576923 6:0.36363637 9:0.090909094 16:0.090909094 18:0.40000001 28:0.25 29:0.1 30:0.30000001 33:0.125 43:0.40000001 74:0.25 75:0.25 196:0.5 200:0.25 232:0.5 233:0.66666669 234:1 235:0.2 283:0.5 383:0.5 384:1 409:1 410:1 432:1 
3.1266851102976906950914326444035 1:0.07692308 5:0.125 14:0.25 17:0.125 18:0.2857143 19:0.06666667 41:0.22222222 43:0.1 75:0.25 83:0.25 84:0.25 93:0.33333334 105:0.5 144:0.5 315:1 516:1 929:1 1424:1 
-0.06946278781155086623488870145593 1:0.03846154 5:0.25 18:0.04285714 19:0.06666667 24:0.5 26:1 61:0.25 700:1 2012:1 
0.24305644353036243154875251093472 1:0.03846154 5:0.25 9:0.25 17:0.25 18:0.071428567 19:0.06666667 43:0.1 75:0.25 144:0.5 186:0.25 189:0.16666667 404:1 1539:1 1540:1 
-0.0078759888921664487904106266569215 1:0.067307688 4:0.71428573 18:0.057142861 54:0.55555558 83:0.25 133:0.5 150:0.01333333 273:1 283:0.5 284:0.5 1311:1 1312:1 1313:1 1314:1 
3.1266851102976906950914326444035 1:0.02884615 6:0.66666669 7:0.33333334 18:0.071428567 29:0.1 30:0.1 100:0.25 322:0.25 1436:1 
-3.1266851102976906950914326444035 1:0.03846154 7:0.25 9:0.25 18:0.071428567 43:0.1 75:0.25 142:0.25 143:0.5 186:0.25 237:0.33333334 262:0.25 321:0.33333334 561:0.5 
-3.1266851102976906950914326444035 1:0.057692312 14:0.33333334 17:0.66666669 18:0.18571429 41:0.22222222 43:0.2 84:0.25 93:0.33333334 150:0.01333333 286:0.5 516:1 
-0.58355166799857904891268844949082 1:0.067307688 4:0.14285713 5:0.14285713 6:0.14285713 7:0.14285713 18:0.028571431 19:0.06666667 30:0.1 43:0.2 54:0.11111111 65:0.33333334 189:0.16666667 196:0.25 199:0.33333334 456:1 625:0.14285713 841:1 1169:1 1232:1 1606:0.16666667 
3.0746836310664207303489092737436 1:0.057692312 8:0.33333334 9:0.16666667 18:0.057142861 43:0.1 56:0.01639344 64:0.5 69:0.5 96:0.33333334 115:0.66666669 129:0.5 141:0.5 259:0.33333334 450:0.5 795:1 1637:1 1971:1 
1.3654000712750211654622489731992 1:0.086538456 2:0.22222222 5:0.11111111 6:0.22222222 9:0.11111111 17:0.11111111 18:0.18571429 19:0.06666667 27:0.14285713 30:0.2 40:0.33333334 43:0.40000001 69:0.5 132:0.5 142:0.25 148:0.2 196:0.5 199:0.33333334 223:1 257:0.5 349:0.33333334 366:0.5 369:1 535:1 665:1 713:0.5 736:1 
1.5704162710192859364610740158241 1:0.11538462 5:0.16666667 6:0.16666667 7:0.083333328 11:0.16666667 18:0.2857143 19:0.13333333 27:0.2857143 29:0.2 43:0.30000001 56:0.01639344 62:0.5 67:0.5 69:0.5 124:0.16666667 142:0.25 148:0.2 156:1 189:0.16666667 200:0.5 257:0.5 337:0.25 387:0.5 408:1 526:0.25 736:1 737:1 738:1 739:1 740:1 741:1 742:1 743:1 
3.1266851102976906950914326444035 1:0.01923077 17:0.5 18:0.057142861 96:0.33333334 
-0.6684304520605515165243559749797 1:0.10576923 3:0.18181819 4:0.090909094 6:0.090909094 7:0.090909094 17:0.090909094 18:0.2857143 22:0.024390239 30:0.1 43:0.2 48:0.16666667 54:0.11111111 61:0.25 115:0.33333334 124:0.16666667 165:1 217:0.5 244:0.33333334 283:0.5 342:1 357:0.125 451:1 531:1 1191:1 1193:1 1342:1 1443:1 1444:1 1445:1 1446:1 1447:1 
-0.88320578295483531672260824052501 1:0.1826923 3:0.2631579 4:0.15789475 5:0.10526316 6:0.052631579 7:0.052631579 16:0.052631579 18:0.11428571 19:0.13333333 22:0.060975611 27:0.42857143 30:0.1 33:0.125 43:0.2 47:0.40000001 48:0.33333334 53:0.14285713 54:0.33333334 55:0.33333334 56:0.032786891 58:0.2 119:0.25 132:0.5 294:1 357:0.125 364:0.5 408:1 423:0.25 449:1 450:0.5 451:1 452:1 453:1 454:1 455:0.5 
1.6424354690783338206472308229422 1:0.086538456 3:0.11111111 4:0.11111111 5:0.22222222 14:0.11111111 17:0.11111111 18:0.27142856 19:0.13333333 22:0.01219512 41:0.11111111 43:0.30000001 54:0.11111111 69:0.5 84:0.25 93:0.33333334 96:0.33333334 123:0.5 142:0.25 143:0.5 146:0.5 148:0.40000001 189:0.16666667 280:0.33333334 396:1 465:1 939:1 
3.1266851102976906950914326444035 1:0.04807692 14:0.2 17:0.2 18:0.11428571 27:0.14285713 41:0.11111111 43:0.1 67:0.5 69:0.5 84:0.25 93:0.33333334 110:0.5 123:0.5 282:0.33333334 913:0.5 
3.1266851102976906950914326444035 1:0.057692312 7:0.16666667 14:0.16666667 17:0.16666667 18:0.15714286 27:0.14285713 41:0.11111111 43:0.1 67:0.5 69:0.5 84:0.25 93:0.33333334 110:0.5 357:0.125 364:0.5 675:1 1279:0.33333334 
0.018437964123770023139314844229375 1:0.057692312 7:0.16666667 9:0.33333334 14:0.16666667 17:0.16666667 18:0.04285714 41:0.11111111 43:0.1 75:0.25 84:0.25 93:0.33333334 259:0.33333334 320:1 322:0.25 472:0.5 496:1 755:1 1125:1 1740:1 
-3.1266851102976906950914326444035 1:0.0096153803 7:1 18:0.01428571 322:0.25 
3.1266851102976906950914326444035 1:0.01923077 9:0.5 18:0.1 43:0.1 74:0.25 75:0.25 186:0.25 262:0.25 
-3.1266851102976906950914326444035 1:0.02884615 6:0.33333334 9:0.33333334 17:0.33333334 18:0.04285714 29:0.1 43:0.2 200:0.25 223:1 225:1 349:0.33333334 352:0.5 665:1 
-3.1266851102976906950914326444035 1:0.01923077 6:0.5 18:0.085714288 30:0.1 43:0.1 96:0.33333334 196:0.25 465:1 
2.2855835755366982198211189825088 1:0.11538462 3:0.16666667 5:0.16666667 6:0.16666667 7:0.16666667 14:0.083333328 18:0.085714288 19:0.13333333 21:0.33333334 22:0.024390239 27:0.14285713 30:0.2 41:0.11111111 43:0.30000001 51:0.125 107:1 108:0.5 132:0.5 188:0.5 189:0.16666667 196:0.25 237:0.33333334 252:1 269:1 472:0.5 598:1 712:1 755:1 1845:1 
1.548800311448188304908057943976 1:0.096153848 7:0.40000001 9:0.1 18:0.37142858 43:0.40000001 74:0.25 75:0.25 83:0.25 102:1 124:0.33333334 186:0.25 237:0.33333334 253:0.5 262:0.25 321:0.33333334 322:0.25 371:1 373:1 382:0.5 593:1 594:1 595:0.33333334 596:0.33333334 632:0.33333334 1442:1 
2.9093456201367504654342610592721 1:0.07692308 6:0.25 7:0.25 9:0.25 16:0.25 18:0.27142856 29:0.2 33:0.25 38:0.66666669 75:0.5 323:1 481:1 592:1 1948:1 
-0.50946573599336753002120303790434 1:0.02884615 18:0.30000001 56:0.01639344 83:0.25 150:0.01333333 157:1 158:0.5 159:0.5 501:0.33333334 682:1 1394:1 
-0.19180728159432647306203989501228 1:0.26923078 3:0.21428572 5:0.035714291 9:0.035714291 12:0.14285713 14:0.035714291 17:0.071428567 18:0.085714288 19:0.06666667 20:0.2 22:0.073170729 25:1 26:0.5 27:1 41:0.11111111 43:0.2 44:0.061538462 55:0.16666667 61:0.25 65:0.33333334 67:0.5 69:0.5 74:0.25 75:0.25 84:0.5 85:1 86:1 89:0.5 90:1 91:1 93:0.33333334 94:1 96:0.33333334 110:0.5 123:0.5 142:0.25 257:0.5 316:1 318:1 324:0.5 332:1 736:1 845:1 1120:1 1721:1 
-0.31423733351198879226728877256392 1:0.16346154 2:0.11764706 3:0.05882353 5:0.11764706 6:0.05882353 7:0.17647059 9:0.05882353 14:0.11764706 18:0.01428571 19:0.13333333 21:0.33333334 22:0.01219512 23:0.14285713 30:0.1 38:0.33333334 40:0.33333334 41:0.22222222 43:0.40000001 56:0.032786891 61:0.25 75:0.25 92:0.5 96:0.33333334 105:0.5 128:1 144:0.5 161:1 186:0.25 191:1 222:0.33333334 243:0.5 269:1 366:0.5 389:0.5 404:1 426:0.33333334 427:1 431:0.33333334 456:1 607:1 769:1 990:1 1417:0.5 1843:1 1844:1 1845:1 
3.1266851102976906950914326444035 1:0.02884615 5:0.33333334 6:0.33333334 17:0.33333334 18:0.1 19:0.06666667 29:0.1 56:0.01639344 134:0.5 408:1 
3.1266851102976906950914326444035 1:0.04807692 5:0.40000001 11:0.2 18:0.40000001 19:0.13333333 43:0.2 96:0.33333334 142:0.25 143:0.5 146:0.5 154:0.5 156:0.5 189:0.16666667 465:1 474:0.5 
3.1266851102976906950914326444035 1:0.04807692 5:0.2 6:0.40000001 18:0.085714288 19:0.06666667 29:0.2 43:0.1 130:0.5 134:0.5 200:0.25 349:0.33333334 352:0.5 
1.5846729130102004123870074181468 1:0.03846154 5:0.25 6:0.5 9:0.25 18:0.085714288 19:0.06666667 29:0.1 30:0.1 34:0.33333334 43:0.2 148:0.2 189:0.16666667 200:0.25 349:0.33333334 352:0.5 
-2.358911687681230606727922349819 1:0.01923077 5:0.5 7:0.5 18:0.2857143 19:0.06666667 181:0.16666667 278:1 
-0.46387659317636215083879847043136 1:0.02884615 6:0.33333334 9:0.33333334 16:0.33333334 18:0.3142857 29:0.1 32:0.25 33:0.125 75:0.25 481:0.5 
3.1266851102976906950914326444035 1:0.03846154 5:0.5 7:0.25 18:0.057142861 19:0.13333333 23:0.14285713 43:0.1 314:1 315:1 456:1 607:1 929:1 
2.1689863710945482822012309043203 1:0.086538456 5:0.11111111 7:0.11111111 14:0.22222222 18:0.2857143 19:0.06666667 26:0.5 41:0.22222222 43:0.1 65:0.33333334 96:0.33333334 115:0.33333334 150:0.01333333 160:1 166:0.5 286:0.5 308:1 314:1 315:1 322:0.25 370:0.5 575:0.5 929:1 1125:1 1406:1 
0.81638144946367552368116093930439 1:0.23076923 3:0.083333328 4:0.041666672 7:0.041666672 9:0.083333328 11:0.041666672 14:0.16666667 17:0.083333328 18:0.34285715 22:0.024390239 27:0.2857143 41:0.44444445 43:0.40000001 44:0.01538462 54:0.11111111 56:0.01639344 61:0.5 66:0.33333334 67:0.5 69:0.5 74:0.25 75:0.25 83:0.25 84:0.5 92:0.5 93:0.66666669 94:1 95:1 108:0.5 109:0.25 123:0.5 142:0.25 144:0.5 154:0.5 156:0.5 173:1 186:0.25 237:0.33333334 257:0.5 258:0.5 262:0.25 275:0.5 280:0.33333334 282:0.33333334 321:0.33333334 382:0.5 385:0.5 526:0.5 574:1 736:1 935:1 998:1 1185:1 1276:1 1644:1 1645:1 1646:0.33333334 1649:1 1650:1 
3.1266851102976906950914326444035 1:0.01923077 6:0.5 9:0.5 18:0.085714288 30:0.1 43:0.1 74:0.25 75:0.25 199:0.33333334 
-0.327577862058461566352463023577 1:0.03846154 5:0.25 14:0.25 18:0.057142861 19:0.06666667 41:0.11111111 43:0.1 61:0.25 112:0.5 166:0.5 314:1 315:1 929:1 
-0.77918514525006554727326602005633 1:0.067307688 5:0.14285713 13:0.14285713 17:0.14285713 18:0.057142861 19:0.06666667 27:0.14285713 43:0.1 67:0.5 69:0.5 84:0.25 314:1 315:1 389:0.5 467:0.5 484:1 670:1 675:1 768:1 929:1 
-1.3516973403369354489456100054667 1:0.04807692 5:0.40000001 7:0.2 17:0.2 18:0.01428571 19:0.13333333 23:0.14285713 43:0.2 189:0.16666667 456:1 607:1 1425:1 
2.9226811586949863475126676348737 1:0.02884615 9:0.66666669 17:0.33333334 18:0.25714287 43:0.1 56:0.01639344 75:0.25 349:0.33333334 665:1 933:1 
3.1266851102976906950914326444035 1:0.0096153803 9:1 18:0.1 349:0.33333334 
-3.1266851102976906950914326444035 1:0.03846154 6:0.25 7:0.25 9:0.25 18:0.5 30:0.1 38:0.33333334 43:0.2 222:0.33333334 349:0.33333334 352:0.5 371:1 373:1 665:1 
-3.1266851102976906950914326444035 1:0.01923077 6:0.5 9:0.5 18:0.057142861 30:0.1 349:0.33333334 1051:1 
-3.1266851102976906950914326444035 1:0.01923077 6:0.5 9:0.5 18:0.085714288 29:0.1 349:0.33333334 395:1 
3.1266851102976906950914326444035 1:0.086538456 5:0.22222222 6:0.33333334 8:0.22222222 17:0.11111111 18:0.057142861 19:0.13333333 29:0.2 30:0.1 31:0.25 43:0.40000001 64:0.5 148:0.40000001 189:0.16666667 199:0.33333334 315:1 337:0.25 625:0.14285713 805:0.16666667 907:0.5 929:1 934:1 
0.22388415135441486203404792831861 1:0.096153848 9:0.2 17:0.1 18:0.085714288 27:0.2857143 43:0.30000001 65:0.33333334 66:0.33333334 67:0.5 68:0.5 69:0.5 70:1 73:1 74:0.25 75:0.25 115:0.33333334 126:0.5 144:0.5 186:0.25 262:0.25 298:1 472:0.5 473:0.5 646:1 811:0.5 
2.837951172509736608162711490877 1:0.03846154 6:0.25 7:0.5 18:0.14285713 30:0.1 43:0.1 96:0.33333334 322:0.5 465:1 483:1 790:0.5 1436:1 
-0.98301370338986659991320493645617 1:0.13461538 3:0.21428572 5:0.14285713 7:0.14285713 8:0.28571427 11:0.071428567 14:0.071428567 18:0.2857143 19:0.13333333 20:0.2 21:0.33333334 22:0.036585368 41:0.11111111 43:0.30000001 44:0.01538462 56:0.032786891 57:0.2 58:0.2 61:0.25 64:1 83:0.25 112:0.5 124:0.16666667 141:0.5 154:0.5 156:0.5 181:0.16666667 188:0.5 450:0.5 593:0.5 594:0.5 595:0.33333334 596:0.33333334 907:0.5 934:1 952:0.125 955:1 1271:1 1419:1 1420:1 
-0.76733163187365205359924402728211 1:0.16346154 5:0.11764706 6:0.11764706 7:0.05882353 17:0.29411766 18:0.2 19:0.13333333 29:0.1 30:0.1 43:0.60000002 115:0.33333334 129:0.5 148:0.40000001 199:0.33333334 337:0.25 357:0.125 364:0.5 422:1 899:0.5 900:1 1970:1 2018:1 2019:1 2020:1 2022:1 2023:1 
-0.13715685950693098926755908451014 1:0.01923077 6:0.5 18:0.057142861 30:0.1 83:0.25 1421:1 
3.1266851102976906950914326444035 1:0.02884615 6:0.33333334 7:0.33333334 9:0.33333334 18:0.32857144 29:0.1 75:0.25 320:1 322:0.25 323:0.5 
3.1266851102976906950914326444035 1:0.04807692 6:0.40000001 9:0.2 17:0.2 18:0.071428567 29:0.1 30:0.1 43:0.2 186:0.25 191:1 199:0.33333334 262:0.25 349:0.33333334 395:1 665:1 
3.1266851102976906950914326444035 1:0.03846154 7:0.25 9:0.25 16:0.25 18:0.17142858 33:0.125 38:0.33333334 75:0.25 96:0.33333334 481:0.5 562:1 592:0.5 
-1.3715103644528956472470326843904 1:0.067307688 6:0.71428573 7:0.14285713 9:0.14285713 18:0.04285714 29:0.2 30:0.30000001 34:0.33333334 43:0.2 75:0.25 99:0.125 144:0.5 181:0.16666667 199:0.33333334 200:0.5 323:0.5 338:0.25 
-0.038983322348480925478853009735758 1:0.11538462 5:0.25 7:0.25 14:0.16666667 18:0.11428571 19:0.2 27:0.2857143 38:0.33333334 41:0.22222222 43:0.30000001 45:0.5 62:1 78:0.33333334 81:0.5 96:0.33333334 105:0.5 181:0.16666667 188:0.5 189:0.16666667 221:0.2 357:0.125 364:0.5 465:1 476:0.5 1778:1 
-3.1266851102976906950914326444035 1:0.02884615 6:0.66666669 7:0.33333334 18:0.1 29:0.1 30:0.1 100:0.25 181:0.16666667 338:0.25 
-0.87287775627585961757404220406897 1:0.02884615 6:0.66666669 7:0.33333334 18:0.071428567 29:0.1 30:0.1 100:0.25 181:0.16666667 338:0.25 
2.02859125770363712959465374297 1:0.125 5:0.23076923 7:0.07692308 9:0.15384614 14:0.15384614 18:0.1 19:0.2 27:0.14285713 41:0.22222222 43:0.30000001 61:0.25 65:0.33333334 66:0.33333334 67:0.5 69:0.5 74:0.25 75:0.25 92:0.5 95:1 122:0.5 140:1 142:0.25 143:0.5 144:0.5 146:0.5 147:1 148:0.40000001 149:1 181:0.16666667 690:1 811:0.5 
0.12372283408728530773590392755068 1:0.13461538 4:0.14285713 5:0.14285713 6:0.071428567 7:0.071428567 9:0.071428567 11:0.14285713 14:0.071428567 17:0.071428567 18:0.48571429 19:0.13333333 27:0.14285713 30:0.1 41:0.11111111 43:0.30000001 54:0.22222222 56:0.01639344 67:0.5 69:0.5 84:0.25 93:0.33333334 110:0.5 123:0.5 135:0.33333334 142:0.25 143:0.5 146:0.5 154:1 156:1 236:1 237:0.33333334 349:0.33333334 352:0.5 382:0.5 411:1 474:1 745:1 939:1 
0.91655100560716684654494201822672 1:0.28846154 5:0.2 6:0.30000001 7:0.033333331 9:0.1 11:0.033333331 14:0.06666667 17:0.033333331 18:0.01428571 19:0.40000001 23:0.5714286 27:0.2857143 29:0.30000001 30:0.60000002 41:0.22222222 43:0.69999999 66:0.66666669 67:0.5 69:0.5 73:1 74:0.25 75:0.25 78:0.33333334 84:0.25 93:0.33333334 99:0.25 100:0.5 105:0.5 142:0.25 144:0.5 156:0.5 166:0.5 196:0.75 199:0.66666669 200:0.25 201:0.5 237:0.33333334 257:0.5 258:0.5 331:1 337:0.5 359:1 385:0.5 389:0.5 472:0.5 675:1 755:1 768:1 804:1 919:1 1740:1 
-0.6616150844697971100671907151991 1:0.11538462 5:0.083333328 6:0.083333328 13:0.083333328 14:0.083333328 17:0.083333328 18:0.21428572 19:0.06666667 27:0.2857143 30:0.1 41:0.11111111 43:0.2 61:0.25 65:0.33333334 67:1 68:0.5 69:1 80:0.5 84:0.25 92:0.5 93:0.33333334 96:0.33333334 110:0.5 199:0.33333334 465:1 466:1 467:0.5 582:0.5 811:0.5 1315:1 
-2.3190602019352404283836222020909 1:0.057692312 5:0.16666667 7:0.16666667 18:0.1 19:0.06666667 27:0.14285713 61:0.25 62:0.5 67:0.5 69:0.5 82:0.5 96:0.33333334 128:1 181:0.16666667 690:1 
-0.63343403490888272600045638682786 1:0.067307688 14:0.14285713 17:0.14285713 18:0.057142861 27:0.14285713 41:0.11111111 43:0.1 61:0.25 65:0.33333334 67:0.5 69:0.5 84:0.25 92:0.5 93:0.33333334 110:0.5 282:0.33333334 360:1 811:0.5 913:0.5 
3.1266851102976906950914326444035 1:0.01923077 6:0.5 18:0.085714288 30:0.1 1198:1 
3.1266851102976906950914326444035 1:0.04807692 4:0.2 5:0.2 6:0.40000001 7:0.2 18:0.11428571 19:0.06666667 29:0.1 30:0.1 34:0.33333334 54:0.11111111 131:0.5 357:0.125 463:0.5 823:1 
3.1266851102976906950914326444035 1:0.01923077 6:0.5 7:0.5 18:0.071428567 30:0.1 38:0.33333334 1061:1 
-3.1266851102976906950914326444035 1:0.02884615 5:0.33333334 6:0.33333334 7:0.33333334 18:0.41428572 19:0.06666667 30:0.1 38:0.33333334 43:0.1 189:0.16666667 199:0.33333334 1061:1 
-1.0772285550347615590283112396719 1:0.057692312 4:0.33333334 6:0.33333334 7:0.16666667 17:0.16666667 18:0.085714288 30:0.2 38:0.33333334 43:0.1 54:0.22222222 133:0.16666667 135:0.33333334 199:0.33333334 229:1 431:0.33333334 1061:1 
3.1266851102976906950914326444035 1:0.10576923 5:0.18181819 7:0.18181819 14:0.090909094 17:0.18181819 18:0.2857143 19:0.13333333 27:0.2857143 38:0.33333334 41:0.11111111 43:0.2 62:0.5 67:0.5 69:0.5 84:0.25 93:0.33333334 110:0.5 123:0.5 142:0.25 181:0.16666667 189:0.16666667 222:0.33333334 229:1 257:0.5 690:1 736:1 813:0.5 
0.77032020535022294183136182255112 1:0.10576923 6:0.27272728 8:0.18181819 9:0.090909094 12:0.090909094 18:0.085714288 27:0.2857143 30:0.30000001 43:0.40000001 56:0.01639344 64:0.5 65:0.66666669 67:0.5 68:0.5 69:0.5 85:0.25 91:0.5 139:0.5 141:0.5 196:0.5 199:1 318:1 349:0.33333334 352:0.5 811:1 1315:1 
3.1266851102976906950914326444035 1:0.057692312 3:0.16666667 7:0.16666667 18:0.071428567 22:0.01219512 61:0.25 65:0.33333334 96:0.33333334 128:1 291:0.5 316:1 317:1 501:0.33333334 661:1 
-0.039664265277337067139296067352916 1:0.086538456 3:0.11111111 6:0.11111111 8:0.22222222 12:0.11111111 18:0.11428571 22:0.01219512 27:0.14285713 30:0.1 56:0.032786891 61:0.25 64:0.5 65:0.33333334 85:0.25 91:0.5 108:0.5 136:0.5 139:0.5 141:0.5 316:1 318:1 426:0.33333334 501:0.33333334 661:1 998:1 1690:1 
-0.50151358012993096924247993229073 1:0.14423077 3:0.40000001 4:0.06666667 5:0.06666667 9:0.06666667 18:0.21428572 19:0.06666667 22:0.073170729 44:0.046153851 47:0.2 54:0.11111111 61:0.25 65:1 75:0.25 96:0.33333334 120:0.66666669 128:1 291:0.5 316:1 336:1 480:1 485:1 501:0.33333334 661:1 868:1 
-1.4770815795068044096183257352095 1:0.086538456 3:0.11111111 5:0.22222222 9:0.11111111 14:0.11111111 17:0.11111111 18:0.057142861 19:0.13333333 21:0.33333334 22:0.01219512 23:0.14285713 27:0.14285713 41:0.11111111 43:0.1 67:0.5 69:0.5 84:0.25 93:0.33333334 110:0.5 123:0.5 259:0.33333334 501:0.33333334 661:1 806:1 1578:1 
3.1266851102976906950914326444035 1:0.01923077 6:0.5 18:0.085714288 30:0.1 282:0.33333334 351:1 
2.7425335478671248878868027532008 1:0.03846154 6:0.5 7:0.25 18:0.14285713 30:0.2 99:0.125 233:0.33333334 234:0.5 237:0.33333334 603:1 
3.1266851102976906950914326444035 1:0.03846154 5:0.25 6:0.25 17:0.25 18:0.2 19:0.06666667 30:0.1 43:0.2 185:1 189:0.16666667 192:0.5 199:0.33333334 
-3.1266851102976906950914326444035 1:0.01923077 9:0.5 18:0.22857143 43:0.1 74:0.25 75:0.25 185:1 192:0.5 
-2.7510893597981795899443113739835 1:0.0096153803 17:1 18:0.30000001 1539:1 
-3.1266851102976906950914326444035 1:0.01923077 9:0.5 18:0.22857143 43:0.1 74:0.25 75:0.25 96:0.33333334 465:1 
1.4777213898051195783978073450271 1:0.07692308 6:0.5 7:0.125 8:0.25 17:0.125 18:0.04285714 29:0.1 30:0.30000001 43:0.2 64:0.5 100:0.25 181:0.16666667 196:0.25 199:0.33333334 367:0.5 831:1 832:1 934:1 1293:1 1294:1 
0.17600879623739057455722445411084 1:0.13461538 3:0.14285713 6:0.071428567 7:0.071428567 9:0.14285713 14:0.071428567 16:0.071428567 17:0.071428567 18:0.40000001 22:0.024390239 27:0.14285713 30:0.1 33:0.125 35:0.25 41:0.11111111 43:0.30000001 44:0.01538462 50:1 56:0.01639344 66:0.33333334 67:0.5 69:0.5 73:1 75:0.25 83:0.25 95:1 144:0.5 196:0.25 237:0.33333334 259:0.33333334 331:1 374:1 495:0.5 496:1 526:0.25 527:0.33333334 675:1 1335:1 1906:1 
0.2947721551699922226674743797048 1:0.086538456 6:0.11111111 7:0.11111111 9:0.44444445 17:0.11111111 18:0.071428567 27:0.14285713 29:0.1 43:0.1 56:0.01639344 66:0.33333334 142:0.25 257:0.5 259:1 322:0.25 387:0.5 450:0.5 794:1 806:1 1062:1 1364:1 1803:1 
-0.57849351274450855342479371756781 1:0.07692308 5:0.875 18:0.21428572 19:0.46666667 23:0.42857143 43:0.2 148:0.40000001 189:0.33333334 501:0.33333334 530:0.5 587:1 
-0.066437319587179535784748907190078 1:0.13461538 7:0.5714286 11:0.14285713 18:0.14285713 83:0.25 150:0.039999999 152:1 156:1 157:1 158:0.5 159:0.5 357:1 787:1 788:1 1473:1 2003:1 2004:1 
-0.16983349698142968797753837861819 1:0.30769232 3:0.25 5:0.09375 6:0.1875 12:0.03125 14:0.125 16:0.03125 18:0.54285711 19:0.2 20:0.2 22:0.097560979 28:0.25 29:0.30000001 30:0.30000001 32:0.25 33:0.125 41:0.44444445 43:0.60000002 44:0.061538462 51:0.375 61:0.25 65:0.33333334 85:0.25 99:0.125 105:1 108:0.5 112:0.5 115:1 122:0.5 123:1 126:0.5 127:1 134:0.5 162:0.5 196:0.25 199:0.66666669 231:1 275:0.5 277:0.33333334 282:0.33333334 310:0.5 311:1 389:0.5 490:1 574:1 1309:1 1391:1 1393:1 1716:1 
-0.16875816764061213337555500402232 1:0.16346154 3:0.41176471 4:0.17647059 5:0.05882353 16:0.17647059 18:0.15714286 19:0.06666667 22:0.085365847 33:0.375 43:0.1 44:0.07692308 48:0.16666667 49:0.25 54:0.33333334 56:0.01639344 57:0.2 58:0.2 124:0.33333334 189:0.16666667 233:0.66666669 235:0.2 283:0.5 526:0.5 735:0.33333334 950:0.5 952:0.125 1167:1 1556:1 1861:1 1879:1 1995:1 2072:1 2073:1 2074:1 2075:1 2076:1 2077:1 2078:1 
3.1266851102976906950914326444035 1:0.0096153803 9:1 18:0.11428571 349:0.33333334 
3.1266851102976906950914326444035 1:0.0096153803 9:1 18:0.15714286 349:0.33333334 
-3.1266851102976906950914326444035 1:0.04807692 6:0.40000001 9:0.2 18:0.085714288 29:0.2 43:0.1 65:0.33333334 142:0.25 143:0.5 259:0.33333334 337:0.25 348:0.5 662:1 
-2.0526830508214328752103483566316 1:0.02884615 6:0.33333334 8:0.66666669 18:0.057142861 30:0.1 64:0.5 96:0.33333334 1101:1 1294:1 
-3.1266851102976906950914326444035 1:0.02884615 5:0.66666669 9:0.33333334 18:0.028571431 19:0.13333333 259:0.33333334 521:0.33333334 1153:1 
0.51483461542293285084781473415205 1:0.125 5:0.23076923 6:0.15384614 7:0.23076923 8:0.30769229 17:0.15384614 18:0.057142861 19:0.2 30:0.2 43:0.40000001 64:1 84:0.5 96:0.33333334 99:0.125 181:0.16666667 189:0.5 199:0.33333334 237:0.33333334 344:0.25 346:1 357:0.125 364:0.5 386:1 465:1 712:1 1146:1 1168:1 1286:1 
1.0065896629973405396185626159422 1:0.057692312 7:0.33333334 9:0.16666667 18:0.12857144 43:0.2 74:0.25 75:0.25 108:0.5 150:0.01333333 186:0.25 237:0.33333334 262:0.25 321:0.33333334 325:1 328:1 382:0.5 765:1 1535:1 1696:1 
-0.044815470435531863657718787408157 1:0.25 2:0.07692308 3:0.23076923 5:0.03846154 9:0.03846154 14:0.23076923 17:0.11538462 18:0.32857144 19:0.06666667 22:0.073170729 26:0.5 27:0.42857143 40:0.33333334 41:0.66666669 43:0.1 44:0.030769231 45:1 52:0.60000002 55:0.16666667 56:0.01639344 57:0.2 67:0.5 69:0.5 75:0.25 84:0.5 93:0.66666669 96:0.33333334 105:0.5 106:1 109:0.25 110:1 111:1 123:0.5 144:0.5 150:0.01333333 214:0.5 310:0.5 525:1 562:1 567:1 570:1 1564:0.5 1738:1 1996:0.5 
3.1266851102976906950914326444035 1:0.02884615 5:0.66666669 9:0.33333334 18:0.15714286 19:0.13333333 23:0.14285713 259:0.33333334 521:0.33333334 
-1.7836416289702448079168561889674 1:0.10576923 3:0.36363637 6:0.18181819 18:0.14285713 22:0.04878049 29:0.1 30:0.1 43:0.40000001 44:0.030769231 61:0.25 112:0.5 115:0.33333334 126:0.5 129:0.5 162:0.5 186:0.25 196:0.25 199:0.33333334 200:0.25 533:0.5 831:1 832:1 833:1 
-0.083777592198907943621399851963361 1:0.02884615 4:0.33333334 18:0.47142857 43:0.1 54:0.11111111 83:0.25 333:0.5 781:0.5 935:1 936:1 937:1 938:1 
3.1266851102976906950914326444035 1:0.02884615 6:0.33333334 9:0.33333334 17:0.33333334 18:0.22857143 30:0.1 75:0.25 341:1 777:1 778:1 
3.1266851102976906950914326444035 1:0.01923077 4:0.5 18:0.11428571 54:0.11111111 83:0.25 150:0.01333333 158:0.5 284:0.5 
3.1266851102976906950914326444035 1:0.02884615 6:0.33333334 18:0.071428567 29:0.1 43:0.1 142:0.25 143:0.5 348:0.5 383:0.5 384:1 
3.1266851102976906950914326444035 1:0.04807692 5:0.2 6:0.2 7:0.2 16:0.2 18:0.1 19:0.06666667 29:0.1 33:0.125 96:0.33333334 130:0.5 138:1 322:0.25 697:0.5 1669:1 
-3.1266851102976906950914326444035 1:0.01923077 7:0.5 18:0.11428571 233:0.33333334 1696:1 
-1.329727737858750868937818268023 1:0.01923077 7:0.5 18:0.11428571 115:0.33333334 1696:1 
-0.14576750204179983461116876242158 1:0.125 5:0.15384614 6:0.38461539 16:0.15384614 18:0.085714288 19:0.13333333 29:0.1 30:0.40000001 33:0.25 43:0.5 61:0.75 82:0.5 148:0.2 196:1 199:0.33333334 217:1 235:0.40000001 251:1 337:0.25 413:1 1209:1 1210:1 1211:1 
-0.032750601975127996423609033627145 1:0.11538462 5:0.16666667 7:0.083333328 13:0.16666667 17:0.083333328 18:0.01428571 19:0.13333333 84:0.25 88:0.5 96:0.33333334 108:0.5 282:0.33333334 314:1 315:1 322:0.25 383:0.5 467:1 484:1 549:1 583:1 670:1 1499:1 1568:1 1569:1 1570:1 
3.1266851102976906950914326444035 1:0.07692308 6:0.25 9:0.25 18:0.057142861 27:0.14285713 29:0.2 31:0.25 43:0.30000001 65:0.33333334 66:0.33333334 67:0.5 68:0.5 69:0.5 70:1 73:1 74:0.25 75:0.25 96:0.33333334 144:0.5 200:0.25 465:1 811:0.5 
1.3448081786218735178550787168206 1:0.07692308 7:0.25 9:0.375 11:0.125 18:0.085714288 43:0.2 65:0.33333334 69:0.5 71:0.5 74:0.25 75:0.75 144:1 156:0.5 181:0.16666667 519:1 520:1 523:1 529:1 685:1 713:0.5 
-1.1381900424273794225626943443785 1:0.14423077 2:0.26666665 4:0.06666667 5:0.06666667 6:0.06666667 7:0.06666667 9:0.06666667 17:0.06666667 18:0.41428572 19:0.06666667 27:0.14285713 30:0.1 40:0.66666669 43:0.60000002 54:0.11111111 56:0.032786891 61:0.25 74:0.25 75:0.25 132:0.5 144:0.5 148:0.2 186:0.25 189:0.16666667 191:1 262:0.25 349:0.33333334 352:0.5 357:0.125 366:1 554:1 665:1 987:0.5 988:1 1417:1 1572:1 1672:0.5 
-0.85075352342326882038037183519918 1:0.057692312 9:0.5 18:0.04285714 27:0.14285713 43:0.1 65:0.33333334 66:0.66666669 67:0.5 68:0.5 69:0.5 70:1 75:0.25 144:0.5 811:0.5 1818:1 
-3.1266851102976906950914326444035 1:0.086538456 5:0.11111111 6:0.22222222 14:0.11111111 17:0.11111111 18:0.028571431 19:0.06666667 27:0.2857143 30:0.2 41:0.11111111 43:0.2 62:0.5 67:0.5 69:0.5 84:0.25 93:0.33333334 99:0.125 110:0.5 123:0.5 142:0.25 196:0.25 257:0.5 675:1 736:1 
3.1266851102976906950914326444035 1:0.01923077 7:0.5 18:0.071428567 38:0.33333334 69:0.5 
3.1266851102976906950914326444035 1:0.0096153803 11:1 18:0.18571429 156:0.5 
-2.409451439809656037027707498055 1:0.02884615 6:0.66666669 7:0.33333334 18:0.071428567 29:0.1 30:0.1 100:0.25 181:0.16666667 338:0.25 
-3.1266851102976906950914326444035 1:0.02884615 5:0.33333334 11:0.33333334 18:0.11428571 19:0.06666667 142:0.25 146:0.5 156:0.5 474:0.5 
-3.1266851102976906950914326444035 1:0.02884615 5:0.33333334 11:0.33333334 18:0.057142861 19:0.06666667 142:0.25 146:0.5 156:0.5 474:0.5 
3.1266851102976906950914326444035 1:0.067307688 5:0.14285713 6:0.14285713 14:0.14285713 17:0.14285713 18:0.44285715 19:0.06666667 27:0.14285713 30:0.1 41:0.11111111 43:0.30000001 62:0.5 84:0.25 93:0.33333334 96:0.33333334 123:0.5 142:0.25 189:0.16666667 196:0.25 199:0.33333334 257:0.5 465:1 736:1 
3.1266851102976906950914326444035 1:0.11538462 5:0.16666667 6:0.25 9:0.16666667 18:0.057142861 19:0.13333333 23:0.14285713 27:0.2857143 29:0.2 30:0.1 31:0.25 43:0.30000001 62:0.5 67:0.5 69:0.5 74:0.25 75:0.5 96:0.33333334 142:0.25 144:0.5 189:0.16666667 257:0.5 332:1 337:0.25 341:1 697:0.5 736:1 990:1 
0.23882830855858391827517550609628 1:0.125 6:0.07692308 9:0.07692308 11:0.07692308 14:0.07692308 17:0.15384614 18:0.34285715 27:0.2857143 30:0.1 41:0.11111111 43:0.30000001 56:0.01639344 67:0.5 69:0.5 74:0.25 75:0.25 84:0.25 93:0.33333334 110:0.5 123:0.5 132:0.5 142:0.25 144:0.5 156:0.5 196:0.25 257:0.5 349:0.33333334 352:0.5 736:1 740:1 742:1 743:1 745:1 746:1 747:1 
-3.1266851102976906950914326444035 1:0.01923077 6:0.5 18:0.085714288 30:0.1 43:0.1 96:0.33333334 196:0.25 465:1 
-1.1569785957688714095326076858328 1:0.10576923 5:0.18181819 8:0.18181819 9:0.090909094 14:0.18181819 18:0.3142857 19:0.13333333 27:0.2857143 41:0.22222222 43:0.2 56:0.032786891 58:0.2 62:0.5 64:0.5 65:0.33333334 74:0.25 75:0.25 96:0.33333334 105:0.5 139:0.5 141:0.5 142:0.25 150:0.01333333 161:1 189:0.16666667 257:0.5 286:0.5 332:1 372:1 465:1 736:1 
-3.1266851102976906950914326444035 1:0.057692312 5:0.16666667 9:0.16666667 18:0.057142861 19:0.06666667 27:0.2857143 43:0.1 62:0.5 67:0.5 69:0.5 75:0.25 142:0.25 189:0.16666667 257:0.5 332:1 736:1 
-0.14320767416557025897283494941803 1:0.067307688 5:0.14285713 14:0.14285713 17:0.14285713 18:0.057142861 19:0.06666667 27:0.2857143 41:0.11111111 43:0.1 62:0.5 67:0.5 69:0.5 84:0.25 93:0.33333334 110:0.5 123:0.5 142:0.25 257:0.5 736:1 
3.1266851102976906950914326444035 1:0.03846154 5:0.25 6:0.25 9:0.25 18:0.071428567 19:0.06666667 29:0.1 43:0.2 74:0.25 75:0.25 108:0.5 144:0.5 279:0.5 337:0.25 497:0.5 
3.1266851102976906950914326444035 1:0.02884615 6:0.33333334 18:0.085714288 30:0.1 186:0.25 282:0.33333334 1149:1 1281:1 
3.1266851102976906950914326444035 1:0.02884615 5:0.33333334 7:0.33333334 9:0.33333334 18:0.1 19:0.06666667 259:0.33333334 521:0.33333334 1696:1 
-3.1266851102976906950914326444035 1:0.02884615 9:0.33333334 17:0.33333334 18:0.32857144 43:0.1 74:0.25 75:0.25 186:0.25 262:0.25 687:1 688:1 
-3.1266851102976906950914326444035 1:0.07692308 6:0.625 9:0.375 18:0.04285714 29:0.2 30:0.30000001 43:0.30000001 74:0.5 75:0.75 99:0.125 144:0.5 196:0.25 199:0.33333334 337:0.25 341:1 698:1 
-2.7217186056961097939677074464271 1:0.10576923 4:0.090909094 5:0.63636363 7:0.090909094 9:0.090909094 18:0.25714287 19:0.46666667 23:0.71428573 43:0.30000001 54:0.11111111 75:0.25 142:0.25 144:0.5 148:0.40000001 189:0.16666667 209:0.2 322:0.25 483:1 561:0.5 1882:1 
3.1266851102976906950914326444035 1:0.07692308 5:0.125 6:0.25 18:0.071428567 19:0.06666667 27:0.2857143 29:0.2 43:0.30000001 62:0.5 142:0.25 186:0.25 189:0.16666667 200:0.5 257:0.5 262:0.25 337:0.25 387:0.5 472:0.5 473:0.5 736:1 
1.8922309422012484336761417580419 1:0.10576923 3:0.090909094 5:0.18181819 6:0.18181819 14:0.090909094 17:0.090909094 18:0.04285714 19:0.13333333 22:0.01219512 27:0.14285713 30:0.2 41:0.11111111 43:0.2 56:0.01639344 69:0.5 78:0.33333334 132:0.5 142:0.25 166:0.5 189:0.16666667 196:0.25 199:0.33333334 216:1 257:0.5 396:1 426:0.33333334 514:0.5 736:1 930:1 931:1 972:1 
1.8421476606525439834172175324056 1:0.057692312 6:0.16666667 7:0.16666667 9:0.16666667 18:0.057142861 27:0.14285713 29:0.1 43:0.1 67:0.5 69:0.5 259:0.33333334 260:1 389:0.5 495:0.5 675:1 768:1 1538:1 
-0.92304099537243577966449947780347 1:0.067307688 5:0.2857143 13:0.14285713 18:0.057142861 19:0.13333333 27:0.2857143 43:0.1 62:1 142:0.25 257:0.5 466:1 467:0.5 472:0.5 473:0.5 514:0.5 736:1 930:1 
-2.3562052658572856245200455305167 1:0.086538456 5:0.11111111 6:0.22222222 16:0.11111111 18:0.028571431 19:0.06666667 27:0.14285713 28:0.25 29:0.2 32:0.25 33:0.125 43:0.1 62:0.5 66:0.33333334 73:1 96:0.33333334 189:0.16666667 472:0.5 473:0.5 1333:1 2065:1 
-3.1266851102976906950914326444035 1:0.02884615 6:0.33333334 9:0.33333334 17:0.33333334 18:0.071428567 29:0.1 259:0.33333334 260:1 1871:1 1872:1 
1.6849703540402354295935083428049 1:0.02884615 9:0.33333334 17:0.33333334 18:0.17142858 43:0.1 74:0.25 75:0.25 186:0.25 262:0.25 687:1 688:1 
3.1266851102976906950914326444035 1:0.057692312 9:0.33333334 17:0.16666667 18:0.085714288 27:0.14285713 43:0.2 66:0.33333334 74:0.25 75:0.25 142:0.25 144:0.5 186:0.25 257:0.5 258:0.5 262:0.25 385:0.5 687:1 688:1 
-3.1266851102976906950914326444035 1:0.07692308 9:0.25 17:0.125 18:0.30000001 27:0.2857143 43:0.2 66:0.33333334 74:0.25 75:0.25 78:0.33333334 142:0.25 144:0.5 186:0.25 257:0.5 258:0.5 262:0.25 264:0.5 330:1 572:0.5 
-3.0573757354182657941521483735414 1:0.096153848 6:0.30000001 7:0.1 16:0.2 18:0.028571431 29:0.2 30:0.1 31:0.25 33:0.25 35:0.25 38:0.33333334 43:0.40000001 74:0.25 75:0.25 144:0.5 186:0.25 191:1 200:0.25 222:0.33333334 262:0.25 337:0.25 539:0.33333334 1841:1 
-2.2398595784658645868603343842551 1:0.03846154 7:0.25 9:0.25 17:0.25 18:0.04285714 75:0.25 186:0.25 357:0.125 1472:1 
3.1266851102976906950914326444035 1:0.02884615 6:0.33333334 9:0.33333334 17:0.33333334 18:0.071428567 29:0.1 259:0.33333334 260:1 1871:1 1872:1 
1.6446888018059655500735516397981 1:0.02884615 6:0.33333334 9:0.33333334 17:0.33333334 18:0.22857143 29:0.1 259:0.33333334 260:1 1871:1 1872:1 
3.1266851102976906950914326444035 1:0.04807692 6:0.2 9:0.2 14:0.2 17:0.2 18:0.071428567 29:0.1 41:0.11111111 61:0.25 84:0.25 93:0.33333334 94:1 259:0.33333334 260:1 490:1 
3.1266851102976906950914326444035 1:0.0096153803 11:1 18:0.27142856 156:0.5 
-1.9488445680415229510629160358803 1:0.11538462 5:0.41666666 6:0.33333334 14:0.083333328 18:0.21428572 19:0.33333334 29:0.1 30:0.30000001 41:0.11111111 43:0.60000002 56:0.01639344 58:0.2 77:0.5 78:0.33333334 123:0.5 134:0.5 137:0.5 148:0.2 188:0.5 189:0.5 196:0.25 199:0.66666669 251:1 408:1 476:0.5 1032:1 
-1.4049843405825213071835833034129 1:0.067307688 5:0.71428573 6:0.14285713 9:0.14285713 18:0.01428571 19:0.33333334 23:0.42857143 29:0.1 150:0.01333333 256:0.5 259:0.33333334 260:1 285:1 1153:1 
-0.98932601990392399216034391429275 1:0.057692312 14:0.16666667 17:0.16666667 18:0.085714288 27:0.14285713 41:0.11111111 61:0.25 65:0.33333334 68:0.5 84:0.25 93:0.33333334 94:1 316:1 472:0.5 473:0.5 
3.1266851102976906950914326444035 1:0.067307688 7:0.14285713 9:0.14285713 18:0.071428567 27:0.2857143 43:0.1 66:0.33333334 78:0.33333334 142:0.25 186:0.25 237:0.33333334 257:0.5 258:0.5 262:0.25 264:0.5 321:0.33333334 330:1 572:0.5 
3.1266851102976906950914326444035 1:0.04807692 8:0.40000001 9:0.2 18:0.15714286 27:0.14285713 43:0.1 56:0.01639344 64:0.5 66:0.33333334 75:0.25 139:0.5 141:0.5 144:0.5 258:0.5 385:0.5 
-2.4460814618129758102327286906075 1:0.03846154 8:0.5 9:0.25 18:0.30000001 27:0.14285713 43:0.1 56:0.01639344 64:0.5 66:0.33333334 96:0.33333334 139:0.5 141:0.5 258:0.5 385:0.5 465:1 
-3.1266851102976906950914326444035 1:0.02884615 11:0.66666669 18:0.1 150:0.01333333 152:0.5 156:1 
-0.068746237284364741793041275741416 1:0.03846154 8:0.5 14:0.25 17:0.25 18:0.071428567 27:0.14285713 41:0.11111111 63:1 64:0.5 84:0.25 93:0.33333334 110:0.5 
3.1266851102976906950914326444035 1:0.067307688 7:0.14285713 9:0.14285713 12:0.14285713 14:0.14285713 17:0.14285713 18:0.11428571 41:0.11111111 61:0.25 65:0.33333334 84:0.25 85:0.25 93:0.33333334 94:1 259:0.33333334 316:1 317:1 318:1 
3.1266851102976906950914326444035 1:0.01923077 7:0.5 18:0.1 56:0.01639344 557:1 1032:1 1748:1 
-2.3369756398459209378870582440868 1:0.03846154 5:0.25 6:0.25 18:0.18571429 19:0.06666667 27:0.14285713 29:0.1 43:0.1 142:0.25 148:0.2 200:0.25 257:0.5 387:0.5 
-3.1266851102976906950914326444035 1:0.01923077 7:0.5 18:0.01428571 389:0.5 557:1 
3.1266851102976906950914326444035 1:0.057692312 9:0.33333334 17:0.16666667 18:0.11428571 27:0.14285713 43:0.2 66:0.33333334 74:0.25 75:0.25 142:0.25 144:0.5 186:0.25 257:0.5 258:0.5 262:0.25 385:0.5 
-1.7569989936922338902292040074826 1:0.03846154 6:0.5 18:0.04285714 29:0.1 30:0.1 43:0.1 142:0.25 315:1 337:0.25 348:0.5 718:1 929:1 
-0.05628734736635299801266185681925 1:0.04807692 5:0.40000001 7:0.2 18:0.057142861 19:0.13333333 23:0.14285713 96:0.33333334 108:0.5 279:0.5 322:0.25 583:1 1499:1 
3.1266851102976906950914326444035 1:0.02884615 9:0.33333334 18:0.1 43:0.1 74:0.25 75:0.5 144:0.5 
-1.2326221185086390086382834851975 1:0.02884615 5:0.33333334 7:0.33333334 17:0.33333334 18:0.04285714 19:0.06666667 43:0.1 357:0.125 364:0.5 822:1 823:1 824:1 
-1.4811411653803654431271752400789 1:0.01923077 6:0.5 18:0.2 30:0.1 186:0.25 1149:1 
3.1266851102976906950914326444035 1:0.01923077 7:0.5 18:0.30000001 233:0.33333334 557:1 1865:1 
0.55403564341825373151806388705154 1:0.02884615 6:0.33333334 18:0.057142861 30:0.1 43:0.1 96:0.33333334 196:0.25 282:0.33333334 351:1 465:1 
-3.1266851102976906950914326444035 1:0.03846154 3:0.25 9:0.5 18:0.24285714 22:0.01219512 43:0.2 51:0.125 66:0.33333334 74:0.25 75:0.25 144:0.5 282:0.33333334 300:1 385:0.5 
-3.1266851102976906950914326444035 1:0.0096153803 7:1 18:0.2857143 38:0.33333334 
3.1266851102976906950914326444035 1:0.02884615 6:0.33333334 9:0.33333334 17:0.33333334 18:0.071428567 30:0.1 75:0.25 341:1 1014:1 1015:1 
-0.0013327126859667246146223806846365 1:0.02884615 6:0.66666669 18:0.22857143 29:0.1 30:0.1 100:0.25 111:1 124:0.16666667 1654:1 1729:1 
-3.1266851102976906950914326444035 1:0.01923077 6:0.5 9:0.5 18:0.085714288 30:0.1 75:0.25 341:1 
3.0713180694906476730920985573903 1:0.02884615 6:0.66666669 7:0.33333334 18:0.21428572 29:0.2 31:0.25 71:0.5 1074:1 
-1.3625573023530499483513267477974 1:0.067307688 7:0.14285713 14:0.14285713 17:0.14285713 18:0.071428567 27:0.14285713 41:0.11111111 43:0.1 67:0.5 69:0.5 84:0.25 93:0.33333334 96:0.33333334 110:0.5 123:0.5 233:0.33333334 317:1 493:1 2026:1 
3.1266851102976906950914326444035 1:0.02884615 6:0.33333334 9:0.33333334 17:0.33333334 18:0.071428567 30:0.1 75:0.25 341:1 
-3.1266851102976906950914326444035 1:0.01923077 6:0.5 9:0.5 18:0.04285714 30:0.1 75:0.25 341:1 
3.1266851102976906950914326444035 1:0.04807692 5:0.40000001 7:0.2 14:0.2 18:0.085714288 19:0.13333333 38:0.33333334 41:0.11111111 43:0.1 105:0.5 166:0.5 186:0.25 189:0.16666667 262:0.25 
1.9264722218262164687985205091536 1:0.03846154 6:0.25 7:0.25 9:0.25 18:0.057142861 29:0.1 38:0.33333334 43:0.1 142:0.25 259:0.33333334 337:0.25 348:0.5 431:0.33333334 1529:1 
-3.1266851102976906950914326444035 1:0.01923077 6:0.5 9:0.5 18:0.028571431 30:0.1 75:0.25 341:1 
-2.991089190292422816952466746443 1:0.0096153803 18:0.3142857 282:0.33333334 
-0.30596644855306559529495302740543 1:0.02884615 6:0.66666669 18:0.1 30:0.2 233:0.33333334 234:0.5 903:1 
1.3980694720314825740814512755605 1:0.086538456 7:0.11111111 9:0.11111111 14:0.11111111 17:0.22222222 18:0.04285714 27:0.14285713 41:0.11111111 43:0.1 67:0.5 69:0.5 84:0.25 93:0.33333334 110:0.5 123:0.5 232:0.5 233:0.33333334 259:0.33333334 357:0.125 528:1 1975:1 
3.1266851102976906950914326444035 1:0.057692312 5:0.16666667 6:0.16666667 7:0.16666667 9:0.16666667 18:0.071428567 19:0.06666667 30:0.1 75:0.25 137:0.5 142:0.25 233:0.33333334 234:0.5 237:0.33333334 561:0.5 603:1 1136:1 
1.778739497537767277890452533029 1:0.096153848 5:0.1 6:0.1 7:0.1 9:0.2 18:0.071428567 19:0.06666667 27:0.14285713 29:0.1 43:0.30000001 62:0.5 65:0.33333334 67:0.5 69:0.5 74:0.25 75:0.5 142:0.25 143:0.5 144:0.5 186:0.25 237:0.33333334 262:0.25 321:0.33333334 337:0.25 485:1 561:0.5 698:0.5 811:0.5 
3.1266851102976906950914326444035 1:0.02884615 6:0.33333334 9:0.33333334 17:0.33333334 18:0.12857144 30:0.1 75:0.25 341:1 
-2.9617881587949588251262866833713 1:0.096153848 5:0.2 7:0.1 8:0.2 9:0.40000001 17:0.1 18:0.085714288 19:0.13333333 38:0.33333334 64:0.5 75:0.5 84:0.25 142:0.25 259:0.66666669 274:1 346:0.5 521:0.33333334 561:0.5 813:0.5 1065:1 1136:1 1364:1 
-3.1266851102976906950914326444035 1:0.086538456 2:0.22222222 5:0.33333334 7:0.22222222 14:0.11111111 18:0.04285714 19:0.2 23:0.14285713 38:0.33333334 40:0.33333334 41:0.11111111 43:0.40000001 148:0.2 166:0.5 189:0.33333334 222:0.33333334 349:0.33333334 352:0.5 357:0.125 364:0.5 365:0.5 366:0.5 431:0.33333334 
3.1266851102976906950914326444035 1:0.067307688 5:0.14285713 8:0.28571427 9:0.14285713 14:0.14285713 17:0.2857143 18:0.057142861 19:0.06666667 27:0.14285713 41:0.11111111 56:0.01639344 64:0.5 84:0.25 93:0.33333334 110:0.5 139:0.5 141:0.5 259:0.33333334 521:0.33333334 
-1.8955877177499051988718292705016 1:0.02884615 18:0.14285713 69:0.5 186:0.5 514:0.5 1186:1 1187:1 
-0.024376370124057054195043647837338 1:0.04807692 3:0.2 5:0.80000001 18:0.057142861 19:0.26666668 20:0.2 21:0.33333334 22:0.01219512 23:0.14285713 514:0.5 930:1 931:1 
1.8645923891567879326913725890336 1:0.02884615 5:0.33333334 9:0.66666669 18:0.12857144 19:0.06666667 75:0.25 259:0.33333334 496:1 1136:1 
-3.1266851102976906950914326444035 1:0.067307688 8:0.28571427 12:0.14285713 14:0.14285713 17:0.14285713 18:0.071428567 27:0.14285713 41:0.11111111 56:0.01639344 61:0.25 64:0.5 65:0.33333334 84:0.25 85:0.25 91:0.5 93:0.33333334 94:1 139:0.5 141:0.5 316:1 318:1 
-3.1266851102976906950914326444035 1:0.057692312 6:0.5 16:0.16666667 18:0.04285714 29:0.2 30:0.1 33:0.125 35:0.25 43:0.2 196:0.25 200:0.25 232:1 233:0.66666669 488:0.66666669 
1.5296310633675032075728950076154 1:0.03846154 5:0.25 6:0.25 9:0.25 17:0.25 18:0.15714286 19:0.06666667 30:0.1 43:0.1 189:0.16666667 349:0.33333334 352:0.5 1051:1 1059:1 1060:1 
3.1266851102976906950914326444035 1:0.04807692 6:0.40000001 9:0.2 17:0.2 18:0.085714288 30:0.2 43:0.2 78:0.33333334 196:0.25 199:0.33333334 349:0.33333334 352:0.5 572:0.5 1051:1 
0.73061343255284338926713871842367 1:0.086538456 5:0.22222222 6:0.22222222 7:0.11111111 9:0.11111111 16:0.11111111 18:0.1 19:0.13333333 27:0.14285713 30:0.2 33:0.125 38:0.33333334 43:0.30000001 62:0.5 99:0.125 142:0.25 189:0.16666667 190:1 196:0.25 199:0.33333334 222:0.33333334 257:0.5 349:0.33333334 352:0.5 454:1 813:0.5 
3.1266851102976906950914326444035 1:0.01923077 17:0.5 18:0.071428567 43:0.1 232:0.5 233:0.33333334 
-3.1266851102976906950914326444035 1:0.01923077 6:0.5 9:0.5 18:0.04285714 30:0.1 349:0.33333334 1051:1 
-3.1266851102976906950914326444035 1:0.03846154 9:0.5 18:0.057142861 27:0.14285713 43:0.1 74:0.25 75:0.5 142:0.25 144:0.5 257:0.5 332:1 
-3.1266851102976906950914326444035 1:0.01923077 6:0.5 9:0.5 18:0.04285714 30:0.1 259:0.33333334 1085:1 
3.1266851102976906950914326444035 1:0.03846154 6:0.25 7:0.25 16:0.25 17:0.25 18:0.071428567 29:0.1 33:0.125 322:0.25 1669:1 1949:1 
3.1266851102976906950914326444035 1:0.086538456 5:0.11111111 6:0.33333334 8:0.22222222 9:0.11111111 17:0.11111111 18:0.071428567 19:0.06666667 29:0.2 30:0.1 31:0.25 43:0.2 61:0.25 64:0.5 75:0.25 148:0.2 232:0.5 233:0.33333334 251:1 492:0.5 563:1 934:1 1199:1 
3.1266851102976906950914326444035 1:0.03846154 7:0.25 18:0.085714288 43:0.1 66:0.33333334 232:0.5 233:0.33333334 237:0.33333334 385:0.5 847:0.5 
3.1266851102976906950914326444035 1:0.04807692 6:0.2 9:0.40000001 18:0.057142861 27:0.14285713 29:0.1 43:0.2 74:0.5 75:0.5 142:0.25 144:0.5 257:0.5 332:1 337:0.25 
-3.1266851102976906950914326444035 1:0.0096153803 7:1 18:0.11428571 38:0.33333334 
-1.1345436373731145884846682747593 1:0.125 3:0.69230771 4:0.07692308 5:0.07692308 6:0.07692308 7:0.07692308 18:0.14285713 19:0.06666667 22:0.1097561 30:0.1 44:0.10769231 47:0.2 54:0.11111111 131:0.5 251:1 322:0.25 727:1 1436:1 
-1.9565253775707571737285661583883 1:0.13461538 3:0.071428567 4:0.071428567 5:0.5 9:0.071428567 14:0.14285713 18:0.01428571 19:0.46666667 21:0.33333334 22:0.01219512 23:0.2857143 27:0.14285713 41:0.22222222 43:0.40000001 54:0.11111111 55:0.16666667 65:0.33333334 81:0.5 105:1 119:0.25 123:0.5 148:0.40000001 166:0.5 189:0.16666667 349:0.33333334 352:0.5 485:1 665:1 811:0.5 
2.3638256867954492435046631726436 1:0.02884615 6:0.33333334 7:0.33333334 9:0.33333334 18:0.27142856 30:0.1 38:0.33333334 259:0.33333334 610:1 1085:1 
3.1266851102976906950914326444035 1:0.02884615 6:0.33333334 7:0.33333334 9:0.33333334 18:0.12857144 30:0.1 181:0.16666667 259:0.33333334 571:0.33333334 1085:1 
-3.1266851102976906950914326444035 1:0.057692312 5:0.16666667 6:0.16666667 8:0.33333334 9:0.16666667 18:0.11428571 19:0.06666667 27:0.14285713 29:0.1 43:0.2 62:0.5 64:0.5 75:0.25 142:0.25 144:0.5 189:0.16666667 257:0.5 337:0.25 934:1 1513:1 
-2.1249636102118478753197905462002 1:0.21153846 3:0.18181819 4:0.13636364 6:0.090909094 9:0.045454551 18:0.15714286 22:0.04878049 27:0.14285713 29:0.1 30:0.1 43:0.5 44:0.030769231 46:0.25 47:0.2 54:0.33333334 78:0.33333334 119:0.25 124:0.16666667 199:0.33333334 208:0.5 244:0.33333334 337:0.25 349:0.33333334 352:0.5 476:0.5 580:1 1204:1 1205:1 
-3.1266851102976906950914326444035 1:0.057692312 5:0.16666667 6:0.33333334 16:0.33333334 18:0.04285714 19:0.06666667 30:0.2 33:0.25 35:0.25 43:0.2 138:1 189:0.16666667 196:0.25 232:0.5 233:0.33333334 234:0.5 235:0.2 
2.059244655664656420412939041853 1:0.02884615 6:0.33333334 7:0.33333334 9:0.33333334 18:0.15714286 30:0.1 259:0.33333334 357:0.125 1085:1 1086:1 
2.9788819168898399425415846053511 1:0.02884615 7:0.33333334 9:0.33333334 18:0.11428571 38:0.33333334 65:0.33333334 259:0.33333334 662:1 2017:1 
-3.1266851102976906950914326444035 1:0.0096153803 7:1 18:0.15714286 38:0.33333334 
3.1266851102976906950914326444035 1:0.03846154 5:0.25 6:0.25 9:0.25 17:0.25 18:0.15714286 19:0.06666667 30:0.1 43:0.1 75:0.25 144:0.5 189:0.16666667 341:1 
-3.1266851102976906950914326444035 1:0.01923077 6:0.5 9:0.5 18:0.071428567 30:0.1 259:0.33333334 1085:1 
-2.6089943474795163069757109042257 1:0.03846154 7:0.25 17:0.5 18:0.028571431 181:0.16666667 186:0.25 1640:1 
-3.1266851102976906950914326444035 1:0.0096153803 7:1 18:0.17142858 38:0.33333334 
3.1266851102976906950914326444035 1:0.07692308 5:0.125 6:0.25 8:0.25 9:0.125 17:0.125 18:0.04285714 19:0.06666667 27:0.14285713 29:0.1 30:0.1 43:0.30000001 62:0.5 64:0.5 74:0.25 75:0.25 142:0.25 144:0.5 189:0.16666667 199:0.33333334 257:0.5 337:0.25 934:1 1513:1 
2.6207382180722413878015686350409 1:0.03846154 6:0.25 7:0.25 8:0.5 18:0.071428567 29:0.1 64:0.5 96:0.33333334 322:0.25 973:1 1101:1 1513:1 
-2.6264834164074266631416776363039 1:0.067307688 6:0.14285713 7:0.14285713 8:0.28571427 9:0.14285713 14:0.14285713 17:0.14285713 18:0.12857144 29:0.1 41:0.11111111 43:0.1 64:0.5 69:0.5 75:0.25 84:0.25 93:0.33333334 144:0.5 181:0.16666667 323:0.5 344:0.25 345:0.5 713:0.5 1513:1 
-0.15298663664059622413482486535941 1:0.096153848 3:0.1 4:0.1 5:0.2 18:0.35714287 19:0.13333333 22:0.01219512 26:0.5 54:0.11111111 96:0.33333334 150:0.01333333 214:0.5 247:0.5 284:0.5 526:0.5 617:0.33333334 658:1 1067:1 1116:1 1117:0.5 1118:1 
3.1266851102976906950914326444035 1:0.03846154 5:0.25 6:0.25 7:0.25 16:0.25 18:0.085714288 19:0.06666667 30:0.1 33:0.125 38:0.33333334 138:1 251:1 592:0.5 
3.1266851102976906950914326444035 1:0.01923077 6:0.5 7:0.5 18:0.071428567 30:0.1 357:0.125 1286:1 
-3.1266851102976906950914326444035 1:0.02884615 5:0.33333334 6:0.33333334 7:0.33333334 18:0.085714288 19:0.06666667 30:0.1 181:0.16666667 251:1 338:0.25 
3.1266851102976906950914326444035 1:0.057692312 9:0.16666667 14:0.33333334 17:0.16666667 18:0.1 41:0.22222222 43:0.2 69:0.5 74:0.25 75:0.25 84:0.25 93:0.33333334 144:0.5 186:0.25 262:0.25 345:0.5 516:1 713:0.5 
-3.1266851102976906950914326444035 1:0.03846154 7:0.25 11:0.25 18:0.60000002 38:0.33333334 43:0.2 66:0.33333334 154:0.5 156:0.5 222:0.33333334 385:0.5 817:1 
1.8410267416311367760783923586132 1:0.057692312 6:0.16666667 7:0.16666667 8:0.33333334 9:0.16666667 17:0.16666667 18:0.14285713 30:0.1 43:0.2 64:0.5 83:0.25 84:0.25 181:0.16666667 196:0.25 253:0.5 343:0.5 344:0.25 346:0.5 349:0.33333334 352:0.5 665:1 
-0.95281796149751762925461662234738 1:0.125 2:0.15384616 4:0.07692308 5:0.23076923 9:0.07692308 14:0.23076923 17:0.15384614 18:0.01428571 19:0.2 27:0.14285713 40:0.33333334 41:0.33333334 43:0.30000001 45:0.5 54:0.11111111 84:0.25 93:0.33333334 105:1 148:0.2 150:0.01333333 189:0.16666667 209:0.2 247:0.5 263:0.5 282:0.33333334 349:0.33333334 352:0.5 366:0.5 516:1 606:1 665:1 905:1 906:1 
-2.9689222875062601936235751054483 1:0.096153848 3:0.40000001 4:0.1 5:0.1 9:0.1 18:0.14285713 19:0.06666667 22:0.04878049 27:0.14285713 43:0.2 44:0.01538462 47:0.2 51:0.125 54:0.11111111 55:0.16666667 65:0.33333334 104:0.5 107:1 108:0.5 189:0.16666667 291:0.5 292:0.5 349:0.33333334 352:0.5 665:1 
-1.7234035567651480036488464975264 1:0.086538456 2:0.22222222 5:0.44444445 7:0.11111111 9:0.11111111 17:0.11111111 18:0.04285714 19:0.26666668 23:0.14285713 27:0.14285713 40:0.33333334 43:0.30000001 62:0.5 81:0.5 148:0.2 189:0.33333334 349:0.33333334 352:0.5 366:0.5 557:1 665:1 762:1 1174:1 
3.1266851102976906950914326444035 1:0.0096153803 18:0.12857144 383:0.5 
3.1266851102976906950914326444035 1:0.01923077 18:0.085714288 349:0.33333334 
-3.1266851102976906950914326444035 1:0.0096153803 18:0.35714287 383:0.5 
-3.1266851102976906950914326444035 1:0.0096153803 18:0.01428571 186:0.25 
-3.1266851102976906950914326444035 1:0.0096153803 18:0.01428571 282:0.33333334 
1.0197364725592872325421467394335 1:0.125 6:0.30769232 7:0.07692308 8:0.15384616 9:0.15384614 14:0.07692308 17:0.07692308 18:0.057142861 27:0.2857143 30:0.40000001 41:0.11111111 43:0.2 63:1 64:0.5 99:0.25 132:0.5 142:0.25 181:0.16666667 188:0.5 196:0.25 257:0.5 349:0.66666669 352:0.5 400:1 514:0.5 515:1 665:1 1071:1 1242:1 1298:1 
3.1266851102976906950914326444035 1:0.04807692 2:0.40000001 5:0.2 6:0.2 9:0.2 17:0.2 18:0.1 19:0.06666667 30:0.1 40:0.33333334 43:0.2 148:0.2 196:0.25 223:1 349:0.33333334 366:0.5 369:1 535:1 665:1 
0.8408248272906166942419758925098 1:0.10576923 7:0.18181819 9:0.090909094 18:0.12857144 27:0.2857143 43:0.2 67:0.5 69:0.5 75:0.25 78:0.33333334 142:0.25 144:0.5 181:0.16666667 186:0.75 191:1 237:0.33333334 257:0.5 264:0.5 306:1 321:0.33333334 404:1 514:0.5 572:0.5 690:1 736:1 1186:1 1187:1 
-3.0847850270086003554581566277193 1:0.03846154 2:0.5 9:0.5 17:0.25 18:0.17142858 40:0.33333334 43:0.2 74:0.5 75:0.5 144:0.5 223:1 366:0.5 369:1 
-1.3861326241699405414919965551235 1:0.13461538 3:0.2857143 6:0.071428567 7:0.071428567 9:0.14285713 14:0.071428567 18:0.22857143 22:0.04878049 30:0.1 41:0.11111111 44:0.030769231 56:0.01639344 65:0.66666669 96:0.33333334 109:0.25 291:0.5 349:1 479:1 511:0.5 575:0.5 745:1 922:0.5 1051:1 1078:1 1097:1 1359:1 1360:1 1552:1 
-3.1266851102976906950914326444035 1:0.086538456 4:0.11111111 5:0.44444445 6:0.11111111 7:0.11111111 9:0.11111111 18:0.028571431 19:0.26666668 23:0.2857143 27:0.14285713 30:0.1 38:0.33333334 54:0.11111111 62:0.5 81:0.5 137:0.5 349:0.33333334 535:1 610:1 611:1 
3.1266851102976906950914326444035 1:0.0096153803 18:0.085714288 383:0.5 
-1.3810164236109294666476898783003 1:0.067307688 4:0.14285713 6:0.42857143 16:0.14285713 18:0.057142861 30:0.30000001 33:0.125 35:0.25 43:0.2 54:0.11111111 196:0.5 235:0.2 383:1 384:1 405:0.33333334 1008:1 1009:1 
-3.1266851102976906950914326444035 1:0.04807692 5:0.2 9:0.2 18:0.15714286 19:0.06666667 27:0.14285713 43:0.1 66:0.33333334 69:0.5 142:0.25 257:0.5 258:0.5 669:0.5 713:0.5 736:1 
3.1266851102976906950914326444035 1:0.04807692 5:0.40000001 11:0.2 18:0.11428571 19:0.13333333 23:0.14285713 43:0.2 66:0.33333334 73:1 154:0.5 156:0.5 189:0.16666667 385:0.5 
3.1266851102976906950914326444035 1:0.02884615 6:0.33333334 7:0.33333334 18:0.25714287 29:0.1 38:0.33333334 96:0.33333334 261:1 697:0.5 
-3.1266851102976906950914326444035 1:0.0096153803 7:1 18:0.01428571 
-3.1266851102976906950914326444035 1:0.02884615 6:0.33333334 18:0.057142861 29:0.1 83:0.25 96:0.33333334 697:0.5 
0.33112509544707496855764361498586 1:0.096153848 5:0.30000001 6:0.2 7:0.1 9:0.1 18:0.04285714 19:0.2 29:0.1 30:0.1 43:0.2 69:0.5 108:0.5 130:0.5 142:0.25 148:0.2 189:0.16666667 259:0.33333334 274:1 322:0.25 348:0.5 495:0.5 598:1 669:0.5 1085:1 1125:1 1710:1 
-2.2479230568605013118599345034454 1:0.03846154 8:0.5 9:0.25 18:0.057142861 43:0.1 56:0.01639344 64:0.5 75:0.25 141:0.5 186:0.5 191:1 193:1 262:0.25 1280:1 
-3.0454551860717291589253363781609 1:0.057692312 5:0.16666667 7:0.33333334 17:0.16666667 18:0.25714287 19:0.06666667 43:0.2 65:0.33333334 181:0.16666667 322:0.25 485:1 608:0.16666667 811:0.5 922:0.5 1125:1 1746:1 1839:1 
-1.0885010806742767552890427396051 1:0.13461538 5:0.14285713 6:0.21428572 9:0.14285713 14:0.21428572 18:0.01428571 19:0.13333333 27:0.2857143 29:0.2 30:0.1 41:0.33333334 43:0.40000001 45:0.5 61:0.25 75:0.25 81:0.5 95:1 105:0.5 112:0.5 134:0.5 144:0.5 186:0.25 191:1 196:0.25 200:0.25 217:0.5 224:0.5 337:0.5 349:0.33333334 400:1 404:1 665:1 
3.1266851102976906950914326444035 1:0.02884615 6:0.33333334 7:0.33333334 9:0.33333334 18:0.11428571 30:0.1 38:0.33333334 43:0.1 75:0.25 144:0.5 196:0.25 701:1 
3.1266851102976906950914326444035 1:0.01923077 9:0.5 18:0.11428571 43:0.1 74:0.25 75:0.25 1958:1 
3.1266851102976906950914326444035 1:0.0096153803 9:1 18:0.17142858 349:0.33333334 
-3.1266851102976906950914326444035 1:0.01923077 6:0.5 9:0.5 18:0.04285714 30:0.1 75:0.25 341:1 
-2.6716262853272025878936801746022 1:0.0096153803 18:0.028571431 1958:1 
-3.1266851102976906950914326444035 1:0.07692308 5:0.125 6:0.125 7:0.125 9:0.25 16:0.125 18:0.057142861 19:0.06666667 27:0.14285713 29:0.1 33:0.125 38:0.33333334 43:0.1 74:0.25 75:0.5 142:0.25 148:0.2 257:0.5 261:1 332:1 454:1 698:0.5 701:1 
-3.1266851102976906950914326444035 1:0.03846154 9:0.5 18:0.057142861 27:0.14285713 43:0.1 66:0.33333334 75:0.25 142:0.25 144:0.5 257:0.5 258:0.5 385:0.5 
3.1266851102976906950914326444035 1:0.03846154 6:0.25 7:0.25 17:0.25 18:0.085714288 30:0.1 43:0.1 196:0.25 322:0.25 625:0.14285713 918:1 922:0.5 1125:1 1355:1 1839:1 
1.1108338977370861844207183821709 1:0.07692308 5:0.125 6:0.25 7:0.375 9:0.125 16:0.125 18:0.071428567 19:0.06666667 30:0.2 33:0.125 35:0.25 38:0.33333334 43:0.2 99:0.125 181:0.16666667 196:0.25 322:0.25 349:0.33333334 483:1 608:0.16666667 813:0.5 922:1 1121:1 1125:1 1552:1 1860:1 
3.1266851102976906950914326444035 1:0.02884615 7:0.33333334 9:0.33333334 18:0.17142858 38:0.33333334 75:0.25 186:0.25 1148:1 1280:1 
-3.1266851102976906950914326444035 1:0.0096153803 7:1 18:0.15714286 38:0.33333334 
-0.47847235644398850018532698413765 1:0.086538456 7:0.66666669 18:0.11428571 38:1 124:0.5 322:0.75 595:1 596:1 786:1 789:1 
-1.9878345529773753241897793486714 1:0.04807692 6:0.2 7:0.2 9:0.2 18:0.01428571 30:0.1 38:0.33333334 43:0.2 74:0.25 75:0.25 115:0.33333334 144:0.5 150:0.01333333 196:0.25 222:0.33333334 505:1 781:0.5 963:1 
