SVM-light Version V5.00
2 # kernel type
3 # kernel parameter -d 
0.1 # kernel parameter -g 
1 # kernel parameter -s 
1 # kernel parameter -r 
empty# kernel parameter -u 
2226 # highest feature index 
18907 # number of training documents 
247 # number of support vectors plus 1 
0.9047212 # threshold b, each following line is a SV (starting with alpha*y)
1.047266225214179780067524916376 1:0.057692312 2:0.33333334 7:0.33333334 13:0.16666667 18:0.04285714 38:0.66666669 40:0.33333334 43:0.1 96:0.33333334 222:0.33333334 233:0.33333334 467:0.5 487:1 588:1 1361:1 1497:1 1498:1 2110:0.5 2155:0.5 2158:0.5 2162:0.5 2210:0.5 2212:0.5 
1.6407581834342914728352980091586 1:0.04807692 2:0.40000001 5:0.2 7:0.40000001 18:0.071428567 19:0.06666667 27:0.14285713 38:0.33333334 40:0.33333334 43:0.1 81:0.5 222:0.33333334 357:0.125 364:0.5 365:0.5 1302:1 2121:0.5 2122:0.5 2126:0.5 2127:0.5 2128:0.5 2130:0.5 2132:0.5 2133:0.5 
-1.0416214416752669347232540530968 1:0.03846154 2:0.5 6:0.75 18:0.04285714 29:0.1 30:0.2 40:0.33333334 99:0.125 100:0.25 299:1 2114:0.5 2118:0.5 2148:0.5 2150:0.5 2151:0.5 2163:0.5 
0.53255425657426425090079646906815 1:0.01923077 2:1 7:0.5 18:0.071428567 38:0.33333334 40:0.33333334 43:0.1 222:0.33333334 588:1 2123:0.5 2127:0.5 2128:0.5 2131:0.5 2148:0.5 2149:0.5 2150:0.5 2151:0.5 
0.64208841876897715383876175110345 1:0.03846154 2:0.5 7:0.25 18:0.12857144 38:0.33333334 39:0.5 40:0.33333334 118:0.5 389:0.5 660:1 1862:1 2121:0.5 2122:0.5 2126:0.5 2127:0.5 2130:0.5 2132:0.5 2133:0.5 2136:0.5 
0.45226011510458397069101010856684 1:0.03846154 2:0.5 7:0.25 18:0.085714288 38:0.33333334 39:0.5 40:0.33333334 118:0.5 389:0.5 660:1 1862:1 2121:0.5 2122:0.5 2126:0.5 2127:0.5 2128:0.5 2130:0.5 2132:0.5 2133:0.5 
1.4260068476556377881081516534323 1:0.03846154 2:0.5 7:0.5 18:0.11428571 37:1 38:0.33333334 40:0.33333334 43:0.1 181:0.16666667 203:0.5 219:1 221:0.2 222:0.33333334 2121:0.5 2126:0.5 2130:0.5 2131:0.5 2133:0.5 2173:0.5 2185:0.5 2194:0.5 
1.6407581834342914728352980091586 1:0.04807692 2:0.40000001 3:0.2 5:0.2 7:0.40000001 18:0.071428567 19:0.06666667 20:0.2 22:0.01219512 38:0.33333334 40:0.33333334 43:0.1 181:0.16666667 219:1 220:1 221:0.2 222:0.33333334 2123:0.5 2127:0.5 2128:0.5 2131:0.5 2154:0.5 2181:0.5 2182:0.5 
0.059536525106651631833454274556061 1:0.01923077 2:1 7:0.5 18:0.057142861 38:0.33333334 40:0.33333334 43:0.1 222:0.33333334 588:1 2118:0.5 2122:0.5 2123:0.5 2148:0.5 2150:0.5 2151:0.5 2165:0.5 
-0.36446681702366529043146670119313 1:0.0096153803 18:0.071428567 37:1 2121:0.5 2122:0.5 2123:0.5 2126:0.5 2127:0.5 2128:0.5 2130:0.5 2133:0.5 
-1.6407581834342914728352980091586 1:0.02884615 2:0.66666669 7:0.66666669 18:0.27142856 38:0.33333334 40:0.33333334 43:0.1 222:0.33333334 357:0.125 364:0.5 365:0.5 2165:0.5 2167:0.5 2169:0.5 2170:0.5 2172:0.5 2174:0.5 2176:0.5 2178:0.5 
1.6407581834342914728352980091586 1:0.03846154 7:0.25 17:0.5 18:0.028571431 181:0.16666667 186:0.25 1640:1 2110:0.5 2111:0.5 2112:0.5 2183:0.5 2210:0.5 
-1.6407581834342914728352980091586 1:0.02884615 2:0.66666669 7:0.66666669 18:0.22857143 38:0.33333334 40:0.33333334 43:0.1 181:0.16666667 219:1 221:0.2 222:0.33333334 2165:0.5 2167:0.5 2169:0.5 2170:0.5 2183:0.5 2184:0.5 2186:0.5 2202:0.5 
-1.6407581834342914728352980091586 1:0.02884615 2:0.66666669 7:0.66666669 18:0.22857143 38:0.33333334 40:0.33333334 43:0.1 222:0.33333334 357:0.125 364:0.5 365:0.5 2165:0.5 2167:0.5 2169:0.5 2170:0.5 2172:0.5 2174:0.5 2176:0.5 2178:0.5 
1.6407581834342914728352980091586 1:0.03846154 7:0.25 9:0.25 17:0.25 18:0.04285714 75:0.25 186:0.25 357:0.125 1472:1 2118:0.5 2121:0.5 2122:0.5 2126:0.5 2130:0.5 2150:0.5 
1.6407581834342914728352980091586 1:0.0096153803 17:1 18:0.12857144 2121:0.5 2126:0.5 2130:0.5 2133:0.5 2171:0.5 2173:0.5 2194:0.5 2196:0.5 
-1.6407581834342914728352980091586 1:0.01923077 2:1 7:0.5 18:0.22857143 38:0.33333334 40:0.33333334 43:0.1 222:0.33333334 588:1 2159:0.5 2183:0.5 2185:0.5 2192:0.5 2194:0.5 
-1.6407581834342914728352980091586 1:0.0096153803 7:1 18:0.071428567 237:0.33333334 2123:0.5 2127:0.5 2128:0.5 2146:0.5 2151:0.5 2152:0.5 2155:0.5 2160:0.5 2181:0.5 2182:0.5 
-1.6407581834342914728352980091586 1:0.02884615 2:0.66666669 7:0.66666669 18:0.028571431 38:0.33333334 40:0.33333334 43:0.1 222:0.33333334 557:1 762:1 763:1 2162:0.5 2182:0.5 2183:0.5 2212:0.5 2213:0.5 
1.6407581834342914728352980091586 1:0.057692312 7:0.16666667 9:0.16666667 18:0.15714286 27:0.2857143 38:0.33333334 43:0.1 66:0.33333334 78:0.33333334 142:0.25 222:0.33333334 257:0.5 258:0.5 264:0.5 330:1 572:0.5 2156:0.5 2157:0.5 2172:0.5 2174:0.5 2176:0.5 2178:0.5 
1.6407581834342914728352980091586 1:0.02884615 9:0.33333334 18:0.085714288 75:0.25 83:0.25 142:0.25 561:0.5 2123:0.5 2127:0.5 2128:0.5 2134:0.5 2150:0.5 2157:0.5 
1.6407581834342914728352980091586 1:0.057692312 3:0.16666667 7:0.33333334 13:0.16666667 17:0.16666667 18:0.028571431 22:0.01219512 38:0.33333334 43:0.1 51:0.125 84:0.25 186:0.25 322:0.25 466:1 467:0.5 484:1 812:1 827:1 2110:0.5 2121:0.5 2122:0.5 2126:0.5 2130:0.5 
-0.23858157306154489929461703923153 1:0.01923077 7:0.5 14:0.5 18:0.057142861 41:0.11111111 181:0.16666667 1465:1 2121:0.5 2123:0.5 2126:0.5 2127:0.5 2130:0.5 2133:0.5 2134:0.5 
-0.18707300696156944908032926377928 1:0.086538456 6:0.11111111 7:0.22222222 9:0.11111111 18:0.057142861 27:0.14285713 29:0.1 38:0.33333334 43:0.30000001 66:0.33333334 74:0.25 75:0.25 142:0.25 144:0.5 237:0.33333334 257:0.5 258:0.5 337:0.25 361:1 385:0.5 389:0.5 736:1 773:1 1310:1 2118:0.5 2121:0.5 2122:0.5 2123:0.5 2126:0.5 2130:0.5 2133:0.5 
-0.27600830611325921637444480438717 1:0.07692308 6:0.25 7:0.125 9:0.125 18:0.1 27:0.14285713 30:0.2 38:0.33333334 43:0.30000001 132:0.5 142:0.25 196:0.5 257:0.5 282:0.33333334 349:0.33333334 351:1 352:0.5 431:0.33333334 913:0.5 1279:0.33333334 1708:1 2121:0.5 2126:0.5 2127:0.5 2128:0.5 2130:0.5 2132:0.5 2133:0.5 2155:0.5 2173:0.5 2175:0.5 
0.71138289874880622498665161401732 1:0.02884615 2:0.66666669 7:0.66666669 18:0.27142856 38:0.33333334 40:0.33333334 43:0.1 222:0.33333334 357:0.125 364:0.5 365:0.5 2165:0.5 2167:0.5 2169:0.5 2170:0.5 2172:0.5 2174:0.5 2176:0.5 2178:0.5 
1.6407581834342914728352980091586 1:0.02884615 2:0.66666669 7:0.66666669 18:0.21428572 38:0.33333334 40:0.33333334 43:0.1 222:0.33333334 357:0.125 364:0.5 365:0.5 2145:0.5 2155:0.5 2165:0.5 2167:0.5 2169:0.5 2170:0.5 2174:0.5 2186:0.5 
1.6407581834342914728352980091586 1:0.0096153803 7:1 18:0.15714286 38:0.33333334 2155:0.5 2159:0.5 2174:0.5 2176:0.5 2178:0.5 
-1.6407581834342914728352980091586 1:0.07692308 2:0.25 3:0.25 5:0.125 7:0.25 17:0.125 18:0.15714286 19:0.06666667 20:0.2 22:0.024390239 27:0.14285713 38:0.33333334 40:0.33333334 43:0.1 44:0.01538462 220:1 222:0.33333334 357:0.125 364:0.5 365:0.5 1396:1 2121:0.5 2126:0.5 2130:0.5 2133:0.5 2135:0.5 2136:0.5 2161:0.5 2171:0.5 2192:0.5 
-0.50710757587239174704052402375964 1:0.057692312 2:0.33333334 3:0.66666669 18:0.11428571 22:0.04878049 26:0.5 40:0.33333334 44:0.030769231 214:0.5 220:1 296:0.5 2121:0.5 2126:0.5 2130:0.5 2133:0.5 2137:0.5 2173:0.5 2185:0.5 2194:0.5 
1.6407581834342914728352980091586 1:0.086538456 2:0.22222222 5:0.11111111 6:0.22222222 9:0.11111111 17:0.11111111 18:0.18571429 19:0.06666667 27:0.14285713 30:0.2 40:0.33333334 43:0.40000001 69:0.5 132:0.5 142:0.25 148:0.2 196:0.5 199:0.33333334 223:1 257:0.5 349:0.33333334 366:0.5 369:1 535:1 665:1 713:0.5 736:1 2114:0.5 2118:0.5 2121:0.5 2126:0.5 2127:0.5 2130:0.5 2131:0.5 2133:0.5 2175:0.5 2184:0.5 2196:0.5 
1.6407581834342914728352980091586 1:0.057692312 5:0.16666667 7:0.33333334 14:0.16666667 17:0.16666667 18:0.01428571 19:0.06666667 27:0.14285713 41:0.11111111 43:0.2 105:0.5 123:0.5 181:0.33333334 608:0.16666667 944:1 1598:1 2110:0.5 2162:0.5 2212:0.5 2213:0.5 
1.6407581834342914728352980091586 1:0.01923077 6:0.5 7:0.5 18:0.085714288 30:0.1 38:0.33333334 1061:1 2123:0.5 2127:0.5 2128:0.5 2157:0.5 2182:0.5 2183:0.5 
-0.070526878586738617205043055946589 1:0.01923077 14:0.5 17:0.5 18:0.12857144 41:0.11111111 84:0.25 93:0.33333334 2111:0.5 2115:0.5 2146:0.5 2149:0.5 2172:0.5 2174:0.5 2176:0.5 2178:0.5 
-0.16011479135356990188832071453362 1:0.10576923 8:0.18181819 14:0.090909094 17:0.090909094 18:0.04285714 27:0.42857143 41:0.11111111 43:0.1 56:0.01639344 64:0.5 66:0.33333334 75:0.25 84:0.25 93:0.33333334 110:0.5 123:0.5 139:0.5 141:0.5 142:0.25 257:0.5 258:0.5 330:1 332:1 736:1 2118:0.5 2121:0.5 2122:0.5 2126:0.5 2130:0.5 2133:0.5 
-0.34884139335222313915707559317525 1:0.057692312 7:0.16666667 18:0.085714288 27:0.14285713 43:0.2 78:0.33333334 142:0.25 186:0.25 237:0.33333334 257:0.5 262:0.25 264:0.5 321:0.33333334 382:0.5 383:0.5 384:1 572:0.5 2127:0.5 2128:0.5 2132:0.5 2155:0.5 2157:0.5 2182:0.5 
-1.6407581834342914728352980091586 1:0.04807692 4:0.40000001 7:0.60000002 18:0.071428567 38:1 43:0.30000001 54:0.22222222 133:0.16666667 209:0.2 222:1 431:0.66666669 2118:0.5 2122:0.5 2123:0.5 2128:0.5 2129:0.5 2157:0.5 2182:0.5 
1.3651400344707349532313855888788 1:0.02884615 2:0.66666669 7:0.33333334 18:0.01428571 38:0.33333334 39:0.5 40:0.33333334 282:0.33333334 2110:0.5 2162:0.5 2212:0.5 2213:0.5 
1.0932098203582130135913530466496 1:0.01923077 2:1 7:0.5 18:0.11428571 38:0.33333334 40:0.33333334 43:0.1 222:0.33333334 588:1 2121:0.5 2126:0.5 2130:0.5 2133:0.5 2161:0.5 2171:0.5 2185:0.5 2192:0.5 
0.96309255870425103385201737182797 1:0.067307688 2:0.5714286 3:0.14285713 7:0.5714286 18:0.04285714 22:0.01219512 38:0.66666669 40:0.66666669 43:0.30000001 51:0.125 56:0.032786891 220:1 222:0.66666669 357:0.25 364:1 431:0.33333334 987:1 988:1 2118:0.5 2121:0.5 2122:0.5 2126:0.5 2130:0.5 2133:0.5 
-1.6407581834342914728352980091586 1:0.01923077 2:1 17:0.5 18:0.12857144 40:0.33333334 43:0.1 588:1 1174:1 1541:1 2121:0.5 2126:0.5 2130:0.5 2133:0.5 2183:0.5 2184:0.5 2185:0.5 2194:0.5 
-1.6407581834342914728352980091586 1:0.04807692 2:0.40000001 5:0.2 7:0.40000001 14:0.2 18:0.34285715 19:0.06666667 38:0.33333334 40:0.33333334 41:0.11111111 43:0.1 105:0.5 150:0.01333333 222:0.33333334 286:0.5 357:0.125 364:0.5 365:0.5 1848:0.5 2121:0.5 2126:0.5 2130:0.5 2133:0.5 2173:0.5 2183:0.5 2185:0.5 2194:0.5 
-1.6407581834342914728352980091586 1:0.03846154 2:0.5 5:0.25 7:0.5 18:0.17142858 19:0.06666667 38:0.33333334 39:0.5 40:0.33333334 181:0.16666667 266:1 791:1 2121:0.5 2126:0.5 2130:0.5 2133:0.5 2138:0.5 2183:0.5 2186:0.5 2202:0.5 
1.6407581834342914728352980091586 1:0.02884615 7:0.33333334 17:0.33333334 18:0.11428571 43:0.1 181:0.16666667 221:0.2 549:1 570:1 1178:1 2121:0.5 2126:0.5 2130:0.5 2133:0.5 2158:0.5 2160:0.5 2185:0.5 2192:0.5 2194:0.5 2196:0.5 
1.6407581834342914728352980091586 1:0.0096153803 7:1 18:0.15714286 38:0.33333334 2129:0.5 2157:0.5 2158:0.5 2160:0.5 2176:0.5 2178:0.5 
1.6407581834342914728352980091586 1:0.0096153803 7:1 18:0.11428571 38:0.33333334 2136:0.5 2155:0.5 2158:0.5 2159:0.5 2176:0.5 
-1.6407581834342914728352980091586 1:0.0096153803 7:1 18:0.18571429 237:0.33333334 2142:0.5 2158:0.5 2159:0.5 2160:0.5 2161:0.5 
-1.6407581834342914728352980091586 1:0.0096153803 7:1 18:0.01428571 322:0.25 2110:0.5 2112:0.5 2162:0.5 2210:0.5 
-1.6407581834342914728352980091586 1:0.0096153803 7:1 18:0.01428571 2110:0.5 2111:0.5 2112:0.5 2210:0.5 
1.6407581834342914728352980091586 1:0.057692312 2:0.33333334 7:0.33333334 18:0.1 38:0.33333334 39:0.5 40:0.33333334 43:0.1 108:0.5 118:0.5 121:1 150:0.01333333 181:0.16666667 325:1 328:1 608:0.16666667 765:1 766:1 791:1 2121:0.5 2126:0.5 2130:0.5 2133:0.5 2136:0.5 2161:0.5 2173:0.5 2191:0.5 2194:0.5 2219:0.5 
1.6407581834342914728352980091586 1:0.04807692 2:0.40000001 6:0.40000001 7:0.2 9:0.2 18:0.12857144 29:0.1 30:0.1 34:0.33333334 38:0.33333334 39:0.5 40:0.33333334 43:0.2 200:0.25 349:0.33333334 352:0.5 366:0.5 665:1 2121:0.5 2126:0.5 2130:0.5 2133:0.5 2183:0.5 2184:0.5 2185:0.5 2194:0.5 
1.6407581834342914728352980091586 1:0.02884615 2:0.66666669 17:0.33333334 18:0.1 40:0.33333334 680:1 1412:1 1413:1 2119:0.5 2124:0.5 2132:0.5 2134:0.5 2136:0.5 2143:0.5 2146:0.5 2173:0.5 
-0.48057268588577650714199762660428 1:0.057692312 6:0.16666667 7:0.16666667 8:0.33333334 9:0.16666667 17:0.16666667 18:0.14285713 30:0.1 43:0.2 64:0.5 83:0.25 84:0.25 181:0.16666667 196:0.25 253:0.5 343:0.5 344:0.25 346:0.5 349:0.33333334 352:0.5 665:1 2121:0.5 2126:0.5 2130:0.5 2133:0.5 2155:0.5 2158:0.5 2160:0.5 2161:0.5 2171:0.5 2173:0.5 2175:0.5 2177:0.5 2185:0.5 2192:0.5 2194:0.5 2196:0.5 
-0.77547480040879201990122737697675 1:0.02884615 18:0.085714288 108:0.5 118:0.5 150:0.01333333 325:1 328:1 765:1 766:1 2121:0.5 2126:0.5 2129:0.5 2130:0.5 2136:0.5 2161:0.5 2173:0.5 2191:0.5 2194:0.5 2219:0.5 
-1.513383948854439831066542865301 1:0.03846154 2:0.5 6:0.25 7:0.25 9:0.25 18:0.085714288 29:0.1 38:0.33333334 40:0.33333334 43:0.30000001 200:0.25 222:0.33333334 349:0.33333334 352:0.5 366:0.5 588:1 665:1 2115:0.5 2123:0.5 2128:0.5 2148:0.5 2151:0.5 2163:0.5 2183:0.5 2184:0.5 2187:0.5 
1.4508798169041801084944154354162 1:0.04807692 2:0.40000001 5:0.2 7:0.60000002 18:0.01428571 19:0.06666667 38:0.33333334 40:0.33333334 43:0.1 181:0.16666667 222:0.33333334 266:1 357:0.125 364:0.5 365:0.5 791:1 2110:0.5 2112:0.5 2143:0.5 2162:0.5 
1.6407581834342914728352980091586 1:0.03846154 2:0.5 5:0.25 7:0.25 17:0.25 18:0.01428571 19:0.06666667 40:0.33333334 43:0.1 181:0.16666667 219:1 221:0.2 1141:0.5 2110:0.5 2111:0.5 2143:0.5 2146:0.5 
1.6407581834342914728352980091586 1:0.04807692 2:0.40000001 5:0.2 7:0.40000001 17:0.2 18:0.085714288 19:0.06666667 38:0.33333334 40:0.33333334 43:0.1 222:0.33333334 357:0.125 364:0.5 365:0.5 2123:0.5 2127:0.5 2128:0.5 2159:0.5 2183:0.5 
-1.6407581834342914728352980091586 1:0.02884615 2:0.66666669 17:0.33333334 18:0.04285714 40:0.33333334 568:1 569:1 1412:1 1413:1 2110:0.5 2111:0.5 2112:0.5 2131:0.5 2135:0.5 2143:0.5 
-1.0167968089157892741525301971706 1:0.04807692 2:0.40000001 5:0.2 7:0.2 9:0.2 11:0.2 18:0.028571431 19:0.06666667 38:0.33333334 39:0.5 40:0.33333334 43:0.30000001 74:0.25 75:0.25 148:0.2 154:0.5 156:0.5 189:0.16666667 366:0.5 817:1 2110:0.5 2111:0.5 2143:0.5 2146:0.5 2183:0.5 
-1.6407581834342914728352980091586 1:0.03846154 2:0.5 7:0.25 9:0.25 18:0.028571431 38:0.33333334 39:0.5 40:0.33333334 43:0.2 74:0.25 75:0.25 186:0.25 191:1 262:0.25 366:0.5 2110:0.5 2112:0.5 2143:0.5 2162:0.5 2183:0.5 
1.32961431387580142349236211885 1:0.04807692 2:0.40000001 7:0.40000001 18:0.057142861 38:0.33333334 40:0.33333334 43:0.1 108:0.5 222:0.33333334 325:1 328:1 357:0.125 588:1 589:1 590:1 2118:0.5 2122:0.5 2123:0.5 2150:0.5 2151:0.5 2153:0.5 2187:0.5 
1.6407581834342914728352980091586 1:0.04807692 2:0.40000001 7:0.40000001 18:0.04285714 38:0.33333334 40:0.33333334 43:0.1 108:0.5 222:0.33333334 322:0.25 325:1 328:1 588:1 2118:0.5 2122:0.5 2150:0.5 2151:0.5 2153:0.5 2187:0.5 
1.3052694453481268332950548938243 1:0.057692312 2:0.33333334 7:0.33333334 13:0.16666667 18:0.085714288 38:0.66666669 39:0.5 40:0.33333334 96:0.33333334 233:0.33333334 467:0.5 487:1 1361:1 1497:1 1498:1 2112:0.5 2121:0.5 2124:0.5 2155:0.5 2158:0.5 2161:0.5 2162:0.5 2185:0.5 
-1.6407581834342914728352980091586 1:0.07692308 2:0.5 5:0.25 7:0.375 17:0.125 18:0.1 19:0.13333333 38:0.33333334 40:0.66666669 43:0.2 150:0.026666669 222:0.33333334 256:1 357:0.25 364:1 365:1 526:0.25 1057:1 1058:1 1426:0.5 1516:0.5 1848:1 2121:0.5 2126:0.5 2130:0.5 2136:0.5 2158:0.5 2161:0.5 2171:0.5 2182:0.5 2192:0.5 
-1.6407581834342914728352980091586 1:0.067307688 2:0.28571427 4:0.2857143 5:0.14285713 7:0.42857143 18:0.24285714 19:0.06666667 38:0.66666669 40:0.33333334 43:0.2 54:0.22222222 131:0.5 209:0.2 222:0.66666669 357:0.125 364:0.5 365:0.5 407:1 1498:1 2140:0.5 2144:0.5 2147:0.5 2159:0.5 2183:0.5 
-0.28566409288081157091809814119188 1:0.02884615 17:0.33333334 18:0.057142861 108:0.5 325:1 328:1 2118:0.5 2122:0.5 2123:0.5 2148:0.5 2149:0.5 2150:0.5 2151:0.5 
1.6407581834342914728352980091586 1:0.02884615 2:0.66666669 17:0.33333334 18:0.04285714 40:0.33333334 567:1 568:1 569:1 570:1 2110:0.5 2111:0.5 2112:0.5 2134:0.5 2135:0.5 2143:0.5 2149:0.5 
1.6407581834342914728352980091586 1:0.02884615 2:0.66666669 7:0.33333334 18:0.01428571 38:0.33333334 40:0.33333334 56:0.01639344 988:0.5 1034:1 1135:1 2110:0.5 2112:0.5 2143:0.5 2162:0.5 
1.6407581834342914728352980091586 1:0.04807692 2:0.40000001 17:0.2 18:0.071428567 40:0.33333334 83:0.25 108:0.5 1161:1 2118:0.5 2122:0.5 2123:0.5 2128:0.5 2154:0.5 2181:0.5 2182:0.5 
-1.6407581834342914728352980091586 1:0.03846154 2:0.5 6:0.5 13:0.25 18:0.2 29:0.1 30:0.1 40:0.33333334 43:0.1 100:0.25 196:0.25 366:0.5 467:0.5 2172:0.5 2174:0.5 2176:0.5 2178:0.5 2179:0.5 2180:0.5 2181:0.5 2182:0.5 
-1.5457527623250482129435567912878 1:0.04807692 2:0.40000001 3:0.40000001 5:0.2 17:0.2 18:0.1 19:0.06666667 20:0.2 22:0.024390239 40:0.33333334 42:0.11111111 43:0.1 44:0.01538462 223:1 366:0.5 369:1 2134:0.5 2135:0.5 2136:0.5 2139:0.5 2159:0.5 
-1.6407581834342914728352980091586 1:0.03846154 2:0.5 5:0.25 7:0.5 18:0.15714286 19:0.06666667 38:0.33333334 39:0.5 40:0.33333334 357:0.125 589:1 823:1 2121:0.5 2126:0.5 2130:0.5 2134:0.5 2182:0.5 2184:0.5 2186:0.5 2202:0.5 
1.6407581834342914728352980091586 1:0.057692312 2:0.33333334 7:0.5 9:0.33333334 18:0.04285714 38:0.33333334 40:0.33333334 43:0.2 66:0.33333334 73:1 74:0.25 75:0.25 222:0.33333334 237:0.33333334 331:1 357:0.125 364:0.5 365:0.5 2110:0.5 2155:0.5 2158:0.5 2162:0.5 2210:0.5 2212:0.5 
1.6407581834342914728352980091586 1:0.0096153803 7:1 18:0.2857143 38:0.33333334 2159:0.5 2172:0.5 2174:0.5 2176:0.5 2178:0.5 
1.6407581834342914728352980091586 1:0.0096153803 7:1 18:0.2857143 38:0.33333334 2159:0.5 2172:0.5 2174:0.5 2176:0.5 2178:0.5 
-1.6407581834342914728352980091586 1:0.01923077 7:0.5 18:0.071428567 38:0.33333334 69:0.5 2118:0.5 2122:0.5 2123:0.5 2128:0.5 2150:0.5 2151:0.5 2153:0.5 2156:0.5 2163:0.5 
-0.15199867746361306330982188228518 1:0.086538456 7:0.11111111 9:0.22222222 18:0.04285714 27:0.2857143 43:0.2 66:0.33333334 69:0.5 74:0.25 75:0.25 142:0.25 186:0.25 237:0.33333334 257:0.5 258:0.5 262:0.25 321:0.33333334 330:1 332:1 389:0.5 713:0.5 736:1 1288:1 2118:0.5 2121:0.5 2122:0.5 2126:0.5 2130:0.5 2133:0.5 
-0.31406662582261818394968599932326 1:0.02884615 7:0.33333334 9:0.66666669 18:0.11428571 43:0.1 66:0.33333334 73:1 74:0.25 75:0.25 237:0.33333334 331:1 2141:0.5 2142:0.5 2155:0.5 2158:0.5 2159:0.5 
1.6407581834342914728352980091586 1:0.04807692 2:0.40000001 5:0.2 6:0.2 9:0.2 17:0.2 18:0.1 19:0.06666667 30:0.1 40:0.33333334 43:0.2 148:0.2 196:0.25 223:1 349:0.33333334 366:0.5 369:1 535:1 665:1 2114:0.5 2121:0.5 2126:0.5 2127:0.5 2130:0.5 2131:0.5 2132:0.5 2133:0.5 2136:0.5 2155:0.5 2186:0.5 
1.5966414913322919399973898180178 1:0.10576923 2:0.36363637 5:0.27272728 7:0.36363637 14:0.18181819 18:0.01428571 19:0.2 38:0.33333334 39:0.5 40:0.66666669 41:0.22222222 105:0.5 166:0.5 181:0.16666667 224:0.5 357:0.25 365:0.5 589:1 823:1 922:1 1141:0.5 1245:1 1859:1 1860:1 2110:0.5 2112:0.5 2181:0.5 2210:0.5 
1.6407581834342914728352980091586 1:0.04807692 2:0.40000001 5:0.2 7:0.60000002 18:0.11428571 19:0.06666667 38:0.33333334 39:0.5 40:0.33333334 43:0.1 181:0.16666667 221:0.2 266:1 357:0.125 451:1 589:1 2121:0.5 2126:0.5 2130:0.5 2133:0.5 2136:0.5 2160:0.5 2161:0.5 2192:0.5 
-0.52961631619591531539015250018565 1:0.086538456 7:0.66666669 18:0.11428571 38:1 124:0.5 322:0.75 595:1 596:1 786:1 789:1 2121:0.5 2132:0.5 2145:0.5 2150:0.5 2153:0.5 2160:0.5 2173:0.5 2188:0.5 
-0.66509234990854404490079332390451 1:0.11538462 2:0.16666666 5:0.25 7:0.33333334 14:0.25 18:0.01428571 19:0.2 23:0.14285713 38:0.33333334 39:0.5 40:0.33333334 41:0.33333334 43:0.30000001 56:0.01639344 105:0.5 161:1 166:1 181:0.16666667 185:1 188:0.5 189:0.16666667 192:0.5 221:0.2 357:0.25 364:0.5 366:0.5 987:0.5 1718:1 2110:0.5 2162:0.5 2210:0.5 2212:0.5 
-1.6407581834342914728352980091586 1:0.04807692 2:0.40000001 5:0.2 7:0.40000001 14:0.2 18:0.32857144 19:0.06666667 38:0.33333334 40:0.33333334 41:0.11111111 43:0.1 105:0.5 150:0.01333333 181:0.16666667 219:1 221:0.2 222:0.33333334 286:0.5 1848:0.5 2121:0.5 2126:0.5 2130:0.5 2161:0.5 2171:0.5 2182:0.5 2185:0.5 2192:0.5 
1.6407581834342914728352980091586 1:0.02884615 2:0.66666669 7:0.66666669 18:0.14285713 38:0.33333334 39:0.5 40:0.33333334 181:0.16666667 791:1 2121:0.5 2126:0.5 2181:0.5 2182:0.5 2183:0.5 2184:0.5 2186:0.5 2221:0.5 
1.6407581834342914728352980091586 1:0.02884615 2:0.66666669 7:0.33333334 18:0.057142861 38:0.33333334 39:0.5 40:0.33333334 118:0.5 660:1 2118:0.5 2122:0.5 2123:0.5 2148:0.5 2150:0.5 2151:0.5 2163:0.5 
1.6407581834342914728352980091586 1:0.03846154 2:0.5 7:0.25 17:0.25 18:0.15714286 40:0.33333334 357:0.125 589:1 679:1 680:1 2121:0.5 2126:0.5 2130:0.5 2133:0.5 2134:0.5 2135:0.5 2175:0.5 2196:0.5 
-1.6407581834342914728352980091586 1:0.0096153803 7:1 18:0.01428571 322:0.25 2110:0.5 2111:0.5 2146:0.5 2149:0.5 
-1.3583693583930067649845341293258 1:0.01923077 7:0.5 16:0.5 18:0.071428567 33:0.125 38:0.33333334 1369:1 2118:0.5 2122:0.5 2123:0.5 2129:0.5 2154:0.5 2181:0.5 2185:0.5 
-1.6407581834342914728352980091586 1:0.01923077 7:0.5 17:0.5 18:0.11428571 38:0.33333334 124:0.16666667 1460:1 2121:0.5 2126:0.5 2130:0.5 2133:0.5 2155:0.5 2158:0.5 2160:0.5 2177:0.5 2194:0.5 
0.2137770388155857959056049821811 1:0.07692308 2:0.5 5:0.25 7:0.5 18:0.15714286 19:0.13333333 38:0.66666669 40:0.66666669 43:0.2 181:0.16666667 219:1 221:0.2 222:0.66666669 357:0.125 364:0.5 365:0.5 526:0.25 1141:1 1426:0.5 1516:0.5 2121:0.5 2126:0.5 2127:0.5 2130:0.5 2136:0.5 2155:0.5 2160:0.5 2161:0.5 2173:0.5 2177:0.5 2182:0.5 2194:0.5 
1.6407581834342914728352980091586 1:0.03846154 2:0.5 7:0.25 17:0.25 18:0.17142858 40:0.33333334 43:0.1 357:0.125 364:0.5 365:0.5 636:1 803:1 2134:0.5 2159:0.5 2161:0.5 2178:0.5 2192:0.5 
-0.071601526164642131933035784641106 1:0.03846154 18:0.1 37:1 96:0.33333334 108:0.5 325:1 328:1 849:1 1858:1 2122:0.5 2125:0.5 2127:0.5 2132:0.5 2136:0.5 2179:0.5 2180:0.5 2182:0.5 
-0.58324869602766271636795636368333 1:0.15384614 2:0.125 3:0.5625 6:0.0625 7:0.125 12:0.0625 18:0.40000001 22:0.1097561 30:0.1 38:0.33333334 40:0.33333334 43:0.1 44:0.07692308 56:0.01639344 57:0.2 59:0.25 61:0.5 85:0.25 89:0.5 174:0.5 181:0.16666667 210:0.33333334 219:1 220:1 221:0.2 222:0.33333334 411:1 599:1 2133:0.5 2137:0.5 2140:0.5 2144:0.5 2147:0.5 2200:0.5 
-0.29845060125155953301145927980542 1:0.16346154 2:0.11764706 3:0.29411766 4:0.05882353 5:0.05882353 6:0.11764706 7:0.17647059 17:0.05882353 18:0.17142858 19:0.06666667 22:0.060975611 27:0.2857143 29:0.1 30:0.1 38:0.33333334 39:0.5 40:0.33333334 44:0.030769231 53:0.14285713 54:0.11111111 56:0.01639344 58:0.2 115:0.33333334 162:0.5 181:0.16666667 182:0.25 210:0.33333334 220:1 287:0.33333334 298:1 301:0.33333334 322:0.25 1158:1 1598:1 1710:1 1711:1 1712:1 1713:1 2121:0.5 2126:0.5 2128:0.5 2130:0.5 2133:0.5 2137:0.5 2140:0.5 2144:0.5 
1.6407581834342914728352980091586 1:0.04807692 7:0.40000001 17:0.40000001 18:0.01428571 27:0.14285713 181:0.33333334 944:1 1598:1 2110:0.5 2111:0.5 2146:0.5 2149:0.5 
1.6407581834342914728352980091586 1:0.0096153803 7:1 18:0.2857143 38:0.33333334 2159:0.5 2172:0.5 2174:0.5 2176:0.5 2178:0.5 
1.6407581834342914728352980091586 1:0.03846154 2:0.5 7:0.5 13:0.25 18:0.04285714 38:0.33333334 39:0.5 40:0.33333334 43:0.1 322:0.25 366:0.5 467:0.5 482:1 483:1 2118:0.5 2119:0.5 2122:0.5 2124:0.5 2143:0.5 2146:0.5 
-0.660732245852380883910370812373 1:0.0096153803 7:1 18:0.15714286 797:1 2115:0.5 2143:0.5 2146:0.5 2148:0.5 2171:0.5 2192:0.5 2194:0.5 2196:0.5 
-0.30154509743462426518689767362957 1:0.01923077 7:0.5 18:0.057142861 108:0.5 322:0.25 2110:0.5 2111:0.5 2131:0.5 2135:0.5 2141:0.5 2146:0.5 2149:0.5 
-0.55140275291452556238880333694397 1:0.03846154 2:0.5 7:0.25 9:0.5 18:0.057142861 38:0.33333334 39:0.5 40:0.33333334 43:0.2 74:0.5 75:0.5 144:0.5 366:0.5 2163:0.5 2182:0.5 2183:0.5 2184:0.5 2186:0.5 2188:0.5 2189:0.5 
1.1906664637564814412939995236229 1:0.04807692 2:0.80000001 7:0.2 17:0.2 18:0.18571429 38:0.33333334 39:0.5 40:0.66666669 568:1 569:1 1412:1 1413:1 2121:0.5 2126:0.5 2130:0.5 2133:0.5 2142:0.5 2158:0.5 2160:0.5 2161:0.5 
-0.9255796027255538405142942792736 1:0.02884615 2:0.66666669 5:0.33333334 17:0.33333334 18:0.18571429 19:0.06666667 40:0.33333334 43:0.1 189:0.16666667 366:0.5 1259:1 1416:1 2121:0.5 2126:0.5 2130:0.5 2133:0.5 2175:0.5 2183:0.5 2184:0.5 2196:0.5 
-1.4311386686197764550598776622792 1:0.067307688 2:0.28571427 3:0.14285713 5:0.42857143 7:0.14285713 18:0.21428572 19:0.2 20:0.2 21:0.33333334 22:0.01219512 38:0.33333334 39:0.5 40:0.33333334 43:0.2 148:0.2 189:0.33333334 233:0.33333334 366:0.5 375:1 2121:0.5 2126:0.5 2130:0.5 2133:0.5 2134:0.5 2161:0.5 2185:0.5 2192:0.5 
-0.43290384865148562321124359186797 1:0.057692312 2:0.33333334 5:0.16666667 6:0.33333334 9:0.16666667 16:0.16666667 18:0.057142861 19:0.06666667 29:0.2 32:0.25 33:0.125 40:0.33333334 75:0.25 299:1 335:1 481:0.5 1141:0.5 2114:0.5 2118:0.5 2121:0.5 2123:0.5 2126:0.5 2130:0.5 2133:0.5 
1.6407581834342914728352980091586 1:0.0096153803 7:1 18:0.17142858 38:0.33333334 2155:0.5 2159:0.5 2174:0.5 2176:0.5 2178:0.5 
-1.6407581834342914728352980091586 1:0.067307688 3:0.14285713 4:0.14285713 6:0.2857143 7:0.14285713 14:0.14285713 16:0.14285713 18:0.12857144 22:0.01219512 29:0.1 30:0.1 32:0.25 33:0.125 35:0.25 38:0.33333334 41:0.11111111 54:0.11111111 109:0.25 162:0.5 176:0.5 1061:1 2155:0.5 2158:0.5 2159:0.5 2176:0.5 2178:0.5 
-0.23147826844315036454169387525326 1:0.057692312 5:0.5 18:0.35714287 19:0.2 23:0.14285713 27:0.14285713 61:0.25 62:0.5 80:0.5 82:0.5 108:0.5 728:1 2159:0.5 2172:0.5 2174:0.5 2176:0.5 2178:0.5 
-0.88465171014606924781986663219868 1:0.01923077 9:0.5 18:0.12857144 75:0.25 142:0.25 561:0.5 2129:0.5 2157:0.5 2172:0.5 2174:0.5 2176:0.5 2178:0.5 
0.73572008527964138924204462455236 1:0.07692308 2:0.75 7:0.25 17:0.125 18:0.04285714 38:0.66666669 39:0.5 40:1 56:0.01639344 61:0.25 599:1 988:0.5 1135:1 1267:1 1344:1 1549:1 1550:1 1551:1 2118:0.5 2121:0.5 2122:0.5 2126:0.5 2130:0.5 2133:0.5 
1.6407581834342914728352980091586 1:0.02884615 2:0.66666669 7:0.66666669 18:0.11428571 38:0.33333334 40:0.33333334 43:0.1 181:0.16666667 219:1 221:0.2 222:0.33333334 2121:0.5 2126:0.5 2130:0.5 2161:0.5 2171:0.5 2182:0.5 2185:0.5 2192:0.5 
-0.29806097924435631663087065135187 1:0.07692308 5:0.25 6:0.125 7:0.25 9:0.25 18:0.15714286 19:0.13333333 30:0.1 38:0.33333334 43:0.2 148:0.2 186:0.25 196:0.25 222:0.33333334 259:0.33333334 322:0.25 349:0.33333334 483:1 521:0.33333334 535:1 1088:0.5 1148:1 1149:1 2121:0.5 2126:0.5 2130:0.5 2132:0.5 2155:0.5 2168:0.5 2173:0.5 2185:0.5 
-0.12517296933865537655883315437677 1:0.02884615 7:0.33333334 18:0.1 108:0.5 325:1 328:1 362:1 363:1 2129:0.5 2136:0.5 2157:0.5 2158:0.5 2160:0.5 2161:0.5 
-0.87824363328950649787429938442074 1:0.03846154 7:0.75 18:0.1 38:0.33333334 322:0.5 789:0.33333334 790:0.5 1155:0.5 1157:0.5 2121:0.5 2126:0.5 2130:0.5 2136:0.5 2158:0.5 2160:0.5 2161:0.5 2168:0.5 
0.59335429705594222582476504612714 1:0.01923077 2:1 7:0.5 18:0.12857144 38:0.33333334 39:0.5 40:0.33333334 2132:0.5 2135:0.5 2136:0.5 2179:0.5 2180:0.5 2181:0.5 2182:0.5 2183:0.5 
-1.023700205488473624626521996106 1:0.057692312 2:0.33333334 5:0.16666667 17:0.16666667 18:0.01428571 19:0.06666667 27:0.14285713 40:0.33333334 56:0.01639344 81:0.5 150:0.01333333 223:1 423:0.25 988:0.5 1450:1 2112:0.5 2143:0.5 2162:0.5 2182:0.5 
-1.3646384467666319295631183194928 1:0.07692308 2:0.25 3:0.25 5:0.125 6:0.125 7:0.25 18:0.35714287 19:0.06666667 21:0.33333334 22:0.024390239 30:0.1 38:0.33333334 39:0.5 40:0.33333334 44:0.01538462 65:0.33333334 210:0.33333334 357:0.125 485:1 589:1 2159:0.5 2183:0.5 2184:0.5 2186:0.5 2202:0.5 
-0.32960819685947101431722217057541 1:0.03846154 7:0.25 13:0.5 18:0.071428567 96:0.33333334 322:0.25 467:1 482:1 487:1 2128:0.5 2131:0.5 2132:0.5 2135:0.5 2138:0.5 2148:0.5 2149:0.5 2150:0.5 2151:0.5 
1.6407581834342914728352980091586 1:0.02884615 2:0.66666669 7:0.66666669 18:0.15714286 38:0.33333334 40:0.33333334 43:0.1 222:0.33333334 357:0.125 364:0.5 365:0.5 2121:0.5 2126:0.5 2130:0.5 2133:0.5 2142:0.5 2175:0.5 2183:0.5 2184:0.5 2196:0.5 
1.6407581834342914728352980091586 1:0.02884615 2:0.66666669 7:0.33333334 17:0.33333334 18:0.11428571 38:0.33333334 39:0.5 40:0.33333334 2121:0.5 2126:0.5 2130:0.5 2133:0.5 2155:0.5 2158:0.5 2160:0.5 2161:0.5 2185:0.5 
0.50360289780347100574431351560634 1:0.02884615 2:0.66666669 7:0.66666669 18:0.2 38:0.33333334 40:0.33333334 43:0.1 222:0.33333334 357:0.125 364:0.5 365:0.5 2121:0.5 2126:0.5 2130:0.5 2136:0.5 2158:0.5 2160:0.5 2161:0.5 2182:0.5 
-1.6407581834342914728352980091586 1:0.02884615 7:0.33333334 9:0.33333334 17:0.33333334 18:0.14285713 38:0.33333334 259:0.33333334 2121:0.5 2126:0.5 2127:0.5 2153:0.5 2155:0.5 2156:0.5 2175:0.5 2196:0.5 
-0.45199188464614137306085694945068 1:0.0096153803 7:1 18:0.35714287 181:0.16666667 952:0.125 955:1 2121:0.5 2126:0.5 2130:0.5 2133:0.5 2137:0.5 2140:0.5 2144:0.5 2147:0.5 
-0.75616627182253770556030758598354 1:0.01923077 7:0.5 13:0.5 18:0.057142861 460:1 467:0.5 2118:0.5 2121:0.5 2122:0.5 2123:0.5 2126:0.5 2130:0.5 2150:0.5 
1.6407581834342914728352980091586 1:0.0096153803 7:1 18:0.17142858 38:0.33333334 2155:0.5 2159:0.5 2174:0.5 2176:0.5 2178:0.5 
-0.48905876216436633407980139054416 1:0.10576923 2:0.36363637 4:0.18181819 5:0.090909094 7:0.45454544 14:0.090909094 18:0.04285714 19:0.06666667 38:0.66666669 39:0.5 40:0.66666669 41:0.11111111 43:0.40000001 54:0.22222222 56:0.01639344 58:0.2 119:0.5 150:0.01333333 181:0.33333334 182:0.25 221:0.40000001 222:0.33333334 256:0.5 366:0.5 456:1 457:1 588:1 841:1 1139:1 1158:1 1848:0.5 2110:0.5 2111:0.5 2121:0.5 2126:0.5 2135:0.5 2183:0.5 2184:0.5 
-1.0112170691901165575643517513527 1:0.07692308 2:0.25 4:0.125 7:0.375 14:0.125 17:0.125 18:0.071428567 38:0.33333334 39:0.5 40:0.33333334 41:0.11111111 43:0.30000001 54:0.11111111 56:0.01639344 96:0.33333334 119:0.25 161:1 181:0.16666667 221:0.2 357:0.125 364:0.5 366:0.5 431:0.33333334 465:1 987:0.5 1778:1 2121:0.5 2126:0.5 2128:0.5 2130:0.5 2132:0.5 2133:0.5 2158:0.5 2183:0.5 2192:0.5 
-0.2788847125053498521296546641679 1:0.03846154 7:0.25 13:0.25 18:0.1 96:0.33333334 322:0.25 467:0.5 487:1 1499:1 1500:1 2110:0.5 2112:0.5 2121:0.5 2131:0.5 2134:0.5 2158:0.5 2161:0.5 2162:0.5 2185:0.5 
-0.29689413968150274447665992738621 1:0.01923077 5:0.5 7:0.5 18:0.01428571 19:0.06666667 181:0.16666667 266:1 2110:0.5 2112:0.5 2121:0.5 2162:0.5 
-0.31476155107218889428466468416445 1:0.04807692 6:0.40000001 7:0.40000001 9:0.2 18:0.057142861 30:0.2 38:0.33333334 43:0.2 196:0.25 222:0.33333334 349:0.33333334 352:0.5 357:0.125 364:0.5 610:1 1286:1 2121:0.5 2123:0.5 2126:0.5 2127:0.5 2155:0.5 2166:0.5 2190:0.5 
-0.37547378316176299728468279681692 1:0.01923077 7:0.5 18:0.028571431 357:0.125 439:0.5 1701:1 2110:0.5 2111:0.5 2131:0.5 2143:0.5 2146:0.5 2149:0.5 
0.98016275998214863474089497685782 1:0.02884615 2:0.66666669 7:0.66666669 18:0.04285714 38:0.33333334 39:0.5 40:0.33333334 357:0.125 589:1 2110:0.5 2162:0.5 2183:0.5 2184:0.5 2212:0.5 2213:0.5 
0.36947341908843067681544880542788 1:0.057692312 2:0.33333334 7:0.5 18:0.057142861 38:0.33333334 40:0.33333334 43:0.1 108:0.5 181:0.16666667 219:1 221:0.2 222:0.33333334 325:1 328:1 357:0.125 589:1 590:1 2122:0.5 2123:0.5 2127:0.5 2150:0.5 2151:0.5 2153:0.5 2187:0.5 
-0.31279944148060911945918860510574 1:0.057692312 2:0.33333334 7:0.5 18:0.75714284 38:0.33333334 40:0.33333334 43:0.1 222:0.33333334 269:1 322:0.25 389:0.5 1310:1 1417:0.5 1843:1 1844:1 1845:1 2159:0.5 2183:0.5 2184:0.5 2186:0.5 2202:0.5 
-0.41138174099863000776622357079759 1:0.02884615 2:0.66666669 7:0.33333334 17:0.33333334 18:0.12857144 40:0.33333334 557:1 776:1 905:1 906:1 2121:0.5 2129:0.5 2180:0.5 2181:0.5 2183:0.5 2184:0.5 2202:0.5 2220:0.5 
-0.37174980050308681356341367063578 1:0.02884615 18:0.071428567 108:0.5 325:1 328:1 1034:1 2121:0.5 2123:0.5 2126:0.5 2127:0.5 2128:0.5 2130:0.5 2133:0.5 2155:0.5 
-0.78832885397878427191642458637943 1:0.02884615 6:0.33333334 7:0.33333334 9:0.33333334 18:0.1 29:0.1 75:0.25 181:0.16666667 323:0.5 340:0.33333334 2121:0.5 2122:0.5 2126:0.5 2127:0.5 2128:0.5 2130:0.5 2132:0.5 2133:0.5 
-0.12550192747415800376131755911047 1:0.01923077 7:0.5 18:0.11428571 233:0.33333334 1696:1 2121:0.5 2126:0.5 2130:0.5 2133:0.5 2161:0.5 2171:0.5 2185:0.5 2192:0.5 
0.84598657371199714738452257734025 1:0.02884615 2:0.66666669 7:0.66666669 18:0.2 38:0.33333334 39:0.5 40:0.33333334 181:0.16666667 791:1 2132:0.5 2136:0.5 2158:0.5 2160:0.5 2165:0.5 2167:0.5 2169:0.5 2170:0.5 
1.6407581834342914728352980091586 1:0.02884615 2:0.66666669 7:0.66666669 18:0.11428571 38:0.33333334 40:0.33333334 43:0.1 222:0.33333334 357:0.125 364:0.5 365:0.5 2136:0.5 2152:0.5 2158:0.5 2161:0.5 2180:0.5 2181:0.5 2182:0.5 2183:0.5 2192:0.5 
-0.39008174563460135120251948137593 1:0.07692308 5:0.25 6:0.125 7:0.25 9:0.25 18:0.057142861 19:0.13333333 29:0.1 38:0.66666669 43:0.2 134:0.5 148:0.2 189:0.16666667 222:0.33333334 233:0.33333334 259:0.33333334 261:1 349:0.33333334 431:0.33333334 528:1 535:1 1529:1 2123:0.5 2127:0.5 2155:0.5 2201:0.5 
-1.1734305782059386569216030693497 1:0.0096153803 7:1 18:0.04285714 357:0.125 2110:0.5 2112:0.5 2143:0.5 2162:0.5 2183:0.5 2184:0.5 
-0.33619882570220749329337195376866 1:0.02884615 3:0.33333334 7:0.33333334 14:0.33333334 18:0.2 22:0.01219512 38:0.33333334 41:0.11111111 398:1 399:1 2131:0.5 2152:0.5 2158:0.5 2161:0.5 2180:0.5 2181:0.5 2182:0.5 2185:0.5 
-0.57462254335866491672391020983923 1:0.01923077 7:0.5 18:0.085714288 83:0.25 181:0.16666667 1806:1 2121:0.5 2126:0.5 2130:0.5 2133:0.5 2136:0.5 2158:0.5 2161:0.5 2171:0.5 
-0.084231042974839478998383412999829 1:0.02884615 7:0.33333334 18:0.085714288 108:0.5 325:1 328:1 362:1 363:1 2121:0.5 2126:0.5 2130:0.5 2133:0.5 2136:0.5 2158:0.5 2160:0.5 2161:0.5 
-0.84295794612172014748097126357607 1:0.0096153803 17:1 18:0.085714288 2121:0.5 2126:0.5 2130:0.5 2133:0.5 2136:0.5 2160:0.5 2161:0.5 2192:0.5 
0.57298972137506509749727001690189 1:0.03846154 2:0.5 7:0.75 18:0.01428571 38:0.33333334 40:0.33333334 43:0.1 181:0.33333334 194:1 219:1 221:0.2 222:0.33333334 2110:0.5 2120:0.5 2162:0.5 2179:0.5 
-0.45696042055979740892368567983794 1:0.0096153803 15:1 18:0.24285714 76:1 2134:0.5 2174:0.5 2176:0.5 2178:0.5 
-0.30073902048675199560889836902788 1:0.07692308 5:0.125 6:0.25 7:0.375 9:0.125 16:0.125 18:0.071428567 19:0.06666667 30:0.2 33:0.125 35:0.25 38:0.33333334 43:0.2 99:0.125 181:0.16666667 196:0.25 322:0.25 349:0.33333334 483:1 608:0.16666667 813:0.5 922:1 1121:1 1125:1 1552:1 1860:1 2121:0.5 2123:0.5 2126:0.5 2127:0.5 2128:0.5 2155:0.5 2166:0.5 2190:0.5 2216:0.5 
-0.31693523760358327523434240902134 1:0.02884615 13:0.66666669 17:0.33333334 18:0.028571431 84:0.25 467:1 484:1 1401:1 2114:0.5 2124:0.5 2125:0.5 2212:0.5 2213:0.5 
-0.2258057707277471015672176690714 1:0.096153848 7:0.80000001 11:0.2 18:0.071428567 150:0.026666669 152:1 156:1 357:1 1473:1 2003:1 2121:0.5 2126:0.5 2128:0.5 2130:0.5 2132:0.5 2155:0.5 2158:0.5 2160:0.5 2168:0.5 
0.44066709120365221696857815913972 1:0.01923077 2:1 7:0.5 18:0.057142861 38:0.33333334 40:0.33333334 43:0.1 222:0.33333334 588:1 2110:0.5 2112:0.5 2113:0.5 2123:0.5 2131:0.5 2135:0.5 2162:0.5 
-0.34148758329018830126599937102583 1:0.057692312 9:0.16666667 12:0.16666667 17:0.16666667 18:0.085714288 27:0.2857143 66:0.33333334 84:0.25 85:0.25 86:1 110:0.5 142:0.25 257:0.5 258:0.5 330:1 2120:0.5 2127:0.5 2143:0.5 2169:0.5 2170:0.5 2172:0.5 2176:0.5 2178:0.5 
-0.60441151236520962442000381997786 1:0.01923077 9:1 18:0.17142858 43:0.1 66:0.33333334 73:1 74:0.25 75:0.25 2134:0.5 2155:0.5 2159:0.5 2174:0.5 2176:0.5 2178:0.5 
-0.36668670016811494294373119373631 1:0.01923077 3:0.5 18:0.12857144 22:0.01219512 27:0.14285713 55:0.16666667 2125:0.5 2150:0.5 2154:0.5 2172:0.5 2174:0.5 2176:0.5 2178:0.5 
0.93341561068160583403141572489403 1:0.02884615 2:0.66666669 7:0.66666669 18:0.2857143 38:0.33333334 40:0.33333334 43:0.1 222:0.33333334 357:0.125 364:0.5 365:0.5 2121:0.5 2126:0.5 2130:0.5 2133:0.5 2171:0.5 2185:0.5 2192:0.5 2194:0.5 
0.42562546022043795668210464100412 1:0.02884615 2:0.66666669 7:0.66666669 18:0.24285714 38:0.33333334 40:0.33333334 43:0.1 222:0.33333334 357:0.125 364:0.5 365:0.5 2161:0.5 2171:0.5 2179:0.5 2180:0.5 2181:0.5 2182:0.5 2185:0.5 2192:0.5 
-0.23714936969050623427612833893363 1:0.1826923 2:0.10526316 3:0.21052632 5:0.10526316 6:0.21052632 7:0.052631579 14:0.052631579 16:0.052631579 18:0.15714286 19:0.13333333 22:0.04878049 27:0.2857143 29:0.2 30:0.2 32:0.25 33:0.125 35:0.25 38:0.33333334 39:0.5 40:0.33333334 41:0.11111111 43:0.1 44:0.01538462 52:0.2 53:0.2857143 56:0.01639344 61:0.25 109:0.25 148:0.2 170:1 171:0.5 172:0.5 196:0.25 227:0.5 287:0.33333334 339:1 500:1 1067:1 1158:1 1302:1 2121:0.5 2126:0.5 2130:0.5 2173:0.5 2182:0.5 2185:0.5 2194:0.5 2218:0.5 
-0.26920876247946845527536652298295 1:0.067307688 2:0.28571427 3:0.14285713 5:0.14285713 7:0.2857143 9:0.14285713 18:0.01428571 19:0.06666667 20:0.2 22:0.01219512 38:0.33333334 40:0.33333334 43:0.30000001 74:0.25 75:0.25 144:0.5 222:0.33333334 557:1 588:1 774:1 775:1 776:1 2110:0.5 2111:0.5 2146:0.5 2151:0.5 2163:0.5 2214:0.5 
-1.1753805265435928184558633802226 1:0.01923077 7:0.5 10:0.5 18:0.085714288 181:0.16666667 183:0.5 184:1 2122:0.5 2127:0.5 2132:0.5 2136:0.5 
-0.98387157540421432688759750817553 1:0.03846154 5:0.25 7:0.25 14:0.25 17:0.25 18:0.01428571 19:0.06666667 41:0.11111111 43:0.1 105:0.5 123:0.5 181:0.16666667 2110:0.5 2162:0.5 2212:0.5 2213:0.5 
-0.22240870440173723943111383505311 1:0.02884615 7:0.33333334 9:0.33333334 18:0.1 43:0.1 71:0.5 74:0.25 75:0.25 186:0.25 262:0.25 469:1 2120:0.5 2121:0.5 2124:0.5 2136:0.5 2155:0.5 2158:0.5 2166:0.5 2176:0.5 
-0.29794085305117040674005579603545 1:0.096153848 2:0.2 4:0.1 5:0.40000001 7:0.2 14:0.1 17:0.1 18:0.17142858 19:0.26666668 23:0.14285713 38:0.33333334 40:0.33333334 41:0.11111111 43:0.40000001 54:0.11111111 56:0.01639344 105:0.5 119:0.25 123:0.5 148:0.40000001 189:0.16666667 357:0.125 364:0.5 366:0.5 431:0.33333334 823:1 988:0.5 1135:1 2121:0.5 2126:0.5 2130:0.5 2133:0.5 2175:0.5 2183:0.5 2196:0.5 2219:0.5 
-0.15531501986456475172815316909691 1:0.16346154 2:0.11764706 4:0.05882353 5:0.17647059 6:0.17647059 7:0.05882353 9:0.05882353 18:0.01428571 19:0.2 27:0.14285713 29:0.2 30:0.1 34:0.33333334 38:0.33333334 39:0.5 40:0.33333334 43:0.30000001 54:0.11111111 74:0.25 75:0.25 81:0.5 124:0.16666667 144:0.5 165:1 172:0.5 200:0.25 251:1 337:0.25 366:0.5 389:0.5 440:1 536:1 538:1 768:1 1138:1 1161:1 1231:1 1838:1 2087:1 2110:0.5 2111:0.5 2143:0.5 2146:0.5 
-0.63965857700910966343599284300581 1:0.03846154 7:0.5 18:0.15714286 38:0.33333334 124:0.16666667 322:0.25 595:0.33333334 596:0.33333334 786:0.33333334 789:0.33333334 1441:1 2121:0.5 2126:0.5 2130:0.5 2133:0.5 2158:0.5 2160:0.5 2195:0.5 2196:0.5 
-0.66439035993095241217076818429632 1:0.0096153803 7:1 18:0.15714286 797:1 2121:0.5 2126:0.5 2130:0.5 2136:0.5 2158:0.5 2160:0.5 2161:0.5 2168:0.5 
-0.25142285397470381935747241186618 1:0.057692312 14:0.33333334 18:0.14285713 27:0.14285713 41:0.22222222 61:0.25 65:0.33333334 67:0.5 69:0.5 92:0.5 95:1 122:0.5 140:1 2134:0.5 2159:0.5 2174:0.5 2176:0.5 2178:0.5 2185:0.5 
-0.15475356690128946879347893172962 1:0.0096153803 7:1 18:0.01428571 43:0.2 1864:1 1909:1 1910:1 1911:1 1912:1 1913:1 1914:1 2112:0.5 2162:0.5 2163:0.5 2182:0.5 
-0.15419610359821803169388942933438 1:0.11538462 2:0.16666666 3:0.083333328 5:0.16666667 7:0.16666667 14:0.33333334 17:0.083333328 18:0.01428571 19:0.13333333 22:0.01219512 27:0.14285713 38:0.33333334 39:0.5 40:0.33333334 41:0.44444445 43:0.1 45:0.5 55:0.16666667 56:0.01639344 105:1 123:0.5 166:0.5 181:0.16666667 224:0.5 366:0.5 1150:1 1158:1 1998:1 1999:1 2110:0.5 2111:0.5 2143:0.5 2146:0.5 
-0.18418432307339333009466031398915 1:0.03846154 5:0.25 6:0.25 18:0.3142857 19:0.06666667 27:0.14285713 29:0.1 65:0.33333334 68:0.5 402:1 1169:1 2159:0.5 2172:0.5 2174:0.5 2176:0.5 2178:0.5 
-0.41810887269599789073382112292165 1:0.02884615 5:0.33333334 18:0.11428571 19:0.06666667 27:0.14285713 62:0.5 142:0.25 257:0.5 2136:0.5 2155:0.5 2157:0.5 2174:0.5 2176:0.5 2182:0.5 
-0.11549664168604514835614338608138 1:0.057692312 3:0.16666667 5:0.16666667 12:0.33333334 17:0.16666667 18:0.3142857 19:0.06666667 22:0.01219512 43:0.1 65:0.33333334 84:0.25 85:0.5 86:1 238:0.5 291:0.5 1168:1 1169:1 1524:1 2159:0.5 2172:0.5 2174:0.5 2176:0.5 2178:0.5 
0.41704811842806205346434467173822 1:0.02884615 2:0.66666669 7:0.66666669 18:0.085714288 38:0.33333334 40:0.33333334 43:0.1 222:0.33333334 357:0.125 364:0.5 365:0.5 2122:0.5 2123:0.5 2128:0.5 2135:0.5 2148:0.5 2149:0.5 2150:0.5 2151:0.5 
-0.39620828740363223108289503215929 1:0.01923077 6:0.5 7:0.5 18:0.071428567 30:0.1 38:0.33333334 1061:1 2120:0.5 2121:0.5 2123:0.5 2127:0.5 2128:0.5 2153:0.5 2155:0.5 2156:0.5 
-1.07877450302388488978522218531 1:0.03846154 7:1 18:0.071428567 2123:0.5 2127:0.5 2148:0.5 2149:0.5 2150:0.5 2151:0.5 2171:0.5 2202:0.5 
-0.17065681332437987460792783167562 1:0.04807692 2:0.40000001 17:0.2 18:0.057142861 40:0.33333334 43:0.2 66:0.33333334 73:1 366:0.5 385:0.5 1550:1 1551:1 2112:0.5 2139:0.5 2158:0.5 2162:0.5 2183:0.5 2210:0.5 2217:0.5 
-0.31494847235701450838263326659217 1:0.02884615 9:0.33333334 18:0.2 43:0.1 66:0.33333334 73:1 74:0.25 75:0.25 2129:0.5 2155:0.5 2157:0.5 2174:0.5 2176:0.5 2178:0.5 
-0.33056230461064672887516735499958 1:0.03846154 2:0.5 17:0.25 18:0.21428572 40:0.33333334 43:0.2 186:0.25 191:1 262:0.25 366:0.5 569:1 1263:1 2121:0.5 2126:0.5 2130:0.5 2133:0.5 2183:0.5 2194:0.5 2196:0.5 2219:0.5 
-0.46693729748482282193577930229367 1:0.086538456 2:0.22222222 5:0.33333334 7:0.22222222 14:0.11111111 18:0.04285714 19:0.2 23:0.14285713 38:0.33333334 40:0.33333334 41:0.11111111 43:0.40000001 148:0.2 166:0.5 189:0.33333334 222:0.33333334 349:0.33333334 352:0.5 357:0.125 364:0.5 365:0.5 366:0.5 431:0.33333334 2110:0.5 2112:0.5 2143:0.5 2162:0.5 2183:0.5 2184:0.5 
-0.25436496016175003109793806288508 1:0.01923077 7:0.5 18:0.01428571 389:0.5 2010:1 2110:0.5 2111:0.5 2116:0.5 2117:0.5 
-0.15883993670295337707898397638928 1:0.11538462 3:0.25 7:0.083333328 14:0.16666667 18:0.11428571 22:0.036585368 27:0.2857143 38:0.33333334 41:0.22222222 45:0.5 52:0.2 53:0.14285713 55:0.33333334 96:0.33333334 171:0.5 172:0.5 391:0.5 504:1 812:1 897:1 898:1 2121:0.5 2126:0.5 2130:0.5 2131:0.5 2133:0.5 2136:0.5 2158:0.5 2161:0.5 2192:0.5 
-0.11596937021544269363904078318228 1:0.086538456 5:0.22222222 6:0.11111111 7:0.33333334 9:0.33333334 18:0.057142861 19:0.13333333 29:0.1 38:1 75:0.25 259:0.66666669 496:1 521:0.33333334 813:1 857:1 1136:1 1529:1 1948:1 2121:0.5 2123:0.5 2126:0.5 2127:0.5 2155:0.5 2156:0.5 2166:0.5 
-0.062082867217880595422929701499015 1:0.096153848 7:0.60000002 11:0.2 18:0.085714288 38:0.66666669 124:0.33333334 150:0.026666669 152:1 156:1 181:0.33333334 322:0.5 789:0.66666669 1475:1 2088:1 2089:1 2090:1 2091:1 2121:0.5 2126:0.5 2128:0.5 2130:0.5 2132:0.5 2158:0.5 2160:0.5 2168:0.5 2217:0.5 
-1.3501341034462126522441849374445 1:0.02884615 18:0.057142861 108:0.5 325:1 328:1 2118:0.5 2122:0.5 2123:0.5 2159:0.5 
-0.20860929813318473957650667216512 1:0.02884615 18:0.01428571 108:0.5 118:0.5 325:1 328:1 793:1 2150:0.5 2162:0.5 2210:0.5 2212:0.5 
-0.24405420853294254590615253164287 1:0.067307688 6:0.42857143 7:0.2857143 9:0.14285713 18:0.04285714 30:0.30000001 38:0.33333334 43:0.30000001 99:0.125 196:0.25 199:0.33333334 222:0.33333334 349:0.33333334 352:0.5 357:0.125 364:0.5 439:0.5 446:1 610:1 1286:1 2118:0.5 2122:0.5 2168:0.5 2179:0.5 2180:0.5 2181:0.5 
0.31382639878302875935389693040634 1:0.067307688 2:0.5714286 5:0.2857143 7:0.2857143 17:0.14285713 18:0.1 19:0.13333333 38:0.33333334 40:0.66666669 43:0.1 222:0.33333334 357:0.125 364:0.5 365:0.5 526:0.25 1141:1 1426:0.5 2121:0.5 2126:0.5 2127:0.5 2128:0.5 2130:0.5 2132:0.5 2133:0.5 2155:0.5 2160:0.5 2173:0.5 2175:0.5 
-0.21668783651782089205717340973933 1:0.067307688 3:0.2857143 5:0.14285713 7:0.42857143 17:0.14285713 18:0.17142858 19:0.06666667 20:0.2 22:0.024390239 38:1 43:0.30000001 44:0.01538462 222:0.66666669 431:1 2121:0.5 2126:0.5 2130:0.5 2133:0.5 2137:0.5 2140:0.5 2144:0.5 2147:0.5 
-0.1231844795871125386454991712526 1:0.04807692 2:0.40000001 7:0.2 9:0.40000001 17:0.2 18:0.24285714 40:0.33333334 43:0.2 66:0.33333334 75:0.25 223:1 225:1 366:0.5 385:0.5 1818:1 1864:1 1929:1 2121:0.5 2126:0.5 2130:0.5 2133:0.5 2175:0.5 2183:0.5 2184:0.5 2196:0.5 
-0.1140978083016731398080523263161 1:0.1826923 2:0.10526316 3:0.42105263 5:0.21052632 7:0.052631579 18:0.25714287 19:0.26666668 20:0.2 21:0.66666669 22:0.097560979 27:0.14285713 38:0.33333334 39:0.5 40:0.33333334 43:0.2 44:0.061538462 51:0.125 56:0.01639344 58:0.2 61:0.25 78:0.33333334 80:0.5 82:0.5 104:0.5 108:1 189:0.16666667 216:1 279:0.5 324:0.5 431:0.33333334 477:0.5 647:1 1302:1 2121:0.5 2126:0.5 2130:0.5 2133:0.5 2137:0.5 2140:0.5 2144:0.5 2147:0.5 
-0.17068023340911614438297760898422 1:0.057692312 3:0.16666667 5:0.16666667 13:0.16666667 17:0.16666667 18:0.028571431 19:0.06666667 22:0.01219512 69:0.5 84:0.25 118:0.5 280:0.33333334 396:1 467:0.5 484:1 670:1 1129:1 2124:0.5 2150:0.5 2155:0.5 2162:0.5 2210:0.5 2212:0.5 
-0.14273850432439877389256821516028 1:0.01923077 7:0.5 18:0.11428571 56:0.01639344 357:0.125 987:0.5 1032:1 1748:1 2128:0.5 2132:0.5 2155:0.5 2156:0.5 2158:0.5 2166:0.5 2188:0.5 2214:0.5 
-0.42256071126596844722556056694884 1:0.0096153803 18:0.11428571 27:0.14285713 2111:0.5 2112:0.5 2143:0.5 2150:0.5 2172:0.5 2174:0.5 2176:0.5 2178:0.5 
-0.21688524544952567096878226493573 1:0.02884615 6:0.33333334 7:0.33333334 18:0.085714288 29:0.1 38:0.33333334 96:0.33333334 261:1 697:0.5 2121:0.5 2126:0.5 2127:0.5 2130:0.5 2132:0.5 2136:0.5 2155:0.5 2156:0.5 
-0.26849420001402996005523959865968 1:0.04807692 7:0.2 18:0.1 43:0.1 66:0.66666669 73:1 237:0.33333334 331:1 385:0.5 2121:0.5 2126:0.5 2130:0.5 2132:0.5 2133:0.5 2155:0.5 2158:0.5 2185:0.5 
-0.098276217713562624700429637414345 1:0.02884615 7:0.66666669 11:0.33333334 18:0.18571429 150:0.01333333 152:0.5 156:0.5 322:0.25 594:0.5 1670:1 1671:1 2121:0.5 2126:0.5 2130:0.5 2133:0.5 2161:0.5 2185:0.5 2191:0.5 2192:0.5 
-0.39390885793600799447133908870455 1:0.01923077 14:0.5 17:0.5 18:0.32857144 41:0.11111111 84:0.25 93:0.33333334 2125:0.5 2154:0.5 2170:0.5 2172:0.5 2174:0.5 2176:0.5 2178:0.5 
-0.090911773928905870167938019221765 1:0.13461538 2:0.14285713 3:0.21428572 7:0.14285713 12:0.071428567 14:0.071428567 17:0.14285713 18:0.1 22:0.036585368 27:0.2857143 38:0.33333334 40:0.33333334 41:0.11111111 43:0.1 44:0.01538462 55:0.16666667 61:0.25 65:0.33333334 84:0.5 85:0.25 86:1 90:0.33333334 93:0.33333334 94:1 109:0.25 110:0.5 220:1 222:0.33333334 316:1 357:0.125 364:0.5 365:0.5 1396:1 2136:0.5 2141:0.5 2157:0.5 2182:0.5 2183:0.5 2184:0.5 
-0.18410605913051342197306325942918 1:0.067307688 5:0.42857143 7:0.42857143 14:0.14285713 18:0.01428571 19:0.2 23:0.14285713 38:0.33333334 41:0.11111111 43:0.30000001 148:0.2 181:0.16666667 188:0.5 189:0.16666667 221:0.2 222:0.33333334 357:0.125 364:0.5 823:1 1139:1 2110:0.5 2112:0.5 2143:0.5 2149:0.5 2162:0.5 
-0.27657205037711513062603785328974 1:0.10576923 2:0.18181819 5:0.45454544 7:0.18181819 14:0.090909094 17:0.090909094 18:0.01428571 19:0.33333334 23:0.5714286 38:0.33333334 39:0.5 40:0.33333334 41:0.11111111 43:0.2 65:0.33333334 166:0.5 181:0.16666667 194:1 366:0.5 485:1 811:0.5 2110:0.5 2111:0.5 2121:0.5 2126:0.5 
-0.06421611028294411938066588163565 1:0.13461538 6:0.14285713 7:0.35714287 9:0.14285713 11:0.071428567 16:0.071428567 18:0.028571431 29:0.2 33:0.125 38:0.33333334 43:0.1 66:0.33333334 71:0.5 72:1 73:1 74:0.25 75:0.25 124:0.33333334 156:0.5 322:0.25 417:0.5 418:1 501:0.33333334 591:1 593:1 594:1 595:0.66666669 596:0.66666669 732:1 1369:1 1370:1 1371:1 1372:1 1373:1 1374:1 1375:1 1376:1 1377:1 1378:1 2110:0.5 2155:0.5 2162:0.5 2212:0.5 2213:0.5 
-0.089036987380307477946139727009722 1:0.11538462 5:0.16666667 7:0.083333328 13:0.16666667 17:0.083333328 18:0.01428571 19:0.13333333 84:0.25 88:0.5 96:0.33333334 108:0.5 282:0.33333334 314:1 315:1 322:0.25 383:0.5 467:1 484:1 549:1 583:1 670:1 1499:1 1568:1 1569:1 1570:1 2181:0.5 2182:0.5 2210:0.5 2212:0.5 
-0.12650685123757415828649186551047 1:0.02884615 7:0.33333334 9:0.33333334 18:0.11428571 38:0.33333334 65:0.33333334 259:0.33333334 662:1 2017:1 2128:0.5 2132:0.5 2155:0.5 2156:0.5 2158:0.5 2166:0.5 2199:0.5 
-0.10871887196464700975351291845072 1:0.067307688 2:0.28571427 3:0.42857143 6:0.14285713 14:0.14285713 16:0.14285713 18:0.071428567 22:0.036585368 30:0.1 33:0.125 40:0.33333334 41:0.11111111 44:0.030769231 109:0.25 150:0.01333333 220:1 267:0.5 312:1 506:1 2110:0.5 2111:0.5 2116:0.5 2117:0.5 2128:0.5 2134:0.5 2135:0.5 2139:0.5 
-0.10456001390773035641945654106166 1:0.057692312 7:0.66666669 11:0.16666667 18:0.11428571 56:0.01639344 124:0.16666667 150:0.01333333 156:0.5 357:0.5 737:1 742:1 1037:1 1473:0.5 1476:1 1477:1 2121:0.5 2126:0.5 2130:0.5 2155:0.5 2158:0.5 2160:0.5 2168:0.5 2185:0.5 2195:0.5 2196:0.5 
-0.095016694414960536918535183303902 1:0.13461538 4:0.14285713 7:0.5 11:0.14285713 18:0.15714286 38:1 43:0.1 54:0.22222222 56:0.01639344 83:0.25 150:0.01333333 154:0.5 156:1 158:0.5 173:1 284:0.5 322:1 333:0.5 526:0.25 741:1 789:0.66666669 790:1 1135:1 1155:1 1157:1 1516:0.5 2062:1 2063:1 2121:0.5 2126:0.5 2130:0.5 2133:0.5 2158:0.5 2160:0.5 2161:0.5 2177:0.5 2197:0.5 
-0.082038787417154951375763971554989 1:0.11538462 2:0.16666666 3:0.083333328 5:0.16666667 6:0.083333328 7:0.25 14:0.083333328 18:0.01428571 19:0.13333333 20:0.2 22:0.01219512 29:0.1 38:0.66666669 40:0.33333334 41:0.11111111 43:0.2 74:0.25 75:0.25 108:0.5 222:0.33333334 279:0.5 337:0.25 418:0.5 557:1 574:1 762:1 763:1 812:1 813:0.5 1326:1 1372:1 2110:0.5 2111:0.5 2146:0.5 2210:0.5 
-0.053696229336540765575414013710542 1:0.01923077 7:0.5 18:0.11428571 124:0.16666667 593:0.5 594:0.5 595:0.33333334 596:0.33333334 2142:0.5 2145:0.5 2160:0.5 2161:0.5 2179:0.5 2180:0.5 2181:0.5 2182:0.5 2192:0.5 
-0.15477331153855158896170962634642 1:0.03846154 6:0.25 7:0.25 9:0.25 18:0.085714288 30:0.1 43:0.2 83:0.25 196:0.25 237:0.33333334 253:0.5 349:0.33333334 352:0.5 665:1 1295:1 2121:0.5 2126:0.5 2130:0.5 2133:0.5 2136:0.5 2155:0.5 2160:0.5 2161:0.5 2173:0.5 2192:0.5 2194:0.5 
-0.067397887179939830470942752072006 1:0.07692308 6:0.25 7:0.375 9:0.125 18:0.085714288 29:0.2 31:0.25 38:0.33333334 43:0.1 75:0.25 144:0.5 186:0.25 237:0.33333334 321:0.33333334 322:0.25 404:1 483:1 501:0.33333334 591:1 1370:1 1376:1 2121:0.5 2126:0.5 2128:0.5 2130:0.5 2132:0.5 2155:0.5 2158:0.5 2168:0.5 
-0.17218739800630133984782332845498 1:0.04807692 7:0.60000002 11:0.2 18:0.14285713 38:0.33333334 124:0.16666667 150:0.01333333 152:0.5 156:0.5 181:0.16666667 322:0.25 789:0.33333334 1475:0.5 2088:0.5 2089:0.5 2090:0.5 2091:0.5 2121:0.5 2126:0.5 2130:0.5 2168:0.5 2191:0.5 2192:0.5 2194:0.5 2196:0.5 
0.22310893259429953605632590551977 1:0.01923077 2:1 7:0.5 18:0.085714288 38:0.33333334 40:0.33333334 43:0.1 222:0.33333334 588:1 2116:0.5 2119:0.5 2127:0.5 2128:0.5 2129:0.5 2132:0.5 2143:0.5 2171:0.5 
-0.18248456966988046978883630799828 1:0.03846154 7:0.25 18:0.085714288 108:0.5 115:0.33333334 325:1 328:1 584:1 2121:0.5 2122:0.5 2126:0.5 2127:0.5 2128:0.5 2129:0.5 2130:0.5 2132:0.5 
-0.065461814876929452777787332706794 1:0.10576923 2:0.18181819 4:0.27272728 7:0.18181819 14:0.090909094 17:0.090909094 18:0.028571431 38:0.33333334 40:0.33333334 41:0.11111111 43:0.2 54:0.33333334 56:0.032786891 119:0.25 150:0.01333333 209:0.2 233:0.33333334 366:0.5 410:1 456:1 457:1 499:1 597:1 841:1 988:0.5 1135:1 1158:1 2110:0.5 2112:0.5 2162:0.5 2183:0.5 2210:0.5 
-0.087248127083447854501763174539519 1:0.10576923 3:0.090909094 5:0.36363637 7:0.27272728 14:0.090909094 17:0.090909094 18:0.01428571 19:0.26666668 22:0.01219512 23:0.14285713 38:0.33333334 41:0.11111111 43:0.30000001 124:0.16666667 148:0.2 150:0.01333333 181:0.33333334 188:0.5 189:0.16666667 221:0.40000001 244:0.33333334 247:0.5 256:0.5 266:1 569:1 1138:1 1139:1 2110:0.5 2111:0.5 2143:0.5 2146:0.5 
-0.073338388697343520616911405340943 1:0.03846154 7:0.25 9:0.5 16:0.25 18:0.071428567 33:0.125 38:0.33333334 75:0.25 259:0.33333334 481:0.5 496:1 592:0.5 2128:0.5 2132:0.5 2150:0.5 2153:0.5 2155:0.5 2158:0.5 2187:0.5 2188:0.5 
-0.18200710019083973789655317432334 1:0.01923077 7:0.5 18:0.071428567 71:0.5 78:0.33333334 2121:0.5 2126:0.5 2128:0.5 2130:0.5 2132:0.5 2155:0.5 2158:0.5 2168:0.5 
-0.0092856496555861721409197429011328 1:0.057692312 7:0.16666667 14:0.16666667 17:0.16666667 18:0.15714286 27:0.14285713 41:0.11111111 43:0.1 67:0.5 69:0.5 84:0.25 93:0.33333334 110:0.5 357:0.125 364:0.5 675:1 1279:0.33333334 2127:0.5 2132:0.5 2155:0.5 2156:0.5 2179:0.5 2180:0.5 2216:0.5 2221:0.5 
-0.1187393700671517532407861494903 1:0.03846154 2:0.5 9:0.5 17:0.25 18:0.17142858 40:0.33333334 43:0.2 74:0.5 75:0.5 144:0.5 223:1 366:0.5 369:1 2121:0.5 2126:0.5 2130:0.5 2133:0.5 2175:0.5 2183:0.5 2184:0.5 2185:0.5 
-0.15951364281174854053979572654498 1:0.03846154 2:0.5 3:0.5 18:0.5 22:0.024390239 40:0.33333334 44:0.01538462 220:1 282:0.33333334 2137:0.5 2140:0.5 2144:0.5 2147:0.5 2201:0.5 
-0.064335104159182032734776157667511 1:0.067307688 8:0.28571427 12:0.14285713 14:0.14285713 17:0.14285713 18:0.071428567 27:0.14285713 41:0.11111111 56:0.01639344 61:0.25 64:0.5 65:0.33333334 84:0.25 85:0.25 91:0.5 93:0.33333334 94:1 139:0.5 141:0.5 316:1 318:1 2120:0.5 2122:0.5 2128:0.5 2150:0.5 2156:0.5 2174:0.5 2176:0.5 2179:0.5 2181:0.5 
-0.073848440375504614818780169116508 1:0.04807692 7:0.60000002 11:0.2 18:0.1 38:0.33333334 150:0.01333333 152:0.5 156:0.5 322:0.5 789:0.33333334 790:0.5 1155:0.5 1156:1 1157:0.5 2142:0.5 2145:0.5 2160:0.5 2161:0.5 2168:0.5 2179:0.5 2180:0.5 2181:0.5 2192:0.5 
-0.0887713630148077165182840531088 1:0.057692312 5:0.16666667 6:0.16666667 12:0.16666667 18:0.35714287 19:0.06666667 27:0.14285713 29:0.1 43:0.1 61:0.25 62:0.5 67:0.5 69:0.5 82:0.5 85:0.25 200:0.25 675:1 911:1 2159:0.5 2172:0.5 2174:0.5 2176:0.5 2178:0.5 
-0.060137983624503864310550937943844 1:0.067307688 5:0.2857143 13:0.14285713 18:0.057142861 19:0.13333333 27:0.2857143 43:0.1 62:1 142:0.25 257:0.5 466:1 467:0.5 472:0.5 473:0.5 514:0.5 736:1 930:1 2118:0.5 2121:0.5 2122:0.5 2123:0.5 2126:0.5 2130:0.5 2133:0.5 
-0.10377679029614235439726854792752 1:0.02884615 18:0.04285714 37:1 108:0.5 325:1 328:1 478:1 2118:0.5 2122:0.5 2148:0.5 2149:0.5 2150:0.5 2151:0.5 
-0.047482790459731923082831173132945 1:0.067307688 5:0.14285713 6:0.2857143 7:0.14285713 9:0.14285713 18:0.1 19:0.06666667 27:0.14285713 29:0.2 31:0.25 38:0.33333334 43:0.2 62:0.5 142:0.25 189:0.16666667 257:0.5 337:0.25 349:0.33333334 352:0.5 431:0.33333334 1948:1 2119:0.5 2124:0.5 2136:0.5 2143:0.5 2146:0.5 2155:0.5 2158:0.5 2175:0.5 2192:0.5 
-0.018652449057521905406709095132101 1:0.125 2:0.15384616 5:0.07692308 6:0.07692308 7:0.15384614 13:0.07692308 14:0.23076923 17:0.07692308 18:0.01428571 19:0.06666667 27:0.14285713 30:0.1 38:0.33333334 40:0.33333334 41:0.33333334 43:0.1 45:0.5 56:0.01639344 105:0.5 150:0.01333333 286:0.5 366:0.5 403:1 467:0.5 504:1 549:1 557:1 760:1 763:1 803:1 988:0.5 1258:1 1449:1 1978:1 2110:0.5 2112:0.5 2143:0.5 2149:0.5 2162:0.5 
0.031974179211054658267254779957511 1:0.02884615 2:0.66666669 7:0.66666669 18:0.057142861 38:0.33333334 40:0.33333334 43:0.1 222:0.33333334 357:0.125 364:0.5 365:0.5 2115:0.5 2118:0.5 2123:0.5 2131:0.5 2151:0.5 2166:0.5 2187:0.5 
-0.016669494303773780413679972411956 1:0.07692308 6:0.25 7:0.625 18:0.12857144 30:0.2 56:0.032786891 124:0.16666667 150:0.01333333 181:0.16666667 322:0.5 357:0.25 426:0.66666669 922:0.5 1124:1 1473:0.16666667 1475:0.5 1477:1 1859:1 2000:1 2056:1 2088:0.5 2089:0.5 2090:0.5 2091:0.5 2121:0.5 2126:0.5 2160:0.5 2166:0.5 2185:0.5 2190:0.5 2192:0.5 2194:0.5 
-0.033229920837146535717021578193453 1:0.04807692 5:0.40000001 7:0.2 9:0.40000001 18:0.22857143 19:0.13333333 38:0.33333334 43:0.2 75:0.25 148:0.2 189:0.16666667 349:0.33333334 352:0.5 665:1 813:0.5 1136:1 2136:0.5 2155:0.5 2158:0.5 2161:0.5 2166:0.5 2190:0.5 2210:0.5 2215:0.5 
-0.023010584405218116599289857049371 1:0.02884615 18:0.12857144 37:1 61:0.25 1034:1 1035:1 1127:1 2117:0.5 2131:0.5 2148:0.5 2150:0.5 2151:0.5 2158:0.5 2161:0.5 2179:0.5 2185:0.5 2192:0.5 2196:0.5 
-0.021826690914138129062660453882927 1:0.03846154 7:0.25 18:0.071428567 38:0.33333334 124:0.16666667 142:0.25 233:0.33333334 549:1 1460:1 2122:0.5 2123:0.5 2127:0.5 2128:0.5 2165:0.5 2167:0.5 2169:0.5 2170:0.5 
-0.028627016833420625835371353673509 1:0.04807692 9:0.40000001 18:0.071428567 27:0.2857143 66:0.33333334 75:0.25 142:0.25 257:0.5 258:0.5 330:1 332:1 2123:0.5 2124:0.5 2125:0.5 2127:0.5 2128:0.5 2154:0.5 2155:0.5 
0.060411052028605916053294322409783 1:0.01923077 2:1 7:0.5 18:0.12857144 38:0.33333334 40:0.33333334 43:0.1 222:0.33333334 588:1 2123:0.5 2127:0.5 2128:0.5 2131:0.5 2148:0.5 2150:0.5 2151:0.5 2179:0.5 
-0.011799638395555494055355616467295 1:0.057692312 7:0.33333334 9:0.16666667 18:0.071428567 38:0.33333334 75:0.25 233:0.33333334 259:0.33333334 496:1 594:0.5 604:1 1402:1 2112:0.5 2128:0.5 2132:0.5 2143:0.5 2155:0.5 2156:0.5 2158:0.5 2166:0.5 
-0.012621696430111314576882897142696 1:0.07692308 5:0.125 6:0.125 7:0.125 9:0.25 17:0.125 18:0.071428567 19:0.06666667 30:0.1 38:0.33333334 43:0.2 148:0.2 186:0.25 196:0.25 222:0.33333334 233:0.33333334 259:0.33333334 349:0.33333334 528:1 535:1 1148:1 1149:1 1677:1 1678:1 1679:1 2121:0.5 2123:0.5 2126:0.5 2127:0.5 2128:0.5 2130:0.5 2155:0.5 2168:0.5 
-0.018984972685297290401207348509161 1:0.02884615 7:0.33333334 9:0.33333334 18:0.12857144 38:0.33333334 233:0.33333334 259:0.33333334 528:1 1529:1 2141:0.5 2142:0.5 2155:0.5 2156:0.5 2158:0.5 2179:0.5 2180:0.5 2181:0.5 
-0.0074486745590403892480768632822219 1:0.07692308 3:0.125 5:0.125 7:0.125 9:0.25 17:0.125 18:0.11428571 19:0.06666667 22:0.01219512 38:0.33333334 43:0.2 51:0.125 186:0.25 189:0.16666667 222:0.33333334 233:0.33333334 259:0.33333334 349:0.33333334 511:0.5 528:1 1031:1 1148:1 2107:1 2108:1 2109:1 2121:0.5 2126:0.5 2127:0.5 2130:0.5 2133:0.5 2155:0.5 2185:0.5 2194:0.5 
-0.007542294026968136659572206070834 1:0.07692308 2:0.25 5:0.125 7:0.125 14:0.375 18:0.01428571 19:0.06666667 27:0.14285713 38:0.33333334 39:0.5 40:0.33333334 41:0.33333334 43:0.1 45:0.5 56:0.01639344 95:1 105:0.5 161:1 366:0.5 479:1 899:0.5 1415:1 2110:0.5 2111:0.5 2146:0.5 2151:0.5 2163:0.5 
-0.020072614852178007754934796480484 1:0.03846154 4:0.25 17:0.25 18:0.04285714 54:0.11111111 108:0.5 325:1 328:1 2122:0.5 2127:0.5 2143:0.5 2146:0.5 2148:0.5 2149:0.5 2150:0.5 
-0.018933941237148539660228863112934 1:0.02884615 7:0.33333334 9:0.66666669 18:0.1 43:0.1 66:0.33333334 73:1 74:0.25 75:0.25 237:0.33333334 331:1 2132:0.5 2136:0.5 2155:0.5 2158:0.5 2179:0.5 2180:0.5 2181:0.5 2182:0.5 
-0.00941952274592334007352611990882 1:0.01923077 7:0.5 9:0.5 18:0.11428571 259:0.33333334 560:1 1201:1 2141:0.5 2142:0.5 2155:0.5 2156:0.5 2157:0.5 2158:0.5 
-0.012132470636249352916036237104436 1:0.01923077 7:0.5 18:0.15714286 124:0.16666667 593:0.5 594:0.5 595:0.33333334 596:0.33333334 2121:0.5 2126:0.5 2130:0.5 2133:0.5 2173:0.5 2185:0.5 2194:0.5 2218:0.5 
-0.0046499132760846034057022890806365 1:0.057692312 7:0.16666667 14:0.16666667 17:0.16666667 18:0.04285714 27:0.14285713 41:0.11111111 43:0.1 67:0.5 69:0.5 84:0.25 93:0.33333334 110:0.5 123:0.5 186:0.25 262:0.25 322:0.25 827:1 2118:0.5 2121:0.5 2122:0.5 2150:0.5 2153:0.5 2164:0.5 
-0.0026607766967562868944130460846509 1:0.03846154 3:0.25 4:0.25 7:0.5 18:0.12857144 22:0.01219512 38:0.33333334 43:0.1 47:0.2 54:0.11111111 222:0.33333334 281:1 283:0.5 456:1 457:1 458:1 2121:0.5 2126:0.5 2130:0.5 2133:0.5 2136:0.5 2137:0.5 2140:0.5 2141:0.5 
