SVM-light Version V5.00
2 # kernel type
3 # kernel parameter -d 
0.1 # kernel parameter -g 
1 # kernel parameter -s 
1 # kernel parameter -r 
empty# kernel parameter -u 
2226 # highest feature index 
18907 # number of training documents 
667 # number of support vectors plus 1 
0.59091353 # threshold b, each following line is a SV (starting with alpha*y)
1.6407581834342914728352980091586 1:0.03846154 3:0.5 4:0.25 14:0.25 18:0.21428572 22:0.024390239 41:0.11111111 44:0.01538462 52:0.2 54:0.11111111 263:0.5 2137:0.5 2140:0.5 2144:0.5 2147:0.5 2154:0.5 2181:0.5 2182:0.5 
0.68090397694947768503226370739867 1:0.11538462 3:0.66666669 4:0.083333328 5:0.083333328 18:0.24285714 19:0.06666667 22:0.097560979 27:0.14285713 42:0.11111111 43:0.1 44:0.061538462 48:0.16666667 51:0.125 53:0.14285713 54:0.11111111 55:0.16666667 56:0.01639344 57:0.2 58:0.2 407:1 1040:1 1043:1 2137:0.5 2140:0.5 2144:0.5 2147:0.5 2182:0.5 2200:0.5 
1.3516180094109817577674448330072 1:0.23076923 3:0.58333331 4:0.041666672 5:0.16666667 14:0.041666672 18:0.15714286 19:0.26666668 22:0.17073171 27:0.14285713 41:0.11111111 43:0.1 44:0.15384614 47:0.2 48:0.16666667 53:0.14285713 54:0.11111111 55:0.16666667 56:0.01639344 57:0.2 58:0.2 61:0.25 80:0.5 82:0.5 96:0.33333334 97:0.5 150:0.01333333 166:0.5 170:1 171:0.5 172:0.5 188:0.5 189:0.16666667 247:0.5 248:1 2137:0.5 2140:0.5 2144:0.5 2177:0.5 2201:0.5 
1.6407581834342914728352980091586 1:0.0096153803 4:1 18:0.24285714 54:0.11111111 2137:0.5 2140:0.5 2144:0.5 2147:0.5 2154:0.5 2181:0.5 2182:0.5 
1.6407581834342914728352980091586 1:0.03846154 3:0.25 6:0.25 18:0.48571429 22:0.01219512 29:0.1 61:0.25 96:0.33333334 128:1 162:0.5 492:0.5 2137:0.5 2140:0.5 2144:0.5 2147:0.5 2201:0.5 
0.99891079189042186747826690407237 1:0.0096153803 14:1 18:0.12857144 41:0.11111111 2118:0.5 2121:0.5 2122:0.5 2123:0.5 2126:0.5 2128:0.5 2130:0.5 2133:0.5 2155:0.5 
0.64766920698040142401197272192803 1:0.067307688 3:0.2857143 5:0.2857143 6:0.14285713 14:0.14285713 18:0.14285713 19:0.13333333 22:0.024390239 23:0.14285713 30:0.1 41:0.11111111 43:0.1 52:0.2 109:0.25 148:0.2 186:0.25 191:1 379:0.5 764:1 1227:1 1739:1 2121:0.5 2126:0.5 2130:0.5 2133:0.5 2137:0.5 2173:0.5 2194:0.5 2196:0.5 
1.6407581834342914728352980091586 1:0.01923077 14:0.5 17:0.5 18:0.17142858 41:0.11111111 229:1 1867:1 2121:0.5 2126:0.5 2130:0.5 2133:0.5 2207:0.5 2208:0.5 2209:0.5 2211:0.5 
1.6407581834342914728352980091586 1:0.057692312 3:0.66666669 4:0.16666667 5:0.16666667 18:0.21428572 19:0.06666667 21:0.33333334 22:0.04878049 44:0.046153851 54:0.11111111 407:1 2137:0.5 2140:0.5 2144:0.5 2147:0.5 2179:0.5 2180:0.5 2181:0.5 2182:0.5 
1.6407581834342914728352980091586 1:0.067307688 3:0.71428573 4:0.14285713 5:0.14285713 18:0.34285715 19:0.06666667 20:0.2 22:0.060975611 44:0.046153851 47:0.2 54:0.11111111 56:0.01639344 57:0.2 58:0.2 2137:0.5 2140:0.5 2144:0.5 2147:0.5 2164:0.5 2179:0.5 2181:0.5 2182:0.5 
-1.6407581834342914728352980091586 1:0.11538462 3:0.58333331 4:0.083333328 5:0.083333328 14:0.083333328 18:0.18571429 19:0.06666667 22:0.085365847 27:0.14285713 41:0.11111111 44:0.061538462 47:0.2 52:0.2 54:0.11111111 55:0.16666667 104:0.5 108:0.5 109:0.25 279:0.5 470:0.33333334 2137:0.5 2140:0.5 2144:0.5 2146:0.5 2147:0.5 2148:0.5 2149:0.5 2151:0.5 2182:0.5 
-1.6407581834342914728352980091586 1:0.07692308 3:0.25 14:0.375 17:0.125 18:0.47142857 22:0.024390239 27:0.14285713 41:0.33333334 45:0.5 52:0.40000001 84:0.25 93:0.33333334 109:0.25 110:0.5 117:0.25 1079:0.5 2121:0.5 2126:0.5 2130:0.5 2133:0.5 2140:0.5 2144:0.5 2147:0.5 2183:0.5 
0.27661850805404297748424369274289 1:0.07692308 3:0.25 4:0.25 5:0.125 14:0.125 16:0.125 18:0.11428571 19:0.06666667 21:0.33333334 22:0.024390239 33:0.125 41:0.11111111 43:0.1 48:0.16666667 54:0.22222222 119:0.25 176:0.5 186:0.25 263:0.5 454:1 1626:1 1627:1 1628:1 1629:1 1630:1 2121:0.5 2126:0.5 2130:0.5 2133:0.5 2136:0.5 2137:0.5 2138:0.5 2161:0.5 
1.6407581834342914728352980091586 1:0.0096153803 18:0.057142861 96:0.33333334 2118:0.5 2121:0.5 2122:0.5 2123:0.5 2126:0.5 2130:0.5 2133:0.5 
1.6407581834342914728352980091586 1:0.0096153803 5:1 18:0.11428571 19:0.06666667 2114:0.5 2121:0.5 2126:0.5 2130:0.5 2133:0.5 2173:0.5 2185:0.5 2193:0.5 2194:0.5 
1.6407581834342914728352980091586 1:0.0096153803 18:0.057142861 96:0.33333334 2118:0.5 2121:0.5 2122:0.5 2123:0.5 2126:0.5 2130:0.5 2133:0.5 
-1.6407581834342914728352980091586 1:0.02884615 3:0.33333334 4:0.33333334 5:0.33333334 18:0.17142858 19:0.06666667 20:0.2 22:0.01219512 47:0.2 54:0.11111111 2121:0.5 2126:0.5 2130:0.5 2133:0.5 2173:0.5 2183:0.5 2185:0.5 2194:0.5 
-1.6407581834342914728352980091586 1:0.03846154 3:0.5 4:0.5 18:0.14285713 22:0.024390239 42:0.11111111 43:0.2 44:0.01538462 51:0.125 54:0.22222222 119:0.25 209:0.2 2121:0.5 2126:0.5 2130:0.5 2133:0.5 2173:0.5 2185:0.5 2194:0.5 2207:0.5 
-0.58122541650533787738197588623734 1:0.067307688 4:0.14285713 7:0.14285713 9:0.14285713 14:0.14285713 18:0.40000001 27:0.14285713 38:0.33333334 41:0.11111111 43:0.1 54:0.11111111 65:0.33333334 66:0.33333334 67:0.5 68:0.5 69:0.5 70:1 222:0.33333334 263:0.5 811:0.5 1505:1 2137:0.5 2140:0.5 2144:0.5 2147:0.5 2152:0.5 2180:0.5 2181:0.5 2182:0.5 
1.0947257014933744478923927090364 1:0.0096153803 4:1 18:0.35714287 54:0.11111111 2111:0.5 2112:0.5 2137:0.5 2140:0.5 2143:0.5 2144:0.5 2147:0.5 2148:0.5 2149:0.5 2151:0.5 2163:0.5 2164:0.5 2181:0.5 2182:0.5 
1.6407581834342914728352980091586 1:0.04807692 3:0.40000001 4:0.2 18:0.17142858 22:0.024390239 25:1 26:0.5 27:0.14285713 47:0.2 53:0.14285713 54:0.11111111 214:0.5 2137:0.5 2140:0.5 2144:0.5 2147:0.5 2179:0.5 2180:0.5 2181:0.5 2182:0.5 
1.1224561887278596827854926232249 1:0.0096153803 4:1 18:0.58571428 54:0.11111111 2137:0.5 2140:0.5 2144:0.5 2147:0.5 2179:0.5 2180:0.5 2181:0.5 2182:0.5 
-1.6407581834342914728352980091586 1:0.01923077 4:1 18:0.24285714 54:0.22222222 133:0.16666667 2137:0.5 2140:0.5 2144:0.5 2147:0.5 2149:0.5 2164:0.5 2166:0.5 2168:0.5 
-1.6407581834342914728352980091586 1:0.086538456 3:0.33333334 5:0.11111111 9:0.11111111 14:0.11111111 18:0.44285715 19:0.06666667 22:0.036585368 27:0.2857143 41:0.11111111 44:0.01538462 53:0.14285713 55:0.16666667 56:0.01639344 58:0.2 66:0.33333334 109:0.25 142:0.25 257:0.5 258:0.5 600:0.5 2137:0.5 2140:0.5 2144:0.5 2147:0.5 2179:0.5 2180:0.5 2181:0.5 2182:0.5 
-1.6407581834342914728352980091586 1:0.01923077 4:1 18:0.40000001 54:0.22222222 133:0.16666667 2137:0.5 2140:0.5 2144:0.5 2147:0.5 2149:0.5 2151:0.5 2153:0.5 2168:0.5 
1.0250067309594457221066932106623 1:0.086538456 3:0.55555558 4:0.11111111 5:0.11111111 14:0.11111111 18:0.071428567 19:0.06666667 20:0.2 22:0.060975611 41:0.11111111 44:0.030769231 47:0.2 48:0.16666667 54:0.11111111 171:0.5 172:0.5 202:1 203:0.5 204:1 228:1 2118:0.5 2121:0.5 2122:0.5 2123:0.5 2126:0.5 2130:0.5 2133:0.5 2202:0.5 
-0.23074261243090860018511989437684 1:0.0096153803 18:0.11428571 83:0.25 2121:0.5 2126:0.5 2127:0.5 2130:0.5 2133:0.5 2155:0.5 2175:0.5 2185:0.5 
1.6407581834342914728352980091586 1:0.0096153803 14:1 18:0.3142857 41:0.11111111 2121:0.5 2126:0.5 2130:0.5 2133:0.5 2173:0.5 2183:0.5 2185:0.5 2194:0.5 
-1.6407581834342914728352980091586 1:0.0096153803 18:0.17142858 96:0.33333334 2121:0.5 2126:0.5 2130:0.5 2132:0.5 2133:0.5 2134:0.5 2158:0.5 2175:0.5 2185:0.5 2192:0.5 2196:0.5 
-1.6407581834342914728352980091586 1:0.0096153803 18:0.25714287 83:0.25 2121:0.5 2126:0.5 2130:0.5 2133:0.5 2171:0.5 2185:0.5 2193:0.5 2194:0.5 
-0.89381328040654783873009137096233 1:0.0096153803 18:0.14285713 781:0.5 2121:0.5 2126:0.5 2130:0.5 2133:0.5 2171:0.5 2185:0.5 2192:0.5 2194:0.5 
1.6407581834342914728352980091586 1:0.01923077 4:0.5 6:0.5 18:0.17142858 30:0.1 54:0.11111111 135:0.33333334 2137:0.5 2140:0.5 2144:0.5 2147:0.5 2201:0.5 
1.6407581834342914728352980091586 1:0.01923077 4:0.5 6:0.5 18:0.32857144 29:0.1 54:0.11111111 463:0.5 2137:0.5 2140:0.5 2144:0.5 2147:0.5 2201:0.5 
0.94415056187264834175465466614696 1:0.1826923 3:0.68421054 4:0.15789475 18:0.38571429 22:0.15853658 27:0.2857143 42:0.22222222 43:0.30000001 44:0.10769231 47:0.2 48:0.16666667 51:0.125 53:0.2857143 54:0.33333334 55:0.33333334 119:0.5 209:0.2 1003:0.5 1004:1 1458:0.5 2137:0.5 2140:0.5 2144:0.5 2147:0.5 2149:0.5 2151:0.5 2166:0.5 2168:0.5 
-1.6407581834342914728352980091586 1:0.02884615 3:0.33333334 14:0.33333334 17:0.33333334 18:0.25714287 22:0.01219512 41:0.11111111 56:0.01639344 57:0.2 109:0.25 2137:0.5 2140:0.5 2144:0.5 2147:0.5 2201:0.5 
-1.6407581834342914728352980091586 1:0.11538462 3:0.58333331 5:0.083333328 14:0.083333328 18:0.27142856 19:0.06666667 20:0.2 22:0.085365847 27:0.2857143 41:0.11111111 44:0.046153851 52:0.2 53:0.2857143 55:0.33333334 171:0.5 172:0.5 228:1 2137:0.5 2140:0.5 2144:0.5 2147:0.5 2154:0.5 2181:0.5 2182:0.5 
-1.6407581834342914728352980091586 1:0.057692312 3:0.33333334 5:0.16666667 14:0.33333334 18:0.38571429 19:0.06666667 20:0.2 22:0.024390239 41:0.22222222 44:0.01538462 52:0.2 65:0.33333334 140:1 372:1 2137:0.5 2140:0.5 2144:0.5 2147:0.5 2201:0.5 
1.6407581834342914728352980091586 1:0.0096153803 5:1 18:0.11428571 19:0.06666667 2121:0.5 2126:0.5 2130:0.5 2133:0.5 2161:0.5 2171:0.5 2185:0.5 2192:0.5 
1.6407581834342914728352980091586 1:0.0096153803 18:0.11428571 96:0.33333334 2121:0.5 2126:0.5 2130:0.5 2133:0.5 2161:0.5 2171:0.5 2185:0.5 2192:0.5 
1.6407581834342914728352980091586 1:0.0096153803 5:1 18:0.22857143 19:0.06666667 2121:0.5 2126:0.5 2130:0.5 2133:0.5 2134:0.5 2161:0.5 2185:0.5 2192:0.5 
-1.6407581834342914728352980091586 1:0.03846154 5:0.75 14:0.25 18:0.1 19:0.2 23:0.2857143 41:0.11111111 166:0.5 2121:0.5 2126:0.5 2130:0.5 2133:0.5 2136:0.5 2161:0.5 2171:0.5 2191:0.5 2192:0.5 
-1.6407581834342914728352980091586 1:0.02884615 5:0.66666669 18:0.085714288 19:0.13333333 23:0.14285713 96:0.33333334 97:0.5 2121:0.5 2122:0.5 2126:0.5 2130:0.5 2133:0.5 2136:0.5 2161:0.5 2192:0.5 
-0.47659447618347633435220700448554 1:0.067307688 2:0.28571427 3:0.14285713 5:0.42857143 7:0.14285713 18:0.21428572 19:0.2 20:0.2 21:0.33333334 22:0.01219512 38:0.33333334 39:0.5 40:0.33333334 43:0.2 148:0.2 189:0.33333334 233:0.33333334 366:0.5 375:1 2121:0.5 2126:0.5 2130:0.5 2133:0.5 2134:0.5 2161:0.5 2185:0.5 2192:0.5 
0.64027293374326088581938165589236 1:0.1826923 3:0.52631581 4:0.21052632 14:0.10526316 18:0.2857143 22:0.12195122 27:0.14285713 41:0.22222222 43:0.1 44:0.061538462 47:0.40000001 48:0.16666667 51:0.125 52:0.40000001 54:0.44444445 55:0.16666667 65:0.33333334 109:0.5 133:0.33333334 172:0.5 228:1 291:0.5 292:0.5 880:1 2137:0.5 2140:0.5 2144:0.5 2147:0.5 2201:0.5 
-0.0035458640092138828288359508889016 1:0.13461538 5:0.071428567 6:0.21428572 7:0.14285713 9:0.14285713 14:0.071428567 16:0.071428567 18:0.028571431 19:0.06666667 28:0.25 29:0.30000001 32:0.25 33:0.125 41:0.11111111 43:0.1 65:0.33333334 74:0.25 75:0.25 83:0.25 115:0.33333334 166:0.5 237:0.33333334 259:0.33333334 314:1 315:1 322:0.25 337:0.25 361:1 370:0.5 662:1 1236:1 1406:1 1793:1 1813:1 2114:0.5 2121:0.5 2126:0.5 2130:0.5 2133:0.5 
1.6407581834342914728352980091586 1:0.13461538 3:0.64285713 4:0.071428567 14:0.071428567 18:0.24285714 22:0.1097561 27:0.14285713 41:0.11111111 44:0.10769231 52:0.2 54:0.11111111 55:0.16666667 65:0.33333334 104:0.5 107:1 108:0.5 140:1 702:1 2137:0.5 2140:0.5 2144:0.5 2147:0.5 2201:0.5 
1.00166989070074730072690272209 1:0.0096153803 14:1 18:0.12857144 41:0.11111111 2121:0.5 2123:0.5 2126:0.5 2127:0.5 2128:0.5 2130:0.5 2133:0.5 2183:0.5 
-1.6407581834342914728352980091586 1:0.125 3:0.61538464 18:0.64285713 22:0.097560979 27:0.14285713 44:0.07692308 55:0.16666667 59:0.25 61:0.25 65:1 120:0.66666669 291:0.5 292:0.5 360:1 2137:0.5 2140:0.5 2144:0.5 2147:0.5 2179:0.5 2180:0.5 2181:0.5 2182:0.5 
-0.58123898762627423941751203528838 1:0.125 3:0.76923078 4:0.15384614 18:0.15714286 22:0.12195122 42:0.44444445 43:0.40000001 44:0.07692308 48:0.33333334 51:0.25 54:0.22222222 119:0.5 150:0.01333333 211:1 246:1 353:1 2137:0.5 2140:0.5 2144:0.5 2147:0.5 2201:0.5 
1.6407581834342914728352980091586 1:0.0096153803 18:0.071428567 96:0.33333334 2121:0.5 2122:0.5 2126:0.5 2127:0.5 2128:0.5 2130:0.5 2132:0.5 2133:0.5 
1.6407581834342914728352980091586 1:0.0096153803 18:0.12857144 96:0.33333334 2121:0.5 2126:0.5 2130:0.5 2133:0.5 2136:0.5 2155:0.5 2160:0.5 2175:0.5 2219:0.5 
1.6407581834342914728352980091586 1:0.0096153803 18:0.1 96:0.33333334 2121:0.5 2126:0.5 2127:0.5 2130:0.5 2131:0.5 2132:0.5 2133:0.5 2134:0.5 2136:0.5 
-0.029340111461445335383491084257912 1:0.01923077 2:1 7:0.5 18:0.12857144 38:0.33333334 40:0.33333334 43:0.1 222:0.33333334 588:1 2121:0.5 2126:0.5 2127:0.5 2130:0.5 2131:0.5 2132:0.5 2133:0.5 2136:0.5 
-0.13061212348299691687891765923268 1:0.01923077 2:1 7:0.5 18:0.1 38:0.33333334 39:0.5 40:0.33333334 2121:0.5 2126:0.5 2127:0.5 2130:0.5 2131:0.5 2132:0.5 2133:0.5 2136:0.5 
0.53940131971149651857189155634842 1:0.16346154 3:0.88235295 7:0.05882353 18:0.48571429 22:0.18292683 42:0.11111111 43:0.1 44:0.18461537 51:0.125 124:0.16666667 159:0.5 181:0.16666667 244:0.33333334 615:0.5 910:0.33333334 1348:0.5 2137:0.5 2140:0.5 2144:0.5 2147:0.5 2179:0.5 2180:0.5 2181:0.5 2182:0.5 
1.6407581834342914728352980091586 1:0.10576923 3:0.72727275 4:0.090909094 18:0.27142856 22:0.097560979 27:0.14285713 44:0.07692308 47:0.2 53:0.14285713 54:0.11111111 55:0.16666667 65:0.33333334 120:0.33333334 291:0.5 2137:0.5 2140:0.5 2144:0.5 2147:0.5 2179:0.5 2180:0.5 2181:0.5 2182:0.5 
1.6407581834342914728352980091586 1:0.07692308 3:0.5 4:0.25 18:0.34285715 22:0.04878049 26:0.5 42:0.22222222 43:0.2 44:0.01538462 47:0.2 48:0.16666667 51:0.125 54:0.22222222 119:0.25 150:0.01333333 211:1 214:0.5 246:1 801:1 2133:0.5 2137:0.5 2140:0.5 2144:0.5 2147:0.5 2154:0.5 2181:0.5 2216:0.5 
0.011400300405047619073384268517657 1:0.096153848 3:0.60000002 4:0.1 6:0.1 17:0.1 18:0.55714285 22:0.073170729 30:0.1 42:0.22222222 43:0.30000001 44:0.01538462 51:0.125 54:0.11111111 56:0.01639344 57:0.2 59:0.25 61:0.25 119:0.25 174:0.25 196:0.25 199:0.33333334 427:1 731:1 734:1 1574:1 2121:0.5 2126:0.5 2130:0.5 2133:0.5 2137:0.5 2140:0.5 2144:0.5 2147:0.5 
-0.99297225816023715339042610139586 1:0.16346154 3:0.64705884 4:0.05882353 14:0.17647059 18:0.65714288 22:0.13414633 41:0.33333334 44:0.12307692 52:0.2 54:0.11111111 56:0.01639344 59:0.25 61:0.5 109:0.5 122:0.5 161:1 174:0.25 241:0.5 479:1 2140:0.5 2144:0.5 2147:0.5 2179:0.5 2180:0.5 2181:0.5 2182:0.5 2183:0.5 
-1.6407581834342914728352980091586 1:0.096153848 3:0.40000001 5:0.1 14:0.2 17:0.1 18:0.37142858 19:0.06666667 22:0.04878049 27:0.14285713 41:0.22222222 44:0.030769231 53:0.14285713 65:0.33333334 68:0.5 84:0.25 93:0.33333334 105:0.5 109:0.25 120:0.33333334 280:0.33333334 2137:0.5 2140:0.5 2144:0.5 2147:0.5 2179:0.5 2180:0.5 2181:0.5 2182:0.5 
-1.4678021224354227403097183923819 1:0.13461538 3:0.5 5:0.14285713 6:0.071428567 14:0.071428567 18:0.24285714 19:0.13333333 20:0.40000001 22:0.085365847 27:0.14285713 30:0.1 41:0.11111111 44:0.030769231 45:0.5 52:0.2 55:0.16666667 56:0.01639344 57:0.2 58:0.2 107:1 108:0.5 136:0.5 210:0.33333334 325:1 328:1 1162:1 2137:0.5 2140:0.5 2144:0.5 2147:0.5 2179:0.5 2180:0.5 2181:0.5 2182:0.5 
1.6407581834342914728352980091586 1:0.0096153803 18:0.15714286 192:0.5 2121:0.5 2126:0.5 2130:0.5 2133:0.5 2158:0.5 2160:0.5 2161:0.5 2177:0.5 
1.6407581834342914728352980091586 1:0.03846154 5:0.5 6:0.25 17:0.25 18:0.057142861 19:0.13333333 23:0.14285713 29:0.1 134:0.5 1887:1 2121:0.5 2123:0.5 2126:0.5 2127:0.5 2130:0.5 2133:0.5 2134:0.5 
1.6407581834342914728352980091586 1:0.01923077 14:0.5 17:0.5 18:0.071428567 41:0.11111111 229:1 1867:1 2121:0.5 2126:0.5 2128:0.5 2130:0.5 2132:0.5 2133:0.5 2155:0.5 2158:0.5 
-1.6407581834342914728352980091586 18:0.1 181:0.16666667 2121:0.5 2126:0.5 2130:0.5 2133:0.5 2158:0.5 2160:0.5 2161:0.5 2185:0.5 
-1.6407581834342914728352980091586 1:0.096153848 3:0.69999999 4:0.1 5:0.1 14:0.1 18:0.11428571 19:0.06666667 20:0.2 22:0.085365847 41:0.11111111 44:0.07692308 47:0.2 52:0.2 54:0.11111111 109:0.25 2118:0.5 2121:0.5 2122:0.5 2123:0.5 2126:0.5 2128:0.5 2130:0.5 2133:0.5 
-1.6407581834342914728352980091586 1:0.01923077 18:0.1 2121:0.5 2126:0.5 2130:0.5 2133:0.5 2136:0.5 2158:0.5 2160:0.5 2161:0.5 
1.6334664983620195144453646207694 1:0.11538462 3:0.58333331 4:0.083333328 18:0.22857143 22:0.085365847 27:0.14285713 42:0.22222222 43:0.2 44:0.030769231 46:0.25 51:0.125 53:0.14285713 54:0.11111111 59:0.25 61:0.5 112:0.5 150:0.01333333 174:0.5 186:0.25 248:1 307:1 353:1 2137:0.5 2140:0.5 2144:0.5 2147:0.5 2201:0.5 
1.6407581834342914728352980091586 1:0.096153848 3:0.60000002 4:0.2 5:0.1 6:0.1 18:0.25714287 19:0.06666667 22:0.073170729 29:0.1 42:0.44444445 43:0.5 44:0.01538462 48:0.16666667 51:0.25 54:0.22222222 119:0.5 148:0.2 150:0.01333333 189:0.16666667 248:1 287:0.33333334 353:1 2133:0.5 2137:0.5 2140:0.5 2144:0.5 2147:0.5 2200:0.5 
0.77915448433508127656921260495437 1:0.17307691 3:0.72222221 5:0.05555556 7:0.05555556 16:0.05555556 18:0.47142857 19:0.06666667 20:0.2 22:0.15853658 27:0.14285713 33:0.125 42:0.22222222 43:0.30000001 44:0.12307692 51:0.25 53:0.14285713 115:0.33333334 129:0.5 150:0.01333333 181:0.16666667 221:0.2 248:1 301:0.33333334 353:1 414:0.5 1222:0.5 2133:0.5 2137:0.5 2140:0.5 2144:0.5 2147:0.5 2179:0.5 2180:0.5 2181:0.5 
-1.6407581834342914728352980091586 1:0.096153848 3:0.69999999 4:0.2 6:0.1 18:0.15714286 22:0.085365847 29:0.1 42:0.33333334 43:0.40000001 44:0.046153851 51:0.25 54:0.22222222 119:0.5 150:0.01333333 209:0.2 248:1 287:0.33333334 353:1 2137:0.5 2140:0.5 2144:0.5 2147:0.5 2201:0.5 
-0.60790901951725073715238067961764 1:0.02884615 4:0.66666669 18:0.11428571 43:0.2 54:0.22222222 83:0.25 119:0.25 209:0.40000001 253:0.5 2121:0.5 2126:0.5 2130:0.5 2133:0.5 2161:0.5 2185:0.5 2191:0.5 2192:0.5 
-1.3362724020949778847011657489929 1:0.10576923 3:0.72727275 6:0.18181819 18:0.2 22:0.097560979 29:0.1 30:0.1 42:0.44444445 43:0.5 44:0.046153851 51:0.5 150:0.01333333 185:1 192:0.5 196:0.25 248:1 287:0.33333334 760:1 2137:0.5 2140:0.5 2144:0.5 2147:0.5 2201:0.5 
1.6407581834342914728352980091586 1:0.0096153803 18:0.11428571 96:0.33333334 2121:0.5 2126:0.5 2127:0.5 2128:0.5 2130:0.5 2132:0.5 2133:0.5 2155:0.5 2160:0.5 2173:0.5 2175:0.5 
1.6407581834342914728352980091586 1:0.0096153803 18:0.12857144 96:0.33333334 2121:0.5 2126:0.5 2130:0.5 2133:0.5 2158:0.5 2160:0.5 2161:0.5 2185:0.5 
1.6407581834342914728352980091586 1:0.13461538 3:0.71428573 4:0.071428567 5:0.071428567 14:0.071428567 18:0.085714288 19:0.06666667 22:0.12195122 41:0.11111111 42:0.11111111 43:0.1 44:0.092307687 47:0.2 48:0.16666667 51:0.125 52:0.2 54:0.11111111 104:0.5 108:0.5 109:0.25 279:0.5 2121:0.5 2122:0.5 2126:0.5 2128:0.5 2130:0.5 2133:0.5 2184:0.5 2186:0.5 
-1.1649339769540965061622728171642 1:0.02884615 5:0.66666669 6:0.33333334 18:0.04285714 19:0.13333333 23:0.14285713 29:0.1 130:0.5 2121:0.5 2126:0.5 2127:0.5 2130:0.5 2131:0.5 2133:0.5 2134:0.5 
0.18188055896371768671571089726058 1:0.14423077 2:0.13333334 3:0.66666669 4:0.2 18:0.42857143 22:0.12195122 40:0.33333334 42:0.33333334 43:0.30000001 44:0.07692308 47:0.40000001 48:0.16666667 51:0.25 54:0.33333334 60:0.33333334 61:0.25 112:0.5 296:0.5 1073:1 2137:0.5 2140:0.5 2144:0.5 2147:0.5 2179:0.5 2180:0.5 2181:0.5 2182:0.5 
-1.6407581834342914728352980091586 1:0.0096153803 18:0.1 83:0.25 2121:0.5 2126:0.5 2127:0.5 2130:0.5 2133:0.5 2155:0.5 2175:0.5 2185:0.5 
1.6407581834342914728352980091586 1:0.086538456 3:0.55555558 4:0.33333334 14:0.11111111 18:0.35714287 22:0.060975611 41:0.11111111 42:0.33333334 43:0.40000001 44:0.01538462 48:0.33333334 51:0.125 54:0.33333334 109:0.25 119:0.5 188:0.5 209:0.2 2137:0.5 2140:0.5 2144:0.5 2147:0.5 2157:0.5 2182:0.5 2217:0.5 
1.0371342705859443178439960320247 1:0.15384614 2:0.125 3:0.625 4:0.125 5:0.0625 18:0.40000001 19:0.06666667 20:0.2 22:0.12195122 27:0.2857143 40:0.33333334 42:0.11111111 43:0.1 44:0.07692308 47:0.2 51:0.125 53:0.14285713 54:0.22222222 55:0.33333334 56:0.01639344 57:0.2 58:0.2 133:0.16666667 220:1 296:0.5 2115:0.5 2137:0.5 2140:0.5 2144:0.5 2147:0.5 2150:0.5 2153:0.5 2179:0.5 2180:0.5 2182:0.5 
1.6407581834342914728352980091586 1:0.02884615 5:0.66666669 18:0.2 19:0.13333333 23:0.14285713 1749:1 2137:0.5 2140:0.5 2144:0.5 2147:0.5 2157:0.5 2201:0.5 
-1.6407581834342914728352980091586 1:0.057692312 3:0.33333334 4:0.16666667 5:0.16666667 17:0.16666667 18:0.27142856 19:0.06666667 20:0.2 22:0.024390239 27:0.14285713 46:0.25 48:0.16666667 53:0.14285713 54:0.11111111 229:1 706:1 2137:0.5 2140:0.5 2144:0.5 2147:0.5 
-1.6407581834342914728352980091586 1:0.067307688 3:0.71428573 4:0.14285713 6:0.14285713 18:0.2857143 22:0.060975611 29:0.1 42:0.11111111 43:0.2 44:0.030769231 51:0.25 54:0.11111111 56:0.01639344 57:0.2 209:0.2 287:0.33333334 510:1 2137:0.5 2140:0.5 2144:0.5 2147:0.5 2182:0.5 2200:0.5 
-1.6407581834342914728352980091586 1:0.11538462 3:0.66666669 5:0.083333328 10:0.083333328 17:0.083333328 18:0.15714286 19:0.06666667 20:0.2 22:0.097560979 43:0.1 44:0.092307687 51:0.125 56:0.01639344 58:0.2 172:0.5 183:0.5 228:1 229:1 230:1 880:1 1253:1 2137:0.5 2140:0.5 2144:0.5 2147:0.5 
1.6407581834342914728352980091586 1:0.125 3:0.53846157 5:0.23076923 14:0.07692308 16:0.07692308 18:0.1 19:0.2 20:0.2 22:0.085365847 23:0.2857143 27:0.14285713 33:0.125 41:0.11111111 44:0.092307687 53:0.14285713 138:1 150:0.01333333 286:0.5 506:1 2121:0.5 2126:0.5 2130:0.5 2133:0.5 2136:0.5 2158:0.5 2161:0.5 2171:0.5 2192:0.5 
0.11535593863632119526752006777315 1:0.11538462 3:0.5 5:0.16666667 14:0.16666667 18:0.11428571 19:0.13333333 21:0.33333334 22:0.073170729 41:0.22222222 44:0.061538462 52:0.2 56:0.01639344 58:0.2 78:0.33333334 109:0.25 161:1 170:1 171:0.5 172:0.5 359:1 2121:0.5 2126:0.5 2130:0.5 2133:0.5 2136:0.5 2158:0.5 2175:0.5 2192:0.5 2207:0.5 
1.6407581834342914728352980091586 1:0.057692312 5:0.83333331 18:0.1 19:0.33333334 23:0.42857143 501:0.33333334 530:0.5 587:1 2121:0.5 2126:0.5 2130:0.5 2132:0.5 2133:0.5 2136:0.5 2137:0.5 2158:0.5 
-0.97278115306195200862049432544154 1:0.11538462 3:0.25 7:0.083333328 14:0.16666667 18:0.11428571 22:0.036585368 27:0.2857143 38:0.33333334 41:0.22222222 45:0.5 52:0.2 53:0.14285713 55:0.33333334 96:0.33333334 171:0.5 172:0.5 391:0.5 504:1 812:1 897:1 898:1 2121:0.5 2126:0.5 2130:0.5 2131:0.5 2133:0.5 2136:0.5 2158:0.5 2161:0.5 2192:0.5 
-1.6407581834342914728352980091586 1:0.096153848 3:0.5 4:0.1 5:0.1 18:0.14285713 19:0.06666667 22:0.060975611 44:0.061538462 54:0.11111111 170:1 171:0.5 172:0.5 899:0.5 1417:0.5 1697:1 1788:1 2121:0.5 2126:0.5 2130:0.5 2133:0.5 2160:0.5 2161:0.5 2192:0.5 2196:0.5 
-1.4784004883711254763056786032394 1:0.07692308 2:0.25 3:0.25 5:0.125 7:0.25 17:0.125 18:0.15714286 19:0.06666667 20:0.2 22:0.024390239 27:0.14285713 38:0.33333334 40:0.33333334 43:0.1 44:0.01538462 220:1 222:0.33333334 357:0.125 364:0.5 365:0.5 1396:1 2121:0.5 2126:0.5 2130:0.5 2133:0.5 2135:0.5 2136:0.5 2161:0.5 2171:0.5 2192:0.5 
1.6407581834342914728352980091586 1:0.0096153803 17:1 18:0.27142856 2137:0.5 2140:0.5 2144:0.5 2147:0.5 2201:0.5 
1.6407581834342914728352980091586 18:0.24285714 54:0.11111111 2137:0.5 2140:0.5 2144:0.5 2147:0.5 2159:0.5 
1.6407581834342914728352980091586 18:0.22857143 54:0.11111111 2137:0.5 2140:0.5 2144:0.5 2154:0.5 2181:0.5 2182:0.5 2196:0.5 
-1.6407581834342914728352980091586 1:0.0096153803 17:1 18:0.24285714 2137:0.5 2140:0.5 2144:0.5 2147:0.5 2157:0.5 2182:0.5 
-1.6407581834342914728352980091586 1:0.0096153803 18:0.44285715 96:0.33333334 2137:0.5 2140:0.5 2144:0.5 2147:0.5 2154:0.5 2181:0.5 2206:0.5 
-1.6407581834342914728352980091586 1:0.02884615 3:0.33333334 4:0.33333334 18:0.35714287 22:0.01219512 47:0.2 54:0.11111111 65:0.33333334 120:0.33333334 2137:0.5 2140:0.5 2144:0.5 2147:0.5 2159:0.5 
1.603236772754764505322100376361 1:0.11538462 3:0.33333334 5:0.083333328 6:0.16666667 7:0.083333328 14:0.083333328 18:0.085714288 19:0.06666667 20:0.2 22:0.04878049 27:0.14285713 29:0.1 30:0.1 38:0.33333334 41:0.11111111 43:0.1 44:0.046153851 61:0.25 132:0.5 150:0.01333333 200:0.25 222:0.33333334 247:0.5 283:0.5 286:0.5 339:1 458:1 1338:1 1339:1 1480:1 1481:1 2121:0.5 2126:0.5 2130:0.5 2133:0.5 2136:0.5 2161:0.5 2171:0.5 2192:0.5 
1.6407581834342914728352980091586 1:0.07692308 3:0.5 5:0.125 14:0.25 18:0.18571429 19:0.06666667 20:0.2 22:0.04878049 41:0.22222222 43:0.1 44:0.01538462 51:0.125 52:0.2 109:0.25 166:0.5 172:0.5 228:1 880:1 2121:0.5 2126:0.5 2130:0.5 2133:0.5 2161:0.5 2171:0.5 2185:0.5 2192:0.5 
0.26262415392340815456506675218407 1:0.17307691 3:0.3888889 5:0.22222222 6:0.11111111 12:0.05555556 14:0.05555556 18:0.18571429 19:0.26666668 20:0.2 21:0.33333334 22:0.085365847 27:0.14285713 29:0.1 30:0.1 41:0.11111111 44:0.030769231 45:0.5 52:0.2 55:0.16666667 61:0.25 80:0.5 82:0.5 85:0.25 89:0.5 130:0.5 134:0.5 136:0.5 171:0.5 172:0.5 210:0.33333334 228:1 238:0.5 2121:0.5 2126:0.5 2130:0.5 2133:0.5 2137:0.5 2161:0.5 2185:0.5 2192:0.5 
-0.18929862415222603599929129813972 1:0.01923077 5:1 18:0.1 19:0.13333333 1782:1 1783:1 1784:1 2121:0.5 2126:0.5 2128:0.5 2130:0.5 2132:0.5 2133:0.5 2158:0.5 2171:0.5 2192:0.5 
-1.0748469328652070498009152288432 1:0.13461538 3:0.21428572 5:0.21428572 6:0.071428567 14:0.14285713 16:0.14285713 17:0.071428567 18:0.12857144 19:0.2 22:0.036585368 23:0.14285713 27:0.2857143 29:0.1 33:0.25 41:0.22222222 43:0.1 45:0.5 49:0.25 52:0.40000001 55:0.16666667 62:0.5 81:0.5 109:0.25 134:0.5 162:0.5 190:1 454:1 905:1 960:1 2121:0.5 2126:0.5 2130:0.5 2133:0.5 2134:0.5 2173:0.5 2185:0.5 2194:0.5 
-1.6407581834342914728352980091586 1:0.067307688 3:0.2857143 5:0.14285713 14:0.14285713 18:0.057142861 19:0.06666667 21:0.33333334 22:0.024390239 27:0.14285713 41:0.11111111 44:0.01538462 81:0.5 95:1 96:0.33333334 329:1 636:1 2118:0.5 2121:0.5 2122:0.5 2123:0.5 2126:0.5 2130:0.5 2133:0.5 
1.6407581834342914728352980091586 1:0.0096153803 17:1 18:0.32857144 1355:1 2137:0.5 2140:0.5 2144:0.5 2147:0.5 2152:0.5 2180:0.5 2181:0.5 2182:0.5 
1.6407581834342914728352980091586 1:0.02884615 3:0.33333334 4:0.33333334 18:0.22857143 22:0.01219512 27:0.14285713 46:0.25 53:0.14285713 54:0.11111111 2137:0.5 2140:0.5 2144:0.5 2147:0.5 2200:0.5 2206:0.5 
1.6407581834342914728352980091586 1:0.01923077 4:0.5 18:0.15714286 54:0.11111111 389:0.5 1734:1 2137:0.5 2140:0.5 2144:0.5 2147:0.5 2198:0.5 2204:0.5 2205:0.5 2206:0.5 
-1.6407581834342914728352980091586 1:0.03846154 3:0.25 4:0.5 6:0.25 18:0.42857143 22:0.01219512 30:0.1 42:0.11111111 43:0.1 54:0.22222222 119:0.25 133:0.16666667 210:0.33333334 2137:0.5 2140:0.5 2144:0.5 2147:0.5 2200:0.5 2206:0.5 
-1.6407581834342914728352980091586 1:0.01923077 4:0.5 18:0.12857144 54:0.11111111 96:0.33333334 826:1 2137:0.5 2140:0.5 2144:0.5 2145:0.5 
-1.6407581834342914728352980091586 1:0.01923077 4:0.5 10:0.5 18:0.25714287 54:0.11111111 183:0.5 2137:0.5 2140:0.5 2144:0.5 2147:0.5 
1.6407581834342914728352980091586 1:0.10576923 3:0.63636363 5:0.090909094 14:0.18181819 18:0.04285714 19:0.06666667 20:0.2 22:0.085365847 27:0.14285713 41:0.22222222 44:0.061538462 52:0.2 53:0.14285713 95:1 109:0.5 2118:0.5 2121:0.5 2122:0.5 2126:0.5 2130:0.5 2133:0.5 
1.6407581834342914728352980091586 1:0.13461538 3:0.9285714 5:0.071428567 18:0.085714288 19:0.06666667 20:0.2 22:0.15853658 44:0.18461537 2121:0.5 2123:0.5 2126:0.5 2127:0.5 2128:0.5 2130:0.5 2133:0.5 2155:0.5 2160:0.5 
1.6407581834342914728352980091586 1:0.01923077 4:0.5 16:0.5 18:0.15714286 33:0.125 54:0.11111111 205:0.5 2118:0.5 2121:0.5 2122:0.5 2123:0.5 2126:0.5 2130:0.5 2133:0.5 2142:0.5 
-1.6407581834342914728352980091586 1:0.067307688 3:0.42857143 4:0.14285713 5:0.2857143 17:0.14285713 18:0.071428567 19:0.13333333 20:0.2 22:0.036585368 44:0.030769231 47:0.2 54:0.11111111 56:0.01639344 58:0.2 2121:0.5 2123:0.5 2126:0.5 2127:0.5 2128:0.5 2130:0.5 2133:0.5 2171:0.5 
-1.6407581834342914728352980091586 1:0.02884615 3:0.33333334 16:0.33333334 18:0.085714288 22:0.01219512 33:0.125 49:0.25 107:1 108:0.5 2118:0.5 2121:0.5 2122:0.5 2123:0.5 2126:0.5 2128:0.5 2130:0.5 2133:0.5 
-1.6407581834342914728352980091586 1:0.02884615 3:0.66666669 18:0.1 22:0.024390239 44:0.01538462 282:0.33333334 300:1 2121:0.5 2126:0.5 2130:0.5 2133:0.5 2136:0.5 2158:0.5 2160:0.5 2161:0.5 
-0.015267550410839225011327968672958 1:0.04807692 7:0.40000001 11:0.2 18:0.1 124:0.33333334 156:0.5 593:1 594:1 595:0.66666669 596:0.66666669 667:1 2121:0.5 2123:0.5 2126:0.5 2127:0.5 2128:0.5 2130:0.5 2133:0.5 2155:0.5 2160:0.5 
1.6407581834342914728352980091586 1:0.07692308 3:0.125 5:0.25 9:0.125 17:0.125 18:0.18571429 19:0.13333333 21:0.33333334 22:0.01219512 27:0.14285713 43:0.30000001 55:0.16666667 65:0.33333334 74:0.25 75:0.25 144:0.5 186:0.25 189:0.16666667 191:1 223:1 225:1 262:0.25 485:1 1169:1 2137:0.5 2140:0.5 2144:0.5 2147:0.5 2159:0.5 
0.21741329845089668593161036369565 1:0.02884615 3:0.33333334 4:0.33333334 16:0.33333334 18:0.30000001 22:0.01219512 33:0.125 47:0.2 54:0.11111111 1626:0.5 1628:1 1629:1 2137:0.5 2140:0.5 2144:0.5 2147:0.5 2201:0.5 
-1.6407581834342914728352980091586 1:0.10576923 3:0.36363637 4:0.27272728 5:0.090909094 14:0.090909094 18:0.51428568 19:0.06666667 20:0.2 22:0.04878049 27:0.14285713 41:0.11111111 44:0.030769231 46:0.25 47:0.2 52:0.2 54:0.33333334 133:0.16666667 171:0.5 172:0.5 470:0.33333334 1805:1 2137:0.5 2140:0.5 2144:0.5 2147:0.5 2181:0.5 2182:0.5 2199:0.5 
-0.054123635961668296878723793952304 1:0.01923077 4:0.5 6:0.5 18:0.057142861 30:0.1 54:0.11111111 150:0.01333333 267:0.5 354:1 2121:0.5 2123:0.5 2126:0.5 2127:0.5 2130:0.5 2133:0.5 2155:0.5 2160:0.5 
-1.6407581834342914728352980091586 1:0.096153848 3:0.60000002 4:0.30000001 6:0.1 18:0.17142858 22:0.073170729 29:0.1 42:0.11111111 43:0.30000001 44:0.030769231 47:0.40000001 51:0.25 54:0.33333334 56:0.01639344 57:0.2 119:0.25 209:0.40000001 287:0.33333334 427:1 2137:0.5 2140:0.5 2144:0.5 2147:0.5 2199:0.5 2205:0.5 2206:0.5 
1.6407581834342914728352980091586 1:0.04807692 3:0.80000001 18:0.1 22:0.04878049 44:0.046153851 78:0.33333334 477:0.5 2121:0.5 2122:0.5 2123:0.5 2126:0.5 2127:0.5 2128:0.5 2130:0.5 2133:0.5 
1.6407581834342914728352980091586 1:0.01923077 10:0.5 14:0.5 18:0.18571429 41:0.11111111 183:0.5 2121:0.5 2126:0.5 2130:0.5 2133:0.5 2171:0.5 2185:0.5 2193:0.5 2194:0.5 
1.6407581834342914728352980091586 1:0.0096153803 18:0.14285713 96:0.33333334 2121:0.5 2126:0.5 2127:0.5 2130:0.5 2131:0.5 2132:0.5 2133:0.5 2134:0.5 2136:0.5 
-1.6407581834342914728352980091586 1:0.0096153803 14:1 18:0.028571431 41:0.11111111 2114:0.5 2115:0.5 2121:0.5 2126:0.5 2130:0.5 
1.6407581834342914728352980091586 1:0.067307688 3:0.42857143 4:0.14285713 6:0.2857143 18:0.27142856 22:0.036585368 27:0.14285713 29:0.2 44:0.01538462 47:0.2 54:0.11111111 162:0.5 287:0.33333334 387:0.5 402:1 2137:0.5 2140:0.5 2144:0.5 2147:0.5 2199:0.5 2205:0.5 2206:0.5 
-0.14185086947277461555394495462679 1:0.02884615 5:0.33333334 11:0.33333334 18:0.11428571 19:0.06666667 142:0.25 146:0.5 156:0.5 474:0.5 2121:0.5 2122:0.5 2126:0.5 2130:0.5 2132:0.5 2133:0.5 2158:0.5 2185:0.5 
-1.6407581834342914728352980091586 1:0.01923077 4:0.5 18:0.085714288 54:0.11111111 83:0.25 150:0.01333333 158:0.5 284:0.5 2121:0.5 2122:0.5 2126:0.5 2128:0.5 2130:0.5 2132:0.5 2133:0.5 2173:0.5 
1.6407581834342914728352980091586 1:0.02884615 3:0.33333334 4:0.33333334 5:0.33333334 18:0.27142856 19:0.06666667 20:0.2 22:0.01219512 47:0.2 54:0.11111111 2137:0.5 2140:0.5 2144:0.5 2147:0.5 2154:0.5 2181:0.5 2182:0.5 
1.6407581834342914728352980091586 1:0.10576923 3:0.72727275 4:0.090909094 18:0.40000001 22:0.097560979 27:0.14285713 44:0.092307687 47:0.2 53:0.14285713 54:0.11111111 55:0.16666667 171:0.5 172:0.5 2137:0.5 2140:0.5 2144:0.5 2147:0.5 2181:0.5 2182:0.5 2203:0.5 2204:0.5 
-1.6407581834342914728352980091586 1:0.0096153803 18:0.25714287 2121:0.5 2126:0.5 2130:0.5 2133:0.5 2161:0.5 2171:0.5 2185:0.5 2192:0.5 
-0.25268528711752191728834304740303 1:0.0096153803 17:1 18:0.12857144 2121:0.5 2126:0.5 2130:0.5 2133:0.5 2171:0.5 2173:0.5 2194:0.5 2196:0.5 
-1.6407581834342914728352980091586 1:0.057692312 3:0.16666667 5:0.5 9:0.16666667 14:0.16666667 18:0.14285713 19:0.2 21:0.33333334 22:0.01219512 23:0.2857143 41:0.11111111 75:0.25 109:0.25 1536:1 2121:0.5 2126:0.5 2130:0.5 2133:0.5 2173:0.5 2183:0.5 2185:0.5 2194:0.5 
1.6407581834342914728352980091586 1:0.01923077 3:0.5 18:0.17142858 22:0.01219512 625:0.14285713 798:1 2137:0.5 2140:0.5 2144:0.5 2147:0.5 2179:0.5 2180:0.5 2181:0.5 2182:0.5 
1.6407581834342914728352980091586 1:0.11538462 3:0.58333331 14:0.083333328 17:0.083333328 18:0.2857143 22:0.085365847 27:0.14285713 41:0.11111111 44:0.07692308 53:0.14285713 55:0.16666667 61:0.25 84:0.25 93:0.33333334 96:0.33333334 174:0.25 280:0.33333334 329:1 2137:0.5 2140:0.5 2144:0.5 2147:0.5 2154:0.5 2182:0.5 2216:0.5 
1.015629367612893796390949319175 1:0.15384614 3:0.0625 4:0.25 7:0.25 16:0.125 18:0.2 22:0.01219512 33:0.25 47:0.2 54:0.44444445 124:1 159:1 181:0.66666669 182:0.25 192:1 461:0.5 526:0.5 544:0.5 630:0.5 631:0.5 632:0.66666669 735:1 871:1 889:1 952:1 985:1 1218:1 1349:1 1366:1 1382:1 1475:0.5 1761:1 1851:1 1852:1 1853:1 1854:1 2121:0.5 2126:0.5 2130:0.5 2133:0.5 2137:0.5 2140:0.5 2144:0.5 2147:0.5 
-1.6407581834342914728352980091586 1:0.03846154 3:0.75 5:0.25 18:0.24285714 19:0.06666667 20:0.2 22:0.036585368 44:0.030769231 2137:0.5 2140:0.5 2144:0.5 2147:0.5 
-1.6407581834342914728352980091586 1:0.04807692 3:0.40000001 5:0.2 18:0.37142858 19:0.06666667 22:0.024390239 27:0.2857143 53:0.14285713 55:0.33333334 81:0.5 2137:0.5 2140:0.5 2144:0.5 2147:0.5 2159:0.5 
-1.6407581834342914728352980091586 1:0.03846154 3:0.25 5:0.25 18:0.30000001 19:0.06666667 20:0.2 22:0.01219512 233:0.33333334 377:0.5 2137:0.5 2140:0.5 2144:0.5 2147:0.5 2154:0.5 2181:0.5 2182:0.5 
1.6407581834342914728352980091586 1:0.0096153803 18:0.12857144 96:0.33333334 2121:0.5 2126:0.5 2130:0.5 2133:0.5 2134:0.5 2161:0.5 2185:0.5 2192:0.5 
-0.15085720675776326249462044870597 1:0.02884615 6:0.66666669 18:0.057142861 29:0.1 30:0.1 61:0.25 100:0.25 339:1 2118:0.5 2121:0.5 2122:0.5 2123:0.5 2126:0.5 2130:0.5 2133:0.5 
0.02496929200525929704035377199034 1:0.0096153803 14:1 18:0.12857144 41:0.11111111 2121:0.5 2126:0.5 2130:0.5 2133:0.5 2161:0.5 2185:0.5 2192:0.5 2207:0.5 
-0.48768905661866890355327086581383 1:0.096153848 2:0.2 4:0.1 7:0.30000001 14:0.2 17:0.1 18:0.1 40:0.33333334 41:0.22222222 43:0.5 54:0.11111111 56:0.01639344 96:0.33333334 119:0.25 161:1 181:0.33333334 188:0.5 221:0.40000001 366:0.5 391:0.5 456:1 457:1 465:1 489:1 491:1 588:1 841:1 897:1 1150:1 1777:1 1778:1 2121:0.5 2126:0.5 2127:0.5 2130:0.5 2133:0.5 2136:0.5 2155:0.5 2160:0.5 2161:0.5 2194:0.5 
-1.6304921549755335696829661173979 1:0.086538456 3:0.11111111 5:0.11111111 14:0.33333334 17:0.22222222 18:0.11428571 19:0.06666667 22:0.01219512 41:0.33333334 52:0.2 61:0.25 80:0.5 84:0.25 92:0.5 93:0.33333334 96:0.33333334 105:0.5 109:0.25 329:1 2121:0.5 2126:0.5 2130:0.5 2133:0.5 2135:0.5 2136:0.5 2161:0.5 2183:0.5 2194:0.5 
-0.067957147104046530805554482412845 1:0.07692308 2:0.75 7:0.25 17:0.125 18:0.04285714 38:0.66666669 39:0.5 40:1 56:0.01639344 61:0.25 599:1 988:0.5 1135:1 1267:1 1344:1 1549:1 1550:1 1551:1 2118:0.5 2121:0.5 2122:0.5 2126:0.5 2130:0.5 2133:0.5 
1.6407581834342914728352980091586 1:0.02884615 4:0.33333334 5:0.33333334 7:0.33333334 18:0.24285714 19:0.06666667 54:0.11111111 180:0.33333334 181:0.16666667 266:1 2137:0.5 2140:0.5 2144:0.5 2147:0.5 2159:0.5 
-0.0080982971990045393706481036133482 1:0.04807692 2:0.80000001 7:0.2 17:0.2 18:0.18571429 38:0.33333334 39:0.5 40:0.66666669 568:1 569:1 1412:1 1413:1 2121:0.5 2126:0.5 2130:0.5 2133:0.5 2142:0.5 2158:0.5 2160:0.5 2161:0.5 
0.80161091172460396947485605778638 1:0.1826923 3:0.36842105 5:0.052631579 7:0.15789475 18:0.24285714 19:0.06666667 22:0.085365847 27:0.14285713 44:0.07692308 55:0.16666667 61:0.25 113:0.5 124:0.83333331 181:0.5 244:0.33333334 282:0.33333334 418:0.25 553:0.5 871:1 910:0.66666669 1218:1 1657:1 1666:1 1888:1 2034:1 2081:1 2082:1 2083:1 2095:1 2096:1 2097:1 2098:1 2121:0.5 2126:0.5 2130:0.5 2133:0.5 2137:0.5 2140:0.5 2144:0.5 2147:0.5 
-1.6407581834342914728352980091586 1:0.0096153803 18:0.44285715 192:0.5 2137:0.5 2140:0.5 2144:0.5 2147:0.5 2198:0.5 2204:0.5 2205:0.5 2206:0.5 
-1.6407581834342914728352980091586 1:0.057692312 3:0.5 5:0.16666667 7:0.16666667 18:0.3142857 19:0.06666667 20:0.2 22:0.036585368 44:0.01538462 59:0.25 61:0.25 174:0.25 181:0.16666667 278:1 2137:0.5 2140:0.5 2144:0.5 2147:0.5 
-1.6407581834342914728352980091586 1:0.01923077 5:0.5 6:0.5 18:0.60000002 19:0.06666667 29:0.1 134:0.5 2137:0.5 2140:0.5 2144:0.5 2147:0.5 2198:0.5 2204:0.5 2205:0.5 2206:0.5 
1.1055993260178327286524790906697 1:0.13461538 3:0.2857143 4:0.071428567 5:0.14285713 9:0.21428572 18:0.11428571 19:0.13333333 22:0.04878049 27:0.14285713 43:0.2 44:0.030769231 48:0.16666667 54:0.11111111 66:0.33333334 74:0.25 75:0.5 104:0.5 107:1 108:1 142:0.25 144:0.5 148:0.2 257:0.5 258:0.5 385:0.5 407:1 600:0.5 1136:1 1613:1 2121:0.5 2126:0.5 2130:0.5 2133:0.5 2137:0.5 2161:0.5 2173:0.5 2185:0.5 2194:0.5 2196:0.5 
0.70543863265278639040900543477619 1:0.38461539 3:0.5 4:0.1 16:0.15000001 18:0.14285713 22:0.24390244 27:0.71428573 33:0.75 42:0.11111111 43:0.2 44:0.18461537 46:0.25 47:0.2 48:0.16666667 51:0.25 53:0.5714286 54:0.44444445 55:0.5 61:0.25 124:0.33333334 133:0.16666667 190:1 233:0.66666669 283:0.5 413:0.5 414:0.5 424:0.5 524:0.5 526:0.5 536:1 539:0.66666669 638:1 639:1 640:1 641:1 950:0.5 952:0.25 1167:1 1861:1 1995:1 2072:1 2073:1 2074:1 2075:1 2076:1 2077:1 2078:1 2121:0.5 2126:0.5 2130:0.5 2133:0.5 2137:0.5 2140:0.5 2144:0.5 2147:0.5 
-0.062721809519786578257516396206483 1:0.086538456 5:0.11111111 6:0.11111111 7:0.11111111 8:0.22222222 14:0.11111111 17:0.11111111 18:0.071428567 19:0.06666667 29:0.1 41:0.11111111 43:0.2 56:0.01639344 64:0.5 65:0.33333334 71:0.5 84:0.25 93:0.33333334 134:0.5 141:0.5 186:0.25 189:0.16666667 262:0.25 337:0.25 389:0.5 450:0.5 469:1 514:0.5 517:1 691:1 1772:1 2121:0.5 2126:0.5 2127:0.5 2128:0.5 2130:0.5 2132:0.5 2133:0.5 2155:0.5 2160:0.5 
-1.2201128004536594406914673527353 1:0.16346154 3:0.29411766 4:0.05882353 5:0.17647059 14:0.11764706 17:0.05882353 18:0.47142857 19:0.2 22:0.060975611 23:0.14285713 27:0.42857143 41:0.22222222 45:1 47:0.2 48:0.16666667 52:0.2 53:0.14285713 54:0.11111111 55:0.33333334 62:0.5 124:0.16666667 170:1 171:0.5 172:0.5 244:0.33333334 927:1 928:1 1896:1 1899:1 1962:1 2137:0.5 2140:0.5 2144:0.5 2147:0.5 2179:0.5 2180:0.5 2181:0.5 2182:0.5 
-1.5243274413613845386095135836513 1:0.14423077 3:0.40000001 6:0.26666668 14:0.06666667 18:0.2857143 22:0.073170729 27:0.14285713 29:0.30000001 30:0.1 31:0.5 41:0.11111111 44:0.046153851 53:0.14285713 61:0.25 78:0.33333334 109:0.25 171:0.5 172:0.5 198:1 216:1 227:0.5 228:1 287:0.33333334 339:1 2137:0.5 2140:0.5 2144:0.5 2147:0.5 2179:0.5 2180:0.5 2181:0.5 2182:0.5 
-0.16352734297947599251266126429982 1:0.21153846 3:0.13636364 4:0.045454551 5:0.045454551 7:0.045454551 11:0.045454551 14:0.090909094 16:0.090909094 17:0.045454551 18:0.38571429 19:0.06666667 22:0.036585368 33:0.25 41:0.22222222 43:0.1 44:0.01538462 54:0.11111111 56:0.01639344 61:0.25 65:0.33333334 71:0.5 83:0.25 84:0.25 93:0.33333334 104:0.5 108:1 138:1 154:0.5 156:0.5 173:1 174:0.25 186:0.25 275:0.5 279:0.5 280:0.33333334 282:0.33333334 310:0.5 311:1 389:0.5 406:0.33333334 469:1 526:0.5 539:0.33333334 574:1 935:1 998:1 1185:1 1276:1 1287:1 1393:1 1644:1 1645:1 1646:0.33333334 1647:1 1648:1 1649:1 1650:1 1651:1 2155:0.5 2159:0.5 2160:0.5 2161:0.5 2175:0.5 2184:0.5 2186:0.5 2194:0.5 2202:0.5 2220:0.5 
-0.27738876296776193708382152181002 1:0.03846154 3:1 18:0.27142856 22:0.04878049 42:0.11111111 43:0.1 44:0.030769231 51:0.125 2140:0.5 2144:0.5 2146:0.5 2147:0.5 2150:0.5 2151:0.5 2156:0.5 2163:0.5 2166:0.5 2187:0.5 2188:0.5 2189:0.5 2190:0.5 2207:0.5 
0.86652879327383114382854500945541 1:0.02884615 3:0.33333334 4:0.33333334 18:0.25714287 22:0.01219512 27:0.14285713 47:0.2 54:0.11111111 55:0.16666667 2137:0.5 2140:0.5 2144:0.5 2147:0.5 2199:0.5 2205:0.5 2206:0.5 
1.6407581834342914728352980091586 1:0.03846154 3:0.25 4:0.25 5:0.25 18:0.18571429 19:0.06666667 21:0.33333334 22:0.01219512 27:0.14285713 54:0.11111111 55:0.16666667 407:1 2137:0.5 2140:0.5 2144:0.5 2147:0.5 2199:0.5 2205:0.5 2206:0.5 
-1.6407581834342914728352980091586 1:0.03846154 4:0.5 5:0.25 7:0.25 18:0.22857143 19:0.06666667 38:0.33333334 43:0.1 54:0.22222222 131:0.5 209:0.2 222:0.33333334 407:1 2137:0.5 2140:0.5 2144:0.5 2147:0.5 2157:0.5 2182:0.5 
-1.6407581834342914728352980091586 1:0.057692312 3:0.5 4:0.16666667 5:0.16666667 6:0.16666667 18:0.21428572 19:0.06666667 20:0.2 22:0.036585368 29:0.1 42:0.11111111 43:0.1 47:0.2 51:0.125 54:0.11111111 150:0.01333333 247:0.5 248:1 287:0.33333334 2137:0.5 2140:0.5 2144:0.5 2147:0.5 2199:0.5 2205:0.5 2206:0.5 
-1.6407581834342914728352980091586 1:0.07692308 3:0.375 4:0.125 5:0.25 6:0.125 14:0.125 18:0.25714287 19:0.13333333 20:0.2 22:0.036585368 29:0.1 41:0.11111111 42:0.22222222 43:0.2 44:0.01538462 51:0.125 54:0.11111111 134:0.5 150:0.01333333 188:0.5 247:0.5 256:0.5 263:0.5 2137:0.5 2140:0.5 2144:0.5 2147:0.5 2159:0.5 
1.0793407817543987370356717292452 1:0.14423077 3:0.33333334 5:0.13333333 6:0.06666667 7:0.06666667 17:0.06666667 18:0.25714287 19:0.13333333 20:0.40000001 22:0.060975611 30:0.1 42:0.11111111 43:0.30000001 44:0.01538462 51:0.125 61:0.25 115:0.33333334 124:0.16666667 165:1 217:0.5 244:0.33333334 283:0.5 342:1 357:0.125 451:1 531:1 1191:1 1193:1 1342:1 1443:1 1444:1 1445:1 1446:1 1447:1 2133:0.5 2137:0.5 2140:0.5 2144:0.5 2147:0.5 2179:0.5 2180:0.5 2181:0.5 
1.2897978585406726370621299793129 1:0.16346154 5:0.11764706 6:0.11764706 7:0.05882353 17:0.29411766 18:0.2 19:0.13333333 29:0.1 30:0.1 43:0.60000002 115:0.33333334 129:0.5 148:0.40000001 199:0.33333334 337:0.25 357:0.125 364:0.5 422:1 899:0.5 900:1 1970:1 2018:1 2019:1 2020:1 2022:1 2023:1 2121:0.5 2126:0.5 2130:0.5 2133:0.5 2137:0.5 2140:0.5 2144:0.5 2147:0.5 
-1.3375904525990920390654537186492 1:0.11538462 3:0.25 4:0.083333328 5:0.16666667 6:0.083333328 7:0.083333328 18:0.17142858 19:0.13333333 22:0.036585368 25:1 26:1 27:0.14285713 29:0.1 42:0.11111111 43:0.2 44:0.01538462 51:0.125 53:0.14285713 54:0.11111111 56:0.01639344 58:0.2 134:0.5 181:0.16666667 212:1 214:0.5 266:1 389:0.5 408:1 545:1 773:1 2058:1 2137:0.5 2140:0.5 2144:0.5 2147:0.5 2199:0.5 2205:0.5 2206:0.5 
-0.1758994943738999561233526947035 1:0.11538462 5:0.25 14:0.083333328 18:0.18571429 19:0.2 41:0.11111111 61:0.5 77:0.5 78:0.33333334 82:1 96:0.66666669 118:0.5 122:0.5 128:1 150:0.026666669 166:0.5 186:0.25 256:0.5 766:1 1031:1 1103:1 1113:0.5 1117:0.5 1195:1 1196:1 2137:0.5 2140:0.5 2144:0.5 2147:0.5 2200:0.5 2206:0.5 
-0.91700910831184367921764533093665 1:0.15384614 3:0.0625 5:0.25 6:0.0625 9:0.0625 14:0.25 17:0.0625 18:0.25714287 19:0.26666668 22:0.01219512 27:0.14285713 30:0.1 41:0.44444445 43:0.2 52:0.2 56:0.01639344 61:0.25 75:0.25 80:0.5 81:0.5 82:0.5 95:1 109:0.25 144:0.5 148:0.2 161:1 164:1 165:1 166:0.5 167:1 168:1 169:1 196:0.25 224:0.5 251:1 1998:1 1999:1 2137:0.5 2140:0.5 2144:0.5 2147:0.5 2201:0.5 
1.6407581834342914728352980091586 1:0.10576923 3:0.63636363 4:0.090909094 5:0.090909094 18:0.37142858 19:0.06666667 20:0.2 22:0.085365847 27:0.14285713 42:0.22222222 43:0.2 44:0.01538462 48:0.16666667 51:0.25 53:0.14285713 54:0.11111111 55:0.16666667 56:0.01639344 57:0.2 58:0.2 59:0.25 61:0.25 174:0.25 2137:0.5 2140:0.5 2144:0.5 2147:0.5 2156:0.5 2182:0.5 
1.6407581834342914728352980091586 1:0.057692312 3:0.33333334 4:0.16666667 6:0.16666667 7:0.16666667 18:0.35714287 22:0.024390239 27:0.14285713 30:0.1 44:0.01538462 46:0.25 54:0.11111111 181:0.16666667 252:1 571:0.33333334 1217:0.5 2137:0.5 2140:0.5 2144:0.5 2147:0.5 2157:0.5 2182:0.5 
1.6407581834342914728352980091586 1:0.0096153803 18:0.2 96:0.33333334 2137:0.5 2140:0.5 2144:0.5 2147:0.5 2201:0.5 
-1.6407581834342914728352980091586 1:0.02884615 3:0.33333334 6:0.33333334 7:0.33333334 18:0.22857143 22:0.01219512 30:0.1 181:0.16666667 210:0.33333334 571:0.33333334 2137:0.5 2140:0.5 2144:0.5 2147:0.5 
-1.6407581834342914728352980091586 1:0.04807692 3:0.2 5:0.2 6:0.2 7:0.2 18:0.2 19:0.06666667 21:0.33333334 22:0.01219512 30:0.1 181:0.16666667 210:0.33333334 501:0.33333334 530:0.5 571:0.33333334 2137:0.5 2140:0.5 2144:0.5 2147:0.5 
-1.6407581834342914728352980091586 1:0.07692308 3:0.5 4:0.25 18:0.2857143 22:0.04878049 27:0.14285713 43:0.1 44:0.01538462 47:0.2 51:0.125 53:0.14285713 54:0.22222222 55:0.16666667 59:0.25 61:0.25 174:0.25 209:0.2 2140:0.5 2144:0.5 2147:0.5 2201:0.5 2207:0.5 
1.6407581834342914728352980091586 1:0.07692308 5:0.375 18:0.40000001 19:0.2 23:0.14285713 61:0.25 82:0.5 96:0.33333334 118:0.5 150:0.026666669 186:0.25 247:0.5 256:0.5 766:1 1031:1 1113:0.5 1117:0.5 1195:1 1196:1 2126:0.5 2130:0.5 2133:0.5 2137:0.5 2140:0.5 2144:0.5 2147:0.5 2198:0.5 
0.6652563597773744064056700153742 1:0.25961539 3:0.4074074 4:0.18518519 6:0.11111111 7:0.074074067 16:0.074074067 18:0.11428571 22:0.13414633 27:0.2857143 29:0.1 30:0.2 32:0.25 33:0.25 36:0.5 42:0.11111111 43:0.5 44:0.061538462 47:0.60000002 51:0.125 53:0.2857143 54:0.55555558 61:0.25 112:0.5 119:0.25 133:0.16666667 150:0.01333333 181:0.33333334 199:0.33333334 209:0.80000001 217:0.5 248:1 285:1 423:0.5 461:1 608:0.16666667 632:0.66666669 693:1 865:1 944:1 984:1 985:1 986:1 2130:0.5 2133:0.5 2137:0.5 2140:0.5 2144:0.5 2145:0.5 2198:0.5 2204:0.5 
0.30480572309185283152999090816593 1:0.20192309 3:0.33333334 4:0.19047619 5:0.14285713 6:0.047619049 18:0.21428572 19:0.2 20:0.40000001 22:0.085365847 26:0.5 30:0.1 42:0.22222222 43:0.2 44:0.01538462 47:0.40000001 48:0.5 54:0.44444445 56:0.01639344 58:0.2 59:0.25 61:0.5 112:0.5 124:0.5 173:1 210:0.33333334 217:0.5 536:1 540:1 541:0.5 542:1 543:1 544:0.5 545:1 546:1 547:1 548:1 549:1 2121:0.5 2126:0.5 2130:0.5 2133:0.5 2137:0.5 2140:0.5 2144:0.5 2145:0.5 
-0.23708943962219589107753847656568 1:0.086538456 3:0.33333334 4:0.33333334 5:0.11111111 18:0.37142858 19:0.06666667 22:0.036585368 42:0.11111111 43:0.30000001 44:0.030769231 51:0.125 54:0.33333334 119:0.25 133:0.16666667 150:0.01333333 209:0.2 211:1 246:1 247:0.5 407:1 439:0.5 446:1 448:1 2137:0.5 2140:0.5 2144:0.5 2147:0.5 2201:0.5 
-0.86622688323577901048366811664891 1:0.057692312 5:0.16666667 18:0.42857143 19:0.06666667 78:0.33333334 96:0.33333334 118:0.5 150:0.026666669 186:0.25 256:0.5 766:1 1031:1 1103:1 1113:0.5 1117:0.5 1195:1 1196:1 2137:0.5 2140:0.5 2144:0.5 2147:0.5 2203:0.5 2204:0.5 2205:0.5 2206:0.5 
-0.51609170818227334542882545065368 1:0.125 4:0.07692308 5:0.38461539 14:0.07692308 18:0.2 19:0.33333334 23:0.14285713 41:0.11111111 54:0.11111111 61:0.5 80:0.5 82:1 96:0.33333334 118:0.5 122:0.5 150:0.026666669 166:0.5 186:0.25 247:0.5 256:0.5 407:1 766:1 1031:1 1113:0.5 2039:1 2040:0.5 2043:0.5 2137:0.5 2140:0.5 2144:0.5 2147:0.5 2203:0.5 2204:0.5 2205:0.5 2206:0.5 
1.6407581834342914728352980091586 1:0.01923077 4:0.5 18:0.22857143 26:0.5 54:0.11111111 545:1 2137:0.5 2140:0.5 2144:0.5 2147:0.5 2159:0.5 
1.6407581834342914728352980091586 1:0.096153848 3:0.5 4:0.1 14:0.2 16:0.1 17:0.1 18:0.27142856 22:0.060975611 33:0.125 41:0.22222222 44:0.046153851 49:0.25 52:0.40000001 54:0.11111111 109:0.25 229:1 263:0.5 1200:1 2137:0.5 2140:0.5 2141:0.5 2185:0.5 
1.6407581834342914728352980091586 1:0.02884615 3:0.33333334 4:0.33333334 6:0.33333334 18:0.45714286 22:0.01219512 29:0.1 47:0.2 54:0.11111111 287:0.33333334 2137:0.5 2140:0.5 2144:0.5 2147:0.5 2201:0.5 
-1.6407581834342914728352980091586 1:0.03846154 3:0.5 16:0.25 17:0.25 18:0.14285713 22:0.024390239 33:0.125 44:0.01538462 49:0.25 229:1 1200:1 2137:0.5 2140:0.5 2144:0.5 2147:0.5 
-1.2146791593265937603263182609226 1:0.01923077 4:0.5 18:0.1 54:0.11111111 83:0.25 644:1 2121:0.5 2126:0.5 2130:0.5 2133:0.5 2136:0.5 2160:0.5 2161:0.5 2192:0.5 
-0.046327696230947297550972763247046 1:0.04807692 5:0.2 6:0.2 7:0.2 14:0.2 17:0.2 18:0.11428571 19:0.06666667 29:0.1 41:0.11111111 43:0.30000001 166:0.5 189:0.16666667 200:0.25 337:0.25 456:1 457:1 607:1 1174:1 1541:1 2121:0.5 2126:0.5 2130:0.5 2133:0.5 2136:0.5 2161:0.5 2183:0.5 2184:0.5 2194:0.5 
1.6407581834342914728352980091586 1:0.17307691 3:0.16666667 5:0.27777779 6:0.05555556 14:0.16666667 17:0.05555556 18:0.38571429 19:0.33333334 22:0.036585368 23:0.14285713 27:0.14285713 29:0.1 41:0.33333334 43:0.30000001 44:0.01538462 53:0.14285713 61:0.25 65:0.33333334 68:0.5 80:0.5 84:0.25 93:0.33333334 105:1 109:0.25 112:0.5 120:0.33333334 123:0.5 134:0.5 148:0.2 189:0.16666667 192:0.5 275:0.5 277:0.33333334 280:0.33333334 282:0.33333334 334:1 337:0.25 2126:0.5 2130:0.5 2133:0.5 2137:0.5 2140:0.5 2144:0.5 2147:0.5 2198:0.5 
0.9476632299768971146036733443907 1:0.16346154 3:0.23529412 5:0.41176471 6:0.11764706 9:0.05882353 18:0.12857144 19:0.46666667 20:0.2 21:0.33333334 22:0.04878049 23:0.2857143 30:0.2 43:0.40000001 44:0.030769231 56:0.01639344 58:0.2 61:0.25 75:0.25 112:0.5 148:0.40000001 189:0.16666667 196:0.25 199:0.33333334 251:1 277:0.66666669 282:0.66666669 303:1 335:1 408:1 563:1 1582:1 2121:0.5 2126:0.5 2130:0.5 2133:0.5 2137:0.5 2140:0.5 2144:0.5 2147:0.5 
1.6407581834342914728352980091586 1:0.057692312 3:0.5 5:0.16666667 18:0.35714287 19:0.06666667 22:0.036585368 27:0.14285713 44:0.030769231 81:0.5 96:0.33333334 376:1 379:0.5 845:1 1814:1 2137:0.5 2140:0.5 2144:0.5 2147:0.5 2180:0.5 2205:0.5 2206:0.5 
-1.6407581834342914728352980091586 1:0.16346154 2:0.11764706 3:0.52941173 4:0.05882353 5:0.17647059 18:0.25714287 19:0.2 21:0.33333334 22:0.1097561 23:0.14285713 40:0.33333334 44:0.092307687 47:0.2 48:0.16666667 54:0.11111111 61:0.25 65:0.33333334 69:0.5 120:0.33333334 296:0.5 485:1 669:0.5 1100:1 1344:1 2137:0.5 2140:0.5 2144:0.5 2147:0.5 2157:0.5 2182:0.5 
-1.6407581834342914728352980091586 1:0.096153848 3:0.5 5:0.1 18:0.22857143 19:0.06666667 20:0.2 22:0.060975611 27:0.14285713 44:0.046153851 96:0.33333334 107:1 108:0.5 388:0.5 389:0.5 508:1 728:1 845:1 2137:0.5 2140:0.5 2144:0.5 2147:0.5 2154:0.5 2181:0.5 2182:0.5 
-0.66310266630681047317352749814745 1:0.13461538 3:0.35714287 5:0.071428567 14:0.14285713 17:0.071428567 18:0.24285714 19:0.06666667 22:0.060975611 41:0.22222222 43:0.2 44:0.046153851 61:0.25 65:0.33333334 84:0.25 93:0.33333334 105:0.5 109:0.25 112:0.5 118:0.5 121:1 174:0.25 275:0.5 277:0.33333334 282:0.33333334 625:0.14285713 798:1 1168:1 2014:1 2037:1 2137:0.5 2140:0.5 2144:0.5 2147:0.5 2154:0.5 2181:0.5 2182:0.5 
1.6407581834342914728352980091586 1:0.01923077 14:0.5 17:0.5 18:0.1 41:0.11111111 2121:0.5 2123:0.5 2126:0.5 2127:0.5 2128:0.5 2130:0.5 2133:0.5 2183:0.5 
1.6407581834342914728352980091586 1:0.057692312 3:0.16666667 6:0.16666667 14:0.16666667 18:0.085714288 22:0.01219512 30:0.1 41:0.11111111 56:0.01639344 61:0.25 78:0.66666669 161:1 197:1 198:1 210:0.33333334 218:1 1238:1 2121:0.5 2126:0.5 2130:0.5 2133:0.5 2136:0.5 2161:0.5 2171:0.5 2192:0.5 
1.6407581834342914728352980091586 1:0.11538462 3:0.25 4:0.16666667 5:0.25 14:0.16666667 18:0.071428567 19:0.2 20:0.2 22:0.036585368 23:0.14285713 27:0.14285713 41:0.22222222 44:0.030769231 45:0.5 54:0.22222222 56:0.01639344 58:0.2 59:0.25 60:0.33333334 61:0.25 62:0.5 105:0.5 133:0.16666667 161:1 2121:0.5 2126:0.5 2128:0.5 2130:0.5 2132:0.5 2133:0.5 2158:0.5 2160:0.5 2192:0.5 
-1.6407581834342914728352980091586 1:0.03846154 14:0.25 17:0.25 18:0.11428571 27:0.14285713 41:0.11111111 67:0.5 69:0.5 84:0.25 93:0.33333334 110:0.5 2121:0.5 2126:0.5 2127:0.5 2128:0.5 2130:0.5 2132:0.5 2133:0.5 2155:0.5 
-0.47003363363825495513381724776991 1:0.03846154 9:0.5 18:0.057142861 27:0.14285713 43:0.1 66:0.33333334 75:0.25 142:0.25 144:0.5 257:0.5 258:0.5 385:0.5 2121:0.5 2123:0.5 2126:0.5 2127:0.5 2130:0.5 2131:0.5 2133:0.5 2134:0.5 
-0.0036387860194611893610572295187922 1:0.02884615 18:0.057142861 27:0.14285713 78:0.33333334 142:0.25 257:0.5 264:0.5 2121:0.5 2123:0.5 2126:0.5 2127:0.5 2130:0.5 2133:0.5 2155:0.5 
1.6407581834342914728352980091586 1:0.03846154 3:0.25 4:0.25 18:0.24285714 22:0.01219512 27:0.14285713 47:0.2 54:0.11111111 389:0.5 508:1 768:1 2137:0.5 2140:0.5 2144:0.5 2147:0.5 2159:0.5 
1.6407581834342914728352980091586 1:0.057692312 6:0.33333334 18:0.14285713 30:0.2 43:0.1 61:0.75 96:0.33333334 112:0.5 128:1 196:0.25 217:1 227:0.5 2137:0.5 2140:0.5 2144:0.5 2147:0.5 2200:0.5 2206:0.5 
0.69740460929571845838381705107167 1:0.067307688 3:0.5714286 4:0.14285713 18:0.27142856 22:0.04878049 27:0.14285713 44:0.01538462 47:0.2 53:0.14285713 54:0.11111111 55:0.16666667 388:0.5 389:0.5 508:1 2137:0.5 2140:0.5 2144:0.5 2147:0.5 2182:0.5 
-1.137920701056053474076179554686 1:0.13461538 3:0.2857143 4:0.071428567 5:0.071428567 14:0.21428572 17:0.071428567 18:0.30000001 19:0.06666667 22:0.04878049 27:0.14285713 41:0.33333334 44:0.01538462 45:0.5 47:0.2 54:0.11111111 55:0.16666667 65:0.33333334 84:0.25 93:0.33333334 96:0.33333334 105:0.5 109:0.25 224:0.5 280:0.33333334 282:0.33333334 291:0.5 302:1 575:0.5 912:1 2137:0.5 2140:0.5 2144:0.5 2147:0.5 2159:0.5 
-1.6407581834342914728352980091586 1:0.125 3:0.38461539 5:0.07692308 6:0.23076923 14:0.15384614 18:0.48571429 19:0.06666667 20:0.2 22:0.060975611 30:0.30000001 41:0.22222222 43:0.30000001 44:0.046153851 51:0.125 52:0.2 99:0.125 115:0.33333334 126:0.5 127:0.33333334 196:0.25 199:0.66666669 224:0.5 275:0.5 277:0.33333334 282:0.33333334 2137:0.5 2140:0.5 2144:0.5 2147:0.5 2179:0.5 2180:0.5 2181:0.5 2182:0.5 
-1.6407581834342914728352980091586 1:0.11538462 3:0.33333334 5:0.16666667 6:0.083333328 14:0.083333328 18:0.2857143 19:0.13333333 20:0.40000001 22:0.04878049 30:0.1 41:0.11111111 43:0.1 44:0.01538462 52:0.2 61:0.5 80:0.5 112:0.5 117:0.25 123:0.5 217:0.5 439:0.5 445:1 462:1 1563:0.5 1566:0.5 2137:0.5 2140:0.5 2144:0.5 2147:0.5 2157:0.5 2182:0.5 
0.8488247285146703902114495576825 1:0.067307688 3:0.5714286 5:0.14285713 14:0.14285713 18:0.057142861 19:0.06666667 20:0.2 22:0.04878049 41:0.11111111 44:0.046153851 78:0.33333334 202:1 203:0.5 204:1 216:1 2118:0.5 2121:0.5 2122:0.5 2126:0.5 2130:0.5 2133:0.5 2186:0.5 
1.6407581834342914728352980091586 1:0.057692312 3:0.16666667 5:0.33333334 6:0.16666667 14:0.16666667 18:0.18571429 19:0.13333333 22:0.01219512 23:0.14285713 29:0.1 41:0.11111111 124:0.16666667 134:0.5 150:0.01333333 243:0.5 244:0.33333334 245:0.5 285:1 286:0.5 989:0.5 2121:0.5 2126:0.5 2130:0.5 2133:0.5 2161:0.5 2185:0.5 2192:0.5 2218:0.5 
1.6407581834342914728352980091586 1:0.01923077 7:0.5 14:0.5 18:0.057142861 41:0.11111111 181:0.16666667 1465:1 2121:0.5 2123:0.5 2126:0.5 2127:0.5 2130:0.5 2133:0.5 2134:0.5 
-0.042790920226058917763545252910262 1:0.057692312 3:0.66666669 4:0.16666667 9:0.16666667 18:0.47142857 22:0.04878049 42:0.22222222 43:0.2 44:0.01538462 47:0.2 51:0.25 54:0.11111111 75:0.25 602:1 2140:0.5 2144:0.5 2147:0.5 2201:0.5 2207:0.5 
-1.6407581834342914728352980091586 1:0.02884615 3:0.33333334 4:0.33333334 18:0.12857144 22:0.01219512 42:0.11111111 43:0.2 51:0.125 54:0.11111111 83:0.25 209:0.2 253:0.5 2121:0.5 2126:0.5 2130:0.5 2133:0.5 2158:0.5 2161:0.5 2185:0.5 2192:0.5 2218:0.5 
-1.3462145928702966557466425001621 1:0.10576923 3:0.45454544 4:0.090909094 5:0.090909094 6:0.18181819 17:0.090909094 18:0.057142861 19:0.06666667 20:0.2 22:0.060975611 27:0.14285713 29:0.2 31:0.25 44:0.030769231 53:0.14285713 54:0.11111111 55:0.16666667 162:0.5 287:0.33333334 1608:1 1609:1 1610:1 2121:0.5 2122:0.5 2123:0.5 2126:0.5 2127:0.5 2130:0.5 2133:0.5 2155:0.5 2158:0.5 
1.6407581834342914728352980091586 1:0.14423077 3:0.60000002 5:0.2 7:0.06666667 14:0.06666667 18:0.22857143 19:0.2 20:0.2 21:0.33333334 22:0.1097561 23:0.14285713 27:0.14285713 41:0.11111111 44:0.092307687 52:0.2 53:0.14285713 55:0.16666667 56:0.01639344 109:0.25 181:0.16666667 408:1 1150:1 2137:0.5 2140:0.5 2144:0.5 2145:0.5 2182:0.5 
1.6407581834342914728352980091586 1:0.02884615 3:0.33333334 4:0.33333334 18:0.38571429 22:0.01219512 54:0.11111111 59:0.25 60:0.33333334 61:0.25 2137:0.5 2140:0.5 2144:0.5 2147:0.5 2179:0.5 2180:0.5 2181:0.5 2182:0.5 
-1.6407581834342914728352980091586 1:0.1826923 3:0.63157892 4:0.10526316 5:0.052631579 12:0.052631579 14:0.052631579 18:0.42857143 19:0.06666667 22:0.14634146 27:0.14285713 41:0.11111111 44:0.10769231 47:0.2 48:0.33333334 52:0.2 53:0.14285713 54:0.22222222 55:0.16666667 56:0.01639344 58:0.2 85:0.25 161:1 238:0.5 388:0.5 389:0.5 407:1 508:1 2154:0.5 2181:0.5 2182:0.5 2183:0.5 2184:0.5 2186:0.5 2202:0.5 
-1.6407581834342914728352980091586 1:0.02884615 3:0.33333334 7:0.33333334 18:0.41428572 22:0.01219512 26:0.5 181:0.16666667 214:0.5 761:1 2137:0.5 2140:0.5 2144:0.5 2147:0.5 
-1.5416470967199060737584659364074 1:0.086538456 3:0.55555558 5:0.11111111 18:0.24285714 19:0.06666667 20:0.2 22:0.060975611 44:0.046153851 61:0.25 83:0.5 374:1 376:1 379:0.5 764:1 1160:1 1271:1 2137:0.5 2140:0.5 2144:0.5 2147:0.5 2179:0.5 2180:0.5 2181:0.5 2182:0.5 
0.65120200644738934769861771201249 1:0.057692312 4:0.16666667 5:0.16666667 14:0.16666667 17:0.16666667 18:0.14285713 19:0.06666667 41:0.11111111 43:0.1 54:0.11111111 119:0.25 164:1 165:1 166:0.5 167:1 168:1 169:1 2121:0.5 2126:0.5 2130:0.5 2133:0.5 2137:0.5 2140:0.5 2175:0.5 2197:0.5 
1.6407581834342914728352980091586 1:0.125 3:0.46153846 4:0.15384614 5:0.07692308 14:0.07692308 18:0.44285715 19:0.06666667 22:0.073170729 27:0.14285713 41:0.11111111 43:0.1 44:0.030769231 45:0.5 47:0.2 48:0.16666667 52:0.2 54:0.22222222 55:0.16666667 59:0.25 61:0.25 119:0.25 170:1 171:0.5 172:0.5 174:0.25 209:0.2 2130:0.5 2133:0.5 2152:0.5 2204:0.5 2207:0.5 2208:0.5 2209:0.5 2221:0.5 
-1.6407581834342914728352980091586 1:0.125 3:0.46153846 5:0.07692308 18:0.071428567 19:0.06666667 22:0.073170729 27:0.2857143 43:0.1 44:0.061538462 53:0.2857143 61:0.25 112:0.5 170:1 171:0.5 172:0.5 174:0.25 2128:0.5 2132:0.5 2134:0.5 2158:0.5 2192:0.5 2201:0.5 
-0.81557981803041368351614437415265 1:0.01923077 4:0.5 13:0.5 18:0.42857143 54:0.11111111 150:0.01333333 354:1 467:0.5 2126:0.5 2130:0.5 2133:0.5 2177:0.5 2203:0.5 2207:0.5 2208:0.5 2220:0.5 
-0.35265653229574694949022273249284 1:0.0096153803 14:1 18:0.27142856 41:0.11111111 2159:0.5 2183:0.5 2184:0.5 2186:0.5 2202:0.5 
0.92796684880152713326140201388625 1:0.30769232 3:0.5 4:0.125 5:0.03125 6:0.03125 7:0.03125 17:0.03125 18:0.2857143 19:0.06666667 20:0.2 22:0.19512194 27:0.2857143 29:0.1 38:0.33333334 43:0.30000001 44:0.13846155 46:0.25 47:0.40000001 48:0.33333334 53:0.2857143 54:0.44444445 55:0.16666667 56:0.01639344 57:0.2 58:0.2 61:0.5 112:0.5 124:0.16666667 133:0.16666667 200:0.25 222:0.33333334 233:0.33333334 244:0.33333334 339:1 439:0.5 445:1 462:1 569:1 580:1 679:1 914:1 1138:1 1700:1 1826:1 2137:0.5 2140:0.5 2144:0.5 2147:0.5 2201:0.5 
1.6407581834342914728352980091586 1:0.067307688 3:0.71428573 5:0.14285713 18:0.44285715 19:0.06666667 20:0.2 22:0.060975611 26:0.5 42:0.11111111 43:0.1 44:0.030769231 51:0.125 56:0.01639344 57:0.2 58:0.2 214:0.5 2121:0.5 2126:0.5 2137:0.5 2140:0.5 2144:0.5 2147:0.5 2181:0.5 2182:0.5 
1.5842450006150365915402744576568 1:0.125 3:0.69230771 4:0.07692308 5:0.07692308 6:0.07692308 18:0.35714287 19:0.06666667 20:0.2 22:0.1097561 30:0.1 44:0.10769231 54:0.11111111 56:0.01639344 57:0.2 58:0.2 115:0.33333334 127:0.33333334 135:0.33333334 1684:1 2137:0.5 2140:0.5 2144:0.5 2147:0.5 2154:0.5 2181:0.5 2206:0.5 
-1.6407581834342914728352980091586 1:0.096153848 3:0.5 4:0.2 5:0.2 18:0.35714287 19:0.13333333 22:0.060975611 23:0.14285713 26:0.5 42:0.44444445 43:0.40000001 44:0.01538462 51:0.375 54:0.22222222 119:0.25 133:0.16666667 203:0.5 214:0.5 475:1 1319:1 2137:0.5 2140:0.5 2144:0.5 2147:0.5 2152:0.5 2180:0.5 2181:0.5 2182:0.5 
-1.074908515576977530159297202772 1:0.13461538 3:0.35714287 4:0.21428572 5:0.21428572 18:0.2857143 19:0.2 20:0.2 22:0.060975611 44:0.030769231 47:0.2 48:0.16666667 54:0.33333334 56:0.032786891 57:0.40000001 58:0.40000001 60:0.33333334 61:0.25 104:0.5 108:0.5 150:0.01333333 211:1 241:0.5 246:1 247:0.5 279:0.5 407:1 2137:0.5 2140:0.5 2144:0.5 2147:0.5 2180:0.5 2181:0.5 2182:0.5 2198:0.5 
-1.6407581834342914728352980091586 1:0.086538456 3:0.55555558 4:0.22222222 6:0.11111111 18:0.2 22:0.060975611 29:0.1 42:0.22222222 43:0.40000001 44:0.01538462 47:0.2 51:0.375 54:0.22222222 56:0.01639344 57:0.2 119:0.25 159:0.5 209:0.2 287:0.33333334 682:1 703:1 2137:0.5 2140:0.5 2144:0.5 2147:0.5 2181:0.5 2199:0.5 2206:0.5 
1.6407581834342914728352980091586 1:0.13461538 3:0.78571427 4:0.071428567 16:0.071428567 18:0.11428571 22:0.13414633 33:0.125 43:0.1 44:0.12307692 47:0.2 48:0.16666667 49:0.25 51:0.125 54:0.11111111 65:0.33333334 291:0.5 811:0.5 2121:0.5 2126:0.5 2128:0.5 2130:0.5 2132:0.5 2133:0.5 2158:0.5 2191:0.5 2192:0.5 
1.6407581834342914728352980091586 1:0.10576923 3:0.63636363 4:0.18181819 18:0.61428571 22:0.085365847 42:0.11111111 43:0.2 44:0.046153851 47:0.40000001 51:0.25 54:0.22222222 59:0.25 61:0.25 174:0.25 623:1 624:1 1439:1 2126:0.5 2130:0.5 2133:0.5 2183:0.5 2184:0.5 2186:0.5 2198:0.5 2202:0.5 
1.6407581834342914728352980091586 1:0.10576923 3:0.90909094 6:0.090909094 18:0.1 22:0.12195122 29:0.1 44:0.13846155 287:0.33333334 2121:0.5 2126:0.5 2128:0.5 2130:0.5 2132:0.5 2133:0.5 2155:0.5 2160:0.5 2173:0.5 
-1.6407581834342914728352980091586 1:0.02884615 3:1 18:0.028571431 22:0.036585368 44:0.030769231 2114:0.5 2115:0.5 2121:0.5 2126:0.5 2130:0.5 
-1.6407581834342914728352980091586 1:0.01923077 3:0.5 6:0.5 18:0.085714288 22:0.01219512 29:0.1 150:0.01333333 248:1 285:1 2121:0.5 2123:0.5 2126:0.5 2127:0.5 2128:0.5 2130:0.5 2133:0.5 2183:0.5 
-1.6407581834342914728352980091586 1:0.086538456 3:0.77777779 4:0.11111111 6:0.11111111 18:0.1 22:0.085365847 29:0.1 42:0.33333334 43:0.30000001 44:0.030769231 48:0.16666667 51:0.375 54:0.11111111 150:0.01333333 248:1 287:0.33333334 354:1 2121:0.5 2126:0.5 2128:0.5 2130:0.5 2132:0.5 2133:0.5 2155:0.5 2160:0.5 2173:0.5 
1.0774251918129160721093739994103 1:0.52884614 3:0.65454543 4:0.12727273 5:0.054545451 14:0.036363639 16:0.018181819 18:0.057142861 19:0.2 20:0.40000001 22:0.43902439 27:0.42857143 33:0.125 41:0.22222222 43:0.2 44:0.38461539 47:0.80000001 48:0.5 49:0.25 50:1 51:0.125 52:0.2 53:0.42857143 54:0.77777779 55:0.33333334 56:0.049180329 57:0.40000001 58:0.40000001 78:0.33333334 119:0.25 123:0.5 124:0.16666667 131:0.5 161:1 189:0.16666667 264:0.5 477:0.5 536:1 538:1 641:1 721:0.5 735:0.33333334 1175:1 1176:1 1208:1 2118:0.5 2122:0.5 2123:0.5 2179:0.5 2180:0.5 2181:0.5 2182:0.5 
1.6407581834342914728352980091586 1:0.02884615 4:0.33333334 14:0.33333334 18:0.3142857 41:0.11111111 54:0.11111111 117:0.25 263:0.5 1030:1 2137:0.5 2140:0.5 2144:0.5 2147:0.5 2159:0.5 
1.3227898456380458025449797787587 1:0.13461538 3:0.2857143 4:0.14285713 7:0.42857143 18:0.2 22:0.04878049 43:0.60000002 44:0.01538462 47:0.2 54:0.22222222 124:0.33333334 133:0.16666667 181:1 221:0.80000001 244:0.66666669 608:1 756:0.66666669 757:1 910:0.66666669 2137:0.5 2140:0.5 2144:0.5 2147:0.5 2201:0.5 
-0.022327000029293418009723737327477 1:0.086538456 4:0.11111111 6:0.44444445 9:0.22222222 16:0.22222222 18:0.028571431 29:0.30000001 30:0.1 32:0.5 33:0.25 54:0.11111111 75:0.5 100:0.25 135:0.33333334 323:1 481:1 2114:0.5 2121:0.5 2126:0.5 2130:0.5 2133:0.5 
-1.6009879083826465961948315452901 1:0.01923077 10:0.5 17:0.5 18:0.15714286 183:0.5 1355:1 1869:1 2137:0.5 2140:0.5 2144:0.5 2147:0.5 
-1.5341704570610068536495873559033 1:0.23076923 3:0.41666666 5:0.125 6:0.041666672 12:0.041666672 14:0.16666667 18:0.34285715 19:0.2 20:0.2 22:0.12195122 27:0.2857143 29:0.1 41:0.44444445 44:0.061538462 45:0.5 52:0.40000001 53:0.14285713 55:0.33333334 56:0.01639344 58:0.2 59:0.5 61:0.5 85:0.25 89:0.5 105:1 109:0.25 134:0.5 174:0.25 238:0.5 275:0.5 282:0.33333334 490:1 1941:1 2137:0.5 2140:0.5 2144:0.5 2147:0.5 2157:0.5 2182:0.5 
0.81441370145112867984238391727558 1:0.10576923 3:0.36363637 4:0.090909094 5:0.27272728 7:0.090909094 14:0.090909094 16:0.090909094 18:0.057142861 19:0.2 21:0.33333334 22:0.04878049 33:0.125 41:0.11111111 43:0.1 44:0.030769231 48:0.16666667 54:0.11111111 105:0.5 119:0.25 166:0.5 190:1 356:0.33333334 357:0.125 454:1 823:1 2123:0.5 2127:0.5 2130:0.5 2133:0.5 2137:0.5 2199:0.5 
1.4466074211482944367190839329851 1:0.1826923 3:0.68421054 4:0.052631579 5:0.052631579 14:0.10526316 18:0.085714288 19:0.06666667 20:0.2 22:0.15853658 27:0.14285713 41:0.22222222 42:0.11111111 43:0.1 44:0.12307692 46:0.25 48:0.16666667 51:0.125 52:0.2 53:0.14285713 54:0.11111111 56:0.01639344 58:0.2 61:0.25 92:0.5 150:0.01333333 161:1 174:0.25 248:1 353:1 2121:0.5 2123:0.5 2126:0.5 2127:0.5 2128:0.5 2130:0.5 2133:0.5 2155:0.5 2160:0.5 
-0.46341267385952533697235367071698 1:0.11538462 5:0.25 6:0.25 14:0.16666667 16:0.083333328 18:0.057142861 19:0.2 29:0.1 30:0.2 33:0.125 36:0.5 41:0.22222222 43:0.60000002 61:0.25 78:0.66666669 112:0.5 123:0.5 138:1 148:0.40000001 188:1 189:0.5 196:0.25 197:1 198:1 199:0.33333334 200:0.25 201:0.5 2114:0.5 2118:0.5 2121:0.5 2126:0.5 2130:0.5 2133:0.5 2186:0.5 
-1.4653094054684629998774880732526 1:0.04807692 3:0.2 14:0.2 17:0.2 18:0.057142861 22:0.01219512 41:0.11111111 84:0.25 93:0.33333334 115:0.33333334 280:0.33333334 315:1 1404:1 1405:1 2118:0.5 2121:0.5 2122:0.5 2123:0.5 2126:0.5 2130:0.5 2133:0.5 
-0.79519285631434388772476040685433 1:0.14423077 3:0.40000001 4:0.06666667 5:0.06666667 9:0.06666667 18:0.21428572 19:0.06666667 22:0.073170729 44:0.046153851 47:0.2 54:0.11111111 61:0.25 65:1 75:0.25 96:0.33333334 120:0.66666669 128:1 291:0.5 316:1 336:1 480:1 485:1 501:0.33333334 661:1 868:1 2137:0.5 2140:0.5 2144:0.5 2147:0.5 2159:0.5 
1.6407581834342914728352980091586 1:0.14423077 3:0.40000001 5:0.13333333 14:0.06666667 18:0.30000001 19:0.13333333 20:0.2 22:0.073170729 27:0.14285713 41:0.11111111 44:0.046153851 52:0.2 53:0.14285713 65:0.33333334 68:0.5 78:0.33333334 108:0.5 109:0.25 120:0.33333334 233:0.33333334 315:1 359:1 375:1 377:0.5 2133:0.5 2137:0.5 2140:0.5 2144:0.5 2147:0.5 2157:0.5 
1.6407581834342914728352980091586 1:0.0096153803 18:0.18571429 96:0.33333334 2137:0.5 2140:0.5 2144:0.5 2147:0.5 2201:0.5 
1.6407581834342914728352980091586 1:0.07692308 3:0.375 18:0.34285715 22:0.036585368 27:0.42857143 44:0.01538462 53:0.2857143 55:0.16666667 65:0.33333334 68:0.5 120:0.33333334 192:0.5 1184:1 2137:0.5 2140:0.5 2144:0.5 2147:0.5 2201:0.5 
-1.6407581834342914728352980091586 1:0.01923077 3:0.5 4:0.5 18:0.40000001 22:0.01219512 47:0.2 54:0.11111111 2140:0.5 2144:0.5 2147:0.5 2201:0.5 2207:0.5 
-1.4565733486495262560822538944194 1:0.067307688 5:0.71428573 6:0.14285713 14:0.14285713 18:0.2 19:0.33333334 23:0.14285713 29:0.1 41:0.11111111 43:0.2 56:0.01639344 58:0.2 134:0.5 148:0.2 166:0.5 188:0.5 189:0.33333334 408:1 2137:0.5 2140:0.5 2144:0.5 2147:0.5 2201:0.5 
-1.6407581834342914728352980091586 1:0.03846154 3:0.25 5:0.75 18:0.2857143 19:0.2 20:0.2 21:0.33333334 22:0.01219512 23:0.14285713 2137:0.5 2140:0.5 2144:0.5 2147:0.5 2159:0.5 
0.76552303660483556058125031995587 1:0.16346154 2:0.11764706 3:0.29411766 4:0.05882353 5:0.05882353 6:0.11764706 7:0.17647059 17:0.05882353 18:0.17142858 19:0.06666667 22:0.060975611 27:0.2857143 29:0.1 30:0.1 38:0.33333334 39:0.5 40:0.33333334 44:0.030769231 53:0.14285713 54:0.11111111 56:0.01639344 58:0.2 115:0.33333334 162:0.5 181:0.16666667 182:0.25 210:0.33333334 220:1 287:0.33333334 298:1 301:0.33333334 322:0.25 1158:1 1598:1 1710:1 1711:1 1712:1 1713:1 2121:0.5 2126:0.5 2128:0.5 2130:0.5 2133:0.5 2137:0.5 2140:0.5 2144:0.5 
0.96076168601392697432572731486289 1:0.15384614 3:0.5625 4:0.0625 5:0.0625 12:0.0625 14:0.0625 18:0.071428567 19:0.06666667 20:0.2 22:0.1097561 27:0.14285713 41:0.11111111 44:0.061538462 48:0.16666667 53:0.14285713 54:0.11111111 55:0.16666667 59:0.25 61:0.25 85:0.25 89:0.5 104:0.5 107:1 108:0.5 174:0.25 202:1 203:0.5 204:1 498:1 2128:0.5 2130:0.5 2132:0.5 2133:0.5 2158:0.5 2160:0.5 2199:0.5 
0.57940937099424327794139344405266 1:0.11538462 3:0.58333331 4:0.083333328 14:0.16666667 18:0.085714288 22:0.085365847 26:0.5 41:0.22222222 44:0.061538462 48:0.16666667 52:0.2 54:0.11111111 59:0.25 60:0.33333334 61:0.25 109:0.25 202:1 203:0.5 214:0.5 475:1 2121:0.5 2126:0.5 2130:0.5 2133:0.5 2136:0.5 2158:0.5 2161:0.5 2171:0.5 
-1.1096797655064236653998932524701 1:0.13461538 3:0.2857143 4:0.071428567 5:0.071428567 9:0.071428567 14:0.071428567 16:0.071428567 18:0.24285714 19:0.06666667 22:0.04878049 27:0.2857143 33:0.125 41:0.11111111 43:0.1 48:0.16666667 49:0.25 52:0.2 53:0.14285713 54:0.11111111 62:0.5 75:0.25 96:0.33333334 97:0.5 109:0.25 119:0.25 150:0.01333333 233:0.33333334 377:0.5 494:1 602:1 990:1 1450:1 1682:1 1881:1 2137:0.5 2140:0.5 2144:0.5 2146:0.5 2147:0.5 2149:0.5 2151:0.5 2164:0.5 2179:0.5 2181:0.5 2182:0.5 
-1.6407581834342914728352980091586 1:0.17307691 3:0.3888889 4:0.05555556 5:0.05555556 7:0.05555556 14:0.16666667 18:0.32857144 19:0.06666667 22:0.085365847 27:0.42857143 38:0.33333334 41:0.33333334 44:0.01538462 45:1 47:0.2 48:0.16666667 52:0.40000001 53:0.14285713 54:0.11111111 55:0.5 59:0.25 61:0.25 170:1 171:0.5 172:0.5 174:0.25 504:1 812:1 2137:0.5 2140:0.5 2144:0.5 2147:0.5 2154:0.5 2181:0.5 2182:0.5 
-0.63632494184458932018344512471231 1:0.125 3:0.30769232 5:0.15384614 9:0.07692308 14:0.07692308 18:0.18571429 19:0.13333333 22:0.04878049 27:0.2857143 41:0.11111111 52:0.2 53:0.14285713 55:0.33333334 66:0.33333334 104:1 107:1 108:1 166:0.5 276:1 279:0.5 314:1 315:1 1506:1 2137:0.5 2140:0.5 2144:0.5 2147:0.5 2179:0.5 2180:0.5 2181:0.5 2182:0.5 
1.6407581834342914728352980091586 1:0.02884615 4:0.66666669 18:0.2857143 54:0.22222222 60:0.33333334 61:0.25 241:0.5 2137:0.5 2140:0.5 2144:0.5 2147:0.5 2157:0.5 2206:0.5 
1.6407581834342914728352980091586 1:0.0096153803 4:1 18:0.32857144 54:0.11111111 2137:0.5 2140:0.5 2144:0.5 2147:0.5 2157:0.5 2182:0.5 
-1.5733810185249570423593468149193 1:0.057692312 3:0.5 4:0.16666667 5:0.16666667 18:0.25714287 19:0.06666667 20:0.2 22:0.036585368 42:0.22222222 43:0.2 44:0.01538462 51:0.125 54:0.11111111 119:0.25 203:0.5 204:1 211:1 213:1 2137:0.5 2140:0.5 2144:0.5 2147:0.5 2201:0.5 
-1.6407581834342914728352980091586 1:0.07692308 3:0.375 5:0.125 14:0.125 18:0.30000001 19:0.06666667 22:0.036585368 41:0.11111111 44:0.030769231 104:0.5 108:0.5 117:0.25 233:0.33333334 279:0.5 377:0.5 597:1 1079:0.5 2137:0.5 2140:0.5 2144:0.5 2147:0.5 2159:0.5 
-0.4175217892815482056967368862388 1:0.04807692 3:0.60000002 4:0.2 18:0.22857143 22:0.036585368 42:0.11111111 43:0.2 44:0.01538462 51:0.125 54:0.11111111 119:0.25 203:0.5 209:0.2 211:1 213:1 1053:1 2137:0.5 2140:0.5 2144:0.5 2147:0.5 2200:0.5 2206:0.5 
0.9220468900686578095360346196685 1:0.13461538 3:0.14285713 5:0.21428572 9:0.14285713 18:0.15714286 19:0.2 22:0.024390239 27:0.14285713 61:0.25 62:0.5 66:0.33333334 67:0.5 69:0.5 70:1 75:0.25 77:0.5 78:0.33333334 113:0.5 124:0.33333334 165:1 174:0.25 243:0.5 244:0.33333334 245:0.5 276:1 314:1 315:1 359:1 531:1 1136:1 2121:0.5 2126:0.5 2130:0.5 2133:0.5 2137:0.5 2173:0.5 2185:0.5 2196:0.5 2220:0.5 
0.33239405432676871754438252537511 1:0.11538462 3:0.25 4:0.16666667 5:0.083333328 14:0.16666667 18:0.2 19:0.06666667 22:0.036585368 27:0.2857143 41:0.22222222 43:0.2 44:0.01538462 45:0.5 46:0.25 48:0.16666667 52:0.2 54:0.22222222 105:0.5 107:1 108:0.5 109:0.25 133:0.16666667 324:0.5 497:0.5 831:1 832:1 833:1 2121:0.5 2126:0.5 2130:0.5 2133:0.5 2137:0.5 2145:0.5 2184:0.5 2186:0.5 
0.60312837114892425827150646000518 1:0.14423077 3:0.2 4:0.13333333 5:0.2 6:0.2 14:0.06666667 18:0.12857144 19:0.2 22:0.036585368 23:0.2857143 27:0.14285713 30:0.30000001 41:0.11111111 43:0.30000001 44:0.01538462 45:0.5 47:0.2 54:0.22222222 56:0.01639344 119:0.25 124:0.33333334 173:1 176:0.5 196:0.75 199:0.66666669 243:0.5 244:0.66666669 245:0.5 622:1 623:1 989:0.5 1885:1 2045:1 2121:0.5 2126:0.5 2130:0.5 2133:0.5 2137:0.5 2173:0.5 2185:0.5 2194:0.5 
-1.6407581834342914728352980091586 1:0.03846154 3:0.25 4:0.25 6:0.25 12:0.25 18:0.30000001 22:0.01219512 29:0.1 54:0.11111111 85:0.25 89:0.5 287:0.33333334 498:1 2121:0.5 2126:0.5 2130:0.5 2133:0.5 2177:0.5 2183:0.5 2184:0.5 2195:0.5 
-1.6407581834342914728352980091586 1:0.01923077 3:0.5 4:0.5 18:0.071428567 22:0.01219512 47:0.2 54:0.11111111 2118:0.5 2121:0.5 2122:0.5 2123:0.5 2126:0.5 2130:0.5 2142:0.5 2182:0.5 
-1.1584574248190888656750985319377 1:0.07692308 2:0.25 4:0.125 7:0.375 14:0.125 17:0.125 18:0.071428567 38:0.33333334 39:0.5 40:0.33333334 41:0.11111111 43:0.30000001 54:0.11111111 56:0.01639344 96:0.33333334 119:0.25 161:1 181:0.16666667 221:0.2 357:0.125 364:0.5 366:0.5 431:0.33333334 465:1 987:0.5 1778:1 2121:0.5 2126:0.5 2128:0.5 2130:0.5 2132:0.5 2133:0.5 2158:0.5 2183:0.5 2192:0.5 
1.6407581834342914728352980091586 1:0.057692312 3:0.33333334 5:0.16666667 9:0.16666667 18:0.2857143 19:0.06666667 21:0.33333334 22:0.024390239 27:0.14285713 53:0.14285713 75:0.25 96:0.33333334 97:0.5 332:1 602:1 2137:0.5 2140:0.5 2144:0.5 2147:0.5 2201:0.5 
1.0206748896028823292425613544765 1:0.125 3:0.61538464 14:0.07692308 18:0.38571429 22:0.097560979 27:0.14285713 41:0.11111111 44:0.07692308 53:0.14285713 59:0.5 61:0.75 95:1 109:0.25 174:0.5 2112:0.5 2137:0.5 2140:0.5 2143:0.5 2144:0.5 2146:0.5 2147:0.5 2149:0.5 2151:0.5 2180:0.5 2181:0.5 2182:0.5 
1.0751178098757179224520541538368 1:0.07692308 3:0.375 4:0.125 5:0.25 14:0.125 18:0.42857143 19:0.13333333 22:0.036585368 23:0.14285713 27:0.14285713 41:0.11111111 42:0.22222222 43:0.2 48:0.16666667 51:0.125 53:0.14285713 54:0.11111111 55:0.16666667 150:0.01333333 188:0.5 256:0.5 354:1 2133:0.5 2137:0.5 2140:0.5 2144:0.5 2147:0.5 2200:0.5 
-1.2250911689143579863525701512117 1:0.14423077 3:0.2 5:0.06666667 14:0.26666668 17:0.06666667 18:0.34285715 19:0.06666667 22:0.036585368 27:0.14285713 41:0.44444445 43:0.2 44:0.01538462 52:0.2 53:0.14285713 61:0.25 65:0.33333334 68:0.5 105:0.5 109:0.25 112:0.5 120:0.33333334 122:0.5 188:0.5 243:0.5 1226:1 2137:0.5 2140:0.5 2144:0.5 2147:0.5 2159:0.5 
-0.75828524034390287766882465803064 1:0.07692308 5:0.125 8:0.25 12:0.125 13:0.125 14:0.125 18:0.44285715 19:0.06666667 27:0.2857143 41:0.11111111 43:0.1 56:0.01639344 61:0.25 64:0.5 85:0.25 90:0.33333334 95:1 139:0.5 141:0.5 166:0.5 189:0.16666667 268:1 467:0.5 468:1 578:1 2137:0.5 2140:0.5 2144:0.5 2147:0.5 2150:0.5 2153:0.5 2179:0.5 2204:0.5 
-0.10675268822005042068656877063404 1:0.04807692 2:0.40000001 5:0.2 7:0.40000001 14:0.2 18:0.34285715 19:0.06666667 38:0.33333334 40:0.33333334 41:0.11111111 43:0.1 105:0.5 150:0.01333333 222:0.33333334 286:0.5 357:0.125 364:0.5 365:0.5 1848:0.5 2121:0.5 2126:0.5 2130:0.5 2133:0.5 2173:0.5 2183:0.5 2185:0.5 2194:0.5 
0.68380605736386990134434427091037 1:0.125 3:0.53846157 4:0.23076923 5:0.07692308 12:0.07692308 14:0.07692308 18:0.11428571 19:0.06666667 22:0.085365847 41:0.11111111 42:0.11111111 43:0.2 44:0.046153851 47:0.40000001 48:0.33333334 51:0.25 54:0.33333334 56:0.01639344 58:0.2 85:0.25 87:1 161:1 209:0.2 498:1 2121:0.5 2126:0.5 2130:0.5 2133:0.5 2136:0.5 2161:0.5 2173:0.5 2183:0.5 2194:0.5 
1.6407581834342914728352980091586 1:0.086538456 3:0.44444445 5:0.11111111 14:0.22222222 18:0.25714287 19:0.06666667 22:0.04878049 27:0.14285713 41:0.22222222 44:0.030769231 45:0.5 52:0.2 55:0.16666667 150:0.01333333 170:1 171:0.5 172:0.5 247:0.5 286:0.5 2121:0.5 2126:0.5 2130:0.5 2133:0.5 2177:0.5 2183:0.5 2184:0.5 2186:0.5 
1.6407581834342914728352980091586 1:0.07692308 3:0.75 4:0.25 18:0.41428572 22:0.073170729 44:0.061538462 47:0.2 48:0.33333334 54:0.22222222 2121:0.5 2126:0.5 2130:0.5 2133:0.5 2173:0.5 2183:0.5 2186:0.5 2202:0.5 
1.6263822412013679841180646690191 1:0.067307688 3:0.14285713 5:0.42857143 18:0.15714286 19:0.2 22:0.01219512 23:0.14285713 104:0.5 108:1 115:0.33333334 279:0.5 297:0.5 507:1 1600:1 2121:0.5 2126:0.5 2130:0.5 2133:0.5 2137:0.5 2158:0.5 2161:0.5 2185:0.5 2192:0.5 2194:0.5 2196:0.5 
-1.1445613409073081001565697079059 1:0.057692312 4:0.16666667 5:0.16666667 7:0.16666667 14:0.16666667 18:0.21428572 19:0.06666667 38:0.33333334 41:0.11111111 54:0.11111111 96:0.33333334 115:0.33333334 263:0.5 507:1 611:1 813:0.5 1920:1 2121:0.5 2126:0.5 2130:0.5 2133:0.5 2173:0.5 2183:0.5 2185:0.5 2194:0.5 
-1.6407581834342914728352980091586 1:0.0096153803 18:0.35714287 118:0.5 2121:0.5 2126:0.5 2130:0.5 2133:0.5 2134:0.5 2173:0.5 2194:0.5 2196:0.5 
-0.37333487641616430741109411428624 1:0.10576923 3:0.45454544 4:0.090909094 5:0.090909094 7:0.090909094 14:0.090909094 18:0.1 19:0.06666667 22:0.060975611 26:0.5 41:0.11111111 44:0.061538462 54:0.11111111 170:1 171:0.5 172:0.5 176:0.5 180:0.33333334 181:0.16666667 1217:0.5 1707:1 2121:0.5 2126:0.5 2136:0.5 2158:0.5 2160:0.5 2175:0.5 2181:0.5 2182:0.5 
1.6407581834342914728352980091586 1:0.067307688 3:0.5714286 4:0.14285713 18:0.42857143 22:0.04878049 27:0.14285713 44:0.01538462 47:0.2 53:0.14285713 54:0.11111111 55:0.16666667 104:0.5 107:1 108:0.5 2137:0.5 2140:0.5 2144:0.5 2147:0.5 2159:0.5 
1.6407581834342914728352980091586 1:0.02884615 5:1 18:0.17142858 19:0.2 23:0.2857143 2130:0.5 2133:0.5 2137:0.5 2140:0.5 2144:0.5 2147:0.5 2152:0.5 2199:0.5 
1.6407581834342914728352980091586 1:0.04807692 3:0.60000002 17:0.2 18:0.27142856 22:0.036585368 27:0.14285713 44:0.030769231 55:0.16666667 1355:1 2137:0.5 2140:0.5 2144:0.5 2147:0.5 2150:0.5 2156:0.5 
-1.6407581834342914728352980091586 1:0.02884615 3:0.33333334 5:0.33333334 18:0.44285715 19:0.06666667 22:0.01219512 27:0.14285713 55:0.16666667 81:0.5 2137:0.5 2140:0.5 2144:0.5 2147:0.5 2181:0.5 2182:0.5 2199:0.5 
-1.6407581834342914728352980091586 1:0.04807692 3:0.2 4:0.2 5:0.2 10:0.2 18:0.11428571 19:0.06666667 20:0.2 22:0.01219512 27:0.14285713 46:0.25 53:0.14285713 54:0.11111111 150:0.01333333 183:0.5 247:0.5 1680:1 2137:0.5 2140:0.5 2144:0.5 2147:0.5 
-1.1022772460498029278852527568233 1:0.01923077 3:1 18:0.18571429 22:0.024390239 44:0.01538462 2140:0.5 2144:0.5 2147:0.5 2200:0.5 2206:0.5 2207:0.5 
-0.25361001686671419408369843040418 1:0.02884615 4:0.33333334 5:0.33333334 18:0.11428571 19:0.06666667 54:0.11111111 150:0.01333333 256:0.5 781:0.5 935:1 936:1 938:1 963:1 2121:0.5 2126:0.5 2130:0.5 2133:0.5 2161:0.5 2171:0.5 2185:0.5 2192:0.5 
-1.6407581834342914728352980091586 1:0.067307688 3:0.42857143 5:0.14285713 6:0.14285713 18:0.27142856 19:0.06666667 21:0.33333334 22:0.036585368 29:0.1 44:0.030769231 104:0.5 108:1 279:0.5 401:1 2137:0.5 2140:0.5 2144:0.5 2147:0.5 2159:0.5 
-0.75838937515392046417872506935964 1:0.14423077 3:0.06666667 4:0.06666667 6:0.60000002 14:0.06666667 16:0.06666667 18:0.12857144 22:0.01219512 29:0.5 30:0.40000001 31:0.25 32:0.25 33:0.125 41:0.11111111 43:0.30000001 48:0.16666667 54:0.11111111 61:0.25 96:0.33333334 99:0.125 100:0.5 136:0.5 196:0.75 263:0.5 337:0.75 339:1 492:0.5 1152:1 2121:0.5 2126:0.5 2130:0.5 2133:0.5 2138:0.5 2183:0.5 2185:0.5 2194:0.5 
1.6407581834342914728352980091586 1:0.04807692 3:0.60000002 4:0.2 18:0.17142858 22:0.036585368 42:0.22222222 43:0.2 44:0.01538462 51:0.125 54:0.11111111 60:0.33333334 61:0.25 112:0.5 2137:0.5 2140:0.5 2144:0.5 2147:0.5 2179:0.5 2180:0.5 2181:0.5 2182:0.5 
-1.6407581834342914728352980091586 1:0.067307688 3:0.14285713 4:0.14285713 5:0.14285713 6:0.14285713 14:0.14285713 18:0.32857144 19:0.06666667 20:0.2 22:0.01219512 30:0.1 41:0.11111111 47:0.2 54:0.11111111 65:0.33333334 96:0.33333334 140:1 380:1 405:0.33333334 575:0.5 2137:0.5 2140:0.5 2144:0.5 2147:0.5 2154:0.5 2181:0.5 2182:0.5 
-0.91251535173838904668741633940954 1:0.04807692 4:0.2 9:0.2 18:0.2857143 27:0.14285713 54:0.11111111 66:0.33333334 67:0.5 69:0.5 70:1 774:1 1505:1 1517:1 2137:0.5 2140:0.5 2144:0.5 2147:0.5 2179:0.5 2180:0.5 2181:0.5 2182:0.5 
-1.6407581834342914728352980091586 1:0.10576923 3:0.81818181 14:0.090909094 18:0.44285715 22:0.1097561 41:0.11111111 44:0.10769231 59:0.25 61:0.25 109:0.25 174:0.25 2140:0.5 2144:0.5 2147:0.5 2179:0.5 2180:0.5 2181:0.5 2182:0.5 2183:0.5 
1.6407581834342914728352980091586 1:0.13461538 3:0.35714287 4:0.071428567 6:0.071428567 14:0.2857143 17:0.071428567 18:0.21428572 22:0.060975611 27:0.14285713 29:0.1 41:0.44444445 44:0.030769231 46:0.25 53:0.14285713 54:0.11111111 59:0.25 61:0.25 84:0.25 93:0.33333334 109:0.25 150:0.01333333 174:0.25 176:0.5 224:0.5 280:0.33333334 285:1 286:0.5 287:0.33333334 2121:0.5 2126:0.5 2130:0.5 2133:0.5 2136:0.5 2160:0.5 2161:0.5 2192:0.5 
0.38465994792157082171613069476734 1:0.27884614 3:0.20689654 4:0.20689654 7:0.1724138 16:0.1724138 18:0.22857143 22:0.073170729 27:0.14285713 33:0.625 43:0.2 44:0.01538462 47:0.60000002 48:0.33333334 49:0.25 51:0.125 54:0.66666669 55:0.16666667 60:0.33333334 61:0.5 124:0.16666667 159:0.5 180:0.33333334 181:0.83333331 182:0.25 209:0.2 221:0.2 235:0.2 406:0.66666669 413:0.5 418:0.5 526:0.75 628:0.5 684:0.5 872:1 879:0.5 881:1 883:0.66666669 887:0.66666669 910:0.33333334 1104:0.5 1222:0.5 1556:1 1770:1 1965:1 1966:1 1967:1 2121:0.5 2126:0.5 2130:0.5 2133:0.5 2137:0.5 2140:0.5 2144:0.5 2147:0.5 
0.42741925021957805075345504519646 1:0.1826923 3:0.2631579 4:0.15789475 5:0.10526316 6:0.052631579 7:0.052631579 16:0.052631579 18:0.11428571 19:0.13333333 22:0.060975611 27:0.42857143 30:0.1 33:0.125 43:0.2 47:0.40000001 48:0.33333334 53:0.14285713 54:0.33333334 55:0.33333334 56:0.032786891 58:0.2 119:0.25 132:0.5 294:1 357:0.125 364:0.5 408:1 423:0.25 449:1 450:0.5 451:1 452:1 453:1 454:1 455:0.5 2121:0.5 2126:0.5 2130:0.5 2132:0.5 2133:0.5 2136:0.5 2137:0.5 2138:0.5 
-1.6407581834342914728352980091586 1:0.057692312 3:0.16666667 5:0.83333331 18:0.12857144 19:0.33333334 20:0.2 21:0.33333334 22:0.01219512 23:0.42857143 2121:0.5 2126:0.5 2130:0.5 2133:0.5 2136:0.5 2155:0.5 2158:0.5 2175:0.5 
-1.2314679228818008471790790281375 1:0.057692312 5:0.16666667 6:0.5 18:0.085714288 19:0.06666667 29:0.2 30:0.1 34:0.33333334 43:0.2 61:0.25 78:0.33333334 112:0.5 189:0.16666667 200:0.25 201:0.5 217:0.5 476:0.5 2118:0.5 2121:0.5 2122:0.5 2126:0.5 2130:0.5 2133:0.5 2186:0.5 2202:0.5 
0.071444820287084306875691197546985 1:0.0096153803 18:0.3142857 27:0.14285713 2133:0.5 2137:0.5 2140:0.5 2144:0.5 2147:0.5 2179:0.5 2180:0.5 2181:0.5 
1.4430517080083637981857691556797 1:0.067307688 3:0.14285713 4:0.2857143 6:0.14285713 7:0.14285713 16:0.14285713 18:0.37142858 22:0.01219512 27:0.14285713 30:0.1 33:0.125 53:0.14285713 54:0.22222222 180:0.33333334 181:0.16666667 414:0.5 871:0.5 952:0.25 1222:0.5 1349:0.33333334 1357:0.5 1765:1 1766:1 1767:1 2137:0.5 2140:0.5 2144:0.5 2147:0.5 2182:0.5 2200:0.5 
0.88834710054028265258097007972538 1:0.096153848 3:0.40000001 6:0.1 17:0.1 18:0.18571429 22:0.04878049 27:0.2857143 29:0.1 43:0.1 44:0.030769231 53:0.14285713 55:0.33333334 61:0.25 200:0.25 339:1 1482:1 1483:1 1484:1 2137:0.5 2140:0.5 2144:0.5 2147:0.5 2201:0.5 
1.6407581834342914728352980091586 1:0.03846154 2:0.5 3:0.5 18:0.5 22:0.024390239 40:0.33333334 44:0.01538462 220:1 282:0.33333334 2137:0.5 2140:0.5 2144:0.5 2147:0.5 2201:0.5 
-1.6407581834342914728352980091586 1:0.096153848 3:0.30000001 4:0.1 9:0.1 18:0.30000001 22:0.036585368 27:0.14285713 44:0.01538462 47:0.2 54:0.11111111 61:0.25 75:0.25 104:0.5 108:0.5 142:0.25 241:0.5 257:0.5 332:1 439:0.5 445:1 462:1 2137:0.5 2140:0.5 2144:0.5 2147:0.5 2150:0.5 2153:0.5 2154:0.5 2182:0.5 
-1.4357818995062483491409466296318 1:0.13461538 3:0.35714287 4:0.071428567 5:0.14285713 7:0.14285713 11:0.071428567 18:0.24285714 19:0.13333333 20:0.2 22:0.060975611 38:0.33333334 44:0.061538462 47:0.2 54:0.11111111 56:0.01639344 58:0.2 83:0.25 150:0.01333333 152:0.5 156:0.5 322:0.25 644:1 787:0.5 788:0.5 789:0.33333334 1158:1 2137:0.5 2140:0.5 2144:0.5 2147:0.5 2157:0.5 2182:0.5 
-1.3927059961583925229433589265682 1:0.096153848 3:0.30000001 5:0.2 6:0.1 14:0.2 18:0.25714287 19:0.13333333 20:0.40000001 22:0.036585368 29:0.1 41:0.22222222 52:0.2 56:0.032786891 57:0.2 58:0.2 115:0.33333334 150:0.01333333 161:1 233:0.33333334 248:1 271:1 287:0.33333334 375:1 941:1 961:1 2137:0.5 2140:0.5 2144:0.5 2147:0.5 2200:0.5 2206:0.5 
1.6407581834342914728352980091586 1:0.10576923 3:0.54545456 4:0.18181819 5:0.090909094 18:0.085714288 19:0.06666667 20:0.2 22:0.073170729 27:0.2857143 44:0.046153851 47:0.2 53:0.2857143 54:0.22222222 55:0.33333334 133:0.16666667 2121:0.5 2126:0.5 2130:0.5 2133:0.5 2136:0.5 2158:0.5 2160:0.5 2161:0.5 
1.4740316111903626339341144557693 1:0.0096153803 14:1 18:0.028571431 41:0.11111111 2114:0.5 2121:0.5 2122:0.5 2126:0.5 2130:0.5 2133:0.5 2155:0.5 2160:0.5 
0.17861626685471657105530596254539 1:0.0096153803 14:1 18:0.057142861 41:0.11111111 2121:0.5 2122:0.5 2123:0.5 2126:0.5 2127:0.5 2130:0.5 2133:0.5 2155:0.5 2158:0.5 
-1.1657030930702378945795771869598 1:0.057692312 3:0.66666669 4:0.16666667 18:0.01428571 22:0.04878049 26:0.5 44:0.046153851 48:0.16666667 54:0.11111111 545:1 2110:0.5 2111:0.5 2121:0.5 2126:0.5 
-1.5664434167641230200018753748736 1:0.02884615 14:0.66666669 18:0.085714288 41:0.22222222 224:0.5 501:0.33333334 1409:1 2121:0.5 2126:0.5 2127:0.5 2130:0.5 2132:0.5 2136:0.5 2155:0.5 2156:0.5 
-1.6407581834342914728352980091586 1:0.01923077 3:0.5 18:0.085714288 22:0.01219512 42:0.11111111 43:0.1 83:0.25 253:0.5 2121:0.5 2126:0.5 2128:0.5 2130:0.5 2132:0.5 2133:0.5 2155:0.5 2158:0.5 2160:0.5 
0.99161513612222951241648161158082 1:0.067307688 6:0.2857143 17:0.14285713 18:0.25714287 26:0.5 29:0.1 30:0.1 43:0.2 61:0.25 108:0.5 196:0.25 212:1 217:0.5 1309:1 1407:1 1892:1 2130:0.5 2133:0.5 2137:0.5 2140:0.5 2144:0.5 2147:0.5 2199:0.5 
1.1180781223787050748796900734305 1:0.10576923 3:0.090909094 5:0.36363637 6:0.18181819 14:0.090909094 18:0.18571429 19:0.26666668 20:0.2 22:0.01219512 23:0.14285713 29:0.1 30:0.1 41:0.11111111 43:0.30000001 52:0.2 134:0.5 137:0.5 148:0.2 283:0.5 337:0.25 1190:0.5 1749:1 1750:1 1751:1 2133:0.5 2137:0.5 2140:0.5 2144:0.5 2147:0.5 2154:0.5 2200:0.5 
0.98266042185626922833563412496005 1:0.086538456 3:0.33333334 4:0.33333334 7:0.11111111 18:0.32857144 22:0.036585368 27:0.14285713 44:0.030769231 46:0.25 54:0.33333334 124:0.16666667 133:0.33333334 357:0.125 639:1 640:1 676:1 677:0.5 678:0.5 1003:0.5 2137:0.5 2140:0.5 2144:0.5 2147:0.5 2179:0.5 2180:0.5 2181:0.5 2182:0.5 
-1.0195756629933596659753902713419 1:0.16346154 2:0.11764706 3:0.23529412 5:0.11764706 14:0.29411766 17:0.11764706 18:0.2857143 19:0.13333333 21:0.33333334 22:0.04878049 27:0.42857143 40:0.33333334 41:0.55555558 43:0.1 44:0.01538462 45:1 52:0.2 55:0.16666667 62:0.5 81:0.5 95:1 109:0.5 189:0.16666667 224:0.5 366:0.5 1259:1 1416:1 2137:0.5 2140:0.5 2144:0.5 2147:0.5 2201:0.5 
-1.0246143839018566623622064071242 1:0.16346154 3:0.35294119 4:0.05882353 5:0.35294119 14:0.11764706 18:0.2857143 19:0.40000001 20:0.60000002 22:0.073170729 26:0.5 41:0.22222222 42:0.55555558 43:0.60000002 52:0.2 54:0.11111111 78:0.33333334 105:0.5 109:0.25 123:0.5 148:1 212:1 214:0.5 359:1 407:1 477:0.5 2137:0.5 2140:0.5 2144:0.5 2147:0.5 2200:0.5 2206:0.5 
-1.6407581834342914728352980091586 1:0.01923077 17:0.5 18:0.22857143 96:0.33333334 229:1 1833:1 2137:0.5 2140:0.5 2144:0.5 2147:0.5 
1.6407581834342914728352980091586 1:0.02884615 5:0.66666669 18:0.11428571 19:0.13333333 23:0.14285713 77:0.5 78:0.33333334 2121:0.5 2126:0.5 2130:0.5 2133:0.5 2137:0.5 2173:0.5 2185:0.5 2194:0.5 
0.99655282237028175451598599465797 1:0.067307688 3:0.2857143 5:0.14285713 7:0.42857143 17:0.14285713 18:0.17142858 19:0.06666667 20:0.2 22:0.024390239 38:1 43:0.30000001 44:0.01538462 222:0.66666669 431:1 2121:0.5 2126:0.5 2130:0.5 2133:0.5 2137:0.5 2140:0.5 2144:0.5 2147:0.5 
0.78285860729395884138881456237868 1:0.086538456 3:0.55555558 5:0.22222222 14:0.11111111 18:0.11428571 19:0.13333333 20:0.40000001 21:0.33333334 22:0.060975611 27:0.14285713 41:0.11111111 42:0.11111111 43:0.1 44:0.030769231 51:0.125 53:0.14285713 56:0.01639344 58:0.2 161:1 2121:0.5 2126:0.5 2130:0.5 2133:0.5 2158:0.5 2171:0.5 2175:0.5 2185:0.5 2192:0.5 2196:0.5 
-0.017414992114281522411767255675841 1:0.01923077 7:0.5 18:0.11428571 124:0.16666667 593:0.5 594:0.5 595:0.33333334 596:0.33333334 2121:0.5 2126:0.5 2130:0.5 2133:0.5 2158:0.5 2160:0.5 2161:0.5 2185:0.5 
-0.40924091782663968297484302638622 1:0.057692312 5:0.16666667 7:0.16666667 14:0.16666667 17:0.5 18:0.11428571 19:0.06666667 38:0.33333334 41:0.11111111 43:0.1 84:0.25 88:0.5 93:0.33333334 150:0.01333333 286:0.5 813:0.5 2121:0.5 2126:0.5 2130:0.5 2133:0.5 2161:0.5 2173:0.5 2183:0.5 2185:0.5 2194:0.5 
-0.55022552300101823519185018085409 1:0.01923077 7:0.5 18:0.15714286 124:0.16666667 593:0.5 594:0.5 595:0.33333334 596:0.33333334 2121:0.5 2126:0.5 2130:0.5 2133:0.5 2173:0.5 2185:0.5 2194:0.5 2218:0.5 
1.1453864604810339855589518265333 1:0.125 3:0.61538464 17:0.07692308 18:0.18571429 22:0.097560979 27:0.2857143 44:0.07692308 53:0.2857143 55:0.33333334 61:0.25 159:0.5 229:1 526:0.25 564:1 614:0.5 617:0.33333334 2137:0.5 2140:0.5 2144:0.5 2147:0.5 
1.6407581834342914728352980091586 1:0.07692308 3:0.5 4:0.125 18:0.2 22:0.04878049 27:0.14285713 47:0.2 53:0.14285713 54:0.11111111 55:0.16666667 59:0.25 61:0.25 174:0.25 439:0.5 445:1 462:1 2137:0.5 2140:0.5 2144:0.5 2147:0.5 2201:0.5 
-1.603828007686858292402121151099 1:0.07692308 3:0.25 4:0.75 18:0.3142857 22:0.024390239 44:0.01538462 47:0.2 48:0.16666667 54:0.66666669 133:0.66666669 2144:0.5 2147:0.5 2182:0.5 2183:0.5 2200:0.5 2208:0.5 
-1.6407581834342914728352980091586 1:0.04807692 3:0.60000002 5:0.2 18:0.24285714 19:0.06666667 20:0.2 22:0.036585368 42:0.11111111 43:0.1 44:0.01538462 51:0.125 56:0.01639344 58:0.2 211:1 1533:1 2137:0.5 2140:0.5 2144:0.5 2147:0.5 2201:0.5 
-0.85220459153698824295020131103229 1:0.14423077 3:0.33333334 5:0.13333333 6:0.06666667 14:0.06666667 17:0.06666667 18:0.47142857 19:0.13333333 20:0.2 21:0.33333334 22:0.060975611 27:0.2857143 30:0.1 41:0.11111111 44:0.01538462 53:0.14285713 55:0.33333334 65:0.33333334 104:0.5 107:1 108:0.5 166:0.5 251:1 292:0.5 391:0.5 434:1 435:1 2137:0.5 2140:0.5 2144:0.5 2147:0.5 2154:0.5 2181:0.5 2182:0.5 
1.3052927003171699293915253292653 1:0.01923077 14:0.5 17:0.5 18:0.057142861 41:0.11111111 229:1 1867:1 2114:0.5 2121:0.5 2126:0.5 2130:0.5 2132:0.5 2133:0.5 2135:0.5 2138:0.5 
0.37321394710126271077044179946824 1:0.125 3:0.46153846 4:0.07692308 5:0.15384614 14:0.07692308 16:0.07692308 18:0.15714286 19:0.13333333 20:0.2 22:0.073170729 27:0.14285713 33:0.125 41:0.11111111 43:0.1 44:0.030769231 51:0.125 53:0.14285713 54:0.11111111 95:1 104:0.5 108:0.5 109:0.25 150:0.01333333 190:1 247:0.5 248:1 368:1 406:0.33333334 407:1 2121:0.5 2126:0.5 2130:0.5 2133:0.5 2137:0.5 2185:0.5 2192:0.5 2194:0.5 
-0.054560506431264109428180830718702 1:0.16346154 2:0.11764706 3:0.05882353 5:0.11764706 6:0.05882353 7:0.17647059 9:0.05882353 14:0.11764706 18:0.01428571 19:0.13333333 21:0.33333334 22:0.01219512 23:0.14285713 30:0.1 38:0.33333334 40:0.33333334 41:0.22222222 43:0.40000001 56:0.032786891 61:0.25 75:0.25 92:0.5 96:0.33333334 105:0.5 128:1 144:0.5 161:1 186:0.25 191:1 222:0.33333334 243:0.5 269:1 366:0.5 389:0.5 404:1 426:0.33333334 427:1 431:0.33333334 456:1 607:1 769:1 990:1 1417:0.5 1843:1 1844:1 1845:1 2110:0.5 2112:0.5 2162:0.5 2210:0.5 
-1.1754601196110328054089677607408 1:0.02884615 5:0.66666669 18:0.04285714 19:0.13333333 115:0.33333334 297:0.5 507:1 2114:0.5 2121:0.5 2126:0.5 2130:0.5 2133:0.5 2184:0.5 
-0.38460287631758821591532182537776 1:0.067307688 5:0.14285713 6:0.14285713 16:0.5714286 18:0.028571431 19:0.06666667 28:0.25 29:0.1 33:0.5 134:0.5 454:1 539:0.66666669 1251:1 1252:1 2114:0.5 2126:0.5 2130:0.5 2133:0.5 2203:0.5 
-0.57080881409132833148589725169586 1:0.057692312 5:0.33333334 6:0.16666667 14:0.16666667 16:0.16666667 18:0.085714288 19:0.13333333 30:0.1 33:0.125 35:0.25 41:0.11111111 43:0.2 61:0.25 80:0.5 148:0.2 188:0.5 189:0.16666667 196:0.25 454:1 2118:0.5 2121:0.5 2122:0.5 2123:0.5 2126:0.5 2128:0.5 2130:0.5 2133:0.5 
1.0403658389862777688961159583414 1:0.11538462 3:0.75 4:0.083333328 18:0.45714286 22:0.1097561 44:0.10769231 54:0.11111111 115:0.33333334 127:0.33333334 536:1 638:1 641:1 1022:1 2137:0.5 2140:0.5 2143:0.5 2144:0.5 2146:0.5 2147:0.5 2148:0.5 2149:0.5 2150:0.5 2151:0.5 2153:0.5 2156:0.5 2163:0.5 2164:0.5 2166:0.5 2168:0.5 
-1.1152725461375729842927739809966 1:0.07692308 3:0.375 14:0.125 18:0.52857143 22:0.036585368 41:0.11111111 44:0.01538462 52:0.2 61:0.25 104:0.5 108:0.5 109:0.25 282:0.66666669 300:1 1185:1 1565:1 2137:0.5 2140:0.5 2144:0.5 2147:0.5 2179:0.5 2180:0.5 2181:0.5 2182:0.5 
-1.0702374333623227986578285708674 1:0.096153848 3:0.5 4:0.2 6:0.1 16:0.1 18:0.2 22:0.060975611 29:0.1 33:0.125 42:0.22222222 43:0.30000001 44:0.030769231 48:0.16666667 51:0.125 54:0.22222222 119:0.25 150:0.01333333 209:0.2 235:0.2 248:1 287:0.33333334 294:1 354:1 449:1 2137:0.5 2140:0.5 2144:0.5 2147:0.5 2179:0.5 2180:0.5 2181:0.5 2182:0.5 
-1.594607029265908249016092668171 1:0.057692312 7:0.16666667 13:0.16666667 14:0.16666667 17:0.5 18:0.41428572 38:0.33333334 41:0.11111111 43:0.1 84:0.25 93:0.33333334 150:0.01333333 286:0.5 467:0.5 1401:1 2137:0.5 2140:0.5 2144:0.5 2147:0.5 2179:0.5 2182:0.5 2204:0.5 2205:0.5 
1.6407581834342914728352980091586 1:0.086538456 3:0.44444445 4:0.22222222 5:0.11111111 18:0.057142861 19:0.06666667 22:0.04878049 27:0.14285713 43:0.1 44:0.030769231 46:0.25 48:0.16666667 53:0.14285713 54:0.22222222 119:0.25 170:1 171:0.5 172:0.5 209:0.2 2114:0.5 2118:0.5 2121:0.5 2126:0.5 2130:0.5 2133:0.5 2186:0.5 
0.79238390853565299210004013730213 1:0.096153848 3:0.1 5:0.60000002 18:0.085714288 19:0.40000001 22:0.01219512 23:0.5714286 56:0.01639344 57:0.2 58:0.2 115:0.66666669 124:0.16666667 244:0.33333334 507:1 1407:1 1755:1 2121:0.5 2126:0.5 2130:0.5 2133:0.5 2136:0.5 2137:0.5 2161:0.5 2192:0.5 
0.52870257409188958774848288157955 1:0.07692308 3:0.25 5:0.125 6:0.125 18:0.12857144 19:0.06666667 22:0.024390239 27:0.14285713 30:0.1 108:0.5 159:0.5 251:1 389:0.5 508:1 614:0.5 615:0.5 728:1 768:1 1122:1 2121:0.5 2126:0.5 2130:0.5 2133:0.5 2137:0.5 2175:0.5 2196:0.5 2219:0.5 
-1.4833799065073747236453982623061 1:0.1923077 3:0.69999999 4:0.050000001 18:0.40000001 22:0.17073171 27:0.42857143 44:0.12307692 47:0.2 53:0.42857143 54:0.11111111 55:0.5 59:0.25 61:0.25 171:0.5 172:0.5 174:0.25 228:1 2147:0.5 2159:0.5 2183:0.5 2184:0.5 2209:0.5 
-0.41907113281063479437449359465973 1:0.057692312 3:0.16666667 5:0.16666667 17:0.16666667 18:0.30000001 19:0.06666667 20:0.2 22:0.01219512 37:1 43:0.2 232:0.5 233:0.33333334 1034:1 1089:1 2121:0.5 2126:0.5 2130:0.5 2133:0.5 2161:0.5 2171:0.5 2185:0.5 2192:0.5 
-1.6407581834342914728352980091586 1:0.0096153803 18:0.1 781:0.5 2121:0.5 2126:0.5 2130:0.5 2133:0.5 2161:0.5 2171:0.5 2185:0.5 2192:0.5 
1.6407581834342914728352980091586 1:0.02884615 3:0.66666669 16:0.33333334 18:0.24285714 22:0.024390239 33:0.125 44:0.01538462 406:0.33333334 2137:0.5 2140:0.5 2143:0.5 2144:0.5 2147:0.5 2180:0.5 2182:0.5 2205:0.5 
1.44784624308409837212252568861 1:0.07692308 3:0.5 4:0.125 5:0.125 14:0.25 18:0.62857145 19:0.06666667 22:0.04878049 41:0.22222222 43:0.1 44:0.046153851 51:0.125 52:0.2 54:0.11111111 56:0.01639344 58:0.2 161:1 189:0.16666667 263:0.5 2137:0.5 2140:0.5 2144:0.5 2147:0.5 2179:0.5 2180:0.5 2181:0.5 2182:0.5 
0.99305181657059993227676386595704 1:0.096153848 3:0.60000002 4:0.1 14:0.1 18:0.2857143 22:0.073170729 41:0.11111111 44:0.061538462 54:0.11111111 59:0.5 61:0.5 122:0.5 174:0.25 263:0.5 2137:0.5 2140:0.5 2143:0.5 2144:0.5 2146:0.5 2147:0.5 2149:0.5 2163:0.5 2181:0.5 2182:0.5 
-1.3017430699345977629377557605039 1:0.086538456 3:0.33333334 4:0.11111111 5:0.33333334 14:0.22222222 18:0.35714287 19:0.2 20:0.2 22:0.036585368 23:0.14285713 41:0.22222222 42:0.33333334 43:0.30000001 51:0.125 54:0.11111111 109:0.25 188:1 263:0.5 922:0.5 1121:1 1245:1 2137:0.5 2140:0.5 2144:0.5 2147:0.5 2179:0.5 2180:0.5 2181:0.5 2206:0.5 
-0.9178037626952395555690600303933 1:0.067307688 3:0.2857143 14:0.14285713 18:0.40000001 22:0.024390239 41:0.11111111 44:0.01538462 65:0.33333334 108:0.5 109:0.25 233:0.33333334 282:0.33333334 377:0.5 574:1 694:1 1358:1 2137:0.5 2140:0.5 2144:0.5 2147:0.5 2179:0.5 2180:0.5 2181:0.5 2182:0.5 
-0.86384760623293976866676757708774 1:0.10576923 3:0.36363637 5:0.090909094 9:0.090909094 14:0.090909094 18:0.24285714 19:0.06666667 22:0.04878049 41:0.11111111 44:0.046153851 96:0.33333334 104:0.5 108:0.5 279:0.5 329:1 349:0.33333334 418:0.25 420:1 439:0.5 462:1 2137:0.5 2140:0.5 2144:0.5 2147:0.5 2157:0.5 2182:0.5 
1.0845549716069431411824552924372 1:0.13461538 3:0.64285713 5:0.071428567 12:0.071428567 18:0.085714288 19:0.06666667 20:0.2 22:0.1097561 27:0.14285713 43:0.1 44:0.07692308 51:0.125 53:0.14285713 55:0.16666667 56:0.01639344 57:0.2 85:0.25 89:0.5 96:0.33333334 172:0.5 228:1 238:0.5 862:1 880:1 2121:0.5 2126:0.5 2130:0.5 2133:0.5 2136:0.5 2161:0.5 2171:0.5 2192:0.5 
0.21652086191330652265030209946417 1:0.1826923 3:0.7368421 4:0.052631579 5:0.052631579 9:0.052631579 14:0.10526316 18:0.1 19:0.06666667 22:0.17073171 41:0.22222222 43:0.1 44:0.15384614 47:0.2 48:0.16666667 51:0.125 52:0.2 54:0.11111111 56:0.01639344 57:0.2 58:0.2 109:0.25 150:0.01333333 189:0.16666667 259:0.33333334 286:0.5 2121:0.5 2126:0.5 2128:0.5 2130:0.5 2132:0.5 2133:0.5 2183:0.5 2184:0.5 
1.3242914642879928255325694408384 1:0.13461538 3:0.9285714 18:0.48571429 22:0.15853658 26:0.5 44:0.15384614 163:1 214:0.5 526:0.25 527:0.33333334 617:0.33333334 2126:0.5 2130:0.5 2133:0.5 2144:0.5 2147:0.5 2183:0.5 2184:0.5 2198:0.5 
-1.2876263536040415402794678811915 1:0.096153848 3:0.5 5:0.30000001 6:0.2 18:0.085714288 19:0.2 20:0.40000001 22:0.060975611 29:0.1 30:0.1 42:0.22222222 43:0.2 44:0.030769231 134:0.5 148:0.2 150:0.01333333 199:0.33333334 210:0.33333334 247:0.5 256:0.5 2121:0.5 2122:0.5 2123:0.5 2126:0.5 2127:0.5 2128:0.5 2130:0.5 2133:0.5 2158:0.5 2160:0.5 
-1.6407581834342914728352980091586 1:0.07692308 3:0.5 5:0.125 14:0.125 18:0.12857144 19:0.06666667 20:0.2 22:0.04878049 27:0.2857143 41:0.11111111 44:0.01538462 45:0.5 52:0.2 53:0.14285713 55:0.33333334 2121:0.5 2126:0.5 2130:0.5 2161:0.5 2171:0.5 2182:0.5 2185:0.5 2192:0.5 
-0.67478287762009059314038950105896 1:0.02884615 3:0.33333334 18:0.085714288 22:0.01219512 42:0.11111111 43:0.1 83:0.25 150:0.01333333 157:1 159:0.5 253:0.5 353:1 2121:0.5 2126:0.5 2130:0.5 2133:0.5 2136:0.5 2158:0.5 2160:0.5 2161:0.5 
1.2291693227489430828569538789452 1:0.125 3:0.38461539 4:0.07692308 5:0.15384614 14:0.07692308 18:0.12857144 19:0.13333333 21:0.33333334 22:0.060975611 41:0.11111111 44:0.030769231 47:0.2 52:0.2 54:0.11111111 104:0.5 108:1 109:0.25 279:1 281:1 283:0.5 1117:0.5 2133:0.5 2137:0.5 2138:0.5 2175:0.5 2185:0.5 2200:0.5 
1.2898322273615752120434763128287 1:0.13461538 3:0.2857143 5:0.21428572 14:0.14285713 16:0.071428567 18:0.17142858 19:0.2 21:0.33333334 22:0.04878049 23:0.2857143 27:0.42857143 33:0.125 41:0.22222222 45:1 52:0.2 53:0.14285713 55:0.5 171:0.5 172:0.5 228:1 312:1 2133:0.5 2137:0.5 2140:0.5 2144:0.5 2147:0.5 2157:0.5 
0.39867752688772134517236622741621 1:0.28846154 3:0.66666669 4:0.033333331 5:0.033333331 12:0.06666667 14:0.06666667 18:0.48571429 19:0.06666667 20:0.2 22:0.24390244 27:0.2857143 41:0.22222222 42:0.33333334 43:0.30000001 44:0.16923077 45:0.5 51:0.25 52:0.2 53:0.14285713 54:0.11111111 55:0.33333334 56:0.01639344 57:0.2 58:0.2 61:0.25 85:0.5 89:0.5 109:0.25 112:0.5 171:0.5 172:0.5 176:0.5 228:1 238:0.5 498:1 911:1 2133:0.5 2137:0.5 2140:0.5 2144:0.5 2147:0.5 2179:0.5 2180:0.5 2181:0.5 
-1.2428367672057203385804768913658 1:0.11538462 3:0.33333334 5:0.16666667 6:0.083333328 14:0.16666667 17:0.083333328 18:0.2857143 19:0.13333333 21:0.33333334 22:0.04878049 29:0.1 41:0.22222222 44:0.046153851 61:0.25 84:0.25 92:0.5 93:0.33333334 104:0.5 108:0.5 130:0.5 279:0.5 516:1 609:0.5 2137:0.5 2140:0.5 2144:0.5 2147:0.5 2157:0.5 2182:0.5 
-0.58735983690972837223398528294638 1:0.10576923 3:0.090909094 5:0.090909094 14:0.090909094 17:0.090909094 18:0.15714286 19:0.06666667 21:0.33333334 22:0.01219512 27:0.14285713 41:0.11111111 61:0.5 65:0.33333334 67:0.5 69:1 84:0.25 92:0.5 93:0.33333334 96:0.33333334 110:0.5 128:1 316:1 396:1 485:1 668:1 2137:0.5 2140:0.5 2144:0.5 2147:0.5 2150:0.5 2156:0.5 2157:0.5 
-0.99695194716646784449665119609563 1:0.02884615 5:0.33333334 8:0.66666669 18:0.18571429 19:0.06666667 27:0.14285713 62:0.5 63:1 64:0.5 2137:0.5 2140:0.5 2144:0.5 2147:0.5 2150:0.5 2153:0.5 2154:0.5 
1.6407581834342914728352980091586 1:0.1923077 3:0.60000002 4:0.050000001 5:0.15000001 14:0.1 18:0.1 19:0.2 20:0.2 21:0.33333334 22:0.14634146 23:0.14285713 27:0.14285713 41:0.22222222 42:0.11111111 43:0.1 44:0.10769231 47:0.2 48:0.16666667 51:0.125 53:0.14285713 54:0.11111111 59:0.25 61:0.25 95:1 109:0.25 166:0.5 174:0.25 2121:0.5 2126:0.5 2130:0.5 2133:0.5 2136:0.5 2158:0.5 2160:0.5 2161:0.5 
1.6407581834342914728352980091586 1:0.13461538 3:0.71428573 5:0.14285713 16:0.071428567 18:0.1 19:0.13333333 20:0.2 21:0.33333334 22:0.12195122 27:0.14285713 33:0.125 44:0.10769231 49:0.25 53:0.14285713 55:0.16666667 56:0.01639344 57:0.2 58:0.2 2126:0.5 2130:0.5 2133:0.5 2136:0.5 2161:0.5 2171:0.5 2179:0.5 2192:0.5 
