SVM-light Version V5.00
2 # kernel type
3 # kernel parameter -d 
0.1 # kernel parameter -g 
1 # kernel parameter -s 
1 # kernel parameter -r 
empty# kernel parameter -u 
2226 # highest feature index 
18907 # number of training documents 
188 # number of support vectors plus 1 
1.6461319 # threshold b, each following line is a SV (starting with alpha*y)
-1.1850145958239779453435858158628 1:0.02884615 5:0.66666669 7:0.33333334 18:0.12857144 19:0.13333333 23:0.14285713 181:0.16666667 278:1 2132:0.5 2136:0.5 2158:0.5 2171:0.5 2179:0.5 2180:0.5 2181:0.5 2182:0.5 2192:0.5 
0.61874259730311143012926322626299 1:0.01923077 7:0.5 10:0.5 18:0.27142856 150:0.01333333 181:0.16666667 183:0.5 1351:1 2071:1 2137:0.5 2140:0.5 2144:0.5 2147:0.5 
0.2691599761253004596817106630624 1:0.01923077 10:0.5 17:0.5 18:0.15714286 183:0.5 1355:1 1869:1 2137:0.5 2140:0.5 2144:0.5 2147:0.5 
0.0011932048477901818165497482837623 1:0.01923077 7:0.5 10:0.5 18:0.52857143 181:0.16666667 183:0.5 184:1 2184:0.5 2186:0.5 2202:0.5 2218:0.5 
-0.49807566883761567044786033875425 1:0.04807692 3:0.60000002 4:0.2 5:0.2 18:0.34285715 19:0.06666667 20:0.2 22:0.036585368 44:0.030769231 47:0.2 54:0.11111111 2137:0.5 2140:0.5 2144:0.5 2147:0.5 2201:0.5 
1.6407581834342914728352980091586 1:0.04807692 3:0.2 4:0.2 5:0.2 10:0.2 18:0.11428571 19:0.06666667 20:0.2 22:0.01219512 27:0.14285713 46:0.25 53:0.14285713 54:0.11111111 150:0.01333333 183:0.5 247:0.5 1680:1 2137:0.5 2140:0.5 2144:0.5 2147:0.5 
-1.6407581834342914728352980091586 1:0.01923077 7:0.5 10:0.5 18:0.2857143 181:0.16666667 183:0.5 184:1 2144:0.5 2147:0.5 2183:0.5 2208:0.5 
-0.34517962693468656754092194205441 1:0.0096153803 7:1 18:0.35714287 181:0.16666667 952:0.125 955:1 2121:0.5 2126:0.5 2130:0.5 2133:0.5 2137:0.5 2140:0.5 2144:0.5 2147:0.5 
-0.10660296370918737052235769624531 1:0.04807692 5:0.2 7:0.2 11:0.2 18:0.37142858 19:0.06666667 43:0.2 74:0.25 75:0.25 148:0.2 154:0.5 156:0.5 236:1 237:0.33333334 382:0.5 2147:0.5 2148:0.5 2151:0.5 2155:0.5 2163:0.5 2168:0.5 2208:0.5 2209:0.5 
1.6407581834342914728352980091586 1:0.01923077 5:0.5 7:0.5 18:0.11428571 19:0.06666667 181:0.16666667 278:1 2161:0.5 2171:0.5 2185:0.5 2192:0.5 
1.6407581834342914728352980091586 1:0.096153848 3:0.40000001 4:0.2 5:0.1 14:0.1 17:0.1 18:0.21428572 19:0.06666667 22:0.04878049 26:0.5 41:0.11111111 44:0.030769231 47:0.2 48:0.16666667 52:0.2 54:0.22222222 56:0.01639344 214:0.5 229:1 263:0.5 408:1 525:1 706:1 2147:0.5 2207:0.5 2208:0.5 2209:0.5 
-0.13888981914728415478776923919213 1:0.01923077 4:0.5 18:0.30000001 54:0.11111111 60:0.33333334 61:0.25 2137:0.5 2140:0.5 2144:0.5 2147:0.5 2201:0.5 
0.36317885746074468622524022975995 1:0.096153848 3:0.30000001 4:0.1 5:0.1 10:0.1 12:0.1 17:0.1 18:0.14285713 19:0.06666667 20:0.2 22:0.036585368 48:0.16666667 54:0.11111111 56:0.01639344 58:0.2 59:0.25 61:0.25 85:0.25 89:0.5 171:0.5 172:0.5 183:0.5 228:1 229:1 230:1 498:1 1253:1 2137:0.5 2140:0.5 2144:0.5 2147:0.5 
-0.097869134812999511452424883373169 1:0.02884615 2:0.66666669 7:0.66666669 18:0.21428572 38:0.33333334 40:0.33333334 43:0.1 222:0.33333334 357:0.125 364:0.5 365:0.5 2145:0.5 2155:0.5 2165:0.5 2167:0.5 2169:0.5 2170:0.5 2174:0.5 2186:0.5 
0.74041431569661664280346258237842 1:0.01923077 10:0.5 16:0.5 18:0.42857143 33:0.125 183:0.5 215:1 2147:0.5 2207:0.5 2208:0.5 2209:0.5 
-1.6407581834342914728352980091586 1:0.096153848 3:0.5 4:0.1 14:0.2 16:0.1 17:0.1 18:0.27142856 22:0.060975611 33:0.125 41:0.22222222 44:0.046153851 49:0.25 52:0.40000001 54:0.11111111 109:0.25 229:1 263:0.5 1200:1 2137:0.5 2140:0.5 2141:0.5 2185:0.5 
-1.6407581834342914728352980091586 1:0.125 3:0.61538464 17:0.07692308 18:0.18571429 22:0.097560979 27:0.2857143 44:0.07692308 53:0.2857143 55:0.33333334 61:0.25 159:0.5 229:1 526:0.25 564:1 614:0.5 617:0.33333334 2137:0.5 2140:0.5 2144:0.5 2147:0.5 
-1.4454813274020292812593879716587 1:0.13461538 3:0.35714287 5:0.21428572 6:0.14285713 14:0.071428567 17:0.071428567 18:0.25714287 19:0.2 21:0.33333334 22:0.060975611 29:0.1 30:0.1 41:0.11111111 43:0.1 44:0.046153851 65:0.33333334 105:0.5 108:0.5 109:0.25 148:0.2 196:0.25 229:1 279:0.5 287:0.33333334 291:0.5 401:1 705:1 706:1 2140:0.5 2144:0.5 2147:0.5 2207:0.5 
1.6407581834342914728352980091586 1:0.02884615 3:0.33333334 6:0.33333334 7:0.33333334 18:0.22857143 22:0.01219512 30:0.1 181:0.16666667 210:0.33333334 571:0.33333334 2137:0.5 2140:0.5 2144:0.5 2147:0.5 
1.6407581834342914728352980091586 1:0.01923077 7:0.5 18:0.5714286 96:0.33333334 181:0.16666667 1908:1 2183:0.5 2184:0.5 2186:0.5 2202:0.5 
1.6407581834342914728352980091586 1:0.04807692 3:0.2 5:0.2 6:0.2 7:0.2 18:0.2 19:0.06666667 21:0.33333334 22:0.01219512 30:0.1 181:0.16666667 210:0.33333334 501:0.33333334 530:0.5 571:0.33333334 2137:0.5 2140:0.5 2144:0.5 2147:0.5 
-0.055629430719360960233554891374297 1:0.0096153803 7:1 18:0.01428571 322:0.25 2110:0.5 2111:0.5 2146:0.5 2149:0.5 
-0.071662637063159964623260123062209 1:0.03846154 3:0.25 4:0.25 9:0.25 18:0.42857143 22:0.01219512 26:0.5 47:0.2 54:0.11111111 75:0.25 602:1 2137:0.5 2140:0.5 2144:0.5 2147:0.5 2201:0.5 
-0.1667761186629788117130601676763 1:0.03846154 17:0.25 18:0.48571429 43:0.1 61:0.25 112:0.5 391:0.5 1907:1 2147:0.5 2159:0.5 2183:0.5 2208:0.5 2209:0.5 
1.6407581834342914728352980091586 1:0.03846154 3:0.5 16:0.25 17:0.25 18:0.14285713 22:0.024390239 33:0.125 44:0.01538462 49:0.25 229:1 1200:1 2137:0.5 2140:0.5 2144:0.5 2147:0.5 
1.1177862352968093162530749395955 1:0.096153848 3:0.2 4:0.1 5:0.2 6:0.1 10:0.1 17:0.1 18:0.12857144 19:0.13333333 22:0.024390239 30:0.1 43:0.2 44:0.01538462 48:0.16666667 54:0.11111111 56:0.01639344 58:0.2 148:0.2 183:0.5 199:0.33333334 229:1 230:1 407:1 622:1 623:1 624:1 1204:0.25 1205:0.25 1253:1 2137:0.5 2140:0.5 2144:0.5 2147:0.5 
1.303140777600760857879436116491 1:0.04807692 5:0.80000001 17:0.2 18:0.25714287 19:0.26666668 23:0.42857143 229:1 706:1 2137:0.5 2140:0.5 2144:0.5 2147:0.5 
-1.1586752852711230676874265554943 1:0.10576923 5:0.18181819 7:0.18181819 14:0.090909094 17:0.18181819 18:0.2857143 19:0.13333333 27:0.2857143 38:0.33333334 41:0.11111111 43:0.2 62:0.5 67:0.5 69:0.5 84:0.25 93:0.33333334 110:0.5 123:0.5 142:0.25 181:0.16666667 189:0.16666667 222:0.33333334 229:1 257:0.5 690:1 736:1 813:0.5 2137:0.5 2140:0.5 2144:0.5 2147:0.5 
-1.6407581834342914728352980091586 1:0.0096153803 17:1 18:0.24285714 2137:0.5 2140:0.5 2144:0.5 2147:0.5 2157:0.5 2182:0.5 
-1.6407581834342914728352980091586 1:0.07692308 5:0.125 6:0.25 7:0.25 9:0.125 17:0.125 18:0.38571429 19:0.06666667 29:0.1 30:0.1 34:0.33333334 43:0.40000001 74:0.25 75:0.25 144:0.5 181:0.33333334 186:0.25 189:0.16666667 191:1 200:0.25 262:0.25 278:1 571:0.33333334 608:0.16666667 2137:0.5 2140:0.5 2144:0.5 2147:0.5 
1.6407581834342914728352980091586 1:0.01923077 4:0.5 18:0.12857144 54:0.11111111 96:0.33333334 826:1 2137:0.5 2140:0.5 2144:0.5 2145:0.5 
1.6407581834342914728352980091586 1:0.057692312 4:0.16666667 5:0.16666667 6:0.16666667 7:0.16666667 10:0.16666667 18:0.34285715 19:0.06666667 30:0.1 54:0.11111111 61:0.25 82:0.5 135:0.33333334 150:0.01333333 181:0.16666667 183:0.5 184:1 217:0.5 247:0.5 1680:1 2183:0.5 2184:0.5 2186:0.5 2211:0.5 
-0.078302783422128693913144559246575 1:0.02884615 3:0.33333334 5:0.33333334 18:0.47142857 19:0.06666667 20:0.2 22:0.01219512 150:0.01333333 211:1 246:1 247:0.5 2137:0.5 2140:0.5 2144:0.5 2147:0.5 2159:0.5 
-0.84304976502476536293073650085717 1:0.03846154 7:0.5 11:0.25 17:0.25 18:0.085714288 150:0.01333333 152:0.5 156:0.5 229:1 322:0.25 594:0.5 1670:1 1671:1 2166:0.5 2183:0.5 2184:0.5 2186:0.5 2190:0.5 2202:0.5 2213:0.5 2215:0.5 
-0.98553644150481178876077592576621 1:0.02884615 3:0.33333334 4:0.33333334 18:0.22857143 22:0.01219512 27:0.14285713 46:0.25 53:0.14285713 54:0.11111111 2137:0.5 2140:0.5 2144:0.5 2147:0.5 2200:0.5 2206:0.5 
-0.17030765720612067726236205089663 1:0.04807692 3:0.40000001 4:0.40000001 18:0.27142856 22:0.024390239 43:0.1 47:0.2 48:0.16666667 51:0.125 54:0.22222222 622:1 623:1 624:1 2137:0.5 2140:0.5 2144:0.5 2147:0.5 2201:0.5 
1.6407581834342914728352980091586 1:0.01923077 6:0.5 18:0.21428572 30:0.1 78:0.33333334 198:1 2137:0.5 2140:0.5 2144:0.5 2147:0.5 
1.6407581834342914728352980091586 1:0.03846154 5:0.25 7:0.25 14:0.25 18:0.2 19:0.06666667 26:0.5 41:0.11111111 160:1 166:0.5 181:0.16666667 761:1 2137:0.5 2140:0.5 2144:0.5 2147:0.5 
1.6407581834342914728352980091586 1:0.04807692 5:0.60000002 7:0.2 18:0.30000001 19:0.2 23:0.14285713 27:0.14285713 62:0.5 81:0.5 181:0.16666667 278:1 2137:0.5 2140:0.5 2144:0.5 2147:0.5 
-1.6407581834342914728352980091586 1:0.03846154 3:0.25 5:0.75 18:0.2857143 19:0.2 20:0.2 21:0.33333334 22:0.01219512 23:0.14285713 2137:0.5 2140:0.5 2144:0.5 2147:0.5 2159:0.5 
-0.51960858674450094429886348734726 1:0.067307688 5:0.71428573 6:0.14285713 14:0.14285713 18:0.2 19:0.33333334 23:0.14285713 29:0.1 41:0.11111111 43:0.2 56:0.01639344 58:0.2 134:0.5 148:0.2 166:0.5 188:0.5 189:0.33333334 408:1 2137:0.5 2140:0.5 2144:0.5 2147:0.5 2201:0.5 
-0.42443673394221109740342967597826 1:0.0096153803 17:1 18:0.30000001 2140:0.5 2144:0.5 2147:0.5 2159:0.5 2183:0.5 
0.90158925548934354399222002030001 1:0.125 3:0.61538464 4:0.07692308 5:0.07692308 10:0.07692308 17:0.07692308 18:0.21428572 19:0.06666667 20:0.2 22:0.097560979 43:0.1 44:0.07692308 47:0.2 48:0.16666667 51:0.125 54:0.11111111 56:0.01639344 58:0.2 172:0.5 183:0.5 228:1 229:1 230:1 880:1 1253:1 2147:0.5 2207:0.5 2208:0.5 2209:0.5 
1.1455662228838165983546559800743 1:0.1826923 3:0.63157892 4:0.052631579 10:0.052631579 14:0.10526316 16:0.052631579 17:0.052631579 18:0.2857143 22:0.14634146 27:0.14285713 33:0.125 41:0.22222222 44:0.12307692 46:0.25 48:0.16666667 49:0.25 50:1 52:0.40000001 53:0.14285713 54:0.11111111 56:0.01639344 109:0.5 183:0.5 229:1 230:1 1253:1 2144:0.5 2147:0.5 2183:0.5 2208:0.5 
1.237759270985877124715557329182 1:0.01923077 17:0.5 18:0.38571429 96:0.33333334 229:1 1833:1 2147:0.5 2183:0.5 2208:0.5 2209:0.5 
-0.52019118625421434387590124970302 1:0.057692312 4:0.33333334 6:0.33333334 7:0.16666667 17:0.16666667 18:0.085714288 30:0.2 38:0.33333334 43:0.1 54:0.22222222 133:0.16666667 135:0.33333334 199:0.33333334 229:1 431:0.33333334 1061:1 2112:0.5 2128:0.5 2132:0.5 2143:0.5 2150:0.5 2155:0.5 2158:0.5 2166:0.5 
-0.33718956519769843760414573807793 1:0.01923077 14:0.5 17:0.5 18:0.17142858 41:0.11111111 229:1 1867:1 2121:0.5 2126:0.5 2130:0.5 2133:0.5 2207:0.5 2208:0.5 2209:0.5 2211:0.5 
-1.6407581834342914728352980091586 1:0.096153848 3:0.40000001 5:0.1 7:0.1 18:0.27142856 19:0.06666667 20:0.2 22:0.04878049 27:0.14285713 44:0.046153851 53:0.14285713 61:0.25 83:0.5 181:0.16666667 278:1 1160:1 1271:1 2137:0.5 2140:0.5 2144:0.5 2147:0.5 
1.6407581834342914728352980091586 1:0.01923077 5:0.5 6:0.5 18:0.30000001 19:0.06666667 29:0.1 134:0.5 2137:0.5 2140:0.5 2144:0.5 2147:0.5 
1.6407581834342914728352980091586 1:0.03846154 5:0.75 18:0.3142857 19:0.2 23:0.14285713 61:0.25 80:0.5 82:0.5 2137:0.5 2140:0.5 2144:0.5 2147:0.5 
1.6407581834342914728352980091586 1:0.03846154 3:0.75 5:0.25 18:0.24285714 19:0.06666667 20:0.2 22:0.036585368 44:0.030769231 2137:0.5 2140:0.5 2144:0.5 2147:0.5 
-1.2111667125758929230983085290063 1:0.0096153803 18:0.44285715 96:0.33333334 2137:0.5 2140:0.5 2144:0.5 2147:0.5 2154:0.5 2181:0.5 2206:0.5 
-1.6407581834342914728352980091586 1:0.0096153803 18:0.18571429 96:0.33333334 2137:0.5 2140:0.5 2144:0.5 2147:0.5 2201:0.5 
-1.6407581834342914728352980091586 1:0.0096153803 18:0.2 96:0.33333334 2137:0.5 2140:0.5 2144:0.5 2147:0.5 2201:0.5 
-0.025502579452479308408374691907738 1:0.01923077 4:1 18:0.40000001 54:0.22222222 133:0.16666667 2137:0.5 2140:0.5 2144:0.5 2147:0.5 2149:0.5 2151:0.5 2153:0.5 2168:0.5 
0.89215914965871812025710596572026 1:0.067307688 5:0.42857143 10:0.14285713 17:0.2857143 18:0.17142858 19:0.2 43:0.2 61:0.25 80:0.5 112:0.5 148:0.2 183:0.5 189:0.33333334 229:1 230:1 1355:1 1383:1 1921:1 2137:0.5 2140:0.5 2144:0.5 2147:0.5 
1.6407581834342914728352980091586 1:0.03846154 5:0.5 7:0.25 18:0.21428572 19:0.13333333 77:0.5 78:0.33333334 181:0.16666667 278:1 359:1 2137:0.5 2140:0.5 2144:0.5 2147:0.5 
-0.72930476925643705765622826220351 1:0.10576923 5:0.72727275 6:0.090909094 18:0.22857143 19:0.5333333 23:0.2857143 29:0.1 43:0.2 61:0.25 77:0.5 78:0.33333334 80:0.5 82:0.5 130:0.5 148:0.40000001 150:0.01333333 189:0.16666667 200:0.25 247:0.5 256:0.5 359:1 2137:0.5 2140:0.5 2144:0.5 2147:0.5 2154:0.5 2181:0.5 2206:0.5 
0.28243000497795278658230699875276 1:0.01923077 7:0.5 10:0.5 18:0.11428571 181:0.16666667 183:0.5 184:1 2132:0.5 2158:0.5 2171:0.5 2177:0.5 
1.3985374441199094341925501794321 1:0.01923077 10:0.5 17:0.5 18:0.35714287 183:0.5 1683:1 2137:0.5 2140:0.5 2144:0.5 2147:0.5 
1.6407581834342914728352980091586 1:0.057692312 3:0.5 5:0.16666667 7:0.16666667 18:0.3142857 19:0.06666667 20:0.2 22:0.036585368 44:0.01538462 59:0.25 61:0.25 174:0.25 181:0.16666667 278:1 2137:0.5 2140:0.5 2144:0.5 2147:0.5 
1.6407581834342914728352980091586 1:0.02884615 3:0.33333334 7:0.33333334 18:0.41428572 22:0.01219512 26:0.5 181:0.16666667 214:0.5 761:1 2137:0.5 2140:0.5 2144:0.5 2147:0.5 
1.6407581834342914728352980091586 1:0.02884615 3:0.33333334 5:0.33333334 7:0.33333334 18:0.2857143 19:0.06666667 20:0.2 22:0.01219512 181:0.16666667 278:1 2137:0.5 2140:0.5 2144:0.5 2147:0.5 
-0.04860424507371968044777688078284 1:0.07692308 3:0.625 4:0.125 6:0.125 18:0.40000001 22:0.060975611 30:0.1 44:0.030769231 47:0.2 48:0.16666667 54:0.11111111 59:0.25 61:0.25 174:0.25 210:0.33333334 2133:0.5 2137:0.5 2140:0.5 2144:0.5 2147:0.5 2200:0.5 
-0.31780705531481795445003513123083 1:0.086538456 3:0.77777779 7:0.11111111 18:0.2857143 22:0.085365847 26:0.5 44:0.07692308 163:1 181:0.16666667 214:0.5 461:0.5 2133:0.5 2137:0.5 2140:0.5 2144:0.5 2147:0.5 2200:0.5 
-0.0029968758130005986733968015300889 1:0.02884615 5:0.33333334 7:0.33333334 18:0.085714288 19:0.06666667 43:0.1 186:0.25 189:0.16666667 237:0.33333334 262:0.25 321:0.33333334 2120:0.5 2136:0.5 2160:0.5 2161:0.5 2168:0.5 2189:0.5 2192:0.5 2198:0.5 
1.6407581834342914728352980091586 1:0.0096153803 10:1 18:0.11428571 183:0.5 2171:0.5 2185:0.5 2192:0.5 2194:0.5 
-0.78287364520713198512424924047082 1:0.01923077 3:0.5 4:0.5 18:0.25714287 22:0.01219512 47:0.2 54:0.11111111 2137:0.5 2140:0.5 2144:0.5 2147:0.5 2182:0.5 
-1.6407581834342914728352980091586 1:0.02884615 5:0.66666669 7:0.33333334 18:0.15714286 19:0.13333333 23:0.14285713 181:0.16666667 278:1 2161:0.5 2171:0.5 2179:0.5 2180:0.5 2181:0.5 2182:0.5 2185:0.5 2192:0.5 
-1.0548217851794257082786998580559 1:0.02884615 5:0.66666669 7:0.33333334 18:0.14285713 19:0.13333333 23:0.14285713 181:0.16666667 278:1 2136:0.5 2152:0.5 2161:0.5 2173:0.5 2180:0.5 2181:0.5 2182:0.5 2183:0.5 2194:0.5 
-0.64621978540328750550969516552868 1:0.07692308 3:0.125 5:0.125 7:0.125 14:0.125 17:0.125 18:0.42857143 19:0.06666667 22:0.01219512 27:0.14285713 41:0.11111111 65:0.33333334 68:0.5 81:0.5 84:0.25 93:0.33333334 118:0.5 120:0.33333334 181:0.16666667 278:1 280:0.33333334 436:1 2183:0.5 2184:0.5 2186:0.5 2202:0.5 
1.6407581834342914728352980091586 1:0.057692312 3:0.33333334 4:0.16666667 5:0.16666667 17:0.16666667 18:0.27142856 19:0.06666667 20:0.2 22:0.024390239 27:0.14285713 46:0.25 48:0.16666667 53:0.14285713 54:0.11111111 229:1 706:1 2137:0.5 2140:0.5 2144:0.5 2147:0.5 
1.6407581834342914728352980091586 1:0.03846154 5:0.25 17:0.25 18:0.21428572 19:0.06666667 27:0.14285713 65:0.33333334 68:0.5 81:0.5 229:1 706:1 2137:0.5 2140:0.5 2144:0.5 2147:0.5 
-1.6407581834342914728352980091586 18:0.24285714 54:0.11111111 2137:0.5 2140:0.5 2144:0.5 2147:0.5 2159:0.5 
-1.6407581834342914728352980091586 1:0.04807692 3:0.60000002 17:0.2 18:0.27142856 22:0.036585368 27:0.14285713 44:0.030769231 55:0.16666667 1355:1 2137:0.5 2140:0.5 2144:0.5 2147:0.5 2150:0.5 2156:0.5 
-0.64417404217251905684804569318658 1:0.04807692 3:0.40000001 5:0.2 18:0.37142858 19:0.06666667 22:0.024390239 27:0.2857143 53:0.14285713 55:0.33333334 81:0.5 2137:0.5 2140:0.5 2144:0.5 2147:0.5 2159:0.5 
1.6407581834342914728352980091586 1:0.057692312 4:0.16666667 5:0.66666669 7:0.16666667 18:0.22857143 19:0.26666668 23:0.2857143 54:0.11111111 131:0.5 181:0.16666667 278:1 407:1 2137:0.5 2140:0.5 2144:0.5 2147:0.5 
1.6407581834342914728352980091586 1:0.03846154 5:0.75 7:0.25 18:0.32857144 19:0.2 23:0.2857143 181:0.16666667 278:1 2137:0.5 2140:0.5 2144:0.5 2147:0.5 
1.6407581834342914728352980091586 1:0.02884615 5:0.66666669 7:0.33333334 18:0.35714287 19:0.13333333 23:0.14285713 181:0.16666667 278:1 2137:0.5 2140:0.5 2144:0.5 2147:0.5 
0.50165478805442653698065669232165 1:0.0096153803 10:1 18:0.15714286 183:0.5 2171:0.5 2185:0.5 2192:0.5 2194:0.5 
-1.6407581834342914728352980091586 1:0.057692312 5:0.66666669 7:0.16666667 16:0.16666667 18:0.01428571 19:0.26666668 23:0.42857143 33:0.125 181:0.16666667 278:1 454:1 2110:0.5 2111:0.5 2143:0.5 2146:0.5 
-0.8391770657281141243544198005111 1:0.14423077 3:0.33333334 5:0.13333333 7:0.06666667 14:0.2 17:0.06666667 18:0.2857143 19:0.13333333 22:0.060975611 27:0.14285713 41:0.33333334 44:0.046153851 45:0.5 52:0.2 84:0.25 93:0.33333334 105:0.5 108:0.5 109:0.5 110:0.5 142:0.25 181:0.16666667 278:1 598:1 600:0.5 1083:1 2137:0.5 2140:0.5 2144:0.5 2147:0.5 
-0.43568349820396340410511015761585 1:0.15384614 3:0.375 5:0.125 7:0.0625 14:0.125 17:0.0625 18:0.35714287 19:0.13333333 22:0.073170729 27:0.14285713 41:0.22222222 44:0.061538462 53:0.14285713 65:0.33333334 68:0.5 84:0.25 93:0.33333334 96:0.33333334 97:0.5 105:0.5 108:0.5 109:0.25 120:0.33333334 181:0.16666667 278:1 280:0.33333334 394:1 598:1 2137:0.5 2140:0.5 2144:0.5 2147:0.5 
1.6407581834342914728352980091586 1:0.01923077 10:0.5 17:0.5 18:0.45714286 183:0.5 1355:1 1869:1 2137:0.5 2140:0.5 2144:0.5 2147:0.5 
-1.6407581834342914728352980091586 1:0.01923077 5:0.5 6:0.5 18:0.60000002 19:0.06666667 29:0.1 134:0.5 2137:0.5 2140:0.5 2144:0.5 2147:0.5 2198:0.5 2204:0.5 2205:0.5 2206:0.5 
-0.47607732368340371920112374937162 1:0.03846154 4:0.5 5:0.25 7:0.25 18:0.22857143 19:0.06666667 38:0.33333334 43:0.1 54:0.22222222 131:0.5 209:0.2 222:0.33333334 407:1 2137:0.5 2140:0.5 2144:0.5 2147:0.5 2157:0.5 2182:0.5 
-1.4106309462905084473050010274164 1:0.01923077 5:0.5 18:0.30000001 19:0.06666667 65:0.33333334 485:1 2137:0.5 2140:0.5 2144:0.5 2147:0.5 2157:0.5 2217:0.5 
1.6407581834342914728352980091586 1:0.01923077 17:0.5 18:0.17142858 96:0.33333334 229:1 1833:1 2144:0.5 2147:0.5 2183:0.5 2208:0.5 
-0.015487951625209167225150075353213 1:0.01923077 4:0.5 6:0.5 18:0.32857144 29:0.1 54:0.11111111 463:0.5 2137:0.5 2140:0.5 2144:0.5 2147:0.5 2201:0.5 
-1.6407581834342914728352980091586 1:0.01923077 10:0.5 14:0.5 18:0.18571429 41:0.11111111 183:0.5 2121:0.5 2126:0.5 2130:0.5 2133:0.5 2171:0.5 2185:0.5 2193:0.5 2194:0.5 
-0.99962854012980262297105582547374 1:0.14423077 3:0.73333335 5:0.06666667 16:0.06666667 17:0.06666667 18:0.27142856 19:0.06666667 20:0.2 22:0.13414633 27:0.14285713 33:0.125 44:0.12307692 53:0.14285713 55:0.16666667 229:1 406:0.33333334 706:1 839:1 840:1 2121:0.5 2126:0.5 2130:0.5 2133:0.5 2137:0.5 2140:0.5 2144:0.5 2147:0.5 
-0.96546276913123796337146131918416 1:0.04807692 3:0.2 5:0.2 6:0.2 10:0.2 14:0.2 18:0.01428571 19:0.06666667 22:0.01219512 29:0.1 41:0.11111111 52:0.2 166:0.5 183:0.5 1611:1 1612:1 2115:0.5 2116:0.5 2125:0.5 2143:0.5 
1.6407581834342914728352980091586 1:0.02884615 5:0.66666669 7:0.33333334 18:0.24285714 19:0.13333333 23:0.14285713 181:0.16666667 278:1 2137:0.5 2140:0.5 2144:0.5 2147:0.5 
-0.8911297203395183164076343018678 1:0.11538462 3:0.25 5:0.083333328 7:0.083333328 9:0.083333328 14:0.083333328 16:0.16666667 18:0.40000001 19:0.06666667 22:0.036585368 27:0.14285713 33:0.25 41:0.11111111 44:0.01538462 53:0.14285713 65:0.33333334 68:0.5 96:0.33333334 105:0.5 109:0.25 120:0.33333334 181:0.16666667 259:0.33333334 278:1 406:0.33333334 539:0.33333334 795:1 818:1 2144:0.5 2147:0.5 2207:0.5 2208:0.5 
-0.40053945120050343797757363972778 1:0.0096153803 7:1 18:0.01428571 2110:0.5 2111:0.5 2112:0.5 2210:0.5 
-0.016189879609964166751190361992485 1:0.0096153803 15:1 18:0.30000001 76:1 2137:0.5 2140:0.5 2144:0.5 2147:0.5 
-1.5875424205345376460485340430751 1:0.02884615 4:0.33333334 5:0.33333334 7:0.33333334 18:0.24285714 19:0.06666667 54:0.11111111 180:0.33333334 181:0.16666667 266:1 2137:0.5 2140:0.5 2144:0.5 2147:0.5 2159:0.5 
-1.6407581834342914728352980091586 1:0.0096153803 5:1 18:0.27142856 19:0.06666667 2140:0.5 2144:0.5 2147:0.5 2182:0.5 2207:0.5 
-1.6407581834342914728352980091586 1:0.0096153803 17:1 18:0.27142856 2137:0.5 2140:0.5 2144:0.5 2147:0.5 2201:0.5 
0.58415280827761451032387185478001 1:0.03846154 7:0.25 10:0.5 18:0.11428571 61:0.25 181:0.16666667 183:1 184:1 867:1 1632:1 2136:0.5 2155:0.5 2158:0.5 2160:0.5 2161:0.5 2192:0.5 2194:0.5 
0.0060696887643451498395297249999203 1:0.01923077 7:0.5 10:0.5 18:0.69999999 181:0.16666667 183:0.5 184:1 2183:0.5 2184:0.5 2186:0.5 2202:0.5 
1.3222757882703068954555192249245 1:0.01923077 7:0.5 10:0.5 18:0.085714288 181:0.16666667 183:0.5 184:1 2128:0.5 2132:0.5 2155:0.5 2158:0.5 2160:0.5 
-0.85562101587429251203786861879053 1:0.086538456 5:0.33333334 7:0.22222222 18:0.085714288 19:0.2 23:0.14285713 43:0.30000001 74:0.25 75:0.25 144:0.5 148:0.2 181:0.16666667 186:0.25 189:0.16666667 237:0.33333334 262:0.25 278:1 321:0.33333334 501:0.33333334 530:0.5 799:0.33333334 2127:0.5 2128:0.5 2150:0.5 2155:0.5 2156:0.5 2160:0.5 2186:0.5 2200:0.5 
-0.67328020732354276756126409964054 1:0.0096153803 7:1 18:0.15714286 38:0.33333334 2129:0.5 2157:0.5 2158:0.5 2160:0.5 2176:0.5 2178:0.5 
0.1743580961508212068267198446847 1:0.01923077 7:0.5 10:0.5 18:0.2 150:0.01333333 181:0.16666667 183:0.5 1351:1 2071:1 2137:0.5 2140:0.5 2144:0.5 2147:0.5 
1.6407581834342914728352980091586 1:0.01923077 4:0.5 10:0.5 18:0.25714287 54:0.11111111 183:0.5 2137:0.5 2140:0.5 2144:0.5 2147:0.5 
-1.467715012774441829535021497577 1:0.01923077 4:0.5 6:0.5 18:0.17142858 30:0.1 54:0.11111111 135:0.33333334 2137:0.5 2140:0.5 2144:0.5 2147:0.5 2201:0.5 
-0.77591417837134779578178722658777 1:0.02884615 3:0.33333334 4:0.33333334 5:0.33333334 18:0.22857143 19:0.06666667 21:0.33333334 22:0.01219512 54:0.11111111 407:1 2137:0.5 2140:0.5 2144:0.5 2147:0.5 2201:0.5 
-0.1747632784973011110807306067727 1:0.03846154 5:1 18:0.01428571 19:0.26666668 23:0.42857143 2165:0.5 2167:0.5 2169:0.5 2170:0.5 
-1.6407581834342914728352980091586 1:0.07692308 3:0.125 5:0.125 7:0.125 14:0.125 17:0.125 18:0.42857143 19:0.06666667 22:0.01219512 27:0.14285713 41:0.11111111 65:0.33333334 68:0.5 81:0.5 84:0.25 93:0.33333334 120:0.33333334 181:0.16666667 275:0.5 278:1 280:0.33333334 282:0.33333334 2144:0.5 2147:0.5 2159:0.5 2183:0.5 2184:0.5 
-1.6407581834342914728352980091586 1:0.07692308 3:0.5 4:0.25 17:0.125 18:0.17142858 22:0.04878049 42:0.11111111 43:0.1 44:0.030769231 48:0.16666667 54:0.22222222 59:0.25 60:0.33333334 61:0.25 119:0.25 229:1 2121:0.5 2126:0.5 2130:0.5 2133:0.5 2137:0.5 2140:0.5 2144:0.5 2147:0.5 
-0.67472241608803584789200158411404 1:0.14423077 3:0.46666667 5:0.13333333 7:0.06666667 14:0.13333333 17:0.06666667 18:0.24285714 19:0.13333333 22:0.085365847 41:0.22222222 43:0.1 44:0.07692308 51:0.125 84:0.25 93:0.33333334 104:0.5 105:0.5 108:0.5 166:0.5 181:0.16666667 278:1 279:0.5 280:0.33333334 304:1 305:1 1151:1 2137:0.5 2140:0.5 2144:0.5 2147:0.5 
-1.5056996195153469209060403954936 1:0.02884615 5:1 18:0.17142858 19:0.2 23:0.2857143 2130:0.5 2133:0.5 2137:0.5 2140:0.5 2144:0.5 2147:0.5 2152:0.5 2199:0.5 
-0.50496535909742346071027441212209 1:0.02884615 5:0.33333334 8:0.66666669 18:0.18571429 19:0.06666667 27:0.14285713 62:0.5 63:1 64:0.5 2137:0.5 2140:0.5 2144:0.5 2147:0.5 2150:0.5 2153:0.5 2154:0.5 
0.75850249787747170415741493343376 1:0.01923077 7:0.5 10:0.5 18:0.085714288 181:0.16666667 183:0.5 184:1 2136:0.5 2138:0.5 2161:0.5 2183:0.5 2194:0.5 
-1.1893230857797383315244132973021 1:0.0096153803 7:1 18:0.01428571 322:0.25 2110:0.5 2112:0.5 2162:0.5 2210:0.5 
1.6407581834342914728352980091586 1:0.01923077 5:0.5 7:0.5 18:0.22857143 19:0.06666667 181:0.16666667 278:1 2137:0.5 2140:0.5 2144:0.5 2147:0.5 
-0.75055866054694642119926584200584 1:0.0096153803 15:1 18:0.32857144 76:1 2137:0.5 2140:0.5 2144:0.5 2147:0.5 
-0.11250135661624011129688938126492 1:0.03846154 7:1 18:0.071428567 2123:0.5 2127:0.5 2148:0.5 2149:0.5 2150:0.5 2151:0.5 2171:0.5 2202:0.5 
-0.1356821044903023798511298991798 1:0.04807692 3:0.2 5:0.2 6:0.2 10:0.2 16:0.2 18:0.028571431 19:0.06666667 22:0.01219512 29:0.1 33:0.125 138:1 162:0.5 183:0.5 1611:1 1900:1 2111:0.5 2114:0.5 2115:0.5 2143:0.5 2146:0.5 2149:0.5 
-0.010012266375521206712706501207322 1:0.04807692 3:0.2 5:0.40000001 6:0.2 10:0.2 18:0.04285714 19:0.13333333 21:0.33333334 22:0.01219512 23:0.14285713 29:0.1 183:0.5 1611:1 1612:1 2110:0.5 2111:0.5 2143:0.5 2146:0.5 2183:0.5 2184:0.5 
-0.23545172506909392562413074756478 1:0.01923077 4:1 18:0.24285714 54:0.22222222 133:0.16666667 2137:0.5 2140:0.5 2144:0.5 2147:0.5 2149:0.5 2164:0.5 2166:0.5 2168:0.5 
-0.54014521356508249372296859291964 1:0.01923077 4:0.5 18:0.22857143 26:0.5 54:0.11111111 545:1 2137:0.5 2140:0.5 2144:0.5 2147:0.5 2159:0.5 
-0.16631673868153426520954951683962 1:0.21153846 3:0.68181819 4:0.090909094 5:0.045454551 7:0.045454551 18:0.5714286 19:0.06666667 20:0.2 22:0.18292683 27:0.2857143 42:0.11111111 43:0.1 44:0.15384614 46:0.25 51:0.125 53:0.2857143 54:0.22222222 55:0.16666667 133:0.16666667 181:0.16666667 278:1 423:0.25 526:0.25 527:0.33333334 617:0.33333334 648:1 649:1 650:1 693:0.5 2183:0.5 2184:0.5 2186:0.5 2202:0.5 
1.5459032069684568444500882833381 1:0.01923077 10:0.5 16:0.5 18:0.27142856 33:0.125 183:0.5 215:1 2140:0.5 2144:0.5 2147:0.5 2207:0.5 
-0.41292323385801221746760347741656 1:0.057692312 3:0.33333334 5:0.33333334 18:0.24285714 19:0.13333333 20:0.2 22:0.024390239 26:0.5 42:0.22222222 43:0.2 61:0.25 80:0.5 112:0.5 148:0.2 214:0.5 2140:0.5 2144:0.5 2147:0.5 2200:0.5 2206:0.5 2207:0.5 
0.55086986623285683073447671631584 1:0.01923077 7:0.5 10:0.5 18:0.14285713 181:0.16666667 183:0.5 184:1 2134:0.5 2175:0.5 2193:0.5 2196:0.5 
0.39120588183252164027337016705133 1:0.01923077 7:0.5 10:0.5 18:0.085714288 181:0.16666667 183:0.5 184:1 2122:0.5 2127:0.5 2132:0.5 2136:0.5 
-0.21559150620024325473167436939548 1:0.0096153803 7:1 18:0.15714286 797:1 2115:0.5 2143:0.5 2146:0.5 2148:0.5 2171:0.5 2192:0.5 2194:0.5 2196:0.5 
-0.28171081334444408872386134135013 1:0.0096153803 7:1 18:0.18571429 237:0.33333334 2142:0.5 2158:0.5 2159:0.5 2160:0.5 2161:0.5 
-0.092948644820406572941706713208987 1:0.02884615 2:0.66666669 7:0.66666669 18:0.22857143 38:0.33333334 40:0.33333334 43:0.1 181:0.16666667 219:1 221:0.2 222:0.33333334 2165:0.5 2167:0.5 2169:0.5 2170:0.5 2183:0.5 2184:0.5 2186:0.5 2202:0.5 
-0.064302193061341259006091775063396 1:0.02884615 6:0.66666669 7:0.33333334 18:0.32857144 30:0.2 43:0.1 99:0.125 181:0.16666667 196:0.25 608:0.16666667 2132:0.5 2155:0.5 2156:0.5 2158:0.5 2164:0.5 2189:0.5 2214:0.5 2221:0.5 
1.6124707165179961165790700761136 1:0.01923077 10:0.5 17:0.5 18:0.18571429 183:0.5 2137:0.5 2140:0.5 2144:0.5 2147:0.5 
-0.16037478400198501571338738358463 1:0.096153848 3:0.5 5:0.2 12:0.1 18:0.25714287 19:0.13333333 20:0.2 21:0.33333334 22:0.060975611 43:0.1 44:0.01538462 51:0.125 56:0.01639344 57:0.2 58:0.2 61:0.25 85:0.25 89:0.5 172:0.5 174:0.25 228:1 238:0.5 880:1 2133:0.5 2137:0.5 2140:0.5 2144:0.5 2147:0.5 2200:0.5 
1.4251021659161582366692755385884 1:0.01923077 5:0.5 7:0.5 18:0.2857143 19:0.06666667 181:0.16666667 278:1 2137:0.5 2140:0.5 2144:0.5 2147:0.5 
-0.90005396937523274303316611621995 1:0.0096153803 18:0.25714287 83:0.25 2140:0.5 2144:0.5 2147:0.5 2149:0.5 2151:0.5 2166:0.5 2168:0.5 2183:0.5 
-0.29503364714638230514864858378132 1:0.0096153803 18:0.44285715 192:0.5 2137:0.5 2140:0.5 2144:0.5 2147:0.5 2198:0.5 2204:0.5 2205:0.5 2206:0.5 
0.5981848975291074177462746774836 1:0.0096153803 10:1 18:0.085714288 183:0.5 2136:0.5 2161:0.5 2171:0.5 2192:0.5 
-0.13001682643437559305787942776078 1:0.1826923 3:0.21052632 5:0.10526316 6:0.10526316 8:0.10526316 14:0.052631579 17:0.052631579 18:0.21428572 19:0.13333333 21:0.33333334 22:0.04878049 27:0.2857143 30:0.2 41:0.11111111 43:0.1 44:0.01538462 51:0.125 53:0.14285713 56:0.049180329 61:0.25 64:0.5 65:0.33333334 68:0.5 96:0.33333334 104:0.5 108:0.5 114:1 118:0.5 120:0.33333334 121:1 132:0.5 139:0.5 141:0.5 217:0.5 229:1 279:0.5 426:0.66666669 436:1 706:1 862:1 932:1 1509:1 2137:0.5 2140:0.5 2144:0.5 2147:0.5 
-0.1304220233777861892576765967533 1:0.125 3:0.30769232 4:0.07692308 5:0.07692308 6:0.07692308 7:0.07692308 12:0.07692308 18:0.15714286 19:0.06666667 22:0.04878049 26:0.5 27:0.14285713 29:0.1 44:0.046153851 47:0.2 54:0.11111111 85:0.25 90:0.33333334 96:0.33333334 170:1 171:0.5 172:0.5 181:0.16666667 278:1 387:0.5 697:0.5 1303:1 1388:1 2131:0.5 2138:0.5 2159:0.5 2175:0.5 2196:0.5 
-0.18213137841605442357462152358494 1:0.02884615 5:0.66666669 18:0.028571431 19:0.13333333 61:0.25 80:0.5 82:0.5 2111:0.5 2114:0.5 2115:0.5 2117:0.5 2164:0.5 
-0.12961898176057370934977086562867 1:0.01923077 7:0.5 18:0.42857143 233:0.33333334 557:1 1865:1 2144:0.5 2147:0.5 2153:0.5 2154:0.5 2156:0.5 2171:0.5 2173:0.5 
-0.057275814952111654687616493220048 1:0.0096153803 4:1 18:0.27142856 54:0.11111111 2137:0.5 2140:0.5 2144:0.5 2147:0.5 2182:0.5 
-0.5927277348209309959514712318196 1:0.01923077 5:0.5 18:0.32857144 19:0.06666667 96:0.33333334 97:0.5 2144:0.5 2147:0.5 2201:0.5 2207:0.5 2208:0.5 
-0.11830207013813522076706163943527 1:0.0096153803 18:0.44285715 96:0.33333334 2144:0.5 2147:0.5 2151:0.5 2152:0.5 2153:0.5 2156:0.5 2183:0.5 2188:0.5 2189:0.5 2190:0.5 2208:0.5 
0.72527873751975335814279333135346 1:0.01923077 17:0.5 18:0.22857143 96:0.33333334 229:1 1833:1 2137:0.5 2140:0.5 2144:0.5 2147:0.5 
-0.099026868156064262738169645672315 1:0.125 3:0.07692308 6:0.69230771 7:0.07692308 16:0.07692308 18:0.27142856 22:0.01219512 29:0.69999999 30:0.2 31:0.5 33:0.125 43:0.40000001 49:0.25 96:0.33333334 100:0.5 162:0.5 181:0.16666667 196:0.5 200:0.5 337:1 697:0.5 872:1 2137:0.5 2140:0.5 2144:0.5 2147:0.5 
-0.17529646995838979450788031044794 1:0.02884615 5:0.66666669 18:0.2 19:0.13333333 23:0.14285713 1749:1 2137:0.5 2140:0.5 2144:0.5 2147:0.5 2157:0.5 2201:0.5 
-0.090113318193995803340179406859534 1:0.01923077 3:0.5 4:0.5 18:0.21428572 22:0.01219512 47:0.2 54:0.11111111 2115:0.5 2137:0.5 2140:0.5 2144:0.5 2146:0.5 2147:0.5 2148:0.5 2149:0.5 
-0.16467791996209724114663686123095 1:0.03846154 5:0.75 18:0.01428571 19:0.2 23:0.14285713 77:0.5 78:0.33333334 359:1 2115:0.5 2146:0.5 2148:0.5 2163:0.5 
-0.1401993399905952786266283283112 1:0.01923077 7:0.5 18:0.11428571 115:0.33333334 1696:1 2129:0.5 2157:0.5 2171:0.5 2185:0.5 2192:0.5 2194:0.5 
-0.1282423568082347309360358167396 1:0.02884615 2:0.66666669 7:0.66666669 18:0.01428571 38:0.33333334 40:0.33333334 43:0.1 222:0.33333334 357:0.125 364:0.5 365:0.5 2116:0.5 2119:0.5 2124:0.5 2213:0.5 
-0.2928186067032658712605552864261 1:0.03846154 6:1 18:0.22857143 29:0.2 30:0.2 34:0.33333334 100:0.5 2137:0.5 2140:0.5 2144:0.5 2147:0.5 2148:0.5 2149:0.5 2150:0.5 2151:0.5 
-0.00073263169731424917542617070154165 1:0.057692312 5:0.5 18:0.01428571 19:0.2 61:0.25 77:0.5 78:0.66666669 80:0.5 82:0.5 359:1 1528:1 2115:0.5 2148:0.5 2151:0.5 2163:0.5 
0.30196410227625575251053646752553 1:0.01923077 7:0.5 10:0.5 18:0.14285713 181:0.16666667 183:0.5 184:1 2134:0.5 2173:0.5 2195:0.5 2196:0.5 
-0.35778172857807832851761986603378 1:0.07692308 3:0.5 4:0.25 5:0.25 18:0.42857143 19:0.13333333 20:0.2 21:0.33333334 22:0.04878049 44:0.030769231 47:0.2 48:0.16666667 54:0.22222222 407:1 2137:0.5 2140:0.5 2144:0.5 2147:0.5 2148:0.5 2150:0.5 2151:0.5 2203:0.5 
-0.1722353590878711593337158092254 1:0.04807692 3:0.2 6:0.2 16:0.40000001 18:0.25714287 22:0.01219512 30:0.1 33:0.25 210:0.33333334 388:0.5 389:0.5 539:0.33333334 2140:0.5 2144:0.5 2147:0.5 2159:0.5 2183:0.5 
0.24991326212531320138943158326583 1:0.01923077 10:0.5 16:0.5 18:0.2 33:0.125 183:0.5 215:1 2144:0.5 2147:0.5 2207:0.5 2208:0.5 
-0.055077112715752482574593784647732 1:0.03846154 7:0.25 8:0.5 9:0.25 18:0.071428567 26:0.5 64:0.5 181:0.16666667 259:0.33333334 761:1 858:1 1049:1 2121:0.5 2128:0.5 2132:0.5 2155:0.5 2156:0.5 2158:0.5 2166:0.5 2188:0.5 
-0.030325816532997321856024441899535 1:0.01923077 7:0.5 18:0.1 124:0.16666667 593:0.5 594:0.5 595:0.33333334 596:0.33333334 2125:0.5 2136:0.5 2158:0.5 2160:0.5 2161:0.5 2168:0.5 2199:0.5 
-0.05165685326683404354763951005225 1:0.057692312 3:0.33333334 4:0.16666667 6:0.16666667 7:0.16666667 18:0.35714287 22:0.024390239 27:0.14285713 30:0.1 44:0.01538462 46:0.25 54:0.11111111 181:0.16666667 252:1 571:0.33333334 1217:0.5 2137:0.5 2140:0.5 2144:0.5 2147:0.5 2157:0.5 2182:0.5 
-0.17041534406832251069552341959934 1:0.07692308 3:0.5 5:0.25 18:0.34285715 19:0.13333333 21:0.33333334 22:0.04878049 26:0.5 44:0.030769231 56:0.01639344 58:0.2 115:0.33333334 214:0.5 408:1 507:1 2133:0.5 2137:0.5 2140:0.5 2144:0.5 2147:0.5 2157:0.5 
-0.16146553123443510568968406460044 1:0.067307688 5:0.71428573 18:0.01428571 19:0.33333334 23:0.2857143 27:0.14285713 61:0.25 62:0.5 80:0.5 81:0.5 82:0.5 2115:0.5 2148:0.5 2214:0.5 2215:0.5 
0.91354826684511569734326030811644 1:0.01923077 17:0.5 18:0.3142857 96:0.33333334 229:1 1833:1 2144:0.5 2147:0.5 2183:0.5 2208:0.5 
-0.13712761246954532912134538946702 1:0.0096153803 15:1 18:0.2857143 76:1 2137:0.5 2140:0.5 2144:0.5 2147:0.5 
-0.13045589330964926788603008844802 1:0.03846154 3:0.25 4:0.25 5:0.25 7:0.25 18:0.18571429 19:0.06666667 21:0.33333334 22:0.01219512 54:0.11111111 56:0.01639344 173:1 181:0.16666667 407:1 1150:1 2137:0.5 2140:0.5 2144:0.5 2147:0.5 2201:0.5 
-0.10118082342978400312016873385801 1:0.07692308 3:0.625 5:0.125 18:0.22857143 19:0.06666667 20:0.2 22:0.060975611 44:0.030769231 56:0.01639344 57:0.2 58:0.2 59:0.25 61:0.25 115:0.33333334 174:0.25 301:0.33333334 2133:0.5 2137:0.5 2140:0.5 2144:0.5 2147:0.5 2200:0.5 
-0.050114249637582319873985170488595 1:0.01923077 6:0.5 18:0.04285714 30:0.1 78:0.33333334 198:1 2114:0.5 2118:0.5 2150:0.5 2151:0.5 2153:0.5 2163:0.5 
-0.22669413102309979302084741448198 1:0.0096153803 18:0.3142857 781:0.5 2140:0.5 2144:0.5 2147:0.5 2159:0.5 2183:0.5 
0.39725937788729948074717412964674 1:0.01923077 7:0.5 10:0.5 18:0.085714288 181:0.16666667 183:0.5 184:1 2123:0.5 2127:0.5 2128:0.5 2134:0.5 2158:0.5 2192:0.5 
-0.26398222745599886351897112035658 1:0.01923077 5:0.5 18:0.21428572 19:0.06666667 96:0.33333334 97:0.5 2134:0.5 2136:0.5 2161:0.5 2165:0.5 2167:0.5 2169:0.5 2170:0.5 2192:0.5 
-0.11652949412398774797772205147339 1:0.01923077 5:0.5 7:0.5 18:0.1 19:0.06666667 38:0.33333334 813:0.5 2128:0.5 2132:0.5 2156:0.5 2158:0.5 2160:0.5 2163:0.5 2188:0.5 2189:0.5 
-0.19726292274466064591287306484446 1:0.0096153803 15:1 18:0.22857143 76:1 2137:0.5 2140:0.5 2144:0.5 2147:0.5 
-0.14050030012576317228756295207859 1:0.0096153803 15:1 18:0.3142857 76:1 2137:0.5 2140:0.5 2144:0.5 2147:0.5 
-0.030552603583152884714202457416832 1:0.02884615 3:0.33333334 4:0.33333334 5:0.33333334 18:0.35714287 19:0.06666667 21:0.33333334 22:0.01219512 54:0.11111111 407:1 2137:0.5 2140:0.5 2144:0.5 2147:0.5 2201:0.5 
0.062997418978718300319741274506669 1:0.10576923 3:0.72727275 6:0.090909094 10:0.090909094 17:0.090909094 18:0.2857143 22:0.097560979 30:0.1 44:0.10769231 56:0.01639344 183:0.5 210:0.33333334 229:1 230:1 411:1 1253:1 2147:0.5 2183:0.5 2208:0.5 2209:0.5 
-0.06761857991164396675110026535549 1:0.0096153803 18:0.3142857 282:0.33333334 2133:0.5 2137:0.5 2140:0.5 2144:0.5 2147:0.5 2179:0.5 2204:0.5 2205:0.5 
0.029279133459250497595327544786414 1:0.03846154 5:0.5 7:0.25 10:0.25 18:0.21428572 19:0.13333333 23:0.14285713 181:0.16666667 183:0.5 184:1 471:1 2137:0.5 2140:0.5 2144:0.5 2147:0.5 
-0.018497333262336677905945947486543 1:0.03846154 6:0.75 18:0.11428571 30:0.30000001 78:0.33333334 99:0.25 198:1 2111:0.5 2112:0.5 2117:0.5 2161:0.5 2170:0.5 2172:0.5 2174:0.5 2185:0.5 
-0.028800442520025195530797290643932 1:0.0096153803 18:0.028571431 2129:0.5 2162:0.5 2183:0.5 2212:0.5 2213:0.5 
-0.27175228630231185178445230121724 1:0.0096153803 18:0.22857143 211:1 2137:0.5 2140:0.5 2144:0.5 2147:0.5 2200:0.5 2206:0.5 
-0.031097770792130878525494352970782 1:0.01923077 4:0.5 18:0.37142858 54:0.11111111 60:0.33333334 61:0.25 2137:0.5 2140:0.5 2144:0.5 2147:0.5 2201:0.5 
-0.036263841696619517063204796158971 1:0.02884615 5:1 18:0.47142857 19:0.2 23:0.14285713 43:0.1 148:0.2 189:0.16666667 2140:0.5 2144:0.5 2147:0.5 2201:0.5 2207:0.5 
-0.010479169458524454500158995529091 1:0.03846154 5:0.75 18:0.04285714 19:0.2 23:0.14285713 61:0.25 80:0.5 82:0.5 2118:0.5 2122:0.5 2150:0.5 2153:0.5 2164:0.5 2187:0.5 
-0.00067189371000802092237513818417938 1:0.0096153803 18:0.27142856 211:1 2137:0.5 2140:0.5 2144:0.5 2147:0.5 2200:0.5 2206:0.5 
-2.0049886892747811059992124604889e-06 1:0.0096153803 15:1 18:0.27142856 76:1 2137:0.5 2140:0.5 2144:0.5 2147:0.5 
-0.3357329442274451514194311130268 1:0.0096153803 18:0.2857143 211:1 2137:0.5 2140:0.5 2144:0.5 2147:0.5 2200:0.5 2206:0.5 
