SVM-light Version V5.00
2 # kernel type
3 # kernel parameter -d 
0.1 # kernel parameter -g 
1 # kernel parameter -s 
1 # kernel parameter -r 
empty# kernel parameter -u 
2109 # highest feature index 
18907 # number of training documents 
160 # number of support vectors plus 1 
1.4668364 # threshold b, each following line is a SV (starting with alpha*y)
-0.50501929019766311768080413457938 1:0.03846154 4:0.25 5:0.5 6:0.25 18:0.34285715 19:0.13333333 30:0.1 54:0.11111111 56:0.01639344 58:0.2 405:0.33333334 407:1 408:1 
-0.21495746501565179964465812645358 1:0.03846154 6:0.25 7:0.25 16:0.5 18:0.12857144 30:0.1 33:0.25 35:0.25 181:0.16666667 338:0.25 539:0.33333334 
-0.14702761676070683072303779681533 1:0.057692312 3:0.16666667 4:0.16666667 7:0.5 18:0.37142858 22:0.01219512 54:0.11111111 180:0.33333334 181:0.5 182:0.25 418:0.25 1888:1 1964:1 
-2.8189670929184531544819947157521 1:0.01923077 4:0.5 7:0.5 18:0.01428571 54:0.11111111 181:0.16666667 182:0.25 
-0.46473622137139136700767494403408 1:0.067307688 5:0.42857143 7:0.14285713 9:0.2857143 18:0.085714288 19:0.2 43:0.2 66:0.33333334 74:0.25 75:0.25 144:0.5 147:1 148:0.2 149:1 181:0.16666667 278:1 501:0.33333334 530:0.5 799:0.33333334 
-0.42496663207294882447229156241519 1:0.13461538 3:0.5714286 4:0.071428567 7:0.071428567 18:0.30000001 22:0.097560979 27:0.2857143 44:0.07692308 47:0.2 48:0.16666667 53:0.14285713 54:0.11111111 55:0.16666667 96:0.33333334 124:0.16666667 181:0.16666667 640:1 944:1 1908:1 
-0.059536961301077877262155624293882 1:0.01923077 5:0.5 7:0.5 18:0.1 19:0.06666667 38:0.33333334 813:0.5 
-0.094934239414742174756334236462862 1:0.03846154 5:0.5 13:0.25 18:0.22857143 19:0.13333333 61:0.25 80:0.5 82:0.5 467:0.5 582:0.5 
0.18199495688620578870420274597564 1:0.067307688 5:0.5714286 10:0.14285713 17:0.2857143 18:0.17142858 19:0.26666668 23:0.2857143 150:0.01333333 183:0.5 229:1 230:1 247:0.5 256:0.5 1355:1 1383:1 1921:1 
-3.1266851102976906950914326444035 1:0.01923077 7:0.5 10:0.5 18:0.2857143 181:0.16666667 183:0.5 184:1 
3.1266851102976906950914326444035 1:0.01923077 5:0.5 6:0.5 18:0.30000001 19:0.06666667 29:0.1 134:0.5 
-3.1266851102976906950914326444035 1:0.01923077 10:0.5 14:0.5 18:0.18571429 41:0.11111111 183:0.5 
3.1266851102976906950914326444035 1:0.01923077 4:0.5 10:0.5 18:0.25714287 54:0.11111111 183:0.5 
3.1266851102976906950914326444035 1:0.03846154 3:0.75 5:0.25 18:0.24285714 19:0.06666667 20:0.2 22:0.036585368 44:0.030769231 
3.1266851102976906950914326444035 1:0.03846154 5:0.75 18:0.3142857 19:0.2 23:0.14285713 61:0.25 80:0.5 82:0.5 
-2.6497850356952223904727361514233 1:0.01923077 14:0.5 17:0.5 18:0.17142858 41:0.11111111 229:1 1867:1 
3.1266851102976906950914326444035 1:0.01923077 5:0.5 7:0.5 18:0.2857143 19:0.06666667 181:0.16666667 278:1 
3.1266851102976906950914326444035 1:0.04807692 3:0.2 5:0.2 6:0.2 7:0.2 18:0.2 19:0.06666667 21:0.33333334 22:0.01219512 30:0.1 181:0.16666667 210:0.33333334 501:0.33333334 530:0.5 571:0.33333334 
3.1266851102976906950914326444035 1:0.02884615 3:0.33333334 6:0.33333334 7:0.33333334 18:0.22857143 22:0.01219512 30:0.1 181:0.16666667 210:0.33333334 571:0.33333334 
3.1266851102976906950914326444035 1:0.01923077 6:0.5 18:0.21428572 30:0.1 78:0.33333334 198:1 
3.1266851102976906950914326444035 1:0.04807692 3:0.2 4:0.2 5:0.2 10:0.2 18:0.11428571 19:0.06666667 20:0.2 22:0.01219512 27:0.14285713 46:0.25 53:0.14285713 54:0.11111111 150:0.01333333 183:0.5 247:0.5 1680:1 
-0.10419699557254133437389498340053 1:0.14423077 3:0.40000001 5:0.06666667 7:0.06666667 14:0.2 17:0.06666667 18:0.15714286 19:0.06666667 22:0.073170729 41:0.33333334 44:0.061538462 61:0.25 84:0.25 93:0.33333334 105:0.5 109:0.5 115:0.33333334 181:0.16666667 224:0.5 278:1 280:0.33333334 282:0.33333334 300:1 585:1 1185:1 
-0.2650056530141391419874707935378 1:0.14423077 3:0.33333334 5:0.13333333 7:0.06666667 14:0.2 17:0.06666667 18:0.2857143 19:0.13333333 22:0.060975611 27:0.14285713 41:0.33333334 44:0.046153851 45:0.5 52:0.2 84:0.25 93:0.33333334 105:0.5 108:0.5 109:0.5 110:0.5 142:0.25 181:0.16666667 278:1 598:1 600:0.5 1083:1 
3.1266851102976906950914326444035 1:0.01923077 17:0.5 18:0.17142858 96:0.33333334 229:1 1833:1 
3.0729981439507008111888808343792 1:0.096153848 3:0.40000001 4:0.2 5:0.1 14:0.1 17:0.1 18:0.21428572 19:0.06666667 22:0.04878049 26:0.5 41:0.11111111 44:0.030769231 47:0.2 48:0.16666667 52:0.2 54:0.22222222 56:0.01639344 214:0.5 229:1 263:0.5 408:1 525:1 706:1 
3.1266851102976906950914326444035 1:0.01923077 17:0.5 18:0.22857143 96:0.33333334 229:1 1833:1 
-1.3115219905840691527743047117838 1:0.03846154 7:0.5 11:0.25 17:0.25 18:0.085714288 150:0.01333333 152:0.5 156:0.5 229:1 322:0.25 594:0.5 1670:1 1671:1 
-2.3005225583349919737941036146367 1:0.057692312 4:0.33333334 6:0.33333334 7:0.16666667 17:0.16666667 18:0.085714288 30:0.2 38:0.33333334 43:0.1 54:0.22222222 133:0.16666667 135:0.33333334 199:0.33333334 229:1 431:0.33333334 1061:1 
-3.1266851102976906950914326444035 1:0.14423077 3:0.73333335 5:0.06666667 16:0.06666667 17:0.06666667 18:0.27142856 19:0.06666667 20:0.2 22:0.13414633 27:0.14285713 33:0.125 44:0.12307692 53:0.14285713 55:0.16666667 229:1 406:0.33333334 706:1 839:1 840:1 
3.1266851102976906950914326444035 1:0.057692312 3:0.5 5:0.16666667 7:0.16666667 18:0.3142857 19:0.06666667 20:0.2 22:0.036585368 44:0.01538462 59:0.25 61:0.25 174:0.25 181:0.16666667 278:1 
3.1266851102976906950914326444035 1:0.03846154 5:0.25 7:0.25 14:0.25 18:0.2 19:0.06666667 26:0.5 41:0.11111111 160:1 166:0.5 181:0.16666667 761:1 
3.1266851102976906950914326444035 1:0.02884615 3:0.33333334 5:0.33333334 7:0.33333334 18:0.2857143 19:0.06666667 20:0.2 22:0.01219512 181:0.16666667 278:1 
-3.1266851102976906950914326444035 1:0.02884615 5:0.66666669 7:0.33333334 18:0.15714286 19:0.13333333 23:0.14285713 181:0.16666667 278:1 
3.1266851102976906950914326444035 1:0.03846154 3:0.5 16:0.25 17:0.25 18:0.14285713 22:0.024390239 33:0.125 44:0.01538462 49:0.25 229:1 1200:1 
0.57788828564534244769390625151573 1:0.096153848 3:0.30000001 4:0.1 5:0.1 10:0.1 12:0.1 17:0.1 18:0.14285713 19:0.06666667 20:0.2 22:0.036585368 48:0.16666667 54:0.11111111 56:0.01639344 58:0.2 59:0.25 61:0.25 85:0.25 89:0.5 171:0.5 172:0.5 183:0.5 228:1 229:1 230:1 498:1 1253:1 
-3.1266851102976906950914326444035 1:0.096153848 3:0.5 4:0.1 14:0.2 16:0.1 17:0.1 18:0.27142856 22:0.060975611 33:0.125 41:0.22222222 44:0.046153851 49:0.25 52:0.40000001 54:0.11111111 109:0.25 229:1 263:0.5 1200:1 
-1.7238617311526016617762024907279 1:0.04807692 3:0.80000001 18:0.27142856 22:0.04878049 26:0.5 44:0.030769231 56:0.01639344 57:0.2 214:0.5 525:1 
-3.1266851102976906950914326444035 1:0.07692308 3:0.5 4:0.25 17:0.125 18:0.17142858 22:0.04878049 42:0.11111111 43:0.1 44:0.030769231 48:0.16666667 54:0.22222222 59:0.25 60:0.33333334 61:0.25 119:0.25 229:1 
3.1266851102976906950914326444035 1:0.057692312 4:0.16666667 5:0.66666669 7:0.16666667 18:0.22857143 19:0.26666668 23:0.2857143 54:0.11111111 131:0.5 181:0.16666667 278:1 407:1 
3.1266851102976906950914326444035 1:0.01923077 4:0.5 18:0.12857144 54:0.11111111 96:0.33333334 826:1 
3.1266851102976906950914326444035 1:0.03846154 5:0.75 7:0.25 18:0.32857144 19:0.2 23:0.2857143 181:0.16666667 278:1 
-3.1266851102976906950914326444035 1:0.02884615 5:0.66666669 7:0.33333334 18:0.14285713 19:0.13333333 23:0.14285713 181:0.16666667 278:1 
-3.1266851102976906950914326444035 1:0.02884615 5:0.66666669 7:0.33333334 18:0.12857144 19:0.13333333 23:0.14285713 181:0.16666667 278:1 
3.1266851102976906950914326444035 1:0.057692312 3:0.33333334 4:0.16666667 5:0.16666667 17:0.16666667 18:0.27142856 19:0.06666667 20:0.2 22:0.024390239 27:0.14285713 46:0.25 48:0.16666667 53:0.14285713 54:0.11111111 229:1 706:1 
-3.1266851102976906950914326444035 1:0.057692312 5:0.66666669 7:0.16666667 16:0.16666667 18:0.01428571 19:0.26666668 23:0.42857143 33:0.125 181:0.16666667 278:1 454:1 
-3.1266851102976906950914326444035 1:0.057692312 5:0.16666667 7:0.16666667 18:0.12857144 19:0.06666667 43:0.2 74:0.25 75:0.25 144:0.5 181:0.16666667 186:0.25 262:0.25 278:1 501:0.33333334 530:0.5 799:0.33333334 
1.3601356347928743595332434779266 1:0.1826923 3:0.63157892 4:0.052631579 10:0.052631579 14:0.10526316 16:0.052631579 17:0.052631579 18:0.2857143 22:0.14634146 27:0.14285713 33:0.125 41:0.22222222 44:0.12307692 46:0.25 48:0.16666667 49:0.25 50:1 52:0.40000001 53:0.14285713 54:0.11111111 56:0.01639344 109:0.5 183:0.5 229:1 230:1 1253:1 
0.49095090135268321107631095401302 1:0.11538462 3:0.66666669 5:0.083333328 10:0.083333328 17:0.083333328 18:0.15714286 19:0.06666667 20:0.2 22:0.097560979 43:0.1 44:0.092307687 51:0.125 56:0.01639344 58:0.2 172:0.5 183:0.5 228:1 229:1 230:1 880:1 1253:1 
-1.9229677549750909815173827155377 1:0.13461538 3:0.35714287 5:0.21428572 6:0.14285713 14:0.071428567 17:0.071428567 18:0.25714287 19:0.2 21:0.33333334 22:0.060975611 29:0.1 30:0.1 41:0.11111111 43:0.1 44:0.046153851 65:0.33333334 105:0.5 108:0.5 109:0.25 148:0.2 196:0.25 229:1 279:0.5 287:0.33333334 291:0.5 401:1 705:1 706:1 
-0.39954388390451550661097712691117 1:0.11538462 6:0.58333331 7:0.33333334 18:0.04285714 29:0.1 30:0.60000002 34:0.33333334 78:0.33333334 99:0.25 181:0.66666669 198:1 338:0.75 340:0.33333334 571:1 
-0.42599365140856776390521076791629 1:0.067307688 4:0.14285713 5:0.5714286 18:0.01428571 19:0.26666668 23:0.2857143 54:0.11111111 96:0.33333334 108:0.5 279:0.5 407:1 598:1 826:1 
3.1266851102976906950914326444035 1:0.02884615 5:0.66666669 7:0.33333334 18:0.24285714 19:0.13333333 23:0.14285713 181:0.16666667 278:1 
3.1266851102976906950914326444035 1:0.01923077 5:0.5 7:0.5 18:0.11428571 19:0.06666667 181:0.16666667 278:1 
-3.1266851102976906950914326444035 1:0.07692308 3:0.125 5:0.125 7:0.125 14:0.125 17:0.125 18:0.42857143 19:0.06666667 22:0.01219512 27:0.14285713 41:0.11111111 65:0.33333334 68:0.5 81:0.5 84:0.25 93:0.33333334 120:0.33333334 181:0.16666667 275:0.5 278:1 280:0.33333334 282:0.33333334 
0.9814506098343536155681476884638 1:0.057692312 4:0.16666667 5:0.16666667 6:0.16666667 7:0.16666667 10:0.16666667 18:0.34285715 19:0.06666667 30:0.1 54:0.11111111 61:0.25 82:0.5 135:0.33333334 150:0.01333333 181:0.16666667 183:0.5 184:1 217:0.5 247:0.5 1680:1 
3.1266851102976906950914326444035 1:0.01923077 10:0.5 17:0.5 18:0.21428572 183:0.5 
3.0520965318438513236287690233439 1:0.01923077 10:0.5 17:0.5 18:0.15714286 183:0.5 1355:1 1869:1 
-2.9719393957690813934391371731181 1:0.0096153803 17:1 18:0.32857144 1355:1 
-0.74752860659872222282018583427998 1:0.02884615 5:0.33333334 6:0.33333334 17:0.33333334 18:0.1 19:0.06666667 29:0.1 56:0.01639344 134:0.5 408:1 
-1.5297891063050703674974784007645 1:0.03846154 3:0.25 6:0.5 7:0.25 18:0.14285713 22:0.01219512 30:0.2 136:0.5 181:0.16666667 210:0.33333334 571:0.33333334 
3.1266851102976906950914326444035 1:0.04807692 5:0.60000002 7:0.2 18:0.30000001 19:0.2 23:0.14285713 27:0.14285713 62:0.5 81:0.5 181:0.16666667 278:1 
3.1266851102976906950914326444035 1:0.03846154 5:0.5 7:0.25 18:0.21428572 19:0.13333333 77:0.5 78:0.33333334 181:0.16666667 278:1 359:1 
-1.7657338468575920487069197406527 1:0.086538456 5:0.33333334 7:0.22222222 18:0.085714288 19:0.2 23:0.14285713 43:0.30000001 74:0.25 75:0.25 144:0.5 148:0.2 181:0.16666667 186:0.25 189:0.16666667 237:0.33333334 262:0.25 278:1 321:0.33333334 501:0.33333334 530:0.5 799:0.33333334 
3.1266851102976906950914326444035 1:0.03846154 5:0.25 17:0.25 18:0.21428572 19:0.06666667 27:0.14285713 65:0.33333334 68:0.5 81:0.5 229:1 706:1 
-2.2503431686550041668226640467765 1:0.096153848 3:0.40000001 5:0.1 7:0.1 18:0.27142856 19:0.06666667 20:0.2 22:0.04878049 27:0.14285713 44:0.046153851 53:0.14285713 61:0.25 83:0.5 181:0.16666667 278:1 1160:1 1271:1 
-1.5333451422608510572587192655192 1:0.057692312 5:0.16666667 7:0.16666667 18:0.071428567 19:0.06666667 27:0.14285713 43:0.1 69:0.5 96:0.33333334 142:0.25 181:0.16666667 257:0.5 278:1 669:0.5 713:0.5 736:1 845:1 
-1.2436627322589599575763941174955 1:0.086538456 3:0.22222222 5:0.11111111 7:0.11111111 18:0.2857143 19:0.06666667 22:0.024390239 27:0.14285713 44:0.01538462 61:0.25 65:0.33333334 68:0.5 81:0.5 120:0.33333334 181:0.16666667 278:1 1034:1 1035:1 
3.1266851102976906950914326444035 1:0.01923077 7:0.5 18:0.5714286 96:0.33333334 181:0.16666667 1908:1 
3.1266851102976906950914326444035 1:0.01923077 10:0.5 17:0.5 18:0.35714287 183:0.5 1683:1 
3.1266851102976906950914326444035 1:0.02884615 3:0.33333334 7:0.33333334 18:0.41428572 22:0.01219512 26:0.5 181:0.16666667 214:0.5 761:1 
-0.99272202942220089116887038471759 1:0.0096153803 7:1 18:0.2857143 38:0.33333334 
-0.11505970746219582045988261143066 1:0.0096153803 7:1 18:0.18571429 237:0.33333334 
-0.45664525139394757102806465809408 1:0.0096153803 7:1 18:0.35714287 181:0.16666667 952:0.125 955:1 
3.1266851102976906950914326444035 1:0.02884615 5:0.66666669 7:0.33333334 18:0.35714287 19:0.13333333 23:0.14285713 181:0.16666667 278:1 
3.1266851102976906950914326444035 1:0.01923077 5:0.5 7:0.5 18:0.22857143 19:0.06666667 181:0.16666667 278:1 
-3.1266851102976906950914326444035 1:0.0096153803 5:1 18:0.35714287 19:0.06666667 
1.9791242603001999444956027218723 1:0.01923077 7:0.5 10:0.5 18:0.2 150:0.01333333 181:0.16666667 183:0.5 1351:1 2071:1 
-1.0053014456197257864289440476568 1:0.07692308 3:0.125 5:0.125 7:0.125 14:0.125 17:0.125 18:0.42857143 19:0.06666667 22:0.01219512 27:0.14285713 41:0.11111111 65:0.33333334 68:0.5 81:0.5 84:0.25 93:0.33333334 118:0.5 120:0.33333334 181:0.16666667 278:1 280:0.33333334 436:1 
-0.024494511817380815871247889958795 1:0.04807692 5:0.60000002 18:0.01428571 19:0.2 27:0.14285713 62:0.5 77:0.5 78:0.33333334 81:0.5 359:1 
-1.1897486973027215917397825251101 1:0.086538456 3:0.11111111 5:0.22222222 7:0.11111111 14:0.22222222 18:0.27142856 19:0.13333333 22:0.01219512 27:0.14285713 41:0.22222222 52:0.2 65:0.33333334 68:0.5 81:0.5 105:0.5 120:0.33333334 166:0.5 181:0.16666667 275:0.5 278:1 282:0.33333334 
1.2664745750651589251134510050179 1:0.096153848 3:0.2 4:0.1 5:0.2 6:0.1 10:0.1 17:0.1 18:0.12857144 19:0.13333333 22:0.024390239 30:0.1 43:0.2 44:0.01538462 48:0.16666667 54:0.11111111 56:0.01639344 58:0.2 148:0.2 183:0.5 199:0.33333334 229:1 230:1 407:1 622:1 623:1 624:1 1204:0.25 1205:0.25 1253:1 
-1.3438722544157295502031956857536 1:0.03846154 7:0.25 8:0.5 9:0.25 18:0.071428567 26:0.5 64:0.5 181:0.16666667 259:0.33333334 761:1 858:1 1049:1 
-0.2393105639161642872458912734146 1:0.0096153803 4:1 18:0.72857141 54:0.11111111 
-1.7690794133651626118819422117667 1:0.02884615 5:0.66666669 18:0.028571431 19:0.13333333 77:0.5 78:0.33333334 359:1 
-2.1884450084400293157216310646618 1:0.04807692 3:0.2 5:0.40000001 6:0.2 10:0.2 18:0.04285714 19:0.13333333 21:0.33333334 22:0.01219512 23:0.14285713 29:0.1 183:0.5 1611:1 1612:1 
-0.89083903511401563157789951219456 1:0.04807692 3:0.2 5:0.2 6:0.2 10:0.2 16:0.2 18:0.028571431 19:0.06666667 22:0.01219512 29:0.1 33:0.125 138:1 162:0.5 183:0.5 1611:1 1900:1 
-1.1065308151827843996528599745943 1:0.04807692 3:0.40000001 4:0.2 5:0.40000001 18:0.64285713 19:0.13333333 20:0.2 22:0.024390239 44:0.01538462 47:0.2 54:0.11111111 150:0.01333333 247:0.5 256:0.5 
-0.45536675587101910211984545640007 1:0.04807692 3:0.2 5:0.60000002 18:0.01428571 19:0.2 20:0.2 22:0.01219512 23:0.14285713 61:0.25 80:0.5 82:0.5 
-0.8971798867708093982997752391384 1:0.21153846 3:0.68181819 4:0.090909094 5:0.045454551 7:0.045454551 18:0.5714286 19:0.06666667 20:0.2 22:0.18292683 27:0.2857143 42:0.11111111 43:0.1 44:0.15384614 46:0.25 51:0.125 53:0.2857143 54:0.22222222 55:0.16666667 133:0.16666667 181:0.16666667 278:1 423:0.25 526:0.25 527:0.33333334 617:0.33333334 648:1 649:1 650:1 693:0.5 
0.98049472531917147843927295980393 1:0.067307688 5:0.42857143 10:0.14285713 17:0.2857143 18:0.17142858 19:0.2 43:0.2 61:0.25 80:0.5 112:0.5 148:0.2 183:0.5 189:0.33333334 229:1 230:1 1355:1 1383:1 1921:1 
-0.89822258825202605514448350731982 1:0.125 3:0.30769232 4:0.07692308 5:0.07692308 6:0.07692308 7:0.07692308 12:0.07692308 18:0.15714286 19:0.06666667 22:0.04878049 26:0.5 27:0.14285713 29:0.1 44:0.046153851 47:0.2 54:0.11111111 85:0.25 90:0.33333334 96:0.33333334 170:1 171:0.5 172:0.5 181:0.16666667 278:1 387:0.5 697:0.5 1303:1 1388:1 
-0.54676038813930827320319849604857 1:0.057692312 5:0.33333334 7:0.16666667 14:0.16666667 18:0.04285714 19:0.13333333 23:0.14285713 26:0.5 41:0.11111111 61:0.25 160:1 166:0.5 181:0.16666667 266:1 700:1 
-1.5928962340903296546201772798668 1:0.07692308 5:0.125 6:0.25 7:0.25 9:0.125 17:0.125 18:0.38571429 19:0.06666667 29:0.1 30:0.1 34:0.33333334 43:0.40000001 74:0.25 75:0.25 144:0.5 181:0.33333334 186:0.25 189:0.16666667 191:1 200:0.25 262:0.25 278:1 571:0.33333334 608:0.16666667 
2.4288268768448930678971464658389 1:0.03846154 5:0.5 7:0.25 10:0.25 18:0.21428572 19:0.13333333 23:0.14285713 181:0.16666667 183:0.5 184:1 471:1 
3.1266851102976906950914326444035 1:0.01923077 10:0.5 17:0.5 18:0.18571429 183:0.5 
-2.1242028875124963072096306859748 1:0.0096153803 5:1 18:0.27142856 19:0.06666667 
3.1266851102976906950914326444035 1:0.01923077 5:0.5 7:0.5 18:0.3142857 19:0.06666667 181:0.16666667 278:1 
-3.1266851102976906950914326444035 1:0.0096153803 18:0.60000002 96:0.33333334 
-0.55045474789992998587706551916199 1:0.01923077 5:0.5 18:0.40000001 19:0.06666667 96:0.33333334 97:0.5 
-3.1266851102976906950914326444035 1:0.03846154 7:1 18:0.071428567 
-1.7434742327489607394142012708471 1:0.0096153803 7:1 18:0.04285714 357:0.125 
-0.034536805496750248856141496389682 1:0.01923077 7:0.5 18:0.071428567 71:0.5 78:0.33333334 
-0.47948641535949171332831042491307 1:0.31730768 3:0.72727275 4:0.030303029 5:0.060606059 6:0.030303029 7:0.030303029 14:0.060606059 18:0.3142857 19:0.13333333 20:0.2 22:0.29268292 29:0.1 41:0.22222222 44:0.2923077 47:0.2 48:0.16666667 52:0.2 54:0.11111111 56:0.032786891 57:0.40000001 59:0.25 61:0.25 109:0.25 150:0.01333333 170:1 171:0.5 172:0.5 174:0.25 181:0.16666667 247:0.5 278:1 286:0.5 500:1 1150:1 
-0.41384365094488739789113651568186 1:0.11538462 3:0.25 5:0.083333328 7:0.083333328 9:0.083333328 14:0.083333328 16:0.16666667 18:0.40000001 19:0.06666667 22:0.036585368 27:0.14285713 33:0.25 41:0.11111111 44:0.01538462 53:0.14285713 65:0.33333334 68:0.5 96:0.33333334 105:0.5 109:0.25 120:0.33333334 181:0.16666667 259:0.33333334 278:1 406:0.33333334 539:0.33333334 795:1 818:1 
-1.2501002316880331921566948949476 1:0.125 3:0.61538464 17:0.07692308 18:0.18571429 22:0.097560979 27:0.2857143 44:0.07692308 53:0.2857143 55:0.33333334 61:0.25 159:0.5 229:1 526:0.25 564:1 614:0.5 617:0.33333334 
-0.77858059773685994731096116083791 1:0.02884615 4:0.33333334 5:0.66666669 18:0.028571431 19:0.13333333 54:0.11111111 131:0.5 407:1 
2.2607519872491841361750175565248 1:0.04807692 5:0.80000001 17:0.2 18:0.25714287 19:0.26666668 23:0.42857143 229:1 706:1 
-3.1266851102976906950914326444035 1:0.0096153803 17:1 18:0.47142857 
-0.86303588480849569020136868857662 1:0.057692312 5:0.5 12:0.16666667 18:0.32857144 19:0.2 23:0.14285713 27:0.14285713 61:0.25 62:0.5 80:0.5 82:0.5 85:0.25 90:0.33333334 
-2.9149679077745509481189856160199 1:0.02884615 5:1 18:0.35714287 19:0.2 23:0.2857143 
-0.0061298423429473284512747355279316 1:0.125 3:0.53846157 4:0.15384614 5:0.15384614 18:0.1 19:0.13333333 20:0.40000001 22:0.085365847 27:0.14285713 44:0.046153851 46:0.25 47:0.2 48:0.33333334 53:0.14285713 54:0.22222222 56:0.01639344 57:0.2 58:0.2 172:0.5 228:1 
-1.6229935451464816420497072613216 1:0.01923077 6:0.5 18:0.14285713 30:0.1 78:0.33333334 198:1 
2.4188882153948911835072976828087 1:0.03846154 5:0.25 7:0.25 10:0.25 18:0.21428572 19:0.06666667 61:0.25 80:0.5 181:0.16666667 183:0.5 184:1 867:1 
-3.1266851102976906950914326444035 1:0.0096153803 18:0.67142856 96:0.33333334 
-0.65742875710267623112770252191694 1:0.03846154 5:0.5 18:0.01428571 19:0.13333333 24:0.5 26:0.5 61:0.25 80:0.5 82:0.5 
-0.49947700548285833832551361410879 1:0.02884615 5:0.66666669 18:0.028571431 19:0.13333333 61:0.25 80:0.5 82:0.5 
-0.33057861268623139894273776917544 1:0.03846154 5:0.5 7:0.25 18:0.057142861 19:0.13333333 27:0.14285713 62:0.5 81:0.5 322:0.25 1247:0.33333334 
-0.23271795875304090994717398643843 1:0.14423077 3:0.46666667 5:0.13333333 7:0.06666667 14:0.13333333 17:0.06666667 18:0.24285714 19:0.13333333 22:0.085365847 41:0.22222222 43:0.1 44:0.07692308 51:0.125 84:0.25 93:0.33333334 104:0.5 105:0.5 108:0.5 166:0.5 181:0.16666667 278:1 279:0.5 280:0.33333334 304:1 305:1 1151:1 
-0.92299637765239650466497778324992 1:0.04807692 5:0.60000002 6:0.2 17:0.2 18:0.01428571 19:0.2 23:0.14285713 30:0.1 150:0.01333333 247:0.5 251:1 267:0.5 1683:1 
-1.0303720551369230928884235254372 1:0.0096153803 17:1 18:0.3142857 
-0.41690729988956459761695327870257 1:0.04807692 5:0.60000002 18:0.028571431 19:0.2 23:0.14285713 27:0.14285713 61:0.25 62:0.5 80:0.5 82:0.5 
-0.673480568611864893746599136648 1:0.057692312 3:0.33333334 5:0.33333334 18:0.24285714 19:0.13333333 20:0.2 22:0.024390239 26:0.5 42:0.22222222 43:0.2 61:0.25 80:0.5 112:0.5 148:0.2 214:0.5 
-1.3888043348162051326966093256488 18:0.1 181:0.16666667 
-0.21155540681603790531539743824396 1:0.07692308 5:0.125 6:0.125 7:0.25 9:0.125 18:0.12857144 19:0.06666667 29:0.1 43:0.2 75:0.25 130:0.5 142:0.25 143:0.5 144:0.5 181:0.16666667 186:0.25 237:0.33333334 278:1 321:0.33333334 348:0.5 389:0.5 404:1 711:1 773:1 
-2.0154764681952208604798215674236 1:0.01923077 5:0.5 6:0.5 18:0.60000002 19:0.06666667 29:0.1 134:0.5 
-0.28489019661635572866487109422451 1:0.04807692 3:0.40000001 4:0.40000001 18:0.27142856 22:0.024390239 43:0.1 47:0.2 48:0.16666667 51:0.125 54:0.22222222 622:1 623:1 624:1 
-0.37749684684386486388518733292585 1:0.057692312 3:0.33333334 5:0.33333334 6:0.16666667 18:0.12857144 19:0.13333333 20:0.2 22:0.024390239 30:0.1 44:0.01538462 78:0.33333334 137:0.5 198:1 359:1 
-0.096667515002864162765305877655919 1:0.02884615 5:0.33333334 14:0.33333334 18:0.01428571 19:0.06666667 26:0.5 41:0.11111111 43:0.1 160:1 189:0.16666667 212:1 
-0.31916743536012720516836793649418 1:0.067307688 3:0.2857143 5:0.42857143 14:0.14285713 18:0.01428571 19:0.2 20:0.2 21:0.33333334 22:0.024390239 26:0.5 41:0.11111111 109:0.25 150:0.01333333 160:1 247:0.5 256:0.5 658:1 
-0.6941971308956860209349315482541 1:0.01923077 3:0.5 7:0.5 18:0.24285714 22:0.01219512 181:0.16666667 951:0.5 952:0.125 
-0.84866407899345308596394943378982 1:0.03846154 4:0.25 5:0.75 18:0.04285714 19:0.2 23:0.14285713 54:0.11111111 131:0.5 407:1 
-0.43061112339236889967608590268355 1:0.03846154 4:0.25 5:0.5 18:0.028571431 19:0.13333333 23:0.14285713 27:0.14285713 46:0.25 54:0.11111111 131:0.5 
-0.042445791950146555260303671275324 1:0.02884615 4:0.33333334 5:0.33333334 12:0.33333334 18:0.3142857 19:0.06666667 54:0.11111111 85:0.25 131:0.5 498:1 
-0.85149497824888720209912662539864 1:0.01923077 6:0.5 7:0.5 18:0.21428572 30:0.1 181:0.16666667 338:0.25 
-0.29572682623962753822866034170147 1:0.07692308 3:0.5 5:0.25 18:0.34285715 19:0.13333333 21:0.33333334 22:0.04878049 26:0.5 44:0.030769231 56:0.01639344 58:0.2 115:0.33333334 214:0.5 408:1 507:1 
-0.11356345997265694658384660442607 1:0.14423077 3:0.26666668 4:0.06666667 5:0.06666667 7:0.06666667 14:0.26666668 18:0.14285713 19:0.06666667 22:0.04878049 41:0.44444445 43:0.1 44:0.046153851 52:0.2 54:0.11111111 65:0.33333334 105:0.5 109:0.25 115:0.33333334 119:0.25 125:0.5 140:1 181:0.16666667 278:1 370:0.5 371:1 372:1 373:1 
-0.14504409795142236827558690492879 1:0.067307688 3:0.71428573 5:0.14285713 18:0.44285715 19:0.06666667 20:0.2 22:0.060975611 26:0.5 42:0.11111111 43:0.1 44:0.030769231 51:0.125 56:0.01639344 57:0.2 58:0.2 214:0.5 
-0.9883536976425431053172587780864 1:0.01923077 3:0.5 5:0.5 18:0.32857144 19:0.06666667 20:0.2 22:0.01219512 
-0.1397570850726756463977551447897 1:0.1826923 3:0.21052632 5:0.10526316 6:0.10526316 8:0.10526316 14:0.052631579 17:0.052631579 18:0.21428572 19:0.13333333 21:0.33333334 22:0.04878049 27:0.2857143 30:0.2 41:0.11111111 43:0.1 44:0.01538462 51:0.125 53:0.14285713 56:0.049180329 61:0.25 64:0.5 65:0.33333334 68:0.5 96:0.33333334 104:0.5 108:0.5 114:1 118:0.5 120:0.33333334 121:1 132:0.5 139:0.5 141:0.5 217:0.5 229:1 279:0.5 426:0.66666669 436:1 706:1 862:1 932:1 1509:1 
-0.10872637955027027178989129652109 1:0.04807692 5:0.60000002 6:0.2 18:0.01428571 19:0.2 23:0.2857143 30:0.1 78:0.33333334 198:1 359:1 
-0.68645451260826295669659202758339 1:0.0096153803 18:0.45714286 96:0.33333334 
-0.32947432052033581717509491681994 1:0.086538456 3:0.44444445 5:0.33333334 18:0.22857143 19:0.2 20:0.2 21:0.33333334 22:0.04878049 23:0.2857143 26:0.5 27:0.14285713 44:0.01538462 53:0.14285713 55:0.16666667 214:0.5 
-0.98329710734107633740563869650941 1:0.04807692 3:0.2 4:0.2 5:0.2 17:0.2 18:0.38571429 19:0.06666667 20:0.2 22:0.01219512 27:0.14285713 53:0.14285713 54:0.11111111 
-0.19567770226972158731371109752217 1:0.086538456 5:0.22222222 6:0.11111111 7:0.22222222 9:0.11111111 18:0.11428571 19:0.13333333 29:0.1 43:0.2 69:0.5 75:0.25 130:0.5 142:0.25 143:0.5 144:0.5 148:0.2 181:0.16666667 186:0.25 237:0.33333334 278:1 321:0.33333334 348:0.5 404:1 669:0.5 713:0.5 
-0.52386855838913382044097488687839 1:0.04807692 5:0.60000002 18:0.01428571 19:0.2 23:0.14285713 61:0.25 77:0.5 78:0.33333334 80:0.5 82:0.5 
-0.02720705612035569098683396305205 1:0.01923077 7:0.5 18:0.2857143 56:0.01639344 96:0.33333334 181:0.16666667 862:1 1641:1 
0.73680706404865392578074079210637 1:0.01923077 7:0.5 10:0.5 18:0.071428567 181:0.16666667 183:0.5 184:1 
-0.1367943182816331870732540210156 1:0.057692312 3:0.16666667 5:0.33333334 7:0.16666667 16:0.33333334 18:0.028571431 19:0.13333333 20:0.2 22:0.01219512 23:0.14285713 33:0.25 138:1 150:0.01333333 181:0.16666667 506:1 539:0.33333334 1351:1 
-0.6739680370912519702386589415255 1:0.01923077 4:0.5 5:0.5 18:0.17142858 19:0.06666667 54:0.11111111 407:1 
-0.062079657091444896688248178406866 1:0.096153848 5:0.30000001 7:0.2 18:0.1 19:0.2 23:0.2857143 43:0.2 75:0.25 108:0.5 144:0.5 181:0.16666667 186:0.25 189:0.16666667 237:0.33333334 278:1 321:0.33333334 404:1 501:0.33333334 799:0.33333334 1535:1 1599:1 
-0.061987165848803031653613260232305 1:0.057692312 3:0.33333334 4:0.16666667 6:0.16666667 7:0.16666667 18:0.35714287 22:0.024390239 27:0.14285713 30:0.1 44:0.01538462 46:0.25 54:0.11111111 181:0.16666667 252:1 571:0.33333334 1217:0.5 
-0.16626490697358278780804141661065 1:0.096153848 3:0.69999999 4:0.1 5:0.1 16:0.1 18:0.17142858 19:0.06666667 22:0.085365847 33:0.125 44:0.092307687 47:0.2 49:0.25 50:1 54:0.11111111 56:0.01639344 408:1 
2.8016167775637730308346817764686 1:0.01923077 10:0.5 16:0.5 18:0.18571429 33:0.125 183:0.5 215:1 
-0.032733064086563311290145605880753 1:0.125 5:0.46153846 6:0.07692308 7:0.07692308 9:0.15384614 18:0.12857144 19:0.40000001 23:0.2857143 29:0.1 43:0.40000001 69:0.5 75:0.25 96:0.33333334 97:0.5 142:0.25 143:0.5 144:0.5 146:0.5 148:0.40000001 181:0.16666667 189:0.16666667 259:0.33333334 260:1 278:1 335:1 337:0.25 495:0.5 669:0.5 713:0.5 
-0.092482832171563403300673655849096 1:0.10576923 5:0.18181819 7:0.18181819 14:0.090909094 17:0.18181819 18:0.2857143 19:0.13333333 27:0.2857143 38:0.33333334 41:0.11111111 43:0.2 62:0.5 67:0.5 69:0.5 84:0.25 93:0.33333334 110:0.5 123:0.5 142:0.25 181:0.16666667 189:0.16666667 222:0.33333334 229:1 257:0.5 690:1 736:1 813:0.5 
-0.26179899487348534670161370740971 1:0.02884615 5:0.33333334 18:0.028571431 19:0.06666667 61:0.25 78:0.33333334 80:0.5 359:1 
-0.037208002246616467267870120849693 1:0.067307688 5:0.42857143 7:0.2857143 18:0.01428571 19:0.2 23:0.14285713 27:0.14285713 62:0.5 81:0.5 124:0.16666667 150:0.01333333 181:0.16666667 317:1 1351:1 1475:0.5 1896:1 1899:1 1962:1 
-0.0022212686150559607899113157003512 1:0.03846154 5:0.5 7:0.25 18:0.028571431 19:0.13333333 77:0.5 78:0.33333334 181:0.16666667 266:1 359:1 
0.14282579098495065683671612077887 1:0.01923077 17:0.5 18:0.24285714 96:0.33333334 229:1 1833:1 
